
// weight for Expansion Convolution layer has dimension of torch.Size([1, 1, 240, 10])
float MBConv6_4_squeeze_excitation1_conv2d_weights [1 * 1 * 240 * 10] =
{
-0.03723703,      0.05040396,      0.04390125,     -0.00730054,
               -0.14275783,     -0.01563910,     -0.02293462,      0.19865441,
                0.01411189,     -0.02910975,     -0.01850709,      0.19244176,
                0.02474597,      0.01236093,     -0.06556658,     -0.02346920,
               -0.03166533,      0.08910052,     -0.15803130,      0.02861571,
                0.02187431,      0.11145781,     -0.02736095,      0.00710675,
                0.00393927,     -0.01146073,      0.09126849,      0.18453950,
               -0.13208245,     -0.11285918,      0.06655804,      0.08248789,
               -0.00813271,      0.14618948,      0.12274089,     -0.05829371,
               -0.15662991,     -0.10177939,     -0.00131306,     -0.04462890,
                0.08080678,     -0.00496246,      0.00912323,      0.14316401,
               -0.06251913,      0.00869729,      0.07658330,     -0.21261436,
               -0.05159200,      0.01469202,      0.17023873,     -0.04952810,
                0.05685436,      0.07837300,     -0.01507539,      0.07048839,
               -0.23194063,     -0.04208608,     -0.00173509,      0.03557625,
                0.05095844,     -0.03575217,     -0.00796777,      0.07938226,
                0.18252136,      0.38962361,     -0.01559073,      0.00603213,
                0.04077904,     -0.10214409,     -0.06683666,     -0.00103039,
               -0.00600609,      0.04116592,     -0.03357919,      0.00276336,
               -0.04412412,     -0.03720462,      0.05390644,     -0.07063580,
               -0.01025389,      0.14877500,     -0.08503343,      0.02413275,
               -0.09723766,     -0.12401288,      0.26593354,     -0.10232694,
                0.13349725,     -0.07142431,     -0.14438418,      0.01414739,
               -0.07741871,     -0.02564303,     -0.11704489,      0.05308361,
                0.20035399,      0.07396265,     -0.11580314,      0.02449274,
               -0.00162220,      0.63385355,     -0.11029521,     -0.12914667,
               -0.11277252,     -0.04477580,     -0.05925603,      0.25977850,
                0.00415482,     -0.08570448,      0.00524998,     -0.01724998,
               -0.12303313,     -0.05345687,     -0.38072380,     -0.14241590,
               -0.02766431,     -0.01334270,     -0.02374820,     -0.09826303,
               -0.10878089,      0.02573866,      0.04216696,      0.00779351,
                0.17776507,      0.52895319,      0.00996312,     -0.01492721,
                0.02644712,     -0.04171847,     -0.01778466,      0.05564237,
                0.01529017,      0.00295829,      0.00083768,     -0.04484097,
                0.11158475,      0.14141439,      0.02716678,     -0.05620572,
               -0.04875354,      0.01560829,     -0.10837153,     -0.27095273,
               -0.00992195,      0.09269322,      0.02748725,     -0.23589656,
               -0.05416719,     -0.02011109,     -0.02660193,      0.11445593,
               -0.00516667,      0.00553675,      0.03371105,     -0.00345325,
               -0.02475790,     -0.12802166,      0.00056920,     -0.02025180,
                0.09820408,      0.03855442,     -0.00964958,     -0.02858042,
                0.10770509,     -0.02546167,     -0.17024055,      0.00068620,
                0.35289675,     -0.08766723,      0.10233129,     -0.06912369,
               -0.03456237,      0.02581211,     -0.13828112,     -0.04476406,
                0.19533199,      0.00889603,     -0.00303689,      0.10657106,
               -0.07668446,      0.03155934,     -0.06606743,      0.07941897,
               -0.41767487,     -0.02999671,     -0.00627078,      0.02985345,
                0.51809180,      0.10845624,      0.02436222,     -0.15187913,
                0.07665401,      0.03398554,     -0.13393165,     -0.04279725,
                0.35233822,      0.02334557,     -0.00039005,     -0.07632247,
               -0.01291935,      0.01981265,     -0.11345137,     -0.14448906,
               -0.12937331,      0.01185912,      0.00546720,      0.02339053,
                0.00302211,     -0.15282296,     -0.01029444,     -0.39208680,
               -0.23766612,      0.01209233,     -0.01507677,     -0.00663823,
                0.01465043,      0.02514900,     -0.00383962,      0.04298384,
                0.01546410,      0.08919112,     -0.05232081,     -0.01675579,
                0.00389002,     -0.01165751,     -0.05023728,     -0.00036166,
                0.05442257,      0.07753067,     -0.02631692,     -0.05522432,
                0.16822284,     -0.09486303,      0.06528968,      0.00647466,
               -0.02238868,     -0.06174237,     -0.05341320,      0.01245368,
               -0.00259457,     -0.02726471,      0.23285082,     -0.04736517,
               -0.01809386,      0.11363545,     -0.19988838,     -0.01517639,
               -0.01160005,     -0.03926441,      0.09088672,      0.00788972,
               -0.01234594,     -0.16314103,      0.58100027,     -0.01143787,
                0.01701831,     -0.14244854,      0.05031605,      0.09706006,
               -0.04925652,     -0.11799049,     -0.06738918,     -0.07309602,
               -0.00098705,     -0.00142984,      0.07492812,      0.04342783,
               -0.03329869,      0.25001910,     -0.05269902,      0.04422651,
                0.07686489,      0.13828620,      0.00644418,      0.09793471,
                0.07195950,     -0.18057647,     -0.27551773,     -0.01859703,
               -0.51416105,      0.00131691,      0.06162309,      0.01759750,
               -0.05757766,      0.01580482,     -0.07682704,     -0.00724836,
               -0.04843226,      0.06195100,      0.01319401,     -0.00802197,
               -0.07608068,      0.05267157,      0.01103230,      0.04550700,
               -0.06933064,     -0.09065678,     -0.00040046,      0.00524878,
               -0.02878395,     -0.15321098,      0.11381648,     -0.01291467,
                0.14179294,     -0.23036543,      0.09192915,      0.10666756,
                0.10196087,     -0.02818988,     -0.01409715,     -0.15022089,
               -0.00098097,     -0.05660692,     -0.23699133,      0.07989140,
                0.13124245,     -0.07641114,     -0.00765060,     -0.00286752,
               -0.01746693,      0.11138738,     -0.16536841,     -0.02678409,
                0.05389108,     -0.01459445,     -0.00684896,     -0.04888716,
                0.01095188,     -0.28376272,      0.10374329,      0.01903447,
                0.00602163,      0.00496494,     -0.17568377,     -0.06187601,
               -0.07798893,     -0.06466747,      0.25355360,     -0.02469384,
                0.08417765,     -0.03498208,      0.07369974,     -0.12366381,
                0.17512581,      0.00924955,      0.03698242,      0.03087871,
                0.04962404,     -0.05846067,      0.13893503,      0.09025741,
                0.05887929,      0.07406905,      0.49518520,      0.35779548,
               -0.21736391,     -0.05188506,     -0.01548275,      0.20159659,
               -0.01622978,      0.01701625,     -0.06357553,      0.00439723,
                0.22517353,     -0.16087960,      0.09780809,      0.02585376,
                0.01192270,     -0.03159027,      0.00873455,     -0.01495402,
               -0.15834245,      0.10909466,     -0.00925089,      0.07525449,
                0.09734780,      0.12104727,     -0.01662428,      0.09240560,
                0.07265379,      0.05628929,      0.01591361,      0.60269994,
               -0.01940914,      0.07014424,      0.10213104,      0.15423758,
                0.01700116,      0.14566554,     -0.10880490,      0.04291931,
                0.25515929,     -0.08917946,     -0.03498355,     -0.29240298,
                0.03287583,      0.28076762,      0.02164130,      0.10517958,
                0.04788863,     -0.13392203,     -0.11121784,      0.07326860,
                0.06832612,      0.03457380,      0.26688996,     -0.05110232,
                0.34871331,     -0.07790241,      0.19254041,      0.06690197,
                0.04842651,     -0.12467176,     -0.05923056,      0.05051102,
                0.18555571,     -0.02839176,      0.10206790,      0.01324636,
               -0.07376434,      0.13850753,      0.12929229,     -0.72327167,
               -0.43865302,     -0.08832971,     -0.04273859,     -0.03743140,
               -0.10625878,     -0.02396350,      0.06885464,      0.00430716,
                0.13017057,     -0.01579693,     -0.23067899,     -0.06418616,
               -0.16556478,     -0.04235851,      0.03721547,     -0.08210246,
                0.08132377,      0.01660401,     -0.07407427,     -0.70136952,
               -0.01670968,      0.05438065,      0.00619809,      0.02937925,
                0.01577776,     -0.11843846,     -0.07852513,      0.21261436,
                0.07846598,     -0.11851548,      0.10141895,      0.11393360,
                0.04199688,      0.06756868,      0.14474298,     -0.07284480,
                0.05362150,     -0.12335323,     -0.18219920,     -0.06780922,
               -0.02071455,     -0.03483487,     -0.00522289,      0.05706008,
                0.04581385,      0.11567086,     -0.00463959,      0.01124088,
                0.01834336,      0.17148383,     -0.05919277,      0.08049276,
               -0.13321151,     -0.07424401,      0.11759312,     -0.03877239,
                0.04301932,     -0.00516064,      0.25242120,      0.04552361,
                0.01792238,      0.03338627,     -0.01355742,     -0.09331658,
                0.07069566,     -0.01861898,     -0.02597846,     -0.00517841,
                0.00973984,     -0.02005789,     -0.05245920,      0.06479989,
               -0.12413330,      0.05276661,     -0.12103879,     -0.01115697,
                0.05177331,     -0.06857666,      0.08184981,      0.03236089,
                0.07403240,      0.11698472,      0.16641708,     -0.00935102,
                0.02197386,      0.05967007,      0.08688769,      0.19541709,
               -0.01032438,     -0.32342640,      0.44359347,      0.07650921,
                0.14516532,     -0.11565228,      0.01613300,     -0.01949195,
                0.17100099,      0.00030739,     -0.09429489,      0.08572734,
                0.03061124,      0.01477272,     -0.01613589,     -0.13188557,
                0.24511579,      0.19426329,      0.02526455,      0.07545298,
                0.07758814,      0.04970999,      0.03935320,      0.06057826,
                0.08269721,      0.00028303,      0.11181345,      0.04500833,
               -0.04180899,      0.03396297,     -0.11810935,      0.01760015,
                0.05530174,     -0.17257705,      0.09768320,     -0.02432320,
                0.08793318,      0.03379874,      0.01072593,     -0.04531836,
                0.05459611,      0.05106623,      0.02896717,      0.05708744,
               -0.19326194,      0.09263233,      0.05886773,     -0.03057441,
               -0.05335122,      0.30830732,     -0.00877364,     -0.03949454,
               -0.02598822,      0.03515974,     -0.05795755,     -0.15146394,
               -0.08848158,      0.06222491,      0.10526898,      0.03625717,
                0.04205783,      0.09561977,     -0.34315085,      0.03130329,
               -0.04007913,      0.08595502,      0.03491163,      0.04286383,
                0.07262640,      0.17373951,      0.13316697,      0.03130490,
               -0.09149623,      0.10677759,      0.13890257,     -0.02867047,
               -0.02173034,      0.12474907,     -0.02102037,      0.04327090,
               -0.07038650,     -0.00468789,     -0.30038247,      0.29409862,
               -0.22704168,     -0.00655662,      0.05080742,      0.08588893,
                0.00682302,      0.06719436,     -0.05678985,     -0.02022229,
               -0.03241570,      0.11785322,      0.10335584,      0.01216182,
                0.05130987,     -0.21119894,     -0.02046034,      0.00943817,
               -0.09762935,      0.11338078,      0.04150659,      0.06738678,
                0.08485988,      0.04722683,      0.00752592,     -0.00273016,
                0.02800950,      0.04179508,      0.06787469,     -0.41039249,
               -0.02235574,      0.13635653,      0.02448909,      0.00588647,
                0.09681406,      0.11635899,      0.03190213,     -0.02622467,
               -0.07519446,      0.07912444,      0.02670918,      0.01307018,
                0.12545896,      0.07030179,      0.07983133,      0.07168443,
                0.03803232,      0.03221354,     -0.01085837,      0.06113454,
                0.12262493,     -0.01472966,     -0.06203434,      0.09230886,
               -0.31680110,      0.01323904,     -0.03952934,      0.04690428,
                0.04054867,     -0.08230565,     -0.39954150,      0.01159006,
               -0.08021925,     -0.09617772,     -0.06203495,     -0.04483256,
               -0.24234597,      0.08084788,      0.25465164,     -0.10595879,
                0.06647725,      0.07589098,      0.02625219,     -0.01062716,
               -0.04082958,     -0.00828766,      0.05713329,      0.04995828,
               -0.08663464,      0.05883903,      0.25267568,      0.17265116,
               -0.09089760,      0.00000583,      0.06843776,     -0.05917129,
                0.00652023,      0.01911032,      0.12514453,      0.09506682,
                0.01309465,     -0.02626326,      0.00599971,     -0.01787962,
                0.01871390,      0.07616112,     -0.01246894,     -0.01179885,
                0.00066368,      0.07534445,      0.07149599,      0.16656163,
                0.11322416,      0.04115749,      0.06617733,     -0.03306698,
                0.05928008,      0.44365856,      0.16442078,      0.05832110,
               -0.03122166,      0.03574579,     -0.06123653,      0.06858952,
                0.04054222,      0.06354062,      0.00067498,     -0.01987302,
               -0.18747160,     -0.12485126,     -0.04951973,      0.01981136,
                0.06862498,     -0.00000538,     -0.00553307,     -0.04287084,
               -0.05567906,     -0.27951017,      0.02746772,     -0.01624847,
                0.26963171,     -0.06804480,      0.01834485,      0.05999315,
                0.26111963,      0.03388992,     -0.01197852,     -0.08363955,
                0.06732502,      0.03088379,     -0.16705850,      0.01233441,
                0.05779895,      0.01494701,     -0.04267466,     -0.01320677,
               -0.02334843,      0.02500448,     -0.03615249,     -0.04585405,
                0.03602505,      0.05362191,      0.00615291,     -0.10085440,
               -0.03904651,     -0.04700222,      0.03203416,      0.13142359,
               -0.06072001,      0.04126599,     -0.77588493,      0.07286876,
                0.08886260,     -0.07823463,     -0.08965330,     -0.02647899,
                0.00896696,     -0.07977580,      0.10047452,      0.04322591,
                0.01084852,     -0.01304520,      0.01473406,      0.05690413,
               -0.05231190,     -0.02295239,      0.17582881,      0.03733323,
               -0.00987808,      0.05663823,     -0.06986333,     -0.05576260,
               -0.04666174,     -0.04094519,     -0.10136359,      0.04340751,
                0.17103234,      0.05401046,      0.00289073,     -0.08361597,
                0.04637647,     -0.04803347,      0.03390175,     -0.14880283,
                0.00361480,     -0.06975158,     -0.05450010,      0.02744245,
               -0.05241999,      0.06998308,     -0.03846059,     -0.09827426,
               -0.12766071,      0.07128305,      0.03626705,     -0.04955158,
                0.07947539,      0.41629860,     -0.11171158,     -0.00886851,
               -0.38974762,     -0.00420049,      0.07566774,      0.04701773,
                0.07019068,     -0.03468147,     -0.08631107,     -0.00874672,
               -0.03025417,      0.17211950,      0.00260676,      0.03223478,
                0.04201060,     -0.00537677,      0.08054579,      0.02913713,
                0.00627171,     -0.05559701,      0.04653034,     -0.14414285,
                0.01270974,     -0.04641083,      0.02747936,     -0.05234400,
               -0.11426368,     -0.06333710,      0.11189366,      0.22147299,
                0.07690019,     -0.05625172,      0.08543599,      0.02317281,
                0.01318169,     -0.04310965,     -0.02483469,     -0.05813960,
               -0.04468189,     -0.01818161,      0.15566900,      0.21599187,
                0.11424210,      0.09400189,      0.00258329,     -0.03705622,
               -0.00147022,     -0.03377143,     -0.01404727,      0.05862335,
               -0.13503537,     -0.00244587,     -0.47667536,      0.04222103,
                0.12447231,      0.03358047,      0.04582782,     -0.08237016,
                0.30947286,      0.10261770,     -0.00223672,     -0.01037625,
                0.02532803,      0.14412010,      0.00672607,      0.09768271,
                0.04127782,      0.08290830,     -0.00789623,     -0.00709905,
                0.07009879,     -0.08422371,     -0.07187850,     -0.01509234,
               -0.00772917,     -0.02808407,      0.06269926,      0.06072479,
                0.07148322,     -0.02563666,      0.01216967,     -0.08657421,
                0.16058186,     -0.05117379,     -0.00829187,     -0.04979634,
               -0.16753171,     -0.01779218,      0.04484042,     -0.00525182,
               -0.08621119,      0.04172682,     -0.01499328,     -0.05826760,
                0.02243041,      0.08295361,     -0.07102606,      0.01577931,
               -0.40985310,     -0.12059508,      0.02835423,      0.05375584,
                0.05358819,      0.07362814,      0.01543231,     -0.04970949,
                0.05683963,      0.29360241,      0.00754257,     -0.12992798,
               -0.30630177,      0.01633633,     -0.11312520,     -0.02218044,
               -0.02827029,      0.05882385,     -0.03991937,      0.62901545,
               -0.06512292,     -0.15486009,     -0.13575023,     -0.08544618,
                0.06466785,      0.00981599,     -0.01162643,     -0.09147409,
                0.01065066,      0.04092130,     -0.03880946,     -0.05856866,
               -0.12509112,      0.06441650,      0.03582927,      0.08519816,
                0.06717489,      0.00304666,      0.05274732,      0.04221802,
                0.00774351,      0.50994372,     -0.08652469,     -0.09253591,
               -0.06034766,      0.01547248,      0.00904481,      0.04332502,
                0.07928833,      0.16393255,      0.00057452,     -0.10318657,
                0.00759903,      0.12254584,     -0.05985517,     -0.02258624,
               -0.01148311,     -0.03228664,      0.00876253,      0.23058702,
               -0.04472866,      0.09990558,     -0.02884094,     -0.02661569,
               -0.07139514,     -0.01718166,     -0.00860815,     -0.01871320,
                0.00601820,     -0.03084250,      0.21481352,     -0.12648547,
               -0.07491563,      0.02862236,      0.11655459,     -0.06091350,
               -0.08461727,     -0.02111349,     -0.00160513,      0.03215950,
                0.03699210,      0.09584747,     -0.06528410,     -0.02955864,
                0.08718807,     -0.02033386,     -0.08059978,     -0.12253177,
                0.05624710,      0.13239463,     -0.12136598,      0.00072648,
               -0.06216106,      0.06385262,      0.03619320,      0.17198816,
               -0.02419618,     -0.10286040,     -0.08565203,      0.09041183,
               -0.00988474,     -0.14148690,      0.03183540,      0.11680242,
                0.07852634,      0.10514673,     -0.00945874,     -0.14300501,
                0.12648679,     -0.08757915,     -0.14451206,     -0.00947797,
                0.10963956,      0.03415212,      0.02537320,      0.01601101,
               -0.04992085,     -0.01929548,     -0.00088477,      0.04314108,
                0.02568555,      0.07948975,     -0.20766354,      0.03892509,
                0.08420346,     -0.03344133,      0.13961622,      0.14258310,
                0.04561097,      0.04465476,     -0.05462724,      0.00353553,
               -0.02835273,      0.12513664,     -0.05381352,     -0.03033101,
                0.02714482,      0.03823815,      0.03152947,     -0.00704185,
                0.03961786,      0.07254566,      0.02003121,      0.13524106,
                0.11185827,      0.00739824,      0.00625055,      0.17326610,
                0.00694770,      0.04490834,      0.06320410,     -0.02410624,
                0.09189346,     -0.08884057,      0.95046514,     -0.12225166,
               -0.15956727,     -0.09326842,      0.00318320,     -0.15501009,
                0.02422083,      0.03287585,      0.02509521,     -0.02636506,
                0.08316735,     -0.07788142,     -0.04839312,      0.00804767,
               -0.02666885,      0.09394084,      0.08475520,     -0.00104409,
                0.16811083,     -0.10062555,     -0.09056595,      0.06720193,
                0.70296049,     -0.01828309,      0.02885987,     -0.01597621,
                0.05897540,     -0.15082401,     -0.07028636,     -0.06288091,
                0.10083985,     -0.13995542,      0.24330901,      0.04763218,
               -0.00102044,      0.10649192,      0.07049274,     -0.04018070,
                0.04167877,      0.11863529,      0.01840756,      0.03938206,
               -0.39906496,      0.03016996,      0.11013127,      0.07273235,
                0.01177830,      0.00228946,      0.02317529,     -0.25129664,
               -0.06309392,      0.08461097,      0.07102467,     -0.03240136,
               -0.00962687,      0.12103471,      0.03266149,      0.00472436,
                0.14313953,     -0.02855099,     -0.09146773,     -0.04974566,
               -0.08323704,     -0.13117215,     -0.02744118,      0.10292023,
               -0.08071583,      0.35170498,      0.14441453,     -0.05892407,
               -0.04719036,     -0.02350824,      0.01329816,     -0.09657743,
                0.10574282,     -0.00829827,     -0.08855202,      0.09560939,
                0.12798317,     -0.11137152,     -0.02780539,      0.05475127,
               -0.13805377,      0.02749536,     -0.01843238,      0.07210809,
                0.21665424,      0.02419746,      0.00146706,     -0.03452870,
               -0.00972421,     -0.05621772,     -0.08110938,     -0.01761254,
                0.03823722,     -0.08836984,      0.03010842,      0.08434586,
               -0.09064359,     -0.02013646,     -0.00161078,      0.07594381,
               -0.09503591,     -0.14534721,      0.01548741,      0.00487190,
               -0.05800766,      0.06784664,      0.18234980,     -0.09626243,
               -0.01199124,     -0.07682028,     -0.02731433,      0.04918834,
               -0.11654411,      0.03356851,      0.06100528,     -0.02721281,
                0.05447041,      0.04300825,      0.08251447,     -0.00426058,
                0.06200501,     -0.04070845,      0.04593933,     -0.01590131,
                0.02822757,      0.07720435,      0.06994811,     -0.08950380,
                0.12008793,      0.04260127,      0.04222431,      0.09792561,
                0.00352941,      0.04368850,      0.05444395,     -0.02559439,
                0.06248301,      0.06729914,     -0.11307240,     -0.01462721,
               -0.01106580,      0.05733765,     -0.01768106,      0.04464838,
               -0.01110428,     -0.31498656,      0.01460150,     -0.04680478,
                0.12926325,      0.03842882,     -0.00978106,      0.07057468,
               -0.00160168,      0.01877446,     -0.04649073,      0.28457659,
                0.03360808,      0.05449038,     -0.27156737,      0.00279194,
               -0.16823232,      0.08807214,      0.08092278,     -0.03771240,
               -0.05121333,      0.13139945,      0.11397385,     -0.00950444,
                0.05432308,     -0.01156305,      0.08096505,      0.09198803,
               -0.06425916,     -0.20398512,     -0.06590731,      0.12587163,
               -0.01902419,      0.09680959,      0.41139528,     -0.10741234,
               -0.05234876,     -0.16151433,     -0.01750765,      0.06263743,
               -0.04134475,     -0.02369564,     -0.00309831,      0.04081494,
               -0.01679266,      0.04652685,      0.01165200,     -0.03634755,
                0.04927418,      0.04672397,      0.16251224,      0.00357568,
                0.06556926,      0.02777414,     -0.05832125,     -0.00413276,
                0.02633499,      0.03955757,     -0.04491617,      0.06513059,
               -0.00959800,      0.10006883,     -0.00137012,      0.05349999,
                0.02814939,      0.02775394,      0.13911678,      0.02827000,
               -0.02348918,     -0.03879020,     -0.04444654,      0.03767285,
               -0.06588162,      0.01237725,     -0.06094049,     -0.05355939,
               -0.16413575,      0.07970079,      0.01246678,     -0.01607589,
               -0.00506438,      0.15304291,      0.07869384,      0.01118954,
                0.08228790,     -0.04390005,      0.09147405,     -0.11541953,
               -0.03975276,     -0.05351431,      0.03180989,      0.00067258,
               -0.04391382,      0.00074961,     -0.01843622,      0.02399679,
                0.17238034,     -0.05630513,      0.18136057,     -0.03298234,
               -0.08467647,     -0.15598479,      0.07069112,     -0.16978563,
                0.05922554,     -0.07436331,      0.10479876,     -0.01991531,
                0.11767054,     -0.07031901,      0.27922702,      0.07480766,
                0.09218355,      0.16836675,      0.12393110,     -0.01921480,
                0.21997194,      0.05574402,     -0.04888245,      0.06306584,
                0.00831490,     -0.03105227,      0.11321648,      0.17717342,
                0.06379018,      0.07279980,      0.07712200,      0.07609328,
                0.06888755,     -0.07118268,      0.08081153,      0.00302434,
                0.08724644,      0.10614407,      0.08411802,     -0.01888855,
               -0.04819672,     -0.00288390,      0.00114064,     -0.01344822,
               -0.18109542,      0.05513984,      0.00083555,     -0.03983737,
               -0.01789631,      0.03970957,     -0.00116034,      0.01900710,
               -0.02626314,      0.13064168,     -0.01374571,     -0.29828161,
                0.10251983,      0.00835023,     -0.07168202,      0.02884690,
               -0.11185988,     -0.06055077,      0.09254867,      0.06644699,
                0.11873151,     -0.16796981,      0.03534039,     -0.06216887,
                0.10979841,     -0.19289818,     -0.00539154,     -0.03704559,
               -0.02078266,     -0.02886946,     -0.02322629,     -0.01884390,
                0.04221438,      0.11510141,      0.04723960,     -0.03045511,
               -0.04660198,     -0.11115802,      0.32873318,     -0.06682958,
               -0.05081315,     -0.02654812,      0.05666541,      0.06453361,
                0.03466246,     -0.08063199,     -0.07191255,      0.22271447,
               -0.17490116,     -0.00871422,      0.03106064,      0.13701387,
                0.15550871,      0.05589418,     -0.00225197,     -0.01063731,
               -0.08054499,     -0.03763188,     -0.01660978,      0.32036856,
                0.00305385,     -0.02648391,      0.01225110,     -0.12227768,
               -0.01550307,     -0.06533165,     -0.00126991,      0.01514173,
               -0.00385058,     -0.03675737,      0.01937863,     -0.06951068,
               -0.02535235,      0.05205905,      0.08798785,      0.03997488,
                0.03415467,      0.13720287,      0.05011816,     -0.08957501,
                0.01719078,     -0.55144167,      0.18798493,     -0.07102529,
               -0.07348739,     -0.00000899,      0.06312596,      0.07108755,
                0.04610317,      0.08110156,      0.04358226,      0.05657220,
                0.01624669,      0.00768457,     -0.07679345,      0.00192662,
               -0.03313302,     -0.01709101,      0.20911430,      0.11978742,
               -0.04650655,     -0.00278252,     -0.11535031,     -0.00233375,
                0.04996044,      0.09212968,     -0.00078898,     -0.11727256,
                0.00518072,     -0.07216940,      0.03661935,      0.06914710,
               -0.06165187,     -0.05703050,      0.19549404,     -0.05543238,
               -0.06543781,     -0.06492739,     -0.20211616,      0.00293822,
               -0.09959626,     -0.01690022,     -0.05064855,     -0.04753166,
                0.07343218,      0.01237725,     -0.02864064,      0.04921022,
               -0.09913938,     -0.06601080,      0.09888374,     -0.02879456,
               -0.00137050,      0.12660758,      0.42403823,      0.11786034,
                0.06260289,     -0.11423998,      0.03150434,     -0.06379230,
                0.12225126,     -0.03204858,     -0.15445712,      0.05151559,
                0.08094174,     -0.01331426,      0.13776292,      0.09952772,
               -0.23862204,     -0.11721594,     -0.02280489,     -0.02184870,
               -0.00322792,      0.01376613,      0.04387917,     -0.15750331,
               -0.14447963,      0.11952912,     -0.05329209,      0.12272816,
               -0.21525440,      0.03300190,      0.08761282,      0.05091806,
               -0.04662554,     -0.02851556,      0.08516601,      0.10069352,
               -0.02593242,      0.05503552,      0.03756161,     -0.00062510,
               -0.08368535,     -0.03909338,      0.02297327,     -0.01204116,
               -0.06195128,      0.10709203,     -0.05512508,      0.03478022,
               -0.07183439,     -0.35867339,     -0.17604774,      0.01750006,
               -0.01289098,     -0.10757174,     -0.07464351,     -0.14501625,
                0.03802424,      0.06280007,      0.01195045,     -0.06321868,
               -0.12051436,     -0.04752513,     -0.34457996,      0.13511607,
                0.03604445,     -0.11025414,      0.23735492,      0.13454963,
               -0.05057612,     -0.12593894,     -0.20067079,     -0.17153920,
                0.00513574,     -0.18068482,     -0.07425294,     -0.04285252,
                0.09495726,     -0.20114857,      0.24877883,     -0.16140616,
                0.16640288,     -0.04089557,     -0.08259040,      0.11498745,
               -0.01125056,     -0.03615737,     -0.10298281,     -0.12205355,
                0.06078570,      0.11084475,      0.00873753,      0.07632700,
                0.18797512,     -0.07378821,      0.18972537,     -0.01097284,
               -0.01214419,      0.01827533,      0.04100274,     -0.01931924,
                0.04108623,      0.01908832,      0.15451056,     -0.03907217,
               -0.02656755,     -0.08895851,     -0.08992971,      0.01030706,
                0.09847302,     -0.03089630,     -0.03279015,     -0.12725325,
                0.06353890,      0.04173543,     -0.04039744,      0.23244894,
               -0.09926891,      0.12888196,      0.04905393,      0.06560046,
               -0.13729310,     -0.07735004,     -0.06958637,      0.02665150,
               -0.09819338,     -0.11132259,     -0.15026699,      0.03865616,
               -0.01303629,     -0.15406024,     -0.08872107,     -0.01104008,
               -0.01347967,      0.09207000,     -0.05002204,     -0.02025648,
               -0.14482211,      0.03168023,      0.07525007,     -0.02303586,
               -0.05721058,      0.04283696,      0.08782756,      0.01691915,
                0.02148134,      0.03360938,      0.12957960,      0.06926240,
                0.45246941,      0.01561282,     -0.13614504,      0.16213335,
                0.23848058,     -0.06527513,     -0.09541248,      0.11907296,
               -0.00520871,      0.11199152,     -0.03201687,     -0.00908078,
                0.01667336,     -0.00683992,     -0.12491249,      0.03377200,
               -0.05665240,     -0.09788438,     -0.07449052,      0.01916622,
               -0.01245086,      0.01803375,     -0.23528500,     -0.02482951,
               -0.18752196,     -0.03370205,      0.09599941,      0.02552247,
                0.05259290,     -0.17633395,     -0.00666451,     -0.29835862,
                0.05898784,      0.05542932,      0.03310825,     -0.13929169,
               -0.01519194,     -0.09783187,      0.06951652,     -0.04009426,
               -0.04292712,      0.04117271,     -0.18253435,      0.02279187,
                0.01788124,      0.03020791,     -0.06342997,      0.09288189,
               -0.02233187,      0.07224797,     -0.08546206,     -0.01679335,
                0.09933663,      0.25236219,     -0.05891059,      0.04213893,
               -0.10387267,     -0.05018209,     -0.01626926,     -0.03267029,
               -0.04452368,      0.03019275,      0.30248964,     -0.02671387,
               -0.07731918,      0.05986004,      0.08301383,      0.56219721,
               -0.13563240,     -0.10807791,     -0.05607075,      0.13607442,
                0.07158317,     -0.03071474,     -0.44506255,     -0.01176500,
               -0.03765292,     -0.14181440,      0.40735129,      0.04625734,
                0.18884550,     -0.15974943,      0.08841883,      0.03190931,
               -0.01338039,     -0.10526828,     -0.15711655,     -0.12724288,
               -0.11549856,      0.00241552,     -0.06338622,     -0.02166601,
                0.02688301,     -0.19387108,      0.09041037,     -0.06835148,
                0.01743488,     -0.27709696,      0.12892888,     -0.08504594,
               -0.38210443,      0.03627492,      0.09413228,     -0.00942426,
                0.03033621,     -0.06329454,      0.10128295,     -0.09949207,
                0.07419860,      0.07673567,      0.16307482,      0.02378423,
               -0.10627013,     -0.00205042,     -0.00435954,      0.08255728,
               -0.33292285,     -0.02482042,      0.05855742,      0.12106512,
               -0.01399068,     -0.05452608,     -0.00462932,      0.00133234,
                0.31459883,     -0.00790158,      0.02669261,     -0.06052758,
                0.04806327,     -0.11982253,     -0.09762954,      0.05143132,
               -0.07054201,     -0.04810473,      0.04438742,      0.01179990,
                0.01526124,     -0.25735787,      0.02751056,     -0.08707093,
               -0.01142955,     -0.12098165,     -0.13624020,     -0.08436348,
               -0.04099524,     -0.08112624,      0.63465232,     -0.03153868,
                0.06826965,      0.05230119,     -0.04881737,     -0.00904287,
               -0.01483790,      0.00666655,      0.11975016,      0.10236833,
                0.43458691,      0.14757384,     -0.02369265,     -0.04281183,
                0.03272951,      0.31408256,     -0.02562662,      0.04933835,
                0.01033839,     -0.05162664,      0.18361151,      0.10023407,
               -0.12086654,     -0.07831712,      0.05996457,      0.04833647,
                0.10971732,     -0.03033737,     -0.05941469,      0.37847608,
                0.30054101,     -0.16025662,     -0.04372324,      0.00216035,
               -0.14742304,     -0.00589656,     -0.07715350,      0.02679399,
               -0.09241239,      0.90934277,      0.06735165,     -0.01431975,
                0.02328450,     -0.16683368,     -0.02511459,      0.07466338,
               -0.12520243,      0.01008142,     -0.06592602,      0.14203879,
                0.06170966,      0.31044486,     -0.04159876,     -0.06191698,
                0.00452702,     -0.08175587,     -0.05254754,      0.19837107,
               -0.07159134,     -0.02549326,      0.05627010,      0.23381804,
                0.00864131,     -0.01489549,     -0.03739219,      0.04239390,
                0.16234282,      0.02051707,     -0.03596408,      0.03953661,
               -0.05219163,     -0.05308195,     -0.19549036,      0.00385170,
               -0.05796756,      0.04118141,     -0.01553444,     -0.05739070,
                0.00144805,     -0.02184349,      0.12004580,     -0.05557365,
                0.06184620,     -0.10482385,      0.13665769,     -0.02627145,
               -0.32528737,     -0.07915414,      0.11272111,     -0.01541090,
                0.10131619,      0.07373518,     -0.10583980,     -0.07828128,
               -0.18627928,     -0.06182747,     -0.06798554,      0.28370416,
               -0.44023386,     -0.03150869,      0.03382553,      0.05642849,
                0.38213494,     -0.00718982,     -0.01022583,     -0.05377457,
               -0.07569281,     -0.02623302,     -0.26481059,     -0.06094307,
                0.24196324,      0.03402051,     -0.06882840,     -0.05107289,
                0.01857826,      0.07263877,     -0.07062874,     -0.34355286,
               -0.02635958,      0.04312593,     -0.09859734,     -0.02227926,
               -0.06419019,     -0.22992739,      0.15256450,      0.11651538,
               -0.38535455,     -0.07393043,      0.02495599,      0.00906155,
                0.03568862,      0.03055057,      0.06145090,     -0.02655935,
               -0.02077064,      0.30162144,     -0.35839856,     -0.05114685,
               -0.12590630,     -0.00151108,      0.00679514,     -0.01570867,
                0.06980693,      0.03107051,      0.07085573,      0.02345033,
               -0.22680838,      0.03257227,     -0.05825171,     -0.04225203,
                0.11469006,      0.04554077,     -0.20121008,      0.16243169,
                0.04700409,      0.17075188,      0.07238261,     -0.05047462,
               -0.00161586,     -0.01074516,      0.04593222,     -0.07314494,
               -0.00743913,      0.03269460,     -0.03684533,      0.00668137,
               -0.05726217,     -0.01207758,      0.19584364,     -0.04633318,
                0.15828981,     -0.26811531,     -0.02261535,      0.04795253,
               -0.13440838,      0.16205497,      0.00930832,     -0.07680570,
               -0.00421682,     -0.07370274,     -0.02165868,      0.03654713,
               -0.02453545,      0.12891385,     -0.07025186,      0.01592652,
               -0.00139143,      0.26239699,     -0.07471779,      0.14612140,
               -0.15093035,      0.20795782,      0.05208681,     -0.01225336,
               -0.00206239,      0.04338682,     -0.09649470,     -0.01627035,
               -0.05172255,     -0.06596598,     -0.01380069,      0.30590716,
               -0.31842530,     -0.08265379,     -0.14892006,     -0.02801702,
               -0.19983630,     -0.01564550,      0.08248988,     -0.02239662,
                0.15961562,      0.12207484,      0.04394335,      0.02342731,
               -0.00194443,      0.06248606,      0.05144920,      0.10151365,
               -0.18214092,     -0.26948485,      0.00491937,      0.14361992,
               -0.07513625,     -0.00816752,     -0.06235726,     -0.05541592,
               -0.01968548,      0.11942898,      0.12111050,     -0.01800265,
                0.09377847,     -0.02507180,     -0.08007491,     -0.08786841,
                0.04874485,      0.03183059,     -0.10418262,     -0.04761523,
               -0.00041677,      0.12011865,     -0.03730114,      0.11741199,
                0.14642090,      0.12948228,     -0.01019220,      0.01655806,
                0.06989172,     -0.17428167,      0.11817965,     -0.05615976,
               -0.03136290,     -0.08639511,      0.08991004,     -0.04381964,
               -0.05980422,     -0.11664488,      0.04749227,      0.23674360,
               -0.13565151,     -0.07511848,     -0.00492630,      0.07222931,
                0.05318716,     -0.20286110,     -0.22307909,     -0.02657473,
                0.23878598,      0.00795879,      0.29698464,     -0.52860725,
               -0.01489634,     -0.05945344,      0.05812501,     -0.04370414,
                0.05614386,      0.05139439,      0.26158503,      0.00728898,
               -0.01006900,      0.04288454,      0.04400212,     -0.03897596,
                0.02706611,      0.18966217,     -0.02197288,     -0.17069927,
                0.05672666,      0.05207307,      0.12915821,      0.07849156,
               -0.00697786,     -0.14513889,      0.10711827,      0.01744514,
                0.11062302,     -0.06204994,      0.10673779,      0.15949668,
               -0.00543051,      0.04379188,     -0.01067992,     -0.00359217,
               -0.03608632,      0.05243403,      0.08460943,      0.11922687,
               -0.40163648,      0.14069942,      0.04367492,     -0.01927903,
               -0.00532195,     -0.04124816,      0.13096075,      0.05177756,
               -0.00721282,     -0.02371151,     -0.02783504,      0.01131637,
               -0.03052300,      0.00452453,      0.13499066,     -0.07840350,
               -0.03405762,     -0.01500122,     -0.02004200,      0.08226119,
                0.08541167,     -0.09496677,      0.05791340,     -0.02837952,
                0.06242024,     -0.06815314,     -0.03792001,      0.00654821,
               -0.03245736,      0.05076737,     -0.03892956,      0.40618524,
                0.68996054,      0.14838775,     -0.03140702,      0.02380119,
               -0.42850444,      0.10549226,     -0.04364274,      0.05612418,
                0.10883418,      0.01660888,      0.29773608,     -0.13212252,
                0.10694523,     -0.05613355,      0.09889664,     -0.14797232,
               -0.04602576,     -0.06011046,     -0.04372286,      0.28638315,
                0.03381907,     -0.05831769,      0.01865113,      0.08148167,
                0.03617520,      0.26363757,      0.02372737,     -0.01038840,
                0.08815852,     -0.05469774,      0.07823984,     -0.01819307,
               -0.07608176,      0.01601431,      0.00456307,      0.02391163,
                0.00176929,     -0.02070742,     -0.03977149,     -0.00441804,
               -0.03702655,      0.02644840,     -0.03278181,      0.01441615,
               -0.20111632,     -0.04814015,     -0.10055143,      0.17264165,
                0.30561844,     -0.13786119,     -0.05095366,      0.04417145,
                0.10081518,      0.10120451,     -0.03356712,     -0.02794565,
                0.00683918,      0.22534250,     -0.10207758,      0.00231207,
               -0.21156901,     -0.05580458,     -0.12441217,     -0.09721208,
               -0.11856566,     -0.01686078,      0.23386802,     -0.23017380,
               -0.10602478,     -0.00509752,     -0.07034940,     -0.00560596,
               -0.00672195,      0.14215867,      0.15336600,     -0.11875226,
               -0.11623229,      0.29685590,      0.09575898,     -0.05696006,
                0.14181092,      0.09261514,      0.01168113,     -0.11690989,
               -0.00426917,      0.18649171,      0.11656787,     -0.00862716,
                0.07058152,      0.23244117,     -0.28491834,      0.18397735,
                0.10244361,     -0.07057151,     -0.01283177,      0.07132341,
                0.03178790,     -0.03412355,      0.10016062,      0.03914899,
               -0.07409765,      0.16855618,      0.00388113,     -0.07301380,
                0.15306076,      0.14217338,      0.16164562,     -0.03102018,
                0.18971501,     -0.05684537,      0.03797195,     -0.08477508,
                0.04599340,     -0.04601177,     -0.02437785,     -0.01593369,
                0.07938498,      0.02299281,      0.08445640,     -0.06577864,
                0.01831498,      0.15967983,      0.06465521,     -0.00145370,
                0.07933353,      0.10044835,      0.03689687,     -0.03066949,
               -0.06316686,      0.24192958,     -0.04267814,     -0.12283542,
                0.07715860,      0.18602729,     -0.03973260,      0.02406724,
               -0.02377975,     -0.05411097,      0.14915803,      0.10727184,
                0.09838158,     -0.07834339,     -0.05971449,     -0.00478732,
               -0.01942839,     -0.15103549,      0.29824892,      0.00279060,
               -0.01799013,     -0.04922980,     -0.03414564,      0.00718540,
               -0.17544931,     -0.16182406,      0.31402820,      0.08038675,
                0.04274839,     -0.28792852,      0.22708756,     -0.23200257,
                0.09334392,      0.02404078,     -0.03769426,      0.01040845,
                0.03468149,     -0.09840254,      0.89595711,     -0.05850067,
                0.05244961,     -0.10250558,     -0.14381160,      0.19958255,
               -0.20051859,      0.04857107,      0.00136053,      0.29202726,
                0.10873295,      0.10557655,      0.06476091,     -0.17925158,
                0.33340663,     -0.11682681,      0.11518583,      0.14477482,
                0.12402108,     -0.13443969,      0.08519618,      0.09019494,
                0.04177990,      0.07256255,     -0.23166460,     -0.04372250,
               -0.10516556,      0.04203943,      0.04148477,      0.07712921,
               -0.03178025,      0.18406898,     -0.07265789,     -0.04599489,
                0.11177268,     -0.00640673,     -0.03388343,     -0.05641793,
                0.00171932,      0.17060171,     -0.02775970,     -0.01087620,
                0.01465123,      0.02090276,     -0.04463328,      0.14411095,
               -0.03799868,      0.10494384,     -0.03427124,      0.10514238,
               -0.06489212,     -0.12146984,      0.21489118,     -0.07570277,
               -0.05517844,      0.02112120,     -0.14388213,      0.02472192,
               -0.13215277,      0.02114380,     -0.12528077,      0.09149086,
                0.04847706,      0.01307080,      0.13854840,      0.08102602,
               -0.10080452,     -0.12771295,     -0.08534915,     -0.04584692,
               -0.30775443,     -0.03200837,      0.05229990,      0.01569566,
                0.12743282,      0.04314762,     -0.05273865,     -0.17391142,
               -0.03813124,     -0.21723683,      0.01504327,      0.13339651,
                0.04194875,      0.07873391,     -0.09288167,      0.07817402,
               -0.18976420,     -0.01398555,     -0.07867087,      0.00712418,
                0.04868203,      0.07947180,      0.26656842,      0.05001672,
               -0.07466631,     -0.05825461,      0.15403153,     -0.00951481,
                0.08727813,     -0.08746769,     -0.06890196,     -0.38894108,
                0.16537064,      0.08157141,      0.08535935,      0.16641062,
                0.02847666,     -0.09886430,      0.06082011,     -0.05235095,
               -0.00744397,      0.17326348,      0.45067415,      0.02782108,
                0.05931810,      0.00887295,     -0.00210678,      0.11371440,
                0.14254688,      0.06184024,      0.01368899,     -0.12114901,
                0.07340961,      0.32712030,      0.06273944,     -0.01666172,
               -0.10631139,     -0.01804408,      0.34190089,     -0.15853094

};

// weight for Squeeze Excitation2 layer  has dimension of torch.Size([1, 1, 10, 240])
float MBConv6_4_squeeze_excitation2_conv2d_weights [1 * 1 * 10 * 240] =
{
0.24100980,      0.37956867,      0.14567405,      0.07333499,
                0.00295893,     -0.03721824,     -0.07164589,      0.05118558,
               -0.31627223,      0.09970333,     -0.25307357,     -0.00672071,
               -0.19271141,     -0.18949412,      0.01389293,     -0.10697649,
               -0.01660282,     -0.24482433,     -0.01320521,      0.22718547,
               -0.14931518,     -0.10730170,     -0.20992395,      0.01602956,
                0.09655481,      0.00400404,      0.22499947,     -0.47244972,
                0.19215170,      0.03393361,     -0.16561231,      0.09958152,
               -0.00080800,      0.04808259,      0.02929612,      0.03761540,
                0.22093704,     -0.14643922,     -0.05227393,      0.20783009,
               -0.00667241,     -0.00504913,     -0.07591411,     -0.21257007,
               -0.00576868,     -0.15299843,     -0.01930719,     -0.06392516,
               -0.09067238,      0.14618039,      0.02621474,      0.04631392,
                0.07974851,      0.20392670,      0.24219729,      0.24461718,
               -0.11521159,     -0.03610838,      0.07625531,      0.17165312,
                0.01394803,     -0.07981323,     -0.08591778,     -0.00708331,
               -0.00878471,     -0.03739201,      0.10486723,     -0.08028875,
                0.01891023,      0.13787636,      0.20440109,     -0.01092227,
                0.06049581,      0.06175563,     -0.13434415,      0.10662138,
               -0.13645671,      0.40762043,      0.03155163,     -0.00143346,
               -0.02193119,      0.00240530,     -0.16296867,     -0.20592196,
               -0.03751632,     -0.10043803,      0.04387429,      0.10091405,
               -0.07365770,      0.07989440,     -0.00051884,      0.11093103,
                0.04198635,      0.14199886,      0.00124788,      0.19042389,
               -0.12926719,     -0.16197799,     -0.30227175,      0.15275215,
               -0.19811802,     -0.26888409,     -0.21326554,     -0.00956232,
                0.37331399,      0.05750975,     -0.00362148,      0.13997354,
               -0.10110497,     -0.10149974,     -0.10262991,      0.05981530,
               -0.14980112,     -0.06014927,     -0.02786930,     -0.25260365,
                0.00035896,     -0.00656631,     -0.05802621,      0.24154590,
                0.12426823,     -0.04948415,     -0.03410567,     -0.03916858,
               -0.01845497,      0.02125054,     -0.02298251,     -0.08049308,
               -0.07201344,      0.03017896,      0.03354764,     -0.07189812,
               -0.01953221,      0.11849779,      0.03476052,      0.07046429,
                0.12893835,     -0.01723034,      0.08764189,      0.07094411,
               -0.09792878,     -0.36322391,      0.00552975,     -0.03706861,
               -0.00445841,     -0.11014010,     -0.05247191,      0.06696714,
               -0.49178857,     -0.04147241,      0.11326265,      0.02999283,
                0.04864966,      0.07812942,      0.08192759,      0.05168387,
                0.10723925,      0.05959257,     -0.08635812,      0.07278708,
               -0.08585258,      0.09786257,     -0.06305073,     -0.08648717,
                0.04946852,      0.02233335,      0.20368701,     -0.18330152,
               -0.12795307,      0.20100735,     -0.27792132,     -0.12497550,
               -0.04850639,      0.01686753,      0.00443049,     -0.06389794,
                0.03555699,      0.02485181,     -0.31458473,     -0.12121378,
                0.29737109,      0.04952294,     -0.00900051,     -0.02586801,
               -0.03997293,     -0.02509516,     -0.03591154,      0.29821137,
               -0.37907270,      0.08990555,     -0.08847795,      0.12369637,
                0.32676414,      0.05980539,     -0.06196068,      0.09138449,
                0.08027780,      0.20106833,      0.03833036,      0.23561890,
                0.07746055,     -0.31382284,     -0.18867318,      0.09050869,
               -0.10085075,      0.05908469,      0.24288300,     -0.24537824,
                0.14321390,      0.16650340,      0.23442155,      0.14307550,
                0.03170468,     -0.04228345,     -0.03734887,     -0.11358520,
               -0.13077669,      0.26076570,     -0.53386343,      0.13334878,
               -0.23065342,      0.18201420,      0.01216820,      0.07265138,
                0.08898395,      0.10811634,     -0.02169722,     -0.16461200,
               -0.24213526,      0.12015861,      0.12246224,      0.00758188,
                0.03698897,      0.04477110,      0.02597375,      0.00507583,
               -0.03653896,      0.06159406,     -0.08273849,     -0.07541525,
                0.00460362,      0.18980010,      0.11604851,      0.04652913,
                0.04259235,      0.02581593,     -0.00823304,      0.05534692,
                0.00151011,      0.00413545,      0.29178932,      0.17055805,
                0.03101046,      0.08439279,      0.03626694,     -0.02128657,
                0.04160136,      0.04810764,     -0.30569550,      0.13680327,
                0.18609713,      0.07393506,     -0.14197300,     -0.25628719,
                0.02320835,     -0.19569403,      0.16549137,      0.10505894,
               -0.06852788,      0.03786457,      0.01628803,      0.00199409,
               -0.03108421,     -0.05185461,     -0.02246566,     -0.01433434,
               -0.10589620,      0.07660513,     -0.06953258,      0.07791468,
               -0.10841227,     -0.03757419,     -0.15803763,     -0.05352551,
                0.00269501,     -0.00067803,      0.19951525,     -0.04620539,
               -0.03470254,      0.10610846,     -0.21570446,     -0.00144749,
               -0.13233848,      0.19953240,     -0.03706602,     -0.18650463,
                0.08484225,     -0.28412062,     -0.12487853,      0.25565052,
                0.25291657,      0.02977418,     -0.02095386,      0.01467488,
               -0.07571013,     -0.12963054,      0.09363231,      0.10674356,
               -0.17113575,     -0.00755367,      0.05014503,      0.03642970,
               -0.03802057,     -0.20984371,     -0.05428951,     -0.20947796,
                0.00781524,      0.11324092,     -0.10776544,      0.07149759,
               -0.06931785,      0.09165392,      0.02725517,     -0.00840143,
               -0.11919252,      0.09953648,     -0.19981976,      0.24303375,
               -0.08625299,      0.10369139,     -0.03125134,      0.18005827,
               -0.46630430,     -0.01297305,     -0.02445605,     -0.04129078,
               -0.06169721,     -0.35710993,      0.20779260,     -0.03930381,
               -0.06493146,     -0.10772271,     -0.35457280,      0.01164948,
               -0.27968085,     -0.17707840,     -0.09743815,     -0.21704824,
               -0.11407118,     -0.14107232,      0.02469580,     -0.14475165,
               -0.28225911,     -0.82935786,     -0.17724396,      0.68932962,
               -0.08099033,     -0.10131504,     -0.20196432,     -0.22207391,
                0.33713856,     -0.17145573,      0.37534019,     -0.09079296,
               -0.00985005,     -0.13272363,      0.05104446,     -0.01385977,
               -0.59702414,     -0.05213636,     -0.03056886,      0.11386546,
               -0.18301141,     -0.01361208,     -0.01287027,      0.03193727,
                0.09620845,     -0.10359385,     -0.06228153,      0.11878692,
                0.00496870,      0.05664968,      0.02729928,     -0.08056942,
                0.07196378,     -0.00233311,     -0.09034090,     -0.16626538,
               -0.06022662,      0.06391469,     -0.07597551,      0.07958482,
               -0.03742051,     -0.09139926,     -0.12213334,     -0.00818963,
               -0.16990075,      0.24363190,     -0.15569007,      0.17402124,
               -0.30011696,      0.06373803,     -0.12724131,     -0.09830134,
               -0.14122251,     -0.17723399,     -0.25323722,      0.13973697,
               -0.11238161,      0.05734105,      0.18235239,      0.05553953,
               -0.12358903,     -0.01473403,     -0.01593472,      0.03139166,
                0.09772485,      0.11001360,     -0.19449961,      0.20717911,
               -0.06833709,     -0.23529147,      0.05056356,      0.06956316,
               -0.16278204,     -0.05716435,      0.12801540,     -0.25521109,
                0.07664211,     -0.06420772,     -0.43908435,      0.11521570,
                0.10752802,     -0.06779327,     -0.18443318,      0.03229072,
               -0.01396582,      0.17114924,      0.10506071,     -0.00138072,
                0.18674082,      0.06749764,     -0.07693227,      0.10354707,
                0.05268851,      0.02560217,      0.08009484,      0.18812974,
               -0.29199499,      0.05387525,     -0.00888105,      0.07127471,
                0.00698649,     -0.08634797,     -0.10662431,      0.04404082,
               -0.13647640,      0.19020675,     -0.19316265,      0.00405626,
               -0.15527879,     -0.11921062,     -0.00244463,      0.05367206,
                0.03472944,      0.04035920,      0.14991117,     -0.46964818,
                0.01894380,      0.34876451,      0.00542360,     -0.03405350,
               -0.02206023,     -0.03357735,      0.01069380,     -0.07870321,
               -0.05804793,     -0.06526695,     -0.16524309,     -0.01681871,
                0.00213546,      0.18931812,      0.08845620,     -0.07049588,
               -0.06835562,     -0.03169117,     -0.18794005,     -0.14414808,
               -0.19408032,      0.02752800,      0.04546263,      0.19628337,
                0.04524372,      0.04913006,      0.07826827,     -0.01804354,
               -0.02407988,      0.23821518,     -0.12661205,     -0.03848154,
               -0.21913886,     -0.10303492,     -0.14669168,      0.00686046,
                0.03024574,     -0.02195092,     -0.13112608,     -0.34030196,
                0.07509485,      0.16369990,     -0.03479576,     -0.04585640,
               -0.10119554,      0.04521127,      0.15809515,      0.06107465,
                0.23738292,     -0.01444275,      0.07479820,      0.09443482,
                0.03552737,      0.08199834,      0.02086942,      0.15681276,
               -0.03835107,     -0.05317663,      0.12835272,     -0.04392930,
                0.03336721,      0.06533339,     -0.04762677,     -0.02989630,
               -0.12544446,     -0.08176626,     -0.03144663,     -0.06441323,
               -0.03805564,      0.04321867,     -0.08631207,      0.07099144,
                0.15250537,      0.02852768,      0.01488478,      0.09561154,
               -0.00070739,      0.03834295,      0.14727202,      0.02062131,
               -0.07505017,      0.21136689,      0.23569842,      0.11338703,
                0.05236865,     -0.04523253,      0.00179892,      0.00596097,
               -0.04993460,      0.06537717,     -0.11819243,      0.19318824,
               -0.08078115,     -0.18971799,     -0.06049165,      0.03560676,
               -0.07038119,      0.13895237,     -0.06145904,      0.09220450,
               -0.14051293,      0.25604251,      0.05803546,      0.00195369,
                0.04430229,      0.00917915,      0.01399997,      0.00886162,
                0.00488150,     -0.06250240,     -0.10677485,     -0.02406566,
                0.05130382,      0.06370275,      0.00023734,      0.08350955,
                0.05232042,      0.08451335,      0.15375873,      0.00873020,
               -0.16333416,      0.15667842,      0.03936822,     -0.10504565,
                0.16548090,     -0.06816177,     -0.03066165,     -0.05879665,
               -0.38252205,     -0.20996027,     -0.13282922,      0.10657604,
               -0.19249034,      0.05307974,      0.04083913,     -0.00309317,
                0.03464508,      0.01050669,      0.08121347,     -0.12715667,
               -0.00237679,      0.18307154,     -0.16129778,     -0.08049705,
               -0.13951726,      0.00900386,      0.06865619,     -0.09867370,
                0.16730280,     -0.07766365,     -0.06591035,     -0.04402440,
                0.02750112,      0.07206362,      0.01411140,     -0.02904378,
               -0.14532842,      0.01542682,     -0.16900063,      0.10183872,
               -0.15202570,     -0.00654334,      0.02862003,      0.08896068,
               -0.05071451,     -0.10879828,     -0.02105458,     -0.17371039,
                0.04654211,     -0.03985832,     -0.08720534,      0.13080445,
                0.21679395,      0.11144596,      0.22386186,      0.00283664,
                0.01303873,      0.10339736,     -0.21808413,      0.19398271,
               -0.12677059,      0.14382555,      0.15469913,      0.02923135,
                0.07214267,      0.00859043,      0.05323630,      0.09038586,
               -0.10686291,      0.22063935,     -0.13137278,      0.12224431,
                0.31043300,      0.11398861,      0.18930948,      0.00202182,
                0.04268386,      0.03208629,      0.10559841,     -0.18190369,
               -0.05014848,      0.16226240,      0.07063893,     -0.00825364,
               -0.01276832,     -0.01668242,     -0.10286429,     -0.04278417,
               -0.08859463,      0.03067070,     -0.08163015,     -0.01289281,
                0.11076266,      0.21688604,      0.04128100,      0.00170775,
                0.00408197,      0.02547105,      0.03263189,      0.20849544,
               -0.07286175,      0.06774958,      0.07920986,     -0.00206920,
                0.00409520,      0.01849574,      0.00640234,      0.00566564,
                0.12788443,      0.13243492,     -0.04198862,      0.13215008,
                0.01012292,      0.04685917,      0.06679165,      0.04818039,
                0.04054233,      0.04113162,      0.07082575,      0.07849298,
               -0.02701453,      0.12974596,     -0.09503759,      0.02036667,
                0.00530864,     -0.02331012,      0.06048476,      0.03316444,
               -0.08663937,     -0.29681441,     -0.04684266,      0.16722849,
                0.14595342,      0.06045523,      0.06489190,      0.01171846,
                0.05369483,      0.02522641,      0.01665744,      0.03834403,
               -0.15659083,      0.02138016,     -0.24907616,     -0.09403669,
               -0.11182541,      0.11762252,      0.03605551,      0.06129188,
                0.21915413,     -0.11936177,      0.05754046,      0.23226440,
                0.01059898,     -0.00651754,      0.01811603,      0.07622845,
                0.09645604,      0.02613716,     -0.08249998,     -0.10459179,
               -0.07409723,      0.16980994,     -0.06775888,      0.04226805,
                0.05174857,     -0.02553611,     -0.01985540,      0.04884099,
               -0.06013288,     -0.05913594,     -0.08096717,      0.20716977,
               -0.10471048,     -0.03555224,      0.13311325,     -0.08709262,
                0.03151531,     -0.05551852,     -0.03266913,     -0.04457813,
                0.01460571,      0.07502387,     -0.00380876,     -0.02688179,
               -0.05657765,      0.10291007,      0.02664025,      0.00721577,
                0.07464294,     -0.15598282,     -0.01244578,      0.16965529,
                0.04978946,      0.11351963,      0.04905941,      0.01508107,
                0.01071103,      0.04201095,     -0.07413323,      0.13648345,
               -0.06823952,      0.19773352,     -0.00189777,      0.06232444,
                0.06497245,      0.04585893,      0.04080199,      0.01360940,
                0.11345734,      0.09997221,     -0.05788639,      0.09355323,
               -0.08563164,      0.02702302,      0.00818354,     -0.16607547,
                0.06414073,     -0.05773348,      0.15758404,     -0.02114574,
               -0.07762601,      0.12339841,     -0.02416854,     -0.03348119,
               -0.38764536,     -0.49126679,     -0.05573170,     -0.14437018,
                0.23352049,      0.11709309,     -0.09535244,      0.11867540,
               -0.25813180,      0.00010679,      0.04179512,     -0.05722931,
               -0.01858796,      0.00830354,     -0.07350447,      0.05075059,
               -0.01142234,      0.16523811,     -0.09338337,      0.01712568,
                0.06230433,     -0.04156447,     -0.13416959,      0.04675080,
               -0.20149390,      0.14469647,     -0.14507309,      0.10551825,
               -0.15621792,     -0.12622221,     -0.29882365,      0.01440607,
               -0.06006437,      0.25243044,     -0.35641110,     -0.28859600,
                0.02201930,      0.00722268,      0.06989681,     -0.05223619,
               -0.07528610,      0.04287265,      0.04720368,      0.04264389,
                0.14927116,      0.02913730,     -0.00564093,      0.09837959,
                0.07905415,     -0.00857434,      0.02541048,      0.03455694,
               -0.09172691,      0.07885893,     -0.12427978,      0.34856173,
               -0.05709470,      0.01059426,      0.00753504,     -0.14200197,
                0.04241354,      0.05016867,     -0.16218981,      0.09418593,
                0.12369535,     -0.23072353,     -0.13356477,      0.19755784,
                0.01862464,     -0.06401163,     -0.12268267,      0.01500921,
               -0.09165139,      0.07723306,     -0.03523244,      0.17878751,
               -0.15420306,      0.08560255,      0.01359439,     -0.00076330,
               -0.00769203,     -0.04544802,     -0.02802134,      0.02264946,
                0.05135217,     -0.08127038,     -0.06698049,      0.07276458,
               -0.17697656,     -0.03811364,      0.00018667,      0.05212439,
               -0.11242795,      0.00023360,     -0.00835313,     -0.14541008,
                0.08654030,      0.12543488,      0.06956933,     -0.15705697,
                0.00833657,      0.13746196,      0.01873574,      0.13334252,
                0.15451477,     -0.00763046,     -0.06360807,      0.19931151,
               -0.03944974,     -0.01425437,     -0.10778471,      0.10776206,
                0.03342020,      0.09055445,      0.27352664,      0.04018161,
                0.01816349,      0.19138870,      0.00926218,      0.05297612,
                0.07566857,      0.13364795,     -0.05631392,     -0.04790790,
                0.02107466,      0.03998877,      0.01278916,     -0.08716945,
                0.06185780,     -0.11265155,      0.04568261,     -0.12378557,
               -0.56256801,     -0.11900065,      0.13336204,     -0.07045697,
               -0.20347081,     -0.14585908,     -0.02897531,      0.00462702,
               -0.04310008,     -0.02750156,     -0.09471503,     -0.00458304,
               -0.04248824,      0.21844633,     -0.08243867,      0.05183731,
                0.14995110,      0.10759310,     -0.15672293,      0.09156960,
               -0.20243153,      0.03172996,     -0.02432499,      0.24862519,
               -0.25518712,     -0.31746054,      0.19235422,      0.03071069,
                0.08195729,      0.04871257,      0.12994137,      0.00418937,
                0.02971641,      0.08826559,     -0.17296293,      0.04843606,
                0.17588563,      0.02526170,     -0.19870959,      0.01753320,
               -0.00940702,      0.13727716,     -0.05925979,     -0.15236634,
                0.04957524,      0.18629296,      0.16456911,      0.10136040,
               -0.06245906,      0.04103177,     -0.02276595,      0.00167129,
                0.08279883,      0.11676201,     -0.16331083,     -0.01708256,
                0.05371963,      0.14701237,     -0.01039704,     -0.01008203,
               -0.00800724,      0.06296565,      0.05498452,      0.16633271,
               -0.06759880,      0.04501774,      0.27102014,     -0.05793110,
               -0.53174621,     -0.00502220,     -0.06832117,      0.04489295,
               -0.17959516,      0.00924824,     -0.02498882,      0.00588962,
                0.21389799,      0.17862417,      0.04479126,     -0.03031911,
                0.07880343,     -0.01488277,      0.02320488,      0.13913791,
               -0.15016414,      0.01224598,     -0.18991864,     -0.02237042,
               -0.02814818,     -0.02232564,      0.03648301,     -0.03113211,
               -0.00901445,     -0.28749943,     -0.24464333,      0.22954312,
                0.18323317,      0.12118157,      0.00459127,      0.07621270,
               -0.45397273,      0.11959985,      0.03376582,      0.26532936,
               -0.29765525,     -0.22849245,      0.00049340,     -0.04985022,
               -0.03723719,      0.01265307,     -0.03943375,      0.11240954,
                0.05788860,      0.10519814,     -0.02349830,      0.19869974,
               -0.26735526,      0.18675524,     -0.08579736,     -0.02608058,
               -0.02261288,      0.05876800,      0.05070170,     -0.08477644,
               -0.12950324,      0.18595044,     -0.08918133,     -0.00801057,
               -0.02910779,     -0.04605523,     -0.02003133,     -0.04747826,
                0.02550579,     -0.02350444,     -0.05280849,      0.01434055,
               -0.15838587,      0.04842921,     -0.03898884,     -0.07183333,
               -0.07507451,      0.22390001,      0.16862258,     -0.11456777,
               -0.05856365,     -0.06099000,     -0.07231073,      0.06931555,
                0.00762471,      0.04275734,      0.06580484,      0.02661359,
                0.06608823,      0.03325459,     -0.04166596,      0.09423261,
                0.11130555,      0.01283461,     -0.19834802,     -0.01870776,
               -0.05985413,      0.01599353,      0.02877931,      0.10771326,
               -0.17957968,      0.16674265,     -0.00831742,     -0.00531526,
               -0.09325106,     -0.19899473,     -0.05049842,     -0.12608241,
                0.03656996,      0.02409700,     -0.10276415,      0.09503244,
               -0.33554420,      0.02439898,     -0.01089512,      0.12582110,
                0.01911550,      0.12474884,      0.13747624,      0.11278743,
                0.14110044,      0.31426981,     -0.10316034,      0.04299535,
               -0.12303475,     -0.05441276,     -0.03787104,      0.04556432,
                0.02191508,     -0.10432362,     -0.14863800,      0.25573951,
                0.44839206,     -0.57654154,     -0.20240390,     -0.15405072,
               -0.00014599,     -0.20332964,     -0.04669037,      0.12431955,
               -0.41091579,      0.05604338,     -0.45463860,     -0.25802419,
               -0.13195013,     -0.03705394,     -0.09255467,     -0.03450213,
                0.03048005,     -0.17106362,      0.50968695,      0.06615712,
                0.00276519,     -0.10368975,     -0.09715672,     -0.16428342,
               -0.38081422,     -0.23124327,     -0.17338939,     -0.10635193,
               -0.07838123,     -0.15632103,      0.07040215,      0.10320205,
               -0.04766596,     -0.05608572,     -0.11746798,      0.02435356,
               -0.08399640,      0.19030663,     -0.13476476,      0.19326326,
                0.11394012,     -0.04550219,     -0.04774122,      0.09869809,
                0.02507243,      0.01233431,      0.15064608,      0.04987229,
               -0.03456694,      0.02190879,     -0.16736354,      0.21094638,
                0.00608226,     -0.01791707,      0.07064635,      0.09065399,
                0.07777907,     -0.05955164,     -0.09013706,      0.21913898,
               -0.24318673,     -0.12198144,      0.02531600,      0.13899843,
                0.07747663,      0.11333378,      0.22631913,     -0.44741443,
                0.12936144,      0.33702698,      0.11709170,      0.09678531,
               -0.07364549,      0.01120294,     -0.00795367,      0.07176387,
                0.10212190,      0.19235510,     -0.23954463,      0.12539662,
                0.13311847,      0.39246109,      0.00965032,     -0.04226541,
                0.05387127,     -0.13887949,     -0.04496194,      0.42337379,
               -0.61022502,     -0.05774728,     -0.04095670,      0.08418500,
                0.36506370,     -0.18824223,      0.03017388,     -0.23376092,
               -0.15069862,     -0.34233484,      0.23378749,      0.30438530,
                0.09253126,      0.05673965,     -0.13875027,     -0.17735192,
               -0.09871636,     -0.10569201,     -0.25803232,     -0.11888386,
               -0.16183299,      0.35973728,      0.27135706,     -0.28105766,
               -0.44881603,     -0.16655824,     -0.23247612,     -0.12603365,
               -0.33473241,      0.33833408,     -0.01480221,     -0.29894125,
               -0.03131257,     -0.01375422,      0.07449073,      0.00278058,
               -0.17069088,      0.04797675,      0.06479344,     -0.09055282,
               -0.03344524,      0.19051830,     -0.01738195,      0.13122319,
               -0.03603189,     -0.06873783,     -0.10455315,     -0.02009660,
               -0.16614547,      0.28900433,     -0.18115948,      0.13977826,
               -0.03228799,      0.03184931,     -0.01505390,     -0.01333646,
               -0.00494940,      0.13434291,      0.05686644,      0.07798143,
               -0.18126264,      0.20779258,     -0.27344689,      0.01856933,
               -0.02203492,      0.00934550,      0.08776933,     -0.04024596,
                0.14473389,     -0.13963717,     -0.12163159,      0.27460563,
               -0.16425020,     -0.02747532,      0.09052958,      0.10532141,
               -0.05063545,      0.08941127,      0.14456095,     -0.20644456,
                0.00075555,      0.27937067,      0.05472897,      0.21532185,
                0.02101483,     -0.01038930,     -0.02725574,     -0.04004260,
               -0.02678118,      0.04173086,     -0.07134862,     -0.05417192,
               -0.01665856,      0.02456274,     -0.10709661,     -0.04002193,
               -0.08445931,     -0.00030744,     -0.05985874,      0.22030820,
               -0.03446852,      0.08042774,     -0.17667076,     -0.05692622,
                0.03541868,      0.12142112,     -0.06177721,      0.16994050,
                0.09743321,      0.18585691,      0.03277436,      0.16633673,
               -0.07329571,     -0.07370498,     -0.16190733,     -0.10659970,
               -0.05489291,     -0.07506034,      0.05414656,     -0.18448688,
               -0.01466281,      0.17133896,     -0.26106176,     -0.11464202,
                0.11248552,      0.04684978,      0.00320341,      0.07667658,
                0.02773868,     -0.01383446,      0.26087525,      0.01431860,
               -0.21783555,     -0.21921214,     -0.14090550,      0.27852514,
                0.13953824,      0.08394192,     -0.20939839,      0.00181463,
               -0.00382628,      0.00765800,      0.22052424,      0.06189762,
                0.15040722,     -0.01057770,     -0.03273374,      0.07034799,
               -0.24705964,      0.24591927,     -0.09799028,      0.01488669,
                0.16849396,      0.01364894,      0.21710095,     -0.02854871,
               -1.46364987,     -0.08714522,      0.34719846,     -0.15268686,
               -0.21006860,      0.09894401,      0.00982610,      0.11975292,
               -0.02379734,      0.13386598,      0.01617506,      0.06538975,
                0.04438198,      0.15245004,     -0.08309464,      0.09568752,
               -0.01426433,     -0.03685866,     -0.22258037,     -0.65160382,
               -0.04692671,     -0.08876842,      0.00658480,     -0.01209155,
               -0.03122439,      0.27125782,      0.15830073,     -0.22013141,
               -0.28133991,      0.05798639,     -0.13905507,      0.06060296,
                0.09424401,      0.52859926,     -0.34878182,     -0.11134157,
                0.02450609,     -0.05434975,     -0.14542460,      0.02915745,
                0.01755868,      0.13276449,      0.18553838,      0.05046219,
               -0.03507659,      0.12357436,      0.04995855,     -0.56241786,
                0.04237129,     -0.03264310,     -0.13932614,     -0.04903651,
               -0.09162480,     -0.09723967,     -0.25458652,      0.06042314,
                0.07881612,      0.07662956,     -0.08319200,      0.01323160,
               -0.02203497,      0.04223394,      0.13927908,      0.08276063,
               -0.20828383,      0.21629916,      0.15762663,      0.00326446,
               -0.10882089,      0.11438081,      0.05559438,      0.09712076,
               -0.19735381,      0.22578579,     -0.18995713,      0.27538723,
               -0.14055865,      0.11749702,      0.14356196,      0.02301103,
               -0.05610792,      0.22875711,     -0.04080420,     -0.02882668,
               -0.03411357,      0.26408362,      0.54607600,     -0.46745306,
               -0.13125522,     -0.02106371,     -0.03206174,      0.02388990,
               -0.19906257,      0.03600941,     -0.57520491,      0.11551268,
                0.13591675,      0.09181150,      0.12639344,      0.03456162,
                0.01821256,     -0.01702831,      0.05995363,     -0.02101943,
               -0.13317914,     -0.01162875,      0.14424005,      0.07924694,
                0.11623538,      0.02418079,      0.08667535,      0.09867840,
                0.01001082,      0.13974996,     -0.04489681,      0.34692037,
                0.00552761,      0.19860731,      0.04087992,      0.02281331,
               -0.00561864,      0.07431875,     -0.00983050,      0.12436432,
               -0.05201658,      0.25040606,     -0.09141931,     -0.22692221,
               -0.33279234,      0.79854554,     -0.36392099,     -0.43039539,
               -0.36334035,      0.08570320,     -0.25278059,     -0.13550383,
               -0.10368175,     -0.43124741,      0.01647132,     -0.06979272,
               -0.00192291,     -0.14403477,      0.06092076,     -0.36485317,
                0.24309279,     -0.00359785,     -0.20268448,      0.06742913,
               -0.10893425,      0.00538026,      0.12102076,     -0.00184874,
                0.15072809,     -0.20284088,     -0.32659784,      0.11848942,
                0.08960330,      0.06875132,      0.03963588,      0.03868482,
                0.07907882,      0.07470845,      0.00899843,      0.09135072,
               -0.08071887,      0.14129287,     -0.20765445,      0.10231059,
                0.02377789,      0.09130777,     -0.01224323,     -0.02722863,
               -0.03977594,     -0.08140897,     -0.08709338,      0.12059548,
               -0.25295499,     -0.16611432,     -0.15044995,      0.05170295,
               -0.11687648,      0.06625143,      0.26556528,     -0.04070050,
                0.00987361,      0.18114772,     -0.28145060,     -0.19940409,
               -0.16262718,      0.02985459,     -0.00397954,      0.00954150,
                0.10659032,     -0.20055589,      0.05194593,     -0.05991792,
               -0.02338988,     -0.04986830,     -0.11285228,     -0.04054009,
                0.00510310,     -0.08367927,      0.06325742,     -0.03776880,
               -0.18542738,      0.01388927,      0.28253138,      0.06249864,
                0.05320691,      0.02201320,     -0.00049161,      0.01668206,
                0.03165545,      0.33209553,     -0.04415003,      0.09698620,
               -0.01596718,      0.05525443,     -0.17054865,     -0.17494901,
                0.04949062,     -0.18923897,      0.13118362,     -0.11657556,
               -0.05927797,      0.15756968,      0.09605580,     -0.03892345,
               -0.01024525,     -0.03798492,     -0.30053014,      0.00271499,
                0.07706213,      0.06084373,     -0.14401977,      0.04509493,
               -0.05161631,      0.07233197,     -0.20844577,     -0.02626099,
               -0.08600015,     -0.00126587,     -0.12880671,      0.20891331,
               -0.12226394,      0.04377378,     -0.10571437,      0.06681114,
                0.08227799,      0.00928226,      0.01937975,      0.05520181,
               -0.00620704,     -0.05398071,     -0.13173044,      0.18275185,
               -0.02062131,     -0.02784330,     -0.07245084,     -0.12452150,
               -0.00983627,     -0.11687766,     -0.02595669,      0.02406885,
               -0.05309559,      0.08519430,      0.14764524,      0.13674870,
               -0.00505889,     -0.07275283,     -0.14200802,      0.00521633,
               -0.03674031,      0.06065754,     -0.06961611,      0.06424967,
                0.05458870,     -0.02839880,     -0.18678930,     -0.03081434,
               -0.00988952,      0.03659599,      0.17241459,     -0.13496742,
                0.11614873,      0.12754151,      0.06910547,      0.00810878,
                0.00546522,     -0.02704841,     -0.02212462,      0.07771969,
                0.10969718,      0.15513588,     -0.07638342,      0.11318616,
                0.31280419,      0.15834026,     -0.41280994,     -0.06300038,
               -0.07057729,     -0.14751849,     -0.25383982,     -0.16670649,
               -0.09459896,      0.02832182,     -0.14012025,      0.02859558,
                0.04253747,      0.04683111,      0.01257301,      0.12205124,
                0.13678685,     -0.11550257,      0.00802715,      0.08099882,
               -0.07415485,      0.07403962,      0.00900410,      0.05763667,
               -0.10508148,      0.15275699,     -0.24545358,      0.04707908,
               -0.24447110,      0.29724249,     -0.01707165,      0.01415520,
               -0.10621003,      0.04022137,     -0.12101011,     -0.02321496,
                0.00554297,      0.02347067,     -0.14132260,     -0.02692888,
                0.29949850,     -0.00545380,     -0.01703460,     -0.03353039,
                0.14252084,     -0.07676831,      0.03272943,     -0.13272594,
               -0.10785482,      0.31072867,     -0.01284764,     -0.05463454,
               -0.07484917,     -0.05552534,     -0.01687572,     -0.10038631,
               -0.10654834,      0.03973999,     -0.05464391,     -0.02043610,
                0.18042853,      0.04331774,     -0.31718144,      0.05126280,
               -0.08858391,      0.03491155,     -0.06671462,      0.25097030,
               -0.35670897,     -0.23988567,      0.01319287,      0.05942596,
                0.04390903,      0.07341460,      0.05537426,      0.06860071,
                0.10386599,      0.15966621,     -0.07236830,      0.12953950,
               -0.06907865,     -0.02491433,     -0.00225609,     -0.06706721,
                0.01412320,     -0.01613430,     -0.02416874,     -0.05001915,
               -0.03732702,      0.11620364,     -0.01530219,     -0.03554086,
               -0.02025930,     -0.00460769,     -0.06082345,      0.03444251,
               -0.21934614,      0.01447977,     -0.07697345,      0.27784178,
               -0.11014991,     -0.04637466,     -0.28749540,      0.34715939,
               -0.09716435,     -0.70638686,     -0.27929717,      0.04077997,
               -0.08632670,      0.26938492,      0.00992533,      0.00925180,
                0.02898508,     -0.08297788,     -0.12860024,      0.02837196,
               -0.07266857,      0.17992383,     -0.07217829,      0.10777191,
               -0.26243183,     -0.10771298,     -0.46514678,     -0.18088433,
               -0.03596977,     -0.23982376,      0.70292765,     -0.16492218,
               -0.11145360,     -0.61834723,     -0.01710026,     -0.00873685,
               -0.03804920,     -0.04160755,     -0.06777815,     -0.02453102,
               -0.09923974,      0.15309237,     -0.07513542,      0.00725952,
               -0.20296466,      0.04692411,     -0.09907825,      0.01364179,
                0.01074419,      0.06026570,      0.00494124,     -0.07872783,
               -0.17042814,      0.09881869,     -0.30797783,      0.29831025,
                0.01805262,     -0.10844959,     -0.01230582,     -0.22453341,
               -0.06911469,     -0.03797362,     -0.50089943,     -0.12291245,
                0.23494583,     -0.08137015,     -0.22534060,     -0.16764341,
               -0.04517675,     -0.18038182,     -0.23489614,      0.20418791,
               -0.48759967,      0.17402183,     -0.00086203,      0.01198270,
               -0.08967030,     -0.00519706,      0.02289127,     -0.04735592,
                0.10576188,     -0.00770289,     -0.22057480,     -0.02999328,
               -0.11412556,      0.02757344,      0.01436151,      0.13014936,
                0.06438594,      0.08077396,      0.14700951,     -0.02565346,
               -0.11010788,      0.13292749,     -0.06980097,      0.03336986,
               -0.00164251,     -0.09496253,      0.00835330,     -0.21953568,
                0.00445352,     -0.03009947,     -0.04526054,      0.02430091,
               -0.42036304,      0.11008043,     -0.12260399,     -0.09197254,
               -0.17144366,     -0.05014983,     -0.04747519,     -0.08470268,
                0.08654770,     -0.04655705,     -0.05377329,     -0.04895012,
               -0.13280560,     -0.11737037,     -0.00262305,     -0.10032693,
               -0.01456205,     -0.01322267,     -0.07574797,      0.12643583,
                0.01816064,      0.05862551,      0.11513847,      0.00695481,
                0.05413202,      0.07168771,      0.02879371,     -0.04549832,
               -0.11739843,      0.17702703,     -0.11372647,      0.02766091,
                0.19268474,      0.15918839,     -0.00872554,     -0.03647434,
               -0.01934508,      0.10104895,      0.06475348,      0.09904996,
                0.13308690,      0.05742642,     -0.17617069,      0.03782852,
               -0.07942839,     -0.20972341,      0.18955092,      0.16154049,
               -0.26521525,     -0.16396162,      0.03432301,      0.23559779,
               -0.00568872,      0.03082398,      0.04328241,      0.07523437,
                0.08444154,      0.14365835,     -0.18669620,      0.21597658,
                0.07965066,     -0.08677071,     -0.22495173,      0.04646119,
               -0.08045600,      0.01741661,     -0.10024199,      0.21103445,
               -0.13955651,      0.01676745,      0.19421700,     -1.03216684,
                0.38441145,     -0.04249117,     -0.02088602,      0.02970765,
                0.07599822,      0.03069560,     -0.17506500,      0.20757228,
                0.05189422,      0.12530349,     -0.10098694,     -0.09891785,
               -0.00166529,     -0.00833836,     -0.21176560,      0.25834104,
               -0.30742967,     -0.10455135,     -0.09396062,      0.05423859,
                0.11829106,      0.11218790,      0.00835411,      0.02828767,
                0.02125489,     -0.03706095,      0.00003690,      0.11819058,
                0.12902778,      0.04424295,      0.02846990,     -0.00353185,
               -0.00076576,      0.05697270,      0.12792349,      0.05562991,
               -0.10939780,      0.10485573,      0.07530624,     -0.04782762,
               -0.01960016,     -0.37276137,     -0.02878554,     -0.42097458,
               -0.01532737,      0.09440497,     -0.01218464,      0.04995688,
               -0.09768832,      0.05395153,      0.00812512,      0.00148382,
               -0.06287075,      0.10591211,     -0.23000875,      0.20697562,
               -0.12934385,      0.13732192,     -0.05837858,     -0.05617543,
               -0.03287381,     -0.05245985,     -0.03062221,     -0.07538072,
               -0.04808334,     -0.27631021,      0.04240860,      0.15705970,
               -0.14949779,      0.05590432,      0.08242116,     -0.03452327,
               -0.08929718,     -0.00382515,     -0.06433599,      0.03178903,
               -0.05019336,      0.12508228,     -0.09606507,     -0.47686696,
               -0.01449774,     -0.09705950,     -0.07482378,      0.05658606,
               -0.21222807,     -0.19946888,     -0.06171269,      0.19603114,
                0.14772536,     -0.07217486,      0.06344349,     -0.02977576,
               -0.05768077,     -0.05129170,     -0.12784174,      0.06919921,
               -0.09815961,      0.01329992,     -0.04928437,     -0.04710355,
                0.01445924,      0.08624700,      0.00011165,      0.04391912,
                0.16452867,     -0.00643371,     -0.03350672,      0.20150220,
                0.06799411,      0.05798070,     -0.09100246,      0.02644107,
                0.01293117,      0.07030293,      0.17158684,      0.11663865,
               -0.22625755,      0.19423416,     -0.07375084,     -0.08927958,
               -0.08167644,      0.10054967,      0.02680985,      0.04372505,
                0.03498087,     -0.13699281,      0.00256798,      0.24597393,
                0.15752029,      0.07322552,     -0.09326052,     -0.01155654,
               -0.01189129,      0.00045187,      0.06781214,      0.11093381,
               -0.13710323,      0.03144667,      0.09805223,      0.12649265,
                0.26628414,     -0.17952022,      0.17572507,      0.04711044,
                0.04157341,      0.07754204,      0.18121298,      0.03954569,
               -0.08662084,      0.07200646,      0.07373156,      0.04385302,
                0.00941343,      0.06079115,     -0.18597360,     -0.02892539,
                0.02740551,      0.06694291,     -0.03047390,     -0.04312777,
               -0.06471217,     -0.06346722,     -0.10684980,     -0.11166418,
               -0.06190214,     -0.18826061,     -0.09538142,     -0.22833627,
               -0.09437863,     -0.14728537,     -0.08368014,     -0.01182662,
               -0.05207608,     -0.01985038,     -0.04309289,     -0.02787231,
               -0.05948656,      0.01950165,      0.11684220,     -0.07088116,
                0.06392780,      0.00062375,     -0.03893895,      0.10219190,
               -0.02063483,      0.26321474,     -0.08820313,      0.19408798,
               -0.15298483,     -0.03876762,      0.04728434,      0.05211195,
                0.08481261,      0.14640021,      0.09055501,      0.02846410,
               -0.02882026,      0.27567878,      0.13618219,      0.12695430,
               -0.01047861,     -0.02882277,      0.00563641,     -0.00510489,
                0.02905018,      0.13164839,     -0.11112013,      0.00945796,
               -0.00981904,      0.10150849,      0.00980296,     -0.03572481,
               -0.01138897,     -0.00607691,     -0.00757504,      0.13841458,
               -0.10399533,      0.19163851,      0.03855214,      0.06646670,
               -0.06497302,     -0.15049121,      0.01547639,     -0.08301438,
                0.06366592,     -0.14577122,     -0.13648617,      0.12090645,
                0.20185404,      0.07202573,      0.11214150,      0.16046773,
                0.16259946,      0.20268252,     -0.04014858,      0.06261173,
               -0.01407993,      0.16346875,      0.03285548,      0.12001476,
               -0.04274811,     -0.04842532,     -0.04152042,     -0.00814528,
                0.05739870,      0.00411946,     -0.03842918,      0.19564168,
                0.00411586,      0.06715751,      0.10758453,      0.04414127,
                0.02469916,      0.08978964,     -0.01761610,     -0.03235232,
               -0.13034622,      0.20924291,     -0.13403238,     -0.06123835,
               -0.51624995,     -0.06164760,     -0.10347556,      0.24799865,
               -0.11290117,     -0.45167601,     -0.14180885,     -0.05604642,
                0.13592006,     -0.00815497,      0.01769234,     -0.02611909,
               -0.07520967,      0.05927867,     -0.13632976,     -0.18536268,
                0.02432298,      0.20301624,      0.03574437,      0.09914894,
                0.03829242,      0.03372769,      0.03998167,      0.09666552,
               -0.00504148,      0.07956621,     -0.16899170,      0.05467661,
                0.04832409,      0.15663955,      0.01437872,     -0.02822118,
               -0.16559832,      0.03472328,     -0.22589560,      0.12328421,
               -0.20519741,      0.18198937,      0.01841679,      0.53682023,
                0.07813920,      0.05918502,      0.10205045,      0.07914425,
               -0.06107344,      0.32205337,     -0.48465347,      0.11445763,
               -0.08178375,      0.05384397,      0.03090159,      0.04683765,
                0.05842852,     -0.00018958,      0.11446515,      0.12249033,
                0.03729406,      0.10480805,      0.02826544,      0.24920502,
                0.10258353,      0.00548994,      0.04204289,      0.02899068,
               -0.01857239,      0.08821330,     -0.01783363,      0.09264616,
                0.08853170,      0.18585414,      0.01482753,     -0.00031395,
               -0.03967317,     -0.02726554,     -0.00026294,      0.10028855,
               -0.07999601,     -0.00351209,     -0.07602688,      0.13622984,
                0.07221959,      0.47197857,      0.01717260,      0.34048301,
               -0.09610106,     -0.15338248,      0.01896475,      0.12688388,
               -0.11169760,      0.05944475,      0.03507335,      0.01149182,
                0.00636010,      0.05975298,      0.01651468,      0.01631362,
                0.00706829,      0.11836116,      0.06693593,      0.19901630,
                0.01785121,     -0.05074736,     -0.02623547,      0.00599089,
               -0.10179724,      0.30894950,     -0.13035752,      0.21170917,
                0.15156980,      0.05790531,      0.06741136,     -0.06484877,
               -0.01474577,     -0.01985357,     -0.11631474,      0.17294386,
               -0.50822353,      0.22333547,      0.07879848,      0.01457555,
               -0.07500063,      0.03774787,      0.02957265,     -0.01190955,
                0.01516660,     -0.09244712,     -0.17388004,      0.02666923,
               -0.14041391,     -0.09247835,     -0.15787166,     -0.02235751,
               -0.07033401,     -0.10069777,      0.03231649,     -0.28361347,
                0.22670682,     -0.11830872,     -0.09738586,     -0.05796982,
               -0.00340516,      0.01209289,      0.00655020,     -0.02077544,
                0.09264690,     -0.12445769,     -0.06823008,      0.33457389,
                0.15638413,      0.13736144,     -0.02553272,     -0.04158897,
                0.05261433,     -0.01403832,      0.06414803,     -0.00186517,
               -0.21330330,      0.20663972,     -0.07941700,      0.02089975,
               -0.11430334,      0.03093091,      0.04932526,      0.01870494,
                0.21989703,     -0.48777211,     -0.00754696,      0.26249892,
               -0.04846742,      0.03846779,     -0.02522454,      0.05352592,
                0.09901594,      0.05580968,     -0.12684596,      0.00545235,
               -0.03910054,      0.20522931,      0.05811924,     -0.25201222,
                0.21115693,     -0.12819183,      0.06250837,      0.03243352,
                0.01034522,      0.08843803,     -0.00805442,     -0.07214452
};


// Bias for Squeeze Excitation1 layer has dimension of torch.Size([10])
float MBConv6_4_squeeze_excitation1_conv2d_bias [10] =
{
-0.01327822,  0.14271303,  0.08282539,  0.08536667,  0.12412314,
            0.13123807,  0.10605586,  0.00085480,  0.06811424,  0.14925243
};


// Bias for Squeeze Excitation2 layer has dimension of  torch.Size([240])
float MBConv6_4_squeeze_excitation2_conv2d_bias [240] =
{
	-0.04583797,  0.00876398, -0.01063766,  0.02333858, -0.06372789,
            0.03414415,  0.05518359, -0.00364532, -0.05028463, -0.00541083,
           -0.11131651,  0.01972540, -0.01543093, -0.01001937, -0.00633185,
            0.03670369, -0.00971959,  0.01962990, -0.11282993,  0.06744573,
           -0.14172980, -0.24723703,  0.01567331,  0.05094377,  0.12535474,
           -0.17186804, -0.07015122, -0.08372335, -0.02580707,  0.02987663,
           -0.08653420, -0.06672691, -0.01020726, -0.17394525, -0.10930120,
           -0.04779439, -0.26452011,  0.04628858,  0.00910087, -0.08527592,
           -0.18543811, -0.07002380,  0.07538101,  0.04867761, -0.05653314,
           -0.04142261,  0.06873732,  0.01706069,  0.00092526, -0.00579534,
           -0.07906535,  0.06960538,  0.00568927, -0.08837506, -0.04125730,
           -0.09741499, -0.14492175, -0.00293526,  0.02465340,  0.20460220,
            0.03700821,  0.05812516, -0.01676742, -0.07846698,  0.00859243,
           -0.07733251,  0.16264611, -0.06447758,  0.02360905,  0.04154163,
            0.05055177,  0.02495668,  0.02002762, -0.02491909, -0.09529218,
           -0.02488630, -0.05661929, -0.01041779,  0.00303596,  0.08519167,
            0.02678809, -0.05094301, -0.01331656, -0.11362337, -0.05873537,
            0.03139155, -0.02941508, -0.15632062,  0.01529962,  0.01945218,
            0.01345982,  0.06156129,  0.07055341,  0.02964765, -0.16524206,
           -0.02134911, -0.17828307, -0.02171140, -0.10221118, -0.00092605,
           -0.04540394, -0.21777612,  0.00311883, -0.04737179, -0.04933437,
            0.06452498,  0.01926393,  0.02441204,  0.01494806, -0.05270318,
           -0.16770041, -0.04718251,  0.09092946,  0.00253384, -0.12317201,
           -0.27236012, -0.11831634, -0.07714748,  0.00479768,  0.02237646,
            0.09377422, -0.03159263, -0.20793100, -0.03297437,  0.04067175,
           -0.26056716,  0.03083383, -0.06658631, -0.03535601,  0.01408865,
            0.02051156,  0.00659665, -0.02473110,  0.11987103,  0.06528455,
            0.09185510, -0.06325647,  0.01735120, -0.11119102,  0.06340946,
            0.06370544, -0.18233399,  0.01554184, -0.13012940, -0.09887443,
           -0.14735360,  0.10236555, -0.00901953, -0.00396762,  0.13718696,
            0.04163482, -0.15065245, -0.07139356,  0.11103293,  0.03089566,
           -0.02272654, -0.06363135,  0.08536279, -0.00798022,  0.06903550,
           -0.04418845, -0.13062610, -0.04519062,  0.01230485, -0.16467245,
           -0.15884539, -0.07110001,  0.06271044, -0.05578175,  0.07118576,
           -0.16177332,  0.07900849,  0.01726598, -0.07775120,  0.00028910,
            0.06753187,  0.02266223, -0.14977920,  0.10227248, -0.02506014,
           -0.11908656, -0.07425991,  0.00944718, -0.04313966, -0.14538103,
            0.01622684,  0.04449015, -0.02506153, -0.18910339, -0.09807395,
           -0.01199611,  0.02908013, -0.04274809, -0.05620090, -0.05411436,
            0.02189734, -0.01524676,  0.03442362,  0.08971245, -0.02395158,
           -0.04159426,  0.04058525,  0.03739579, -0.11149924, -0.03796908,
           -0.01488171, -0.03170686, -0.04159829,  0.00548290,  0.10607278,
           -0.03235764, -0.17120086,  0.06390431, -0.04417739,  0.12797000,
            0.05020569, -0.01625145, -0.02377647,  0.09878340, -0.00422251,
           -0.01406744, -0.17288794, -0.04734638,  0.00933219, -0.10632016,
            0.12835108,  0.04349491,  0.14874750, -0.02453250,  0.14443547,
            0.00090162,  0.00337205, -0.11926921, -0.05764730,  0.05817280,
           -0.03628052, -0.10470121,  0.07988652, -0.05807067, -0.04342637
};
