
// weight for Depthwise layer has dimension of torch.Size( 240, 1, 5, 5 )
const float MBConv6_4_depthwise_conv_conv2d_weights  [240 * 1 * 5 * 5]  =
{
0.00006526,      0.03372177,     -0.04971780,     -0.02814023,
                0.01680415 ,
                0.00040051,      0.36753756,     -0.03920339,      0.09209303,
                0.00910154 ,
               -0.05554442,      0.18110886,     -0.95340651,      0.02561600,
               -0.03398640 ,
                0.04206403,      0.13281411,     -0.16734868,      0.32067415,
                0.07793067 ,
                0.05215189,     -0.03123887,     -0.10709084,      0.13916957,
                0.00518165   ,


               -0.03792246,     -0.01068143,     -0.04909928,      0.00102920,
               -0.05171850 ,
               -0.00314063,     -0.07014789,     -0.20472868,     -0.10111795,
               -0.02993988 ,
               -0.06781489,     -0.15714020,      0.51735055,     -0.08501165,
               -0.07155640 ,
               -0.02757838,     -0.09773157,     -0.06737048,     -0.12976466,
               -0.07033537 ,
               -0.06665444,     -0.05743586,     -0.10402966,     -0.08131079,
               -0.07264600   ,


                0.04997000,      0.04235219,     -0.03960348,      0.06225058,
                0.02945174 ,
                0.03841125,     -0.12905484,     -0.21636190,     -0.11059835,
                0.02146828 ,
               -0.06007332,     -0.26265997,     -0.14749573,     -0.19339608,
               -0.02165690 ,
                0.00643860,     -0.16133875,     -0.14220147,     -0.10604227,
               -0.02420995 ,
                0.02782773,      0.01446669,      0.00437021,      0.00518735,
                0.02021980   ,


               -0.05617483,      0.12974201,      0.01316739,      0.09472416,
                0.01749221 ,
                0.12428255,      0.24279192,     -0.39460286,     -0.08966176,
                0.01986398 ,
               -0.00275315,     -0.41700128,     -0.11309753,     -0.12373417,
               -0.00760566 ,
                0.06786668,     -0.11100540,     -0.11916719,      0.07634261,
                0.03532492 ,
                0.03619235,      0.02412464,      0.00039817,      0.02997160,
                0.01278517   ,


                0.00449477,      0.00063988,      0.10696976,      0.03545915,
                0.02877382 ,
                0.00635504,      0.13355352,      0.53141022,      0.20919505,
                0.06299666 ,
               -0.02306151,      0.11061341,      0.10177011,      0.00037745,
               -0.01677265 ,
                0.00442149,     -0.12068225,     -0.44154716,     -0.18881282,
               -0.03799983 ,
               -0.00499534,     -0.08620501,     -0.25798583,     -0.13133696,
               -0.08365465   ,


               -0.04628083,      0.00455346,     -0.32217646,     -0.02374999,
               -0.07032145 ,
               -0.02250455,      0.10215235,     -0.14716361,      0.03469180,
                0.01888493 ,
               -0.24862024,     -0.19253649,      0.58771837,     -0.00053111,
               -0.15004489 ,
               -0.08484086,      0.12498733,      0.04656507,      0.07827505,
               -0.00584387 ,
               -0.08222568,      0.01860264,     -0.17956187,     -0.00539303,
               -0.04764374   ,


               -0.01119365,      0.00812361,      0.09847009,      0.02560557,
                0.01091659 ,
               -0.03891763,      0.03411254,      0.39541122,      0.05292521,
               -0.01412194 ,
                0.05685887,     -0.03679215,      0.07159253,      0.12476685,
                0.03543060 ,
                0.02822293,     -0.08129372,     -0.46408713,     -0.08171097,
                0.00379471 ,
               -0.04296317,     -0.03188638,     -0.11232489,     -0.03939716,
               -0.03569726   ,


               -0.00436735,     -0.12822668,     -0.10226537,      0.00751013,
               -0.07799666 ,
               -0.04994702,     -0.08335192,     -0.06613435,     -0.08689811,
               -0.12647983 ,
               -0.12505513,     -0.11069676,     -0.05431660,     -0.09096166,
               -0.05111468 ,
               -0.08356066,     -0.07788331,     -0.07249485,     -0.07435977,
                0.00218181 ,
               -0.07582983,      0.01956165,     -0.07063200,     -0.06882782,
               -0.02224754   ,


               -0.00001257,      0.03824821,      0.06626841,     -0.01990712,
               -0.02964336 ,
               -0.04665088,     -0.02921045,      0.28387728,      0.16684091,
                0.03168545 ,
               -0.13969651,     -0.43804348,     -0.04399792,      0.38532045,
                0.20254113 ,
                0.01963295,     -0.16471186,     -0.28921682,      0.04732426,
                0.07947952 ,
                0.03435675,     -0.01982756,     -0.16772193,     -0.04627393,
                0.01861779   ,


                0.00160661,     -0.04764044,     -0.02422801,     -0.07427172,
               -0.00647035 ,
               -0.00632748,     -0.01464435,      0.00808952,     -0.02475902,
                0.00942705 ,
               -0.06103291,      0.02314655,      0.69284958,      0.06354567,
               -0.01640706 ,
               -0.00721440,     -0.01227004,      0.03107184,      0.01214162,
                0.01937310 ,
               -0.01320180,     -0.02430248,     -0.00336036,     -0.02472362,
               -0.02911562   ,


               -0.01001384,      0.00075207,      0.08213419,     -0.03871128,
               -0.01174535 ,
                0.00335479,      0.05526705,      0.09473687,     -0.00297689,
               -0.00931753 ,
                0.03995897,      0.05628305,      0.59538609,      0.06328297,
                0.02150798 ,
                0.00620114,      0.06301428,     -0.03928411,      0.03489687,
                0.01548028 ,
                0.00086133,     -0.01103055,      0.00703055,     -0.01221340,
                0.00296843   ,


               -0.02472723,     -0.04048303,     -0.18181519,     -0.03949071,
               -0.04476681 ,
               -0.02477370,      0.02290758,     -0.05071495,     -0.00412073,
               -0.03863202 ,
               -0.21832965,     -0.07311632,      0.86800039,      0.09605468,
               -0.24274416 ,
               -0.04256570,      0.01373614,      0.17282590,      0.12386148,
               -0.05627564 ,
               -0.06100749,     -0.06309118,     -0.21136183,     -0.02720194,
               -0.11042847   ,


                0.00494470,     -0.00778844,      0.07387447,     -0.00914814,
                0.00339506 ,
               -0.00268246,      0.04707425,      0.47642189,      0.07170151,
                0.00085635 ,
               -0.00518582,     -0.03001822,      0.00045251,      0.10021045,
                0.02498450 ,
                0.02343780,     -0.06566212,     -0.39448234,     -0.13050908,
               -0.00150775 ,
                0.02324994,     -0.00925533,     -0.19549966,     -0.05608033,
               -0.01275573   ,


                0.01982346,      0.01284549,      0.04750897,     -0.01981265,
                0.03576350 ,
                0.01983466,      0.04245719,      0.36700186,      0.03824103,
                0.00652506 ,
                0.12653387,      0.46167240,     -0.13689044,     -0.34540445,
               -0.05074627 ,
               -0.00228610,      0.03517663,     -0.25355044,     -0.06612559,
               -0.10942927 ,
                0.03967359,      0.04557964,     -0.06615702,     -0.06001232,
               -0.08726611   ,


               -0.00243924,      0.02372292,     -0.04842130,      0.02437705,
                0.02294671 ,
                0.02547066,      0.02797934,     -0.08891772,     -0.01613789,
                0.06229463 ,
               -0.00677349,     -0.13819948,     -0.20672198,     -0.18132275,
               -0.04550623 ,
                0.03011149,     -0.09093294,     -0.23613037,     -0.13972667,
               -0.02769602 ,
                0.03958640,      0.04780010,     -0.00686237,     -0.00163954,
                0.02572867   ,


               -0.04293318,      0.03463595,     -0.02734149,      0.03596024,
                0.02381730 ,
               -0.06541936,      0.15799561,     -0.22095591,     -0.20530477,
               -0.08517869 ,
                0.10634568,      0.35875359,     -0.00509868,     -0.27795562,
               -0.01161902 ,
                0.05405641,      0.13470569,      0.06343136,      0.00755579,
               -0.00049188 ,
               -0.00621526,     -0.03492027,      0.00909954,      0.06347413,
               -0.04288469   ,


                0.00433141,     -0.02021783,     -0.09215873,     -0.01713924,
               -0.01918934 ,
               -0.04507956,     -0.11104606,     -0.09302999,     -0.13284397,
               -0.09769112 ,
               -0.12115191,     -0.10542347,      0.59168327,      0.02396245,
               -0.14769238 ,
               -0.02429730,     -0.14576772,      0.02218473,     -0.08910412,
               -0.10202752 ,
               -0.04962768,     -0.10666869,     -0.11342085,     -0.10498834,
               -0.09110811   ,


               -0.03545262,      0.00449821,      0.00665019,     -0.02483242,
               -0.00222361 ,
                0.01771107,      0.01949328,      0.09772161,      0.01856933,
                0.01408993 ,
                0.03375031,      0.11635750,      0.34301731,      0.08277100,
                0.06496979 ,
               -0.04168792,      0.01376796,      0.14131878,      0.02832597,
               -0.00477941 ,
                0.01905735,      0.03374330,      0.03615307,     -0.00541958,
                0.03559678   ,


               -0.01232002,     -0.01806497,     -0.07655237,     -0.04163763,
                0.01772371 ,
                0.00190141,      0.00214344,     -0.10925058,     -0.01783111,
                0.00869948 ,
               -0.01228503,     -0.14030293,     -0.42871651,     -0.15401174,
               -0.00576335 ,
                0.01398571,     -0.01470387,     -0.16402864,     -0.01558237,
                0.02572263 ,
               -0.00344949,      0.00167515,     -0.06424456,     -0.00966068,
               -0.00097257   ,


               -0.04272503,     -0.00777195,     -0.29585269,     -0.03214490,
               -0.05753312 ,
                0.01465481,      0.04434159,     -0.09914878,     -0.00535263,
                0.02330524 ,
               -0.26995191,     -0.06175267,      0.54210472,      0.08223686,
               -0.17064673 ,
               -0.06427561,      0.01073905,      0.07105424,      0.02230964,
                0.01775365 ,
               -0.06667548,      0.02647028,     -0.13948458,      0.02469720,
               -0.04052004   ,


               -0.03164604,     -0.05102690,     -0.19290315,     -0.05905161,
               -0.04123979 ,
               -0.04809256,      0.03338655,      0.02832759,      0.03023445,
               -0.04899941 ,
               -0.18407670,      0.04024558,      0.74882436,      0.11459720,
               -0.12992798 ,
               -0.05278707,     -0.01990756,      0.12498458,      0.03398173,
               -0.04840103 ,
               -0.06399006,     -0.05832670,     -0.06817414,     -0.05570187,
               -0.06412993   ,


                0.03174869,      0.03473381,     -0.02740526,      0.02208149,
                0.04971349 ,
               -0.00301011,      0.06758266,      0.16021802,      0.03297004,
                0.00518781 ,
               -0.01535845,      0.13712007,      0.31112280,      0.15611079,
                0.01767299 ,
               -0.01171960,      0.01840044,      0.16445604,      0.01926281,
                0.00614131 ,
                0.00325734,     -0.02241314,     -0.01531177,     -0.01414899,
                0.01524321   ,


               -0.00231985,      0.06070036,     -0.00128035,      0.04558590,
                0.02805847 ,
                0.06750353,     -0.02410869,     -0.34380880,     -0.04309643,
                0.07216621 ,
                0.01818233,     -0.20403048,     -0.15736832,     -0.25665683,
               -0.01079338 ,
                0.05095759,     -0.03024415,     -0.26202482,     -0.08993603,
                0.04552187 ,
                0.02273736,      0.06067365,     -0.01534887,      0.03407356,
                0.03580170   ,


                0.01839933,      0.00342592,     -0.08300459,      0.00509225,
                0.01026385 ,
                0.02913157,      0.12070236,     -0.17342716,      0.08940249,
                0.00502639 ,
               -0.04585761,      0.34033486,     -0.50603336,      0.21412754,
                0.01662535 ,
                0.01597716,      0.08137219,     -0.13966900,      0.02559593,
                0.00876245 ,
                0.02531423,      0.03643162,     -0.04827499,      0.01976544,
                0.02504297   ,


                0.00017491,     -0.05513519,     -0.00505505,      0.13899845,
                0.03395412 ,
               -0.03872387,     -0.27562892,     -0.20980054,      0.41493276,
                0.07213086 ,
                0.02778767,     -0.07807757,     -0.03500078,     -0.14953555,
               -0.00244964 ,
                0.10950668,      0.43262187,     -0.12817135,     -0.23764823,
                0.01438546 ,
                0.01110090,      0.03645067,     -0.02479138,      0.01868514,
                0.02289455   ,


               -0.04682422,      0.01725722,      0.08837034,      0.03810788,
               -0.02522752 ,
               -0.03816032,      0.10126953,      0.18507777,      0.17313340,
               -0.03311139 ,
                0.00715738,     -0.20812665,     -0.93870324,     -0.18909423,
               -0.01098844 ,
               -0.00075446,      0.17649704,      0.21549939,      0.19140261,
               -0.01321417 ,
               -0.04320162,      0.05399005,      0.08793417,      0.03611597,
               -0.03618109   ,


                0.03141057,     -0.00226767,     -0.01107567,      0.04041001,
               -0.03949327 ,
               -0.03641319,     -0.26814580,     -0.18053629,      0.20548101,
                0.10760129 ,
               -0.04792428,     -0.18876946,      0.50195515,     -0.04432235,
                0.02208851 ,
                0.03693651,      0.26077998,     -0.06647340,     -0.19543952,
               -0.03746210 ,
               -0.00651982,      0.07203798,     -0.02649710,     -0.05645082,
               -0.07286488   ,


               -0.01179702,     -0.05088121,      0.00413996,      0.05733093,
               -0.00180151 ,
               -0.01462605,      0.05391922,      0.01413028,     -0.08500782,
               -0.03477345 ,
                0.10773059,      0.61263633,      0.07586968,     -0.58521044,
               -0.23674116 ,
                0.02897898,      0.17810704,      0.04237698,     -0.12675548,
               -0.12484549 ,
                0.00591961,      0.05194248,      0.00730855,     -0.00989533,
               -0.03602913   ,


               -0.01355067,      0.14435370,      0.28318128,      0.16137044,
               -0.01044731 ,
                0.03868546,     -0.03417005,     -0.65343320,     -0.02067597,
                0.04230528 ,
               -0.02445194,     -0.00779463,     -0.11864969,     -0.04427236,
               -0.01990083 ,
               -0.02164254,      0.03763524,      0.00578739,      0.01598242,
                0.00745715 ,
               -0.02407825,      0.01187812,      0.02160073,     -0.02999842,
               -0.01062073   ,


               -0.01608361,     -0.02355504,     -0.08220369,     -0.01016078,
               -0.01359837 ,
               -0.01995703,     -0.09570470,     -0.10565306,     -0.17827143,
               -0.06750526 ,
               -0.12983637,     -0.07725502,      0.53491849,     -0.04720380,
               -0.17626713 ,
               -0.01087906,     -0.14622419,      0.01424995,     -0.11649901,
               -0.07337568 ,
               -0.04449296,     -0.06988933,     -0.15452780,     -0.07158890,
               -0.08016159   ,


                0.03025342,      0.03432622,     -0.01496889,      0.02813060,
                0.02681863 ,
               -0.01166354,      0.13685882,      0.40928125,      0.15260769,
                0.03710206 ,
               -0.03950426,     -0.25065720,     -0.50523537,     -0.17936759,
               -0.04361372 ,
               -0.00051656,      0.04530020,      0.05226082,      0.02383967,
               -0.02739171 ,
                0.01766376,      0.05724961,      0.02131373,      0.00295249,
                0.01040405   ,


               -0.00391216,      0.07422186,      0.01845373,     -0.08200532,
               -0.04510210 ,
               -0.02739006,      0.07448039,      0.43705547,      0.03047882,
                0.00603056 ,
               -0.12983771,     -0.45959219,      0.12897561,      0.31112206,
                0.10927930 ,
                0.03979376,     -0.12368432,     -0.34290108,      0.05625410,
                0.03067466 ,
                0.04435819,     -0.01230366,     -0.19580153,     -0.01026019,
               -0.01598423   ,


                0.04467163,      0.11941000,     -0.02824960,     -0.07110147,
                0.00633020 ,
               -0.03815645,      0.14847225,      0.11098109,     -0.06290589,
               -0.04618952 ,
               -0.03858551,      0.21013142,      0.31140780,      0.07961750,
               -0.00736266 ,
               -0.05817880,      0.00064423,      0.11396972,      0.06431236,
                0.04099426 ,
               -0.00424533,     -0.06894214,      0.06776597,      0.05035379,
               -0.00082462   ,


                0.05761377,     -0.00782309,      0.00844947,      0.01117322,
                0.06421675 ,
                0.00077134,      0.00012187,      0.08417020,     -0.01727984,
               -0.01419414 ,
               -0.00715865,      0.06551472,      0.37197050,      0.10204575,
                0.06601002 ,
                0.00849025,      0.02040206,      0.12604533,      0.05239441,
                0.02727386 ,
                0.04147939,     -0.03401095,      0.02150465,     -0.02186757,
                0.06225448   ,


               -0.05786470,     -0.08771997,     -0.16811740,     -0.07924616,
               -0.06169738 ,
               -0.06415994,      0.16912772,      0.07966094,      0.03472774,
               -0.01673341 ,
               -0.16825639,      0.13613296,      0.46126696,      0.20391907,
               -0.06542876 ,
               -0.09846866,     -0.00712848,      0.27277583,     -0.02364180,
               -0.02793319 ,
               -0.09825278,     -0.03709078,     -0.08655203,      0.04747441,
               -0.04061224   ,


               -0.04659646,     -0.01283226,     -0.09409881,     -0.03797179,
               -0.03407621 ,
               -0.03042763,      0.00784002,      0.05647204,      0.01861554,
               -0.01580659 ,
               -0.09008175,      0.01775425,      0.67091322,      0.02991729,
               -0.03039600 ,
               -0.01314885,      0.00685571,      0.06555609,      0.02387921,
                0.02253994 ,
               -0.01813897,     -0.01617200,     -0.03868541,      0.00264271,
               -0.01740508   ,


                0.01588587,     -0.00750245,     -0.17561069,      0.00765570,
                0.01295074 ,
               -0.03402076,      0.03341047,      0.08397740,     -0.03133723,
               -0.01124299 ,
               -0.14039032,      0.03607801,      0.70052576,      0.06257555,
               -0.09926169 ,
                0.01572410,      0.01148348,      0.14883377,      0.07092486,
                0.01057938 ,
               -0.02301890,     -0.03125575,     -0.12161781,      0.00041655,
               -0.01522504   ,


                0.04447884,      0.00896246,      0.10652840,      0.02459120,
                0.04365878 ,
                0.01859574,      0.06808535,      0.01575924,      0.06070804,
                0.01284998 ,
                0.10632881,      0.05106392,     -0.94188869,      0.06362326,
                0.10819277 ,
                0.02872788,      0.06342776,      0.04436548,      0.03979737,
                0.01689730 ,
                0.04663748,      0.00992945,      0.08737812,      0.01964357,
                0.05375350   ,


               -0.03250819,     -0.03192589,      0.10357382,      0.01512840,
               -0.05559715 ,
               -0.06309546,     -0.15688588,      0.31241953,     -0.09228686,
               -0.07457300 ,
                0.09082561,     -0.08318034,      0.30707127,     -0.02951181,
                0.09029906 ,
               -0.06374702,     -0.13283850,      0.36616194,     -0.02280658,
               -0.08262702 ,
               -0.04338064,     -0.08781193,      0.09331760,     -0.02956343,
               -0.06209462   ,


               -0.00765404,     -0.07196321,      0.10306983,      0.09659452,
                0.01164126 ,
               -0.07144877,     -0.06142183,      0.24772583,      0.05513556,
               -0.02809913 ,
               -0.01345899,      0.29991561,      0.21919674,     -0.24119823,
               -0.05879007 ,
                0.06966256,      0.15389249,     -0.17524785,     -0.12745659,
                0.04159832 ,
                0.07134396,      0.06236290,     -0.12075558,      0.00053686,
               -0.01611928   ,


               -0.02456350,     -0.00037138,     -0.03831541,     -0.02418577,
               -0.04931559 ,
               -0.02243909,      0.04281682,      0.02429155,      0.05628991,
               -0.02191268 ,
               -0.02653043,      0.06419376,      0.40067127,      0.07461336,
               -0.03526751 ,
               -0.01962439,      0.03822260,     -0.02471881,     -0.00065380,
                0.01294952 ,
               -0.07416750,     -0.00763055,      0.01680976,     -0.02620030,
               -0.05960344   ,


               -0.03514948,      0.05133850,      0.05856966,     -0.04924979,
                0.01274124 ,
               -0.06560010,      0.35328591,     -0.16325323,     -0.20102902,
                0.07986400 ,
                0.07698231,      0.18407966,     -0.70167726,      0.26557812,
                0.04670895 ,
                0.05590086,     -0.07486501,     -0.07843376,      0.14669476,
               -0.02947873 ,
                0.04520149,     -0.04822420,     -0.04853297,      0.11069166,
                0.02204237   ,


               -0.00209492,      0.02276661,      0.09410437,      0.07088248,
                0.00417896 ,
                0.09344560,      0.05962597,     -0.18072143,      0.02506404,
                0.09271758 ,
                0.16036510,     -0.13801683,     -0.44218865,     -0.22652301,
                0.07684129 ,
                0.11837266,      0.03478667,     -0.36150834,     -0.08885678,
                0.04866946 ,
                0.02900994,      0.08463468,      0.05891307,      0.07042132,
                0.01410860   ,


                0.01721390,      0.07423636,      0.18128166,      0.11619441,
                0.01793134 ,
                0.07173953,     -0.00040755,     -0.22288735,      0.01501913,
                0.02446690 ,
                0.16476494,     -0.09465575,     -0.48525658,     -0.11673478,
                0.08952849 ,
                0.05623781,     -0.06911312,     -0.28969759,     -0.08233734,
                0.03210924 ,
                0.03032727,      0.01585162,     -0.02710326,      0.03304490,
                0.01359962   ,


               -0.02274080,     -0.00706563,     -0.09014915,     -0.00097799,
               -0.05782103 ,
               -0.02316239,      0.00198818,      0.08470008,     -0.00434360,
               -0.01932536 ,
               -0.04647277,      0.01124244,      0.53494614,      0.07777660,
                0.00882740 ,
                0.01391411,      0.01960528,      0.09337191,      0.01394976,
                0.00531253 ,
               -0.01803584,     -0.02321704,     -0.03846387,      0.00150937,
               -0.03076916   ,


               -0.05206230,      0.03015448,      0.08764481,      0.13305634,
                0.04046195 ,
               -0.02453204,     -0.23311359,     -0.39527979,     -0.09295887,
                0.05768546 ,
                0.21451306,      0.13804294,      0.04676659,     -0.24858522,
               -0.16718158 ,
               -0.01575052,      0.06465124,      0.29980215,      0.09661668,
               -0.01445470 ,
               -0.03583992,     -0.04961142,      0.02535298,      0.03609595,
                0.04343979   ,


               -0.05007328,     -0.08562633,     -0.21232399,     -0.10129977,
               -0.06932592 ,
               -0.02474170,      0.04427275,      0.04688463,      0.00091248,
               -0.02838022 ,
               -0.28324163,      0.01096182,      0.57475734,      0.09852058,
               -0.22261517 ,
               -0.04818150,      0.02563376,      0.10663957,      0.04121106,
               -0.07472006 ,
               -0.07853764,     -0.05439518,     -0.16486390,     -0.05764436,
               -0.07857118   ,


                0.00461053,     -0.01371897,     -0.12772684,     -0.00502546,
                0.00376211 ,
                0.04118267,     -0.11756738,     -0.53893149,     -0.18385842,
                0.00061377 ,
               -0.02201831,      0.02057773,     -0.15192971,     -0.11089420,
               -0.10317283 ,
               -0.00564584,      0.12115736,      0.47574517,      0.12126120,
                0.03657271 ,
               -0.01506828,      0.06315819,      0.23363394,      0.08805364,
                0.04536657   ,


               -0.00665768,     -0.02127657,     -0.02805026,     -0.02420806,
               -0.00945827 ,
                0.00623627,      0.03470952,      0.07534084,      0.06441754,
                0.02101423 ,
               -0.08980568,      0.11234569,      0.48741427,      0.19379349,
               -0.04621719 ,
                0.00859511,      0.03495735,      0.16293442,      0.04696388,
                0.01893092 ,
               -0.00355329,     -0.01889588,     -0.01118742,      0.01224322,
                0.01496405   ,


                0.00814771,     -0.01064718,     -0.04262338,     -0.01002898,
                0.01530791 ,
               -0.03747527,     -0.14755182,     -0.16837975,     -0.14034633,
               -0.03970447 ,
               -0.10646765,     -0.08712649,      0.00231452,     -0.07036200,
               -0.09813592 ,
               -0.02657004,     -0.14237601,     -0.13015263,     -0.09323779,
               -0.01240430 ,
               -0.00317656,     -0.02055292,     -0.04060406,     -0.00237161,
                0.00870992   ,


                0.02291042,      0.05099221,      0.10674433,      0.02805099,
                0.03561758 ,
                0.00814516,      0.04332051,      0.21854620,      0.02283942,
                0.01025316 ,
                0.01098536,     -0.03005294,      0.15831125,     -0.04937510,
                0.02580943 ,
               -0.00009580,      0.02152950,      0.21700118,      0.00142294,
                0.03413064 ,
                0.00963676,      0.00893904,      0.01490077,      0.01029941,
                0.00848709   ,


                0.00155458,      0.05006713,     -0.02462153,      0.07807861,
                0.00997554 ,
                0.05527297,     -0.06382559,      0.34425420,     -0.08735395,
                0.05155263 ,
               -0.04576057,     -0.44901976,      0.00779001,      0.32555878,
                0.05717257 ,
               -0.08770356,      0.04597851,     -0.30038801,     -0.02022974,
                0.05309516 ,
               -0.02373230,     -0.02556920,     -0.03156103,      0.02099115,
                0.01496040   ,


                0.01984067,      0.00749041,      0.00352897,     -0.00141490,
                0.01970122 ,
                0.00604969,     -0.01854243,      0.08575483,      0.01768898,
               -0.01903217 ,
                0.01485587,      0.11540119,      0.47948262,      0.08810412,
                0.02877780 ,
               -0.01486063,     -0.03093347,      0.12328393,     -0.02256120,
               -0.01633769 ,
                0.00191548,     -0.00245380,      0.02016057,      0.00731787,
               -0.00550325   ,


                0.00105971,      0.04843000,     -0.00706424,     -0.02231379,
               -0.00416229 ,
               -0.01116622,     -0.12547831,     -0.06257596,      0.11395657,
                0.06440502 ,
               -0.17617333,     -0.61784011,     -0.10077345,      0.51445705,
                0.26509842 ,
               -0.06705111,     -0.25283700,     -0.03660798,      0.21229859,
                0.14357044 ,
               -0.04754698,     -0.07269236,     -0.02676817,      0.05587521,
                0.06418914   ,


                0.01245969,      0.09975599,     -0.22499256,      0.05376662,
                0.02150431 ,
               -0.00220702,      0.08028486,     -0.35852560,      0.05936105,
               -0.01008784 ,
                0.06252316,      0.13058266,     -0.33429182,      0.11898157,
                0.03251442 ,
               -0.04759471,      0.07964578,     -0.25592935,      0.08161963,
               -0.03973599 ,
                0.03319813,      0.11124849,     -0.27595931,      0.05435314,
                0.02289008   ,


               -0.02110765,      0.07683024,     -0.02959177,      0.10092314,
               -0.02710968 ,
                0.03950029,     -0.13499419,     -0.58137453,     -0.17619832,
                0.00664581 ,
               -0.03446949,      0.13757947,      0.90142143,      0.09741090,
               -0.04135136 ,
                0.04449020,     -0.11157572,     -0.27589950,     -0.02435098,
                0.03284981 ,
               -0.03434884,      0.03264916,     -0.07700010,      0.02188300,
               -0.02877651   ,


               -0.01261141,     -0.02200418,     -0.04635837,     -0.00408583,
               -0.02447391 ,
               -0.01529797,     -0.05683543,     -0.10854480,     -0.04425558,
               -0.03046032 ,
               -0.09198453,     -0.10216081,      0.70529366,      0.03586614,
               -0.04642456 ,
               -0.01932850,     -0.05192073,      0.02199803,     -0.01099727,
               -0.04294956 ,
               -0.01766743,     -0.01833641,     -0.06776658,     -0.02971159,
               -0.02262001   ,


               -0.01059221,      0.02126643,      0.00037727,      0.00608771,
               -0.02794178 ,
               -0.00525988,     -0.11052873,      0.14024174,      0.07895542,
                0.00125326 ,
               -0.03360901,     -0.47783145,     -0.05867319,      0.45457765,
                0.15000334 ,
                0.04469254,     -0.14371558,     -0.15496278,      0.11572599,
                0.04731604 ,
               -0.02157640,     -0.03691758,     -0.08301868,      0.03433606,
                0.03866696   ,


               -0.08183978,      0.05632454,      0.03716773,      0.03800405,
               -0.08444654 ,
                0.03028124,     -0.09860297,     -0.75669384,     -0.09503262,
                0.01869129 ,
                0.02068824,      0.17866999,      0.51501602,      0.17623997,
                0.05387444 ,
                0.00426116,     -0.00919400,      0.09526363,      0.00779005,
               -0.00095378 ,
                0.00887565,     -0.00667910,      0.01633457,     -0.00473899,
                0.00967037   ,


                0.02307036,     -0.02683659,     -0.12879851,     -0.02744896,
               -0.01587752 ,
               -0.05048512,     -0.05668728,     -0.04611919,     -0.02862753,
               -0.04068381 ,
               -0.19192277,     -0.12112052,      0.88141656,      0.07937928,
               -0.17469800 ,
               -0.05660060,     -0.05194320,      0.12429938,      0.02199732,
               -0.07288264 ,
               -0.05444147,     -0.03467439,     -0.12360626,     -0.01716602,
               -0.05386544   ,


                0.03065957,     -0.01816105,     -0.05924417,      0.00006642,
                0.00559827 ,
               -0.02685243,      0.01435514,      0.03479867,      0.04675105,
               -0.02759722 ,
                0.04279615,      0.11874565,      0.46334976,      0.15726629,
                0.01561780 ,
               -0.00225709,      0.02526041,      0.06532502,     -0.02246372,
                0.01970828 ,
               -0.02010212,     -0.01142446,      0.01651441,     -0.04076083,
               -0.00972332   ,


               -0.01995565,     -0.06255551,     -0.12104935,     -0.03752086,
               -0.02663360 ,
               -0.05616584,     -0.07208380,     -0.02049189,     -0.06656628,
               -0.06146519 ,
               -0.19426161,      0.04364927,      0.63881928,      0.08854911,
               -0.15324101 ,
               -0.03485088,     -0.05507034,      0.06938537,     -0.03588724,
               -0.04318333 ,
               -0.08152679,     -0.10182768,     -0.07294309,     -0.10471947,
               -0.08662397   ,


               -0.00877858,      0.00824326,     -0.05360493,      0.01581286,
                0.03842288 ,
               -0.00888450,     -0.11156416,     -0.39854211,     -0.17758533,
               -0.02311929 ,
                0.10733132,      0.08295129,     -0.03205149,     -0.04985829,
               -0.05313454 ,
               -0.04895074,      0.11002690,      0.52193677,      0.10167719,
               -0.01009680 ,
               -0.04938951,     -0.02455142,      0.18498653,     -0.00118373,
                0.02852635   ,


                0.01342490,      0.01316528,      0.04929486,     -0.02274907,
               -0.02970747 ,
               -0.01794959,      0.00472429,      0.38386601,      0.13945995,
                0.05152196 ,
               -0.10160619,     -0.38166437,     -0.02362261,      0.31736562,
                0.13385038 ,
                0.01816606,     -0.10781681,     -0.31165829,     -0.01639901,
                0.04500283 ,
                0.01614750,     -0.01325677,     -0.14729697,     -0.05321730,
               -0.00970436   ,


               -0.06446222,     -0.04769075,     -0.06777080,      0.01020189,
               -0.07122334 ,
                0.01308805,     -0.12657081,     -0.20668188,     -0.05725332,
               -0.03181265 ,
               -0.09257888,     -0.17295754,     -0.05530009,     -0.11374079,
               -0.07419207 ,
               -0.01433890,     -0.09135396,     -0.19754669,     -0.06513632,
                0.02301727 ,
               -0.06314764,     -0.00295301,     -0.00144956,     -0.02755870,
               -0.08616129   ,


               -0.04910913,      0.00910090,     -0.02690245,      0.00476303,
               -0.04542566 ,
                0.00629608,     -0.00563902,     -0.10260569,      0.00364647,
                0.00810546 ,
               -0.00057540,     -0.07234199,     -0.59872264,     -0.07752814,
               -0.07180504 ,
                0.00429986,     -0.01115756,     -0.07632501,     -0.01973189,
                0.00877922 ,
               -0.01276225,      0.00120492,     -0.07857946,      0.00512164,
               -0.02180625   ,


               -0.12319697,     -0.09804967,      0.01007021,     -0.08146586,
               -0.11211780 ,
               -0.07302622,      0.15440576,      0.27382353,      0.16483302,
               -0.04467518 ,
               -0.01172759,      0.23149049,     -0.87436002,      0.24626529,
                0.04360199 ,
               -0.11298236,      0.13833132,      0.25103644,      0.18133183,
               -0.04863590 ,
               -0.11327785,     -0.04122140,      0.05466145,     -0.04570282,
               -0.09651899   ,


               -0.01101353,     -0.00120430,      0.11275394,      0.00298357,
                0.01600893 ,
               -0.02324932,      0.12752213,      0.49654269,      0.18299679,
                0.04085706 ,
               -0.05511292,      0.01078912,      0.02698556,     -0.02032784,
               -0.03426766 ,
                0.04654812,     -0.10367668,     -0.41221538,     -0.14695372,
               -0.00347119 ,
                0.02219149,     -0.05020335,     -0.19653890,     -0.07878038,
               -0.01472950   ,


                0.10640210,     -0.08678620,     -0.06805095,      0.11672221,
               -0.03451522 ,
                0.06057620,     -0.02204700,     -0.35382733,      0.08741750,
               -0.01271468 ,
               -0.02117663,     -0.03455840,     -0.45163354,     -0.03293602,
               -0.00685007 ,
                0.00778516,      0.12927811,     -0.44110888,     -0.02593091,
                0.05677454 ,
               -0.03647254,      0.14506114,     -0.08656959,     -0.09467144,
                0.08036719   ,


                0.06823537,     -0.12890336,     -0.00488232,      0.02406662,
               -0.00448622 ,
               -0.01228641,      0.25542808,     -0.08859888,     -0.13063538,
                0.02214501 ,
               -0.14749023,      0.11601143,      0.55574590,      0.01168698,
               -0.11613307 ,
                0.01372514,     -0.13691588,     -0.06767480,      0.25018996,
               -0.00175908 ,
               -0.00772169,      0.03004928,     -0.02839233,     -0.11209278,
                0.05266725   ,


               -0.04211107,      0.13988011,     -0.17191747,      0.00116902,
               -0.00724232 ,
               -0.16986306,      0.23901102,      0.25373566,     -0.23986043,
                0.01624284 ,
                0.04576417,     -0.09772889,      0.72834194,     -0.10505807,
                0.07198786 ,
                0.03998088,     -0.23978890,      0.21036714,      0.19532105,
               -0.11364844 ,
                0.03195516,     -0.05390513,     -0.12567112,      0.11810178,
               -0.05884041   ,


                0.00473564,      0.02606556,      0.03560512,      0.02115184,
                0.00929851 ,
                0.02250111,      0.00495061,      0.00034388,     -0.00747337,
                0.00997742 ,
                0.01814502,     -0.04508319,      0.60158038,     -0.07071900,
                0.04508389 ,
                0.01654282,      0.02928247,     -0.02455303,      0.01875571,
                0.03341917 ,
               -0.00743973,      0.04501388,      0.07124349,      0.03633383,
                0.00720107   ,


                0.05476883,      0.01039086,     -0.00699529,     -0.01968827,
               -0.01691166 ,
                0.06174739,     -0.08631702,     -0.43538511,      0.10458036,
                0.05558028 ,
               -0.07344478,     -0.51466763,      0.17401610,      0.27026731,
                0.07864483 ,
               -0.05112803,      0.08088262,      0.21985349,     -0.13524663,
               -0.00493375 ,
               -0.02341718,      0.05360790,      0.07657703,     -0.02515240,
               -0.05983638   ,


               -0.02901365,     -0.03645391,      0.11751033,     -0.04209856,
               -0.00962458 ,
               -0.01129921,     -0.14933921,      0.31681114,     -0.07651003,
               -0.01395378 ,
                0.13503772,      0.43378329,     -0.49451202,      0.27918386,
                0.13259862 ,
                0.00517384,     -0.08706569,      0.18835281,     -0.07356069,
               -0.00457617 ,
               -0.00804942,     -0.03289375,      0.08118352,     -0.01195970,
                0.01223413   ,


               -0.04280640,     -0.04204134,      0.03942612,     -0.00058949,
               -0.05766403 ,
               -0.09701281,     -0.18087117,     -0.18439797,     -0.17797212,
               -0.13747662 ,
                0.03310132,      0.38271120,      0.35588372,      0.32158360,
                0.06103025 ,
               -0.04996468,     -0.04467439,     -0.06380557,     -0.02883625,
               -0.03419608 ,
               -0.07159105,     -0.05660483,      0.00390010,     -0.03627301,
               -0.05659056   ,


                0.00219217,      0.05617511,     -0.12974538,     -0.00341481,
               -0.01635434 ,
                0.10108688,     -0.32729992,     -0.13036615,      0.10081014,
               -0.01951040 ,
               -0.09077172,     -0.14562498,      0.70253688,      0.00827048,
               -0.07785148 ,
               -0.01250852,      0.11940949,      0.00811792,     -0.26365709,
                0.03789833 ,
               -0.00036020,     -0.01712556,     -0.10524329,     -0.01455392,
                0.00025127   ,


               -0.02163753,     -0.00594111,     -0.04166166,     -0.03770854,
               -0.01105791 ,
               -0.01312897,     -0.01078506,      0.06099182,     -0.01557693,
               -0.02248738 ,
                0.00363026,      0.05891167,      0.47270826,      0.07046665,
                0.00063852 ,
               -0.02752548,      0.01912161,      0.10321058,      0.01218573,
               -0.02894898 ,
               -0.02384916,     -0.02888331,      0.02023333,     -0.01475078,
               -0.03155588   ,


                0.03239439,     -0.00123479,      0.11417215,      0.05010299,
                0.01278243 ,
                0.01385925,      0.01280054,      0.14079221,      0.02352253,
                0.00332444 ,
                0.03713806,      0.04736600,      0.31853834,     -0.05564769,
                0.05722919 ,
                0.11110764,     -0.02880223,     -0.01483900,     -0.01285197,
                0.07982816 ,
               -0.01332267,     -0.03666694,      0.00852592,      0.00259780,
               -0.03113433   ,


                0.00713564,     -0.00625646,      0.01831381,     -0.06627893,
               -0.00843808 ,
               -0.03338882,     -0.08414973,      0.11310941,     -0.06823536,
               -0.09302197 ,
               -0.06260445,      0.10618024,      0.86970711,      0.04115724,
               -0.05729213 ,
               -0.06445113,     -0.05406035,      0.02632722,     -0.04517405,
                0.00971206 ,
               -0.00052090,     -0.09216338,     -0.00995521,      0.00555284,
                0.01159972   ,


                0.00299782,     -0.02585286,     -0.13484769,      0.11658949,
               -0.00996908 ,
                0.04478082,     -0.31340903,      0.25659299,      0.17956285,
               -0.12720427 ,
                0.07675970,     -0.09751891,      0.68935937,     -0.07002211,
                0.04886713 ,
               -0.15950507,      0.16718633,      0.13778529,     -0.15618442,
               -0.02031765 ,
               -0.02796942,      0.07764703,     -0.11758815,     -0.00144883,
                0.00600349   ,


               -0.05451515,     -0.06983010,     -0.16087916,     -0.04460917,
               -0.06006987 ,
               -0.05553513,     -0.17720866,     -0.05305129,     -0.12839295,
               -0.09183790 ,
               -0.15507638,     -0.06367437,      0.37583837,      0.09306789,
               -0.15862359 ,
               -0.06629368,     -0.07953300,      0.05560914,     -0.02231009,
               -0.09460889 ,
               -0.07602301,     -0.08490119,     -0.12349803,     -0.06798558,
               -0.09256491   ,


               -0.03870407,     -0.05618269,     -0.12292785,     -0.03299535,
               -0.06856093 ,
               -0.00988400,      0.04064730,      0.00432430,      0.00922835,
               -0.06944668 ,
               -0.14947793,      0.00173540,      0.58292586,      0.11427777,
               -0.09963232 ,
               -0.06961382,      0.02037883,      0.24433653,      0.09109969,
               -0.01985227 ,
               -0.07214438,     -0.02275050,     -0.12706350,     -0.00458853,
               -0.05785568   ,


               -0.03153684,     -0.00342445,      0.16953996,      0.00367306,
               -0.02932372 ,
                0.00402923,      0.04566443,      0.03388027,      0.05540442,
               -0.00553692 ,
               -0.00662147,      0.06966929,      0.51928484,      0.04474957,
                0.00260670 ,
               -0.00146549,      0.03073001,      0.14662868,      0.02584866,
               -0.00192569 ,
               -0.01984712,      0.00473892,      0.11942478,      0.01710255,
               -0.02898920   ,


               -0.01986632,     -0.13844149,      0.03337342,      0.02857546,
                0.07434392 ,
                0.01694022,      0.20380881,      0.41543287,      0.07393084,
               -0.01828599 ,
                0.12162320,      0.11699070,     -0.27604979,     -0.31475934,
               -0.17236501 ,
               -0.02989184,     -0.19145000,     -0.21658370,      0.06627820,
                0.05356574 ,
                0.00596433,      0.03721521,      0.07225624,      0.03543849,
                0.03740257   ,


                0.01963487,     -0.01435614,      0.05340275,     -0.00670852,
                0.02041330 ,
                0.00859724,     -0.02695658,      0.18438742,     -0.03499846,
                0.00994941 ,
                0.05151839,      0.07378866,      0.40624553,      0.00112856,
                0.03381526 ,
                0.00176750,     -0.05458912,      0.04277902,     -0.07724851,
               -0.02382831 ,
                0.01309047,      0.01927035,     -0.01022222,      0.00528296,
                0.01400128   ,


                0.06839680,     -0.04192456,     -0.13455054,     -0.00636185,
               -0.00450950 ,
               -0.00272491,      0.08012164,      0.13169551,     -0.01098214,
               -0.08639224 ,
                0.04983823,      0.54739285,     -0.50847405,     -0.20923124,
               -0.03774521 ,
                0.02362726,     -0.05805231,     -0.14530015,      0.01015970,
               -0.01549919 ,
                0.02362635,     -0.07978045,     -0.11465926,     -0.04570520,
               -0.03885039   ,


               -0.08554041,     -0.07018587,     -0.11620673,     -0.08778811,
               -0.00188916 ,
               -0.10406303,     -0.03474506,     -0.06856830,     -0.10745993,
               -0.04971686 ,
               -0.10362695,     -0.09832574,     -0.03282056,     -0.09165446,
               -0.10052931 ,
                0.02958689,     -0.09795780,     -0.05823505,     -0.05630707,
               -0.10285123 ,
               -0.03397463,     -0.07742956,     -0.09641825,      0.01518447,
               -0.07211868   ,


               -0.01773996,      0.02409604,     -0.05880043,     -0.00348508,
               -0.03173381 ,
               -0.01439918,     -0.09890703,     -0.37805852,     -0.17128696,
               -0.04757722 ,
               -0.07187234,     -0.37955016,      0.65043724,      0.03518255,
               -0.07434738 ,
               -0.01544936,     -0.14661320,      0.04926738,     -0.01720666,
               -0.00164312 ,
               -0.01271095,     -0.02365521,     -0.11170655,     -0.00999511,
               -0.02961046   ,


                0.03984927,      0.01407156,      0.02772921,      0.01953089,
                0.03027334 ,
                0.02305725,     -0.01840614,      0.01389267,     -0.02674136,
                0.00861281 ,
                0.00779274,      0.02714139,      0.47459707,      0.02320247,
               -0.02548923 ,
                0.01656104,      0.00973288,      0.05849183,     -0.00237197,
                0.00755226 ,
                0.01685364,      0.00209142,     -0.00724997,     -0.01410388,
                0.01656726   ,


                0.00116548,     -0.02560522,     -0.00024748,      0.02637608,
               -0.00452720 ,
                0.02052731,      0.03856337,      0.00800736,     -0.06776036,
               -0.02021147 ,
                0.05899852,      0.46905529,      0.06303103,     -0.50634152,
               -0.10286948 ,
                0.03313972,      0.07679464,      0.06166241,     -0.14709067,
               -0.06646767 ,
                0.00732581,      0.02465372,     -0.00380367,      0.00473960,
               -0.01129017   ,


                0.00828384,      0.00781584,      0.09091371,     -0.02258609,
               -0.00514841 ,
                0.02555706,      0.07622003,      0.04319709,      0.06203254,
                0.03920703 ,
               -0.10236218,      0.13113472,      0.54769373,      0.10293652,
               -0.08040248 ,
                0.01883951,      0.12522189,      0.03796588,      0.10744945,
                0.04679879 ,
                0.03320599,      0.00784499,      0.04517907,      0.00926201,
               -0.00545341   ,


                0.06975503,     -0.10953534,     -0.38233122,     -0.08757611,
                0.05043245 ,
               -0.11152217,      0.04912768,      0.08635555,      0.09462924,
               -0.10072217 ,
               -0.25128222,      0.22220889,      0.45730054,      0.25084168,
               -0.17403625 ,
               -0.12148138,      0.02189899,      0.18759130,      0.07947335,
               -0.08243145 ,
                0.09484082,     -0.06990048,     -0.39810890,     -0.02895493,
                0.05765992   ,


               -0.01503401,      0.11251054,     -0.00046302,     -0.03685309,
               -0.10723241 ,
                0.03621364,     -0.00949656,     -0.52124143,      0.00016636,
               -0.07797782 ,
                0.05226836,      0.16562724,      0.28796825,     -0.38648561,
               -0.04291836 ,
                0.03162936,     -0.06593436,      0.22981003,     -0.00761926,
                0.07121716 ,
                0.06052427,      0.06320282,      0.10232783,     -0.01204614,
                0.02314948   ,


                0.03060230,      0.03472900,     -0.01045748,      0.01327440,
                0.02314096 ,
                0.02411841,     -0.02739997,      0.08884535,     -0.00673897,
               -0.00576322 ,
                0.01343399,      0.15058629,      0.36682412,      0.14428015,
                0.03545005 ,
               -0.00544285,      0.04825795,      0.12857340,      0.00909432,
               -0.00016198 ,
                0.02287482,      0.01780913,      0.00549230,      0.00738144,
                0.03878321   ,


               -0.09110165,     -0.07679350,     -0.10968867,     -0.12601563,
               -0.14929396 ,
               -0.09153925,     -0.09988438,      0.03330177,      0.06320614,
               -0.05251462 ,
               -0.17409578,     -0.08684263,      0.19732636,      0.22548047,
                0.12177374 ,
               -0.12946661,     -0.00682239,      0.26459852,      0.15023619,
                0.09653299 ,
               -0.16313580,     -0.10454998,      0.10418142,      0.05666371,
                0.11182210   ,


               -0.00795135,      0.02360967,      0.02140838,     -0.02677095,
               -0.01881056 ,
                0.01483055,     -0.16432309,     -0.22310011,     -0.07608330,
               -0.11282039 ,
               -0.15630892,     -0.19179553,     -0.08936687,      0.11633556,
                0.02147050 ,
               -0.02704834,      0.07500193,      0.41589823,      0.21257359,
                0.06933136 ,
                0.00464638,     -0.10213015,      0.09787647,     -0.03266903,
               -0.04284529   ,


               -0.04203722,     -0.06253254,     -0.08140770,     -0.07609266,
               -0.06213620 ,
               -0.03554152,      0.00640752,      0.03470695,     -0.01687180,
               -0.02537134 ,
               -0.10056955,     -0.00232829,     -0.12519322,     -0.03234970,
               -0.06859453 ,
               -0.05553995,     -0.05442719,      0.03372515,     -0.01000056,
               -0.02318874 ,
               -0.03868930,     -0.04264941,     -0.03543937,     -0.05659619,
               -0.01702991   ,


                0.02563624,      0.00850936,      0.02789018,     -0.01889567,
                0.03166553 ,
                0.05217567,      0.05370920,     -0.56987792,      0.01993695,
                0.00911803 ,
               -0.11784425,     -0.09511058,      0.91516030,     -0.00288689,
               -0.10144302 ,
                0.02582904,      0.01035986,     -0.26192582,      0.02057067,
               -0.00209524 ,
                0.01768393,      0.05498016,     -0.10957051,      0.01055591,
                0.03773160   ,


               -0.04646229,     -0.03358605,      0.03167190,     -0.01273541,
               -0.05348138 ,
               -0.02760448,      0.02903178,      0.33116037,      0.09246809,
               -0.02833635 ,
                0.02251924,      0.39302155,      0.15089750,      0.40746772,
                0.05619131 ,
               -0.02667192,      0.08757807,      0.43786889,      0.10440266,
               -0.03090610 ,
               -0.04378495,     -0.03719411,     -0.00449295,     -0.05613973,
               -0.06594437   ,


                0.02622433,      0.05778383,     -0.09426383,     -0.03396042,
                0.05607733 ,
                0.00473537,      0.16817197,     -0.37696028,      0.04011273,
                0.05184403 ,
                0.07731503,     -0.23987688,     -0.02893566,      0.27662557,
               -0.01959268 ,
                0.02935541,     -0.28305677,      0.26155677,      0.03778823,
                0.05313697 ,
               -0.03707938,     -0.08083548,      0.10570377,      0.02279146,
               -0.00009159   ,


                0.04206669,     -0.17624737,      0.10826453,      0.10888553,
               -0.14694534 ,
                0.00936106,     -0.13969262,      0.28568244,      0.01040727,
               -0.11755367 ,
                0.07079235,      0.08343694,      0.39831114,      0.08580650,
                0.08333236 ,
               -0.15740442,      0.05156302,      0.32287440,     -0.11405025,
               -0.01980468 ,
               -0.10362116,      0.08544294,      0.07501654,     -0.13771313,
                0.01348156   ,


                0.06899478,      0.02772842,      0.04997240,      0.04361544,
                0.06158622 ,
                0.07630167,      0.06875752,     -0.00383320,      0.01930037,
                0.03467634 ,
                0.05474523,      0.07019833,      0.09575219,      0.07765054,
                0.07813688 ,
                0.06640921,      0.03478581,      0.04357919,      0.02524255,
                0.04323651 ,
                0.06958038,      0.01920876,      0.04243102,      0.00892178,
                0.03435848   ,


                0.00553145,      0.03889015,      0.00986214,      0.05186810,
               -0.05789379 ,
                0.09259287,     -0.32015648,     -0.19874056,      0.14739883,
                0.04006558 ,
                0.00025917,     -0.21469617,     -0.56415081,     -0.21989246,
                0.02219627 ,
                0.04284899,      0.13655046,     -0.22876653,     -0.23285745,
                0.03502770 ,
               -0.05856239,      0.03978393,     -0.00025859,      0.08376004,
               -0.01552031   ,


                0.00949120,      0.01470333,     -0.01724493,      0.04181942,
                0.02897899 ,
                0.01443594,      0.14999184,      0.42808113,      0.14451738,
                0.02238649 ,
                0.07751604,     -0.16453885,     -0.48990181,     -0.25569189,
               -0.00810292 ,
                0.00409971,     -0.04145618,      0.10611582,      0.06851801,
               -0.02676810 ,
               -0.01840743,      0.00813606,      0.03220257,      0.01278087,
                0.00213766   ,


               -0.03902567,     -0.03780012,     -0.20782666,     -0.03439390,
               -0.03137330 ,
               -0.02372591,     -0.01019946,      0.07826168,     -0.03469169,
               -0.00757596 ,
               -0.09108645,      0.10435011,      0.55261809,      0.08510409,
               -0.06999746 ,
               -0.01818006,      0.01006129,      0.11255898,      0.03548002,
               -0.00881983 ,
               -0.01923502,     -0.00259632,     -0.05822582,      0.01483685,
               -0.01337807   ,


               -0.01803393,      0.04152007,     -0.00526982,      0.03278582,
               -0.01181382 ,
                0.07612890,     -0.06920450,     -0.16797823,     -0.09017740,
                0.10874034 ,
               -0.04058095,     -0.33773324,      0.22880253,     -0.42642030,
                0.00119645 ,
                0.11702323,     -0.12625678,     -0.48219588,     -0.10235186,
                0.10853680 ,
                0.07290789,      0.14512186,      0.07955842,      0.12626332,
                0.05873292   ,


               -0.01722975,     -0.00945931,      0.05904754,     -0.03737273,
               -0.02319807 ,
                0.04871585,      0.04147195,     -0.12429661,      0.03677925,
                0.05594050 ,
                0.11859313,      0.28251344,     -0.81390935,      0.25365764,
                0.17575628 ,
                0.07800172,      0.09428748,     -0.18889008,      0.10167240,
                0.06217859 ,
               -0.03294327,     -0.00861772,      0.06019545,     -0.00650147,
               -0.01221464   ,


               -0.02602272,     -0.00038601,     -0.08803625,     -0.03269836,
               -0.02346388 ,
                0.00421739,     -0.15077551,     -0.49145412,     -0.20429352,
               -0.02623689 ,
                0.01190619,     -0.02533197,     -0.13733916,     -0.00226187,
                0.00532480 ,
               -0.03108145,      0.10552981,      0.38658121,      0.17912371,
                0.00358690 ,
               -0.01115720,      0.07046659,      0.21532537,      0.09859299,
                0.03691482   ,


               -0.00449057,     -0.02451694,     -0.04945211,     -0.03064445,
               -0.00526120 ,
               -0.00361531,      0.00959972,      0.12275339,      0.04311443,
                0.01607021 ,
               -0.05902757,      0.15338217,      0.30305654,      0.13874397,
               -0.00819776 ,
               -0.00806517,      0.07388604,      0.09311642,      0.08047202,
                0.03440934 ,
               -0.02334776,     -0.00483113,      0.01276158,      0.01888808,
                0.01383131   ,


                0.02228801,     -0.01767215,      0.05413826,      0.03565068,
                0.01036401 ,
                0.05523366,     -0.06308034,      0.11294186,     -0.04297457,
               -0.01674086 ,
               -0.03094318,      0.09086701,      0.65650374,      0.12218908,
               -0.07128055 ,
               -0.00200002,     -0.08527865,      0.23104456,     -0.07383939,
                0.05397323 ,
                0.03076489,      0.01319071,      0.04187993,      0.00871648,
                0.03192599   ,


                0.00382298,     -0.14901757,     -0.02451069,     -0.04523981,
               -0.01837854 ,
                0.00759067,     -0.15158123,     -0.19051632,     -0.11123577,
                0.00257359 ,
               -0.04973148,     -0.21944749,     -0.17675111,     -0.13321531,
               -0.08018681 ,
                0.02843352,     -0.12881942,     -0.14478835,     -0.06820866,
                0.01225610 ,
               -0.01388244,     -0.13398306,     -0.02130848,     -0.09903102,
               -0.05247647   ,


               -0.00874813,      0.01325144,      0.12728183,      0.03628540,
                0.01122467 ,
                0.02179833,      0.15634766,      0.59699094,      0.22381344,
                0.07249392 ,
               -0.02279988,      0.09272536,      0.01507268,     -0.00350871,
               -0.01591756 ,
               -0.00038420,     -0.11612417,     -0.50777811,     -0.19420108,
               -0.03214930 ,
               -0.02393115,     -0.06222585,     -0.23921002,     -0.12771748,
               -0.08294890   ,


               -0.05379034,     -0.05377653,     -0.14352019,     -0.06161007,
               -0.04018835 ,
               -0.03521997,      0.12838015,      0.12518927,      0.00210571,
               -0.03832087 ,
               -0.08449548,      0.03508128,      0.35533258,     -0.08197768,
               -0.12690982 ,
               -0.05425239,     -0.05862208,     -0.29074267,     -0.11232516,
               -0.11380340 ,
               -0.05424824,     -0.05365057,     -0.20353429,     -0.15821880,
               -0.06231336   ,


               -0.01913896,     -0.00502181,     -0.07223348,     -0.01474828,
               -0.03261805 ,
               -0.02038890,     -0.14057167,     -0.22691856,     -0.15481839,
               -0.06842694 ,
               -0.06511260,     -0.16872801,      0.58055258,     -0.05556279,
               -0.13388035 ,
               -0.02439157,     -0.13223009,     -0.00726567,     -0.07665289,
               -0.06376493 ,
               -0.02269950,     -0.08058858,     -0.12288992,     -0.06980143,
               -0.06561888   ,


               -0.05774865,     -0.05710939,      0.12062486,     -0.10776482,
               -0.11513232 ,
               -0.02336158,      0.07183087,      0.01306509,      0.06923483,
               -0.09675574 ,
               -0.20114408,     -0.02825835,      0.20941056,      0.11411528,
                0.15877242 ,
                0.19591224,      0.01287356,      0.07966134,     -0.08673412,
               -0.14936915 ,
               -0.07864406,     -0.11139648,      0.15097980,     -0.04187334,
               -0.05895743   ,


                0.00242891,     -0.02720262,     -0.08329634,     -0.05081946,
               -0.00793014 ,
               -0.04256878,      0.03251777,      0.06395763,      0.06121279,
               -0.03921294 ,
               -0.05727421,      0.10643236,      0.67995328,      0.11806311,
               -0.01958862 ,
               -0.01892980,      0.04021901,      0.12544121,      0.06938192,
                0.00272264 ,
               -0.01954698,     -0.05745375,     -0.02818321,     -0.03496731,
               -0.04747178   ,


               -0.01565309,      0.01010070,      0.03527867,      0.00665102,
               -0.07811522 ,
                0.01367791,      0.10611054,      0.14374080,      0.09512824,
               -0.02498019 ,
                0.09360353,      0.11010920,      0.16189906,      0.10423255,
               -0.00821703 ,
                0.00818216,      0.05207336,      0.01732395,     -0.02665105,
               -0.01095275 ,
               -0.07524259,     -0.08318836,     -0.08156943,     -0.08304694,
               -0.06871361   ,


                0.05713771,      0.07636557,     -0.13297826,      0.00811222,
                0.03448398 ,
               -0.01806185,      0.10241597,     -0.21222425,      0.04545468,
                0.01126181 ,
                0.05922461,      0.29714212,     -0.33097592,      0.11359429,
                0.07694779 ,
                0.00912949,      0.10918892,     -0.23233868,      0.03517492,
               -0.00042421 ,
                0.05323088,      0.06372373,     -0.19656590,      0.01766332,
                0.03676761   ,


                0.03685511,     -0.01368495,      0.09500741,     -0.04013421,
                0.05453938 ,
               -0.01680283,      0.02703869,      0.51019228,     -0.03179706,
               -0.05219281 ,
               -0.05011974,      0.12480631,     -0.59203267,     -0.00035093,
               -0.10759903 ,
               -0.03049039,     -0.04738513,     -0.15991093,      0.02698191,
                0.03719851 ,
                0.00444537,     -0.09802636,     -0.00683519,     -0.03809893,
               -0.03308582   ,


                0.00162391,      0.03822647,     -0.03052912,      0.02735022,
               -0.00309499 ,
               -0.00085496,     -0.05213367,     -0.18892822,      0.01733868,
               -0.00935298 ,
               -0.02852545,     -0.35870034,     -0.42003459,     -0.39106375,
               -0.02648788 ,
                0.00851625,      0.00675286,     -0.15549125,     -0.00944963,
                0.00983626 ,
               -0.00239461,      0.02183739,     -0.05371561,      0.02447701,
                0.00100771   ,


               -0.10088992,     -0.07187826,     -0.16727887,     -0.06885042,
               -0.10597853 ,
               -0.06420290,      0.05895122,      0.15203097,     -0.05293807,
               -0.07217037 ,
               -0.13019431,      0.15489720,      0.56383073,      0.12013397,
               -0.11014810 ,
               -0.07607543,     -0.07929340,      0.11869984,      0.02733289,
               -0.04382188 ,
               -0.09853838,     -0.06234738,     -0.06431946,     -0.05957016,
               -0.14940764   ,


                0.01307792,     -0.03658105,     -0.02819284,      0.09378100,
               -0.01294111 ,
                0.15511028,     -0.02563352,     -0.48208389,      0.25674272,
                0.03352901 ,
               -0.04388126,      0.31954983,     -0.23813452,     -0.13861148,
                0.08776262 ,
               -0.02140909,      0.07438737,      0.18021168,     -0.19327788,
                0.01868850 ,
               -0.03327069,      0.08420664,      0.13110405,     -0.15151305,
                0.00103217   ,


                0.01975990,     -0.01289336,     -0.02410187,     -0.03731529,
                0.00141975 ,
                0.00812467,     -0.01183510,     -0.00542913,     -0.01754113,
                0.03538805 ,
               -0.04444482,      0.03101894,      0.74230146,      0.00647308,
                0.00477955 ,
               -0.01319705,     -0.00672945,      0.00998585,      0.00222111,
                0.00718901 ,
               -0.00266738,      0.00564588,      0.03258239,     -0.00548662,
                0.01991455   ,


               -0.00110674,     -0.03663470,      0.10462475,     -0.02823627,
                0.00270740 ,
               -0.05413577,     -0.01102902,      0.27977753,      0.05703200,
               -0.04537240 ,
                0.09620302,      0.23649833,     -1.19349623,      0.15345514,
                0.05329568 ,
               -0.00635977,      0.03596355,      0.11180902,      0.03712174,
                0.00039776 ,
                0.00784500,     -0.03628373,      0.04649837,     -0.03212265,
                0.01066953   ,


               -0.01051019,     -0.02091491,      0.08556011,     -0.01886585,
               -0.01584606 ,
               -0.04684447,     -0.09595330,      0.00105985,     -0.10528878,
               -0.05500166 ,
               -0.02662742,     -0.05406806,     -0.08987923,     -0.06602743,
               -0.05561433 ,
               -0.09503028,     -0.13481922,     -0.00121009,     -0.11088582,
               -0.06188450 ,
               -0.04314622,     -0.03978923,      0.07062762,     -0.03203082,
               -0.04323963   ,


               -0.11215553,     -0.09791989,     -0.04043566,     -0.10970499,
               -0.10628288 ,
               -0.13801135,     -0.01410282,      0.17202102,     -0.03392230,
               -0.12254851 ,
               -0.04421583,      0.20123136,      0.63427812,      0.14872673,
               -0.04277238 ,
               -0.10499267,      0.02694267,      0.17415199,      0.05989020,
               -0.09189010 ,
               -0.11448534,     -0.09890466,     -0.04598182,     -0.06321090,
               -0.07221606   ,


                0.04608936,     -0.05737415,      0.29519045,     -0.00367432,
                0.02562627 ,
                0.00063660,     -0.02106930,      0.37895650,      0.02437395,
               -0.04651655 ,
                0.35085946,      0.20239602,     -0.49603528,     -0.08314365,
                0.14038298 ,
                0.00693326,     -0.07260182,     -0.13864882,     -0.15965228,
               -0.08215324 ,
                0.03041518,     -0.06696062,      0.09598736,     -0.06385126,
               -0.04221723   ,


               -0.00288431,      0.16667350,      0.03161106,     -0.08378606,
               -0.01374155 ,
               -0.10531901,      0.06691913,      0.24574839,     -0.10526031,
               -0.00533277 ,
               -0.07203534,     -0.30635870,      0.26463738,      0.16545933,
                0.02481093 ,
                0.12247476,     -0.19237854,     -0.09554092,      0.09130666,
                0.02353293 ,
                0.04391774,     -0.03151362,     -0.15565284,      0.08522893,
                0.01093201   ,


                0.04578559,      0.03388811,     -0.01380179,      0.01696999,
                0.05118947 ,
                0.01572988,      0.14408731,     -0.28200293,      0.13799533,
                0.00859482 ,
                0.01315035,      0.26916131,     -0.66524667,      0.22256778,
                0.00893454 ,
                0.03101864,      0.13959579,     -0.27186236,      0.09003846,
                0.04993454 ,
                0.06684464,      0.06363146,     -0.05364492,      0.01883434,
                0.06100447   ,


                0.02495310,      0.03116200,      0.10227225,      0.02715374,
                0.03227530 ,
                0.01241036,      0.06032372,      0.06071502,      0.05133669,
                0.01323992 ,
                0.10482052,      0.07698764,     -0.93310761,      0.06288541,
                0.09079692 ,
                0.02350453,      0.05421368,      0.01508465,      0.02432790,
                0.02763808 ,
                0.04545179,      0.01208235,      0.09372019,      0.02739522,
                0.04856724   ,


               -0.05102189,     -0.05025814,     -0.39986226,     -0.08507217,
               -0.08330965 ,
               -0.04692874,      0.08477744,      0.10757081,      0.05247415,
               -0.01064821 ,
               -0.42883375,      0.04607607,      0.44001257,      0.06698415,
               -0.12220286 ,
               -0.09157830,      0.05696098,      0.08320995,      0.02024804,
               -0.00779326 ,
               -0.06424313,     -0.00909938,     -0.09064846,      0.03302446,
               -0.05802919   ,


                0.00806304,      0.01457074,     -0.00436032,     -0.10828055,
               -0.12410138 ,
               -0.18445903,     -0.10150948,      0.06616586,      0.12708637,
                0.12282543 ,
                0.06676157,      0.32352978,      0.34812456,      0.26267955,
                0.00041851 ,
                0.10308683,      0.07042227,      0.00084267,     -0.09090436,
               -0.09671099 ,
               -0.12310921,     -0.08652467,      0.03195605,      0.01002539,
               -0.00451353   ,


               -0.03495028,     -0.08819147,      0.09752251,      0.05738063,
                0.03590976 ,
               -0.09091558,     -0.19722599,      0.16231143,      0.07371560,
                0.00958569 ,
               -0.00378520,     -0.43652308,      0.10179966,      0.17624955,
               -0.02710193 ,
               -0.02410982,     -0.17388926,      0.04118255,      0.08610941,
                0.01579497 ,
               -0.04273777,     -0.08326554,      0.02159349,      0.03763118,
                0.03918544   ,


               -0.03647365,      0.00154460,     -0.29875290,     -0.04363800,
               -0.02619446 ,
               -0.02475608,      0.05157166,     -0.02342573,     -0.00493362,
               -0.03197492 ,
               -0.31509069,     -0.14672992,      0.80922735,      0.07919551,
               -0.22097443 ,
               -0.03058906,      0.01052595,      0.17813185,      0.04979303,
               -0.00837114 ,
               -0.08712708,     -0.03304966,     -0.20755795,     -0.02039181,
               -0.04259830   ,


                0.04021043,      0.03827407,      0.17437918,      0.04731182,
                0.04470912 ,
                0.02131194,      0.06283262,     -0.07567354,      0.07627185,
                0.02709397 ,
                0.14207046,     -0.07171901,     -0.75460541,     -0.09387310,
                0.12931071 ,
                0.04134519,      0.01385036,     -0.12703949,     -0.01917387,
                0.03929730 ,
                0.06437924,     -0.01332762,      0.10452703,      0.01418283,
                0.07012840   ,


               -0.07795410,     -0.03354969,     -0.08021484,     -0.03595070,
               -0.07043510 ,
               -0.09105897,     -0.02274886,     -0.19592014,     -0.00864133,
               -0.06601805 ,
               -0.02666935,     -0.17784323,      0.72588360,     -0.08228546,
                0.01892366 ,
               -0.06821975,     -0.02334318,     -0.12076053,     -0.03429106,
               -0.06752031 ,
               -0.06766147,     -0.04265525,     -0.01643788,     -0.02483363,
               -0.05134729   ,


                0.01093409,      0.03997723,     -0.09739643,      0.03419327,
                0.02530441 ,
                0.03311647,     -0.05872647,     -0.20107187,     -0.09315588,
                0.03041391 ,
               -0.02597022,     -0.14511459,     -0.09943791,     -0.18834956,
               -0.01061850 ,
                0.01140323,     -0.07358953,     -0.28462601,     -0.07587250,
                0.03170481 ,
                0.00518582,      0.03175354,      0.05921615,      0.03863448,
                0.01197091   ,


               -0.05387657,      0.00514411,     -0.11665302,     -0.01819399,
               -0.06268793 ,
               -0.05157619,     -0.10736281,     -0.15424035,     -0.02265295,
               -0.02014792 ,
               -0.07019882,     -0.10425313,      0.01317101,     -0.11052114,
               -0.09128862 ,
               -0.01360894,     -0.06063031,     -0.14395925,     -0.09828338,
               -0.04503876 ,
               -0.04480927,      0.00242364,     -0.04981896,      0.01830799,
               -0.06462684   ,


               -0.04725291,     -0.01316231,     -0.16691718,      0.02845574,
               -0.09156223 ,
               -0.00807840,      0.05343141,      0.04295189,      0.03103616,
                0.00065108 ,
               -0.15981635,      0.11288665,      0.70416731,      0.08821597,
               -0.09171877 ,
               -0.00781105,      0.03871081,      0.12403464,      0.03800876,
               -0.02065832 ,
               -0.07025377,      0.00252143,     -0.07295948,      0.01590795,
               -0.05244992   ,


                0.11362595,      0.11433738,     -0.00557069,     -0.02910119,
               -0.01283013 ,
               -0.19390532,     -0.10293177,      0.19995758,      0.14335714,
                0.10457708 ,
                0.04465987,     -0.27080756,     -0.47730398,     -0.22592372,
               -0.00019926 ,
                0.04482045,      0.08256018,      0.14682470,     -0.05764330,
               -0.21158656 ,
                0.01208203,     -0.00450667,     -0.01747186,      0.07485849,
                0.05429817   ,


               -0.01497360,      0.01858705,     -0.18855433,     -0.00270268,
               -0.03888442 ,
                0.01918035,      0.06144620,     -0.06167642,      0.00835963,
                0.00184911 ,
               -0.20093146,     -0.08394060,      0.69169563,      0.13061491,
               -0.16917536 ,
               -0.04804345,      0.01248297,      0.13427491,      0.09400926,
               -0.01254317 ,
               -0.05602400,      0.00949340,     -0.16380942,     -0.01013275,
               -0.05761959   ,


               -0.02597067,      0.04224325,      0.11898446,      0.05026925,
                0.01522557 ,
                0.04353189,      0.12086372,     -0.10381193,      0.12140582,
                0.05348262 ,
                0.18785816,     -0.05222578,     -0.90292710,     -0.15716940,
                0.07331997 ,
                0.00711986,      0.13418569,     -0.18560474,      0.08382161,
               -0.00504508 ,
                0.04211886,      0.01325869,      0.03439263,      0.02136699,
                0.05686312   ,


                0.02279723,     -0.04340763,     -0.08215687,     -0.02240579,
               -0.00577790 ,
               -0.02330979,      0.02927064,     -0.18628190,      0.06546659,
               -0.02924339 ,
                0.04612752,      0.54804188,     -0.34803206,     -0.18618219,
               -0.06947202 ,
                0.01400816,      0.08109861,     -0.05022532,     -0.08531772,
               -0.02357865 ,
                0.08075923,     -0.01295472,     -0.07958114,     -0.04551355,
               -0.06905054   ,


               -0.03808032,     -0.05288082,      0.12592082,     -0.09817602,
                0.04745659 ,
               -0.01772974,     -0.12283860,      0.26153290,     -0.04408796,
               -0.07622431 ,
                0.12181511,      0.33428761,     -0.21483451,     -0.17552792,
               -0.11335981 ,
               -0.06239283,     -0.08749497,     -0.10714509,      0.20899214,
               -0.00194959 ,
               -0.02040720,     -0.06236628,     -0.08992843,      0.03288168,
                0.10408708   ,


                0.02045600,     -0.04324036,      0.06217604,      0.06759081,
                0.05520891 ,
                0.12743044,      0.18065064,      0.19865084,      0.01557798,
               -0.03242292 ,
                0.01578262,     -0.29825705,     -0.59267104,     -0.19941261,
               -0.06637698 ,
               -0.03951439,     -0.06501904,      0.18897331,      0.18440104,
                0.07005247 ,
                0.06289262,      0.04635641,      0.03158419,      0.02157279,
                0.05141737   ,


               -0.03551719,      0.00891850,      0.11023039,     -0.01802361,
               -0.00747671 ,
                0.01669868,     -0.10826641,      0.25678208,     -0.05016362,
                0.01464381 ,
                0.12593831,      0.23241074,     -0.95782089,      0.23426054,
                0.10317046 ,
               -0.02725455,     -0.02766454,      0.23270820,     -0.03086173,
               -0.00387073 ,
                0.00250023,      0.01266618,      0.12298799,     -0.00672430,
                0.01079717   ,


                0.01508396,      0.03570101,      0.03360421,      0.05209380,
                0.03462687 ,
               -0.05224291,     -0.08888813,     -0.27952710,     -0.09342202,
               -0.05124309 ,
               -0.04050280,      0.08966389,      0.67909300,      0.13787989,
               -0.01112109 ,
               -0.04726604,     -0.06881868,     -0.24414256,     -0.07533168,
               -0.07935567 ,
                0.03145523,      0.01555072,     -0.00141471,     -0.00820759,
                0.02257022   ,


               -0.00055574,      0.03191422,     -0.09914166,      0.02541294,
                0.00689654 ,
               -0.00058258,      0.00147796,     -0.05123986,     -0.01680762,
                0.01246747 ,
               -0.09453010,     -0.01660766,      0.73450881,      0.04753428,
               -0.05133809 ,
                0.02165747,     -0.00786852,      0.06124088,      0.00685247,
                0.01715175 ,
               -0.00111500,     -0.00697949,     -0.09581693,      0.00390242,
                0.00716831   ,


                0.03306163,      0.00819104,      0.00791978,     -0.00667790,
                0.05472082 ,
                0.08504282,      0.09879367,      0.06603128,      0.07715885,
                0.03002272 ,
               -0.30490208,     -0.36512026,     -0.19360043,     -0.31425413,
               -0.31539166 ,
                0.11665341,     -0.00048987,      0.00130235,      0.01758524,
                0.12992778 ,
                0.03578438,      0.03580309,     -0.00559135,      0.02088661,
                0.01456576   ,


                0.00280584,     -0.05186028,      0.03370045,      0.07476252,
               -0.07906029 ,
               -0.06153658,     -0.36535332,      0.10240903,      0.55809033,
                0.10078412 ,
               -0.00818090,      0.03869341,     -0.21759467,     -0.14297663,
               -0.02099708 ,
                0.08714168,      0.52995533,     -0.16991022,     -0.25961936,
               -0.00526123 ,
               -0.05169304,      0.08824558,      0.00253938,     -0.02630916,
                0.04043961   ,


                0.01059503,     -0.03019108,      0.05823491,     -0.05690978,
                0.02614115 ,
               -0.03667267,     -0.25943995,     -0.13702205,     -0.21553610,
               -0.12083261 ,
               -0.01856874,     -0.26880717,      0.48571908,     -0.03983439,
               -0.12975574 ,
               -0.02615634,     -0.26429483,      0.02564660,     -0.15258507,
               -0.11690976 ,
                0.01366295,     -0.09209319,     -0.03357041,     -0.11760375,
               -0.00711419   ,


                0.02230182,      0.02356606,     -0.06935405,     -0.01376106,
                0.01697130 ,
                0.02212990,     -0.00893431,     -0.10021558,     -0.05726263,
                0.01508478 ,
               -0.04997864,     -0.13248321,     -0.22924545,     -0.12276966,
                0.02379993 ,
               -0.02644501,     -0.03428027,     -0.02423134,      0.01232298,
                0.01585286 ,
               -0.03600859,      0.00037818,      0.01210595,      0.04811353,
               -0.01434437   ,


               -0.03752356,     -0.02478737,     -0.10933126,     -0.07999717,
               -0.01901865 ,
               -0.02422912,      0.10585712,      0.05421431,      0.10251483,
                0.00349950 ,
               -0.09676322,      0.10544737,      0.49799007,      0.11664806,
               -0.04754650 ,
               -0.11579787,      0.04941664,      0.19406933,     -0.01925460,
               -0.05279358 ,
               -0.02199575,      0.03552891,     -0.10136932,      0.00303919,
               -0.01079535   ,


                0.01927008,     -0.05152225,     -0.22971314,     -0.10328699,
               -0.04276268 ,
               -0.08491020,     -0.05546500,      0.09844015,     -0.09606762,
               -0.04048705 ,
               -0.22358432,      0.08485018,      0.92928255,      0.16983403,
               -0.13030234 ,
               -0.11957436,     -0.05428560,      0.23997320,     -0.09175632,
               -0.04625200 ,
               -0.03095079,     -0.03530561,     -0.16323014,     -0.06456303,
               -0.07073976   ,


               -0.01901754,     -0.00668047,     -0.01473045,     -0.02012933,
               -0.04619159 ,
                0.03315641,      0.24494471,     -0.08803689,     -0.25793877,
               -0.06076282 ,
               -0.06186992,     -0.02601256,      0.48270926,     -0.03285713,
               -0.02141089 ,
               -0.02095724,     -0.25864995,     -0.00321138,      0.14881749,
                0.04274093 ,
               -0.03351342,     -0.05812299,     -0.01174489,      0.04883099,
                0.01385866   ,


                0.02720011,      0.01736908,     -0.07656982,      0.02401691,
                0.01532498 ,
                0.05600863,      0.05254216,      0.03161015,      0.02640745,
                0.03143388 ,
               -0.04526877,      0.04938654,      0.57896733,      0.06055148,
               -0.01936281 ,
                0.03817704,      0.03659488,      0.06304775,      0.06129767,
                0.02805110 ,
               -0.01549302,      0.05150262,     -0.04199954,      0.06433946,
               -0.01951011   ,


               -0.00802908,     -0.00962355,     -0.03908833,      0.01957545,
               -0.01796707 ,
                0.07153581,      0.00064591,      0.04446006,     -0.01465715,
                0.06354544 ,
                0.23160483,     -0.52515978,     -0.07320596,     -0.57390618,
                0.26484278 ,
                0.08694259,      0.00118902,     -0.03488577,     -0.03526085,
                0.06527185 ,
               -0.01171834,     -0.01617968,      0.02793985,     -0.00882643,
                0.00810893   ,


               -0.01351272,      0.04418072,      0.13249229,      0.04572339,
               -0.00744122 ,
                0.07435258,      0.21586573,      0.00826783,      0.21235462,
                0.08129499 ,
                0.13432282,      0.00325821,     -0.47570094,     -0.00210382,
                0.08222677 ,
                0.04443524,      0.05746978,     -0.28888634,      0.00686508,
                0.00368666 ,
                0.00491473,      0.01615179,      0.05227495,     -0.00889523,
                0.00785154   ,


               -0.00493664,     -0.01906150,     -0.03587277,      0.03526091,
                0.01883438 ,
                0.03137862,      0.13530800,     -0.04285168,     -0.08454182,
               -0.06476998 ,
                0.12230247,      0.51029992,      0.02675644,     -0.43498379,
               -0.24976575 ,
                0.07345936,      0.17389844,      0.00155990,     -0.11974572,
               -0.11551601 ,
                0.01078865,      0.07533154,     -0.02273443,     -0.01600009,
               -0.04880998   ,


                0.15940717,     -0.12089646,      0.01734862,      0.06965890,
               -0.00672976 ,
               -0.16663809,     -0.50815773,     -0.03484880,      0.36628634,
                0.01098278 ,
               -0.00427858,      0.00737639,      0.32565594,     -0.06654851,
               -0.02781603 ,
                0.10152165,      0.32498977,     -0.01706953,     -0.42461222,
               -0.11294398 ,
               -0.00593222,      0.04591289,     -0.01861476,     -0.12053594,
                0.09790783   ,


                0.03451153,     -0.02667082,     -0.05836505,     -0.03442712,
                0.02228963 ,
                0.02064780,      0.15109906,     -0.23541287,      0.10462174,
                0.04834327 ,
               -0.00540359,      0.33392161,     -0.49280331,      0.12928768,
                0.02467864 ,
                0.00204365,      0.18303671,     -0.24238142,      0.03430482,
                0.03292612 ,
                0.02471130,      0.05017338,     -0.11367477,     -0.03485155,
                0.00128453   ,


                0.00221549,     -0.06903663,     -0.00613253,      0.03469361,
               -0.01603931 ,
               -0.00741806,      0.02166844,     -0.09023257,     -0.04181982,
                0.02520493 ,
                0.15211876,      0.54052186,     -0.18923832,     -0.32225248,
               -0.22325943 ,
                0.07772497,      0.11581793,     -0.05058083,     -0.09729665,
               -0.07812143 ,
               -0.00835032,      0.01746884,      0.00278058,     -0.00173696,
               -0.03896751   ,


               -0.00904573,     -0.02706607,     -0.04076867,      0.01834254,
                0.01663314 ,
               -0.05928697,     -0.14310922,     -0.01905707,      0.09942853,
                0.06156166 ,
               -0.13135681,     -0.18515924,     -0.04702812,      0.25099626,
                0.17332779 ,
               -0.07318397,     -0.10598391,     -0.01134982,      0.09897133,
                0.08800507 ,
               -0.00052389,     -0.02720585,     -0.03988867,      0.05378603,
                0.02249348   ,


               -0.01912602,     -0.02313579,     -0.14344931,      0.00828301,
                0.02398983 ,
                0.00592545,      0.09832349,     -0.05225290,     -0.32376009,
                0.03423882 ,
               -0.06610749,      0.00519148,      0.70450395,     -0.03081449,
               -0.08696139 ,
                0.01682085,     -0.31145099,     -0.00622783,      0.10120484,
               -0.02000120 ,
                0.02286500,     -0.06101143,     -0.10795391,      0.00681661,
               -0.00041049   ,


               -0.01288827,     -0.04976213,     -0.03060396,      0.06105841,
                0.03898670 ,
                0.01083687,      0.15176053,      0.12104154,     -0.08899059,
               -0.05036208 ,
                0.09947281,      0.50038779,      0.06720256,     -0.46501458,
               -0.22533058 ,
                0.06464507,      0.21306711,     -0.04763855,     -0.21130593,
               -0.12902625 ,
                0.03876940,      0.02693406,     -0.08055037,     -0.04189561,
               -0.04909166   ,


                0.00548529,     -0.02546757,      0.11175777,     -0.02213371,
                0.03421162 ,
               -0.04813462,      0.13600345,      0.57216734,      0.11528799,
                0.01044832 ,
               -0.03736232,      0.05189380,     -0.10814545,     -0.06146065,
               -0.05758369 ,
                0.03223445,     -0.07448981,     -0.37984720,     -0.06972156,
                0.03526868 ,
               -0.01209050,     -0.01952338,     -0.16500601,     -0.04234603,
               -0.02297315   ,


                0.00040393,      0.00818823,      0.06543589,     -0.00124595,
                0.02008785 ,
                0.00077887,      0.04972749,      0.43190739,     -0.01608304,
                0.00061556 ,
                0.07874700,      0.43398085,     -0.11438569,     -0.15607236,
               -0.01585002 ,
               -0.00193064,      0.00796805,     -0.28853530,     -0.09336543,
               -0.09825862 ,
                0.03592754,      0.01515347,     -0.11819294,     -0.07831781,
               -0.15145773   ,


                0.00047173,     -0.04277443,      0.14277320,      0.03703941,
                0.00954578 ,
               -0.06606080,     -0.00205284,      0.20700742,     -0.15110196,
               -0.01650564 ,
                0.15105684,      0.17601246,     -0.90904260,      0.18067020,
                0.09587085 ,
                0.01128814,     -0.16755866,      0.15732804,     -0.08219200,
               -0.01920064 ,
                0.01490719,     -0.03682016,      0.11322729,     -0.03332097,
                0.00445484   ,


               -0.01059772,     -0.01405486,     -0.03771990,     -0.01100191,
                0.00917368 ,
                0.02485456,      0.00408205,     -0.06344001,     -0.02263405,
                0.00376067 ,
               -0.00672379,     -0.09550634,      0.64766532,      0.02192540,
                0.00800586 ,
               -0.00623393,     -0.03377729,      0.03217887,     -0.02191582,
               -0.01456639 ,
               -0.00940711,      0.01259516,     -0.00458002,     -0.00220005,
                0.00410908   ,


                0.02408176,      0.12737250,     -0.02055418,     -0.03012107,
               -0.00119382 ,
                0.00558123,      0.27541408,      0.28111348,      0.04514206,
                0.01631073 ,
               -0.03242677,      0.15947080,      0.04823047,     -0.22256444,
               -0.03192246 ,
                0.03273121,     -0.00331401,     -0.30864540,     -0.17745084,
                0.01272503 ,
                0.03496411,     -0.02352511,     -0.06972453,     -0.06987565,
               -0.05999104   ,


               -0.01825853,     -0.00171534,      0.11870471,     -0.01042302,
                0.00210190 ,
               -0.04247141,     -0.07117162,      0.24720530,     -0.05292406,
               -0.03191398 ,
                0.18596351,      0.17849842,     -0.89685577,      0.23701853,
                0.11340986 ,
               -0.01760965,     -0.02467193,      0.18040071,     -0.06618093,
               -0.01111988 ,
                0.00632932,     -0.01067228,      0.11617901,     -0.00324907,
                0.00067448   ,


                0.09483997,      0.07030072,      0.04081119,     -0.07097393,
               -0.05176348 ,
                0.09330548,      0.11547875,      0.26835060,      0.06364449,
                0.12338030 ,
                0.03407054,      0.25776491,     -0.23341371,     -0.23288500,
               -0.06160236 ,
               -0.09928674,      0.07576179,     -0.15942262,     -0.14320119,
               -0.09419635 ,
               -0.04563542,      0.09338755,     -0.05434329,     -0.06304449,
               -0.13539910   ,


               -0.00647675,     -0.02196962,     -0.09535600,     -0.00305527,
               -0.02527657 ,
               -0.01342948,     -0.12308516,     -0.20168623,     -0.12445012,
               -0.03303609 ,
               -0.10637359,     -0.14464460,      0.27036035,     -0.08856365,
               -0.12245599 ,
               -0.01217817,     -0.08723478,     -0.09748629,     -0.08467995,
               -0.02396186 ,
               -0.00844116,     -0.02605934,     -0.10356148,     -0.00301786,
               -0.03433400   ,


               -0.02101172,     -0.01602051,      0.10197057,      0.00846469,
               -0.00892566 ,
               -0.03407035,      0.10329907,      0.45780835,      0.12775086,
               -0.00959996 ,
                0.00807642,     -0.00616550,      0.12638561,      0.02458285,
                0.03293588 ,
                0.02035138,     -0.10714881,     -0.41893551,     -0.12155867,
               -0.02131056 ,
                0.03275828,     -0.03897692,     -0.20353469,     -0.07424919,
               -0.00378390   ,


               -0.00762009,     -0.01737724,     -0.13143051,      0.01554121,
               -0.02896307 ,
                0.00087361,     -0.03755226,      0.01851189,     -0.01102047,
               -0.01783419 ,
               -0.11005633,     -0.09781323,     -0.22289202,     -0.08874059,
               -0.10119623 ,
               -0.00766798,     -0.01260209,     -0.02635186,      0.04023315,
               -0.00789387 ,
               -0.04162316,     -0.04702663,     -0.08117271,     -0.01741583,
               -0.06818723   ,


               -0.00814843,     -0.09296998,     -0.00887803,      0.15735734,
                0.04127029 ,
                0.03420959,      0.20523578,      0.17403696,     -0.25330770,
               -0.20901908 ,
                0.11746332,     -0.23686440,     -0.54937059,     -0.15700105,
                0.10627659 ,
               -0.16612999,     -0.21505857,      0.13868648,      0.07146088,
                0.01647226 ,
                0.01683546,      0.08946955,     -0.04346523,      0.01372107,
                0.00690269   ,


               -0.01045850,     -0.01478245,     -0.01498857,      0.01984554,
                0.00160784 ,
                0.02369422,      0.08661055,      0.05411663,     -0.08707213,
               -0.06422161 ,
                0.08245861,      0.47124457,      0.04123178,     -0.49228850,
               -0.19361374 ,
                0.04989635,      0.11181328,      0.05121399,     -0.14085653,
               -0.10201073 ,
                0.02319606,      0.05131529,      0.01359774,     -0.04812481,
               -0.04020267   ,


               -0.02176615,     -0.00670145,     -0.17844509,     -0.00583187,
               -0.05033379 ,
               -0.00613589,     -0.16351299,     -0.16371538,     -0.11816511,
               -0.02560644 ,
               -0.19591483,     -0.11414071,      0.57867956,     -0.04532299,
               -0.14436688 ,
               -0.05069415,     -0.11501471,     -0.06943554,     -0.08309406,
               -0.04820924 ,
               -0.03127025,     -0.02007057,     -0.12248165,     -0.02207716,
               -0.03618189   ,


                0.02581935,      0.01651241,      0.11513063,      0.00505722,
                0.02257464 ,
               -0.02661502,     -0.03880940,      0.06186554,     -0.00256636,
                0.01714908 ,
                0.14134640,     -0.04802597,     -0.61731982,     -0.14577875,
                0.10212393 ,
                0.00232330,     -0.02588122,     -0.19914272,     -0.07491926,
               -0.02729964 ,
                0.07824618,      0.02645057,      0.01223336,     -0.01714701,
                0.05960038   ,


                0.00744508,      0.04388772,     -0.03187905,     -0.03188867,
               -0.00346352 ,
               -0.02817568,      0.00934742,      0.04851483,     -0.01142154,
                0.02470505 ,
               -0.06471568,     -0.65459222,      0.13762891,      0.43331021,
                0.11339093 ,
               -0.02957617,     -0.08505768,     -0.08543690,      0.05767616,
                0.07775248 ,
               -0.02086392,      0.00241270,     -0.00100300,     -0.00327770,
                0.00140907   ,


               -0.02375062,     -0.00822432,      0.02901167,     -0.00092844,
               -0.01928228 ,
               -0.02742904,     -0.02383162,      0.05831170,     -0.01716000,
               -0.02447430 ,
               -0.02597462,     -0.02517023,      0.60026985,      0.06328514,
               -0.00373061 ,
               -0.00058040,     -0.01362020,      0.17477413,      0.02719909,
                0.02171677 ,
               -0.03273472,     -0.02497118,      0.06062728,      0.03273664,
               -0.00534297   ,


               -0.02700906,     -0.03640871,     -0.05752488,      0.06347496,
                0.01285363 ,
                0.01553380,      0.07620465,     -0.00057530,     -0.07774470,
               -0.03059640 ,
                0.13942282,      0.48785758,      0.01741101,     -0.43634719,
               -0.24528584 ,
                0.03955935,      0.16659100,     -0.03373715,     -0.13620856,
               -0.08042283 ,
                0.00073010,      0.03167066,     -0.02350336,      0.00235995,
               -0.03489441   ,


               -0.02774321,      0.04042613,      0.14214323,      0.07140750,
               -0.02046373 ,
               -0.00950114,      0.02297310,      0.18934573,      0.05381564,
               -0.00527736 ,
                0.08976411,     -0.05898466,     -0.71263808,     -0.10684443,
                0.06282982 ,
               -0.00535243,      0.01191399,      0.22277322,      0.01593808,
               -0.00732685 ,
               -0.02174244,      0.03681203,      0.21036983,      0.06870981,
               -0.01265851   ,


                0.03403047,     -0.03041764,     -0.35055062,     -0.01656575,
               -0.03208303 ,
               -0.06042761,      0.03242756,      0.01954952,      0.03979909,
               -0.01378497 ,
               -0.31469384,      0.16572481,      0.83239806,      0.12347530,
