
// weight for Expansion Convolution layer has dimension of torch.Size([1, 1, 480, 20]) 
extern float MBConv6_8_squeeze_excitation1_conv2d_weights [1 * 1 * 480 * 20] =  
{
-0.05561179,     -0.01555770,     -0.02043488,     -0.02722907,
                0.01233351,     -0.16128872,      0.00975587,      0.04059877,
                0.03676786,     -0.03389237,      0.04549032,     -0.14040363,
               -0.00051523,     -0.02312927,      0.07944735,      0.00332180,
                0.04221698,      0.03471386,      0.05826342,      0.09681264,
                0.29523888,     -0.00706731,     -0.02307154,      0.07332629,
                0.13953798,     -0.04357087,     -0.21990523,     -0.13390255,
                0.25484216,      0.01990217,     -0.03116166,      0.13301519,
               -0.04293705,      0.00441463,      0.01882931,      0.00015666,
               -0.01077184,     -0.06637065,     -0.02353054,      0.05159969,
                0.04712256,      0.06650048,      0.02435063,     -0.03182213,
                0.04439381,     -0.01986701,      0.01589897,      0.06505818,
                0.04367600,      0.02882251,     -0.04665084,      0.00636351,
               -0.03053133,     -0.03972855,      0.00836580,      0.09537303,
               -0.01193878,     -0.01264291,      0.04350071,      0.04267776,
               -0.02727094,     -0.10525607,      0.01671642,      0.07175152,
                0.00038452,      0.01415098,      0.02376788,      0.15263882,
                0.04607711,      0.06788301,     -0.08929301,      0.03537961,
                0.08296272,      0.07408935,      0.07570899,      0.18322226,
               -0.02302776,      0.08693306,     -0.18456064,     -0.06424749,
               -0.07223994,      0.02027814,      0.10832310,     -0.08397144,
                0.00953350,     -0.07958672,      0.11651883,     -0.05256526,
                0.00641920,      0.08546346,      0.53608525,      0.05806401,
               -0.09014204,      0.25782406,      0.04284080,     -0.06431620,
                0.04125202,     -0.08168777,      0.00011155,      0.03002498,
                0.05098552,      0.06611440,      0.01214413,     -0.06268679,
                0.02692439,     -0.00278384,     -0.20641384,      0.05959480,
                0.08932547,      0.03660526,      0.14946398,      0.01813049,
                0.00829333,     -0.00217535,      0.06825239,      0.01748829,
                0.03683010,      0.19834708,      0.03716258,     -0.04066834,
               -0.11260676,      0.10902913,     -0.04883694,     -0.04671342,
               -0.03991649,      0.07260939,     -0.02402538,     -0.03201598,
                0.35539743,      0.10980863,     -0.00149265,      0.06020044,
               -0.00767009,      0.06907260,     -0.04146237,      0.02821772,
                0.05407582,      0.21458372,      0.08223008,      0.05641178,
                0.08451482,     -0.00993178,     -0.01406469,     -0.08660942,
                0.05811508,     -0.08160678,     -0.00837584,     -0.02866572,
                0.02814136,     -0.32328108,     -0.00426017,      0.12711124,
                0.07390913,      0.05291005,     -0.02239357,      0.04972051,
               -0.00761439,      0.02637998,     -0.13379149,      0.11071479,
               -0.00175529,      0.04339138,      0.03848580,     -0.04044016,
               -0.18106137,      0.11382530,      0.01095162,      0.01567151,
               -0.04978121,      0.01687748,     -0.03154837,      0.16003293,
                0.02830278,     -0.03332466,      0.00700787,      0.08885710,
               -0.00688169,      0.00078192,     -0.01386677,      0.32782450,
                0.01214885,     -0.01506770,     -0.14344405,      0.02131983,
                0.19980897,      0.03482261,      0.03726403,     -0.02682084,
               -0.24651301,      0.00165026,      0.12802525,      0.01227792,
               -0.03089647,      0.09757425,      0.07273187,     -0.02753553,
               -0.01071850,      0.15788898,      0.05301702,     -0.11331996,
                0.04147354,      0.04211366,     -0.00759314,     -0.09505919,
               -0.02906292,      0.06040576,      0.02685222,     -0.09916586,
               -0.06386969,      0.11814547,      0.15289426,      0.06798868,
               -0.07007098,     -0.06932555,     -0.07378138,      0.03658602,
                0.20659950,     -0.06543576,      0.01079593,     -0.01347873,
               -0.01087876,     -0.03123222,     -0.16725235,      0.09400277,
               -0.01266728,      0.03686956,      0.04139067,     -0.03746846,
                0.02125765,     -0.03470259,      0.02536509,      0.04234319,
                0.04075583,     -0.06042135,     -0.05249034,      0.03107658,
               -0.00111187,     -0.00632163,      0.02223842,     -0.01869962,
               -0.00410145,      0.13237196,     -0.13060379,      0.00030381,
                0.16323258,     -0.15504837,      0.12122724,      0.04187344,
               -0.06311945,      0.03865097,     -0.15155581,      0.04881641,
                0.02446887,     -0.07376894,      0.03015088,      0.00145865,
               -0.17196679,      0.06712962,      0.05197928,     -0.03416303,
               -0.09114431,      0.04498285,     -0.01997760,     -0.03710694,
               -0.19093904,      0.03808551,      0.05648308,      0.44821784,
               -0.03995451,      0.08491310,      0.01955564,     -0.07827570,
                0.05453331,     -0.02595830,      0.06556059,      0.05740383,
               -0.09482031,     -0.13565232,     -0.05810625,      0.12011095,
                0.00405752,     -0.03134832,      0.00217661,     -0.07450040,
                0.07560299,     -0.07005516,      0.03172881,      0.01060228,
                0.02518513,      0.00617164,     -0.05004118,     -0.14658108,
                0.06346680,      0.12168679,      0.08615084,      0.06360756,
               -0.07950315,      0.01683652,     -0.07365301,     -0.06261861,
                0.00214633,     -0.00328799,     -0.02815068,      0.05763802,
                0.04698283,     -0.02966409,     -0.06580231,     -0.09401430,
                0.00586095,      0.08216393,      0.07473522,     -0.05116694,
               -0.02394758,     -0.03088414,      0.03746592,      0.05308319,
                0.00548905,      0.20325755,     -0.03756076,     -0.21023923,
               -0.08284999,      0.00493593,      0.10736329,     -0.15056367,
               -0.00288534,      0.02688938,     -0.10636698,     -0.14564300,
               -0.03728056,      0.11311445,     -0.12766847,     -0.12303361,
               -0.04732900,     -0.00467433,      0.00221338,      0.02776055,
               -0.03655998,     -0.07536666,     -0.01172924,     -0.08949465,
               -0.17556565,     -0.08428617,      0.02934173,      0.06767111,
                0.10677438,     -0.08817219,     -0.03847263,      0.02233849,
                0.10206441,      0.02928610,      0.06164439,      0.12755662,
                0.01319787,     -0.12372648,      0.00626134,      0.15884811,
               -0.00260866,      0.09836137,      0.08751126,     -0.02576421,
               -0.08480147,      0.01118127,     -0.02097003,      0.08621828,
               -0.12082474,      0.21752326,     -0.00180750,      0.01234476,
               -0.03168135,     -0.08466062,      0.00471125,     -0.07048651,
                0.07859620,      0.10804652,      0.02487041,      0.02486783,
                0.03867080,     -0.15519081,      0.09561993,     -0.05091677,
               -0.23698524,     -0.10255161,     -0.07872275,     -0.00171839,
                0.04829358,     -0.08330791,      0.02881595,      0.00340554,
               -0.15288064,     -0.05728468,      0.06386647,      0.06305524,
                0.03872090,     -0.11701531,      0.06181274,     -0.00400351,
               -0.03510609,      0.03016577,      0.04646445,     -0.01456991,
                0.00096677,     -0.03578849,      0.01914849,      0.04055775,
                0.02415334,     -0.13940865,      0.03902423,      0.02237695,
                0.02747498,     -0.08296341,     -0.02975864,     -0.00303082,
                0.01085347,      0.00122425,      0.03519771,     -0.02002307,
               -0.00999508,      0.00864542,      0.01241351,      0.03708300,
                0.13110542,     -0.03410778,     -0.02814678,      0.00125944,
               -0.05052706,     -0.04738032,      0.01363778,     -0.02305406,
                0.04441961,     -0.04422355,     -0.04183872,      0.06081239,
                0.12182824,     -0.02044917,     -0.05998692,      0.03204710,
               -0.05596950,      0.05645416,      0.03563646,     -0.02916647,
               -0.03388288,      0.18223809,      0.03344463,      0.04088084,
                0.09501819,      0.01326762,     -0.23138066,      0.04377827,
                0.13946177,      0.02977337,     -0.15648876,     -0.09628026,
               -0.04504824,      0.19183025,      0.00393452,     -0.01840957,
                0.05332160,      0.05696611,     -0.00523905,      0.02721200,
               -0.02382089,      0.02564039,      0.03890957,      0.06841304,
                0.11905160,     -0.00927658,     -0.04619608,      0.10275767,
                0.13874890,      0.09951419,     -0.05513654,     -0.01024274,
                0.03141202,     -0.09520606,     -0.00313222,      0.05958977,
               -0.02635384,      0.04436826,      0.16043070,      0.08832929,
               -0.05324252,      0.02750981,      0.09833504,     -0.05785507,
                0.05252625,     -0.05352616,      0.02915147,      0.00933909,
                0.15352593,     -0.18662855,     -0.06514132,     -0.05865477,
               -0.12244512,      0.07057539,      0.01157247,     -0.00020269,
               -0.05576795,      0.06642649,     -0.03282218,     -0.10380934,
               -0.05029197,     -0.15216707,      0.09137587,     -0.04885249,
                0.30887786,     -0.01579935,      0.06359852,     -0.00595309,
               -0.14406244,     -0.02264364,     -0.22165495,      0.08061950,
               -0.11317615,     -0.13328385,     -0.05807368,     -0.04751133,
               -0.04404022,     -0.13520914,     -0.16272853,     -0.07164646,
                0.04464595,      0.07068023,     -0.11767535,      0.35777509,
                0.03595142,     -0.11115213,     -0.04380918,     -0.00220022,
                0.06579899,      0.02232188,     -0.03848368,     -0.10524173,
               -0.16874433,     -0.07951466,      0.02317649,     -0.10460305,
               -0.10446075,     -0.14299951,     -0.13163169,      0.07746643,
                0.34022066,      0.14009041,      0.08870900,      0.03509203,
                0.01225815,      0.01284248,     -0.01443371,      0.20004231,
               -0.09893586,     -0.16805856,      0.28181180,     -0.11023672,
               -0.01313019,     -0.00959935,     -0.04897288,     -0.09836512,
               -0.05076307,      0.20788248,      0.06746846,     -0.04916446,
               -0.00622528,      0.01138168,     -0.21021010,      0.12064186,
               -0.13176490,     -0.01612068,      0.06169285,     -0.19343083,
                0.12933543,      0.05481645,     -0.20889755,     -0.07005157,
                0.02354661,     -0.23926494,     -0.06092246,      0.05305811,
                0.12501711,      0.02014033,      0.04973084,     -0.03624986,
                0.09463493,      0.00633780,      0.00849642,     -0.05340196,
                0.00300222,     -0.02883300,     -0.06661273,     -0.05938398,
                0.08915695,     -0.03620204,      0.10710612,     -0.11842562,
                0.02066532,     -0.09274378,     -0.14569807,      0.03860314,
               -0.06876245,     -0.05500103,      0.00875019,     -0.00099411,
                0.04233332,     -0.13710186,      0.15905982,      0.05174486,
               -0.12278526,      0.19971198,      0.07029032,      0.01059218,
               -0.16453680,     -0.00825860,     -0.14375634,     -0.23389468,
               -0.07440794,     -0.09970620,      0.14632136,      0.09500803,
               -0.06468277,      0.01080816,      0.09115620,     -0.02699097,
               -0.14124069,      0.12552151,     -0.06077816,      0.09795856,
               -0.06493262,      0.10635608,     -0.05671445,     -0.05851490,
               -0.15876356,     -0.07552077,      0.03016078,      0.06869246,
               -0.03964389,     -0.21046370,     -0.01966652,     -0.05533361,
                0.00023210,      0.14057356,      0.09111004,     -0.07504393,
               -0.07967854,      0.05304028,     -0.12297278,     -0.01648516,
                0.11515907,     -0.06826523,     -0.04013293,      0.08742610,
               -0.00800183,     -0.01828337,      0.02750082,     -0.22387134,
               -0.00105250,     -0.21514758,      0.05781577,     -0.11470075,
                0.00066152,     -0.02141212,      0.02706357,      0.01344716,
               -0.12108113,      0.05725631,     -0.04482328,     -0.09013858,
                0.11786135,     -0.06045551,     -0.01495675,     -0.03343049,
                0.09106036,     -0.08233180,      0.09615286,     -0.07279836,
               -0.00336755,     -0.03773563,      0.27878088,     -0.10467055,
               -0.18572700,     -0.08626353,      0.05043630,     -0.09962371,
               -0.10494954,     -0.02897692,     -0.00459587,     -0.00510489,
               -0.00000126,     -0.01470154,     -0.10867848,     -0.04738203,
               -0.01923185,     -0.06333338,     -0.09873476,      0.00329344,
               -0.00062433,     -0.02024276,      0.01707471,     -0.09292289,
                0.16388418,     -0.05834280,     -0.12159880,      0.12439387,
                0.05334160,     -0.12764964,     -0.24812061,     -0.09280173,
                0.02713305,      0.03139031,     -0.03365200,      0.13793869,
                0.07996367,     -0.07050496,     -0.01693004,      0.01690798,
                0.11997890,      0.11171231,      0.04994647,     -0.05145963,
                0.01369180,     -0.00646002,      0.08157074,      0.05433486,
               -0.06296731,     -0.05002527,      0.25936547,     -0.17609772,
               -0.00624513,     -0.11594379,     -0.09148303,     -0.01194136,
                0.26669487,     -0.17193981,     -0.06147487,      0.00492150,
               -0.01490679,      0.05804718,     -0.05955754,     -0.05356305,
               -0.18264313,      0.03819926,     -0.29599282,     -0.05258431,
                0.07677940,      0.10464042,     -0.07010979,     -0.03810404,
               -0.23045181,     -0.02955549,      0.03709828,      0.04103762,
                0.10577162,     -0.10740885,     -0.01914984,     -0.02415414,
                0.03318343,     -0.00875519,     -0.24578574,      0.02642299,
               -0.23389064,      0.02811343,     -0.09079893,      0.22785887,
                0.04805224,     -0.16005756,      0.11972795,      0.16981964,
                0.10648599,      0.03038802,      0.03000965,     -0.12236983,
                0.02277908,     -0.16018754,      0.06298545,     -0.22249842,
               -0.18221602,     -0.13465682,      0.11859880,     -0.11679041,
                0.21660335,     -0.01858426,     -0.03649965,      0.20563373,
                0.03994432,      0.02212755,      0.08406278,     -0.00589789,
               -0.01390811,      0.01207243,      0.06213577,     -0.10873281,
               -0.03736551,      0.13358621,     -0.05445144,     -0.11557568,
               -0.11316928,     -0.07171988,     -0.14050990,      0.05463656,
               -0.13373166,     -0.07521286,      0.00637787,      0.02699845,
                0.02819688,     -0.03150203,     -0.07821281,      0.04681744,
               -0.05857150,     -0.05157266,      0.03062205,     -0.02430068,
               -0.09664061,     -0.09877905,     -0.18112051,      0.19097354,
               -0.05117553,     -0.07070056,      0.03661547,     -0.00569907,
               -0.11505291,     -0.14991614,     -0.03632872,      0.05940750,
               -0.15881996,     -0.04913389,      0.04632634,      0.01122230,
               -0.14557093,     -0.03921385,     -0.07998816,     -0.16693299,
                0.02495282,     -0.14455435,     -0.03225805,     -0.23643333,
                0.05608369,      0.02156255,     -0.00612579,      0.00377701,
               -0.00825674,      0.12277967,     -0.08990325,     -0.13489956,
                0.08976085,     -0.11181321,      0.02824613,     -0.16062340,
                0.10426489,     -0.04991892,     -0.00571887,     -0.05961296,
               -0.02509872,      0.04788818,     -0.16955392,     -0.05547786,
                0.06636585,     -0.11132542,     -0.00161455,     -0.07305621,
                0.02403173,      0.04556898,     -0.06822135,      0.01686307,
                0.07929900,      0.06600440,     -0.02665796,     -0.11706164,
               -0.09153850,     -0.11339053,      0.13006586,      0.04683374,
               -0.10895962,     -0.08717699,     -0.00661508,     -0.03825281,
                0.17207715,     -0.01983818,     -0.03758818,      0.05055339,
               -0.01936805,      0.07348443,     -0.09074298,     -0.07707516,
                0.06658986,     -0.12262796,      0.02502884,     -0.04268345,
               -0.06565969,     -0.00705831,     -0.11161504,      0.01954108,
               -0.06306910,     -0.22911111,     -0.08263642,     -0.10122345,
                0.04299809,      0.03929031,     -0.01152974,      0.02571075,
                0.02575433,      0.05720573,     -0.00561063,      0.16280077,
               -0.11365939,      0.27673864,      0.03986673,      0.17158134,
                0.09895329,     -0.03602622,     -0.04024247,     -0.02483388,
               -0.01328964,      0.00574812,      0.01487588,      0.09220561,
                0.08952729,     -0.07533113,      0.07652906,     -0.04066931,
                0.30737647,      0.04332172,      0.01453988,      0.00209306,
               -0.17172261,     -0.15354165,      0.09370571,      0.13128547,
               -0.01792386,      0.02375483,     -0.01962722,     -0.04609962,
                0.02712130,     -0.04405805,      0.03398482,      0.04756075,
               -0.03706326,      0.04319324,     -0.06369927,     -0.11268058,
               -0.11855669,     -0.11644888,      0.08730427,      0.01591440,
               -0.01261593,     -0.06568492,      0.24341023,      0.12686405,
               -0.01707648,      0.05167314,      0.05376803,      0.01201976,
                0.08371160,     -0.30533597,     -0.12872179,      0.01127027,
               -0.12741692,     -0.12471530,      0.12736662,     -0.07510963,
                0.06992882,     -0.20228624,     -0.15808965,      0.03389803,
                0.00953780,     -0.03842875,     -0.00578216,     -0.16296890,
                0.01381889,      0.01315660,     -0.08801179,      0.03459500,
               -0.06442863,     -0.17797306,      0.03334546,     -0.06440035,
                0.00846106,     -0.16332974,      0.03150360,     -0.04503229,
               -0.02959526,     -0.05275061,     -0.07690798,      0.00843019,
               -0.08951355,      0.09795085,     -0.13234344,      0.01369475,
                0.13419661,     -0.02917403,      0.12528995,     -0.06979847,
               -0.00947936,     -0.05487816,     -0.18061781,      0.00290594,
                0.02967570,     -0.01617232,     -0.10477773,     -0.07533754,
                0.10249124,      0.01680112,     -0.07516970,      0.01750469,
                0.17442656,      0.19297388,     -0.04061247,     -0.04889770,
                0.06186079,     -0.00131072,      0.02338536,     -0.01318702,
                0.12012347,      0.04351059,      0.15853988,     -0.00373126,
               -0.05256374,      0.12102190,      0.03834049,     -0.02610133,
                0.04614471,      0.07069477,     -0.00722232,      0.06247398,
               -0.04965429,     -0.21425758,      0.07303234,      0.14028461,
               -0.00497805,     -0.01195991,      0.00195379,      0.31386319,
                0.05389006,      0.33333069,      0.09129430,      0.03923598,
               -0.03739122,      0.08921898,      0.02544964,     -0.11377174,
               -0.03781832,     -0.08728074,      0.07806899,     -0.02955588,
                0.04263068,      0.03542484,      0.14320977,      0.01856805,
               -0.14833888,     -0.01931446,      0.17890988,     -0.04984842,
               -0.08632132,      0.05909197,     -0.06411327,     -0.05132395,
                0.02454952,      0.17347074,     -0.08123010,     -0.01744419,
               -0.09395187,     -0.08620816,      0.01939601,      0.12659386,
                0.03279648,     -0.00638319,     -0.01123978,      0.02512851,
                0.04322571,     -0.06762288,      0.07150903,      0.11273564,
                0.15896012,      0.05820808,     -0.20769762,      0.01675777,
               -0.10720421,      0.00916954,      0.03988209,     -0.12313175,
                0.09879448,     -0.01043081,     -0.03034278,      0.09639999,
               -0.14534673,     -0.02178901,      0.12314676,     -0.17146456,
                0.12009086,     -0.03072623,     -0.01589578,     -0.12303229,
               -0.24305779,     -0.19135481,      0.08663147,      0.00751259,
                0.02788890,     -0.13948885,     -0.00399136,     -0.05198200,
               -0.04162534,      0.25165752,      0.07342863,      0.07323869,
                0.06867797,      0.14982444,     -0.02051012,      0.00003080,
                0.15096718,      0.17997868,      0.20257629,      0.01407585,
               -0.16116330,     -0.04646635,      0.04091924,     -0.01673263,
               -0.11461204,     -0.06634304,     -0.03684814,      0.00852690,
               -0.05271823,      0.08592751,     -0.03284923,     -0.07398337,
                0.08760472,     -0.04798097,      0.03282727,     -0.03211636,
               -0.12337761,     -0.16621947,     -0.09586869,      0.08002876,
               -0.03122373,     -0.08725851,      0.05376820,      0.05098930,
                0.00247159,      0.02738542,      0.20266989,      0.01191703,
                0.00680037,      0.02621482,     -0.05374400,     -0.39546213,
                0.04196443,      0.01835248,     -0.03655821,     -0.01818732,
               -0.06525171,      0.17363375,      0.08895651,     -0.00376167,
               -0.54510415,      0.01467277,      0.03208641,     -0.11951100,
               -0.13259891,     -0.03637362,      0.10427599,     -0.23275284,
                0.07674658,      0.27795184,      0.03185081,      0.07851974,
                0.11622821,      0.03457600,     -0.06262112,     -0.07759316,
               -0.03190544,      0.01475540,      0.09956273,     -0.09119919,
                0.07329675,      0.07432785,      0.10838676,      0.05579356,
               -0.03281132,      0.12698148,     -0.14552853,      0.07312873,
               -0.04053349,      0.04500695,     -0.08365921,     -0.03040644,
                0.14118226,      0.09871937,     -0.07942230,     -0.05895906,
               -0.03376183,      0.02298829,      0.02799164,     -0.00977620,
                0.09757575,     -0.10698804,      0.19629456,     -0.02842202,
               -0.14212671,     -0.00063015,     -0.09893087,      0.01210886,
               -0.10533749,      0.01757033,      0.06782398,     -0.06080986,
                0.02660209,      0.05451294,     -0.24377905,      0.19522080,
                0.16512799,     -0.17751737,      0.02816348,      0.12010978,
                0.01539932,     -0.17659906,     -0.16313700,      0.04364052,
               -0.02988668,     -0.02939004,     -0.06068901,      0.01639597,
                0.07036474,     -0.09745625,      0.03706990,     -0.02117835,
                0.06674067,      0.03931922,      0.03665686,      0.03478117,
                0.05471891,     -0.10836204,      0.17504190,      0.33012342,
               -0.05711599,     -0.01134523,     -0.09427898,     -0.05938419,
                0.20168155,      0.05383799,     -0.08193694,      0.05649902,
               -0.08168992,     -0.10304493,      0.17492738,     -0.04782913,
                0.00522135,      0.06092055,     -0.00496677,     -0.00939589,
                0.02613645,     -0.06696174,      0.09756976,     -0.05211753,
               -0.04544070,      0.47954482,      0.01161446,      0.00731445,
                0.00896797,      0.06833535,     -0.06585838,      0.03074688,
               -0.03452658,     -0.00671658,      0.03244434,     -0.00206125,
                0.14553210,     -0.01238665,      0.16887303,      0.04205807,
               -0.02394241,      0.12474843,      0.06858233,      0.01168586,
               -0.08251023,     -0.13844450,     -0.09450282,      0.10650808,
               -0.04563810,      0.02374246,      0.21437007,     -0.01358855,
               -0.00050717,      0.07893879,     -0.24021590,      0.08170731,
               -0.06879160,      0.00982929,     -0.00535577,     -0.10482166,
                0.06062017,     -0.16799785,      0.01263994,     -0.07090776,
                0.18193975,      0.09222206,      0.00576485,     -0.00742588,
                0.06518635,      0.08073725,     -0.01057077,      0.05504896,
               -0.01485259,     -0.14179425,      0.13008679,      0.00454092,
                0.01811271,      0.09269322,     -0.19943085,      0.01586193,
                0.00831789,     -0.02198101,      0.06224606,     -0.15000924,
               -0.00505105,      0.12102479,      0.04338435,      0.30176759,
               -0.02461981,      0.00209051,      0.02145981,     -0.03018950,
               -0.00304900,      0.09829903,      0.01109495,      0.02570188,
               -0.06095965,      0.01629360,     -0.02536747,     -0.12064575,
               -0.05885681,     -0.10122403,     -0.00213299,      0.03349308,
               -0.03003702,      0.04163491,      0.12191530,      0.01964100,
                0.01101206,      0.16171007,     -0.07305785,      0.06063717,
               -0.20237720,      0.04112837,     -0.05710185,      0.09055220,
                0.09875824,     -0.20230907,      0.05367126,     -0.02956861,
               -0.10092262,      0.00469348,      0.08316635,     -0.00385905,
                0.27512118,     -0.02268479,     -0.03863651,     -0.04610196,
               -0.06135979,      0.18579371,      0.01490921,      0.02433684,
               -0.06072921,      0.09947787,      0.01351763,     -0.03782247,
               -0.09285156,     -0.00630869,      0.03738683,      0.03857382,
                0.07135604,      0.02033946,      0.06501465,      0.06800341,
               -0.02002654,      0.17214929,      0.03990953,      0.04090544,
               -0.00441268,      0.16270126,      0.04891081,     -0.22621767,
               -0.04985184,      0.00857631,     -0.07213665,      0.00377271,
               -0.02280693,      0.16045606,      0.05100585,     -0.02094917,
               -0.04101267,     -0.00697255,     -0.01346607,     -0.06480606,
               -0.02032153,      0.20905225,      0.10264088,     -0.00996663,
                0.18075255,      0.03692264,     -0.08171314,      0.00571192,
               -0.19309950,     -0.04990364,     -0.00947116,      0.05761189,
                0.02162188,      0.13678204,     -0.08635396,      0.15045650,
               -0.06771365,     -0.02103337,      0.26603213,      0.03833122,
               -0.13530973,      0.03051598,      0.03608666,     -0.00199944,
               -0.20279659,     -0.10871854,     -0.00001868,      0.07835100,
               -0.20329121,      0.07348109,     -0.03331058,     -0.01936397,
                0.02123643,     -0.02940046,      0.14009121,      0.10022503,
               -0.04072221,      0.03564353,      0.11130279,      0.05961464,
                0.05406553,      0.04313494,     -0.05283748,     -0.00088140,
               -0.10574142,     -0.02280213,      0.08569562,     -0.04712828,
               -0.02962382,      0.00217002,      0.09241018,     -0.05843056,
                0.27134559,      0.06270708,      0.02903506,      0.32493806,
               -0.00402305,      0.07217403,     -0.00415101,     -0.00218275,
               -0.05835295,     -0.07490985,      0.01798092,     -0.02351747,
               -0.00158962,      0.07887610,     -0.04253820,      0.09723123,
               -0.01192205,      0.05473559,     -0.07004051,     -0.00099970,
                0.02964679,      0.09078813,     -0.05212826,      0.06030323,
               -0.12277920,     -0.08580294,     -0.04400919,      0.07157037,
               -0.09041169,     -0.01432509,     -0.10757946,     -0.04645549,
                0.08226931,      0.01969665,      0.00341141,     -0.06523753,
                0.03051751,     -0.00685246,     -0.05601069,     -0.00609933,
                0.04145858,      0.02387767,      0.12393146,     -0.08357041,
                0.22873300,     -0.08734963,      0.05151317,      0.03835577,
               -0.08018941,      0.07798225,     -0.16128670,      0.12503688,
                0.07225204,     -0.23352984,      0.00849379,      0.00424708,
               -0.04656616,      0.07277855,      0.02256262,      0.04469967,
               -0.06050359,      0.06471978,     -0.03042121,      0.09034210,
                0.04882155,      0.13322151,      0.04242138,     -0.05654787,
               -0.00330191,     -0.07476573,      0.16227481,      0.01101636,
               -0.10342020,     -0.03402185,     -0.01558232,     -0.06943098,
               -0.05747902,     -0.07239868,      0.03712383,     -0.16481465,
                0.03454451,      0.06448168,     -0.04275019,      0.12893237,
               -0.09107448,      0.11647474,     -0.14726309,      0.48157117,
                0.01889431,      0.12220618,      0.08122211,     -0.02390996,
                0.10517341,     -0.14898647,     -0.10210014,     -0.06157627,
               -0.03071220,     -0.03192208,      0.03569769,     -0.03906857,
               -0.10414564,     -0.02771613,     -0.06250723,     -0.34211758,
               -0.11343092,      0.01069376,      0.24732219,      0.02261209,
               -0.16324924,      0.00287974,     -0.03751246,      0.34255132,
               -0.13807666,      0.07706002,     -0.01930628,     -0.10737010,
               -0.11323176,      0.04129108,     -0.09255532,     -0.18136689,
               -0.01257996,      0.22126321,      0.10617594,      0.03137289,
               -0.01566457,     -0.05678111,      0.02459832,      0.01675466,
                0.06203008,      0.11214423,      0.00601824,      0.05723099,
               -0.04888534,      0.09873737,      0.05547316,      0.00868016,
                0.20526132,      0.12751055,      0.12629716,     -0.01791705,
               -0.01167664,      0.08574951,     -0.10808120,      0.13829313,
                0.19176446,      0.09580000,     -0.13563736,      0.01005176,
               -0.03030754,     -0.41685098,      0.01154544,      0.10646006,
               -0.27507973,      0.03526273,     -0.08900360,      0.08735103,
                0.03847554,     -0.07084413,      0.13891548,      0.01093852,
                0.10113553,      0.22909789,      0.02973516,     -0.05411518,
               -0.07492647,      0.02306706,      0.02923679,      0.05500324,
               -0.02024867,      0.04707449,     -0.12932760,     -0.09934418,
                0.08924536,     -0.15431719,     -0.15270086,     -0.14540319,
                0.08351631,      0.14822851,     -0.03174060,      0.04318794,
               -0.08702576,      0.21925485,     -0.05419655,     -0.05926994,
                0.05879669,     -0.19983292,     -0.06956263,      0.00629604,
                0.04152593,      0.05299247,     -0.12623262,      0.12215661,
                0.03053690,     -0.02622120,     -0.08473110,      0.01105743,
               -0.12681428,      0.03754120,     -0.05322511,     -0.10736947,
               -0.13355020,     -0.13227309,     -0.04831712,      0.12942514,
               -0.06664129,      0.01231059,      0.13141958,     -0.06048928,
                0.08519831,      0.02210529,     -0.04697264,      0.03344972,
               -0.06296436,      0.02037792,     -0.07393392,      0.11262222,
               -0.11858859,      0.07744937,     -0.06742304,     -0.06635439,
                0.00725103,     -0.07809351,     -0.03580794,      0.01341595,
               -0.22597745,      0.06785581,      0.02347971,     -0.03048394,
               -0.02012344,     -0.11160388,      0.05280946,     -0.01630533,
                0.00280194,      0.07290561,     -0.00322608,      0.03484562,
                0.22883670,      0.07942788,      0.04032273,     -0.06367596,
               -0.03061656,     -0.00350353,      0.00078810,     -0.25360551,
                0.11606245,      0.15540814,     -0.01155199,     -0.20157528,
                0.42783916,     -0.08401787,     -0.13886787,      0.03488014,
               -0.07535963,      0.09370961,     -0.44710165,     -0.06377501,
               -0.01021388,      0.10117223,     -0.04900654,     -0.08145183,
                0.30523211,      0.19596243,     -0.03960248,     -0.15177406,
               -0.06067629,      0.13373576,      0.06718971,     -0.02748964,
                0.03837365,     -0.89071023,     -0.02515995,     -0.02250880,
                0.04911864,     -0.07117341,      0.23396379,      0.05176454,
                0.09256649,      0.06240118,      0.41734752,     -0.04191109,
               -0.00369472,      0.04963609,      0.09656213,      0.17746113,
               -0.04649528,     -0.02189348,     -0.04177965,     -0.02360846,
                0.07790857,      0.15402921,      0.07219598,     -0.00653325,
               -0.04426007,      0.04283057,      0.11483446,     -0.05228771,
               -0.00853998,     -0.01256784,     -0.17638411,      0.02348309,
               -0.05632693,      0.15703207,     -0.17494236,     -0.01514447,
               -0.08164948,     -0.08705153,     -0.01152561,     -0.08027280,
                0.05400036,     -0.26024547,     -0.14509390,      0.08359442,
               -0.02184953,     -0.04186217,     -0.07064943,     -0.02221707,
                0.03947320,     -0.13873437,     -0.03494984,     -0.07063211,
                0.00107501,     -0.07583341,      0.02897193,     -0.07241040,
                0.14717725,      0.27248669,     -0.04278275,     -0.18182038,
                0.06641608,      0.30178568,     -0.02124412,     -0.02573110,
                0.03252462,     -0.01225286,      0.02822003,      0.03785516,
               -0.01216083,     -0.08596454,      0.01244650,     -0.21732965,
               -0.03917404,      0.04350364,     -0.12319784,      0.06911971,
               -0.21309774,      0.01027841,     -0.14833783,     -0.05994684,
                0.04455837,     -0.03843100,     -0.07111704,     -0.01887500,
                0.06953314,     -0.19459917,     -0.01055741,     -0.00182070,
               -0.00946111,      0.02808277,      0.07486546,      0.03762260,
               -0.06075125,      0.00930741,      0.12196395,      0.01273386,
                0.07183670,      0.04561051,     -0.00656874,     -0.02837814,
                0.03050878,      0.05539947,     -0.20753641,      0.11414184,
               -0.03804355,     -0.10672344,     -0.04603662,     -0.02371494,
                0.02388520,     -0.15151642,     -0.08979043,     -0.27646723,
                0.15206370,     -0.03573100,      0.16404010,      0.00171051,
               -0.09970922,     -0.14541343,      0.07086083,      0.04206613,
               -0.09111197,     -0.18138565,      0.01600469,     -0.15869215,
                0.03495751,     -0.10543779,     -0.06923327,      0.10510175,
               -0.02581938,      0.12035599,     -0.04327429,      0.08021425,
                0.03699297,     -0.01857004,     -0.16499567,     -0.10494044,
                0.05535446,      0.04544224,      0.02759353,      0.15604620,
                0.06786434,     -0.11939824,     -0.01601635,     -0.00923051,
                0.01879493,      0.03987489,      0.02066660,     -0.01489892,
                0.01880559,      0.00221339,     -0.00542122,      0.00365954,
               -0.01486812,     -0.00857982,      0.03882336,     -0.09319601,
                0.00854244,      0.16302456,      0.02555913,     -0.02671761,
                0.09488434,      0.05769661,      0.06667788,     -0.12076990,
                0.00947055,     -0.07079659,      0.05096092,     -0.09522733,
                0.12880372,      0.11328798,     -0.05260740,      0.09120437,
               -0.12136816,     -0.03321762,      0.01655764,     -0.04987898,
                0.07331540,     -0.06085879,      0.04400833,      0.00954809,
                0.00469609,     -0.00245772,     -0.14468443,      0.13684852,
               -0.06256480,      0.03635801,     -0.13818793,     -0.00354788,
               -0.08378578,      0.01768422,      0.05833653,      0.00375792,
                0.12626313,      0.11948621,     -0.03451144,     -0.10226894,
               -0.00475691,      0.01078487,     -0.09171839,      0.05630627,
                0.08116665,     -0.08144927,      0.19624004,     -0.08608898,
                0.08549194,     -0.09971295,     -0.07523120,      0.00946115,
                0.04425627,     -0.13716906,     -0.11960608,      0.00335575,
               -0.17203501,      0.02349250,     -0.03219340,      0.39126638,
                0.02355283,      0.06110489,     -0.01237019,      0.02961575,
               -0.07849409,      0.25729656,     -0.05306412,      0.02620246,
               -0.02339588,      0.06515578,      0.03088313,     -0.05668824,
               -0.10057663,      0.05933249,      0.04207589,     -0.00142991,
               -0.00568874,     -0.03499097,      0.04660124,      0.01408421,
               -0.02253896,      0.05401840,     -0.10931657,      0.01257333,
               -0.14337797,      0.01612096,     -0.16390021,     -0.08725197,
               -0.09062611,      0.06917407,      0.02955658,     -0.00090998,
               -0.09464866,      0.10569718,      0.05708489,      0.02638550,
               -0.03133428,     -0.09286700,      0.03158889,     -0.04064328,
                0.17175648,     -0.07410605,      0.03474584,     -0.00067110,
               -0.04610974,     -0.00899061,      0.08256676,     -0.01736240,
               -0.05861026,     -0.02094338,      0.05498512,     -0.01220503,
               -0.07746346,      0.04536102,      0.06709348,      0.05896939,
                0.08639801,     -0.04474089,      0.04447824,     -0.16072647,
                0.01666884,     -0.10557165,      0.00216806,     -0.15287286,
               -0.07235313,     -0.09023602,     -0.13577272,      0.00633134,
               -0.04220436,      0.07719751,     -0.03499931,     -0.22555982,
               -0.08433951,     -0.25948218,      0.15130624,     -0.00759869,
                0.11292378,      0.03302153,     -0.09855370,      0.04075430,
               -0.29199892,      0.08143935,      0.01931414,      0.15986849,
               -0.17372194,      0.04401833,     -0.11632846,     -0.08400283,
               -0.04631744,      0.10896578,      0.03200961,      0.06750613,
               -0.02620786,      0.09752643,      0.04870171,     -0.06825612,
                0.02341402,     -0.04703485,      0.10443651,     -0.08409051,
               -0.08925090,     -0.02801154,      0.11383596,     -0.04770242,
               -0.14975986,     -0.07559387,      0.07017800,     -0.08877414,
               -0.12518415,      0.01622449,     -0.11319537,      0.07228748,
               -0.11305688,      0.08478186,      0.04856507,     -0.03864275,
                0.05043935,      0.05095472,     -0.03933660,      0.08239230,
                0.08821341,     -0.00311163,      0.03930606,     -0.15812501,
                0.01380401,     -0.05857692,      0.05460988,     -0.01906499,
                0.01508737,      0.06894411,     -0.01792089,      0.06414050,
               -0.06015402,     -0.03039205,      0.01545971,     -0.10580862,
                0.01984846,      0.01409045,     -0.11467236,      0.04132295,
               -0.01342836,     -0.06580896,     -0.16262537,     -0.03487949,
               -0.00957259,     -0.17550425,     -0.16397308,      0.05008481,
                0.25666437,      0.09184424,      0.08870305,     -0.14403002,
                0.03210967,      0.04778854,     -0.01615316,     -0.08479240,
               -0.02898235,      0.04947058,      0.22267386,     -0.03233150,
                0.07652181,     -0.06523250,     -0.06135446,      0.03967413,
                0.00481497,     -0.01526760,      0.07887291,     -0.19635265,
                0.05479323,     -0.10982016,      0.38707379,     -0.06682710,
                0.27973706,      0.00939646,     -0.00489228,      0.05784685,
                0.00267817,      0.05817602,     -0.04060796,     -0.08568610,
                0.03938073,     -0.21229267,     -0.02778593,     -0.02869868,
               -0.07644083,     -0.16740628,      0.01963077,     -0.00287228,
                0.01704472,     -0.03129249,     -0.27568993,      0.08052124,
               -0.05876637,     -0.14130788,      0.05494247,      0.00084319,
               -0.00422837,     -0.16371699,      0.01044868,     -0.08534880,
               -0.04733055,      0.00745990,     -0.04527582,     -0.02291633,
                0.03381146,     -0.00377208,     -0.08157013,     -0.02262431,
               -0.11698943,     -0.16242439,     -0.05561983,      0.08054214,
                0.06986576,     -0.08970039,     -0.00505327,     -0.44466925,
                0.07512995,     -0.01985620,     -0.13318485,      0.00928373,
                0.02301316,      0.03376598,     -0.07026732,      0.02012787,
                0.00684454,     -0.08315404,     -0.02218331,      0.10916355,
                0.07999606,     -0.00584630,     -0.01345555,     -0.01208277,
               -0.05924159,     -0.03158346,     -0.01252910,      0.03213167,
               -0.00633365,     -0.05833739,     -0.13825904,     -0.08100186,
                0.04419335,     -0.05492761,     -0.05553133,      0.07793275,
               -0.30151582,      0.06065982,      0.06529032,     -0.03923429,
               -0.06233175,     -0.03076000,     -0.00522332,     -0.04739054,
               -0.15238132,      0.10811110,      0.12570025,      0.14043985,
               -0.21566170,      0.11849775,     -0.10371283,     -0.01662900,
                0.00747480,      0.20482194,     -0.03171057,      0.01713446,
                0.07022237,      0.49690649,      0.00633062,      0.02713588,
               -0.17898732,      0.04594636,      0.01619509,      0.01978450,
                0.02792070,      0.11474138,      0.16754647,      0.19104455,
                0.10219514,      0.05030232,     -0.04630567,     -0.05607177,
                0.05518306,     -0.01155152,     -0.11369171,     -0.11238942,
               -0.02949898,      0.19091557,      0.12831520,     -0.05121657,
               -0.10814729,      0.00551344,      0.05736992,      0.03186034,
                0.00173152,     -0.03316971,      0.21470208,      0.03917287,
                0.06348903,     -0.12155119,      0.12552214,      0.00759355,
               -0.08988827,     -0.09376162,      0.00348902,     -0.04021825,
                0.00510259,     -0.12489878,      0.15725115,     -0.17929353,
               -0.03264989,      0.01610503,     -0.00066953,      0.12169955,
               -0.05216197,      0.21002981,     -0.09329458,     -0.08388826,
                0.06239387,      0.01851908,     -0.26854721,     -0.04622647,
               -0.09469972,      0.12426000,      0.11287116,      0.06401272,
                0.00266807,      0.13024262,      0.08837207,     -0.03411620,
                0.03132941,     -0.21360983,     -0.10703436,     -0.10196767,
               -0.01154766,      0.22583801,     -0.04027994,      0.02063953,
               -0.13008653,     -0.03975658,     -0.25105029,     -0.10434914,
                0.38617474,     -0.02436085,      0.01165338,     -0.04582191,
                0.01165638,      0.01565717,      0.03316708,     -0.05826767,
                0.05605045,     -0.01486516,     -0.07907774,      0.17386720,
               -0.00577408,     -0.12548140,     -0.03046083,     -0.01848075,
                0.02062933,     -0.00341716,     -0.06840385,      0.06866541,
                0.11250281,      0.06078577,     -0.00402096,      0.01570239,
               -0.01957000,      0.02219805,     -0.09959679,      0.08228084,
                0.04684324,     -0.09320046,     -0.04527132,     -0.08128992,
               -0.09873267,      0.17201310,     -0.06235210,     -0.17878211,
               -0.07630403,     -0.02027198,      0.14754876,     -0.09964897,
               -0.01517791,      0.07043508,     -0.07509581,      0.05534179,
               -0.00670782,      0.02760806,     -0.12161703,      0.05232802,
               -0.00264565,     -0.15437591,      0.03433103,     -0.03304486,
                0.04366446,      0.11734134,     -0.02201932,      0.06283564,
                0.03365577,     -0.02563288,     -0.12437322,     -0.09434981,
               -0.06814598,      0.04937828,     -0.03671912,      0.01759527,
               -0.05020374,     -0.11178683,     -0.01631995,      0.03563112,
               -0.10387434,     -0.02888674,     -0.05834121,     -0.00182010,
               -0.11250775,      0.01490499,      0.02096941,     -0.13221987,
                0.07613324,     -0.06589121,      0.04954712,      0.01411805,
                0.05148499,      0.05288670,      0.02230947,      0.04998476,
                0.06330582,     -0.00977799,     -0.07365388,      0.01297589,
               -0.01173354,     -0.05207429,     -0.03117646,      0.02927841,
               -0.05501837,     -0.01761652,      0.06868523,      0.01405347,
               -0.05750352,      0.00932093,      0.05315537,      0.06570265,
                0.13278246,     -0.02042987,      0.04029731,      0.03802866,
                0.00277773,      0.17690876,      0.19890098,     -0.11411120,
               -0.06568582,     -0.04458457,     -0.11513493,     -0.05266684,
                0.01705133,     -0.11912709,     -0.07414144,      0.08649608,
                0.08230773,     -0.20221838,     -0.01364949,      0.07409618,
                0.04213562,      0.11574291,     -0.27645585,      0.06413394,
                0.05691794,     -0.09470585,     -0.01565181,     -0.01914658,
               -0.00308058,     -0.18619014,     -0.21006988,     -0.08035515,
                0.05963665,      0.10441705,     -0.04753055,     -0.08381855,
                0.08572192,      0.08036440,     -0.06238271,      0.13557765,
               -0.00999331,     -0.06143612,     -0.10015950,     -0.02782978,
               -0.17183873,      0.32165262,      0.07829296,     -0.06599872,
                0.01696247,     -0.13791463,     -0.05670104,      0.09522965,
                0.09437778,      0.02751029,     -0.06443426,      0.02422381,
               -0.04804773,     -0.00081958,      0.00641205,     -0.01875923,
               -0.01653245,      0.11293910,     -0.11947881,      0.08255229,
                0.07438226,     -0.03985262,     -0.02351502,     -0.04087824,
               -0.12448837,      0.16314663,     -0.18688577,     -0.14692222,
                0.01371009,      0.09734256,     -0.02047561,     -0.00886049,
               -0.07231627,      0.26385093,     -0.21239541,      0.18763253,
                0.12036157,     -0.01101697,      0.01377088,      0.07910745,
                0.05673094,      0.03003298,      0.12128696,     -0.09851513,
               -0.05147471,     -0.10472912,      0.14397670,     -0.03048029,
               -0.10966302,     -0.09665591,      0.03199694,      0.00457840,
                0.02314670,      0.09341475,      0.03432517,     -0.15176873,
                0.01766895,      0.05726737,      0.06840117,     -0.19320285,
                0.06012816,      0.01286569,      0.09935153,     -0.15878248,
                0.07605817,     -0.05924912,     -0.00934991,     -0.04012161,
               -0.06792691,     -0.08145317,      0.13073201,      0.04779878,
                0.04219450,      0.03852857,      0.17240763,      0.00652206,
                0.13085032,     -0.11031833,      0.14961262,      0.50400567,
               -0.28860056,     -0.06222166,      0.08343896,      0.05079089,
                0.09765691,     -0.09629442,     -0.04731542,     -0.01866025,
                0.05607967,     -0.00532263,      0.03591210,     -0.30750957,
               -0.06597065,     -0.01818834,     -0.08003640,      0.05373498,
               -0.01156832,     -0.10007100,      0.04171948,     -0.05597469,
               -0.00876204,      0.08809893,     -0.04383151,      0.07410236,
               -0.12667057,     -0.06800263,      0.02035557,      0.24691965,
               -0.04112728,      0.06322182,      0.08035611,     -0.07771129,
               -0.13562214,     -0.14721905,     -0.01041690,     -0.04075133,
                0.39613169,     -0.06789705,     -0.02241079,      0.04978980,
                0.03707175,     -0.01628544,     -0.07508165,      0.07812885,
                0.11231042,      0.24145551,     -0.06409578,     -0.06213479,
                0.01283701,     -0.02383619,     -0.02538387,      0.03543005,
                0.10142555,     -0.14293373,      0.00615137,      0.01335432,
               -0.02260499,      0.08383892,      0.38496312,      0.01185762,
               -0.00856365,     -0.10920114,      0.10167156,     -0.04284250,
                0.03082310,      0.06262954,      0.01493480,     -0.08574072,
                0.05363058,      0.00513995,     -0.11069885,     -0.07940537,
               -0.01172243,     -0.04227991,      0.25656489,     -0.04363006,
               -0.07139654,     -0.11608507,      0.01704720,     -0.00491097,
               -0.00956906,     -0.01299848,      0.04973227,     -0.20438838,
                0.00686030,      0.06855538,      0.20011023,      0.00167898,
                0.07226921,      0.07130464,     -0.02331345,      0.01908253,
               -0.10406139,      0.06424686,     -0.02658533,     -0.04577461,
               -0.08166609,     -0.08312996,     -0.07493386,     -0.04950127,
               -0.06737845,     -0.12759060,      0.04838186,      0.07408410,
                0.07542059,     -0.14599316,     -0.14066884,     -0.05786350,
                0.03815139,     -0.24037161,     -0.07028818,     -0.09501687,
                0.00207061,     -0.05792874,     -0.00891254,     -0.08862533,
               -0.09215122,      0.02402475,     -0.03141885,     -0.09968748,
               -0.25802007,     -0.17023101,     -0.05478413,      0.25419435,
               -0.08518837,      0.04879271,     -0.04591718,     -0.11197149,
               -0.10390113,      0.08985784,      0.03212014,     -0.26090837,
               -0.13266939,     -0.01412908,     -0.14958717,     -0.00359145,
                0.02702451,      0.08390617,      0.09515940,      0.01762710,
                0.05510982,      0.09642939,     -0.06843121,      0.11342875,
               -0.08863007,      0.07146442,     -0.04381284,      0.00366497,
                0.11561300,     -0.08747621,     -0.07615912,     -0.04878780,
               -0.03049247,      0.04337742,      0.26303023,      0.08576966,
               -0.14143726,     -0.10477524,     -0.00324374,     -0.00217631,
               -0.04881043,      0.01846745,      0.04632625,      0.07675222,
               -0.19854333,      0.01836296,      0.11115441,      0.03442853,
                0.04285428,      0.02340404,     -0.07807191,     -0.05508968,
                0.16588651,      0.19215961,     -0.05291747,     -0.12648182,
               -0.02288561,      0.23557985,      0.08953647,     -0.20441312,
                0.07500137,      0.33503535,     -0.00977813,      0.01636920,
               -0.06970899,      0.17869748,      0.06381164,      0.12245338,
               -0.02809352,     -0.02193913,      0.07678495,     -0.08739160,
                0.08361674,     -0.01554041,      0.03212080,     -0.05497301,
               -0.09792942,     -0.05273227,     -0.05518936,     -0.06934732,
               -0.36480698,     -0.04311810,     -0.07485399,     -0.05569357,
               -0.00498088,     -0.16344136,      0.05489021,      0.00606576,
                0.03551060,     -0.05951490,      0.02144505,      0.06624418,
               -0.04576147,      0.05075603,      0.15762533,      0.01942299,
               -0.06152930,     -0.06368554,     -0.07386144,     -0.01432862,
                0.00596284,      0.07353893,      0.07617766,     -0.31110975,
                0.08730893,     -0.55908048,     -0.15854722,      0.08010163,
                0.04451066,      0.09930325,     -0.12747788,      0.01203729,
               -0.10761773,      0.03309424,      0.03446648,     -0.05980821,
                0.14746603,      0.12122695,      0.00656930,     -0.02295628,
                0.02643332,      0.12489337,     -0.00502747,     -0.09273765,
                0.14414531,     -0.24423487,     -0.05446232,      0.09982364,
                0.04549800,     -0.08998258,      0.01885282,      0.06437822,
               -0.06415558,      0.32350802,     -0.06249433,      0.00247735,
               -0.04649422,      0.04381834,      0.02051665,      0.08214273,
                0.07263447,     -0.04067886,     -0.15763699,      0.00933523,
                0.19774282,     -0.06412192,     -0.09083769,     -0.07261290,
               -0.00419301,      0.06595264,      0.09386216,     -0.01152013,
               -0.08715333,      0.03007904,      0.03955576,      0.20479076,
                0.03751366,      0.05226491,     -0.00289842,     -0.20218527,
                0.01676042,      0.00484735,      0.15321733,      0.03637905,
                0.04035430,     -0.20028120,      0.08843408,     -0.07042563,
               -0.10885442,      0.00481059,      0.05236791,     -0.00538326,
               -0.09858320,     -0.00681270,      0.38048294,      0.13358951,
                0.03780597,      0.08689300,      0.05605488,      0.04053891,
               -0.11763290,     -0.01106652,      0.11693754,      0.25000697,
               -0.04046389,      0.06760455,      0.04487585,      0.18395546,
                0.00280878,      0.03655535,      0.12126452,      0.01089429,
               -0.00604820,      0.01371321,     -0.09148511,     -0.06206302,
               -0.01945082,     -0.00216073,      0.01020270,     -0.13658041,
               -0.03987622,      0.10579934,      0.07954100,     -0.01032128,
                0.00671077,      0.08319011,      0.14678724,     -0.14043075,
               -0.14993276,     -0.04158095,      0.07693366,      0.01982845,
               -0.05229647,      0.08014797,      0.01857438,      0.38168779,
               -0.04781657,      0.06584612,     -0.30247980,      0.00079331,
               -0.03364419,     -0.12404089,     -0.10510667,     -0.05260282,
               -0.00565313,     -0.00449103,     -0.06200966,      0.06697904,
                0.09192405,      0.01120701,      0.00751380,      0.02375378,
                0.03218055,      0.11648110,      0.07130443,     -0.25433925,
               -0.16288160,     -0.00617207,      0.01464655,      0.01698004,
               -0.02651430,     -0.73228043,     -0.07410069,     -0.03726819,
               -0.02325705,     -0.06716602,     -0.08165785,     -0.13860629,
               -0.14486411,      0.04364658,     -0.05016278,      0.04458442,
               -0.10378307,      0.05095528,     -0.14673546,     -0.15366113,
               -0.01265619,     -0.00835561,      0.04429029,     -0.00912677,
                0.17868747,     -0.04247908,     -0.22091050,     -0.02988936,
               -0.09403381,     -0.06228952,     -0.05291131,      0.00370960,
               -0.03679874,     -0.01251807,     -0.05434270,     -0.15858911,
                0.06944767,     -0.00037199,     -0.21941505,     -0.01898265,
                0.06899663,     -0.00197339,     -0.05642292,      0.00405660,
                0.07909764,      0.05053685,     -0.03036838,      0.13453236,
               -0.13585624,      0.01200959,      0.03441212,     -0.00571346,
                0.09114506,     -0.07102085,      0.10409394,     -0.00024181,
               -0.15585813,     -0.01166666,     -0.01288093,     -0.04807203,
                0.20772479,     -0.01939320,      0.08770044,     -0.11514203,
                0.11519042,     -0.08433803,     -0.15489897,      0.02312233,
                0.01178920,      0.17326753,      0.09306166,     -0.01464249,
                0.08733134,      0.04460276,      0.05372797,      0.02665634,
               -0.16465758,     -0.05869319,     -0.04982648,     -0.15155008,
               -0.01062501,      0.01305480,      0.01869496,     -0.09920874,
                0.01792081,      0.02505955,      0.09671903,      0.03832652,
               -0.02847456,     -0.08335117,      0.24482477,     -0.05088054,
               -0.10970902,     -0.13156706,     -0.19414458,      0.04217831,
                0.12186024,     -0.08742829,     -0.04375500,      0.17857735,
                0.05001489,     -0.07399318,     -0.08792577,     -0.65529233,
               -0.06181537,      0.05280752,     -0.05751025,      0.01254671,
               -0.00281035,     -0.01338778,     -0.02379775,     -0.00886538,
               -0.07971735,     -0.23551628,     -0.15005749,      0.02486970,
               -0.03304493,      0.05459633,     -0.03546653,     -0.06227120,
                0.28412086,      0.00890511,     -0.05669820,     -0.16512319,
                0.00111151,      0.22612658,      0.06569783,      0.01893581,
                0.07316622,     -0.17595811,     -0.04136417,     -0.02252467,
               -0.11674549,     -0.14286119,      0.01707136,      0.21153815,
               -0.04437944,     -0.05108688,      0.02107008,      0.30444920,
                0.07254584,      0.08318884,      0.16957726,     -0.00222863,
               -0.05754821,     -0.22424027,     -0.24634433,     -0.09240779,
                0.04760903,      0.06531870,      0.17884691,      0.00928704,
                0.01517275,      0.07994367,     -0.04302866,      0.12216508,
                0.20436037,     -0.13332950,      0.09014428,      0.18026727,
                0.14202940,     -0.15185514,      0.02114017,      0.11849613,
               -0.03103613,     -0.08569283,      0.05166611,     -0.19324440,
                0.19419530,      0.03529351,     -0.07824069,     -0.09910063,
               -0.19645703,      0.03751302,     -0.12877229,     -0.04320953,
                0.02895701,     -0.05061182,     -0.09913630,      0.06211682,
               -0.04610544,     -0.17699577,     -0.07302722,      0.00217896,
                0.46116713,     -0.28916889,     -0.09951241,      0.01770181,
                0.27027076,     -0.13860734,      0.03020697,     -0.00896698,
                0.03876535,      0.05204296,      0.31149393,     -0.08387168,
                0.19882226,      0.05750538,      0.04353492,     -0.04647988,
               -0.19583045,     -0.05152566,      0.02335172,      0.00383140,
               -0.04752664,     -0.02512726,      0.00863210,      0.06619669,
                0.04036383,     -0.04980114,      0.00397734,     -0.15782157,
                0.00442313,      0.20640662,      0.03340430,     -0.07836596,
               -0.03492069,      0.03182776,     -0.09569360,      0.08284156,
                0.01322536,     -0.01860404,     -0.05287801,     -0.01069101,
                0.19623959,      0.01373258,      0.06605009,     -0.12459267,
                0.13955042,      0.02535232,     -0.30158454,     -0.07341560,
                0.04891260,     -0.05037272,      0.01800152,      0.07301509,
                0.01457169,      0.15727152,      0.05500303,     -0.04570104,
               -0.07728317,      0.02581793,     -0.00407515,     -0.02863012,
               -0.08478400,     -0.16148570,      0.12237757,      0.03040756,
               -0.11122483,      0.07358630,      0.06398381,      0.07859048,
               -0.11012908,     -0.00297336,      0.14174227,     -0.11743378,
               -0.01729692,      0.11620408,      0.30017659,      0.01614607,
               -0.26382771,     -0.00241103,     -0.02040281,      0.01442523,
               -0.07133547,      0.18034321,     -0.10157226,      0.13428909,
               -0.02267654,     -0.00162231,     -0.06843029,     -0.10573325,
               -0.12930970,     -0.07176611,     -0.07836800,      0.01140372,
                0.06207916,     -0.08875202,      0.07322259,     -0.08173501,
               -0.02074798,     -0.16860542,     -0.00774296,     -0.21506116,
                0.03718050,     -0.12755473,      0.81418538,     -0.01284038,
               -0.04467860,     -0.09090763,      0.00016513,     -0.05714501,
               -0.04913000,     -0.08316334,     -0.16250296,     -0.02008750,
                0.03880247,     -0.08106361,      0.01863432,     -0.12024056,
                0.16914582,     -0.01559708,      0.20244645,     -0.15507540,
               -0.01303596,     -0.03608945,     -0.08827180,     -0.06932858,
                0.09109484,     -0.13096075,      0.39376065,     -0.01312711,
               -0.02759003,     -0.08368476,     -0.11481984,      0.00618463,
               -0.00875236,     -0.16846764,     -0.03295194,      0.15441184,
                0.17100343,     -0.05961155,     -0.04730084,     -0.09882022,
                0.07942484,      0.06544533,     -0.15405574,      0.66334635,
                0.00028339,      0.01011496,     -0.06978416,     -0.14272472,
                0.05136886,     -0.05571132,      0.03001525,     -0.03146911,
                0.04583138,      0.08993588,      0.05251973,      0.03965022,
               -0.02392058,      0.11178277,     -0.20722027,     -0.00186491,
                0.05531577,     -0.03210422,      0.09893613,      0.00858447,
               -0.02511904,      0.01705727,      0.12118998,     -0.05291118,
                0.09785336,      0.11527783,     -0.13051568,     -0.00341793,
                0.10668094,     -0.00599553,      0.13263485,     -0.02586147,
                0.05777410,      0.02684656,     -0.06462417,     -0.04236927,
               -0.03437638,      0.14293924,     -0.01921404,      0.03562757,
                0.07777894,      0.15167911,     -0.04356721,     -0.00289836,
                0.04367022,     -0.06217827,      0.04933769,      0.01462099,
               -0.02316947,      0.05099634,     -0.00100224,     -0.07087077,
                0.10122603,      0.06696783,     -0.07549317,     -0.14246060,
               -0.03911317,     -0.04818252,     -0.01154394,     -0.07036503,
               -0.02292966,     -0.14279389,     -0.01541377,      0.50576067,
               -0.00710908,     -0.01023601,     -0.09159442,      0.03557517,
               -0.00916573,     -0.08728703,     -0.13313554,      0.05675070,
               -0.09740868,      0.06797057,     -0.00493363,      0.13612966,
               -0.02246372,      0.06419566,      0.05614796,      0.05216388,
                0.09193657,     -0.08521810,     -0.06861753,      0.08654629,
                0.35830355,     -0.01132450,     -0.08521012,      0.12512492,
               -0.05506202,     -0.09752747,     -0.04455861,      0.05855249,
               -0.02256982,     -0.07569262,      0.01026279,      0.01063210,
                0.10974666,      0.01116392,     -0.11041144,     -0.06700802,
               -0.05124085,      0.11825662,     -0.10276671,     -0.07171336,
                0.08691181,      0.00849833,      0.02055787,     -0.12308253,
                0.00274168,      0.00842443,     -0.05533213,      0.01104799,
                0.01262497,     -0.06283599,      0.00687521,     -0.03644013,
               -0.06016074,      0.02867891,     -0.05863712,      0.04467728,
                0.02868215,     -0.04726725,     -0.01304382,      0.04624244,
               -0.01151332,      0.05016902,      0.05987088,     -0.05611936,
                0.00794098,      0.05611189,     -0.05704801,      0.07153887,
               -0.02731913,     -0.05381327,     -0.03529299,      0.07943262,
                0.01997679,      0.02728442,     -0.09932689,     -0.06166044,
                0.04701418,      0.01490679,     -0.05378746,      0.04795873,
               -0.00673157,      0.01795647,      0.02652490,     -0.06219574,
               -0.03166593,      0.02841835,     -0.18332458,     -0.07745747,
                0.06025242,     -0.12999746,      0.32948327,      0.04279167,
                0.06906752,      0.04407987,     -0.01614142,     -0.02177909,
                0.35302559,      0.20998549,     -0.09139763,      0.03102207,
               -0.05871031,      0.07200962,     -0.04276602,     -0.01932641,
               -0.02896610,     -0.02074926,     -0.07597815,     -0.03187853,
                0.03339433,      0.05121844,     -0.05600410,      0.03719049,
               -0.18396476,      0.09951741,     -0.03934078,     -0.06017600,
               -0.09629545,     -0.05260227,     -0.03651400,      0.12093104,
               -0.01435613,     -0.20309278,     -0.13274314,      0.05097478,
               -0.06503490,     -0.08428676,      0.05956395,     -0.08073553,
                0.06297209,      0.11197732,     -0.08805559,     -0.01127760,
                0.08759442,      0.00230758,      0.00217778,      0.05272749,
                0.01411819,      0.05756221,      0.00886118,     -0.05729107,
                0.02587537,     -0.04437985,      0.00128589,      0.02711344,
               -0.22807457,     -0.01125006,      0.02047394,     -0.00448999,
               -0.16075206,     -0.05061907,     -0.03184495,      0.07861289,
               -0.22498071,     -0.04581667,     -0.02212121,     -0.08031709,
                0.09206349,     -0.07238785,     -0.02636715,      0.02164614,
                0.02223371,     -0.08523807,     -0.01965239,      0.05182630,
                0.03118878,     -0.01990594,      0.01285578,      0.17974749,
               -0.12173723,     -0.08132217,      0.02062545,     -0.09348297,
                0.01232583,      0.01098173,      0.04297006,     -0.03738711,
                0.23684846,      0.15915212,     -0.01039325,      0.04257601,
                0.02147149,     -0.05670742,     -0.08672926,     -0.01587847,
               -0.24661005,     -0.02832246,      0.06722170,      0.11484652,
                0.04764014,     -0.01528021,     -0.07351267,      0.25322431,
               -0.01477905,      0.09144267,      0.04439297,      0.03864856,
                0.00566784,     -0.00769575,     -0.00677713,      0.12184123,
                0.04019006,     -0.30052054,      0.30732381,      0.14465478,
                0.34843636,     -0.00087047,      0.05329703,     -0.00142552,
               -0.05347142,      0.01079458,      0.09215499,     -0.04151033,
                0.07094374,      0.01230346,     -0.04355953,     -0.00796430,
               -0.11070450,      0.00564234,      0.00960379,     -0.00555915,
               -0.02685421,      0.01205616,      0.03169831,     -0.01093121,
               -0.06684930,     -0.12049428,     -0.01152624,      0.00021577,
                0.03873889,     -0.00302106,     -0.14947946,     -0.05838576,
                0.04847884,      0.17708455,      0.25328672,     -0.10789853,
                0.02726276,      0.01215804,      0.07180589,      0.05913662,
               -0.14167178,     -0.03629977,      0.01661023,     -0.03611330,
                0.04059771,      0.08201382,     -0.22667952,     -0.04105880,
               -0.07396697,      0.12160736,      0.00148433,      0.02061473,
               -0.11751743,      0.05860145,     -0.11217242,     -0.00755445,
               -0.04614632,      0.06248017,      0.14621486,      0.02609928,
                0.06036456,     -0.07268863,      0.07176815,     -0.09941208,
                0.01541987,     -0.03247238,      0.04434529,      0.02810103,
                0.01611980,     -0.01343306,      0.01895382,      0.01087030,
                0.08073540,     -0.01381451,      0.02950506,      0.09871385,
               -0.04767531,     -0.08454052,      0.01684117,      0.01687473,
               -0.05101882,     -0.07528061,      0.03045859,     -0.02790482,
                0.01308277,     -0.01766281,      0.02891708,      0.01699264,
                0.24664821,     -0.01823365,     -0.03300614,     -0.00318000,
                0.02879778,     -0.04706876,     -0.14474852,      0.00112396,
                0.03679692,      0.03926860,     -0.11045244,      0.04218047,
               -0.06989954,     -0.03649935,     -0.02032192,      0.53724432,
                0.03994784,      0.05373144,     -0.02516151,      0.06182221,
                0.22195633,     -0.06326368,     -0.14075263,      0.01231007,
                0.21893378,      0.00514098,     -0.09159793,      0.02032004,
                0.00327320,     -0.00625929,      0.05428022,      0.16318195,
               -0.06434169,      0.19239409,      0.02153830,     -0.04461204,
                0.01353625,      0.05455890,     -0.04261177,      0.02270179,
               -0.02082824,     -0.05333422,      0.02703911,     -0.01447798,
                0.10542116,      0.08909864,     -0.00162815,     -0.07307170,
               -0.01042589,     -0.00643581,     -0.01372213,      0.03594361,
               -0.06166193,      0.04494934,      0.04918971,     -0.00445420,
               -0.08850982,     -0.02049933,     -0.00267273,      0.03579745,
               -0.00861258,      0.00767484,      0.04234783,     -0.04795657,
                0.07169352,     -0.03608946,      0.06918161,     -0.06478899,
                0.07481513,     -0.06851043,      0.06216264,      0.09237299,
                0.02468618,     -0.00988020,      0.02266195,     -0.00227131,
                0.02780211,     -0.07656207,     -0.19709451,      0.12150870,
                0.00221316,      0.05228894,     -0.06565544,     -0.02875712,
                0.15967551,      0.00915370,      0.09388089,      0.05257833,
               -0.07159213,      0.06208725,      0.08719966,      0.08241674,
               -0.07601349,      0.07304278,      0.27764881,      0.02463445,
                0.06924414,     -0.05936695,     -0.01633971,     -0.04491845,
               -0.12922317,      0.00942904,      0.05744313,      0.14174667,
               -0.02035171,      0.05667515,     -0.06974258,     -0.07912900,
               -0.18495092,     -0.01805587,      0.12922376,     -0.00325139,
                0.16719386,     -0.03600391,      0.08285402,     -0.00386474,
                0.04077892,      0.01906477,     -0.06632847,     -0.01218800,
                0.03594645,      0.00235631,      0.09896605,     -0.01644614,
                0.08969457,      0.07144750,     -0.03612312,      0.05910990,
                0.00629436,      0.02611191,      0.06498308,     -0.03514691,
               -0.19061278,     -0.04185463,     -0.04303546,      0.09675612,
               -0.16161087,     -0.00885680,     -0.00523803,      0.02801500,
                0.14278716,     -0.03452716,      0.00963997,     -0.03943226,
                0.04095852,     -0.07316379,      0.05563688,     -0.10220218,
                0.02628328,     -0.06538238,      0.13332106,     -0.02998664,
               -0.02231497,      0.00271122,      0.12819527,      0.00041599,
                0.02162219,     -0.02081626,      0.02703481,     -0.05201105,
                0.04501572,      0.07992259,     -0.05563543,     -0.04355771,
                0.19633222,     -0.00255536,      0.12735876,      0.01564731,
                0.06897130,      0.00330084,      0.04248652,      0.04637849,
                0.00111451,     -0.01702820,     -0.01272389,      0.05328881,
                0.05326716,      0.13256527,      0.06820627,     -0.01222381,
               -0.03863008,      0.15832625,     -0.00918095,     -0.03222451,
                0.10720228,     -0.06685422,      0.02144843,     -0.15823080,
               -0.00757360,     -0.06206476,      0.00762912,      0.02219723,
               -0.00425913,      0.03387339,     -0.07596994,      0.03180922,
               -0.02328149,     -0.00484764,     -0.03822006,     -0.02989160,
               -0.05982733,      0.03754544,     -0.00293100,      0.04441755,
                0.05300747,      0.10755950,      0.01653257,     -0.02496197,
                0.06449660,     -0.03136811,      0.03220399,      0.07772411,
                0.08456679,      0.02398335,      0.00919415,     -0.12507856,
               -0.10807671,     -0.06355031,     -0.02388009,      0.01992410,
                0.02400517,     -0.05139393,      0.04637595,      0.02644673,
                0.05537413,     -0.01604954,      0.02305175,      0.03233794,
               -0.27961373,      0.34145817,      0.00622107,     -0.23569709,
                0.02253532,      0.07474864,      0.06593879,      0.10462154,
                0.19282892,      0.01106567,     -0.11714898,     -0.01490477,
               -0.01588227,     -0.00980303,     -0.01106995,      0.13952699,
               -0.13461964,      0.21179499,      0.08620854,     -0.04674973,
                0.05458033,     -0.02077475,      0.02434588,      0.00412809,
                0.09617351,      0.04492574,     -0.00810503,      0.14073204,
                0.00203479,     -0.00155509,     -0.12754662,     -0.02430771,
               -0.02935908,     -0.05982343,      0.01024744,      0.02943024,
                0.03686699,     -0.02456972,      0.04416644,      0.01881822,
                0.04373545,     -0.01593703,      0.05910844,     -0.05353081,
               -0.02076722,      0.00789331,     -0.04167421,      0.00149498,
                0.01808621,     -0.19474126,     -0.05068705,     -0.03995591,
                0.02294296,      0.00607852,      0.01251061,      0.07082787,
                0.11496753,     -0.00779557,      0.05838287,     -0.00512867,
                0.01513287,      0.07740906,      0.00551354,      0.01082672,
               -0.00482922,     -0.01019585,      0.04565932,      0.04348812,
                0.06692280,      0.00605429,     -0.27325204,     -0.13378166,
               -0.04972738,      0.01277751,      0.03122663,     -0.05205373,
                0.07658730,     -0.04240977,      0.07764895,     -0.07290663,
               -0.01709973,      0.06747173,      0.02588716,      0.12254028,
                0.02018411,      0.06703853,      0.04071870,      0.02209902,
                0.06929929,      0.04359468,     -0.02952587,      0.09779011,
                0.09762593,     -0.05509584,      0.03406478,      0.00250653,
                0.10546416,      0.06691962,      0.04685295,      0.09271386,
                0.03590069,     -0.00504908,     -0.01992787,      0.01950944,
                0.02954755,      0.10316440,     -0.07365905,      0.01986250,
                0.05501588,      0.02221925,      0.01557416,      0.01453314,
               -0.04690411,     -0.09955444,     -0.26066676,      0.07749416,
                0.11172243,     -0.01157195,     -0.05664500,     -0.18389970,
               -0.00587838,      0.07475840,      0.06085537,     -0.01864314,
               -0.00931656,     -0.02556498,      0.01755019,      0.02690299,
               -0.13452375,     -0.02818204,      0.03166064,      0.10657825,
               -0.01216186,      0.08065312,      0.05948342,     -0.11175734,
                0.11932085,      0.06299263,      0.10731814,      0.05361894,
                0.08394293,      0.12898935,     -0.03695820,      0.02963114,
               -0.03055524,     -0.27442050,      0.18787275,      0.06072282,
                0.58936733,     -0.14955141,      0.02805320,      0.09001312,
                0.03325229,      0.01654260,     -0.04122839,     -0.06119500,
                0.03396517,      0.20198673,     -0.22472472,      0.17147915,
               -0.01455780,     -0.03419112,      0.05716065,      0.09718848,
               -0.03203836,     -0.09057525,      0.28737459,     -0.03330634,
               -0.07751665,      0.05267293,      0.11218625,     -0.02229821,
               -0.02492220,     -0.03601507,      0.00264971,     -0.11225719,
                0.07372642,     -0.09223313,     -0.24438895,      0.05472545,
                0.06980807,      0.18419224,     -0.00209680,     -0.05020077,
                0.05294798,     -0.01585877,      0.05492251,      0.05714350,
               -0.12337119,      0.03806400,     -0.01102899,      0.04192090,
               -0.03945913,      0.07728121,     -0.05951716,      0.01127285,
                0.00213019,      0.10211004,      0.04316870,     -0.09655814,
               -0.06310815,      0.04046652,      0.19059528,     -0.00935385,
               -0.10057995,      0.08569748,     -0.09806208,     -0.00468668,
               -0.01733425,      0.02016461,     -0.31371233,      0.07417662,
                0.03256230,     -0.06259874,     -0.05292749,     -0.06952033,
               -0.18250211,      0.02967388,     -0.01823939,     -0.01935876,
               -0.00287888,      0.09193556,      0.01911392,     -0.00342090,
                0.02105559,     -0.07474651,     -0.04615624,      0.03123784,
                0.04825456,     -0.02013168,      0.00124821,     -0.04122679,
               -0.00756605,      0.03233280,      0.02944934,      0.03054272,
                0.31582919,      0.03308304,     -0.04503772,     -0.01038159,
                0.06816532,      0.12333123,     -0.06245884,      0.10176063,
               -0.02431340,     -0.12248001,      0.02561636,      0.03314532,
               -0.01735313,     -0.07844271,      0.01164237,     -0.00215361,
                0.04251155,     -0.00998029,      0.02447815,      0.03206369,
               -0.01520226,      0.05390031,      0.11977753,      0.07046565,
               -0.05362618,      0.03715085,     -0.01446172,      0.06331240,
               -0.11343145,     -0.15181257,      0.03047077,      0.27534780,
               -0.02702226,     -0.02068882,     -0.06819373,      0.03892038,
               -0.02459663,     -0.04427847,     -0.11214425,     -0.06919031,
               -0.38299221,     -0.04553228,      0.06270158,     -0.06062034,
               -0.07189191,      0.05116753,     -0.03301541,      0.19228239,
               -0.02031844,      0.18772134,      0.00135190,     -0.11736602,
                0.06307909,     -0.05276834,     -0.03135671,     -0.08879158,
                0.00193287,     -0.13998504,      0.05659663,      0.04459189,
                0.03070300,      0.17087728,      0.07221230,      0.09115951,
                0.00817660,      0.02588013,      0.05645508,     -0.06397899,
               -0.26375407,      0.04770541,      0.14394915,     -0.25724506,
               -0.07528098,     -0.08315657,      0.14754675,     -0.13948528,
               -0.12275265,      0.03742927,      0.04805680,     -0.01612129,
                0.02977518,     -0.07223965,      0.01977678,      0.00648131,
               -0.08482207,      0.04006973,     -0.08279800,     -0.05683024,
               -0.06416547,      0.07874279,      0.03477962,      0.08460755,
               -0.01343252,      0.04312847,      0.06569787,      0.09032233,
               -0.11271030,     -0.25130683,      0.08211452,      0.01961130,
               -0.00928695,     -0.00432731,      0.15016432,      0.02101886,
                0.05020105,     -0.10603192,      0.09975275,      0.11510535,
               -0.01175222,      0.08919109,      0.07844541,      0.02410872,
               -0.07316733,      0.06559076,      0.06340665,     -0.13404731,
                0.02604712,     -0.03209367,      0.07751961,     -0.03168272,
                0.00108558,     -0.08180743,     -0.05071846,      0.04720301,
                0.12122859,      0.00442969,      0.52546018,      0.04541878,
               -0.04359801,     -0.02310081,     -0.13115533,     -0.01264571,
               -0.03848447,      0.04742283,     -0.05021230,     -0.13363560,
                0.26563662,     -0.03279682,      0.03892554,      0.14988901,
               -0.10508050,      0.35314378,     -0.11957607,      0.22279705,
                0.05148121,      0.01940886,     -0.08693815,      0.04719066,
                0.09037465,      0.04498019,      0.10951687,      0.10498494,
               -0.17609122,     -0.07418865,      0.04997272,      0.02603863,
               -0.00643190,     -0.05039151,      0.16553554,     -0.05561642,
                0.04320655,      0.10087944,      0.08552236,     -0.04289972,
                0.00603019,     -0.02587237,      0.25341761,     -0.01891471,
                0.06103771,      0.02560749,     -0.06104854,     -0.02676432,
               -0.12683031,      0.09147789,      0.15132485,      0.00126389,
               -0.05204044,      0.08815908,     -0.09186541,     -0.11761431,
                0.02943303,     -0.07391077,     -0.00079544,      0.03344873,
                0.34172407,     -0.00200485,     -0.06621864,      0.07729904,
                0.06909245,      0.01297482,      0.00508095,     -0.04706146,
                0.03357919,      0.03521025,      0.04196001,      0.01847051,
               -0.01620916,     -0.01143412,     -0.04127295,      0.06601029,
               -0.02689515,     -0.03186037,     -0.12239940,      0.20111591,
                0.07573535,     -0.06541108,     -0.04463773,     -0.54256201,
               -0.00563303,      0.03371303,     -0.02726650,     -0.06181418,
                0.06855863,      0.05576844,     -0.05032411,      0.14636301,
               -0.18505929,     -0.00510577,     -0.00390897,      0.04531763,
               -0.01371781,      0.14506525,      0.03468694,      0.01503065,
                0.02026237,      0.03314010,     -0.00707440,     -0.02447792,
                0.02878100,     -0.00546299,     -0.07407860,     -0.02998519,
                0.06213950,     -0.02297845,      0.00768445,      0.12118771,
                0.03433948,     -0.00072195,     -0.08987612,      0.03433581,
                0.43525165,     -0.06266880,     -0.15842704,     -0.02327208,
                0.37431946,     -0.00253709,     -0.01871810,     -0.07904188,
               -0.00975964,      0.01159489,     -0.04681871,     -0.14188164,
               -0.08105399,      0.10399789,     -0.04354916,      0.01517264,
                0.08267988,     -0.00489324,     -0.00414265,     -0.05715361,
               -0.11242555,     -0.07663810,     -0.02363375,      0.02280337,
                0.03666591,      0.01435588,      0.02524458,      0.04315962,
                0.03280543,     -0.02773901,      0.04206492,     -0.16271622,
               -0.04305891,     -0.09817401,      0.03100184,      0.02486859,
               -0.02832582,      0.11917105,      0.06301156,     -0.01108370,
                0.01988761,      0.05192107,     -0.09271901,     -0.08094081,
               -0.15481535,      0.09490686,      0.06237612,     -0.02415367,
               -0.13579513,     -0.10422962,      0.04621718,     -0.03089626,
               -0.04462257,     -0.10983314,     -0.07115440,     -0.07147343,
               -0.01161883,     -0.04186140,      0.03795351,      0.04505218,
                0.01128788,     -0.00885208,     -0.00031426,      0.00160627,
               -0.08445737,     -0.43276361,      0.06888411,      0.04526308,
                0.01128989,      0.09611565,     -0.02861028,     -0.04247496,
               -0.10632649,      0.02456886,     -0.33529422,     -0.13370450,
               -0.01078370,      0.04328728,     -0.05692061,      0.12782635,
               -0.01085710,      0.12831661,      0.04128252,     -0.00602977,
               -0.08485352,     -0.03859615,      0.00111424,     -0.07072767,
                0.11003055,      0.01426516,     -0.00984283,      0.14354612,
               -0.01640950,      0.04262469,      0.06825894,      0.22137029,
                0.02917014,     -0.08967532,     -0.02884076,     -0.03741768,
               -0.00394023,     -0.02526035,      0.07406250,     -0.11973199,
               -0.07197946,     -0.07078448,     -0.01502426,      0.00879563,
                0.01477991,      0.14213851,     -0.07819509,     -0.06503390,
               -0.15096293,     -0.06776346,     -0.01889605,     -0.01482937,
               -0.07643674,     -0.02297834,      0.12518573,      0.05981499,
               -0.16426787,      0.00268561,      0.14904073,      0.08467426,
               -0.12960120,     -0.05090363,     -0.04554017,      0.03353956,
               -0.07791018,      0.03992050,     -0.03031786,      0.03756643,
               -0.04074684,      0.00472749,     -0.12365592,     -0.04142222,
                0.06023258,     -0.04120007,      0.01914400,     -0.01519935,
                0.06102213,      0.04717395,     -0.03913490,      0.08876380,
                0.10869507,     -0.03246308,     -0.06694099,      0.07439977,
                0.07533203,     -0.32379332,      0.21747100,      0.08314858,
               -0.23851004,      0.02994622,      0.04949323,     -0.02492324,
                0.03237664,     -0.08627557,     -0.13616310,     -0.24556896,
               -0.03873486,     -0.04383419,     -0.23370810,     -0.10310841,
                0.07179846,     -0.00157611,      0.00295981,     -0.01796581,
                0.07628772,     -0.28483108,     -0.03445932,      0.08686557,
                0.10545374,      0.06373621,      0.08085583,      0.07067991,
                0.10952444,      0.05011803,      0.03178831,     -0.08757775,
                0.09939393,     -0.02571740,     -0.03225021,     -0.01132842,
               -0.00354237,     -0.04984356,      0.02241789,      0.06885583,
                0.08626617,     -0.01037628,      0.02188075,      0.02905409,
               -0.04747899,     -0.03385480,     -0.01775916,     -0.07613450,
                0.05940251,     -0.01838506,     -0.17166656,      0.07195967,
                0.02694655,     -0.07134572,     -0.10695119,      0.00677170,
               -0.10328624,     -0.11595099,     -0.06624544,     -0.03737970,
               -0.19552298,      0.00713406,     -0.02696432,      0.06347975,
               -0.01068302,     -0.07428563,      0.16277537,      0.07742748,
               -0.04848757,     -0.02008107,      0.03876793,     -0.08151776,
               -0.19025411,      0.07622456,     -0.09904089,      0.08035151,
               -0.02254165,     -0.05915038,     -0.04463227,      0.00221242,
               -0.08121707,     -0.02228411,      0.04339445,     -0.02410651,
               -0.11826795,     -0.06118549,     -0.15395695,      0.02471837,
               -0.01252487,     -0.01426711,      0.08421633,     -0.03467236,
                0.18039015,      0.06935523,     -0.09836469,     -0.13261309,
                0.00254756,      0.15780176,     -0.02593692,      0.03758461,
                0.07291969,     -0.04852192,      0.01239139,     -0.00030909,
                0.01445878,     -0.02637357,     -0.02710587,     -0.02622267,
                0.10876004,     -0.15685481,      0.13989712,      0.07409265,
                0.02868791,     -0.01744837,      0.12420669,     -0.07661752,
               -0.02299540,     -0.06827849,     -0.01797266,      0.10868844,
               -0.18830574,      0.08232430,     -0.04074805,     -0.37208107,
               -0.13905948,      0.07174560,     -0.06813877,     -0.07564571,
                0.00604544,     -0.12793693,     -0.03882268,      0.03936619,
                0.15323149,     -0.02394305,      0.06998353,      0.01237993,
                0.07172427,      0.06163547,      0.06042829,      0.09045679,
               -0.04455726,      0.05074548,      0.00610162,     -0.14123817,
               -0.11912321,      0.07734366,     -0.03302706,      0.03709219,
                0.03189661,      0.05398288,     -0.10867222,      0.07278868,
               -0.06654340,     -0.01302545,     -0.09995779,     -0.02031361,
                0.06465278,      0.11361193,     -0.13039897,      0.03399274,
               -0.13796768,      0.02043989,      0.09061763,     -0.13202737,
               -0.00642767,     -0.04208551,     -0.01074882,      0.05532041,
               -0.16507372,      0.02743014,      0.03933550,      0.11663031,
                0.05467854,     -0.00594710,     -0.01596785,      0.06535326,
                0.06618849,      0.00355280,     -0.00861691,     -0.03858490,
               -0.03289964,     -0.09539105,      0.05281900,     -0.07382132,
               -0.04824491,      0.01451027,     -0.23154122,     -0.14749657,
               -0.06173038,     -0.09603011,     -0.03537517,     -0.13082239,
               -0.16869685,     -0.08651204,     -0.06271137,      0.00517547,
               -0.03372334,     -0.03053485,      0.07428489,      0.06922675,
                0.08917245,      0.12355202,     -0.06394321,      0.17229578,
                0.07026839,     -0.17904729,      0.07712248,     -0.19251792,
               -0.04156483,     -0.03344019,      0.10069299,      0.07198421,
               -0.01227729,      0.10830837,      0.08368251,      0.09667977,
                0.26537302,     -0.13412546,     -0.02891277,      0.01208515,
               -0.06152404,     -0.11294483,     -0.02613136,     -0.01025455,
               -0.00029543,     -0.05130316,     -0.01617432,      0.04145657,
               -0.13196573,      0.02143006,     -0.08278605,      0.00423504,
               -0.13762796,     -0.04152594,      0.01443216,     -0.04853388,
                0.13953105,      0.09328113,     -0.01200209,     -0.09774095,
               -0.15499046,      0.03205892,     -0.02076937,      0.16405113,
                0.03741656,      0.05082523,     -0.06030606,      0.03257685,
                0.05405891,     -0.00552460,      0.12167266,      0.00546876,
               -0.00453707,      0.02833179,      0.04421205,      0.00117534,
                0.06876222,     -0.07763860,      0.07917722,      0.04707902,
                0.04190430,      0.11570515,      0.20666392,     -0.03697051,
                0.10868024,      0.05656307,      0.24223232,     -0.00800637,
               -0.07123441,      0.11062910,     -0.02220184,      0.11821243,
               -0.11078374,     -0.04916416,      0.03738086,     -0.03991265,
               -0.08843130,      0.05086586,      0.01587015,      0.03657075,
               -0.02163910,     -0.09642064,      0.01665056,      0.02914023,
                0.06558664,      0.03052862,     -0.04822057,     -0.05258984,
                0.01180623,     -0.01052312,     -0.14567535,     -0.09183355,
                0.04052921,     -0.00050643,      0.06138977,      0.04619953,
               -0.03790731,      0.01687691,     -0.02814126,     -0.10651252,
               -0.00732527,      0.04841670,     -0.07066454,     -0.10960893,
               -0.08713622,     -0.08084602,     -0.02918264,      0.01514340,
               -0.02307889,     -0.03776376,     -0.00509357,     -0.00930674,
                0.03002063,      0.01088669,     -0.11714064,     -0.02128527,
                0.04039355,      0.00415106,      0.05533640,     -0.03728762,
                0.03154773,     -0.10498706,     -0.15020818,      0.04489847,
                0.04707099,      0.12507589,      0.11275084,      0.02923493,
               -0.03895574,     -0.04742735,      0.09528289,      0.03487310,
                0.07502478,     -0.01112160,     -0.24066935,     -0.04300447,
               -0.14704055,     -0.27950114,      0.19450040,      0.01985448,
               -0.04483058,      0.11210082,      0.15250616,      0.00305471,
                0.09438525,     -0.14466932,      0.03645930,     -0.06352267,
               -0.06927013,     -0.00624903,     -0.01214403,     -0.02183448,
               -0.17830950,     -0.03919940,      0.08739746,     -0.04706255,
                0.04555067,     -0.02521736,      0.06631128,     -0.03517703,
               -0.05706835,      0.04035491,     -0.03996062,     -0.03892578,
                0.05006250,      0.01424539,     -0.03471097,     -0.09948903,
               -0.08539797,     -0.00128233,     -0.02713189,      0.00008068,
               -0.02959882,      0.07819565,      0.14921263,     -0.02031041,
               -0.00121389,      0.04152737,     -0.03059631,     -0.04493615,
               -0.13528210,      0.05846455,     -0.01797371,      0.04628329,
                0.13691442,      0.25255466,      0.03744692,      0.16127196,
                0.06058700,     -0.02148335,     -0.02643557,      0.05874664,
                0.02809564,      0.10784717,     -0.07954708,      0.02748865,
               -0.02706153,      0.10415906,     -0.03578480,     -0.10159668,
               -0.07396669,     -0.19240229,      0.10991084,     -0.02818855,
                0.03300227,     -0.03662765,      0.13102490,     -0.17201482,
               -0.11967972,      0.05749147,      0.09239940,     -0.05657317,
               -0.08269921,     -0.09891079,      0.01706872,     -0.06435623,
               -0.09719775,      0.07795448,      0.07351226,      0.01799174,
               -0.01457868,      0.10806389,      0.11558705,      0.10791580,
               -0.05123685,      0.02011622,     -0.07137692,     -0.22828068,
               -0.01982504,      0.11805909,      0.06738566,     -0.00809361,
               -0.10456901,      0.15477625,      0.02962136,      0.03648914,
                0.01918888,      0.03316348,     -0.04288527,      0.01329954,
               -0.01135994,     -0.02902939,      0.05433178,     -0.11357281,
                0.06479414,     -0.07844296,     -0.05341290,      0.03647007,
                0.01672118,      0.00112653,     -0.04269078,     -0.05345495,
                0.18857159,      0.03307149,     -0.02212748,     -0.02108015,
                0.00468416,     -0.11957408,      0.07018788,      0.09702770,
                0.03986282,      0.05120942,     -0.04957635,     -0.00870852,
                0.02351872,     -0.39666572,     -0.04385012,      0.01335055,
               -0.06077944,      0.03808321,      0.07253065,      0.02302947,
               -0.06539475,      0.06672534,      0.02056717,     -0.03262390,
               -0.02259641,      0.19994797,      0.10055199,     -0.03665126,
               -0.06668410,     -0.07172351,     -0.08296263,      0.01987285,
               -0.01378863,      0.02090629,     -0.02308714,     -0.18132471,
                0.03709549,     -0.00327901,     -0.19552575,     -0.00391456,
                0.01333143,     -0.19744529,      0.07842916,      0.09103985,
               -0.00820911,      0.09793997,     -0.01671337,      0.05971256,
               -0.12464608,     -0.04201749,     -0.01246243,     -0.06613924,
                0.02878626,      0.07078273,     -0.10575929,      0.04251404,
               -0.09999979,      0.04070913,      0.10952250,     -0.10936965,
               -0.03254965,      0.01796978,      0.01718903,     -0.02461131,
               -0.11870679,      0.11276846,      0.02362324,     -0.01882466,
                0.02487481,     -0.04426713,      0.02337717,      0.07330714,
               -0.08416422,      0.09682019,      0.00429778,      0.09233218,
               -0.00919170,      0.01371040,      0.00906314,      0.01041511,
                0.09688227,     -0.01232276,     -0.03034172,     -0.10909690,
               -0.00744703,      0.01148175,     -0.08879928,     -0.50564784,
                0.06104853,     -0.04671942,      0.01056026,      0.01602427,
               -0.08213763,      0.02282283,      0.02770130,      0.07646146,
               -0.15260673,      0.08480652,      0.02941789,     -0.09602312,
               -0.00857911,     -0.03585701,      0.09881055,      0.01959541,
                0.01634682,     -0.01559870,     -0.04562152,      0.00803306,
               -0.14719674,     -0.03289113,     -0.04163728,     -0.10850942,
                0.03182954,     -0.07311019,      0.07583790,      0.02289012,
                0.00718988,     -0.01751912,     -0.12264960,     -0.06518400,
               -0.00587766,     -0.16576765,      0.07701056,      0.03257463,
                0.31768098,      0.63670582,      0.06514142,     -0.03625258,
                0.03028655,     -0.03474619,     -0.02687229,     -0.05654380,
               -0.06213874,     -0.14593430,      0.05004871,     -0.01758527,
               -0.04449466,     -0.06124608,     -0.01028111,      0.04584139,
                0.02724422,      0.07369899,      0.08433801,     -0.11652989,
                0.00685258,     -0.01662717,      0.14981489,     -0.07275371,
                0.08826499,     -0.06724266,     -0.00377209,     -0.04306188,
                0.06087345,      0.03655711,     -0.08263034,      0.08262281,
                0.09383515,      0.01954615,     -0.00497971,      0.01355597,
               -0.11726073,     -0.23686360,      0.05671666,     -0.04905119,
               -0.20561481,      0.04446269,     -0.02743817,      0.07723196,
               -0.01725832,      0.03701753,      0.05889544,      0.03481438,
                0.00813109,     -0.03320280,      0.03657703,      0.02280074,
                0.07049536,     -0.02822524,     -0.05700620,     -0.08341222,
                0.10588443,     -0.00430040,     -0.06962929,     -0.11948128,
                0.09219769,     -0.17497239,     -0.07115536,      0.02965366,
                0.02170978,     -0.02138817,      0.00202044,     -0.17521919,
                0.06980246,     -0.06425164,     -0.09516288,      0.05153437,
                0.00550059,     -0.00634638,      0.00358700,      0.01739562,
               -0.03106035,     -0.00385726,      0.00944783,      0.01300965,
                0.01284730,      0.03447451,     -0.00240873,     -0.05589360,
               -0.09162273,     -0.00889665,     -0.00353420,     -0.03798903,
                0.00767190,     -0.02933352,     -0.12634820,     -0.01586631,
                0.16415162,     -0.09870387,     -0.07499734,      0.02463648,
                0.07644191,     -0.06071778,      0.11026295,      0.01557489,
