
// weight for Expansion Convolution layer has dimension of torch.Size([1, 1, 80, 480])
const float MBConv6_7_expansion_conv_conv2d_weights [ 1* 1 * 80 * 480] =
{
	0.01253999,      0.27019227,     -0.00199381,      0.07104577,
                0.06769900,      0.10156732,     -0.05300250,     -0.03933426,
                0.02767574,      0.02016485,      0.00163088,      0.18273062,
               -0.03533034,     -0.14398149,     -0.03590647,      0.04550216,
               -0.02020248,      0.10671056,     -0.10574193,     -0.05076988,
                0.05234146,     -0.14754501,      0.01078485,     -0.09504862,
               -0.01068024,     -0.00795582,      0.09991996,     -0.05148939,
                0.01708596,     -0.14020118,     -0.05118294,      0.14594385,
               -0.04812312,      0.14679016,      0.01514002,      0.04836291,
                0.03539507,      0.04525539,     -0.13949658,     -0.23164348,
                0.01604227,      0.06767837,     -0.00557698,      0.07145330,
                0.03836454,      0.06263111,     -0.10026694,     -0.02445298,
               -0.03911972,     -0.02801689,     -0.15923254,      0.15302515,
                0.04237455,      0.13366126,      0.00452686,      0.09707756,
               -0.12576255,      0.18487301,     -0.10557502,      0.01194330,
                0.01231011,      0.02343384,      0.00711114,      0.09087219,
                0.03846550,      0.18666044,     -0.01133720,      0.03987967,
                0.05862683,      0.07056906,     -0.10313983,      0.00636216,
               -0.01220782,      0.06108776,     -0.11524696,     -0.03700581,
                0.03415331,     -0.04877422,      0.05676598,      0.15263271,
               -0.16077709,      0.15208426,     -0.18749197,      0.11400605,
                0.07085332,      0.12377974,      0.00680010,      0.10457979,
               -0.01234554,      0.03310083,      0.04375957,      0.03630402,
                0.03712859,      0.06122284,      0.10357597,     -0.16850305,
               -0.26679403,      0.01221670,      0.06749284,      0.09337061,
               -0.01402424,     -0.01819031,      0.00144238,      0.09713795,
               -0.03973290,      0.14484440,     -0.05273895,     -0.23005025,
               -0.09029742,     -0.04981168,      0.06285346,     -0.02437486,
                0.02374880,     -0.06609258,     -0.02971342,     -0.03370523,
               -0.02293129,     -0.04534703,      0.04269800,      0.02446983,
               -0.06969523,     -0.03933241,     -0.02140224,      0.03157086,
                0.13828619,      0.04203003,      0.02873966,      0.07386400,
               -0.00842222,      0.12271836,      0.06244071,      0.09237294,
               -0.05464959,      0.09025788,      0.11081482,      0.06834940,
               -0.01902657,     -0.09737609,      0.01734140,     -0.09386691,
               -0.04093140,     -0.07268871,     -0.13257490,      0.00180243,
               -0.01219614,     -0.04179738,      0.05368947,     -0.09547988,
                0.03164991,      0.07953208,     -0.02291514,     -0.06779418,
               -0.12082563,     -0.02185681,      0.00444226,     -0.05662363,
               -0.21055688,     -0.07319541,     -0.04218303,     -0.08190841,
                0.16589566,      0.11590429,      0.12027676,     -0.02573047,
                0.16250069,     -0.00914820,     -0.09907631,      0.04188824,
                0.00359470,      0.09117398,     -0.06895941,      0.13158813,
               -0.00847683,     -0.01235627,      0.00377862,     -0.08401970,
                0.08457588,      0.09790682,      0.05509045,      0.09562358,
                0.04804733,      0.13061649,     -0.01015622,     -0.14602068,
                0.06580115,      0.03354570,     -0.10805020,     -0.00287630,
                0.15525787,      0.01050093,      0.04184518,      0.04137215,
                0.12403363,      0.12332465,      0.01983811,     -0.01001133,
                0.10125368,      0.07333159,     -0.11058472,      0.03922882,
               -0.05585078,      0.10479439,     -0.08409847,      0.06141054,
                0.02292640,      0.04330788,     -0.07818455,      0.03582371,
                0.03444059,      0.07103956,     -0.04022266,      0.02933438,
               -0.09122297,      0.05327476,     -0.08342481,     -0.07099528,
                0.06798010,     -0.03866319,     -0.10014650,      0.08228425,
               -0.26532155,     -0.03897978,      0.16665901,     -0.00806594,
               -0.11325412,     -0.11529182,     -0.13922665,     -0.05087204,
               -0.00282663,      0.10959427,     -0.05097417,      0.06758209,
                0.01545406,     -0.00746756,      0.11273364,      0.25221050,
                0.03334111,      0.02224236,     -0.02475322,     -0.24469389,
               -0.14307700,     -0.01429012,     -0.04362730,      0.01349664,
                0.06458043,     -0.03304351,     -0.01785556,      0.06332342,
                0.11917701,      0.12956196,     -0.02110823,     -0.05812332,
                0.04436250,     -0.17394705,     -0.02974134,     -0.04376256,
               -0.08531107,      0.13601674,      0.00934597,      0.08362701,
                0.02762899,     -0.06118663,     -0.05227865,     -0.04051347,
                0.10288021,     -0.00371361,      0.05584500,      0.02640356,
                0.07561636,      0.07417522,      0.07414699,      0.03406412,
               -0.00502136,     -0.11820691,      0.17705950,      0.05406748,
                0.00318745,     -0.05099365,     -0.06906911,     -0.04043333,
               -0.07161906,      0.10352688,     -0.02046453,     -0.03595272,
                0.15695623,      0.13191587,      0.08951259,     -0.05239373,
                0.02638087,      0.08424211,      0.07770297,      0.02774241,
               -0.10800584,     -0.17195763,      0.07247587,      0.01730571,
               -0.02798759,     -0.00894086,     -0.01714650,     -0.01976237,
                0.03796484,     -0.00317737,      0.09958571,      0.02034186,
               -0.05182054,      0.05296411,      0.05937011,      0.03215279,
                0.03517794,     -0.02713689,      0.17158231,      0.14112434,
                0.02692467,     -0.06962830,      0.08895012,     -0.04606329,
               -0.10361622,      0.02211992,     -0.00941808,      0.09512177,
               -0.02559422,      0.06349897,     -0.04343414,     -0.08949061,
               -0.04215218,      0.02408120,      0.06777298,      0.01258050,
                0.03710238,      0.09485390,      0.09784850,      0.05916632,
               -0.06248318,      0.03416941,      0.06058358,     -0.00500163,
                0.00444994,     -0.02251410,     -0.03343694,     -0.01281395,
               -0.05720304,      0.01922231,      0.10339745,      0.01663554,
                0.05788355,     -0.02194935,      0.11545283,      0.13598508,
                0.02346228,     -0.02578304,      0.12450164,      0.04275786,
               -0.00504196,     -0.02142847,      0.08032087,     -0.05349573,
               -0.00412783,      0.06760818,     -0.04843421,      0.06289541,
                0.00155977,      0.05945274,      0.09266300,     -0.02656969,
                0.03904659,     -0.02284242,     -0.00265077,      0.03000934,
               -0.04269067,     -0.10350535,     -0.02934018,      0.04748570,
                0.14888069,     -0.01927090,     -0.05366808,     -0.01688294,
                0.05312297,     -0.09044159,     -0.09362580,     -0.04392744,
               -0.07470084,      0.00173528,      0.10765348,      0.02372653,
               -0.00274352,     -0.07992343,      0.09341083,     -0.10530917,
                0.05430632,      0.00095002,     -0.00051448,      0.01454287,
               -0.15133294,      0.02734185,      0.04406478,     -0.04091436,
               -0.03068936,     -0.35746816,      0.11271106,     -0.05908292,
                0.23952428,      0.20006675,      0.01183324,      0.05394344,
                0.16229892,     -0.05849954,     -0.06196190,      0.18493880,
               -0.05878716,      0.05285284,      0.04404015,     -0.01913824,
                0.00279925,     -0.06084112,      0.02847297,     -0.19469662,
               -0.03690702,     -0.15839945,     -0.06026752,      0.07226852,
               -0.21397094,      0.01625721,     -0.20165932,     -0.01433926,
                0.03372698,      0.13098723,      0.01341773,     -0.01303383,
               -0.11463801,     -0.09124341,     -0.09952997,      0.13269092,
               -0.14247818,      0.18867502,     -0.01536405,      0.10865856,
               -0.01195312,     -0.12566371,      0.28229257,      0.09239547,
               -0.14674380,      0.11110230,      0.10207918,      0.05495141,
               -0.09301158,      0.06237848,     -0.16842739,      0.03844137,
                0.05518442,      0.03750525,     -0.08234552,      0.05803926,
               -0.05120029,     -0.11910255,      0.02729931,     -0.08898176,
               -0.09906049,      0.03082885,     -0.00353680,      0.08615776,
                0.06636704,     -0.05266431,      0.06563082,      0.01811371,
                0.15016364,      0.06425375,     -0.13151708,     -0.14857697,
               -0.02406512,      0.00942682,      0.12222995,     -0.22213946,
                0.21885538,      0.15355901,      0.19802047,      0.08584892,
                0.10166068,     -0.03652111,      0.24910408,      0.13203846,
                0.13819332,     -0.02611581,      0.04816116,      0.05255610,
               -0.14583895,      0.06324786,      0.05048416,     -0.00669222,
               -0.02951369,      0.16078448,      0.08515839,      0.15951322,
                0.03885807,     -0.00150451,     -0.05829440,     -0.13698879,
               -0.08404925,      0.08838434,      0.29197329,      0.02150346,
               -0.07481229,     -0.01208752,      0.09394478,     -0.08664320,
               -0.00961154,      0.19250308,     -0.05478528,      0.08312641,
               -0.01283381,     -0.08312651,     -0.06825539,      0.08436884,
               -0.23212168,      0.12302461,      0.12720779,      0.03454418,
                0.03217097,     -0.03986946,     -0.22072987,     -0.11117352,
                0.12898713,     -0.10047436,      0.10161582,      0.02865587,
               -0.16705610,      0.04920102,     -0.11318007,      0.12524694,
               -0.00657143,      0.04080560,      0.17247972,      0.01152728,
               -0.00061340,     -0.12713760,     -0.24894890,      0.02892717,
                0.01889277,      0.08519395,      0.02538071,     -0.08465751,
               -0.07724709,     -0.02557603,      0.05078885,     -0.03819257,
                0.08020868,     -0.04423395,     -0.02732946,      0.05136517,
                0.00618309,     -0.07206310,     -0.03642445,     -0.07569001,
               -0.13993998,      0.01362322,     -0.06531643,      0.11839462,
               -0.01913192,     -0.04304947,      0.12151637,      0.24757531,
               -0.11372737,     -0.03243242,      0.07749374,      0.11036463,
               -0.16542499,     -0.00503437,     -0.13531350,      0.01888454,
                0.01263640,     -0.07233174,     -0.00545182,     -0.02132749,
                0.06924096,     -0.00356028,      0.03978554,      0.05455225,
               -0.00296860,     -0.02940364,      0.02027699,      0.02398692,
                0.14138523,     -0.16923267,      0.01043847,     -0.05100887,
                0.13465768,     -0.03205974,     -0.12883906,     -0.08747681,
                0.02540988,     -0.02487015,     -0.13051935,     -0.13633618,
               -0.03126189,      0.09497391,      0.04893788,     -0.02274323,
               -0.06933317,      0.05274455,      0.02970274,     -0.04651209,
                0.11001630,      0.03845660,      0.07323427,     -0.12219741,
                0.04310411,      0.16003536,      0.11859091,      0.00272366,
               -0.11313105,     -0.02930126,      0.09964962,     -0.03603258,
                0.09822112,      0.03206817,     -0.05206274,     -0.03979772,
               -0.04144172,      0.01433170,      0.01368891,     -0.07401856,
                0.13061792,      0.04184738,     -0.16416989,     -0.07084411,
               -0.01557319,      0.09564064,     -0.04738912,     -0.04137328,
               -0.12636074,     -0.03710743,     -0.06102794,     -0.06784564,
                0.18904841,     -0.12914570,      0.04236037,     -0.13650444,
               -0.02192122,      0.23212610,     -0.08973113,     -0.00571199,
                0.07964685,      0.03424274,     -0.02824957,      0.05156004,
                0.09110894,      0.04424827,      0.12995535,      0.17784117,
                0.05918619,     -0.00422330,     -0.10103464,     -0.09345607,
               -0.08524390,      0.18611009,     -0.14084902,     -0.03325436,
               -0.04753739,      0.03046092,      0.03696636,     -0.03496631,
                0.00919695,     -0.10068476,     -0.08652037,     -0.02563790,
                0.06691791,      0.02159382,     -0.10416505,     -0.06758954,
                0.04292056,      0.06365862,      0.03525883,     -0.07784250,
               -0.01396535,      0.00479574,     -0.01954845,     -0.08041783,
               -0.04821193,      0.03274130,     -0.07079522,      0.01657093,
                0.10466127,      0.03224296,     -0.08482291,      0.10988634,
                0.11860732,     -0.12875195,      0.01846389,      0.02664634,
               -0.01573361,      0.06124418,      0.06883949,      0.03974724,
                0.00045148,     -0.03166045,     -0.08221855,     -0.02523693,
               -0.03696364,     -0.13883807,     -0.02899986,      0.04717496,
                0.09203432,      0.01728744,      0.14216441,     -0.05113069,
                0.00017308,     -0.02300596,     -0.00993052,      0.23043856,
                0.06364700,      0.00338172,      0.03633074,     -0.12961265,
               -0.00639711,      0.20037317,     -0.01438012,      0.08188115,
                0.12679403,     -0.03573198,      0.05237445,     -0.01080455,
               -0.15420221,      0.04111464,      0.11861047,     -0.00864577,
               -0.05360556,      0.03799179,     -0.10914482,      0.06019862,
               -0.02361290,     -0.11028333,     -0.07029046,     -0.08999064,
                0.00121559,      0.08722159,     -0.04960815,      0.02588807,
                0.05883263,      0.00904561,     -0.12864313,     -0.00281385,
               -0.07890939,      0.07200943,     -0.03670014,      0.00428916,
               -0.07648728,     -0.07649356,      0.06639162,     -0.15166317,
               -0.07126565,     -0.01520427,     -0.10001989,     -0.06357532,
                0.03995103,      0.01854725,      0.03491275,      0.04313286,
               -0.01470176,      0.08774888,      0.03736863,      0.01384904,
               -0.02513674,     -0.02198213,      0.06375287,      0.04236288,
               -0.03653540,      0.17512859,      0.00724292,      0.00354130,
                0.00784239,      0.01298416,      0.07117252,      0.05201217,
                0.01936780,     -0.04007539,      0.04877957,      0.10350446,
               -0.03954665,      0.04540167,      0.04508443,     -0.05463648,
                0.10810298,      0.06908482,     -0.01139154,     -0.07097186,
               -0.04509254,      0.04795862,      0.03778797,     -0.00514366,
               -0.06303754,     -0.14926204,     -0.15048464,      0.02629535,
                0.23733644,      0.17519718,      0.13822345,     -0.03577615,
                0.03003815,      0.19409819,     -0.07151881,      0.02332950,
               -0.10473097,      0.17754079,     -0.01690963,     -0.02664067,
               -0.00946805,     -0.05320626,      0.03484115,     -0.04061673,
               -0.06299233,      0.07208999,     -0.02857403,      0.07039835,
               -0.11382645,      0.02583263,      0.10235631,     -0.09190672,
               -0.05339319,     -0.07608955,     -0.02475035,     -0.08806320,
               -0.04716798,      0.11490863,     -0.09964471,     -0.04208494,
                0.02938389,     -0.01370014,      0.08055579,     -0.11416355,
                0.07936342,      0.03456315,     -0.01903431,      0.09088431,
                0.16248545,     -0.00153477,     -0.02445944,      0.05103325,
                0.01335544,     -0.02361529,      0.09500897,      0.09247745,
               -0.02161276,      0.02510820,     -0.03042318,      0.01469096,
                0.01744385,     -0.04765666,     -0.02702515,      0.01363895,
                0.21960337,     -0.01004374,      0.02443013,     -0.03930842,
                0.08597981,     -0.11455934,      0.27910271,      0.02881569,
                0.00152150,      0.08203816,      0.08327468,      0.05691587,
               -0.08060101,      0.03330672,      0.08965486,      0.02556455,
                0.04363973,     -0.00651612,     -0.02077438,     -0.04978221,
               -0.03911124,      0.04067983,      0.00641210,      0.00302566,
                0.17201139,      0.03100548,     -0.01124822,      0.06499615,
                0.00627239,      0.34140623,     -0.13879055,      0.02337833,
                0.10936024,      0.17399885,     -0.12439952,      0.01733677,
               -0.03867908,     -0.05395437,      0.07803552,      0.08592433,
               -0.01580282,      0.06070041,      0.06354389,     -0.33577943,
               -0.03265833,      0.00069005,      0.05523853,     -0.01763779,
               -0.05302723,     -0.04794214,      0.07698785,      0.00642564,
                0.16606723,      0.05788374,      0.02891963,     -0.01035790,
               -0.25768873,      0.03641041,      0.12320963,      0.05856110,
                0.04443077,      0.05794068,      0.05129694,      0.05833967,
                0.06541657,      0.03774063,      0.04445003,     -0.06875573,
                0.02090371,     -0.07463950,     -0.06276291,      0.00475887,
               -0.00279468,      0.03300860,      0.05960776,     -0.05920648,
                0.09869216,      0.01472564,      0.06873982,      0.04066226,
                0.06982379,      0.04840537,     -0.01039466,      0.04495805,
                0.03197081,     -0.05681825,      0.17840828,      0.01152423,
               -0.06458353,     -0.07315364,      0.04087688,      0.05485583,
               -0.00414711,      0.09018417,     -0.09132747,     -0.03685184,
                0.00726672,      0.01400057,     -0.07418548,      0.02688355,
               -0.05176817,      0.00402359,      0.06395464,      0.01271901,
               -0.35409755,      0.04960270,     -0.00803122,      0.04778369,
               -0.05470157,     -0.10867674,      0.01197718,     -0.21055748,
               -0.12092376,      0.00567926,     -0.09208014,      0.02306571,
               -0.00302105,      0.06346963,     -0.02023247,      0.00553278,
                0.03328061,      0.01029279,      0.02796292,     -0.01184049,
               -0.01901407,      0.09694684,     -0.09188652,     -0.09515214,
                0.02178108,      0.02726766,      0.00110914,      0.01964133,
               -0.08955748,     -0.09918587,      0.00676334,     -0.07158745,
                0.05589665,     -0.00871528,      0.05411015,     -0.00586620,
                0.03456225,     -0.15792902,     -0.00313830,      0.00766806,
               -0.13367528,      0.04961481,      0.08275484,      0.13286491,
                0.00601668,     -0.07369553,     -0.07688151,      0.00471746,
               -0.01392740,     -0.00663805,      0.04763413,      0.01733657,
               -0.03122875,      0.00366630,      0.03218072,      0.06220275,
                0.08985611,      0.04347767,     -0.05346181,     -0.05557546,
                0.00256811,     -0.02986748,      0.20498228,     -0.05262909,
               -0.04868682,     -0.00065857,     -0.06147058,     -0.10673846,
                0.18522520,      0.08422157,     -0.10348864,      0.06051423,
               -0.00103442,      0.07790500,      0.02409390,      0.02220604,
               -0.06570078,      0.02624247,     -0.03613772,      0.00889246,
               -0.05108131,      0.03870818,     -0.05898834,      0.02444763,
               -0.00080886,     -0.01495081,     -0.01176025,     -0.07654015,
                0.03652332,     -0.10878710,      0.07176403,      0.03053536,
                0.04305937,     -0.05976484,     -0.00605986,     -0.23888101,
               -0.05886482,      0.07512993,     -0.00018566,      0.03262326,
                0.00806239,      0.05168978,     -0.07567803,     -0.00951654,
                0.04231378,      0.09834550,      0.00065153,     -0.01061699,
               -0.09544526,      0.04523859,     -0.02921068,      0.06322704,
               -0.11739101,      0.00151813,     -0.13862245,     -0.02921107,
               -0.12605076,      0.06961637,      0.07650349,      0.00803525,
                0.06650542,     -0.08796909,     -0.01603340,      0.03950989,
               -0.06613103,     -0.02541282,     -0.00397638,      0.06191048,
               -0.01558212,      0.04146621,     -0.00308940,     -0.06891406,
                0.02477021,     -0.07009611,      0.04912112,     -0.05172294,
               -0.04535682,      0.00399464,      0.03667329,     -0.12342790,
               -0.02265018,      0.04504785,      0.13055579,     -0.04641616,
               -0.01822359,     -0.09672487,      0.04486575,      0.01090989,
                0.10839310,     -0.08225707,      0.01352364,     -0.04425643,
               -0.01920038,     -0.07416525,     -0.07802965,     -0.00485615,
               -0.04453601,     -0.08259698,     -0.08140801,     -0.05510424,
                0.09713090,     -0.07355765,      0.09650140,     -0.07306959,
               -0.02688029,      0.07517818,     -0.06246644,     -0.08431753,
               -0.02678871,      0.01006383,      0.01043742,      0.06467820,
               -0.11870854,     -0.03235022,      0.00027550,      0.04786802,
                0.00594052,     -0.07673986,      0.02402342,     -0.14059766,
               -0.00518295,      0.02740722,      0.00076235,      0.02513801,
               -0.00659619,      0.05640562,     -0.01179270,      0.06513704,
               -0.04333774,      0.01259654,     -0.00230737,      0.02509605,
               -0.05225294,     -0.01644683,      0.09207568,     -0.01304776,
               -0.10812039,      0.01105840,     -0.16228046,      0.05932854,
               -0.02025539,      0.12800519,     -0.00249750,     -0.07816358,
               -0.01695923,      0.09273870,     -0.00998285,     -0.00800236,
                0.03537509,     -0.06147946,     -0.01473617,      0.01147939,
               -0.03313907,      0.04071638,      0.06964012,      0.00392378,
               -0.02111044,     -0.01121882,     -0.02414289,     -0.04476837,
               -0.04745778,      0.06126548,     -0.01744722,     -0.02717046,
               -0.11329424,      0.03275400,      0.02326977,      0.00566559,
                0.09242682,     -0.01290938,     -0.10938611,     -0.05242716,
                0.01858744,      0.01127676,     -0.05416480,     -0.00323126,
                0.04152707,     -0.00608091,      0.03953947,     -0.01640241,
                0.04203551,     -0.08785871,      0.11643538,     -0.05653772,
               -0.02007892,      0.29479215,     -0.02149139,      0.10749897,
                0.00046536,     -0.01487910,      0.04878506,     -0.02421594,
                0.18682612,     -0.09188756,     -0.06496558,      0.00078976,
                0.02491558,     -0.05388714,     -0.02771301,      0.18786080,
                0.00106522,     -0.05347290,     -0.03997894,     -0.03301987,
               -0.03645019,      0.01054401,      0.08345778,      0.02320185,
               -0.04941666,      0.01315791,     -0.01325525,     -0.01466523,
               -0.05768269,     -0.12139022,     -0.03608498,     -0.10019567,
                0.02415425,      0.01307603,      0.04502194,      0.02165773,
               -0.04416442,      0.07058662,     -0.02367779,     -0.00393960,
               -0.10250544,      0.13908732,      0.00496328,      0.01822266,
               -0.12567639,      0.06600239,      0.01277831,     -0.09538859,
               -0.04198277,     -0.02688466,     -0.02957764,     -0.00179845,
               -0.01773570,     -0.04373759,     -0.06859904,      0.06162843,
               -0.03937856,      0.05297162,     -0.06285063,     -0.01129566,
               -0.04202765,     -0.04587388,     -0.19508445,      0.11267342,
               -0.03903754,     -0.03307495,      0.10439474,     -0.07615390,
               -0.08798300,     -0.03194002,     -0.03096440,     -0.00129895,
               -0.01935583,     -0.03474179,     -0.02382935,      0.07600550,
                0.01629068,     -0.02624484,      0.02806040,      0.10169619,
                0.03292642,      0.01264899,      0.28177717,     -0.03272617,
                0.10580132,      0.01068487,      0.10213082,      0.14576365,
                0.08733796,      0.06106184,      0.05990422,     -0.24247906,
                0.01925980,     -0.11545984,     -0.03702687,     -0.02198982,
                0.02090218,     -0.06664752,     -0.04487790,     -0.16928779,
                0.02923422,     -0.04893836,     -0.10240148,      0.06950738,
               -0.00310439,      0.02693520,     -0.05565298,     -0.09262050,
                0.05220381,      0.10984122,     -0.11992864,      0.02114055,
               -0.00447005,     -0.04367216,      0.05532592,      0.07762685,
               -0.00250442,      0.03601047,      0.01500797,     -0.02472834,
                0.08379524,     -0.16806504,      0.02128178,     -0.05900616,
                0.00814914,     -0.25114402,      0.01315720,      0.01712086,
               -0.06082111,      0.03226632,     -0.04550073,     -0.09291000,
               -0.05823311,     -0.06390607,      0.00305821,      0.03561901,
                0.11530191,      0.02951958,      0.11209927,      0.00165156,
               -0.06991829,     -0.12695996,     -0.05968501,     -0.12054840,
               -0.17903616,      0.00612746,      0.13666753,     -0.04700196,
                0.03406321,     -0.05355849,      0.03237418,      0.03000022,
               -0.09874647,     -0.05141262,      0.05134793,      0.08873767,
                0.02178746,     -0.03163505,      0.10515220,      0.04255235,
                0.07620738,      0.06815583,     -0.08205104,      0.16157335,
               -0.10886046,     -0.07054405,     -0.07587849,     -0.02772154,
               -0.08245770,     -0.01588133,      0.11342067,     -0.09910980,
                0.08161782,      0.08783905,     -0.08448011,     -0.13867736,
                0.01258641,      0.13044167,      0.03841479,      0.02711088,
                0.04234232,      0.00914902,     -0.01748482,      0.07119355,
                0.16617307,     -0.04953719,      0.10065114,      0.06556690,
                0.04189210,      0.10984466,     -0.02159630,      0.09669393,
               -0.06563164,     -0.09589550,     -0.00705250,      0.16069922,
               -0.11327675,     -0.19175337,     -0.10625236,     -0.00607809,
                0.03231711,      0.02293678,     -0.08576150,     -0.00628051,
                0.05706078,     -0.03825269,      0.04206429,     -0.03069877,
               -0.03277114,     -0.12365278,      0.18609659,      0.01436812,
                0.10089814,     -0.06849980,      0.00202098,     -0.06213056,
                0.15510121,     -0.01074546,      0.02214512,     -0.00832311,
                0.10187227,      0.02047582,      0.09575159,     -0.02434581,
                0.09394012,     -0.00634191,     -0.10772183,      0.10498257,
               -0.00982928,     -0.05119383,      0.10414981,      0.08190995,
                0.06281930,      0.05337740,     -0.08458302,      0.10772029,
                0.01536829,     -0.03263314,     -0.13512145,     -0.18626773,
               -0.05495401,      0.06392971,      0.00008290,      0.06245588,
               -0.04608792,      0.13336584,     -0.09367208,      0.00147930,
                0.10358068,      0.07891919,      0.03702647,      0.09557474,
               -0.03289923,      0.03425340,     -0.08719692,     -0.33355030,
               -0.06320646,      0.09607282,     -0.03588976,      0.04980796,
                0.11662431,      0.01639977,     -0.09008924,     -0.08046453,
               -0.05165717,     -0.16096058,      0.04031339,     -0.05904302,
               -0.09475075,      0.01887465,     -0.03138629,     -0.10888451,
                0.03625181,     -0.01485842,     -0.09545986,     -0.00224178,
                0.00692809,     -0.05148293,      0.01745324,      0.01242238,
               -0.04508357,      0.05207880,      0.08656125,     -0.08671074,
                0.07115546,      0.01529109,     -0.00651420,     -0.02470626,
                0.00046853,      0.10237914,     -0.02872489,      0.02084431,
                0.04127713,      0.00936982,     -0.03546918,     -0.02429516,
               -0.12390387,      0.08408060,      0.01382117,      0.04752837,
                0.00306557,      0.03171528,      0.02718484,     -0.01467914,
                0.16066813,     -0.00566277,     -0.04586746,     -0.11580715,
                0.02014633,      0.05037439,      0.03124460,     -0.04768517,
                0.03813503,     -0.06530119,      0.04206964,     -0.10096507,
                0.10830786,      0.03938200,      0.02998821,     -0.09198348,
                0.07762898,     -0.02213187,     -0.03728794,     -0.10179324,
               -0.01855018,     -0.04129524,      0.12246358,      0.12846935,
                0.01872451,      0.11613166,      0.00870153,      0.07400052,
               -0.04616893,     -0.04470997,     -0.03527717,     -0.04252145,
                0.01357163,      0.10689148,      0.05514755,      0.02875956,
                0.10848727,     -0.04440713,      0.06654801,      0.09737851,
               -0.00355746,      0.02854650,     -0.00748363,     -0.14043498,
                0.10401050,      0.10363869,     -0.04910475,      0.01930992,
               -0.08575446,      0.10166994,      0.02776921,      0.07668619,
                0.10021457,      0.16329767,      0.13862079,     -0.06456877,
                0.02578954,      0.00289645,      0.03468961,      0.15719609,
               -0.04862099,     -0.09683285,     -0.05870501,     -0.02141742,
                0.03140672,     -0.06594723,     -0.05785700,      0.17061597,
               -0.04885305,     -0.03056171,     -0.03658980,     -0.06759276,
                0.00612113,      0.09115530,     -0.07408827,      0.06056865,
                0.05621780,      0.02666391,     -0.03306070,     -0.13642158,
               -0.14668483,      0.04949837,      0.00095712,      0.04650395,
                0.06331845,      0.03440525,      0.05322812,      0.04867260,
               -0.02563735,      0.11634534,      0.02075132,      0.09255683,
                0.02891999,      0.06542934,     -0.07620115,     -0.12125679,
                0.00046243,      0.00135090,      0.05676671,      0.04156833,
                0.02773789,      0.09400534,      0.05477022,     -0.00826352,
                0.03187024,      0.05257308,     -0.06190666,     -0.02290962,
                0.01009824,     -0.05130289,      0.01001810,      0.09969200,
                0.04614536,      0.04346738,      0.08863330,      0.08117881,
               -0.01121630,      0.11369418,      0.00863481,     -0.01789091,
               -0.04556899,      0.02970766,     -0.15156424,      0.03895154,
               -0.12450963,     -0.00265449,      0.06469186,      0.07376908,
               -0.10577299,      0.07708041,      0.10064556,     -0.02658105,
                0.02402883,      0.07791024,      0.03025278,     -0.04766777,
               -0.01867931,     -0.02011312,      0.03878333,      0.02597232,
               -0.07911335,     -0.07037560,     -0.01115998,      0.06434161,
               -0.01243092,     -0.03008732,     -0.06736219,      0.00892590,
               -0.04529321,     -0.05100264,     -0.03165029,     -0.01087728,
               -0.03505857,      0.06082969,     -0.32345235,     -0.07052024,
                0.07753732,     -0.01355327,      0.08659865,      0.07847010,
               -0.03813091,     -0.04422519,      0.01068674,     -0.02022132,
               -0.07399897,      0.06144908,      0.05491450,      0.01243463,
                0.07688594,     -0.02515198,      0.02383980,     -0.01081374,
                0.06912561,     -0.03458038,     -0.00569268,     -0.08244397,
                0.04471298,      0.02136847,      0.00843051,      0.04074798,
                0.02832324,     -0.07412531,     -0.00681520,      0.04188425,
                0.05032963,      0.03255906,      0.06735093,      0.20271058,
               -0.08932044,     -0.08881503,     -0.03900491,      0.20672815,
               -0.03446127,     -0.09608326,     -0.00601916,     -0.01523689,
               -0.09194378,     -0.11838969,     -0.06491021,     -0.09775502,
                0.05056715,     -0.00809907,     -0.00118886,     -0.02017753,
               -0.16285734,     -0.04882558,     -0.07014652,     -0.06978872,
               -0.07260893,     -0.05554167,      0.14132552,     -0.07115805,
               -0.12081973,     -0.09713329,      0.03926996,     -0.01785956,
                0.04409790,      0.01842323,      0.01932990,      0.02503224,
               -0.03619351,     -0.09766508,     -0.08906043,      0.05230825,
               -0.04991928,      0.02003743,     -0.00311361,     -0.11218268,
                0.07018732,     -0.21608625,      0.08489703,      0.00924060,
                0.10961378,      0.04672716,     -0.16970150,      0.04891224,
               -0.00032255,     -0.13128197,     -0.16266420,     -0.06600522,
                0.04313478,      0.00974420,     -0.15386693,     -0.00343980,
                0.03212518,     -0.03825218,      0.16777311,     -0.03730900,
               -0.18348143,     -0.03036071,     -0.07271633,      0.06210874,
                0.03667255,      0.06472979,      0.03135302,      0.23208275,
               -0.06142155,      0.19106705,      0.04876500,      0.05875378,
               -0.07038084,      0.06555068,      0.00022998,     -0.00480063,
               -0.15393364,     -0.10641521,     -0.11113938,     -0.12132767,
               -0.04444921,      0.01941831,     -0.04282157,      0.11649527,
                0.08285400,     -0.09133158,     -0.01118144,      0.06417359,
               -0.02561579,     -0.01995814,      0.00910535,      0.11200158,
                0.06697559,      0.12971468,     -0.10133548,     -0.05300473,
                0.11136220,      0.06835353,     -0.15747499,     -0.01821650,
               -0.05950377,      0.15068957,     -0.28863314,     -0.07216927,
                0.05083299,     -0.04591529,      0.05888151,     -0.08404619,
                0.00855128,      0.00654476,      0.07093597,      0.02392912,
                0.04352788,     -0.02709949,      0.09365335,      0.16022663,
                0.18013670,     -0.04733017,      0.00627500,      0.11088504,
               -0.27509588,     -0.09206873,     -0.12888701,     -0.11108582,
               -0.08553512,     -0.18257198,      0.08979620,      0.02446141,
                0.15905525,      0.10942508,      0.05242891,      0.09312408,
               -0.02672102,      0.02601202,      0.13905738,     -0.05370958,
                0.09519921,     -0.03672899,      0.03874827,      0.00114553,
                0.03945149,     -0.14928573,     -0.01811492,      0.16180453,
                0.05734269,     -0.01156801,     -0.15058364,     -0.02062448,
                0.03612668,      0.02129126,      0.21587561,      0.08900534,
                0.03459169,     -0.05444236,      0.16960274,      0.15019679,
                0.01489617,      0.04740069,     -0.04572213,      0.05302995,
               -0.09056150,      0.01339958,     -0.02313707,      0.08765628,
               -0.01440505,      0.06362016,      0.04380246,      0.04114810,
               -0.05043213,     -0.02731644,     -0.01489591,     -0.00952051,
               -0.02047837,     -0.01402119,     -0.04877548,      0.05211825,
               -0.07514613,      0.01019760,     -0.04367397,     -0.01298030,
               -0.06694820,      0.11368576,      0.11385459,      0.00278826,
                0.05737709,     -0.04901304,      0.01858510,      0.03239892,
               -0.06276262,      0.01387911,     -0.14806865,     -0.04106442,
               -0.08976091,     -0.03869514,      0.10814251,     -0.02791508,
                0.10851540,     -0.01104090,      0.00226639,     -0.09021502,
                0.06585522,      0.01812219,      0.00863802,     -0.06941806,
                0.13297144,      0.06026705,      0.06574748,      0.03289467,
                0.00708349,     -0.13758644,      0.06326804,     -0.03884318,
                0.14373539,      0.01390424,      0.04695310,     -0.03012689,
               -0.00454281,     -0.08253414,     -0.04118737,      0.00229217,
                0.03000044,     -0.04017479,     -0.06949426,      0.03157194,
                0.32353827,     -0.01002626,     -0.05704777,      0.14750867,
                0.06642024,     -0.07780192,     -0.03820181,      0.12326615,
               -0.11163779,     -0.01856820,      0.09324497,      0.11176374,
               -0.07065441,      0.00620151,      0.02509831,      0.27669969,
                0.04593231,      0.15255067,      0.09947688,     -0.05302284,
                0.08249323,      0.01271159,      0.01706314,     -0.10365672,
               -0.00277115,      0.02515784,     -0.09318750,     -0.04228082,
                0.10712544,      0.04619278,     -0.06572493,     -0.02690553,
                0.06346920,     -0.03208779,     -0.13146625,     -0.01722621,
                0.22372854,      0.01053372,      0.01453086,     -0.00840655,
               -0.15752283,     -0.01263355,      0.04419582,      0.02587788,
               -0.07021073,     -0.09048311,      0.08623186,     -0.03460778,
               -0.01978362,     -0.11804089,     -0.02307145,     -0.00260423,
               -0.01613359,      0.06428443,     -0.08272342,     -0.02485973,
                0.01292989,     -0.08247027,     -0.04032072,     -0.09331336,
                0.01960803,      0.05403112,      0.09065385,      0.04874559,
               -0.14096624,     -0.10129617,     -0.00579891,     -0.07764302,
               -0.11093523,      0.01327735,      0.14746910,      0.11462808,
               -0.01729811,      0.12342533,     -0.03514973,      0.08465908,
                0.07875972,     -0.05922138,     -0.08846064,     -0.10887698,
               -0.11207213,      0.09463848,      0.04419967,     -0.02161666,
               -0.02327533,      0.02108583,     -0.05444190,     -0.13502106,
               -0.02257912,     -0.01576052,     -0.01198607,      0.01406229,
                0.10053125,      0.08125109,      0.06649896,     -0.11641695,
                0.06339203,      0.01059275,      0.06909285,     -0.07417326,
               -0.00065771,      0.02542619,     -0.06036270,      0.03734447,
                0.06798197,      0.04345534,     -0.05881846,     -0.02493912,
                0.05714871,      0.01190636,     -0.04336115,     -0.05371634,
               -0.10811696,     -0.06553825,      0.02338282,      0.02355537,
                0.00362475,      0.01880111,     -0.00424600,      0.03790437,
                0.03038889,     -0.08277255,     -0.01895016,      0.10249113,
                0.03765821,      0.00828144,      0.16140002,      0.03985322,
                0.01440832,     -0.14870615,      0.16178137,      0.03724235,
               -0.02909189,      0.03836393,      0.06708355,      0.06522946,
               -0.01154178,      0.00651285,     -0.05656160,      0.16251603,
                0.13112378,      0.06121264,      0.06899296,     -0.03530505,
               -0.01667270,     -0.08688496,     -0.01281988,     -0.10797869,
               -0.00377395,     -0.04690538,      0.06207158,      0.03233122,
               -0.03487796,     -0.03954490,      0.12044968,      0.07985859,
               -0.04442675,     -0.03513699,     -0.02358433,      0.05896541,
               -0.10023598,     -0.01310839,     -0.04048070,     -0.03258284,
               -0.00484973,     -0.01187894,      0.06682246,      0.34788927,
                0.01310767,      0.00026459,      0.01949986,      0.07054321,
                0.14434226,      0.06969270,     -0.06871115,      0.15642458,
               -0.15584849,     -0.03729657,     -0.00199677,      0.04315800,
               -0.00967427,      0.06899285,     -0.02328881,      0.06035652,
                0.02809349,      0.08451844,      0.10090400,      0.04958028,
               -0.01126016,      0.09892330,      0.03189908,     -0.02691756,
               -0.08583438,     -0.09843706,      0.06166027,     -0.05936467,
               -0.04734188,     -0.01315256,      0.06965035,      0.07087834,
               -0.11173811,     -0.01777413,      0.01977951,     -0.01856131,
                0.03744432,      0.21862623,      0.07652260,     -0.03719541,
               -0.08667509,     -0.14753011,     -0.05858345,      0.09095306,
                0.07449934,      0.14239483,     -0.01240650,      0.00208514,
                0.03953228,      0.04609764,      0.00544379,     -0.14102964,
               -0.08418174,      0.01487343,     -0.08845982,     -0.03739339,
               -0.01351649,     -0.11786231,      0.01881257,      0.00095656,
                0.05026872,     -0.03625542,      0.05919429,     -0.02801564,
               -0.10284265,      0.09424133,     -0.04143538,     -0.07905322,
               -0.10546279,     -0.02914335,     -0.07047711,      0.04306672,
                0.30412865,      0.09211621,      0.00775066,      0.10438275,
                0.03087378,      0.14839987,      0.11795027,      0.28384420,
                0.06780700,      0.07033098,      0.05830681,      0.01049412,
               -0.13569354,      0.17934464,     -0.02783413,     -0.04397590,
                0.01771316,     -0.03456498,      0.04081020,      0.02277807,
               -0.09887805,      0.04699554,     -0.01917294,     -0.10025463,
               -0.14209773,     -0.00452201,     -0.03489762,      0.00404091,
               -0.11068138,     -0.01775707,      0.07086629,     -0.06577615,
               -0.15036525,      0.06160012,     -0.07986582,     -0.13913959,
               -0.13571611,      0.03941665,      0.10170945,      0.05588410,
               -0.00931265,      0.01342170,      0.03757500,      0.18429904,
               -0.05114091,     -0.01541598,     -0.04767851,      0.02234755,
                0.00405356,     -0.06603806,     -0.02615697,      0.00438306,
               -0.00660293,     -0.04092890,     -0.01820806,     -0.05077207,
                0.03601588,      0.03602809,      0.10752824,      0.11453339,
               -0.03652102,     -0.08311597,     -0.14625277,     -0.01969524,
                0.09412381,      0.04421347,     -0.04110868,      0.01984754,
                0.06806472,     -0.00254310,      0.03107030,      0.00292763,
                0.03404234,     -0.15465996,      0.02123535,     -0.01615292,
                0.09710456,      0.00835045,     -0.05831335,      0.10706653,
               -0.05311508,      0.06456188,      0.05216298,      0.18507834,
                0.02914734,     -0.01476266,     -0.01540466,      0.05865662,
               -0.05780033,     -0.01923189,      0.08026161,     -0.01875352,
                0.07442404,      0.13720569,     -0.10073792,      0.03639023,
               -0.02681336,     -0.04057493,     -0.04269497,      0.03658763,
                0.04548534,     -0.04982320,     -0.11112823,      0.02305041,
                0.05771843,      0.07604554,     -0.03083550,      0.05376191,
                0.09376111,     -0.00576551,      0.01316092,     -0.02959193,
               -0.00780921,     -0.12473113,      0.01692980,     -0.00508824,
                0.16820525,     -0.02860109,      0.02362621,     -0.12542172,
                0.08993197,     -0.05251937,     -0.03249855,     -0.01224772,
                0.13364355,      0.03560786,      0.17544076,     -0.03698976,
                0.07390569,      0.03783930,      0.04583114,      0.07529593,
               -0.02557294,     -0.00077762,      0.03675461,      0.08929468,
                0.03178513,     -0.03798835,     -0.13423035,     -0.04173326,
                0.04343441,     -0.04490802,     -0.07093298,      0.00082884,
                0.10187541,     -0.07862795,      0.01432570,      0.06483594,
               -0.11448679,      0.06802671,     -0.14720598,      0.00147856,
               -0.01844489,     -0.08440991,     -0.00816230,     -0.01427711,
                0.10542359,     -0.00778831,      0.05107964,     -0.00921803,
                0.00867715,      0.04925099,      0.03800002,      0.05436611,
                0.02586419,      0.01957502,      0.06217029,      0.12124689,
                0.00538084,     -0.17364419,     -0.03559816,     -0.01275483,
                0.08874688,      0.13621351,      0.06309670,      0.11569124,
                0.06590815,     -0.02968615,      0.01250683,     -0.13610873,
                0.00197133,      0.01304270,      0.01301275,      0.03225543,
               -0.00451950,      0.01691655,      0.03026828,     -0.05602818,
                0.07454561,      0.01569911,      0.00079532,      0.06167242,
               -0.14455238,     -0.07423851,      0.03657719,     -0.08037405,
               -0.01155921,     -0.02452039,     -0.00963190,      0.03566226,
               -0.12185770,      0.01881358,     -0.00610984,     -0.02787076,
                0.07749300,     -0.01562006,      0.02326106,      0.07164416,
               -0.06576937,     -0.05238004,     -0.08090971,     -0.02673691,
                0.03937224,      0.05237186,      0.05132602,      0.17526844,
               -0.05448409,     -0.00354825,      0.04280277,     -0.04077617,
               -0.03428096,     -0.00702249,     -0.05385705,     -0.01903281,
               -0.05325844,      0.05894041,     -0.08848094,     -0.06516927,
               -0.16033258,      0.09232005,      0.00400259,      0.02163199,
                0.03153742,      0.09961405,      0.05432974,      0.03106634,
                0.06495547,      0.04046629,      0.04304381,      0.02707099,
                0.08548343,     -0.01014153,      0.00790143,     -0.05425808,
                0.15575673,     -0.01953410,     -0.01417061,     -0.13320172,
               -0.08061925,      0.01093260,      0.11876073,     -0.07173454,
                0.00010796,      0.00778617,      0.09867595,      0.03267961,
                0.07909848,      0.02443294,     -0.03215982,      0.02589654,
                0.09138618,     -0.00200945,     -0.09173974,     -0.06102488,
               -0.04440315,      0.01643646,      0.06789999,     -0.02714881,
               -0.00294796,     -0.14116015,     -0.03202131,      0.06230303,
               -0.18125063,      0.01802905,      0.11910837,     -0.09179413,
               -0.03744151,      0.04126333,     -0.00723193,     -0.02515179,
               -0.00198117,     -0.03360109,      0.00639997,     -0.06988069,
                0.00431296,     -0.03252071,     -0.03723504,      0.02366786,
                0.01867519,     -0.06498027,     -0.01514093,      0.05936879,
                0.01263573,      0.04129710,     -0.08486067,      0.03507908,
               -0.05333018,     -0.02100148,     -0.08329740,      0.03091726,
                0.14942034,      0.10494955,     -0.16686630,     -0.04512019,
                0.00814930,      0.00395579,      0.06398308,     -0.07050011,
                0.09923097,     -0.15665343,      0.06359320,      0.01731961,
               -0.02675215,     -0.02480070,     -0.06577404,     -0.11215770,
                0.12901871,     -0.11594649,     -0.10578390,     -0.09955520,
                0.15625083,     -0.03612861,     -0.10661265,      0.00775767,
                0.10029466,      0.03164178,      0.01914839,      0.12959073,
               -0.01867929,      0.07328271,     -0.16375704,      0.08491085,
                0.02497500,      0.08909831,     -0.00432295,     -0.01108547,
                0.00493412,     -0.00924917,     -0.01779233,     -0.16281332,
                0.00146506,      0.00832356,      0.02029182,     -0.02205320,
               -0.00788179,      0.00848153,     -0.05348615,      0.09736336,
                0.09357301,      0.00993409,     -0.07751852,      0.00387514,
                0.04751020,      0.01187813,     -0.02781675,     -0.02165999,
                0.02218460,     -0.18380803,     -0.02800156,     -0.10004339,
                0.05877927,     -0.02285305,      0.05443450,      0.07419480,
                0.00690722,      0.00598619,      0.10119076,     -0.01014628,
               -0.04437985,      0.02573468,      0.02705256,      0.09619901,
               -0.03499327,      0.05270077,     -0.04549299,      0.10086297,
                0.03231462,      0.02665313,     -0.11549259,      0.05970865,
                0.02719704,     -0.00322776,      0.29728341,      0.00326493,
                0.05111987,     -0.07135884,     -0.07324421,      0.11543050,
               -0.08293679,      0.05008272,      0.04158812,      0.09189592,
                0.00228219,     -0.00922379,      0.01983122,      0.01356658,
                0.06310810,      0.04128233,     -0.02305041,      0.08232951,
               -0.08335654,      0.06323790,     -0.00043999,      0.07707161,
               -0.08249849,     -0.10503117,      0.00291219,     -0.08309996,
                0.27392948,     -0.07987007,     -0.14765327,      0.16618516,
                0.25530174,     -0.02009561,      0.03534910,     -0.00532359,
                0.06747190,      0.01693588,      0.01866017,     -0.06554335,
               -0.11469346,      0.05383750,     -0.09333064,     -0.09934744,
               -0.13551314,      0.00116206,      0.03046965,      0.04614037,
                0.12467594,      0.25781831,     -0.03896095,     -0.24045034,
                0.01432253,      0.04202354,     -0.18964025,     -0.02107737,
               -0.09461153,     -0.11938103,      0.11764343,      0.08299392,
               -0.09851310,      0.07733930,      0.01632168,      0.18746653,
                0.01292788,      0.02700935,      0.25611219,      0.00221409,
                0.02912716,      0.07859793,     -0.11844156,      0.17570026,
                0.02487679,     -0.08219843,     -0.27099267,      0.10296899,
                0.15629993,      0.17936732,     -0.05905849,      0.21285224,
               -0.07636316,      0.10456031,      0.08184172,     -0.11571915,
               -0.06574298,     -0.05486571,     -0.06027659,      0.02843094,
               -0.00713626,     -0.03811193,      0.10256159,      0.03312883,
               -0.01790313,     -0.00672179,     -0.02454549,      0.03856956,
               -0.10895093,      0.01209527,      0.07463674,      0.03402634,
               -0.08367213,      0.08712119,     -0.00012254,      0.08272186,
               -0.12686488,      0.05545546,      0.13177705,      0.10747865,
                0.04437250,      0.03409423,      0.02343957,      0.03474475,
               -0.10415015,      0.01521461,      0.15541652,      0.09591524,
               -0.06124876,     -0.00754293,     -0.01714602,     -0.04036757,
               -0.07613128,     -0.18572259,     -0.09028332,      0.01249760,
               -0.05458640,     -0.01002048,     -0.01771651,     -0.02520139,
               -0.20806037,      0.04755963,      0.07020343,      0.02073209,
               -0.10765696,     -0.08217531,      0.04695358,     -0.11288770,
               -0.00652046,     -0.02099013,      0.00261303,     -0.00971913,
                0.02913734,     -0.08770439,      0.01081171,     -0.13873670,
                0.01654389,     -0.02368986,      0.05439332,      0.01321839,
                0.06383261,      0.04750101,      0.02006366,      0.02391607,
                0.05995061,      0.18159986,     -0.18906538,     -0.05120145,
                0.04330252,     -0.10031999,      0.03860318,     -0.11640587,
               -0.23996320,      0.00930917,      0.06442777,      0.02112365,
                0.02099442,      0.04663724,      0.08091989,      0.08587261,
                0.11298182,      0.01981330,     -0.09425373,     -0.10057575,
                0.03183597,      0.07693969,      0.02619434,      0.08647076,
               -0.05081735,     -0.05093200,     -0.03772064,      0.05914300,
               -0.04445753,     -0.07815838,     -0.07378349,     -0.08426425,
               -0.05377561,     -0.03248277,     -0.02764812,     -0.00422424,
                0.02097606,     -0.09776422,     -0.08430324,      0.03774963,
                0.03290057,     -0.06293826,      0.04187187,      0.05786240,
                0.14622575,      0.09297696,     -0.07485326,     -0.03235354,
                0.14373411,      0.00598735,      0.03078697,      0.01499075,
                0.00531169,     -0.03678434,     -0.12723519,      0.01026518,
               -0.03291056,      0.10604843,      0.15118207,     -0.01367592,
                0.12492267,     -0.08230025,     -0.03186017,      0.02198961,
                0.00332855,     -0.03092710,      0.05251576,      0.06661976,
                0.08507576,      0.10195865,      0.03085680,      0.00003067,
               -0.17966579,     -0.14162576,     -0.10017138,     -0.01383250,
                0.06022631,      0.10338919,      0.05027475,      0.02355295,
               -0.00442205,     -0.01885809,     -0.00081421,     -0.10394982,
               -0.01336540,      0.12915459,     -0.07698265,     -0.01997637,
               -0.08507663,     -0.11722367,      0.15213595,      0.01010513,
               -0.01664197,      0.01758647,     -0.05279125,     -0.06846957,
                0.02009199,     -0.14483015,     -0.02922555,      0.10869059,
                0.03124653,      0.02472769,      0.05408574,     -0.05609054,
               -0.11642416,      0.08847948,     -0.02440692,      0.01240388,
                0.00618841,      0.03985327,      0.05700038,     -0.06130957,
                0.10220984,      0.03503758,      0.06221582,      0.09162536,
               -0.04297173,      0.00983951,      0.08366915,      0.07842513,
                0.02822660,      0.11342688,      0.08541352,     -0.02130973,
                0.12322593,      0.15138544,      0.00335926,     -0.00314364,
                0.04373924,     -0.06295680,     -0.03763576,      0.01917965,
               -0.08446190,      0.03123780,      0.07092829,      0.00347332,
               -0.05929749,      0.06332076,      0.05285379,     -0.14040869,
                0.13571422,      0.12450843,     -0.13339138,      0.03949996,
               -0.04746193,     -0.05274294,      0.10071269,     -0.10283273,
                0.00690285,     -0.07589456,      0.15170972,      0.10240631,
               -0.15637875,      0.05354384,      0.09701844,     -0.19209841,
               -0.03202847,      0.05573192,      0.12985373,     -0.07929473,
               -0.05370321,     -0.01442938,      0.00535787,      0.16633108,
                0.02765759,     -0.06348457,      0.06032785,     -0.11726884,
               -0.02916039,     -0.05707853,      0.02627994,      0.02200286,
                0.05389831,     -0.07671494,      0.06976771,      0.06763343,
               -0.00272782,     -0.13714200,      0.13985690,     -0.11529156,
                0.02887632,     -0.22461638,     -0.07470258,     -0.02699346,
                0.06789142,      0.05828813,     -0.04554936,     -0.00993466,
                0.00226393,      0.05971728,      0.04435462,     -0.11869475,
                0.06601143,      0.03402192,     -0.10000079,     -0.05064869,
               -0.07242308,     -0.05395373,      0.10113040,     -0.07298267,
               -0.07092273,      0.04069062,      0.02402061,      0.05746825,
                0.04490855,     -0.04397522,      0.06213824,     -0.03619231,
               -0.03069975,     -0.01965936,     -0.03961836,      0.00654145,
               -0.04564473,      0.00903551,      0.00314907,     -0.09057160,
                0.02436241,     -0.04538993,      0.01800110,      0.05229641,
               -0.13780783,      0.02865804,      0.07666515,     -0.04872781,
               -0.01778606,      0.09559219,     -0.01576555,      0.02309856,
               -0.05182025,      0.06223935,      0.03480005,     -0.02094215,
                0.05967818,      0.05484492,     -0.01940212,      0.01183193,
               -0.03965742,     -0.07910775,     -0.01661902,      0.02454213,
               -0.00504530,      0.04741042,      0.03442990,     -0.02035558,
                0.03037339,      0.00116941,     -0.00819401,     -0.02383221,
                0.09147406,     -0.00823695,     -0.10037626,     -0.03734921,
                0.00675522,     -0.00230525,      0.03769310,      0.03172297,
                0.05954922,      0.00282013,      0.02743289,      0.03277923,
                0.04376447,      0.05056585,     -0.15034907,     -0.00944110,
                0.05500360,     -0.13249871,      0.15386957,     -0.03084586,
                0.29388246,     -0.06791056,     -0.02298253,     -0.05036446,
                0.15944521,      0.11414085,     -0.01906798,     -0.02261204,
                0.09309610,     -0.03377105,     -0.01647221,     -0.03149487,
                0.36285716,     -0.08851624,     -0.00527762,      0.13322850,
               -0.11064821,     -0.09479901,      0.07889372,     -0.06931157,
               -0.06666601,     -0.06405955,     -0.15894215,     -0.06712505,
               -0.10688221,     -0.00428741,      0.03323659,      0.00604724,
               -0.13635838,      0.11391844,      0.10340539,     -0.11158741,
                0.05144760,     -0.07179005,      0.00460493,     -0.05635222,
               -0.04198422,     -0.01001431,     -0.05448744,      0.02008643,
               -0.14468767,     -0.02063275,      0.08377849,      0.02644259,
               -0.01842811,      0.11855150,      0.13941775,      0.05242683,
               -0.03204716,      0.02109581,      0.00975432,      0.00596901,
                0.00120815,      0.16844869,     -0.01328504,      0.00202293,
               -0.00343101,      0.17985520,     -0.07937089,     -0.02637300,
               -0.18095322,      0.17874742,     -0.06192809,     -0.01418606,
               -0.02710360,     -0.04240967,     -0.00024487,     -0.00222749,
               -0.06462043,     -0.11421439,      0.04172084,      0.04381954,
               -0.01811411,      0.06920390,     -0.18199024,     -0.09983249,
               -0.02335195,     -0.01007214,     -0.09918495,     -0.05595974,
               -0.05991957,      0.27677405,     -0.04011716,      0.09660957,
                0.02642456,      0.06652725,      0.13427545,      0.22622365,
                0.07868213,      0.01979960,      0.12227788,     -0.02314414,
                0.00892762,      0.06861830,     -0.10676109,     -0.01401712,
                0.02817992,      0.02494047,      0.05297424,      0.12704639,
               -0.14424530,      0.01768831,     -0.06063122,      0.06382047,
                0.05897405,      0.11173198,     -0.04905686,     -0.03375628,
               -0.14413357,     -0.20301084,     -0.01220623,      0.15745811,
               -0.10757112,      0.07175028,     -0.05518929,     -0.02252721,
               -0.07266769,      0.10764366,      0.08597553,     -0.01451714,
                0.03142409,     -0.18269373,      0.11274337,      0.07314506,
               -0.05505244,      0.01096265,     -0.07089989,     -0.08341940,
               -0.04449532,     -0.05529974,     -0.03838572,     -0.00299319,
               -0.06296940,      0.00950633,      0.06712054,      0.15845436,
               -0.05489571,     -0.04714655,      0.03089072,      0.01172661,
                0.08823083,      0.00610106,      0.03373063,     -0.04063313,
               -0.00734421,      0.07543013,      0.03729685,      0.05822414,
                0.20292501,     -0.09577698,      0.04373386,     -0.07762163,
                0.03757869,     -0.02960961,     -0.07835340,     -0.03215729,
                0.02676768,     -0.04058248,     -0.03358981,     -0.01354052,
                0.04517726,      0.00028447,      0.12466277,      0.01069537,
                0.06315934,      0.03310018,      0.02257882,      0.00836147,
                0.03450019,     -0.06916638,      0.19567837,      0.05683427,
               -0.07213926,     -0.18646106,     -0.14435686,     -0.05806736,
               -0.00776633,      0.00083384,      0.03957986,      0.08525643,
                0.02320240,     -0.14046204,     -0.07724669,      0.04438108,
                0.08685537,     -0.03283849,      0.08881910,      0.02957023,
                0.12367695,     -0.13707338,     -0.08898562,      0.08665445,
               -0.10053218,     -0.00468232,     -0.03625522,     -0.07471418,
               -0.01262456,      0.03787739,     -0.11318459,     -0.15253218,
                0.12516500,      0.08401364,      0.01009989,      0.04034963,
               -0.00099878,     -0.09872728,     -0.07142030,      0.00575833,
                0.07112822,      0.03587591,     -0.09166145,     -0.00791958,
               -0.03004974,     -0.00420404,      0.03891158,     -0.07621518,
               -0.01253550,      0.08282752,     -0.07627306,      0.07881447,
               -0.16411702,     -0.03618116,      0.04822392,      0.09449948,
                0.04515925,      0.06539040,     -0.03676261,      0.15922064,
               -0.01926086,      0.05632802,     -0.15993600,      0.04308223,
                0.01878610,      0.04546227,     -0.10382812,     -0.08182135,
                0.14864846,      0.13978299,      0.10180954,     -0.10203907,
                0.11319824,      0.03148751,      0.02577339,      0.00515971,
                0.02324717,      0.19165397,     -0.21389031,     -0.16322054,
                0.08238514,      0.07214514,      0.10853146,     -0.02999379,
               -0.02195650,      0.06686800,     -0.05862062,     -0.03835084,
               -0.18435425,      0.00990806,     -0.01470764,      0.18095264,
               -0.06378318,      0.01882226,      0.12596881,      0.05141790,
               -0.04397806,      0.02727973,     -0.11367289,      0.06743394,
                0.04947384,      0.00642113,      0.06276880,     -0.01159474,
                0.08358599,     -0.00013386,     -0.08435633,     -0.05791373,
               -0.14743806,     -0.09026122,      0.06923860,      0.12723808,
               -0.25824344,      0.04392826,     -0.04196539,     -0.03055841,
                0.13204134,     -0.03730915,      0.07538486,      0.03062542,
                0.02320477,      0.03394618,     -0.04325617,      0.02908782,
               -0.15148182,     -0.02593227,     -0.04597019,     -0.00821288,
                0.09071761,      0.00940643,      0.00569802,     -0.13124123,
                0.12582542,     -0.13400903,      0.04480151,     -0.01357407,
               -0.04010210,     -0.00077682,      0.28644866,     -0.09223279,
               -0.06152738,     -0.00038259,      0.00588894,     -0.02136925,
               -0.06204432,      0.12947898,      0.00677909,     -0.04109897,
                0.10040848,      0.00165177,     -0.05322075,     -0.03194552,
                0.22734925,     -0.06216769,     -0.02649615,     -0.00588241,
               -0.05112202,      0.17948695,     -0.09106302,      0.16031212,
               -0.08960141,      0.01640292,      0.09358956,     -0.04513072,
                0.00995531,      0.08757771,     -0.01026240,      0.07567672,
                0.04217970,     -0.10890372,     -0.05344030,     -0.11171060,
                0.01421967,      0.04518819,     -0.01539711,      0.01433170,
                0.01992320,      0.01847426,     -0.00884574,     -0.09249277,
               -0.02022414,     -0.03169249,     -0.03954737,     -0.07859546,
               -0.11782192,     -0.03190180,     -0.02406810,      0.00855493,
                0.01729298,     -0.01881074,     -0.01522595,      0.06930958,
                0.02983821,      0.03881713,     -0.01688821,     -0.03184450,
                0.04126748,     -0.06796999,     -0.01100842,      0.03947299,
                0.01547959,      0.02494109,     -0.01269061,      0.03217069,
                0.05852910,      0.00762348,      0.01095538,      0.00849025,
               -0.08026209,      0.00844256,     -0.17405988,     -0.01251074,
               -0.10396082,     -0.13913150,     -0.21633035,      0.08616900,
                0.10458759,      0.01154875,      0.05404395,     -0.02483192,
               -0.07271371,     -0.02477598,      0.11413766,     -0.00555797,
                0.04759714,     -0.02400617,     -0.01827164,     -0.07620912,
                0.03143565,     -0.12270336,      0.00274837,      0.11085600,
                0.24066828,      0.05701181,     -0.04218961,      0.00134077,
                0.06965967,     -0.03667795,      0.07282285,      0.17361447,
                0.00521885,     -0.01759527,      0.03183266,      0.06399193,
                0.13767026,     -0.09834669,      0.02040828,     -0.02867999,
               -0.06143331,      0.03714341,     -0.15783174,      0.08608966,
                0.02205796,      0.03192093,      0.04819441,      0.09682815,
                0.06227715,      0.08095038,      0.13296042,     -0.02263674,
               -0.12179647,      0.01672522,     -0.06013130,      0.03734513,
                0.07662285,     -0.01753997,     -0.07689653,     -0.00564272,
               -0.11865035,      0.08731146,      0.05848412,     -0.00490534,
                0.03023249,     -0.11786898,     -0.00469363,      0.06198333,
               -0.14865397,     -0.00230574,     -0.12509713,     -0.02304542,
               -0.05174504,     -0.01783335,      0.00136767,      0.03203551,
                0.04122000,     -0.04312617,     -0.03912321,      0.06093100,
                0.02804433,      0.07995576,     -0.00473452,      0.00922896,
               -0.01221327,      0.03325612,      0.04672836,      0.05340071,
               -0.06966265,      0.03972275,     -0.04777534,     -0.11911596,
                0.19598714,     -0.15208068,     -0.05322762,     -0.09835171,
               -0.02159055,     -0.02649674,      0.03383480,     -0.05988576,
                0.04588356,      0.18804081,     -0.09693716,      0.05189285,
               -0.03150632,      0.01381291,      0.00395267,     -0.03533866,
                0.08394057,     -0.06658752,     -0.02862179,      0.03238905,
                0.00390216,     -0.01893912,      0.06521508,     -0.02795154,
               -0.32036451,     -0.05398687,      0.13344508,      0.13619454,
                0.03051893,      0.00397931,      0.00599788,     -0.07942316,
                0.01708412,      0.01511775,      0.05386908,     -0.04359969,
               -0.14045955,     -0.11297902,      0.09445927,      0.02412377,
               -0.10792877,     -0.17007619,     -0.00940817,      0.01821460,
               -0.02792674,     -0.02322895,     -0.03859470,     -0.03021617,
                0.02730007,     -0.07368623,     -0.12691292,     -0.05238630,
                0.01503226,     -0.06304849,     -0.10783506,     -0.02998903,
               -0.01475119,     -0.12319046,     -0.06889382,      0.04992118,
               -0.01173767,      0.03527573,     -0.01460453,      0.00403029,
                0.05456668,      0.01979011,     -0.01573295,     -0.05241452,
                0.05029415,     -0.01780685,     -0.03734205,     -0.05571510,
               -0.02580455,      0.00024431,     -0.16127495,      0.01232263,
                0.02244593,      0.04254973,      0.03761258,      0.07249165,
                0.26696882,      0.01403437,     -0.25039360,      0.04364696,
                0.01125106,      0.21673585,     -0.06076787,     -0.05463175,
               -0.00709370,      0.00306946,      0.06176360,     -0.00722866,
                0.01518115,      0.04466038,     -0.04995930,     -0.18701930,
                0.00808796,      0.15321620,     -0.15258826,     -0.12486412,
                0.02263621,      0.08934129,     -0.00736602,     -0.00065151,
               -0.02688190,     -0.01284545,      0.05435408,      0.08847532,
                0.06530288,      0.03320979,     -0.00004716,     -0.08635248,
                0.05219789,      0.04973976,      0.07039294,     -0.00554961,
               -0.19215810,     -0.13068397,      0.02485189,      0.08177990,
                0.09191897,      0.04388298,      0.09156407,     -0.00479448,
                0.17614745,     -0.00279046,     -0.01324860,      0.00167513,
                0.05688814,      0.03202373,      0.01406228,     -0.02725519,
                0.04272890,      0.13046898,      0.04600240,      0.01945340,
                0.00729585,     -0.04560706,      0.11420403,      0.00048014,
                0.09996185,      0.04388056,      0.04385510,      0.02890005,
                0.04822887,     -0.05289047,     -0.03133219,     -0.01753823,
                0.02540562,     -0.10420358,      0.04182157,      0.01531437,
               -0.01016989,      0.00476430,      0.17790119,      0.01197340,
               -0.00997508,      0.02211081,     -0.06904027,     -0.00419257,
               -0.17201996,      0.04879291,      0.12181462,      0.02962239,
               -0.04799951,      0.00842270,      0.07435046,      0.07577941,
               -0.02520371,      0.08132090,      0.01601692,     -0.03220844,
               -0.13372819,      0.06374728,     -0.03544511,     -0.03336203,
               -0.15178508,      0.04981542,     -0.02516379,     -0.19029273,
                0.07870930,      0.06352206,      0.05655368,     -0.02689349,
                0.08755205,      0.08563606,     -0.09968676,     -0.14764722,
                0.00065846,     -0.08484111,     -0.05975188,      0.02162935,
                0.03386862,     -0.03922977,      0.06550940,      0.02972039,
               -0.03289735,      0.02231728,     -0.12991953,     -0.08978876,
                0.06180990,      0.02466443,     -0.02935697,     -0.00147013,
               -0.14225273,     -0.17806640,      0.13396090,     -0.07607933,
                0.01828610,      0.04732868,     -0.02561482,      0.04746282,
               -0.07963980,     -0.06533320,     -0.12359710,      0.05759296,
                0.05217507,     -0.02176527,     -0.20365004,     -0.04208220,
                0.05422843,      0.01303795,      0.12061018,      0.07330720,
               -0.03762666,     -0.04250075,      0.01842624,      0.03964416,
                0.02134955,      0.01870052,     -0.01696978,      0.03350140,
                0.01263357,     -0.03713667,     -0.07413307,     -0.00824624,
               -0.07106321,      0.02828326,     -0.04052055,      0.09829936,
                0.25356749,     -0.05078199,      0.05447865,     -0.02224626,
                0.01463794,      0.06762180,     -0.00687102,      0.01422751,
               -0.09877519,     -0.05395063,     -0.02902779,     -0.01065705,
                0.04145981,     -0.12237370,     -0.04953139,      0.09886177,
                0.03683732,      0.01142580,     -0.05734577,      0.02159699,
               -0.00009070,      0.07400756,      0.00545598,      0.00891396,
               -0.07017665,     -0.03040513,      0.03844523,      0.16535370,
                0.00622364,      0.00817954,      0.04773446,      0.03578002,
                0.04530582,      0.10398154,      0.07477661,     -0.07371226,
               -0.15190117,     -0.03610328,     -0.02174121,      0.01150538,
                0.15220052,      0.07096041,     -0.10391283,     -0.00843729,
                0.00903798,      0.10548602,     -0.02111581,      0.09048812,
               -0.15591571,     -0.04865347,      0.00724383,     -0.01436627,
               -0.11311316,      0.01642174,     -0.07458774,      0.11110828,
                0.04764701,     -0.13439852,      0.02110056,     -0.05640792,
               -0.07905118,      0.03321502,     -0.13704196,     -0.10615310,
                0.03306622,     -0.09041731,      0.11555020,     -0.11815382,
               -0.10080975,      0.01535635,      0.02921480,     -0.13447976,
                0.08798324,     -0.03814999,     -0.01022222,      0.02402395,
               -0.01417729,     -0.04571928,      0.12214789,     -0.03160932,
                0.13082163,     -0.10008392,      0.04717397,      0.02594404,
                0.07429335,      0.00001991,     -0.05723371,      0.01626669,
               -0.09750631,      0.13751462,      0.00754496,     -0.09319059,
                0.32669434,      0.00930133,     -0.11551498,     -0.05400731,
                0.08504650,      0.07430589,      0.03909529,     -0.08215843,
                0.01378325,      0.00893801,     -0.07040643,      0.05617869,
                0.03687537,     -0.03646774,      0.08023129,     -0.10861657,
               -0.16273127,     -0.03442739,      0.12652490,     -0.22494668,
               -0.03112016,     -0.04846447,     -0.04997514,      0.00805300,
                0.06137113,     -0.08882121,      0.01932126,     -0.03246659,
               -0.00578381,     -0.15100591,      0.18047208,      0.02331926,
                0.05647706,      0.12707622,      0.01912774,      0.13368960,
               -0.11857495,      0.03642287,      0.01457892,      0.00399463,
                0.06569769,      0.16601036,      0.11251440,     -0.06519153,
               -0.00527035,      0.03403602,     -0.14925393,     -0.01600074,
                0.06890062,     -0.06910197,      0.08612267,     -0.01555419,
               -0.13458061,      0.00970736,     -0.05885502,     -0.09557056,
                0.02565767,     -0.00550797,      0.08987662,     -0.00660979,
                0.05345226,     -0.07001603,     -0.13744763,     -0.05154435,
                0.05165973,     -0.06430802,      0.06819492,     -0.05236707,
                0.14847635,     -0.14128913,      0.20477927,      0.07014024,
                0.05027237,      0.07503542,     -0.15999702,     -0.03595610,
                0.07208447,     -0.03299596,     -0.01749683,      0.01878640,
                0.01288280,     -0.09049275,     -0.12868671,      0.10366604,
                0.04928882,      0.07632283,      0.03105256,     -0.06413029,
                0.04458760,      0.13186909,      0.00585647,      0.02213562,
                0.02059809,     -0.04724896,      0.04995381,     -0.03030585,
               -0.03143129,     -0.04578627,      0.04423964,      0.01910139,
               -0.07629897,     -0.05679891,      0.01250238,     -0.06237619,
                0.01043546,      0.01114459,     -0.14310704,      0.13684468,
                0.11714379,      0.00747294,      0.08640915,     -0.09115240,
               -0.04768146,      0.06484842,     -0.05528072,      0.03383585,
               -0.18727894,      0.01304613,     -0.03203178,      0.01958816,
               -0.02164885,     -0.03085480,     -0.03279970,      0.01254540,
                0.08170395,     -0.05024308,      0.09659285,     -0.02527869,
                0.04121049,      0.06039824,      0.01558953,      0.04614849,
               -0.03552324,      0.08009241,     -0.11146928,     -0.15746862,
                0.13852543,     -0.02266971,     -0.08747300,      0.05703589,
               -0.08759934,      0.00605996,     -0.24829161,     -0.09553123,
                0.07727232,     -0.01486780,     -0.02137239,     -0.05866611,
               -0.02378379,      0.02821629,      0.02962625,     -0.02356804,
               -0.00769507,     -0.04199521,      0.10613017,      0.13559516,
               -0.14255452,      0.10194883,     -0.01440401,     -0.01472122,
                0.26856661,     -0.05767633,     -0.01104604,     -0.01358609,
               -0.08230107,      0.07075004,     -0.13833173,      0.00825665,
               -0.01835630,     -0.21675353,      0.09819915,     -0.07722769,
               -0.05534986,     -0.07771803,      0.09909582,      0.06846897,
               -0.04536129,      0.04677335,     -0.05233826,      0.05681634,
               -0.00390945,      0.05258076,     -0.05082392,      0.09807209,
               -0.00088917,     -0.03603821,      0.06276051,      0.03586756,
               -0.08990248,      0.06583413,      0.01222380,      0.06645849,
                0.01109558,     -0.03998261,     -0.08983842,     -0.02695132,
                0.02728364,     -0.03290204,      0.06681581,     -0.17080055,
               -0.05022436,     -0.04750787,     -0.10378145,      0.04849802,
               -0.02529285,      0.02122276,      0.08497955,      0.00685069,
               -0.11416156,      0.02548426,      0.05790176,     -0.12617032,
               -0.13105711,      0.04293700,      0.06967489,     -0.03898211,
                0.00332317,     -0.00509916,      0.04629686,     -0.00346137,
               -0.01749327,     -0.09351052,     -0.00346627,     -0.07427339,
                0.04742428,     -0.13362209,     -0.11444162,      0.03545912,
               -0.08910889,     -0.07304703,      0.02061302,      0.06145207,
               -0.06657677,     -0.01854457,      0.09824167,     -0.03714773,
                0.13567545,      0.10024704,     -0.00627551,     -0.03565180,
                0.09294437,     -0.06705845,      0.05163665,      0.03780133,
                0.00004374,      0.10380510,      0.01448450,      0.01074750,
               -0.01201721,     -0.15436301,      0.02750768,      0.01665944,
                0.03741921,     -0.06018693,      0.01813798,     -0.00319255,
                0.00296197,     -0.05114892,     -0.11786465,      0.06040871,
                0.00064878,      0.05846662,     -0.06496561,      0.05759438,
                0.05353631,     -0.06685138,     -0.06714848,      0.04373096,
                0.03797688,     -0.07455308,     -0.04232267,     -0.00650964,
               -0.08071376,      0.07344282,      0.04261898,      0.05808439,
               -0.20385355,     -0.06769624,      0.08296268,      0.15752697,
                0.01429333,     -0.12198071,      0.11864844,     -0.01294527,
                0.00854210,     -0.06522774,      0.00126141,     -0.06731297,
               -0.03885537,     -0.02907585,      0.08443234,     -0.02528355,
               -0.07613855,     -0.00577542,     -0.00930003,     -0.03868019,
                0.05072497,     -0.06754901,     -0.01365296,      0.03212942,
               -0.04685783,      0.02592505,     -0.10672180,      0.01787977,
               -0.04250102,      0.06039065,     -0.19570869,     -0.00830634,
                0.11501689,     -0.10917107,     -0.06595318,      0.02307753,
                0.03180280,     -0.11500502,     -0.11137566,     -0.06867418,
               -0.02454690,      0.06732587,     -0.00896872,      0.00543291,
                0.10902598,     -0.03260075,      0.03184177,      0.07967698,
                0.10203768,     -0.03326495,      0.01267990,      0.02986363,
                0.11861523,     -0.03176483,     -0.04528583,      0.12483419,
               -0.02851644,      0.02189219,      0.08571068,     -0.09831806,
               -0.06727121,      0.06785121,      0.00477250,     -0.03634660,
                0.01243213,     -0.04485302,      0.05556080,     -0.00430232,
                0.09430388,      0.04302067,      0.04380758,      0.11072543,
               -0.04816489,     -0.03707988,     -0.00364552,      0.00277863,
                0.08014245,      0.20998761,     -0.01607407,      0.00197902,
               -0.01618363,      0.00881302,     -0.05694396,     -0.13157190,
                0.03117334,     -0.10849906,      0.04659104,      0.07526342,
                0.08963170,      0.16406065,      0.10649836,      0.07581042,
               -0.06134595,     -0.15375167,      0.00403517,      0.13642085,
                0.11462124,     -0.04669738,     -0.00752582,     -0.09609202,
               -0.02532354,     -0.02013489,      0.14999762,     -0.01053761,
               -0.00845181,      0.07828131,     -0.06924745,      0.05278151,
               -0.15167895,      0.04847323,     -0.10558742,      0.08325173,
                0.06003691,     -0.02708872,     -0.01557445,     -0.12174900,
               -0.15455930,     -0.14015071,     -0.00605798,      0.07566831,
                0.00596513,      0.05730207,      0.07789319,      0.10363245,
               -0.00441916,     -0.01447154,     -0.06610122,      0.03363352,
                0.23438741,     -0.11253197,      0.00459975,     -0.04425706,
                0.13458724,      0.00162497,      0.01431699,     -0.05392872,
                0.14459865,      0.00548022,     -0.07966561,      0.13304596,
               -0.03680548,      0.05149981,     -0.14176029,      0.10176942,
                0.02850317,     -0.03226107,     -0.03504055,     -0.11730698,
                0.01430239,      0.05383512,      0.10866457,     -0.00194530,
               -0.02415964,      0.05997496,      0.01203330,      0.01640229,
               -0.01312084,     -0.02541824,     -0.10477348,     -0.07283655,
                0.12721455,     -0.00101188,      0.09472229,      0.01414816,
                0.01061671,      0.03580194,      0.00424291,     -0.03042300,
                0.05063321,      0.02701038,     -0.17703505,      0.02751276,
               -0.02342980,      0.03027704,     -0.05681885,     -0.05424131,
                0.01838797,     -0.05981641,     -0.02058504,      0.02166610,
                0.05769193,      0.12433708,     -0.03623764,     -0.00230805,
               -0.05776557,      0.11187325,     -0.12232392,     -0.00188387,
                0.06149100,     -0.07325424,     -0.09747648,      0.06165986,
               -0.17525974,      0.02597487,      0.08517733,      0.00751637,
               -0.06392708,     -0.21900730,     -0.17761216,     -0.06640188,
                0.04061531,      0.04478652,     -0.04959968,      0.12129845,
                0.00095044,     -0.06023477,     -0.01844736,      0.10885797,
                0.04799842,      0.00017534,     -0.00010972,     -0.10234621,
                0.10974036,     -0.23808421,      0.04843474,      0.03919377,
               -0.08585482,      0.05526620,     -0.00457211,     -0.07925052,
               -0.03394357,     -0.04212681,      0.05045131,     -0.09738314,
                0.06058495,     -0.07594726,     -0.00824824,     -0.03733948,
                0.01647346,     -0.01761936,     -0.10530965,      0.05022381,
               -0.06425259,      0.07723100,     -0.03335634,     -0.00446080,
               -0.11307178,     -0.01959273,      0.01185973,      0.01218775,
                0.12793826,      0.11223646,     -0.00159556,     -0.05761884,
               -0.01536374,     -0.08456329,     -0.01222300,      0.00795769,
                0.02011289,      0.07581447,     -0.07251904,      0.04500894,
                0.03308119,      0.10452169,      0.05474187,      0.08871701,
               -0.06241548,     -0.12781115,      0.03607210,      0.14636847,
               -0.03242398,     -0.13673401,      0.00286988,      0.03791495,
               -0.03162860,      0.01484603,     -0.13648961,      0.02850757,
               -0.10188400,     -0.08118980,     -0.03650637,     -0.03472157,
                0.13198406,      0.03354215,      0.16887920,      0.02037022,
                0.12671225,      0.04308804,     -0.02847691,     -0.10257153,
               -0.09965167,      0.13302206,     -0.06041195,      0.01897410,
               -0.04340712,     -0.04611985,     -0.03180875,      0.05796006,
               -0.02694894,      0.05940507,     -0.05719373,      0.03557063,
               -0.12998667,     -0.05089077,      0.06187325,     -0.02380088,
               -0.02704410,      0.09732749,      0.02308302,     -0.02660768,
               -0.01440039,      0.04815711,      0.04759338,     -0.05371125,
                0.02727478,     -0.01937198,     -0.09215882,      0.15032305,
               -0.10406457,      0.10392576,      0.00242365,     -0.12774970,
                0.01532867,     -0.01780494,      0.06739526,     -0.07597014,
                0.01872371,     -0.09860562,      0.06717286,     -0.12121169,
               -0.20395741,     -0.03885105,      0.05084391,     -0.19281080,
               -0.03605952,     -0.11218169,      0.09130087,     -0.01170967,
                0.06564143,     -0.09381119,     -0.11141801,      0.13260597,
                0.00071868,      0.07750315,      0.00167612,      0.05125298,
                0.21878067,     -0.02212780,     -0.05063415,      0.02906180,
               -0.05660823,     -0.08570123,     -0.00680799,     -0.10892802,
               -0.05566693,      0.07929582,     -0.07173898,      0.17467478,
                0.08898679,     -0.04220356,      0.02123449,      0.06879050,
                0.04172014,     -0.02176722,     -0.06814295,     -0.13544619,
                0.03883241,     -0.13431776,      0.03404760,     -0.09650162,
               -0.02623341,     -0.02055972,     -0.05573064,     -0.09449920,
                0.10953715,     -0.05321408,      0.00571053,      0.11021330,
               -0.06337334,      0.04310281,      0.12351546,      0.07523657,
                0.05625648,      0.06960870,      0.03732548,     -0.00393948,
                0.03061169,      0.07586370,      0.05854377,      0.03577225,
                0.00093183,      0.00657362,     -0.08591550,     -0.16217981,
                0.07009275,     -0.00838333,      0.04761243,      0.07345526,
                0.10114017,      0.08619516,      0.08059735,      0.06706312,
                0.00988641,      0.03872604,      0.00331040,      0.02421205,
                0.09904038,      0.09656809,      0.05805175,      0.09951813,
               -0.00788470,      0.05543380,      0.05300623,      0.04367281,
               -0.06798926,      0.05699084,      0.12580757,     -0.01261807,
               -0.04817254,     -0.03101785,      0.02204744,     -0.08214785,
               -0.04152287,      0.08510243,      0.09933704,      0.00591917,
               -0.03280577,      0.10789529,      0.03985982,      0.03673982,
               -0.02671230,     -0.08413406,      0.00652338,     -0.06647853,
                0.05211540,     -0.00849428,      0.01728245,      0.00547749,
                0.03590258,      0.07817905,     -0.01541111,     -0.08013393,
               -0.05754602,     -0.01146307,      0.16472666,     -0.06218743,
                0.02671767,     -0.06172393,      0.09979656,     -0.12341142,
               -0.10268545,      0.00186503,      0.01562501,      0.05285222,
               -0.07312090,      0.07739555,     -0.01614906,      0.09319516,
                0.02674900,     -0.16739605,      0.06517889,     -0.15184024,
                0.09710926,      0.02855116,     -0.06522639,      0.18533187,
               -0.01002815,     -0.00065400,      0.02871759,     -0.19200620,
               -0.02737190,      0.08194704,      0.07337094,     -0.12767793,
                0.02661273,      0.08839256,      0.11713469,     -0.07590931,
                0.04224578,      0.21744889,      0.04131210,      0.00099967,
               -0.01405830,     -0.13867353,      0.08070204,      0.02397518,
                0.05085901,      0.06948157,      0.24711220,      0.08770598,
                0.30614141,      0.10630293,      0.19804859,      0.04311373,
                0.01499888,      0.14809296,      0.09306580,     -0.00878709,
               -0.00008963,      0.04002474,      0.05408301,      0.11660493,
               -0.02034782,     -0.10048671,     -0.03531201,     -0.07664184,
               -0.06206166,      0.01700960,     -0.08053244,      0.04044840,
                0.04481731,      0.14239581,      0.21239948,     -0.02452152,
                0.00867599,      0.09505798,      0.07131103,      0.11154386,
               -0.12331063,     -0.05174631,      0.09386632,      0.02679573,
                0.06641014,     -0.10697496,     -0.14855412,     -0.01437986,
                0.09192245,     -0.17622143,      0.05378900,      0.04694441,
               -0.15497378,     -0.01787091,     -0.05802381,     -0.07874695,
                0.10441552,      0.06169777,      0.03633473,      0.07169870,
                0.19838288,     -0.03675167,     -0.07288016,     -0.17449240,
               -0.02519246,      0.02315503,     -0.07496730,      0.04008790,
               -0.13164595,      0.00902181,     -0.03200709,      0.03618145,
               -0.06206257,      0.01790115,     -0.11650358,      0.11217649,
               -0.03076221,      0.02849711,     -0.08127029,      0.02361249,
                0.02038449,     -0.08715308,      0.02170290,      0.07947368,
               -0.00068752,      0.00074040,     -0.07665224,     -0.09970041,
               -0.02844038,     -0.04189325,     -0.15272188,      0.03252401,
               -0.30883369,     -0.01260872,     -0.24886703,      0.01557124,
               -0.01458934,     -0.01244752,      0.05037484,     -0.02548643,
                0.00747621,      0.02471664,      0.01244745,     -0.02732142,
                0.12954082,      0.01979030,      0.05440372,      0.03209004,
                0.06717853,     -0.00384012,      0.02381534,      0.00337287,
                0.04931461,     -0.04059130,     -0.00216642,      0.06663340,
                0.06137672,      0.00017091,     -0.15567981,     -0.11252777,
                0.09401829,      0.06766408,      0.01659229,      0.05062102,
               -0.11598553,      0.03899193,      0.09786317,     -0.08889122,
               -0.08848164,      0.10395175,     -0.06784865,      0.02910456,
                0.03772561,      0.12572765,      0.01216843,      0.01438769,
               -0.02729182,     -0.14252032,     -0.03142795,      0.01063480,
               -0.01208775,     -0.09109358,      0.02988747,      0.17484763,
                0.00934356,      0.04627311,     -0.06061451,      0.04008589,
                0.03229973,      0.04000745,      0.00744960,     -0.09773679,
                0.15623805,     -0.08924209,     -0.01216792,      0.00123436,
                0.09365264,      0.04723649,     -0.00392743,      0.04629575,
               -0.09416530,      0.08027383,      0.06512219,      0.12628779,
               -0.19037132,     -0.06378298,      0.06921135,     -0.13428566,
                0.03022048,      0.09528218,      0.01185084,      0.15192521,
               -0.27395716,     -0.02351564,      0.02040644,     -0.16263522,
                0.12782210,      0.14128287,      0.07170188,      0.19932640,
                0.21451934,      0.01604555,     -0.04450592,      0.12458721,
               -0.15560669,      0.03696611,      0.00193346,      0.08374304,
                0.10782509,      0.01233889,     -0.13424966,     -0.09266439,
               -0.03923663,     -0.06935541,      0.06605996,      0.10826205,
               -0.05894503,     -0.01584726,     -0.12473340,      0.22014618,
               -0.03367842,      0.00446539,     -0.09217163,      0.08383903,
               -0.06468732,      0.02143037,      0.11359496,     -0.13042824,
               -0.06688324,      0.03056153,      0.04402004,     -0.11738060,
               -0.07298356,      0.09169006,     -0.01290842,      0.00556190,
                0.02869194,     -0.06010706,     -0.19787350,     -0.02731403,
                0.16363807,      0.02553551,      0.15369819,      0.08207610,
                0.03634050,     -0.08066338,      0.06463306,      0.11773962,
               -0.00493677,      0.02180070,     -0.11423662,     -0.06456522,
                0.06385344,     -0.16789527,     -0.09336060,      0.04505042,
               -0.00119918,      0.03476165,      0.03827319,     -0.12157632,
                0.07002372,     -0.00805667,     -0.12143844,      0.16439472,
               -0.03500211,     -0.00072833,     -0.01371515,      0.07596524,
                0.05424994,      0.06569482,     -0.07927818,     -0.02100293,
               -0.05339247,     -0.03114865,      0.07518375,      0.00958471,
               -0.01644439,     -0.02658468,      0.05930157,      0.10862674,
                0.11844383,     -0.04385249,     -0.10474862,     -0.04580839,
                0.05806768,     -0.06757327,      0.10242368,     -0.16402930,
                0.09925244,      0.04313493,     -0.05493209,     -0.06689677,
               -0.06550525,     -0.01434631,     -0.03600074,     -0.09064934,
                0.15278076,     -0.12241677,      0.13523471,      0.04014607,
                0.05679265,     -0.10873889,     -0.06400596,     -0.17143780,
               -0.13389288,      0.04740517,      0.06139905,      0.08361991,
                0.09109022,     -0.15875842,      0.05433286,     -0.05135927,
               -0.01336108,      0.01627281,      0.02304074,      0.08190076,
                0.27307516,     -0.01640800,     -0.06264555,      0.27270278,
                0.01915192,     -0.05129974,      0.00162714,     -0.00594616,
                0.02932663,     -0.05834700,     -0.04658554,     -0.01582126,
                0.00354891,     -0.16097446,      0.19493745,      0.08951727,
                0.08954068,      0.11352815,      0.03076577,     -0.01967409,
               -0.08549601,      0.00859237,     -0.00445003,      0.00073052,
                0.09304833,     -0.09740496,      0.21740945,      0.03595835,
               -0.01473244,      0.02499337,     -0.09703613,      0.14031032,
                0.02888702,      0.08387861,      0.06114243,      0.10075039,
                0.12454534,      0.07042345,      0.17135923,      0.03237477,
                0.17556079,     -0.01350869,     -0.13309889,     -0.16332468,
               -0.08527692,     -0.00556955,     -0.15031214,      0.02945818,
                0.03978728,      0.10513990,      0.05736686,      0.02259448,
               -0.02218840,      0.00894817,      0.13792482,     -0.02031490,
                0.05069904,     -0.01089143,      0.00910631,     -0.06011393,
                0.01172915,      0.04016256,      0.21967082,      0.12880450,
                0.05373897,     -0.04237416,      0.03720714,      0.10492963,
                0.01851357,     -0.09598102,      0.22373544,     -0.02880856,
                0.11580372,     -0.09938553,     -0.03048346,      0.10997489,
               -0.12454408,      0.02878761,      0.02008706,     -0.01203104,
                0.02631949,      0.05778146,      0.08956896,     -0.09932026,
               -0.06598690,      0.02211204,     -0.08372333,      0.20328909,
                0.11497961,      0.02218549,     -0.02344929,     -0.03666622,
                0.00502099,     -0.08153114,      0.09159692,     -0.03882924,
                0.09027451,     -0.03171003,     -0.04034331,     -0.15393457,
               -0.03089824,      0.05997964,      0.09580752,     -0.05458819,
                0.00078364,     -0.08455915,      0.03446347,     -0.07399037,
                0.04478085,     -0.03062142,      0.00277898,      0.02482272,
               -0.12555152,      0.01740419,      0.24088939,      0.06515024,
                0.34810448,     -0.04773809,      0.14754015,     -0.00497194,
                0.16346540,     -0.08060233,     -0.02712357,     -0.01791512,
               -0.07823475,      0.05458054,      0.04500488,      0.05919776,
               -0.06987578,      0.10990737,     -0.08153956,      0.00877586,
                0.11097377,     -0.03717653,      0.08267093,     -0.01007155,
                0.06759442,      0.08070414,      0.04728157,      0.12303307,
               -0.06666575,     -0.03244272,      0.16386549,      0.22366098,
               -0.00512820,      0.03848665,     -0.08951633,      0.10839414,
                0.04277958,      0.02829566,     -0.06352090,      0.04878601,
                0.06461688,     -0.18614291,     -0.02637469,      0.15093595,
               -0.00530872,     -0.00946719,      0.01103886,     -0.05928314,
                0.18260832,      0.15147758,      0.12494317,      0.04674926,
               -0.00754639,     -0.01388062,      0.01306426,     -0.01705466,
                0.02137579,     -0.06896338,      0.06016986,     -0.00451215,
                0.10777076,      0.07705513,      0.01857953,     -0.12077039,
                0.04269568,     -0.02165319,     -0.01922695,     -0.08008681,
               -0.04984392,     -0.04147199,     -0.04414691,      0.06061495,
                0.04476243,      0.10667989,     -0.12044188,     -0.11481448,
                0.09803781,      0.00405555,      0.03792241,     -0.01296692,
               -0.18829015,      0.03331461,      0.03940947,     -0.06357481,
                0.04469879,     -0.01644131,     -0.00789409,     -0.00258557,
                0.01598859,      0.02523753,      0.07387227,      0.00313258,
                0.10521763,      0.00102575,      0.05683127,     -0.03015441,
               -0.07594599,     -0.07972618,      0.00848527,     -0.01060691,
               -0.07258674,      0.01162707,      0.06169009,     -0.03449018,
                0.00345166,      0.00994144,      0.03403869,     -0.00437733,
                0.01809678,     -0.01152086,     -0.03071233,     -0.04423066,
                0.00705772,     -0.04186939,      0.04164290,      0.08085275,
               -0.05031379,     -0.03435279,      0.08777804,     -0.03505591,
               -0.04793770,     -0.08857903,     -0.05072096,     -0.03963882,
               -0.01818584,     -0.16263822,      0.02850695,     -0.00254185,
               -0.10116046,     -0.05343123,     -0.01853598,      0.08392663,
                0.13185848,      0.00448591,     -0.01593005,      0.10800253,
                0.02349663,      0.06466554,      0.04232027,      0.01051028,
                0.04269358,     -0.06673836,     -0.00839853,     -0.01889650,
               -0.02610845,      0.04711937,      0.00252896,      0.12951787,
