
// weight for Expansion Convolution layer has dimension of torch.Size([1, 1, 480, 20])
const float MBConv6_7_squeeze_excitation1_conv2d_weights [1 * 1 * 480 * 20] =
{
 -0.00024207,      0.01286728,     -0.19330290,     -0.02037717,
                0.03940385,      0.23265360,     -0.13776359,     -0.04708610,
                0.09083492,     -0.03800905,     -0.15473442,      0.06907271,
                0.02230578,     -0.06931543,     -0.02162800,      0.06141310,
               -0.07768627,      0.11431513,      0.09154480,     -0.00070194,
               -0.01922354,      0.01630450,     -0.23672420,      0.02162046,
                0.05599321,      0.14576690,     -0.00791288,      0.04331521,
                0.00206221,      0.01758158,      0.00793113,      0.04188633,
               -0.07426889,      0.00880385,     -0.00194662,      0.02362965,
                0.02519533,      0.09273183,     -0.02934837,      0.00606500,
               -0.02745692,     -0.03356904,     -0.00677696,      0.21304102,
                0.04391490,      0.00637058,     -0.18717581,      0.02794719,
                0.04609071,      0.00362236,     -0.03872271,      0.02629246,
               -0.08217442,      0.00182785,     -0.03211635,      0.08730429,
                0.12349410,      0.22738615,      0.09683307,     -0.10312978,
                0.14082502,     -0.09934738,     -0.01358265,      0.04081642,
               -0.02872659,     -0.02762596,      0.04775175,      0.02228617,
                0.08744445,     -0.02563789,      0.05714763,      0.00438696,
                0.05798765,     -0.00061784,      0.00905338,     -0.04476459,
               -0.01595438,     -0.05384710,     -0.04107022,      0.02920704,
               -0.01518753,      0.10311584,     -0.00392110,      0.05331111,
               -0.00211253,      0.00520835,     -0.01155144,     -0.01746953,
               -0.01549781,      0.02753261,      0.10121658,     -0.00197391,
               -0.03030398,      0.08498363,      0.00928305,     -0.10105024,
               -0.06974946,      0.01419362,     -0.01123345,      0.04446903,
               -0.04105035,      0.10152863,      0.05653209,      0.02425965,
               -0.22434610,      0.04876547,      0.03178743,     -0.06376886,
               -0.00944080,      0.05924734,      0.25491229,     -0.10348208,
               -0.07917289,      0.02377589,      0.00482709,     -0.04776978,
                0.20214254,     -0.07894768,     -0.15054949,     -0.04423591,
                0.01771369,     -0.02098613,      0.24416022,      0.08079661,
               -0.00677824,     -0.00857430,      0.10582728,      0.02447597,
               -0.18356158,      0.04421876,     -0.05289672,      0.01980188,
                0.06791989,      0.00517609,     -0.01622050,     -0.01841585,
                0.08074194,      0.13428715,      0.02113413,      0.23355593,
                0.02710023,     -0.00810980,      0.05023383,      0.04505289,
               -0.00279491,     -0.05350336,      0.15490706,      0.04364741,
                0.00239730,     -0.01464720,     -0.02187469,      0.04115245,
               -0.02670979,      0.02268807,     -0.01090992,     -0.04253111,
               -0.04196024,      0.00259286,      0.00659762,      0.08623825,
                0.00839754,      0.00542457,      0.03134180,     -0.14825937,
               -0.01633968,      0.00144122,      0.14265637,     -0.09052925,
               -0.03876647,     -0.00226584,      0.08046493,      0.09154742,
               -0.02377794,      0.01413639,      0.05184830,      0.03775109,
               -0.15911043,      0.08197021,     -0.06813534,      0.03336129,
                0.05198444,     -0.00446789,      0.08872299,     -0.00713981,
                0.10892482,      0.17807691,     -0.01097003,      0.11929122,
                0.00576459,      0.05465783,     -0.04206261,     -0.02286765,
                0.01822172,     -0.00182593,      0.02802987,     -0.23259345,
                0.01585139,      0.00441217,     -0.02811805,     -0.05292701,
               -0.05993952,     -0.16699934,     -0.09581459,     -0.00546656,
                0.08785829,      0.07743760,     -0.02456520,      0.05531094,
               -0.07562284,     -0.03553303,      0.07587522,      0.02628224,
                0.06921272,     -0.09515662,      0.00207276,     -0.14850965,
               -0.05198823,      0.01666484,     -0.04351510,     -0.01804391,
                0.01803618,      0.06498767,     -0.08857691,     -0.05393954,
                0.05425230,     -0.03379671,      0.02823789,      0.25196862,
               -0.03261616,     -0.05827715,     -0.03358192,     -0.08554816,
                0.08516256,      0.01197738,      0.15574615,     -0.00466036,
                0.07994013,      0.03828778,      0.00801761,     -0.01570573,
               -0.04025891,     -0.01000467,      0.13661309,     -0.00852109,
               -0.06999364,      0.00821659,      0.07656543,      0.00583966,
               -0.05507861,     -0.08298440,     -0.01481487,     -0.03023037,
               -0.22769774,      0.13300370,     -0.22210008,      0.00964526,
               -0.09638523,      0.04269293,     -0.01302489,      0.01062859,
                0.02284558,      0.00526335,      0.00244905,      0.02506582,
               -0.04658831,      0.05340754,      0.02172615,      0.03680892,
                0.07891054,     -0.07844595,     -0.02510658,      0.01412411,
               -0.12650575,      0.04325402,      0.06383649,     -0.02190469,
                0.08059690,     -0.01028975,      0.00981174,     -0.03786472,
                0.05016720,     -0.02213412,      0.01248039,      0.08164774,
               -0.03191876,     -0.15751566,      0.30045864,     -0.05650602,
               -0.03178068,     -0.01772704,     -0.09830119,     -0.14085169,
               -0.01979756,      0.02470339,     -0.05626088,     -0.20414881,
               -0.05015602,      0.04620130,     -0.01786300,     -0.00426869,
               -0.11933456,      0.06347578,      0.00966048,      0.01943638,
                0.04909803,      0.06497555,      0.00126156,      0.01773261,
               -0.19265254,     -0.04222833,     -0.04460790,     -0.01293270,
                0.01200867,     -0.08165708,      0.03202343,      0.03539075,
                0.03204477,     -0.01102295,      0.00885835,      0.00763404,
                0.01870432,      0.06586831,      0.01203454,      0.19278833,
               -0.05178701,      0.00145596,      0.18772987,      0.11241957,
               -0.11095169,     -0.00854168,      0.02009690,      0.04617367,
               -0.01772708,     -0.12148727,      0.05316374,     -0.00499242,
               -0.07213231,     -0.01687299,      0.17277047,     -0.12676907,
                0.14647770,      0.03785890,     -0.09298490,      0.08089788,
               -0.00201648,     -0.07920050,      0.01311406,      0.01125052,
               -0.01999126,     -0.02381075,     -0.06351344,      0.07434887,
                0.14499086,     -0.12059199,     -0.13846514,      0.13573481,
               -0.04626106,      0.00019501,      0.00755357,      0.14354041,
               -0.00720168,     -0.03029080,     -0.01554086,      0.07828968,
                0.03405089,      0.01126752,      0.07394636,     -0.02063618,
               -0.01476760,      0.01467556,     -0.02192849,      0.05347808,
                0.04300397,     -0.05950213,      0.03234246,     -0.01666384,
                0.07738940,      0.02776874,      0.01715228,      0.04571785,
               -0.01712605,     -0.00973757,     -0.09324947,     -0.04413962,
               -0.10313617,     -0.02686676,      0.01745154,      0.01343933,
               -0.20195660,      0.02801754,      0.12595689,      0.10202163,
               -0.11247333,      0.11656269,      0.03337171,      0.07900751,
                0.07145053,      0.05076976,     -0.02904273,      0.04355140,
               -0.01831322,      0.06795167,      0.30455714,     -0.02622180,
               -0.07879239,      0.07942273,      0.01034232,      0.03740668,
                0.14538145,     -0.01902298,     -0.03007711,      0.02005608,
               -0.00066386,      0.04468837,      0.03542012,      0.00149857,
                0.07017094,      0.11899693,     -0.00656316,     -0.00347452,
               -0.02551080,     -0.08562883,      0.04824070,     -0.10478052,
                0.16068140,      0.06337892,      0.02540867,      0.00246965,
                0.04966764,     -0.01475129,     -0.09538329,     -0.05361490,
                0.04641965,      0.15909603,     -0.02751220,     -0.04153972,
                0.03429542,     -0.02588472,      0.06379370,     -0.00269713,
               -0.12639773,     -0.03620832,      0.05690795,     -0.04903330,
               -0.03488616,      0.25190854,     -0.01527024,     -0.04440021,
               -0.02614441,      0.11829462,     -0.00542527,      0.06194205,
                0.06278492,      0.01926376,      0.01971561,      0.05351204,
                0.03757817,     -0.01267124,      0.01515608,     -0.04093424,
                0.01230074,      0.05676457,     -0.05051261,     -0.12523381,
               -0.01815037,     -0.08503604,      0.33841088,     -0.02340654,
               -0.06070177,     -0.00818239,      0.02518546,     -0.02562406,
               -0.00695065,     -0.01102901,      0.01152288,     -0.00530134,
               -0.01276054,      0.07337521,      0.02367811,     -0.01469622,
               -0.00312815,     -0.04462739,      0.10441544,     -0.04136106,
               -0.09866802,     -0.18256494,     -0.01833463,      0.05815084,
               -0.03736289,      0.08023535,      0.09161074,      0.08940190,
                0.00773795,     -0.02306821,     -0.02473503,     -0.03084924,
               -0.23221773,     -0.05578455,     -0.10729924,     -0.07872216,
               -0.18778934,      0.04487240,      0.06238468,      0.00362974,
                0.04118989,     -0.19887501,      0.01167138,      0.09615689,
                0.03499719,     -0.03380562,     -0.04677059,     -0.06018670,
                0.29574022,      0.04785520,      0.00886879,     -0.09471875,
               -0.02766869,     -0.14517531,      0.05333349,     -0.20081887,
                0.05745410,     -0.08434539,     -0.06483110,     -0.04351658,
               -0.02374285,     -0.00062165,     -0.04145100,      0.02344594,
                0.15611516,      0.00275995,     -0.05890870,      0.13681956,
                0.03331224,      0.07046002,      0.09518737,     -0.07112216,
               -0.01419509,      0.18159114,      0.20318463,      0.15211271,
                0.00830117,     -0.10167187,     -0.02649345,      0.01115545,
               -0.05520479,      0.02724169,      0.06853756,      0.02065084,
               -0.04465108,     -0.00908274,     -0.03826445,      0.07292517,
                0.01214911,     -0.00699425,     -0.01703752,      0.02396332,
                0.00915426,      0.18966451,     -0.00937519,     -0.00455371,
               -0.02363440,      0.06328066,     -0.01683006,     -0.17575368,
               -0.01922577,      0.03156676,     -0.03737503,     -0.01599988,
               -0.00450452,      0.03168394,      0.02311136,      0.02852120,
               -0.00426929,      0.01884569,     -0.01534107,     -0.04085106,
               -0.18622142,      0.09259626,      0.02586579,     -0.07603314,
               -0.20612024,     -0.01430569,     -0.05166085,     -0.00166094,
               -0.03651751,      0.05126847,      0.01027080,      0.10350381,
                0.01651543,     -0.07446068,     -0.02109254,     -0.07425699,
                0.16185193,      0.02772240,      0.05047337,      0.10158308,
                0.10815680,     -0.22279562,     -0.12687592,      0.33592701,
               -0.00537769,     -0.05042109,      0.04127255,      0.10908997,
               -0.02753076,      0.06358287,     -0.14418848,      0.02466178,
               -0.00040205,      0.03901301,     -0.07750301,      0.04737251,
                0.05851990,     -0.02059891,     -0.10590090,     -0.00563671,
               -0.01106686,     -0.01133770,     -0.06174723,     -0.01036640,
               -0.05327254,      0.18028718,      0.05045389,      0.06732061,
                0.01138589,     -0.09240562,      0.09482419,     -0.25411636,
               -0.29912820,      0.16955136,      0.01527186,     -0.00747185,
                0.02559250,     -0.01638628,      0.03131238,     -0.25560904,
                0.01300679,     -0.05803853,      0.04217190,     -0.09413698,
               -0.01850944,      0.04564997,      0.03422887,      0.07772133,
                0.03251961,      0.02267970,     -0.08646990,      0.06707685,
               -0.01140609,     -0.01820525,      0.05002883,      0.11303039,
               -0.00716918,      0.03395164,      0.00047130,     -0.07610218,
               -0.20382731,      0.15003143,     -0.01237528,      0.03171539,
               -0.01789454,     -0.02993779,      0.08646196,      0.00549501,
                0.10758200,      0.03080975,     -0.06785342,     -0.01839607,
                0.02316902,      0.03448038,     -0.08720901,      0.00932332,
                0.03907498,      0.01865031,      0.03218429,      0.21899004,
               -0.11281631,     -0.00817637,      0.04784640,     -0.00029743,
                0.08947800,     -0.00982750,      0.00210495,     -0.16326782,
               -0.07258150,      0.00669594,      0.10060758,      0.06413168,
               -0.16422759,      0.01841335,      0.05402510,     -0.05217969,
                0.23884891,     -0.04703822,      0.00557140,     -0.06779999,
               -0.08829462,     -0.10349245,     -0.00733686,     -0.05020681,
                0.08059869,     -0.03840046,      0.03008455,      0.00325949,
                0.09971344,      0.04239937,      0.00630962,     -0.07061499,
               -0.09028963,      0.04121520,      0.00194365,     -0.02618580,
                0.10783446,      0.05107435,      0.40333161,     -0.17272769,
               -0.11342065,     -0.18373954,     -0.15822434,      0.11231516,
               -0.00629662,     -0.04004779,     -0.15726358,     -0.00493143,
               -0.09822223,      0.01588277,      0.01387791,     -0.10032233,
               -0.04811765,      0.00905298,     -0.04470059,     -0.13161916,
                0.03646399,     -0.02064168,      0.04038361,     -0.14963099,
               -0.00581465,     -0.02812190,     -0.05809177,     -0.00559038,
                0.12500466,     -0.00897520,      0.03657577,      0.02660476,
                0.02041402,      0.11194151,      0.00218179,     -0.03598993,
               -0.26473999,      0.03675640,     -0.04442214,     -0.14732285,
               -0.20202458,      0.05882124,     -0.02327686,     -0.08042772,
                0.16311064,     -0.05075084,      0.02700875,      0.01993499,
               -0.00100165,      0.00312507,      0.02166981,      0.04174715,
                0.05782636,      0.13432610,      0.13354789,     -0.07787155,
               -0.02376787,     -0.02248040,      0.00774266,      0.22501399,
               -0.00459581,     -0.17240335,     -0.08468676,      0.15859966,
                0.00667561,      0.03917689,     -0.06743556,     -0.02904007,
                0.16678010,      0.06237406,      0.08956491,      0.00126503,
               -0.06945163,      0.00812672,      0.00155336,      0.03230437,
                0.01181091,     -0.04797359,     -0.10749047,     -0.01425844,
               -0.03974615,     -0.06213338,     -0.15168436,      0.01369404,
               -0.05141674,     -0.01626962,      0.10340838,     -0.00528704,
                0.06706808,      0.04387781,     -0.10404085,      0.07265762,
               -0.00314120,     -0.15802725,     -0.16106965,      0.01127607,
                0.10080866,     -0.00163379,     -0.00151821,     -0.02905663,
                0.00520452,     -0.07581432,     -0.05722244,     -0.04965743,
                0.13253503,     -0.01400823,      0.04861587,     -0.05661345,
               -0.17951092,      0.02442364,      0.10287126,     -0.06230903,
               -0.00776313,     -0.08098930,     -0.16046508,     -0.03595319,
               -0.03101608,     -0.04682282,     -0.02948878,      0.02504520,
                0.12502544,      0.01156474,      0.10750712,      0.19850187,
               -0.08935323,      0.07667128,      0.04798839,     -0.07875245,
                0.00183173,     -0.00934984,     -0.03809341,     -0.11732080,
                0.00978020,     -0.02119714,     -0.02123629,     -0.09389127,
                0.00205338,     -0.05088188,     -0.00735906,      0.06692488,
               -0.00367821,     -0.04733156,     -0.06481294,     -0.12871951,
               -0.03429508,      0.04435402,     -0.15609044,      0.00760021,
               -0.01400257,      0.06883232,     -0.14306475,      0.09456261,
               -0.00341148,     -0.03538188,     -0.03704554,      0.04377127,
               -0.02145660,     -0.02341229,      0.05205965,     -0.03166465,
                0.12446973,     -0.08187178,      0.07124882,      0.15267226,
                0.08367647,     -0.00892106,      0.09203291,     -0.18461658,
               -0.06317519,      0.00131918,     -0.26223254,     -0.05316491,
               -0.00176527,     -0.05057619,      0.03249753,     -0.00262612,
               -0.18857293,      0.00662500,      0.23802571,      0.00300511,
                0.02241907,      0.00870391,      0.07200948,     -0.03409717,
               -0.00163937,     -0.03077151,     -0.00152942,     -0.00415988,
               -0.07847455,      0.00093529,     -0.11346523,      0.05420262,
                0.00192803,     -0.00732286,     -0.02124422,     -0.03020664,
               -0.00895803,      0.05154133,     -0.02107759,      0.10803460,
               -0.02379759,      0.02426839,     -0.13766034,      0.19294287,
                0.03148345,      0.00922326,     -0.02755809,      0.01756424,
                0.08054224,      0.03575010,      0.01076430,      0.03893572,
               -0.06305110,     -0.24885772,     -0.06571732,     -0.01783103,
               -0.01376484,      0.01514011,      0.03486910,     -0.14632092,
                0.06481023,     -0.01924048,     -0.05702018,     -0.06097134,
                0.02529560,      0.18249944,      0.04570986,     -0.04828381,
                0.06096010,     -0.16065577,      0.01637028,      0.09255533,
               -0.09365015,      0.10783921,     -0.05852059,      0.04090867,
                0.12260029,     -0.06811018,     -0.03858263,      0.00376816,
               -0.04535796,     -0.07366464,     -0.03457759,     -0.00917749,
                0.04622162,     -0.02173049,     -0.02088679,     -0.02766652,
                0.02235013,     -0.01706438,      0.52301008,     -0.00024927,
                0.06829953,     -0.02150630,     -0.03254505,      0.03888918,
               -0.10842887,      0.06150397,     -0.04364239,      0.10022097,
                0.00268194,     -0.02351871,      0.01620218,      0.21200794,
                0.08657038,     -0.16899700,     -0.01639449,     -0.02788569,
               -0.07070556,     -0.03968295,      0.03386292,     -0.03999042,
                0.06533893,      0.03376013,      0.10684843,     -0.01992842,
               -0.07524146,     -0.00493874,     -0.01738531,     -0.02092611,
               -0.08111649,     -0.27985513,      0.01079670,     -0.03769892,
                0.01605945,     -0.00917613,     -0.02249912,     -0.01116729,
                0.10716066,     -0.03429081,     -0.04403249,      0.02661983,
               -0.02294716,     -0.01661712,      0.06994825,      0.03120617,
                0.00685637,      0.00334537,     -0.03291723,     -0.03552898,
                0.25697878,     -0.01232800,      0.01640560,      0.04051251,
                0.01131380,      0.02966598,     -0.03605470,     -0.10669179,
                0.07079223,      0.08335396,     -0.04776955,      0.01420509,
               -0.02967952,     -0.04352093,     -0.03520380,     -0.00942699,
                0.01728318,     -0.01563713,     -0.04045202,      0.04108445,
               -0.20376849,     -0.02918757,      0.05374423,      0.06408285,
               -0.03744511,     -0.06062087,     -0.08322443,     -0.00382996,
               -0.00594149,      0.03505698,      0.01484192,      0.05525796,
               -0.01871799,     -0.10391988,     -0.05220022,      0.00874741,
               -0.02171391,      0.01491385,      0.04920308,      0.00495597,
                0.02264199,      0.01572258,      0.10253686,     -0.03110558,
                0.02362987,      0.01711604,     -0.01248594,      0.00408256,
               -0.05379099,     -0.00041029,      0.32921049,      0.03848027,
               -0.00174762,     -0.12617806,      0.17567605,     -0.06819751,
                0.00672183,      0.05026570,      0.07582957,      0.13691565,
               -0.06992866,      0.00601898,     -0.00599870,     -0.11204188,
                0.16075847,      0.03920507,     -0.01369742,      0.08756786,
                0.00465994,      0.03475620,      0.23572077,      0.08819957,
               -0.03961736,      0.04152287,     -0.01476507,     -0.12466540,
                0.02029948,      0.04787545,     -0.07235620,      0.03664031,
                0.04727466,      0.00102351,      0.01384715,     -0.01990804,
                0.09048983,      0.05022992,     -0.01352849,      0.11749270,
               -0.00129481,      0.09855385,      0.07258796,      0.04174771,
               -0.06535932,      0.02702899,      0.00097511,      0.19174801,
               -0.04782483,      0.06600486,      0.09186827,     -0.05235412,
               -0.07122248,      0.00855872,     -0.02530659,     -0.08001231,
               -0.15522477,     -0.04076437,     -0.00985464,      0.08093514,
               -0.02369994,     -0.01404354,     -0.01062807,     -0.03796417,
                0.09708397,     -0.00620526,     -0.05915670,     -0.03063201,
                0.03595999,     -0.02732211,      0.07947481,      0.12379158,
                0.05087294,     -0.07050938,      0.03397413,     -0.00382877,
               -0.18373990,     -0.25657961,     -0.08800128,     -0.01048430,
               -0.01730608,     -0.01666337,      0.03402138,     -0.03541183,
               -0.00370650,     -0.07678088,      0.04413167,      0.19429205,
               -0.04689667,     -0.03750537,     -0.03625467,     -0.00704787,
                0.00999866,     -0.19061039,     -0.03386240,      0.08001219,
               -0.00965008,     -0.01192939,     -0.01083086,     -0.00713386,
                0.05645948,     -0.02024072,      0.07666346,     -0.02054597,
                0.04278054,     -0.10493401,     -0.07432004,      0.00817465,
                0.04322942,     -0.05257623,      0.03430759,     -0.07338498,
               -0.02934845,     -0.06032094,      0.02925527,      0.01853310,
               -0.00348984,     -0.04689681,     -0.17306907,     -0.12489187,
               -0.05931884,     -0.01421585,     -0.10774632,     -0.09533627,
                0.14944893,     -0.01019511,     -0.02406186,     -0.13434412,
               -0.03541868,     -0.07802451,     -0.02422226,      0.28776568,
               -0.21178627,     -0.14185497,     -0.10441656,      0.06122568,
               -0.04924978,     -0.23625454,     -0.12775509,      0.06396077,
                0.01539248,     -0.04918233,      0.14435837,     -0.02416761,
                0.00064843,      0.00520707,      0.01318412,      0.03797615,
               -0.05909619,     -0.09701717,     -0.07093682,      0.03027054,
               -0.17026801,     -0.00094596,      0.05320019,      0.07531764,
                0.12761901,     -0.05822429,     -0.05964265,      0.04077759,
               -0.06145390,      0.01790532,      0.02193029,     -0.03517499,
               -0.00505916,      0.03100686,      0.02975066,      0.01071409,
               -0.31013492,     -0.10729326,     -0.04942040,     -0.06789438,
               -0.09184604,      0.00118826,      0.00247972,      0.05850783,
               -0.01462254,     -0.01834306,     -0.02402535,     -0.01280415,
               -0.09694152,      0.06182621,      0.01182318,      0.02447908,
                0.06032547,      0.01272121,     -0.17892866,     -0.01309726,
               -0.11343088,      0.06152584,      0.13177615,      0.00268837,
               -0.04206608,      0.04744060,      0.03076500,     -0.00648867,
                0.05402445,      0.02103511,     -0.01589658,     -0.02248967,
                0.06284374,      0.11351123,     -0.01938045,      0.00892180,
                0.00432350,      0.00643506,      0.00737185,     -0.02845983,
                0.08794978,     -0.01360548,      0.02596316,      0.00397355,
                0.03363126,     -0.02373702,      0.15000160,      0.08545241,
               -0.01341156,     -0.02263642,      0.06086014,     -0.00123521,
               -0.01433144,      0.04387398,      0.06146537,      0.05479148,
               -0.00850169,     -0.04984076,     -0.13393338,      0.06580745,
                0.05789610,     -0.07895426,      0.05294313,     -0.02913775,
                0.00541230,      0.03200506,      0.07974499,     -0.03184262,
               -0.20753770,     -0.02631292,      0.02380747,     -0.21717633,
                0.21005319,      0.02498968,      0.00956004,      0.04667134,
               -0.01475344,     -0.09044606,     -0.01427390,     -0.00066651,
               -0.04370836,      0.02579882,      0.05811284,     -0.00373498,
                0.05737635,      0.06096044,      0.02907730,      0.07510267,
                0.31096196,      0.04585661,      0.01406792,      0.46787944,
                0.04150817,     -0.01037576,      0.17603874,      0.18565279,
                0.02356813,     -0.01936644,     -0.03957920,     -0.06294165,
                0.00771057,     -0.02696759,     -0.01089400,      0.13861647,
               -0.01103565,     -0.00579443,      0.02474572,      0.04552430,
               -0.00877911,      0.05407957,      0.15971784,      0.00243289,
               -0.02643294,     -0.04503342,     -0.14179406,      0.08769324,
               -0.07437656,      0.01424185,      0.12088587,     -0.00347835,
               -0.24319889,     -0.03559158,      0.19412237,      0.00180872,
                0.02943625,     -0.00883317,     -0.02639421,     -0.04508725,
                0.00403029,     -0.02310224,     -0.00246402,     -0.01498551,
                0.04315405,     -0.02179675,     -0.06621972,     -0.04597862,
               -0.02383734,      0.06210605,     -0.02408682,      0.03966066,
               -0.01517769,      0.03670675,      0.52925360,      0.00534274,
                0.01008714,      0.00340815,     -0.01272107,     -0.09950265,
                0.00215884,      0.20475793,      0.27267665,     -0.05225270,
               -0.01842773,      0.01333104,      0.03626312,     -0.05635402,
                0.06745149,     -0.02699315,      0.04417556,     -0.02095023,
                0.00885821,     -0.18386716,     -0.14472188,      0.02533713,
               -0.02476279,     -0.00425613,     -0.03058019,      0.04238224,
                0.04182570,      0.03816831,      0.06656999,      0.02624678,
                0.08691834,     -0.02234050,      0.03577056,     -0.02550310,
                0.07710977,      0.05477758,      0.02834111,      0.04142696,
               -0.00419765,     -0.24975643,      0.00404365,      0.08099136,
                0.03740129,     -0.02993790,     -0.02424941,      0.07355354,
                0.12535676,     -0.05747674,     -0.04617929,      0.01038350,
                0.00513115,     -0.01661772,     -0.05614218,     -0.42505714,
               -0.01979708,      0.02908050,     -0.06200282,     -0.05997422,
                0.06599887,      0.04296261,      0.00991128,      0.14859208,
                0.05803192,      0.02168967,     -0.01910872,      0.02339010,
               -0.01548407,     -0.02946211,      0.01592129,     -0.01182033,
               -0.09881897,      0.00363352,      0.39685678,     -0.02202533,
               -0.13810654,     -0.02145376,      0.18051016,      0.01984673,
                0.08042343,      0.00985776,      0.02997376,     -0.05150053,
               -0.07102162,     -0.02691498,     -0.05910352,      0.00728732,
                0.02589412,      0.17343755,      0.10658494,     -0.04840581,
               -0.00888289,     -0.05638406,     -0.02239060,      0.02086363,
                0.11443061,     -0.04738138,      0.06696232,      0.05343302,
               -0.05602554,     -0.04586807,     -0.00073339,     -0.03389443,
                0.12757502,      0.11083797,     -0.05116098,      0.02852737,
               -0.03512161,      0.10495514,     -0.01281378,     -0.07679282,
               -0.10704537,     -0.05547084,     -0.03381172,     -0.03070750,
               -0.02398801,     -0.05310063,     -0.14684416,      0.01602107,
               -0.00562343,      0.00001495,     -0.02274380,      0.00660281,
                0.09569601,     -0.07479238,      0.04899392,      0.02447032,
                0.03360086,     -0.03387007,      0.02362634,      0.03020613,
                0.10812763,      0.05431185,      0.01159780,      0.00799127,
               -0.00835484,     -0.05987682,      0.01819556,     -0.03880666,
                0.07068305,     -0.02164454,     -0.05038476,     -0.02590192,
                0.16328053,     -0.06366500,     -0.01274699,      0.05305540,
               -0.01475099,      0.04617584,      0.06703885,     -0.02847231,
               -0.04700561,      0.10198115,      0.06200656,      0.26207682,
               -0.00605271,      0.01140472,     -0.03467768,     -0.06068214,
               -0.04931664,      0.04459247,     -0.08561245,      0.00984725,
               -0.00008027,     -0.06507057,      0.03561342,      0.16236705,
               -0.00379501,      0.01677584,     -0.01838630,     -0.03260675,
                0.01090837,      0.01309228,      0.05102776,     -0.00100697,
               -0.12526450,      0.06005609,      0.00614880,     -0.03703167,
                0.02203317,      0.01459784,      0.00856184,      0.17308886,
                0.06375437,     -0.03182118,     -0.01144362,     -0.04574724,
               -0.04833578,     -0.08675603,      0.14340962,      0.00017639,
                0.02337197,     -0.07828724,     -0.19465540,      0.09412368,
               -0.04439499,     -0.10003103,     -0.31472412,      0.02593207,
               -0.20609260,      0.02325290,     -0.10769111,      0.03842995,
                0.04209961,     -0.02426314,      0.05395999,     -0.05233450,
               -0.00693567,      0.00644832,      0.05526654,      0.13796704,
                0.04443945,     -0.06342069,     -0.15761583,      0.05098561,
                0.16572163,     -0.06078011,      0.14412211,     -0.23752402,
               -0.02713633,      0.08938354,      0.01474651,     -0.04297456,
                0.04318130,     -0.00434871,     -0.02974363,      0.17688674,
                0.08051547,     -0.02142996,      0.00341904,     -0.05795771,
               -0.00637729,      0.01090191,     -0.00127934,      0.07552224,
                0.04851964,      0.10760426,      0.06647302,     -0.13445278,
               -0.02430091,     -0.06106469,      0.05110053,     -0.07925390,
                0.02928831,      0.04435594,      0.02620162,      0.07005468,
                0.01653324,     -0.05517467,      0.02149428,      0.07282219,
               -0.02022826,     -0.02915286,      0.11035421,     -0.02179450,
                0.08712332,     -0.01808555,     -0.01779861,     -0.09649190,
                0.06603089,      0.03078979,      0.15518655,     -0.05565253,
               -0.03894058,     -0.07126315,     -0.02081925,     -0.13183077,
               -0.04335651,     -0.04820831,     -0.00349782,     -0.00333715,
                0.03905546,     -0.09264198,      0.15126613,     -0.00709559,
                0.03028288,     -0.02690167,      0.04722012,     -0.14836369,
                0.09147005,     -0.05756802,     -0.01724427,     -0.01386738,
               -0.07385302,     -0.09843191,     -0.09246755,     -0.03891741,
               -0.00817566,     -0.00343421,      0.04345785,      0.05723466,
                0.02232304,     -0.00836024,     -0.15687500,     -0.03990402,
               -0.03522926,      0.04344923,     -0.03677413,     -0.01117994,
                0.00799443,      0.00438020,      0.08554322,      0.11513600,
                0.05642388,     -0.03049530,     -0.02610310,     -0.05625598,
               -0.04577072,      0.09704705,     -0.01203253,      0.00686220,
                0.02517877,     -0.08209062,      0.05807075,     -0.00235547,
                0.01549800,     -0.06511422,      0.01954577,     -0.08323379,
               -0.04075256,     -0.04503876,      0.00139298,      0.16200119,
               -0.03396335,     -0.06032582,      0.16551985,     -0.10199925,
                0.12522855,     -0.00857080,     -0.04876041,      0.02667080,
                0.02000190,     -0.00242142,     -0.06105838,      0.01880359,
                0.03184464,      0.05886705,     -0.03723184,     -0.00205126,
               -0.11074278,     -0.11537200,     -0.05704438,      0.08969138,
                0.08018328,      0.02660030,     -0.04448577,     -0.09404976,
               -0.03964922,      0.00865607,      0.09286529,     -0.01087486,
                0.05722404,     -0.01059207,      0.00784608,     -0.01185067,
                0.01614865,     -0.03201355,      0.03219281,      0.02658441,
                0.03169014,     -0.06034236,     -0.12223757,     -0.03712105,
               -0.04579585,     -0.05940676,     -0.06685238,      0.17948118,
               -0.00139479,      0.04735145,     -0.02817129,     -0.06205105,
               -0.00205190,      0.02926573,     -0.01574744,     -0.02296609,
                0.00781709,      0.01495611,      0.06317871,     -0.01785231,
                0.12977663,      0.14294437,     -0.04378847,     -0.02416115,
               -0.04814977,      0.04739805,      0.17017281,     -0.08195664,
                0.07020888,     -0.01778789,     -0.07066792,     -0.03388761,
               -0.01516114,      0.03988097,      0.04096312,      0.10714640,
                0.01385255,     -0.02718295,      0.07089924,     -0.03995614,
               -0.02674174,      0.02360140,      0.05309615,      0.02264107,
               -0.04961397,     -0.08389734,      0.05281409,     -0.03541060,
                0.10669605,     -0.02344372,     -0.00128868,      0.27125734,
               -0.13681130,      0.03444926,      0.02659792,      0.08354715,
               -0.03386582,     -0.11594599,     -0.07767990,     -0.01530234,
               -0.00191394,     -0.03718134,     -0.09907358,      0.00157038,
                0.19472744,      0.00422336,     -0.05241531,      0.08903924,
                0.05492685,      0.02496460,     -0.06581700,     -0.12352030,
               -0.04826498,     -0.04367995,      0.08452035,     -0.08629122,
                0.01983375,      0.01197706,     -0.03898671,     -0.02147948,
               -0.05327502,     -0.02764132,      0.00975754,     -0.03247300,
               -0.05779680,     -0.11487687,      0.07833064,     -0.14100587,
                0.02696433,      0.06147960,     -0.00261230,      0.00766635,
               -0.02343944,      0.05472172,      0.00593706,      0.03110742,
               -0.07493867,     -0.03140324,      0.12347289,     -0.00226014,
                0.14551127,      0.03378981,      0.08514751,      0.03505868,
                0.04101944,      0.10581247,      0.06531761,      0.11817847,
                0.16722889,      0.00945396,      0.14022417,      0.01010928,
                0.00831424,      0.04482542,      0.10165431,     -0.03738160,
               -0.04367639,      0.01380320,     -0.00693557,      0.08265311,
                0.04245947,     -0.06537996,     -0.11607823,      0.04960905,
               -0.04158876,     -0.00533548,      0.05821969,      0.00715057,
               -0.05053230,      0.12687893,      0.00032783,     -0.03628344,
               -0.04611125,      0.16631272,     -0.11428090,     -0.01823148,
               -0.16299437,      0.07444102,     -0.01576553,     -0.07421317,
                0.01580190,      0.04436227,     -0.00508060,     -0.01583143,
               -0.06958371,      0.10779133,     -0.00429740,     -0.07787717,
                0.02430735,     -0.02184071,     -0.01019685,     -0.03191897,
                0.04487344,      0.02446192,     -0.04551867,      0.01430063,
               -0.02538767,      0.05530845,     -0.05192511,     -0.04636060,
               -0.01742363,      0.03000667,      0.01480643,      0.02063106,
                0.05329741,     -0.05062934,      0.04003301,     -0.06116350,
               -0.00239520,     -0.17441039,      0.01610299,     -0.00001964,
               -0.00995152,     -0.12355681,     -0.03381060,     -0.20409983,
               -0.00172841,     -0.28466842,     -0.02888717,      0.13484640,
                0.05211382,      0.09176942,     -0.00686051,      0.03338468,
                0.03094300,     -0.02009235,     -0.04192929,     -0.11896986,
                0.04721332,      0.02811045,      0.00178503,     -0.01320029,
                0.03414583,     -0.04535399,      0.18720575,     -0.00841367,
               -0.01471640,      0.22980382,     -0.00045140,     -0.13650692,
                0.01586613,     -0.09593384,     -0.08842276,     -0.02024826,
               -0.00746744,     -0.04410046,     -0.09940019,     -0.03570872,
               -0.01707818,      0.03115677,      0.06032872,     -0.02742390,
               -0.00633160,     -0.03178128,      0.00115330,      0.03443920,
                0.00519071,     -0.07282151,     -0.02497581,      0.07667501,
               -0.07065353,      0.00314398,      0.01161452,     -0.02712562,
                0.02121827,     -0.06213552,     -0.03398774,      0.06879643,
               -0.01522387,      0.09622133,     -0.08001601,     -0.11756513,
                0.03746808,     -0.03507959,     -0.00347197,     -0.07016607,
               -0.01841641,     -0.05816944,      0.06782463,      0.04138501,
               -0.00988666,      0.03911163,     -0.09279438,      0.01270206,
                0.00181081,     -0.03538828,      0.12416264,     -0.02218730,
                0.05046494,      0.02039771,      0.09891299,     -0.18578722,
                0.00678044,      0.00852674,      0.01393962,     -0.02807774,
               -0.01648119,     -0.06709674,     -0.01706655,     -0.03821275,
                0.10359982,     -0.04796305,     -0.01553348,      0.03550051,
                0.01552225,     -0.04364839,     -0.08532584,      0.01749918,
                0.01356112,      0.00839418,      0.03470048,      0.02913691,
               -0.02416903,     -0.03229904,      0.02910337,      0.09178948,
               -0.02517289,     -0.01520019,     -0.02836663,     -0.03559013,
               -0.03145259,      0.03551660,      0.04485972,      0.03099466,
               -0.02251903,      0.20361233,     -0.02247132,      0.16852731,
               -0.08394747,     -0.05180036,     -0.01962206,     -0.00966617,
               -0.00059530,     -0.03713968,     -0.04341857,      0.00583124,
                0.05227322,      0.23424338,     -0.20691690,      0.03365130,
                0.04354224,     -0.04058829,     -0.04931459,      0.08189616,
               -0.07727517,     -0.03993173,      0.06595043,      0.03491861,
                0.06307328,      0.16640194,      0.02349603,     -0.04568953,
                0.02811269,     -0.02225977,     -0.01529780,     -0.01209312,
               -0.03855467,      0.35396478,     -0.11581078,      0.11277311,
                0.18037905,      0.03815694,     -0.02568986,     -0.00135201,
                0.02109820,     -0.01538620,      0.00317809,      0.01150339,
               -0.02278635,      0.09987053,      0.03316106,      0.18330730,
               -0.01471762,      0.15264516,      0.18699151,      0.09632097,
               -0.06818555,     -0.11305576,     -0.00990007,     -0.06881840,
               -0.06562820,     -0.01851362,     -0.13242570,      0.09455694,
               -0.00418845,      0.02211444,     -0.04433146,     -0.06177537,
                0.10773806,     -0.03280692,      0.00977751,     -0.18133919,
                0.01440856,      0.04963649,      0.01252534,      0.05972108,
                0.02486796,      0.10366014,     -0.08908139,     -0.03031340,
               -0.02962299,     -0.04027451,      0.05855971,      0.20968468,
               -0.02365465,      0.02428283,      0.02792915,      0.04753708,
                0.10687158,      0.19352502,     -0.02726706,     -0.03259887,
               -0.03040076,     -0.00262335,     -0.01396160,     -0.01058095,
                0.04390764,     -0.06566333,     -0.00340573,     -0.20957679,
                0.02466290,     -0.02550281,      0.05004160,     -0.05558564,
               -0.04354017,     -0.14166239,     -0.02729930,      0.00332393,
                0.03725531,      0.01078106,      0.02771965,     -0.02496179,
               -0.03666485,      0.00843865,      0.02674716,      0.05092825,
               -0.05298887,     -0.07657699,     -0.02523081,      0.08359051,
                0.09301395,     -0.01583253,      0.15438421,      0.00121850,
                0.01076984,      0.06332546,      0.19037376,     -0.00523641,
               -0.03808745,      0.05684689,      0.28036377,     -0.01522591,
                0.10704712,     -0.02359537,     -0.20785084,     -0.03968588,
               -0.08726674,      0.03996249,      0.02195566,     -0.05642589,
                0.20140719,     -0.01982045,     -0.01953857,      0.00069495,
                0.03560517,      0.11637135,     -0.02323278,      0.07782302,
                0.12426928,     -0.04013020,     -0.11646396,      0.05123961,
               -0.02713581,     -0.00858360,     -0.10563332,     -0.08057270,
               -0.06800310,     -0.04055776,      0.01208862,      0.01976670,
               -0.00377721,      0.01161481,      0.00248994,      0.01603750,
                0.12280349,      0.20072015,      0.11736284,     -0.12485238,
               -0.05894488,      0.07542033,     -0.02804594,      0.03708291,
                0.07345673,      0.02358463,      0.04146638,      0.01366291,
               -0.02045591,     -0.06760135,      0.01952477,     -0.01698632,
               -0.18313551,     -0.04708469,     -0.00546623,     -0.14724252,
                0.04761571,      0.04743687,     -0.00134861,     -0.04365739,
                0.04900012,     -0.00348327,      0.00061922,     -0.01683081,
                0.04490909,     -0.06174080,      0.02938357,     -0.03132278,
                0.01793463,     -0.30919728,     -0.08913715,      0.14015600,
                0.02113072,      0.29790574,     -0.01474842,      0.01181858,
               -0.01862854,     -0.03788548,     -0.02049471,      0.08379809,
               -0.18572345,      0.02607908,     -0.02028001,      0.01145317,
               -0.10266737,      0.08322232,     -0.02261032,     -0.03073159,
               -0.03453745,     -0.01862792,     -0.04561222,     -0.01603860,
                0.05486951,      0.13734972,     -0.01312859,     -0.01261981,
               -0.04432493,      0.01520737,      0.30119559,     -0.03312362,
                0.17156880,     -0.01387155,     -0.12314376,     -0.01626989,
                0.01735106,      0.03130892,      0.07095873,      0.00048398,
                0.01701109,     -0.03920487,      0.00527352,     -0.09525234,
               -0.08843579,     -0.01566909,      0.02114728,      0.00028137,
                0.00448062,     -0.24171364,     -0.01725061,     -0.02489578,
               -0.19053616,     -0.02131995,      0.06503379,     -0.07625373,
               -0.01835773,      0.05385758,      0.04976068,      0.17584720,
               -0.02299442,     -0.03084363,     -0.03377798,     -0.05487954,
               -0.01238933,     -0.02419143,      0.08931601,     -0.01992269,
                0.00537020,      0.04781274,      0.10726155,      0.01109792,
               -0.06090003,      0.04933117,     -0.07479080,     -0.15974052,
               -0.03946264,      0.03550206,     -0.05563631,     -0.07222179,
                0.02765023,     -0.04185908,      0.16772830,      0.04987914,
               -0.05017447,     -0.01869842,     -0.05663600,      0.01043071,
                0.04024650,     -0.01775727,      0.04420503,      0.01313431,
               -0.12744367,      0.05779394,      0.11248598,     -0.00334758,
               -0.02152416,      0.05557886,     -0.02268228,     -0.11147754,
                0.08449550,     -0.03255577,      0.01296035,      0.00743417,
               -0.08938801,      0.18153979,      0.09198766,      0.01575582,
               -0.08171608,     -0.04274491,     -0.01024725,     -0.02917549,
                0.02695658,      0.01705006,      0.09809940,     -0.00654449,
               -0.08810690,      0.01204566,     -0.26346830,      0.05451409,
               -0.05176109,     -0.03207600,     -0.02233095,      0.11174659,
                0.06880561,     -0.03435384,     -0.17443661,     -0.01497545,
               -0.03967170,      0.02539519,      0.00541429,     -0.00921297,
               -0.08686559,     -0.01322255,      0.02795320,     -0.06601739,
               -0.04354331,     -0.02867186,     -0.09644910,      0.03079309,
               -0.01117443,      0.07617848,      0.04957604,     -0.05737070,
                0.02910773,      0.10541498,      0.02383523,     -0.08257298,
               -0.04717427,     -0.00822685,     -0.00858330,      0.16888320,
                0.03309876,     -0.01995103,      0.04069443,     -0.01550942,
               -0.07020324,     -0.04300625,     -0.03817148,     -0.00666418,
               -0.04744460,     -0.05459835,     -0.05663353,     -0.00321906,
               -0.03041770,     -0.35286552,      0.02925555,      0.00492078,
                0.02515261,     -0.05091477,      0.01304850,     -0.00870560,
               -0.01709154,      0.05378258,      0.06683736,     -0.00442734,
               -0.01324537,      0.08041392,      0.08018918,      0.21058238,
               -0.04030348,     -0.09596790,     -0.16246110,     -0.05674554,
                0.05764608,     -0.00687180,     -0.01242770,      0.12954195,
                0.06482859,     -0.04241150,     -0.03321196,     -0.01160972,
                0.00285372,     -0.10427981,     -0.00883436,     -0.01587658,
               -0.01355166,     -0.00366070,     -0.16617645,     -0.04571928,
                0.01154602,     -0.10184688,     -0.01605344,     -0.12094657,
                0.10628212,      0.14652318,     -0.02319847,     -0.12664272,
               -0.04477118,     -0.01514888,     -0.05183101,      0.14228123,
                0.10382839,      0.21073441,     -0.00243827,      0.01937069,
               -0.05970940,     -0.19545971,      0.13233094,      0.00965835,
                0.09574334,      0.00078197,      0.00740779,     -0.03880151,
                0.00094688,     -0.01317162,     -0.02884280,     -0.04196335,
                0.05518378,     -0.23313104,     -0.04156270,     -0.00898875,
               -0.01227799,     -0.17953642,      0.03702321,      0.23775586,
                0.02494128,     -0.03535557,     -0.01039992,      0.12253703,
               -0.02068979,     -0.02274965,      0.07169188,      0.04035474,
                0.00815318,      0.05697342,     -0.05176578,     -0.01379766,
               -0.22494532,     -0.02887407,     -0.01438254,      0.05068646,
                0.08021531,      0.05097650,      0.23740585,      0.13866161,
                0.08776498,     -0.02005144,     -0.02586122,     -0.00868704,
               -0.06242298,     -0.02298075,     -0.00430119,      0.09140385,
                0.10707656,      0.02323313,      0.01237259,      0.02148648,
                0.06259485,     -0.00289383,     -0.01442373,     -0.03595296,
                0.10878018,      0.13761200,      0.08747658,      0.07519013,
               -0.03827264,      0.05745792,      0.11588942,      0.17386362,
               -0.04230041,     -0.04718638,     -0.02268738,     -0.03608151,
               -0.01267512,      0.03227323,      0.02897241,     -0.01059706,
                0.02301162,     -0.07675780,     -0.02497083,     -0.27281147,
                0.15868983,     -0.26527765,      0.01066806,     -0.09901024,
               -0.13895363,      0.02915884,     -0.04606603,      0.07759490,
               -0.01550114,      0.22256112,      0.00229150,     -0.02377081,
                0.03936358,     -0.16997197,      0.00796677,      0.07453465,
               -0.00232125,     -0.02713017,      0.09484558,      0.02049453,
               -0.13855389,     -0.34101763,      0.09860141,     -0.11908125,
               -0.00690266,     -0.01022900,     -0.00137479,      0.00580233,
                0.03266146,      0.05653208,     -0.01393286,      0.03747160,
               -0.13392091,     -0.06548414,     -0.08955722,      0.10262220,
                0.00598922,     -0.03130895,     -0.01024733,     -0.09549806,
                0.02503098,     -0.00560865,     -0.08321401,      0.01491900,
               -0.00088122,      0.15278348,     -0.14509572,      0.06689606,
                0.13562435,      0.07260378,      0.05107898,      0.12982488,
               -0.03642680,      0.01647681,     -0.00752098,      0.10723538,
                0.01745237,      0.07364410,     -0.00928791,      0.10739601,
               -0.03095064,     -0.03382008,      0.14309524,      0.04842041,
               -0.04705543,      0.01428146,      0.14143212,     -0.05381628,
                0.07109537,      0.06943886,      0.15580831,     -0.05341226,
                0.01612245,     -0.01793846,      0.05620931,      0.29875484,
                0.11149507,      0.03962240,      0.02672233,      0.03218906,
               -0.32841563,      0.00163519,     -0.05236537,      0.07759644,
               -0.02538178,     -0.03854037,      0.22132736,     -0.01469593,
                0.02300290,      0.02545798,      0.11847700,      0.07608404,
               -0.01497165,      0.04580729,      0.04498906,     -0.07335224,
               -0.03451276,     -0.07450327,     -0.04011853,     -0.04085092,
               -0.04329772,      0.00575576,      0.10718796,     -0.06226977,
                0.06439075,     -0.03228655,      0.08000217,      0.12393944,
                0.04967608,     -0.07974685,      0.04910815,      0.16760421,
                0.15915677,     -0.03987750,      0.07526838,      0.03016382,
                0.06796501,      0.08556525,     -0.03780900,      0.28315893,
                0.07264385,     -0.06237411,      0.05730037,      0.09326333,
                0.08073378,     -0.02130487,      0.12243202,     -0.03491666,
                0.02331309,      0.15292233,     -0.08084632,     -0.21918403,
               -0.13411662,      0.01360677,     -0.01809798,     -0.04200574,
               -0.07507485,      0.04864617,      0.00688597,     -0.02687622,
               -0.00312058,     -0.17441651,      0.03462767,      0.07568654,
                0.14225502,      0.02774810,     -0.19420405,      0.00581662,
                0.12025811,     -0.07078093,      0.19820957,     -0.06724676,
                0.02583974,     -0.04979436,      0.09559422,      0.05591240,
               -0.01047545,      0.04628575,      0.04363848,     -0.06554186,
                0.00729393,      0.11446469,     -0.02543668,     -0.00056295,
               -0.02354570,     -0.05656008,     -0.01927857,     -0.01121347,
               -0.12326105,      0.03356734,      0.01442571,     -0.01503075,
               -0.05430580,      0.27000666,     -0.01534622,      0.22022043,
                0.12156394,     -0.01467871,      0.02607905,     -0.10638762,
               -0.07492817,     -0.07178663,      0.08154302,     -0.03745235,
                0.09194241,     -0.00990602,     -0.01365261,     -0.15880290,
               -0.03568789,      0.09401211,      0.09382138,      0.02560357,
               -0.08276980,      0.01255677,      0.14683028,     -0.06920490,
                0.00754069,      0.08346487,      0.13148779,      0.02088849,
                0.04393993,      0.03525405,     -0.00569753,     -0.07056808,
               -0.35895172,      0.05293807,      0.17695771,      0.01723238,
                0.01598962,      0.04706621,     -0.09996466,      0.03251297,
               -0.11670996,      0.35684627,     -0.08326612,     -0.01302070,
               -0.01176110,      0.01350127,     -0.01884881,     -0.00694644,
               -0.05752572,     -0.02929129,     -0.08972333,     -0.02626807,
                0.03474003,      0.04463802,      0.04867204,     -0.02969555,
                0.05402423,      0.07627154,     -0.02391870,     -0.03217558,
               -0.11411173,      0.16957571,      0.28805268,      0.00045275,
               -0.02801632,      0.20652971,     -0.02122138,      0.04961389,
                0.05551498,     -0.01834094,     -0.16368976,     -0.08502659,
                0.17381768,      0.04867873,      0.48159698,      0.07620559,
               -0.00148804,      0.03826905,     -0.08742657,      0.03224963,
               -0.01450818,      0.03375397,     -0.00091890,      0.01862180,
               -0.05370969,      0.10359526,      0.03850326,      0.18670614,
               -0.07727972,     -0.02332553,     -0.03858116,     -0.05859407,
               -0.00215146,     -0.09789853,      0.04568124,      0.07952497,
                0.01821367,     -0.02012242,      0.08569504,      0.36959615,
               -0.01272322,      0.02473703,     -0.00812365,      0.06074530,
               -0.08341724,     -0.03665401,      0.04428392,      0.03253784,
               -0.16804133,      0.04813174,     -0.06580072,      0.00460250,
               -0.01838071,      0.06288244,      0.16946428,      0.10209948,
                0.13908899,     -0.04779183,      0.12190567,      0.13138801,
               -0.01168231,     -0.01981782,      0.04287501,     -0.03816867,
                0.16290084,      0.06627744,      0.09147930,      0.07213922,
               -0.02287334,     -0.01348399,      0.01168462,     -0.01298634,
                0.03092934,      0.02902712,      0.13103138,     -0.05553376,
               -0.01243008,     -0.02489275,     -0.00047837,      0.06109766,
                0.01057899,      0.04329092,      0.08501892,     -0.01078262,
               -0.03570860,      0.01336722,      0.12168201,      0.00511989,
               -0.03784784,     -0.10424319,     -0.00874327,      0.07320638,
               -0.00351043,      0.05727039,     -0.06809553,      0.00617095,
                0.12061191,      0.05765762,      0.08017492,     -0.06335365,
               -0.02776949,     -0.03393054,      0.11871572,     -0.02472438,
               -0.06268168,      0.14952826,     -0.08545750,      0.46337533,
                0.04889648,     -0.03419978,      0.07722765,     -0.05506724,
                0.09827585,     -0.00716115,      0.11494458,     -0.02257065,
                0.01577748,     -0.34002349,     -0.07378773,     -0.00901775,
               -0.02384989,      0.11203508,      0.06286228,      0.10089732,
                0.06606088,     -0.02131298,     -0.04740436,     -0.00035526,
                0.11432305,     -0.03307905,      0.19328877,     -0.02238271,
                0.12573186,      0.07895487,      0.10679391,      0.10059195,
                0.00990373,      0.00541919,      0.08810061,     -0.07258270,
               -0.10953665,     -0.00741751,      0.02138125,      0.03308292,
                0.34412208,     -0.11466298,     -0.04205422,     -0.13730741,
                0.10512882,     -0.08159430,     -0.00063676,      0.00019733,
                0.08176807,     -0.03165976,     -0.22111809,     -0.00516376,
               -0.02026296,      0.01391336,      0.15468654,     -0.11216436,
               -0.08324336,     -0.02504543,      0.24219662,      0.08962399,
                0.07356085,      0.02155690,      0.04411436,      0.15880904,
                0.03655167,     -0.08543193,      0.05202397,     -0.01887632,
                0.06841301,     -0.04004191,      0.04967284,      0.01354275,
               -0.00022807,      0.13691136,      0.15822719,      0.01505269,
                0.04733639,     -0.00351955,      0.00197817,      0.00257896,
               -0.01253942,     -0.07193701,      0.00958917,      0.04886644,
               -0.03214008,     -0.13629203,     -0.03757571,      0.10339852,
               -0.01974881,     -0.04943113,     -0.04489595,     -0.03281729,
               -0.03334434,     -0.05384386,      0.10395660,      0.06473071,
               -0.01556453,      0.08521961,     -0.07562516,     -0.01911967,
                0.03585964,     -0.09114698,      0.09573060,     -0.04846947,
               -0.04254052,     -0.02232661,     -0.01232741,     -0.04773322,
               -0.09375297,      0.11147238,      0.00958209,      0.03756154,
               -0.00351588,     -0.05927743,     -0.00306444,     -0.09663010,
                0.04831256,     -0.07043689,     -0.01888407,     -0.07204320,
                0.04899528,     -0.02703563,      0.01961255,     -0.05415315,
               -0.03431001,     -0.04168693,     -0.09563559,     -0.02728921,
               -0.02691112,      0.02327314,     -0.04747279,     -0.16783795,
               -0.03191730,     -0.07292651,      0.00462058,     -0.00597481,
               -0.03024388,      0.03273505,      0.01735142,      0.02539191,
               -0.07870007,     -0.02458448,      0.04223411,     -0.06652744,
                0.04444754,      0.03465894,     -0.02657949,      0.05794001,
                0.24266793,     -0.02134445,      0.09018440,      0.08226085,
               -0.05275039,      0.01475950,     -0.00335288,      0.02862478,
                0.01798611,      0.07830701,      0.21257947,      0.04507258,
                0.00835127,     -0.04026555,     -0.01682543,      0.14021412,
               -0.06388790,      0.14076012,      0.16043697,     -0.05204600,
                0.06020895,      0.01048665,      0.10055169,     -0.01865260,
               -0.03519069,      0.05227855,      0.24267864,     -0.00752704,
               -0.05545146,     -0.17039764,     -0.01300937,     -0.00621209,
                0.03132318,     -0.03378685,     -0.03206396,      0.00203646,
                0.00536323,      0.04885573,     -0.03685045,      0.05870999,
               -0.02467045,      0.00199571,     -0.08151493,      0.05670095,
               -0.11693648,     -0.03703333,      0.08655354,     -0.14704162,
               -0.02826794,      0.29692996,      0.21465099,      0.03682993,
                0.02472114,     -0.01055942,     -0.07248905,     -0.00649021,
                0.21074028,     -0.00603089,     -0.02414472,      0.08566876,
                0.05372960,     -0.02361249,     -0.06302163,      0.01627505,
                0.06558448,     -0.05872724,     -0.14101328,      0.05016989,
                0.01617028,     -0.02586298,      0.03701986,      0.15726030,
                0.00199080,     -0.06063324,      0.00485601,      0.01885938,
                0.39594558,     -0.28241667,      0.01246173,      0.00118961,
               -0.02177478,      0.02462546,     -0.12192927,     -0.03408015,
                0.00142423,      0.00731986,      0.05477508,      0.17289193,
                0.08505695,     -0.03434600,     -0.03977318,      0.07510873,
               -0.01374545,     -0.06845547,     -0.05520076,      0.06285875,
                0.06615066,      0.02363265,     -0.04828875,     -0.01402471,
                0.12533306,     -0.16441098,      0.01829732,      0.03123770,
               -0.03304432,     -0.13889673,      0.01292528,     -0.18115139,
                0.10472073,     -0.03328637,      0.12257358,      0.00854604,
                0.02208129,      0.04055641,     -0.00244605,     -0.04947506,
                0.04711438,      0.11215978,     -0.03698317,      0.31499362,
               -0.00631247,     -0.00661353,      0.06482300,     -0.04083028,
                0.41157132,     -0.04898101,     -0.04521112,     -0.00255393,
               -0.07469746,      0.06183668,      0.03973489,     -0.14042564,
               -0.24412842,     -0.02550279,     -0.01250614,      0.23155150,
                0.03560649,      0.39520690,      0.12362932,      0.10571612,
               -0.03250200,     -0.01984198,     -0.20576616,      0.02395426,
               -0.07873628,      0.01014448,     -0.10101442,     -0.00210138,
               -0.03117772,     -0.01677997,     -0.01909263,      0.11794362,
                0.00336284,     -0.12180669,      0.15386665,      0.06529211,
               -0.04596080,      0.07238141,      0.00696089,     -0.00961379,
                0.02233986,     -0.00318604,      0.02041205,      0.02351157,
                0.04655066,      0.03919682,      0.02022927,      0.00211363,
               -0.16863808,     -0.07694719,     -0.05786971,     -0.17497993,
                0.10455003,      0.02707317,     -0.04743697,      0.03435265,
                0.05258013,      0.00406588,      0.00126311,     -0.02738488,
               -0.03075272,     -0.06352270,      0.01793097,      0.07683218,
               -0.03427820,     -0.05470064,     -0.08086238,     -0.03948588,
               -0.03760265,      0.36521101,      0.10246005,     -0.07448044,
               -0.02648329,     -0.00838031,     -0.26584256,      0.05844793,
                0.02929715,      0.01540500,     -0.07743005,     -0.07242187,
               -0.00696087,      0.06069401,     -0.09637472,      0.02005089,
               -0.03535261,     -0.05134413,     -0.00599028,     -0.00530793,
               -0.29337233,     -0.11379790,     -0.02018976,     -0.02147291,
               -0.04701641,      0.05913749,     -0.00180989,      0.00207953,
               -0.05403681,     -0.03986289,      0.12786736,     -0.01882943,
                0.00795643,      0.00746462,     -0.16541719,     -0.03149728,
               -0.02315438,     -0.03110917,     -0.13234724,      0.08653694,
               -0.10083904,      0.00753560,      0.04335651,      0.05159274,
               -0.04096839,     -0.14405711,      0.02367050,     -0.09271120,
               -0.07509452,     -0.01972438,      0.01703966,      0.32567734,
               -0.02703953,      0.04052933,     -0.13273753,      0.12143527,
                0.00501308,      0.07403558,     -0.07244252,     -0.03099960,
                0.00534433,     -0.05706761,     -0.06860267,     -0.01924248,
                0.19091353,     -0.22700754,      0.01867272,      0.20448908,
                0.07895681,      0.00795467,     -0.12103184,      0.40275508,
               -0.00589807,     -0.01803288,     -0.07381321,      0.02362876,
                0.04135149,     -0.03502524,     -0.21908453,      0.00691891,
               -0.05139308,      0.02877735,     -0.02001452,      0.05478843,
                0.07268496,     -0.06441984,      0.03657775,     -0.08541820,
                0.09816359,      0.02844668,      0.03675180,     -0.00834077,
               -0.01989557,      0.07479029,     -0.01999774,      0.09237005,
               -0.05162508,     -0.00938770,      0.03407039,      0.00580444,
                0.01936804,      0.17184334,     -0.00913838,     -0.02704474,
               -0.11181995,      0.00341677,     -0.05895956,     -0.06817715,
               -0.02757538,      0.09876997,      0.08816746,      0.01149940,
               -0.01275225,      0.04766765,      0.09428591,      0.10937064,
               -0.05185352,      0.03786359,      0.01071209,     -0.09949470,
                0.33556622,     -0.02632078,      0.38102001,     -0.03160805,
               -0.01815084,      0.08771444,     -0.07141979,      0.05134058,
                0.02283754,      0.14662802,      0.06392805,     -0.03853862,
               -0.03869722,     -0.02222158,      0.07438734,     -0.06925267,
                0.37116435,     -0.01382067,      0.07361630,      0.00085215,
                0.01448056,      0.23012424,     -0.06754493,     -0.05383181,
                0.00872589,      0.09111463,      0.02670924,     -0.05950681,
                0.07297563,      0.05055802,     -0.09273263,      0.01274133,
               -0.50579536,     -0.06787749,      0.02013907,     -0.02662423,
                0.01672552,      0.02323994,      0.00906672,      0.01718640,
               -0.01552357,     -0.05688242,     -0.00519108,      0.14637950,
                0.03494870,     -0.03409256,     -0.05642957,      0.04139897,
               -0.07014289,      0.00968583,     -0.16083595,      0.00430644,
               -0.09230247,     -0.04042288,     -0.01241928,     -0.14564699,
               -0.03876496,     -0.03977066,      0.11351348,      0.13951029,
                0.15670772,     -0.07919924,      0.01519121,     -0.09761076,
               -0.00172222,     -0.15175118,      0.01674743,     -0.07731386,
                0.00727884,      0.10851534,      0.01148898,      0.02643410,
               -0.00114426,     -0.02095986,      0.13088442,      0.00181993,
               -0.04483589,      0.03116564,      0.00149160,     -0.08356133,
                0.12334146,     -0.11082878,     -0.11674277,      0.05550300,
                0.05038179,     -0.00839507,      0.01113040,     -0.06313879,
               -0.09913413,      0.03004105,      0.05746599,     -0.03399024,
                0.00562209,      0.15925233,     -0.15178487,      0.04244666,
               -0.08962727,     -0.00526189,      0.00883711,     -0.00471757,
                0.01174268,      0.01227640,      0.03419920,      0.01027068,
                0.08247424,      0.09105858,     -0.01665376,      0.05153000,
                0.00900912,     -0.07972571,      0.00617546,     -0.06194025,
               -0.02014556,     -0.01130898,      0.00768852,      0.10344235,
               -0.01377359,     -0.01548691,      0.00921261,      0.02643824,
                0.12183415,      0.08342473,     -0.02820868,     -0.04560906,
                0.05445454,     -0.05042390,      0.00961403,     -0.05446010,
               -0.02402178,     -0.15495211,     -0.13506182,      0.06164419,
                0.01603757,      0.11178323,     -0.02456500,     -0.01337815,
               -0.03787242,     -0.05807304,     -0.02673914,      0.07804883,
                0.07276298,     -0.01568004,      0.01619463,      0.01652276,
                0.05349813,      0.03556247,      0.10171057,     -0.04242009,
                0.07621421,     -0.01783796,     -0.02129408,      0.04072581,
               -0.01630612,     -0.10831118,     -0.00451626,     -0.05636463,
               -0.01812803,     -0.00263956,      0.02998791,      0.07610172,
               -0.03866687,      0.02299285,      0.21700349,      0.06138534,
                0.01541642,      0.03351507,     -0.14111736,      0.22326627,
                0.36412847,      0.02898294,     -0.00093724,      0.00049674,
                0.09074557,     -0.02544923,     -0.01880737,     -0.01302933,
               -0.05383021,     -0.06931332,      0.03501976,      0.03658509,
                0.03360154,      0.02930094,      0.11618531,      0.16166893,
               -0.07366309,     -0.06431016,      0.01496369,      0.08171419,
               -0.08089040,      0.12877400,      0.21030165,     -0.00159695,
                0.03689203,      0.02787886,     -0.00214222,     -0.25348806,
                0.12104251,      0.01883207,     -0.06925516,      0.04500171,
               -0.24707630,     -0.15117066,      0.16661605,      0.06922207,
               -0.02865251,     -0.01301156,     -0.11961317,      0.02772395,
                0.00317094,     -0.01640615,      0.04416605,     -0.16130251,
               -0.15122828,     -0.27280295,     -0.02689844,      0.03209308,
               -0.09186438,      0.08805029,     -0.02880359,     -0.06806436,
                0.01394305,     -0.02984526,     -0.03040889,      0.05672315,
                0.03514456,      0.10343237,     -0.04592162,     -0.10910717,
                0.01833747,      0.01331266,     -0.15333949,     -0.00327769,
               -0.01686185,      0.01593867,      0.03610224,      0.04309475,
               -0.05393181,     -0.00381489,     -0.01314944,      0.01964294,
               -0.04016482,      0.04006632,      0.00072528,      0.09108526,
                0.12332747,      0.02311991,      0.02419107,     -0.02652484,
               -0.08809342,      0.15218100,      0.01574690,     -0.08967716,
               -0.11335368,      0.03317950,     -0.05574309,     -0.02331144,
                0.05700229,      0.10875117,      0.21514745,     -0.00514355,
                0.01872433,     -0.06721326,      0.04827853,      0.03226873,
                0.01231968,     -0.05676262,      0.05662312,     -0.00739821,
               -0.01425046,      0.03218282,      0.01398090,     -0.00869097,
                0.01610631,      0.37211299,     -0.04224870,     -0.00459526,
               -0.11457142,     -0.02279305,     -0.06531104,     -0.14342976,
               -0.03874797,      0.01810633,     -0.01395170,     -0.06527369,
               -0.01615924,     -0.02088922,      0.08025664,     -0.10623746,
               -0.00850108,     -0.03702034,      0.06710941,     -0.25733361,
                0.11704446,     -0.06153546,     -0.10551289,      0.05343651,
                0.07541080,      0.01733710,      0.03058233,      0.23345527,
                0.06794372,      0.00161509,      0.03691274,     -0.15951987,
                0.06582609,      0.01679637,     -0.34170789,      0.16076058,
                0.06035573,      0.03626426,     -0.08319468,      0.03590563,
               -0.03109950,     -0.04877775,     -0.00407320,      0.07521292,
                0.45494604,      0.02506155,     -0.00355808,      0.04095099,
                0.02254958,      0.10093489,      0.03982530,      0.05422842,
               -0.01070308,     -0.06541147,     -0.08692043,     -0.07995634,
               -0.00966892,      0.05216237,      0.01073514,      0.04980079,
                0.06269155,     -0.00407344,      0.04738782,     -0.07294815,
                0.07974627,     -0.04982740,      0.02894237,     -0.03597466,
               -0.21157579,      0.04290879,     -0.01879519,     -0.03698823,
               -0.02052370,      0.03904426,     -0.02389024,      0.04616751,
               -0.02733553,     -0.02428918,     -0.10724930,     -0.00506067,
                0.06470545,      0.00549678,      0.02227279,      0.06489387,
                0.04714987,     -0.11471409,      0.03868651,      0.03554091,
                0.02497632,      0.04610277,     -0.10043106,     -0.04622586,
               -0.00514762,      0.54648727,     -0.04358524,      0.04265042,
                0.01100834,      0.02395931,      0.02110648,      0.01045039,
                0.03944389,      0.04388648,     -0.08844920,      0.01681237,
               -0.00429112,     -0.02414696,      0.10987245,     -0.02616879,
               -0.02349024,     -0.11902528,      0.18307891,      0.04425217,
                0.02252308,     -0.03054589,     -0.17653069,      0.11122794,
                0.03493760,     -0.02790358,      0.07889066,     -0.02993013,
               -0.06489997,     -0.00119428,     -0.07003094,      0.13283737,
                0.04630133,     -0.03542799,      0.11638603,      0.09653731,
               -0.00341862,      0.01604829,      0.08837869,      0.05851146,
               -0.02131562,     -0.00742596,     -0.00854902,     -0.04958629,
                0.08933056,     -0.01580691,      0.01660818,      0.10071774,
               -0.07534450,      0.02043029,     -0.10972431,      0.07635561,
                0.01296612,     -0.00006626,      0.15699889,     -0.00718026,
                0.09527102,      0.08095417,     -0.06664436,     -0.05353222,
                0.12271116,      0.00104492,      0.02361238,      0.14345472,
                0.02476266,      0.03199545,     -0.04028763,     -0.00888535,
               -0.00319861,      0.03224779,     -0.06760389,     -0.03344970,
                0.02914640,      0.00796232,      0.09315199,     -0.04744997,
               -0.03496528,      0.04348236,      0.05691965,     -0.00929964,
                0.01192854,     -0.06154437,     -0.00591506,      0.01260744,
                0.00990455,     -0.00499051,     -0.03732916,     -0.01305244,
               -0.01566614,     -0.00355060,      0.05536704,     -0.05639333,
                0.11427161,      0.01804847,      0.03403239,     -0.11488171,
                0.17669955,      0.03245304,     -0.00452677,     -0.03988087,
                0.08453808,     -0.06361797,     -0.11071144,      0.00853085,
                0.11144836,      0.02317266,      0.06898520,      0.28073427,
               -0.03838400,      0.02602700,     -0.02690407,      0.04144277,
                0.08077840,      0.07576241,      0.05377150,      0.00191522,
               -0.05822299,      0.03998068,      0.10727254,     -0.14510530,
               -0.04029523,      0.09982256,     -0.14525053,     -0.00845231,
                0.02594170,      0.01248739,     -0.06116389,      0.08623025,
               -0.08666315,     -0.02547336,      0.01585894,     -0.03605905,
                0.01628723,     -0.01675744,     -0.05082064,     -0.05603778,
               -0.06036402,      0.09613243,      0.05140647,     -0.06890055,
                0.05482706,     -0.02216711,      0.17311741,     -0.05973088,
                0.01144296,     -0.03027619,     -0.03652130,      0.02947290,
               -0.07038907,     -0.02284071,     -0.01965398,     -0.02967097,
               -0.03602330,     -0.06922955,      0.01503659,     -0.02139542,
                0.00375303,      0.12693332,      0.01497460,      0.02840493,
               -0.02144560,     -0.03453233,      0.01326027,     -0.05520980,
                0.10261617,      0.19796915,     -0.07546629,     -0.02697762,
                0.05700729,     -0.19320838,     -0.04301547,     -0.16706505,
               -0.02020550,     -0.08860202,      0.07620835,     -0.03466308,
                0.09982362,      0.04467590,     -0.00230485,     -0.00870748,
               -0.05484955,     -0.01739883,     -0.02715036,      0.00139639,
               -0.03566064,     -0.02783796,     -0.03020214,     -0.02152690,
                0.02549160,      0.01508826,     -0.47439599,     -0.00801226,
                0.14181010,     -0.24860330,      0.01516971,      0.25037473,
               -0.03934177,      0.01444141,      0.10530528,     -0.09839316,
               -0.03206880,     -0.00930384,      0.07823154,     -0.06844158,
                0.15216351,     -0.00097222,      0.01637480,      0.00691193,
                0.02549885,     -0.03942946,      0.00860366,      0.04046845,
                0.08170229,      0.07157765,      0.12632652,      0.04041151,
                0.01450058,     -0.07151773,      0.00825498,     -0.03651708,
               -0.10987362,     -0.02881099,     -0.03152748,      0.06721853,
               -0.01916245,     -0.03330014,     -0.01077958,      0.05864616,
                0.19352238,     -0.03093784,     -0.03476958,     -0.02963903,
                0.00228823,     -0.01216193,      0.01026838,      0.02694246,
                0.08262582,      0.02625761,      0.01469809,     -0.01427860,
               -0.24831952,     -0.01503022,      0.08734924,      0.06306569,
               -0.14711909,      0.06688456,     -0.12228040,     -0.13123839,
                0.00974630,      0.01748809,     -0.01890149,      0.01305136,
               -0.02009409,     -0.01008742,     -0.00058855,     -0.01600135,
               -0.01271311,     -0.03412785,     -0.02254354,      0.14320198,
               -0.02003790,     -0.03159564,      0.01423403,     -0.10518823,
               -0.07314390,     -0.04735332,     -0.08593738,     -0.00463111,
               -0.02296143,      0.00198710,      0.00971811,      0.07761155,
                0.00102906,      0.08345921,     -0.00645693,     -0.03231399,
               -0.01374305,      0.02011890,      0.10311235,      0.03084473,
                0.04611503,      0.12466329,      0.05482949,      0.64328212,
               -0.00242317,      0.09082446,     -0.01556760,      0.04701964,
                0.15895461,     -0.02146887,     -0.02817649,     -0.01322766,
               -0.03689216,     -0.07843423,      0.06214659,     -0.02635333,
                0.04835013,      0.15208082,     -0.05344850,     -0.00829252,
                0.02830298,     -0.04231397,      0.00531820,     -0.07816190,
                0.06701385,     -0.01296820,     -0.30786479,      0.22379211,
                0.04581987,     -0.07977029,     -0.08156537,     -0.00275790,
               -0.07189143,      0.02720194,      0.05086146,      0.06919058,
               -0.04523469,     -0.06334711,     -0.01104651,     -0.00850427,
                0.01672903,     -0.01481819,     -0.05530893,     -0.00283192,
                0.02480614,      0.01946253,      0.05448229,     -0.11609878,
                0.01720346,     -0.15994386,      0.04049481,      0.11525562,
                0.03239152,      0.06219171,     -0.05042994,      0.02869233,
               -0.11950888,     -0.05634882,      0.11392011,      0.09859934,
               -0.25453353,      0.02168743,     -0.00647961,      0.06501269,
                0.06055849,     -0.00947894,      0.03111592,      0.02115108,
               -0.01746986,      0.03867553,     -0.05867385,      0.07124337,
                0.03290382,      0.03806467,      0.09732476,      0.04427794,
                0.01688040,     -0.04311432,      0.05441641,      0.14989832,
               -0.01780210,      0.03779810,      0.02607033,     -0.03321562,
                0.04173889,     -0.08936257,      0.04459940,      0.01456144,
               -0.03365685,     -0.01358458,     -0.16982050,     -0.02977727,
                0.10251455,     -0.00607952,     -0.00705083,     -0.14080705,
               -0.05582825,     -0.00784723,     -0.04527194,     -0.03129616,
               -0.02971620,      0.10092476,      0.00301863,      0.04283921,
               -0.03548985,     -0.07008263,     -0.06704371,      0.00067076,
                0.21144658,      0.10674186,      0.04694898,     -0.05008051,
                0.01293623,     -0.13771492,      0.02851691,     -0.09100999,
                0.11898738,      0.02293600,     -0.00341690,      0.00634972,
               -0.06080820,      0.03957017,     -0.01947060,     -0.08131626,
               -0.03863168,     -0.01079795,     -0.01705031,     -0.06355304,
                0.02427977,     -0.03484534,      0.18667702,     -0.04224820,
               -0.12440231,      0.05038115,     -0.01050363,     -0.14803888,
                0.13509449,     -0.02288240,      0.00217476,      0.41903418,
                0.01462098,     -0.00268240,      0.00174008,     -0.03839468,
                0.10155784,     -0.10463612,     -0.05231380,     -0.01162226,
               -0.02987978,     -0.06995222,      0.04991180,      0.01611194,
               -0.08160872,      0.00631930,     -0.11348112,      0.04959589,
               -0.05113313,      0.02766774,      0.02760928,     -0.04975543,
                0.36842811,      0.05310529,      0.16513932,      0.02804510,
                0.04115311,     -0.09392387,     -0.02666248,      0.02894011,
                0.06349357,     -0.02356185,      0.04534065,      0.00356087,
                0.10610346,      0.09453153,     -0.00760141,     -0.01800929,
                0.06095943,     -0.16486503,     -0.08397703,      0.17975175,
               -0.10698735,      0.04161796,     -0.10520267,     -0.01257909,
                0.13075298,     -0.00440427,      0.07665203,     -0.02654631,
                0.15000305,     -0.01042638,      0.03209458,      0.10666916,
                0.02406698,      0.09517732,     -0.06936751,      0.07370961,
                0.08488772,     -0.05130541,      0.11895679,     -0.12799071,
               -0.07782992,     -0.00404107,     -0.03069061,      0.10512763,
               -0.04882714,      0.02457422,     -0.00011070,     -0.06288652,
                0.19464779,      0.01117732,     -0.00668498,     -0.04368012,
                0.02957908,     -0.02429479,      0.06962106,     -0.01877629,
                0.12816472,     -0.03847582,      0.01526198,     -0.01799149,
               -0.01922290,     -0.10257028,      0.11885133,     -0.04771625,
               -0.00645434,     -0.00011354,     -0.00903866,     -0.03181954,
               -0.03634556,      0.01200607,      0.05441636,      0.14339890,
                0.13541718,     -0.04356832,     -0.07209539,      0.04505805,
                0.02091936,     -0.04647612,     -0.00418955,      0.00385013,
               -0.02888958,     -0.05976738,      0.04737931,     -0.04831800,
               -0.24458784,     -0.02513842,      0.05242921,      0.07327370,
                0.03334919,      0.04006824,      0.06058942,      0.07995801,
               -0.04206118,      0.05406307,      0.05798388,     -0.02220262,
                0.01880617,      0.13736612,      0.14851639,     -0.01737440,
               -0.01327184,     -0.06135644,      0.02774687,      0.20029502,
               -0.03945776,      0.01600955,     -0.01149553,     -0.24312705,
               -0.07006969,     -0.01093941,     -0.14295298,      0.01669418,
                0.03444145,     -0.04796084,      0.08345133,     -0.07645021,
               -0.03453742,     -0.02651294,     -0.00863583,     -0.05497730,
                0.05339342,     -0.09398316,     -0.02042161,     -0.10935999,
                0.05617957,      0.05426208,      0.10877771,      0.04880677,
               -0.02518260,     -0.04698882,      0.11803462,      0.02192255,
                0.05711973,     -0.03500193,     -0.10759719,      0.03124931,
                0.23337111,     -0.06368800,     -0.01942397,      0.00869979,
                0.04804406,     -0.05653038,      0.01628601,     -0.00163649,
               -0.05589612,      0.00896956,     -0.04955611,     -0.01112715,
               -0.06521163,      0.03209477,     -0.16731115,     -0.06466465,
               -0.03842424,     -0.03753893,     -0.01961096,     -0.03049796,
               -0.19527245,     -0.04220894,     -0.17205285,      0.00036114,
               -0.04674703,     -0.02875816,     -0.01857282,     -0.00822055,
               -0.02138519,      0.09127501,     -0.35751337,     -0.02010212,
               -0.05675580,      0.12500466,     -0.07804589,      0.16239254,
               -0.18351084,     -0.02710833,     -0.00671471,      0.01187326,
               -0.01404892,     -0.09045725,      0.34848425,      0.02049076,
                0.01350995,     -0.13874103,      0.06882998,      0.01063518,
                0.02474897,     -0.03690400,     -0.16679761,     -0.01287899,
                0.11893459,      0.00482616,      0.03756392,      0.02809467,
               -0.03614793,      0.01909004,     -0.05991169,     -0.01783191,
               -0.01691471,     -0.27574575,     -0.00534381,     -0.05042704,
                0.03101719,     -0.01696199,      0.00794626,      0.01107705,
                0.15160820,      0.04268810,     -0.10132030,      0.01773168,
               -0.08542725,     -0.24296194,     -0.16754404,      0.00239972,
               -0.01881466,     -0.00526059,      0.20964992,      0.01616435,
               -0.03897664,      0.05764237,      0.01199191,     -0.00211270,
               -0.07947271,      0.09025750,     -0.06512738,     -0.07945120,
               -0.00775474,      0.10692792,     -0.02867054,     -0.04752283,
                0.14024545,     -0.02062047,     -0.06068033,     -0.00700307,
               -0.15883106,     -0.08177590,     -0.02837577,      0.19978255,
               -0.01044870,     -0.07056618,      0.03018445,     -0.01327301,
                0.00064788,     -0.01307404,     -0.07689291,      0.10770099,
               -0.07404125,     -0.00703249,      0.05291017,      0.01905201,
                0.01361797,      0.03314930,      0.18094318,      0.01293465,
                0.04284311,     -0.02954599,      0.05131320,     -0.01771904,
                0.01108238,      0.01421341,     -0.01278067,      0.03191739,
               -0.06504958,     -0.11418655,      0.00204708,     -0.12601487,
               -0.04548344,     -0.08753793,     -0.00089693,      0.05150487,
                0.27259219,     -0.03391938,      0.04533923,      0.06978016,
               -0.02205599,      0.01616148,      0.00671636,      0.04592023,
                0.01473184,     -0.00235723,     -0.01170678,      0.01551956,
                0.13725078,      0.00292122,     -0.01205172,     -0.04129089,
                0.08671887,      0.08177315,      0.12092184,      0.03895310,
               -0.11891168,      0.04428006,     -0.02708401,      0.05973608,
                0.05199485,     -0.04360199,     -0.01788082,      0.03281398,
                0.07486020,      0.01370814,      0.02117405,      0.10439675,
                0.18571857,      0.00397682,      0.02907059,     -0.00777794,
                0.01712336,      0.00899391,      0.06038365,      0.01084539,
                0.00828188,      0.01560481,      0.00438399,      0.06551076,
                0.01052005,      0.05321209,     -0.03277727,      0.01635381,
                0.01480140,      0.04397809,      0.19332318,      0.03549265,
               -0.03883376,      0.09415617,     -0.08352538,      0.13946083,
                0.03855701,     -0.07524700,     -0.00188973,      0.01557280,
               -0.05993584,     -0.02533601,     -0.05511478,      0.01041154,
                0.02282493,      0.06687062,     -0.10488801,      0.06023466,
                0.03438931,     -0.00368053,     -0.04208751,     -0.04232354,
               -0.02710338,      0.01350869,     -0.05392654,     -0.11520539,
                0.15144855,     -0.06617788,      0.07294147,     -0.13443327,
               -0.01526853,      0.06116048,      0.04899053,     -0.02947895,
               -0.02301111,     -0.03314779,     -0.23637372,     -0.01233831,
                0.15870409,      0.06236997,     -0.02291545,     -0.02060824,
                0.04314508,      0.00598123,      0.11152086,      0.07874013,
               -0.01954411,      0.07157710,      0.06480679,     -0.40433809,
                0.00485535,      0.01716203,     -0.47192001,      0.10026334,
                0.05384968,      0.01437768,      0.13446914,     -0.24739486,
                0.01178174,      0.18075545,     -0.07672847,     -0.09625639,
                0.04703064,      0.01038618,     -0.00962106,      0.08471538,
                0.16637677,     -0.03257739,     -0.08642762,      0.17163447,
               -0.01495148,     -0.00354864,     -0.05519663,     -0.05921847,
               -0.11637390,     -0.02684364,     -0.11479849,      0.08811982,
               -0.09632655,      0.03433969,      0.00158044,     -0.00582836,
                0.02851740,     -0.09307469,      0.02881554,      0.05341143,
                0.16062057,     -0.15464903,     -0.01662852,      0.02779195,
                0.00687533,     -0.05580234,     -0.09276976,     -0.02316418,
               -0.13131985,      0.00121718,      0.04560445,      0.01012958,
                0.03111387,      0.04138679,      0.00265649,      0.03102386,
                0.00110989,      0.03987299,      0.02137737,      0.06149322,
                0.00788133,     -0.00262767,     -0.08473569,     -0.04243329,
               -0.01232293,     -0.01952356,     -0.11913238,      0.08169329,
                0.04585736,      0.02321783,      0.05024055,      0.16901685,
               -0.03658952,     -0.01603735,      0.04957737,      0.04404601,
                0.12802470,      0.05886133,     -0.03529607,      0.00170117,
                0.04445392,     -0.01303265,     -0.10720649,      0.00599332,
               -0.04447186,      0.03062407,     -0.00001817,     -0.00038891,
                0.10602263,     -0.01753371,     -0.07595935,     -0.10272434,
               -0.17610943,      0.02839371,     -0.04688477,      0.02977516,
                0.04183024,      0.03808771,     -0.00269909,     -0.01742624,
               -0.22468998,      0.01046296,      0.03131904,      0.04220833,
                0.02906910,     -0.00736786,      0.20164576,      0.01951932,
               -0.01718968,      0.03012571,     -0.07065849,     -0.01856789,
               -0.02072982,      0.01720790,     -0.01987769,     -0.03047159,
               -0.17564182,     -0.48503649,     -0.03417136,      0.13822152,
                0.12559786,      0.05979941,     -0.00778496,      0.02449826,
                0.01333325,      0.03112593,      0.01605510,      0.02709846,
               -0.03741295,     -0.05837064,      0.02527536,     -0.00634695,
                0.16369925,     -0.12073786,      0.00149235,     -0.30870104,
               -0.01796979,      0.03606926,     -0.02724264,     -0.09321304,
                0.01775862,      0.04274281,      0.03504978,     -0.00208748,
               -0.09947773,     -0.01003589,      0.02704423,      0.03989240,
                0.04153608,      0.09627027,      0.12029319,     -0.03758053,
                0.06438243,      0.07915843,     -0.09440646,     -0.01841715,
                0.01796968,      0.03447011,      0.19651270,      0.07145159,
                0.09062278,      0.01594247,     -0.04224652,     -0.04004402,
                0.43001321,      0.07412231,     -0.02859401,      0.02842949,
               -0.00285467,      0.05901622,     -0.07883453,     -0.04339074,
               -0.14427051,      0.15960532,      0.04332858,      0.00571980,
               -0.00512267,      0.06129149,     -0.07939977,     -0.14489989,
                0.01626856,      0.00122191,      0.06118154,      0.04631631,
                0.02377491,      0.05483605,      0.09015248,     -0.04428652,
                0.00634040,      0.09040730,      0.08862085,      0.05518669,
                0.09725988,     -0.03185983,      0.19991535,      0.02514590,
                0.02310613,     -0.07794872,      0.02124796,     -0.01337096,
               -0.11946477,     -0.02138168,      0.03243230,      0.01331924,
               -0.23468861,      0.05766878,      0.15053922,      0.01338662,
                0.00632397,     -0.05590424,      0.05402930,      0.01247959,
               -0.00718005,      0.04704953,     -0.04326914,     -0.00549007,
               -0.03784657,      0.02581706,     -0.13984968,     -0.54826450,
               -0.10956930,      0.06650317,      0.02758488,     -0.07109911,
               -0.02785798,      0.07643195,      0.05340469,     -0.01930398,
                0.00716822,     -0.03505111,     -0.10558373,     -0.00511243,
               -0.00874348,     -0.05888951,     -0.05647070,      0.20680992,
               -0.00701739,     -0.02167734,      0.05063301,      0.11596992,
                0.29447484,      0.04829972,     -0.06046312,      0.01027237,
               -0.02147336,      0.07828040,     -0.25269791,     -0.03371869,
                0.07561778,      0.01387247,     -0.03995737,     -0.11942060,
               -0.14216180,     -0.06174093,     -0.03478583,      0.05789440,
               -0.12849154,      0.07311584,      0.02127649,     -0.11551394,
               -0.08820061,      0.08248156,      0.13980605,     -0.06580036,
               -0.00685552,      0.01186619,      0.03683796,     -0.02405423,
                0.01577109,     -0.03449572,     -0.01463433,      0.01978465,
               -0.14200880,     -0.00339951,      0.00250802,      0.00185431,
                0.00327635,      0.46104559,      0.02262796,      0.03375220,
               -0.00319838,      0.13930428,      0.09529676,     -0.08732918,
                0.00808458,      0.04139167,      0.00991862,      0.00163088,
                0.19652970,      0.00694774,      0.08083940,     -0.04173806,
                0.04421294,      0.15566693,     -0.13330829,     -0.00422417,
               -0.01391920,     -0.07833071,      0.00362121,     -0.06664158,
                0.03167683,     -0.03349705,      0.02104348,      0.00733210,
                0.02573892,      0.00144358,     -0.14480025,      0.01086671,
               -0.05073760,     -0.01040123,      0.00476382,     -0.05864210,
                0.00370314,     -0.15101182,      0.07484426,     -0.08347969,
                0.07533279,      0.05609471,      0.07937415,     -0.15194124,
                0.07880411,     -0.07780235,      0.09056486,     -0.04595063,
               -0.02080107,      0.06217790,      0.04882795,     -0.09978605,
                0.01587976,      0.17213064,     -0.02400363,     -0.00637020,
                0.08061294,      0.04282293,      0.04340529,      0.07311215,
                0.04369891,     -0.11570688,      0.00654850,     -0.03236895,
                0.01733254,      0.04623754,      0.02462402,      0.00343816,
               -0.11635975,      0.02162611,     -0.09069026,      0.00137348,
                0.12653600,      0.12601382,     -0.12697776,      0.14315474,
                0.00620089,      0.10328668,      0.18007246,     -0.09038421,
               -0.03161562,     -0.00363836,      0.15748057,      0.10925358,
               -0.09796281,     -0.20298848,      0.03795255,     -0.04242420,
               -0.15430655,      0.08035918,      0.10514372,      0.02104420,
               -0.02132463,      0.05997889,      0.03873275,     -0.03985450,
               -0.03195866,      0.00638091,      0.03122070,     -0.08909269,
                0.10439695,      0.10963402,      0.03081905,     -0.01484889,
                0.00982150,      0.11401384,     -0.04596121,      0.06154405,
               -0.08029696,     -0.01155312,      0.01946745,      0.07304493,
               -0.04626202,     -0.05191246,     -0.07838545,      0.01973253,
               -0.01172157,     -0.03021323,     -0.03337462,     -0.01972574,
                0.03231708,     -0.02436482,     -0.00968803,     -0.02678318,
                0.01327316,     -0.04752782,     -0.08169636,      0.46314436,
               -0.02033083,      0.21510684,     -0.01303542,     -0.00144769,
                0.02081484,     -0.05979452,     -0.02296148,      0.10629793,
                0.02698161,      0.00445638,      0.03804238,     -0.02508648,
                0.00118288,     -0.05386998,      0.05848237,      0.09195282,
               -0.01534954,      0.01929249,      0.10299717,      0.07435583,
               -0.01220179,     -0.02267056,      0.04091781,      0.10037733,
               -0.02137288,      0.09216025,      0.00315338,      0.02384628,
               -0.01332859,      0.00358792,     -0.03773814,      0.01435840,
               -0.16129507,      0.14088194,     -0.01438739,      0.02226076,
                0.10532743,     -0.01900636,     -0.02674099,      0.00691751,
               -0.11174438,     -0.01337992,     -0.05825474,     -0.01183866,
                0.10434990,      0.09463745,     -0.07703526,     -0.03504038,
                0.01389767,     -0.03517043,     -0.06588969,     -0.16625987,
               -0.00607965,     -0.05525451,     -0.04220600,      0.01777976,
                0.09282885,     -0.17113025,     -0.37970942,     -0.18460354,
                0.01777256,      0.02462202,     -0.06688230,     -0.10134953,
               -0.07438403,     -0.01500155,      0.48244572,      0.00288192,
                0.14213485,      0.46412429,      0.01502925,     -0.09547953,
                0.01757257,     -0.02046803,      0.19412789,     -0.02850942,
               -0.12233755,      0.23249531,     -0.00956880,      0.09598386,
                0.06666580,      0.21523269,      0.61204755,      0.09306864,
                0.03541910,     -0.07137114,      0.02718239,      0.17663801,
               -0.19325776,     -0.16764241,     -0.06888328,     -0.23022355,
                0.20124930,      0.03670152,     -0.03531917,      0.05146963,
               -0.02331459,      0.01253958,     -0.01616231,     -0.00129665,
               -0.03397479,      0.02574094,      0.00076380,     -0.19362764,
               -0.00985762,      0.02179013,     -0.12550533,     -0.03738165,
               -0.01388517,      0.00523324,      0.01027831,     -0.06612900,
                0.00661601,     -0.16633420,      0.03431414,     -0.03583713,
                0.00938063,      0.01659837,     -0.08603952,      0.01028653,
                0.01028518,     -0.00153757,     -0.09099387,      0.00946454,
                0.13459750,     -0.07022912,      0.02587636,     -0.07692459,
               -0.08610951,     -0.02885511,      0.40162358,     -0.15725997,
               -0.00015120,      0.01506236,     -0.06003672,     -0.00906071,
               -0.03143158,      0.03711956,     -0.09222585,     -0.00156969,
               -0.11772343,      0.01126762,      0.08093528,      0.08171946,
                0.00533337,     -0.00659493,     -0.06515522,      0.06643183,
                0.00015237,      0.00284731,      0.06041805,      0.02315274,
               -0.10629494,      0.08448578,      0.09716819,     -0.00176372,
               -0.05516223,     -0.10422949,     -0.00771493,     -0.26385358,
               -0.03805547,     -0.00351751,     -0.12984586,     -0.02261953,
               -0.05318533,      0.01008333,      0.07025149,      0.01012108,
               -0.00471585,     -0.03112289,      0.01339341,      0.04635851,
               -0.05913007,     -0.01229745,     -0.11817521,      0.07880479,
                0.02730711,     -0.26190197,     -0.03238408,     -0.07892607,
                0.05855425,      0.02084576,      0.17434691,      0.02943391,
                0.06108228,      0.03429456,      0.03364387,      0.07691016,
               -0.03806866,      0.02681328,     -0.06109581,     -0.00187346,
