
// Weight for Project Conv layer has dimension of  torch.Size([1, 1, 672, 112])
const float MBConv6_10_project_conv_conv2d_weights [1 * 1 * 672 * 112] =
{
0.04132003,     -0.00045914,      0.03343930,     -0.00653664,
                0.13970838,      0.04933506,      0.00700877,      0.12600884,
               -0.01576068,      0.00841286,     -0.07396870,     -0.10469337,
               -0.01290530,     -0.03073268,     -0.02480003,      0.01506380,
               -0.00735782,      0.02983772,     -0.03950253,      0.02107473,
               -0.00450726,      0.02018744,      0.07686510,     -0.05413740,
                0.02419020,      0.05585646,      0.06607260,     -0.05850577,
                0.02567490,     -0.01065806,      0.07291744,      0.04010204,
               -0.02962020,     -0.07538900,     -0.00923259,      0.02829710,
               -0.02898748,     -0.00767635,     -0.04260412,      0.05619849,
               -0.01971757,     -0.14655915,      0.05534085,     -0.01201817,
                0.05953691,      0.12995805,      0.02657736,     -0.09578610,
                0.02375259,     -0.02267666,      0.02441785,     -0.01415636,
                0.04906991,     -0.12318844,      0.03771050,      0.03026333,
                0.03859130,      0.00461318,      0.00857195,     -0.12755199,
                0.01730003,     -0.01432293,      0.00122397,     -0.04306906,
               -0.09386738,      0.01603896,      0.03130677,      0.17624038,
                0.00421769,     -0.00447483,      0.00562759,      0.00614701,
               -0.01401779,      0.03744661,      0.02679594,      0.08367998,
                0.01416029,      0.00139262,      0.02309112,      0.10353383,
               -0.05771842,     -0.01335962,      0.00490667,      0.03352847,
               -0.08609738,      0.07600227,     -0.04541366,      0.03286102,
                0.13310167,     -0.00316803,     -0.04589044,      0.01421470,
                0.05034011,      0.09971398,     -0.09283439,      0.00871333,
                0.02419173,     -0.02198525,     -0.03929622,      0.01464762,
                0.02445057,     -0.09177545,      0.11990226,      0.08031454,
                0.03077669,      0.11309552,     -0.02048434,      0.12107519,
               -0.19581646,      0.03503354,      0.03626299,      0.04924361,
                0.03022523,      0.01479012,     -0.00142238,     -0.08526783,
                0.00123036,     -0.08979389,      0.07795936,     -0.04168201,
               -0.04472957,      0.03453065,      0.01778685,     -0.01414396,
               -0.02355198,      0.02828737,      0.04665314,      0.04936613,
               -0.02123508,     -0.01558805,      0.04343861,      0.01962856,
                0.03861474,     -0.05091820,      0.11285269,     -0.02014226,
               -0.04930511,     -0.02125559,     -0.11727167,     -0.07085957,
               -0.10790976,      0.07596619,      0.09651452,     -0.03336678,
               -0.02516703,      0.07830162,      0.01667801,      0.07775752,
                0.03442686,      0.01220507,     -0.05242459,     -0.01798409,
               -0.06115363,      0.00758165,      0.05440325,     -0.02435891,
                0.06195519,      0.09438276,     -0.01500215,      0.09588197,
               -0.03236163,     -0.09410261,      0.00395730,      0.06306930,
                0.07591736,     -0.02586726,     -0.02960548,      0.06536205,
                0.02414037,     -0.00177677,     -0.10170473,     -0.05254914,
                0.03015934,      0.00058355,     -0.06493087,      0.07393724,
               -0.00184636,     -0.02236492,      0.02839380,     -0.03144189,
                0.00064431,      0.03094862,     -0.16460988,     -0.04098701,
               -0.00879107,     -0.03161855,     -0.09363782,      0.05975114,
               -0.03696217,      0.01438126,     -0.00488586,      0.01918512,
               -0.01703394,     -0.01218884,     -0.01992385,      0.01056259,
                0.09216897,      0.01801449,      0.02029921,      0.15408601,
                0.03502350,      0.01814749,      0.11458316,      0.07068188,
               -0.05912179,     -0.06033464,     -0.06396163,     -0.06936329,
               -0.04007576,      0.05114142,      0.05186092,     -0.03534464,
               -0.01897187,      0.01870896,     -0.06155274,     -0.03386423,
                0.01394315,     -0.03619445,      0.04664482,     -0.05622803,
                0.00037207,      0.03149921,      0.05300146,     -0.02159774,
               -0.09212987,      0.03987179,      0.08884640,      0.01916093,
               -0.11772741,      0.01936552,      0.00952375,     -0.01482404,
               -0.08239765,     -0.05201126,      0.02319649,      0.01898552,
               -0.07691030,      0.03046507,      0.05220803,     -0.04927395,
               -0.04018201,     -0.00395948,      0.07268757,     -0.00416354,
               -0.00714382,     -0.11422879,      0.00230917,      0.08708545,
               -0.01366278,     -0.07889065,     -0.16697468,     -0.10253859,
               -0.01243223,     -0.06011131,      0.02502670,     -0.00483144,
                0.01734211,      0.01565510,      0.00032040,     -0.03016714,
                0.03212817,     -0.04868037,     -0.04379198,      0.08245645,
                0.03163501,      0.10083748,      0.02884386,     -0.04531885,
               -0.00242655,     -0.00971832,     -0.11438450,     -0.05820302,
                0.13578773,     -0.00783583,      0.02707786,     -0.00437269,
               -0.00002009,     -0.03779383,     -0.00288361,      0.08458502,
                0.11874144,      0.02276725,      0.03591166,      0.10105909,
                0.05882077,      0.04165630,     -0.01800906,      0.04148143,
                0.01548407,      0.00717452,      0.04071117,      0.13904817,
               -0.01332985,      0.10269294,      0.05472603,     -0.07287978,
               -0.03266553,     -0.09775308,     -0.07460876,     -0.02607556,
               -0.02002928,      0.12353412,      0.03496476,      0.09654536,
               -0.03135671,      0.04086995,      0.00894620,      0.00183835,
               -0.02272940,      0.02216834,      0.01205453,      0.05899451,
                0.00682313,     -0.05050970,     -0.04645327,      0.07845169,
                0.04398825,     -0.02041672,      0.00407151,      0.09366154,
               -0.05654894,      0.11400419,     -0.01808509,      0.04495733,
               -0.15107100,     -0.06101787,     -0.08445841,      0.02338908,
                0.02546361,      0.04263834,     -0.05962325,     -0.03482689,
                0.00736717,      0.01629116,      0.04711410,     -0.08863972,
                0.02382355,     -0.01409063,     -0.05493964,      0.04138963,
               -0.03503088,     -0.01754062,     -0.03160045,     -0.07530431,
               -0.02989776,     -0.03275622,      0.08779513,     -0.02123511,
               -0.13319598,      0.01872066,     -0.04437869,      0.03340008,
               -0.00465442,      0.02287873,      0.03632689,     -0.03981737,
               -0.06710684,      0.09774806,      0.02427696,     -0.06624344,
               -0.05309915,     -0.22689947,      0.04660337,     -0.06151203,
               -0.05013040,     -0.00761318,      0.06199131,      0.00521068,
               -0.07090801,     -0.03685578,     -0.02821600,      0.00837121,
                0.13511074,     -0.04870601,      0.00994914,      0.03735478,
                0.11220440,     -0.01423936,     -0.10626420,     -0.02030372,
                0.03694966,      0.00740298,     -0.01575507,      0.07657399,
                0.01783568,      0.06845459,     -0.10685845,     -0.07020196,
                0.07258950,      0.00015500,     -0.11577469,     -0.00665146,
               -0.05081665,      0.07212503,     -0.00559182,     -0.05989268,
                0.10540941,      0.02034868,      0.06711245,      0.07173502,
               -0.06480943,     -0.08325801,      0.04109771,      0.01495433,
                0.08593222,     -0.06757457,     -0.06429077,      0.02344859,
               -0.08303572,      0.01869691,      0.05196495,      0.05354781,
                0.07108032,     -0.04720057,     -0.00312732,      0.05246633,
               -0.11726655,     -0.05534323,      0.05352363,      0.00849475,
                0.09311669,     -0.05244598,      0.02247079,     -0.19411521,
               -0.05189512,     -0.03103901,     -0.03642076,      0.01926472,
                0.13062784,     -0.00582958,     -0.04272446,     -0.05881058,
               -0.00687515,      0.01608409,     -0.09846961,     -0.07213849,
                0.01674511,      0.09182107,     -0.04227065,      0.07847486,
               -0.07503340,     -0.00414244,     -0.05065265,      0.07821106,
               -0.01444179,      0.00128457,      0.04596196,     -0.04717916,
               -0.02481968,     -0.06031432,      0.06726471,      0.01737029,
                0.05064943,      0.02510745,     -0.02464461,     -0.09252509,
                0.04035115,      0.05738232,      0.05948161,      0.00005753,
               -0.06594018,      0.05473007,     -0.00371459,     -0.11897757,
               -0.13926752,      0.14389430,      0.03945960,     -0.02474215,
               -0.09279152,      0.07315216,      0.02959332,      0.08960876,
               -0.02119190,     -0.02620154,     -0.04641332,      0.01682128,
               -0.01288972,     -0.00533370,     -0.08156259,      0.03449264,
                0.03247881,      0.00299011,     -0.07119580,     -0.01687701,
                0.01101285,      0.04824157,     -0.13712817,      0.02790654,
                0.08357348,      0.02316447,     -0.08594104,     -0.00200200,
                0.00494972,      0.08569705,     -0.00188801,      0.09549674,
               -0.05594623,      0.04184954,     -0.04448560,     -0.01613455,
               -0.00181525,      0.02120985,      0.03541521,      0.10852519,
                0.04200482,     -0.00846624,      0.13178138,      0.00641857,
               -0.07960134,     -0.01395401,     -0.04330997,     -0.00676478,
               -0.02262069,      0.04458042,      0.03076185,     -0.03913073,
                0.03991451,      0.01835774,     -0.05060825,     -0.01337217,
               -0.09796275,     -0.11104645,     -0.00913993,     -0.11259052,
               -0.03081233,     -0.00907629,      0.00288169,      0.00723052,
                0.09750524,      0.03438981,      0.01632025,      0.02480344,
               -0.02753765,     -0.01603830,      0.00310836,     -0.02399151,
                0.04819221,      0.06100247,      0.06828453,     -0.00560827,
               -0.04423559,      0.03825515,     -0.01270216,      0.02691185,
               -0.03728360,     -0.01872940,      0.04649513,     -0.00480555,
               -0.01834587,     -0.02521883,     -0.10220609,     -0.07914403,
               -0.05416376,     -0.08028465,      0.04370302,     -0.04048041,
                0.00625901,     -0.03676453,      0.00038431,      0.06129315,
               -0.02695145,     -0.06077222,      0.00045292,      0.17242788,
               -0.01683951,      0.06794545,     -0.02578244,     -0.01334588,
               -0.02738993,     -0.07524691,     -0.15508167,      0.11960720,
               -0.05014385,      0.00308310,     -0.11740291,     -0.09101724,
                0.12042143,     -0.00416012,      0.02967911,     -0.00504344,
                0.09868133,     -0.05174766,     -0.08364983,     -0.09656444,
                0.03863420,     -0.01384182,     -0.07372196,     -0.09221312,
                0.03167965,      0.01181929,      0.09354761,     -0.05954728,
               -0.03654071,      0.06605579,      0.01337438,     -0.00951278,
                0.00459908,     -0.01292011,     -0.03211137,      0.07559650,
               -0.00769848,      0.00115607,      0.06348948,      0.10363033,
                0.06961831,     -0.02816068,     -0.01750892,      0.08193792,
               -0.15715796,     -0.00665245,     -0.16148439,     -0.03747682,
               -0.01733710,     -0.03187780,      0.05430031,     -0.00184949,
                0.03866205,      0.06857916,      0.04467313,      0.04436534,
               -0.09254765,     -0.05117569,      0.00397756,      0.08918568,
                0.02238393,      0.08965955,      0.00762440,     -0.00864165,
               -0.04680323,      0.01395360,      0.04249552,      0.14862277,
               -0.05745263,      0.07986955,      0.00129093,      0.02043184,
               -0.06011057,     -0.04924334,      0.06096771,     -0.01751097,
                0.07934783,      0.00704611,     -0.03349797,     -0.01741300,
                0.03012740,      0.03930223,      0.01364948,     -0.14295742,
               -0.00948572,     -0.00399320,     -0.02567783,      0.05987670,
                0.01491312,     -0.08906462,      0.00965090,      0.03558081,
                0.01990487,     -0.04405381,     -0.04468300,      0.00522432,
               -0.03147267,      0.10459524,      0.01894234,     -0.06755931,
               -0.07841352,      0.06412096,     -0.00037295,     -0.13512707,
                0.00128432,     -0.13424827,      0.04330747,     -0.07671330,
                0.16033901,     -0.01926322,     -0.00290711,      0.05468953,
               -0.04233288,     -0.11483213,      0.03452078,     -0.00465597,
               -0.08325639,      0.05221502,      0.01499694,      0.12833682,
                0.03814197,      0.02843047,     -0.00287948,      0.00192802,
                0.00512373,      0.08992804,      0.02681032,     -0.10715386,
                0.00986355,     -0.08719791,     -0.03965132,      0.01614316,
                0.09404863,      0.09713255,      0.03660768,      0.16437724,
               -0.08864573,     -0.06699437,     -0.08865324,      0.08914937,
               -0.08007078,      0.02443549,      0.04764077,     -0.16345817,
                0.04155173,     -0.01771330,      0.00175149,     -0.00840918,
               -0.07172230,     -0.00598349,     -0.06088894,      0.02373878,
                0.08320661,      0.07133574,     -0.01954002,      0.01057125,
               -0.08889821,      0.01907235,      0.03995317,     -0.02172662,
               -0.02603363,      0.18048128,      0.01462829,      0.02614762,
                0.02097628,      0.05976431,     -0.06142620,      0.06740057,
               -0.00687354,      0.06312231,      0.00057445,     -0.02877063,
               -0.00044226,      0.05560317,     -0.11348536,     -0.00372233,
                0.01727190,     -0.11368414,      0.07868557,     -0.04253116,
               -0.03714586,     -0.04553852,     -0.08931770,     -0.02012290,
                0.04107705,      0.00763214,      0.05197329,     -0.05723854,
               -0.05442774,      0.05932283,      0.12285100,     -0.00458967,
                0.07324959,      0.05491566,      0.06248523,     -0.09070867,
                0.01331093,      0.05347022,     -0.01214607,      0.01666001,
               -0.01576546,      0.05055704,      0.00208507,      0.06769895,
                0.10836627,     -0.18715222,     -0.06079615,      0.03906177,
                0.00232413,     -0.03956512,      0.01838147,     -0.01313611,
                0.04469395,     -0.09830567,      0.06540140,     -0.00300490,
               -0.01415278,      0.02127259,      0.05619597,     -0.03974040,
               -0.15723589,     -0.07408719,      0.00948621,     -0.07154359,
                0.03909689,      0.10653270,      0.08710120,     -0.00049789,
               -0.06920616,     -0.03304382,      0.10230680,     -0.06032121,
               -0.00109403,      0.03640091,     -0.13616215,      0.06084963,
                0.06811534,     -0.06556222,      0.00679490,     -0.09426822,
               -0.09702606,      0.08251138,     -0.05675437,     -0.09839736,
               -0.01990311,      0.02116489,     -0.04994119,     -0.02436568,
               -0.02868159,     -0.03541219,     -0.01675327,      0.03116168,
                0.03884196,     -0.04188988,     -0.00605430,      0.14263281,
               -0.05734506,     -0.08569907,     -0.09138655,     -0.02265581,
               -0.03938552,      0.00025539,      0.18143623,     -0.02125015,
               -0.05774493,     -0.07532284,      0.00424088,      0.03846749,
                0.06459870,      0.09264456,      0.04916191,      0.04900534,
                0.03175221,     -0.04162278,      0.02763878,     -0.06429642,
                0.05459034,      0.00763877,      0.02023059,      0.04636841,
               -0.03056555,     -0.06081571,      0.02503651,      0.03248683,
               -0.03690157,     -0.13457082,      0.00005127,      0.02364122,
               -0.10518854,      0.00000309,      0.09254824,     -0.09512242,
               -0.07888521,     -0.01626984,      0.06219015,     -0.00846959,
               -0.01882288,      0.04038890,      0.02196784,      0.01673082,
               -0.13895842,     -0.03028229,      0.07282215,     -0.03560981,
               -0.02408984,      0.06116492,      0.07925528,      0.01586122,
                0.10483576,      0.10339400,     -0.14967905,      0.09584572,
               -0.03435127,     -0.02569680,     -0.14194563,      0.05531111,
                0.09076717,      0.01825825,     -0.03804056,     -0.02297650,
               -0.02706839,      0.01400397,     -0.11800534,      0.00571789,
               -0.10029092,      0.03783076,     -0.05147078,      0.01961720,
                0.08844618,     -0.00675356,     -0.02324278,      0.10408566,
                0.02795241,     -0.06277398,     -0.00385976,     -0.03290704,
                0.11618925,     -0.01904466,      0.04139067,     -0.00764568,
               -0.11259560,      0.00598850,      0.00410237,      0.16949867,
                0.03925749,     -0.05072608,     -0.07281354,     -0.11660474,
                0.04087814,     -0.01155180,     -0.04685008,      0.06009650,
                0.03793147,     -0.01323224,     -0.06457888,     -0.05460880,
               -0.02180722,      0.01935524,      0.01742920,      0.06255951,
                0.03192755,      0.03578001,     -0.01246578,      0.08504973,
               -0.06046139,      0.06376105,     -0.06441751,      0.02824268,
               -0.05070781,     -0.03984141,     -0.07978547,      0.03011419,
                0.02061109,      0.08760965,      0.12340593,     -0.00158352,
                0.02230138,      0.05878023,     -0.04557287,     -0.02397004,
               -0.01549038,     -0.03251919,     -0.08281694,      0.01745152,
               -0.05662579,     -0.02042561,     -0.05270040,     -0.04514678,
                0.01235062,     -0.04464507,      0.05325210,     -0.08974648,
                0.01704640,     -0.10007198,      0.10991950,      0.07329798,
                0.04713745,     -0.10554146,     -0.05910036,      0.07130949,
               -0.19560339,     -0.01526256,      0.01129833,      0.03238482,
               -0.21291526,      0.10024761,     -0.01679865,     -0.12108481,
                0.06788100,     -0.01494062,     -0.05050907,      0.03908149,
               -0.01330098,     -0.06687749,      0.07468151,     -0.01065155,
                0.05968496,     -0.00385142,     -0.01021419,     -0.14725107,
               -0.05351397,     -0.09225464,      0.14287764,     -0.04672693,
                0.04662944,      0.05238127,     -0.06015692,     -0.00715306,
               -0.01994274,      0.07215340,      0.04422506,      0.12437874,
                0.05077707,     -0.06598489,      0.05999633,     -0.06224644,
               -0.00599688,     -0.01911540,      0.02399397,      0.00747823,
               -0.00209895,      0.07141967,     -0.05998788,      0.02320166,
                0.01716970,     -0.01835241,      0.05115684,      0.00691031,
               -0.01897369,     -0.03914569,      0.02564688,      0.03245718,
               -0.05913657,     -0.04550394,     -0.05172484,     -0.00118446,
                0.00370751,     -0.03433462,      0.09702259,      0.07178301,
               -0.01046128,      0.01415103,     -0.06529265,     -0.09113309,
                0.02587586,     -0.00227030,     -0.11549116,     -0.01219884,
                0.01803411,      0.05410272,      0.01680714,      0.08079287,
                0.12754658,      0.05022031,      0.05107506,     -0.02420897,
                0.00989632,      0.05908973,      0.10954110,      0.03245651,
               -0.01803599,     -0.06222867,      0.04517996,      0.01537950,
                0.01778627,      0.05585319,     -0.08662941,     -0.10708296,
               -0.02676305,      0.03081897,     -0.00405804,      0.07413299,
               -0.00343049,      0.01243741,     -0.06178430,     -0.01925919,
               -0.17106467,     -0.02732493,      0.01241480,     -0.02198289,
                0.00472424,      0.03440678,      0.01509437,      0.03327651,
               -0.01046240,     -0.09909674,     -0.12151729,     -0.00741022,
                0.06642821,     -0.06362271,      0.10762104,     -0.00834435,
                0.03961033,      0.00440940,      0.07667562,      0.05599589,
                0.01879367,     -0.00254038,      0.05974513,      0.03507817,
                0.00671850,     -0.00297655,      0.00428351,     -0.05246574,
                0.03454633,     -0.12311679,      0.04602546,      0.06001451,
               -0.23368339,      0.10099345,     -0.02264314,      0.17527267,
               -0.06114865,     -0.02303942,     -0.02109355,     -0.01333524,
                0.01692819,     -0.03224168,     -0.06314863,     -0.08362674,
                0.09048155,      0.01594191,     -0.06506195,      0.12529965,
               -0.03033155,      0.08069248,     -0.07901143,      0.06271946,
               -0.03334714,      0.02869710,     -0.00132949,     -0.03915195,
               -0.00171983,     -0.03943172,     -0.03640522,      0.08276128,
               -0.01403348,     -0.04387766,      0.04480929,      0.06921984,
               -0.09476077,     -0.04926027,      0.06626095,      0.15744807,
               -0.01316109,     -0.06976560,      0.08943811,     -0.05102130,
                0.09090554,      0.14673208,     -0.04362658,     -0.00281408,
               -0.03611658,      0.10220243,      0.09730487,     -0.01274203,
                0.10173155,     -0.03357710,     -0.01013720,      0.05126891,
                0.09676290,      0.05700196,     -0.02125981,      0.04268992,
               -0.12286413,      0.14186527,     -0.01485644,      0.03166026,
                0.07918034,     -0.06966765,      0.04190745,     -0.06340518,
                0.01354441,     -0.05909105,      0.11849682,      0.07703894,
               -0.02257006,      0.08594383,      0.02626118,      0.01065596,
               -0.07482136,      0.00443152,     -0.14404115,      0.04039605,
               -0.05485927,     -0.01078220,      0.08242149,     -0.08645118,
                0.00832792,      0.04720182,      0.00581219,      0.01502720,
               -0.02636856,     -0.08012058,     -0.05525401,      0.03746894,
               -0.08504222,     -0.08809239,      0.01944657,      0.03995858,
                0.09865032,      0.02844826,      0.09446165,     -0.06287467,
               -0.03183924,      0.10854843,     -0.00231808,      0.02167042,
                0.02169353,     -0.07904369,      0.07141674,      0.06939645,
               -0.08105952,     -0.08078000,      0.04286797,     -0.04754399,
                0.11479497,      0.00683192,      0.05280090,      0.10137179,
               -0.01105981,      0.04843707,      0.10474793,     -0.06362620,
                0.01187826,     -0.01076073,     -0.03449477,      0.05313731,
               -0.02455857,      0.06991035,     -0.00931844,     -0.03743117,
               -0.01247297,      0.07255263,     -0.10197183,     -0.09879703,
               -0.00958982,     -0.00121501,      0.01040551,     -0.07239636,
               -0.09632386,     -0.00253482,      0.10144038,     -0.01264936,
                0.07637229,     -0.01331414,      0.02732473,      0.08426632,
                0.03856447,      0.12847179,     -0.07808369,      0.05381831,
               -0.05951570,      0.06329604,      0.02495815,     -0.01631244,
                0.05817457,     -0.02322910,      0.05883775,     -0.04932362,
               -0.04655824,     -0.05618760,     -0.03816353,      0.12099836,
               -0.04569726,     -0.13167720,     -0.04879273,      0.09579279,
               -0.07393988,      0.01249112,      0.11306755,      0.10753003,
               -0.08116937,     -0.07348599,      0.09055809,      0.03920685,
               -0.03697186,      0.05099639,     -0.03767678,      0.07221244,
               -0.06574732,      0.01131841,     -0.10296533,     -0.09320281,
                0.10918643,      0.00113737,      0.07567593,     -0.05803413,
               -0.01937783,     -0.01205962,      0.03400360,      0.06695051,
               -0.07320375,     -0.08026061,      0.04102542,      0.01922420,
                0.00065104,     -0.03843541,      0.01913473,      0.05640721,
               -0.11379645,     -0.10735252,      0.01831454,     -0.04216914,
                0.02039885,     -0.06861404,     -0.11677677,     -0.02253188,
                0.04852654,     -0.03385270,      0.08678166,     -0.00060380,
                0.11039083,      0.00945994,      0.10377098,     -0.05815933,
                0.19777595,      0.08266047,     -0.08579928,     -0.04618362,
               -0.11678086,      0.02991685,      0.01601426,      0.01226612,
                0.09037928,      0.00427526,     -0.07356474,      0.00295057,
                0.07806727,      0.01469244,     -0.04581398,     -0.07239646,
               -0.05896074,     -0.01392901,      0.03366689,     -0.09167624,
                0.16754366,     -0.02505995,     -0.03500860,     -0.03403625,
               -0.14165120,     -0.06964777,     -0.10005604,      0.13476217,
                0.01722535,      0.05093522,     -0.16539668,     -0.07838500,
                0.00396770,      0.03064907,      0.07116847,     -0.01884492,
               -0.03001242,     -0.05475647,      0.05483535,     -0.15890352,
               -0.01631636,     -0.06233622,     -0.04451900,      0.00588867,
                0.00223530,      0.10150294,     -0.05720159,     -0.02775936,
                0.01754600,     -0.01690513,      0.00261710,      0.03363312,
                0.11682066,      0.04608732,      0.02484728,      0.10544644,
                0.06818958,     -0.07000946,      0.03131323,     -0.10109237,
               -0.00607793,     -0.07236429,      0.00981060,      0.00393784,
                0.10132561,      0.11081916,      0.09940591,     -0.07692055,
                0.03747702,      0.04584286,      0.03624473,      0.05396618,
               -0.06561225,     -0.00886701,     -0.05367317,      0.05265158,
                0.05331648,     -0.03286964,      0.00995670,      0.08102518,
                0.01002831,      0.00039875,      0.12365055,     -0.03052949,
               -0.09439677,      0.08045068,      0.07859230,     -0.00382010,
                0.06484653,      0.00245383,      0.02046719,     -0.03541557,
                0.06296252,     -0.00594624,      0.04387540,      0.01964502,
               -0.01071143,     -0.13038091,      0.04066368,     -0.06321970,
                0.03090540,      0.02058114,      0.00475600,     -0.02683824,
                0.10111719,     -0.08707739,     -0.05419042,     -0.12816139,
               -0.07344235,      0.02224251,      0.07894722,     -0.08248047,
               -0.04943642,     -0.16844065,     -0.08131468,     -0.01466543,
                0.06118552,      0.03099971,     -0.02286958,      0.08113287,
               -0.04987711,      0.16488677,      0.04469221,      0.03850472,
                0.00333622,     -0.04719359,     -0.07407298,     -0.06261560,
                0.01384620,     -0.02164511,     -0.04532301,      0.04788844,
                0.09488475,      0.02275969,     -0.00429427,      0.05632626,
                0.01254871,     -0.15686788,      0.00773649,      0.03503344,
                0.08112151,     -0.02089260,      0.03884423,     -0.06990079,
               -0.12518843,     -0.13346712,      0.00803840,      0.04122484,
                0.06535799,      0.03861139,     -0.04321367,     -0.04002633,
                0.02552765,      0.04002721,      0.04879932,      0.08053175,
               -0.03587505,     -0.07309452,     -0.02457073,      0.01794266,
               -0.07687847,      0.20853515,     -0.05641033,     -0.06729208,
               -0.04298963,     -0.04896573,      0.01403883,      0.11841895,
               -0.00280819,      0.00962616,     -0.14214578,      0.10875237,
                0.03985259,      0.02234040,      0.07900532,     -0.14423719,
                0.14517759,     -0.09019598,     -0.04006714,     -0.13332748,
               -0.00162407,     -0.00711049,     -0.06237571,     -0.00734858,
                0.02587556,     -0.08089013,      0.06796066,     -0.05451326,
               -0.03153972,     -0.00956897,     -0.08430649,     -0.11345433,
                0.01431060,      0.01985218,      0.01212952,     -0.04493114,
               -0.08759451,     -0.01408210,      0.05758173,     -0.03407193,
               -0.00618812,     -0.00737344,      0.01931555,      0.11106503,
               -0.15067792,      0.02572317,      0.19493502,      0.01202591,
                0.07535782,     -0.01753025,     -0.07285254,      0.02534463,
                0.03611870,      0.05787112,      0.01394837,      0.03836092,
               -0.07450598,      0.07814278,     -0.02104590,     -0.01674646,
                0.12476647,     -0.12718454,     -0.02095784,     -0.00013684,
                0.03146892,      0.03293383,     -0.02619245,     -0.05288337,
               -0.11213968,      0.02486399,     -0.20936400,     -0.03290115,
                0.00341443,      0.03440499,      0.04041694,      0.00431656,
               -0.03859425,      0.04425649,     -0.01369564,      0.03086816,
                0.00845782,     -0.03912911,     -0.12345548,      0.08520430,
               -0.05442075,     -0.00659180,     -0.06787875,     -0.08973789,
               -0.04720540,     -0.04987794,     -0.08444685,     -0.01690842,
               -0.02309048,     -0.08928622,      0.02800674,      0.05355473,
                0.05170241,      0.13116628,      0.03280500,      0.01883190,
                0.02590846,     -0.04999998,      0.03606884,      0.02876978,
                0.01755524,      0.11479053,     -0.02321577,     -0.02350180,
                0.03298943,      0.01457360,     -0.04792772,      0.00485868,
               -0.09588303,     -0.01019199,      0.04715449,     -0.01424201,
                0.02424605,      0.03200622,     -0.03593013,     -0.00014152,
                0.01682127,     -0.06028178,     -0.04283279,     -0.04767080,
               -0.07963170,      0.04636077,     -0.07549698,      0.07770464,
               -0.03120228,      0.06936228,     -0.04052554,      0.14754124,
                0.04724193,     -0.01217766,     -0.07610099,     -0.08142610,
                0.05237876,      0.00009950,     -0.13677607,      0.14014919,
                0.06254150,     -0.06974483,     -0.13762970,      0.11518803,
                0.05521817,      0.01726112,     -0.00044801,     -0.06179500,
                0.00336799,      0.00809988,     -0.03617988,      0.07490411,
                0.02768011,     -0.10500495,      0.00671988,      0.06755344,
                0.08269159,      0.07492673,      0.01492903,     -0.07485617,
               -0.00075143,     -0.00727635,      0.03327937,      0.10288014,
               -0.02147216,      0.01870701,     -0.05363053,      0.08597780,
                0.09490412,     -0.01709556,      0.14932643,     -0.02678056,
               -0.11319469,     -0.00606332,      0.04574902,     -0.02929683,
                0.05937791,     -0.02109469,     -0.02703543,     -0.00365597,
                0.06063903,     -0.03435867,     -0.09122735,      0.06141236,
                0.03341398,      0.04684822,      0.02721513,     -0.03998872,
               -0.00864215,     -0.04018031,      0.06802159,      0.07855309,
               -0.01564690,      0.02387249,      0.01031196,     -0.02790755,
                0.03361845,      0.00954482,      0.04705387,     -0.14975931,
                0.06251888,     -0.06217265,     -0.06631716,     -0.00384945,
               -0.03080818,     -0.14305112,     -0.04605752,      0.08896217,
               -0.16014408,     -0.00234169,     -0.02285782,      0.04352374,
               -0.10100885,     -0.04448147,      0.08322828,     -0.10407971,
                0.06410701,     -0.02998227,      0.09005305,     -0.03027339,
                0.05281867,      0.05766638,     -0.00246505,     -0.00060937,
               -0.09888317,     -0.01769863,      0.13472205,     -0.01564548,
                0.04292706,     -0.07249937,     -0.05087961,     -0.10753163,
                0.07688809,     -0.14065875,     -0.05159255,     -0.05841585,
               -0.14178002,      0.00760511,     -0.02822330,     -0.06586196,
               -0.03012684,      0.03155046,     -0.01025631,     -0.00018759,
                0.12031244,      0.05117780,      0.07183177,     -0.00070693,
                0.05185906,     -0.05368218,      0.01574413,      0.04343848,
                0.10619727,      0.03043855,     -0.13623625,      0.04040784,
               -0.04404304,      0.07382160,     -0.02043686,      0.02298426,
               -0.11338034,     -0.00622190,      0.13876976,     -0.05135939,
               -0.08218492,      0.01141704,     -0.07545296,      0.05969676,
               -0.03511241,     -0.08775879,     -0.01540377,      0.07299197,
               -0.06468077,     -0.05061489,      0.03215068,      0.00102226,
                0.07056119,      0.00864637,     -0.03555517,     -0.01304031,
                0.07563104,     -0.01037308,      0.04852718,      0.00533655,
                0.08701866,     -0.07095278,     -0.09328587,      0.06188419,
               -0.02742849,     -0.07111081,      0.10414053,     -0.03448117,
                0.00363699,     -0.05725156,     -0.07695231,     -0.01578981,
                0.01221417,      0.03079644,      0.04070419,      0.03325246,
               -0.02884037,     -0.05739767,     -0.04458001,     -0.05469147,
                0.03163761,     -0.13767241,     -0.03915770,      0.04190241,
                0.00124030,     -0.05159814,      0.14731576,     -0.04427251,
               -0.09383593,     -0.02329772,     -0.04245674,      0.02033087,
                0.04760157,     -0.08499645,      0.16746388,      0.01842435,
               -0.00871379,      0.04238881,      0.01302343,      0.06925921,
               -0.03472440,      0.01231136,      0.07616465,     -0.00750335,
                0.01682201,      0.05359216,      0.07263404,     -0.06030434,
               -0.04340758,      0.06642779,     -0.10024214,     -0.01353180,
               -0.01905059,     -0.02384637,      0.01135765,     -0.02962417,
                0.00923063,      0.02686475,     -0.13250092,     -0.07007352,
                0.17447297,     -0.01908191,      0.02866832,      0.02797380,
               -0.10599374,      0.05568546,     -0.02854064,      0.04836017,
                0.01974298,     -0.09240929,     -0.04444171,      0.08495670,
                0.01535465,      0.05856458,      0.00527590,     -0.00135347,
               -0.00733272,      0.06519537,      0.02025280,     -0.13375171,
                0.11419240,      0.00414179,     -0.00316646,      0.09962759,
               -0.13110486,      0.07372336,      0.06003525,      0.07781623,
               -0.06062523,     -0.12609015,     -0.03110756,     -0.03780931,
               -0.06621426,      0.08584432,     -0.01306333,      0.08889177,
               -0.05587396,     -0.04162204,     -0.06569715,      0.05488417,
                0.06087918,      0.01529679,      0.01912802,     -0.02911546,
               -0.06244577,     -0.00989346,     -0.03734810,      0.01413028,
                0.01119115,      0.00563347,     -0.10884336,     -0.05795636,
               -0.05403364,     -0.00360866,     -0.07739244,      0.05796451,
               -0.01531188,      0.05474199,      0.01020289,     -0.04871400,
               -0.04969700,      0.02416776,      0.04200624,      0.05851766,
               -0.05008529,     -0.09834313,      0.00612754,     -0.02292573,
                0.06806144,     -0.06004875,     -0.01085074,     -0.04862951,
                0.00906739,      0.07117613,      0.07552672,     -0.01857024,
                0.06054966,      0.12865417,      0.04704948,      0.03235925,
               -0.08343109,     -0.05729925,     -0.00879424,     -0.04517966,
                0.00884677,      0.00583879,     -0.07249621,     -0.04107146,
               -0.08522654,     -0.07208945,     -0.11172371,      0.12973152,
                0.09749860,     -0.15754667,     -0.06679094,      0.03565449,
               -0.04913648,     -0.03043861,     -0.03086192,     -0.10158768,
               -0.06838357,     -0.01868264,     -0.03235185,     -0.05255966,
               -0.07299308,      0.02624713,      0.00117665,      0.02987141,
               -0.04383283,      0.05653486,     -0.01898448,     -0.06960583,
               -0.00227421,     -0.10848827,     -0.06231409,     -0.06345358,
               -0.01737959,      0.05674963,     -0.16257593,      0.03459994,
               -0.00948135,      0.10614944,     -0.06083618,     -0.00392091,
                0.03308973,     -0.13833721,     -0.05226772,      0.00894894,
                0.06353574,     -0.03343112,     -0.08728302,     -0.05311448,
                0.03115090,     -0.05141875,      0.05371087,     -0.00548248,
               -0.02217098,     -0.09242491,     -0.09102967,     -0.04083707,
               -0.04229690,     -0.00468358,     -0.01152230,      0.05215641,
               -0.02276289,     -0.01393862,     -0.01938150,      0.02809054,
               -0.00773657,     -0.02880787,      0.01388426,     -0.05854528,
               -0.10343409,      0.02690209,     -0.02321552,      0.00785115,
                0.08990747,      0.01596419,     -0.10128692,      0.07684725,
                0.02787906,     -0.02536639,     -0.04118020,      0.08706588,
               -0.04778184,      0.03660038,     -0.07438370,      0.09561358,
               -0.07566693,      0.01294685,     -0.00708209,      0.02145399,
                0.02636989,      0.02885840,     -0.03919106,      0.02643782,
                0.08301805,      0.00062015,     -0.08311693,      0.02060980,
               -0.01904367,     -0.03263154,      0.09547541,      0.05733449,
               -0.06669454,      0.01424175,     -0.01080148,      0.02164631,
               -0.06961489,     -0.03491167,      0.14972152,     -0.05347157,
               -0.00534760,     -0.09102510,      0.05021189,     -0.06512152,
               -0.06008179,      0.11141884,      0.02055945,     -0.05594245,
                0.04478608,     -0.00479275,     -0.01273255,      0.01856276,
               -0.06945299,      0.01117479,     -0.01543818,     -0.09264693,
               -0.08707666,      0.07712707,     -0.01817957,     -0.08646352,
                0.05734115,     -0.12091034,      0.05572581,     -0.14261173,
               -0.04777941,     -0.00063030,     -0.03790110,      0.01232942,
                0.11497369,      0.20109317,      0.00538450,      0.08352840,
                0.11316998,      0.02884074,      0.02196828,     -0.08335709,
                0.01567557,      0.11174456,      0.01119811,      0.03617688,
               -0.00963508,      0.04712233,     -0.11422654,      0.05009088,
               -0.16396531,      0.00255191,      0.00586105,     -0.20263052,
               -0.08465204,      0.00024443,      0.22692057,     -0.02358219,
                0.08908475,      0.00831302,     -0.04610319,      0.10346735,
                0.00026987,      0.06402531,      0.12879899,      0.05031234,
                0.00249667,      0.08173657,     -0.16495965,     -0.04991671,
               -0.08602628,     -0.01325843,      0.06299084,      0.05039199,
                0.04170814,      0.03694749,     -0.02098875,      0.10090839,
               -0.01579152,     -0.01519919,     -0.09380955,      0.02858848,
                0.07568938,     -0.11393717,      0.04120670,     -0.01195018,
                0.23222405,      0.02717241,     -0.04767875,      0.00516355,
                0.05677242,     -0.06073379,      0.11222414,     -0.13528158,
               -0.09117178,      0.02093715,      0.04297864,      0.19268732,
                0.10700735,      0.04250463,      0.04205865,     -0.18346110,
               -0.05884234,     -0.13748708,     -0.09567090,      0.07337846,
               -0.03685467,     -0.03725070,      0.10346814,      0.02546124,
               -0.06264293,     -0.07707634,     -0.07823949,      0.02228357,
                0.21811391,     -0.08475636,     -0.05318220,      0.04887712,
               -0.01521242,      0.21760419,     -0.14858264,      0.00718847,
               -0.00633083,      0.18178834,      0.02334307,     -0.04471724,
               -0.05399325,      0.14548637,      0.05291082,      0.03632084,
                0.09806431,      0.00722024,     -0.06753778,      0.04003721,
               -0.02374175,      0.05459000,      0.00002942,      0.11161909,
                0.02945709,      0.09709979,      0.08493664,      0.05608033,
               -0.05750998,     -0.02895788,      0.09420201,     -0.03896792,
                0.04619190,     -0.03271661,      0.06993923,      0.06240291,
                0.13021538,      0.04301065,      0.24947430,      0.02562833,
                0.02646826,      0.08227379,      0.02311992,      0.04276099,
                0.09019825,      0.10730817,      0.00745547,     -0.13656032,
                0.08513297,      0.03667793,     -0.01907607,      0.05194985,
                0.08718096,     -0.01706015,      0.05686953,     -0.14822708,
               -0.01775652,     -0.12865345,     -0.07986207,      0.00550738,
                0.02904798,      0.00203058,     -0.10647433,      0.04955798,
               -0.12420156,     -0.00360462,     -0.03365624,      0.05810865,
                0.02917430,     -0.09489731,     -0.11009610,      0.03988495,
                0.05984334,      0.05204867,     -0.11936958,      0.05857531,
                0.03793121,     -0.00191000,      0.03964162,     -0.04243504,
               -0.01566538,     -0.07129427,      0.02507948,     -0.01456473,
               -0.04088645,      0.12609045,     -0.05936912,     -0.05857394,
               -0.03504239,      0.01520718,      0.20947130,      0.03385050,
               -0.08254249,     -0.15850186,     -0.00443937,     -0.18784912,
                0.06506021,     -0.07772729,     -0.11017857,     -0.00967370,
                0.00299544,      0.04237884,      0.12195957,     -0.16693643,
                0.16971041,     -0.02424645,     -0.03879996,     -0.08915921,
               -0.08079886,      0.06134680,      0.00190315,      0.27254727,
                0.12842229,      0.01674134,     -0.05344975,     -0.09890941,
                0.09076446,     -0.00849797,     -0.00971011,     -0.08271576,
               -0.01747643,      0.03131592,     -0.07335588,     -0.05189927,
                0.00814071,      0.04622992,      0.13989104,     -0.04066008,
                0.03865420,      0.04815266,      0.00638986,      0.00393741,
                0.07186741,      0.04964463,      0.05788980,      0.03428018,
                0.00627517,     -0.05939134,      0.00377698,      0.06659009,
                0.04684196,      0.08968868,     -0.00072529,      0.04854684,
                0.05310179,      0.05025074,     -0.04827020,      0.00236413,
                0.11091463,     -0.07269581,     -0.00531263,     -0.12594879,
                0.07679672,      0.00376944,     -0.10520910,     -0.00814387,
                0.00797839,      0.04339375,     -0.05928801,      0.02216657,
                0.00302202,     -0.03072593,      0.01755337,     -0.00103142,
               -0.02125154,     -0.00497601,      0.22616851,      0.08392670,
               -0.07094406,     -0.02806834,     -0.02923521,      0.03285453,
                0.10974996,     -0.06359180,      0.07894199,      0.02294507,
                0.00579899,      0.07491165,     -0.05903491,      0.15561777,
               -0.07236327,     -0.03748495,      0.12268744,      0.01605851,
               -0.08507991,      0.03279380,      0.05470036,      0.04095434,
               -0.02385237,      0.01558741,      0.07902876,     -0.11676659,
                0.09576372,     -0.11823245,     -0.10143788,      0.10471733,
               -0.01201224,     -0.03026304,     -0.02590269,     -0.15992664,
               -0.02307976,     -0.01401568,      0.18240973,      0.00743805,
                0.06523353,     -0.10045459,     -0.08139320,     -0.10955347,
               -0.10202901,      0.07778271,     -0.10844994,     -0.09595342,
               -0.00064006,      0.02643858,      0.12872466,      0.13660821,
                0.03205485,      0.01407418,      0.14539148,      0.07293268,
                0.16741267,     -0.08922996,      0.01554733,      0.04019835,
                0.06457743,      0.03816003,     -0.08756986,      0.02324922,
               -0.02329623,     -0.08043170,     -0.04986126,      0.13834223,
                0.08736570,      0.09106678,      0.10568623,     -0.14182983,
               -0.03788139,      0.06090231,      0.12381226,      0.00771712,
               -0.07612536,     -0.04349680,     -0.00294252,     -0.04116130,
                0.09872718,     -0.12335338,      0.04763170,      0.20733668,
                0.10596813,     -0.01090719,     -0.01293237,      0.09308877,
                0.00311171,      0.14677915,     -0.01523955,      0.03209022,
                0.00156588,      0.06670102,     -0.05862928,     -0.08312022,
                0.11080226,      0.05476317,     -0.13921422,     -0.11304614,
               -0.01623933,     -0.08888103,      0.05814483,      0.02644398,
                0.00346029,     -0.05409203,      0.00969826,      0.03982289,
                0.04439851,     -0.01027486,     -0.08503638,     -0.08951456,
               -0.00086632,      0.00411553,     -0.25836524,      0.21576202,
                0.10367928,      0.01964066,     -0.05224540,      0.00835591,
                0.09139821,      0.16084194,     -0.05824716,     -0.04633935,
                0.01369458,      0.12939829,     -0.10143062,     -0.00896894,
                0.02984553,      0.01935033,      0.04850318,      0.07532935,
               -0.00428611,      0.12694228,     -0.10867066,     -0.02352059,
               -0.04675718,     -0.02271811,     -0.03939528,     -0.04462998,
                0.01712723,      0.03935700,      0.06196804,      0.04240987,
               -0.12098713,     -0.06940564,      0.15396348,     -0.01101913,
               -0.10139080,      0.04410781,      0.10573841,     -0.13876238,
               -0.02354595,     -0.14891464,      0.06077280,     -0.03379684,
                0.04360531,     -0.09279649,      0.00474080,      0.04182320,
                0.05008341,     -0.01638033,      0.00436686,      0.04952956,
               -0.11652656,     -0.04378586,      0.13111641,     -0.05151107,
                0.08869945,     -0.00078393,     -0.09378043,      0.09290740,
                0.04528057,      0.02699810,      0.05599061,     -0.02190679,
               -0.10572185,      0.09961357,      0.01506313,      0.04724297,
                0.00846614,     -0.15079920,     -0.04402602,     -0.08449500,
                0.08831298,      0.08064113,     -0.10947334,     -0.02151707,
               -0.02048554,      0.03916992,      0.02355828,      0.15387323,
               -0.03434829,     -0.06632667,     -0.00681746,      0.02437595,
                0.03751989,      0.08677904,     -0.06356110,      0.09097654,
                0.13728347,      0.00748739,      0.02918663,     -0.01243806,
                0.10712846,     -0.05039002,     -0.07055511,      0.04976221,
               -0.05338731,     -0.07713469,      0.02571157,      0.01225088,
               -0.05219000,      0.03905244,     -0.06859782,     -0.15362729,
                0.00109183,      0.09519947,     -0.10333375,      0.01373522,
               -0.11735342,      0.23828754,      0.11571888,      0.05065820,
               -0.01952188,     -0.10541295,      0.05018950,     -0.01356726,
               -0.05482908,      0.01048831,     -0.09703784,     -0.01900381,
               -0.00642190,      0.04097106,      0.08448655,     -0.18263128,
               -0.03650889,     -0.03971338,     -0.12108212,      0.05308822,
                0.07225096,      0.00958252,      0.15003124,      0.03096747,
                0.12220205,      0.08725445,     -0.06377776,      0.14630362,
               -0.08302225,      0.06817819,      0.02076901,     -0.01076627,
                0.10964947,     -0.01621232,      0.03814664,     -0.14558479,
                0.08791684,      0.02730352,     -0.15345815,     -0.03479976,
               -0.01416697,      0.00636702,     -0.16223812,     -0.13394937,
                0.08660282,     -0.10434780,      0.04889179,     -0.13783579,
                0.10426071,      0.11332145,      0.13462400,     -0.00874310,
               -0.06019073,      0.10068962,     -0.07311200,      0.15440378,
               -0.06653573,      0.03643834,     -0.11117585,      0.06959611,
               -0.00394412,     -0.03467477,      0.02684778,      0.04762607,
               -0.06366670,     -0.03368636,     -0.01633842,     -0.02387960,
                0.07879256,      0.06016421,      0.05766011,     -0.02235317,
                0.05711876,     -0.01071366,      0.05822731,      0.11819427,
                0.12411971,      0.10111855,      0.10987204,     -0.05132988,
                0.00405169,      0.11777732,     -0.00707537,      0.11000781,
               -0.12540753,     -0.04359458,      0.08480439,      0.06801698,
               -0.02245536,      0.03244673,     -0.03268382,     -0.03641619,
                0.01019353,     -0.07361796,     -0.03346278,      0.06782526,
               -0.00597633,     -0.03476090,     -0.09714313,     -0.10101669,
               -0.10485825,      0.04027221,     -0.03662180,     -0.01786098,
               -0.13533160,     -0.04096637,     -0.03995711,      0.06066082,
                0.17113130,      0.05673984,      0.01076655,      0.00187162,
               -0.00345701,     -0.03073781,     -0.02390069,      0.20187652,
               -0.00363491,      0.02244079,     -0.12428946,     -0.05115377,
                0.09029815,     -0.05967376,      0.08443347,     -0.02576751,
               -0.10809462,      0.05232752,      0.10675710,      0.04843147,
                0.01125201,      0.12391143,     -0.03582350,     -0.00158307,
                0.02496175,     -0.04913288,      0.14967701,      0.12324116,
                0.04225398,     -0.01460838,      0.05707281,     -0.01261733,
               -0.09667090,     -0.08412980,     -0.09964456,      0.14731987,
                0.07630282,     -0.08034086,      0.02439256,     -0.04161314,
                0.01740419,      0.04553777,     -0.10191186,      0.24014030,
               -0.04272564,     -0.04603695,     -0.08355377,      0.27942201,
                0.03083552,     -0.08120822,      0.03721485,      0.24831374,
               -0.09974234,     -0.17077954,      0.01496016,      0.03870999,
                0.01264910,     -0.04406248,     -0.07083057,      0.04199774,
               -0.02738749,      0.20588702,     -0.00869366,     -0.07413967,
                0.08556809,      0.01109552,     -0.09904780,      0.05146311,
                0.00680786,      0.06732687,      0.09018478,      0.14886750,
               -0.10209199,     -0.08389222,      0.13058516,      0.04680375,
                0.02395140,     -0.10747500,     -0.06833391,     -0.03894782,
                0.07372907,     -0.10172015,      0.00638701,     -0.02369469,
                0.01356568,     -0.11089129,     -0.03589070,      0.03473072,
               -0.01970307,     -0.04832873,      0.14121599,      0.08606138,
                0.04949117,     -0.00750864,      0.03860871,     -0.05237852,
                0.04663180,      0.04721699,     -0.04245932,     -0.03424814,
               -0.02860244,     -0.03669314,     -0.12321950,     -0.03761860,
               -0.01359146,      0.00248576,      0.04096988,      0.02991674,
                0.01863108,      0.03962352,     -0.03025761,     -0.03388066,
               -0.03577444,     -0.02107461,     -0.07276838,     -0.08394458,
               -0.06657266,     -0.02950373,      0.02543994,      0.07597144,
               -0.16084443,     -0.00391702,      0.14861211,      0.07204314,
               -0.00688220,      0.01599680,     -0.02377588,      0.02127251,
               -0.04850234,      0.00659294,      0.09293494,      0.00153186,
                0.07609516,     -0.06110471,      0.10705984,     -0.04540228,
               -0.00606117,     -0.07849109,     -0.04954942,      0.05176575,
               -0.05046067,      0.11047701,     -0.10894924,     -0.03374469,
                0.08239996,      0.05208279,      0.10716843,      0.06405383,
               -0.00498859,     -0.04784577,     -0.08280273,     -0.07354514,
               -0.05269027,     -0.02650656,     -0.06094499,      0.08321407,
                0.03979509,      0.06101320,      0.01969749,     -0.01050347,
                0.05894560,      0.03215193,     -0.14559907,      0.08111940,
               -0.11204574,      0.01341342,     -0.03575131,      0.01226400,
               -0.04258030,     -0.06713935,     -0.09081295,      0.11307590,
                0.02694250,     -0.02652836,      0.06817470,     -0.04969542,
                0.10119142,      0.00537983,     -0.01532600,     -0.14570832,
               -0.05626374,     -0.07036812,     -0.01104940,      0.06660888,
               -0.03678202,     -0.04792844,     -0.04289258,      0.08293040,
                0.03372436,      0.05910103,      0.07337447,     -0.01318552,
               -0.02282551,      0.16055398,     -0.11601515,     -0.04943072,
               -0.01620561,      0.13403714,     -0.06032325,      0.08511841,
               -0.01603570,      0.04839480,     -0.03166139,      0.06416622,
               -0.00162703,      0.09105886,      0.03164542,      0.04073455,
                0.03475087,      0.12363242,     -0.03337452,      0.01635498,
                0.05951996,      0.06142635,      0.06197134,     -0.05202804,
                0.00861266,     -0.03015963,      0.06214047,     -0.00249108,
               -0.08556830,     -0.05100998,     -0.01465058,      0.03203896,
                0.05561259,     -0.15378281,      0.04570592,     -0.05352840,
               -0.01543391,      0.03783530,     -0.09532002,     -0.06674220,
               -0.00831188,     -0.15676747,     -0.07226134,     -0.06788445,
               -0.00291698,     -0.04735378,      0.07348345,      0.02048039,
               -0.07309923,     -0.02112780,     -0.07874914,     -0.01059034,
               -0.01730209,     -0.10529962,     -0.04481757,     -0.02164607,
               -0.10697414,     -0.12905774,      0.05490299,      0.04086756,
                0.01688854,     -0.00272551,      0.03673960,      0.02989106,
                0.06824630,     -0.02746741,     -0.00061812,     -0.09835207,
                0.11795521,     -0.05283611,      0.08562376,      0.03317634,
               -0.00553363,      0.09376957,     -0.08123709,      0.00905198,
               -0.16881205,      0.03688459,      0.00912301,     -0.00025308,
                0.02756884,      0.02207137,      0.07870853,      0.08105542,
               -0.02396524,     -0.02275956,     -0.01244112,      0.04123594,
                0.02573895,     -0.01634309,      0.00921940,      0.10242645,
               -0.06698690,     -0.15167278,      0.07062149,      0.02743039,
                0.02564991,     -0.02964356,      0.00971204,     -0.11995179,
               -0.04424679,      0.03286188,     -0.08700853,      0.03276033,
                0.05255169,      0.01988929,     -0.14462200,     -0.00453802,
               -0.04307838,     -0.04077791,      0.01463014,      0.01132910,
                0.00098943,      0.02410937,     -0.01476345,      0.01182175,
               -0.03515058,      0.01597503,      0.01812641,     -0.06293528,
                0.04761772,     -0.00337501,      0.02888737,      0.16596217,
                0.01626565,      0.01329956,      0.08897831,      0.01215793,
               -0.04330378,      0.04914197,      0.04477470,     -0.01335810,
                0.13635127,      0.11486532,      0.04315651,      0.08866150,
               -0.00162155,     -0.08699478,     -0.04156065,     -0.11217108,
                0.02481979,      0.03049967,      0.01285049,     -0.01159250,
               -0.05779326,     -0.06792460,      0.03395830,      0.08494379,
                0.06378999,     -0.07657702,     -0.06443530,      0.09623995,
               -0.07487047,     -0.01596165,      0.16272011,     -0.00388761,
                0.06441366,      0.04768160,      0.07137608,      0.00300623,
                0.09235300,     -0.02622520,      0.10710476,      0.04045415,
               -0.00920454,      0.00749292,     -0.08789210,      0.01399782,
               -0.04420905,     -0.08144572,     -0.04569038,      0.04054195,
                0.26429015,     -0.02724726,     -0.00041632,     -0.11130334,
                0.03931485,      0.04623382,      0.05501724,     -0.03756983,
                0.14854352,      0.10869905,     -0.02217585,     -0.00071535,
                0.03991538,      0.01716100,      0.07171550,      0.00266814,
               -0.09598707,      0.05091372,      0.01354317,     -0.05876093,
                0.10019308,      0.00821600,     -0.09118165,      0.10004186,
                0.02263783,      0.07242046,     -0.02136413,      0.03522965,
                0.02559876,      0.01389834,     -0.00933059,     -0.11970364,
                0.12104608,      0.02561272,      0.07588371,      0.06954912,
               -0.02818652,     -0.13724057,     -0.17070952,     -0.06103539,
               -0.06429765,      0.03539205,     -0.06056026,      0.03693474,
               -0.02269792,      0.02955063,      0.09718059,      0.00266081,
               -0.02475451,     -0.00828856,      0.09030383,      0.04772090,
                0.03488355,      0.03737613,     -0.09328236,     -0.09235743,
               -0.10559022,      0.02346996,      0.04840529,     -0.01735325,
               -0.04884109,     -0.06222981,      0.05525843,     -0.04451867,
               -0.01258320,     -0.08016175,      0.05873680,     -0.03217576,
               -0.12994987,      0.07260722,      0.11063623,      0.04822014,
                0.04737585,     -0.02062806,      0.10645386,     -0.05361173,
                0.02701366,      0.02906524,     -0.11587264,      0.00223878,
               -0.05371665,     -0.04466503,     -0.06355190,      0.04031501,
                0.02411967,      0.10935378,     -0.03522890,      0.02252619,
               -0.06279536,     -0.06615599,      0.13479657,     -0.03571476,
               -0.00418033,      0.06531473,      0.00107242,      0.03262688,
               -0.05145139,     -0.03127392,     -0.03009081,     -0.02219821,
                0.03121082,      0.08195022,     -0.05090367,     -0.02048547,
                0.05143270,     -0.03494890,      0.00930229,     -0.14685327,
               -0.07131924,     -0.05780705,     -0.02708491,      0.04325796,
                0.00640347,      0.13611172,      0.06226058,      0.09571316,
               -0.13556722,     -0.06104965,      0.04018501,     -0.00465139,
                0.03581396,     -0.03851071,      0.04599382,     -0.05757779,
               -0.09697777,     -0.05713624,      0.03953098,     -0.00165013,
                0.04774867,     -0.06426851,      0.09092682,      0.00410739,
                0.08337542,      0.00153623,     -0.02622873,     -0.03557768,
               -0.04604170,      0.02426526,     -0.04298308,      0.01339192,
                0.00607198,      0.03278820,     -0.01235050,     -0.14941645,
               -0.07096491,      0.10935803,     -0.04956110,     -0.05500815,
               -0.08755320,      0.00544100,     -0.02045908,     -0.21653979,
               -0.08531749,     -0.01514821,      0.00863231,     -0.13299094,
               -0.03603258,     -0.02208135,     -0.05446362,      0.04586244,
                0.00864493,     -0.02601868,      0.09105754,      0.03401763,
                0.08162484,      0.03516990,      0.07363774,      0.02546056,
                0.05879800,      0.04509331,      0.02751787,     -0.11960218,
               -0.05619530,      0.13629588,     -0.03426933,     -0.00975800,
               -0.06692985,     -0.03979417,     -0.00257154,      0.00122611,
               -0.00165707,      0.00740005,     -0.09609757,     -0.00495735,
               -0.01281235,     -0.06274717,      0.04954091,     -0.03701277,
               -0.03234261,     -0.12729631,      0.00135043,      0.05453368,
                0.02678017,      0.04215951,      0.03777052,      0.02676629,
               -0.02841539,     -0.03630658,     -0.03624868,      0.07725080,
                0.03062081,      0.11137540,      0.02377392,     -0.03789430,
                0.06738698,      0.15482250,     -0.05390567,     -0.04360236,
                0.03899181,      0.02887846,      0.01016952,      0.03462661,
               -0.05336100,      0.03433204,      0.08159550,      0.06494854,
               -0.02476091,     -0.03529681,      0.02325260,      0.00281363,
                0.00089499,     -0.00228739,     -0.01495461,     -0.02726230,
                0.04754974,     -0.05867413,     -0.11648595,     -0.00421146,
                0.05353606,      0.09007618,      0.07080280,     -0.07349778,
                0.01532657,      0.16892308,     -0.02578528,      0.04979426,
               -0.10935782,      0.00923923,     -0.02269573,      0.04759085,
               -0.15802021,     -0.13611440,      0.02404171,     -0.04800805,
               -0.00389878,     -0.02091180,      0.00984259,      0.08525570,
                0.01987880,      0.07715059,      0.01109725,      0.04466192,
                0.02156144,     -0.16475157,     -0.03086885,     -0.12710004,
               -0.11574388,     -0.02627157,     -0.08280729,     -0.00799810,
               -0.02701117,      0.04004966,     -0.10368966,      0.02624578,
                0.07161744,      0.04947247,      0.06502365,      0.08651751,
                0.12183462,      0.14267866,     -0.02240910,      0.03459338,
               -0.04323915,     -0.08213809,      0.00589665,     -0.00852823,
                0.00821372,      0.11654685,     -0.06103234,     -0.02215751,
                0.26133513,      0.07945038,      0.01686967,      0.06950195,
                0.00050452,     -0.03000650,     -0.01590243,     -0.06507140,
                0.08503266,      0.07139987,      0.01624151,     -0.01075277,
               -0.00419772,      0.09723226,      0.08588199,     -0.02947776,
               -0.03267065,     -0.07262527,      0.02242999,     -0.00832809,
               -0.15645984,      0.00411418,     -0.03205742,      0.02628257,
                0.10168736,      0.06958514,      0.08200180,      0.01970912,
                0.04360912,      0.02839325,     -0.00863040,      0.08628207,
                0.00665191,     -0.02383178,     -0.01319299,     -0.01357872,
                0.11184695,     -0.03878010,      0.03070102,     -0.13390259,
               -0.04881068,      0.12756325,     -0.06292995,      0.05655855,
               -0.01807974,      0.02810295,     -0.04350916,      0.12137029,
                0.02024583,      0.04817840,      0.12228297,      0.03979770,
                0.04692215,     -0.05805985,      0.05470478,      0.09755352,
               -0.01361741,     -0.04541133,     -0.01657951,      0.06700337,
               -0.02289475,      0.00195870,      0.08794024,      0.07011159,
                0.12105733,      0.03991178,     -0.11860076,      0.13811328,
               -0.04651127,      0.06430598,     -0.05556042,      0.04749788,
               -0.00435224,      0.02144021,      0.08291835,     -0.12496365,
               -0.05574283,      0.09309554,     -0.06301276,     -0.06981983,
                0.08029512,      0.03009131,     -0.00654440,      0.05310775,
                0.10539208,     -0.01299103,     -0.06232356,      0.11960715,
               -0.01528653,      0.06773770,      0.03722617,      0.04133445,
               -0.16898890,      0.08764795,     -0.09729585,     -0.07179686,
                0.05896216,      0.03600771,     -0.03454166,     -0.11862123,
                0.01454342,      0.01904693,     -0.04040558,      0.10600511,
                0.03915223,      0.02901845,     -0.03089317,     -0.01758525,
               -0.12339051,     -0.07109509,      0.08425632,      0.07373417,
                0.01140322,     -0.06179707,      0.00758749,     -0.03869043,
               -0.00968349,      0.04993923,      0.04763799,     -0.06383780,
                0.05569462,      0.01506913,      0.01290897,      0.07288649,
                0.06551285,      0.07535037,      0.10981448,     -0.00405988,
               -0.04147150,      0.08720131,      0.00419770,      0.01820797,
               -0.02598919,     -0.04689550,      0.08820544,      0.05591941,
                0.04494860,     -0.01597594,      0.01107440,      0.07332945,
                0.03646335,      0.05730948,     -0.08482868,      0.03183251,
                0.01816230,      0.07312851,      0.04049447,     -0.02097238,
               -0.11642632,      0.22085670,      0.07319447,      0.07151251,
                0.04264107,     -0.05236234,      0.05047800,     -0.08123685,
                0.03118086,     -0.10368355,      0.09788392,     -0.09655877,
               -0.03370299,     -0.08467179,      0.02445423,      0.01622046,
                0.01767620,     -0.03043695,      0.01250541,     -0.03659659,
                0.00745018,     -0.08902498,      0.03328482,     -0.02709765,
                0.03646253,      0.18813512,     -0.06957347,     -0.03038872,
               -0.00577816,     -0.01964769,     -0.04837570,      0.05172737,
                0.09235454,     -0.01441812,     -0.02675773,     -0.02490560,
               -0.03699271,      0.07480166,      0.09324536,      0.07154284,
                0.02438509,      0.09533784,      0.00807355,      0.10509241,
                0.01006750,     -0.02745735,     -0.05594966,      0.05379613,
                0.06005365,     -0.00139375,      0.03148208,     -0.14258003,
                0.04795514,     -0.00773579,      0.05048026,      0.04094588,
                0.04080897,     -0.01088828,      0.03074590,      0.12828816,
                0.05536341,     -0.03024231,      0.02739404,      0.07483293,
               -0.07525923,     -0.00226018,      0.10196009,      0.01259738,
               -0.07378699,     -0.03844467,     -0.03040359,      0.07920334,
                0.04107883,     -0.02009737,      0.04540928,     -0.01146273,
               -0.00831679,     -0.17796376,     -0.01094888,     -0.01929116,
               -0.00022491,      0.06686594,     -0.08590246,      0.00033249,
               -0.04072392,     -0.08694573,      0.00987521,     -0.03765027,
                0.03225536,      0.02004495,     -0.12214871,     -0.01325842,
                0.01949371,      0.19763488,      0.07848855,      0.05303296,
               -0.04459918,     -0.23395093,     -0.02947342,      0.11955487,
                0.06940016,     -0.16819707,     -0.03348378,     -0.01415119,
               -0.01973858,      0.04121959,      0.00107401,      0.08917428,
                0.08176952,     -0.04475955,      0.14222682,      0.02114455,
                0.07440469,     -0.03368251,     -0.00179341,      0.08390396,
                0.01515121,      0.08498157,      0.07478097,      0.07644887,
               -0.07412414,     -0.07394784,     -0.07929032,      0.02547574,
                0.04312961,     -0.05722620,      0.12380870,      0.08967955,
               -0.04550159,      0.14419766,      0.15951978,     -0.12970097,
               -0.09959827,     -0.10509472,      0.09417080,      0.00858483,
                0.03595772,      0.03777642,      0.06400077,     -0.02718311,
               -0.05107223,     -0.04550471,     -0.04695893,      0.05082672,
               -0.06105807,     -0.00783846,      0.02146708,     -0.06097957,
               -0.07950212,      0.06669961,     -0.06835672,     -0.06138900,
                0.05002812,     -0.03861361,      0.08563550,      0.15546939,
               -0.03779405,     -0.05838500,     -0.00832689,      0.09878697,
                0.04036629,      0.14359829,     -0.03293378,     -0.03959622,
               -0.07977156,     -0.00990911,      0.08600605,     -0.00768808,
                0.12370829,      0.04431912,     -0.06607483,      0.00874671,
               -0.01159198,      0.01323127,      0.00642930,     -0.10717988,
               -0.01814255,     -0.11894936,     -0.02502660,     -0.05790946,
               -0.07367747,     -0.12364931,     -0.09778115,      0.02568377,
               -0.01919068,      0.04315903,     -0.01891583,     -0.12527554,
               -0.19167314,     -0.05756139,     -0.00343101,     -0.12948328,
                0.08712239,      0.00615818,     -0.07825353,      0.19512261,
                0.05829275,     -0.06061594,     -0.01003532,     -0.01379545,
                0.17606883,      0.08837730,     -0.11340521,      0.00720049,
                0.06880176,      0.02977044,     -0.01391938,      0.08074425,
                0.09577683,     -0.00719623,      0.01540830,     -0.03059862,
               -0.03674266,     -0.01394588,     -0.01280739,      0.08094020,
               -0.00410504,      0.10773835,     -0.12116766,     -0.09429065,
               -0.21451026,     -0.06760965,      0.10595068,      0.01213701,
                0.08822748,      0.05065746,      0.12812187,     -0.02774926,
               -0.05688212,      0.04194621,     -0.03515464,      0.03758588,
               -0.09001551,     -0.04910869,     -0.15070930,      0.03351967,
               -0.07558160,      0.00366587,     -0.03335070,      0.11492369,
               -0.08762097,     -0.07625991,      0.04826991,      0.03020221,
               -0.08992710,     -0.03361171,     -0.03085918,      0.01517557,
               -0.00892232,      0.01285969,      0.08193915,      0.03356921,
                0.09100523,      0.03547745,      0.03219833,     -0.10028714,
               -0.00082564,     -0.05443894,      0.00717202,      0.03592223,
               -0.09564009,      0.13532820,      0.08385914,     -0.09924732,
               -0.05012114,      0.10210103,     -0.13786867,      0.03987234,
                0.16901805,      0.04760427,      0.01099689,     -0.04852074,
                0.09790426,     -0.14842875,      0.00668308,     -0.10477434,
                0.08228847,     -0.01713992,     -0.05747812,      0.21372293,
                0.07095972,      0.01097872,      0.02153729,      0.06390518,
               -0.02926126,      0.01906807,      0.13508777,      0.13254142,
               -0.05224066,      0.04416380,     -0.07955627,      0.01307508,
                0.01238320,     -0.11488166,      0.21686885,     -0.02678831,
                0.07665724,     -0.05366954,     -0.05180557,      0.01535244,
                0.00348736,      0.02720676,      0.11374796,      0.05614076,
                0.06375517,      0.03443537,     -0.08132447,     -0.04106485,
               -0.02326174,      0.10885043,     -0.00370929,     -0.08447040,
                0.08825707,      0.10418701,     -0.05266422,     -0.03053481,
                0.00372911,      0.01882562,      0.01682987,      0.09495049,
                0.02677045,      0.01276047,      0.12184173,      0.03559588,
               -0.01755404,     -0.03233911,     -0.07325177,      0.01656750,
                0.04045542,     -0.01315044,     -0.02578286,     -0.08641870,
                0.01082331,      0.01333638,      0.13098149,      0.13625880,
               -0.02852596,      0.03076776,     -0.03623453,      0.06871925,
               -0.06738441,      0.07668096,     -0.01191565,     -0.00819251,
                0.12700449,     -0.11888608,      0.12764797,      0.02088806,
                0.02638585,     -0.03180259,      0.09301449,      0.12105317,
                0.11759975,      0.03876676,     -0.11196878,     -0.01080653,
                0.02292150,     -0.07197628,     -0.13560535,     -0.06284925,
               -0.06089924,      0.00654980,      0.01236331,      0.04867230,
                0.07473781,     -0.08684207,      0.08623776,      0.00893639,
               -0.00838693,      0.03631408,     -0.08017001,      0.05288961,
                0.01442866,     -0.03968446,      0.05205387,      0.00029272,
               -0.00408028,     -0.02546925,     -0.06453454,     -0.11387365,
                0.08004663,      0.01064051,     -0.01060474,     -0.01606286,
                0.00941056,      0.00764435,      0.01128227,     -0.13035877,
                0.04541177,     -0.09190430,      0.03546680,      0.02350760,
               -0.00817739,     -0.08821752,      0.05291354,     -0.05733148,
                0.02343574,     -0.04221356,      0.07266022,      0.03081842,
                0.08656645,     -0.00087810,      0.07042979,     -0.00650197,
                0.09096837,      0.03401241,     -0.03163342,      0.03993681,
               -0.00738775,     -0.12837090,     -0.03335416,      0.01888421,
               -0.17230222,     -0.04408604,      0.12036509,      0.03835835,
               -0.01928657,      0.01354130,     -0.01986185,     -0.05852900,
                0.06701627,      0.04513914,      0.00406555,     -0.04145531,
               -0.04839453,      0.03718642,     -0.03677694,     -0.10205724,
               -0.08307663,      0.04101464,      0.00412364,      0.09235963,
                0.02039605,     -0.06050146,     -0.05285704,      0.01219758,
               -0.04081319,      0.04165908,      0.04755240,      0.11292008,
                0.06944280,     -0.01954400,      0.03853340,     -0.13911921,
                0.10980059,      0.02380642,     -0.03667308,      0.14001779,
                0.01226347,     -0.09510461,     -0.07573160,     -0.00673717,
               -0.03127300,     -0.15898505,      0.06345248,     -0.06368759,
                0.01511725,     -0.01036578,      0.09826549,      0.09909732,
               -0.02563152,      0.04645764,      0.03963873,      0.11744586,
               -0.01807768,      0.02897951,     -0.06904165,     -0.12836775,
               -0.00347249,      0.07638500,      0.02209869,     -0.02174527,
                0.12596346,      0.01454214,      0.01986973,      0.00379669,
               -0.09510824,     -0.01330397,      0.10821453,     -0.10605735,
               -0.17669100,      0.00453479,     -0.02790547,     -0.03733830,
                0.01695468,     -0.04100975,      0.02284974,     -0.10127335,
               -0.03855220,     -0.06343636,      0.06618176,     -0.05558790,
               -0.12418444,      0.02532564,     -0.01759607,     -0.11532874,
               -0.08204425,     -0.03412434,     -0.02405876,      0.16047925,
                0.13821940,      0.10296889,      0.05253121,      0.05986717,
                0.05971374,      0.06425226,     -0.14342587,     -0.10279112,
               -0.16413254,      0.05465301,     -0.04560423,      0.20015727,
                0.05626160,      0.12401775,     -0.09095808,     -0.01355348,
                0.04007762,     -0.07725210,      0.04177551,      0.02204645,
                0.06049956,     -0.03338554,     -0.06813322,      0.08991662,
                0.08605989,     -0.00577355,     -0.02468054,      0.01362342,
               -0.16548032,      0.11008207,     -0.00366869,     -0.02870914,
               -0.01371692,      0.07671475,     -0.03306157,     -0.01897698,
                0.13728201,     -0.04748165,      0.14272156,      0.07607838,
                0.04097150,      0.05378174,     -0.04848129,      0.03727360,
                0.00501658,     -0.08048037,     -0.05565733,     -0.00646007,
               -0.00537606,     -0.13249724,      0.00664037,     -0.06345417,
                0.00140222,     -0.01300621,     -0.03190656,     -0.10615668,
               -0.05625494,     -0.01545685,     -0.01228534,     -0.06250533,
               -0.07260466,     -0.07447542,     -0.00363298,      0.04494793,
                0.06102744,      0.04385377,      0.04941936,     -0.16388611,
                0.02025568,     -0.01096696,     -0.15149535,     -0.06174537,
                0.12053836,      0.05864390,     -0.02631193,      0.00455261,
               -0.03353583,      0.08074203,     -0.05023583,     -0.00549584,
               -0.01551578,      0.04845943,      0.03880331,      0.06662413,
                0.09631696,     -0.05502834,     -0.03209303,      0.01589478,
                0.08958837,     -0.03140141,      0.03034801,      0.02548843,
                0.03623195,     -0.12919135,      0.01788078,     -0.03144691,
               -0.02748286,      0.08254255,     -0.08633348,     -0.06926112,
                0.02584108,     -0.07246768,     -0.03059923,      0.05299991,
                0.04530772,      0.04136652,     -0.00184660,      0.02526626,
               -0.00468394,      0.03147564,      0.01811984,      0.00178094,
               -0.07038045,      0.03422790,     -0.04288203,     -0.00618394,
               -0.12308019,     -0.06971079,     -0.12905397,      0.01827507,
                0.01815728,      0.04410094,     -0.01123581,      0.03613580,
                0.06969504,     -0.06024349,      0.05727910,      0.06472858,
               -0.14604628,     -0.00943840,      0.11934580,     -0.04092288,
                0.01927854,     -0.02005818,     -0.11745529,      0.05714903,
               -0.01296677,     -0.03840715,      0.09894428,      0.00162880,
               -0.12047681,      0.06928226,     -0.08424194,     -0.03873703,
               -0.03639069,     -0.04335552,      0.06473050,      0.00711717,
                0.00289995,     -0.01836628,     -0.00335508,      0.02600753,
               -0.01702984,      0.02575508,      0.06811036,     -0.01161140,
               -0.03448966,      0.01298923,     -0.06222939,      0.01761333,
               -0.15763572,      0.01980277,      0.06692243,      0.00177558,
               -0.01976364,     -0.00581934,      0.02720219,     -0.07796303,
                0.03837356,     -0.04949711,      0.00880885,     -0.05159487,
                0.05164334,     -0.05506157,     -0.09116751,     -0.02963085,
                0.05804667,      0.03783352,      0.02918915,     -0.20762856,
                0.03500944,     -0.01490629,     -0.00785999,     -0.01694829,
                0.03760711,      0.00194663,     -0.00976644,     -0.04368466,
                0.02161213,     -0.01798733,      0.00248721,     -0.10403025,
                0.09987783,     -0.02483657,      0.01249818,      0.07627355,
               -0.04134364,     -0.05765902,      0.01867656,      0.03697541,
               -0.03650885,     -0.02579764,     -0.07681131,      0.10720751,
               -0.00531066,      0.12779681,      0.12721892,      0.04020107,
                0.00017037,     -0.02828491,      0.03520647,      0.02152747,
                0.04515868,      0.02537110,      0.05799519,      0.03685962,
                0.01424612,     -0.04502466,      0.01870699,     -0.01006034,
               -0.01938842,      0.11176447,      0.04634340,      0.04865658,
               -0.00647656,     -0.00260943,      0.03639312,     -0.04778972,
                0.03952717,     -0.03756702,     -0.00837550,     -0.03129790,
               -0.00017612,      0.08088011,      0.12562370,     -0.05093595,
                0.01673951,     -0.03144957,      0.00277040,      0.01183387,
                0.07820008,     -0.03670446,     -0.00831529,      0.08538142,
                0.06682514,     -0.08627439,     -0.00142008,      0.03193930,
                0.05373519,     -0.14392129,     -0.01113942,     -0.09281151,
                0.10973123,      0.01627163,      0.09016365,     -0.10101399,
               -0.00722597,      0.06209136,      0.06660094,     -0.09920493,
                0.12266989,     -0.02238871,     -0.01737953,     -0.04669454,
               -0.09182146,      0.07245262,      0.01885982,      0.11201382,
               -0.00533938,     -0.09097283,     -0.00255298,      0.02210316,
                0.04113806,     -0.11695920,      0.02178180,      0.02458384,
               -0.09936631,     -0.15272917,     -0.06671743,     -0.07166021,
               -0.03619595,     -0.05297279,     -0.01397446,     -0.05458624,
               -0.01183637,      0.05719999,      0.14607020,     -0.03013810,
               -0.05250612,      0.02814298,     -0.02729958,     -0.04101002,
               -0.01416289,     -0.00364315,     -0.06594851,      0.03874177,
                0.02181662,      0.00633581,     -0.02651479,     -0.01748580,
                0.09542917,      0.03620314,     -0.00402756,     -0.15682466,
                0.01149174,      0.00509265,     -0.07937693,     -0.00963828,
                0.08682311,     -0.03994973,      0.02598642,     -0.02071829,
               -0.06104561,     -0.06736465,     -0.01591836,      0.00371108,
                0.03934208,      0.02537055,      0.00672382,     -0.06279530,
                0.09969057,      0.03505328,     -0.08742182,     -0.00348020,
                0.08253507,      0.02595150,      0.03227190,      0.05556642,
               -0.06810263,      0.06744967,     -0.02474200,     -0.03670640,
               -0.06244382,      0.12296506,      0.07555797,      0.04870173,
               -0.03265176,      0.02099111,     -0.04224889,     -0.02231800,
                0.04207526,      0.04585861,     -0.01799894,     -0.05939914,
               -0.00315992,      0.01271119,     -0.08574190,      0.07828700,
               -0.02933620,     -0.03781833,      0.02304700,     -0.00955907,
                0.08490944,     -0.03238985,     -0.06604870,     -0.09617983,
                0.01306359,     -0.09100733,     -0.00724715,      0.15043038,
               -0.04654594,     -0.00880465,     -0.06604186,      0.03097612,
               -0.01769836,      0.04095326,     -0.00882916,      0.08275998,
               -0.05933855,     -0.05652290,      0.06273253,     -0.15692046,
               -0.08928240,     -0.07200363,      0.09470446,     -0.06797604,
               -0.01914103,     -0.07294794,      0.00391193,      0.03791901,
               -0.08541733,      0.03200502,      0.01443382,     -0.02665422,
                0.19079590,     -0.01939650,      0.03522172,      0.03246336,
                0.07487260,      0.02309730,     -0.12670302,     -0.03375434,
               -0.01556326,     -0.05056798,     -0.28274411,     -0.02930258,
               -0.06270092,      0.00975664,      0.07380966,     -0.05089740,
                0.07072061,      0.05304310,      0.01460780,     -0.12274370,
               -0.04896592,      0.06766509,     -0.04389605,      0.09317171,
               -0.06305666,     -0.00185341,     -0.05484989,     -0.04020758,
               -0.03945205,      0.02091854,     -0.06598648,     -0.03611630,
                0.07530288,     -0.03875476,      0.04042758,     -0.07649519,
               -0.05328926,      0.06390221,     -0.12739196,      0.02124135,
               -0.05640348,      0.01178773,      0.12519898,     -0.01207574,
               -0.08298857,     -0.05634635,     -0.04039649,      0.07027133,
               -0.00234823,      0.02251747,      0.04377951,     -0.02497334,
                0.03536721,      0.04264827,     -0.06183542,      0.03968313,
                0.05040378,     -0.02147569,      0.01715809,      0.03092209,
               -0.12149607,     -0.11095401,      0.00018277,      0.07831013,
                0.05573810,      0.09262429,     -0.04069666,      0.06449537,
                0.07414718,      0.04926517,     -0.09669232,     -0.10108148,
                0.04907273,      0.00579644,      0.08140200,     -0.05559101,
               -0.02393900,      0.09912090,      0.04863407,      0.02986168,
                0.01341662,     -0.04950401,      0.16483843,     -0.02433464,
                0.05245816,     -0.11850385,      0.00058906,      0.01257943,
                0.03734518,     -0.04457099,     -0.07978502,     -0.03343501,
               -0.01137070,     -0.00142868,      0.02056230,     -0.03064763,
               -0.02043993,     -0.00784461,     -0.02320977,     -0.13426419,
                0.02213327,     -0.03327041,     -0.07728133,     -0.02454593,
               -0.02598977,      0.04380282,     -0.00422732,     -0.07945879,
                0.00344714,     -0.05711307,      0.03518663,     -0.09208929,
                0.05717455,      0.11350431,     -0.17250298,     -0.03322158,
               -0.00591670,      0.09124658,     -0.05129215,      0.01921231,
               -0.01334087,     -0.00773453,     -0.02524610,      0.03840428,
                0.02299762,      0.03130396,      0.07966302,     -0.02268975,
                0.00186443,     -0.04205193,      0.00172586,      0.04021944,
               -0.05212056,      0.01996840,     -0.09920509,      0.02409377,
                0.13643935,      0.04154662,     -0.04229332,      0.19564797,
                0.05122383,     -0.12131219,     -0.00103316,      0.02473165,
                0.07100278,      0.04328851,     -0.04765249,      0.03863124,
               -0.07573046,      0.02412724,      0.02136333,     -0.03295792,
                0.08739710,     -0.02295421,     -0.11708197,     -0.06221903,
                0.08684826,      0.04525299,     -0.06565277,      0.01076016,
                0.01794162,      0.07225373,      0.01349908,      0.08699355,
               -0.05379054,      0.01450714,      0.07310953,      0.06043344,
               -0.01922566,     -0.05529323,      0.07574145,      0.07913516,
               -0.04525480,     -0.04078109,     -0.01542614,      0.04560786,
                0.00239965,      0.03252234,      0.02226818,      0.00902088,
                0.07265165,      0.01407806,     -0.05362415,     -0.02912061,
               -0.02752120,     -0.09061576,     -0.11760204,      0.01382056,
               -0.08680457,     -0.06150195,     -0.06102974,     -0.00301466,
                0.06016754,     -0.08419112,     -0.01956655,      0.00381904,
               -0.01435719,     -0.12566625,     -0.08968934,      0.00014808,
               -0.03529894,     -0.07675597,      0.05882846,     -0.04678472,
               -0.00268879,     -0.01268348,     -0.15059172,     -0.03214680,
                0.07403170,     -0.03527180,     -0.00254951,     -0.05345169,
                0.08647658,     -0.02194724,      0.00499010,     -0.00722234,
               -0.01733785,      0.08445626,      0.06891971,     -0.01931348,
               -0.02788824,     -0.06003681,      0.01993048,     -0.10703813,
               -0.05315400,      0.06874969,      0.05700189,      0.07601023,
               -0.06794801,      0.10406961,     -0.03541490,      0.02031231,
               -0.10706186,     -0.00389683,     -0.10577161,      0.03046451,
                0.02913063,      0.13010840,      0.08832157,      0.00214952,
               -0.00357520,      0.07848466,     -0.01147515,      0.04394758,
               -0.02390774,     -0.04034385,      0.05524969,      0.01153114,
               -0.04104809,     -0.01577534,      0.01513227,      0.02411011,
               -0.00848315,      0.08339870,     -0.02113389,     -0.03455546,
               -0.01548263,      0.00974403,     -0.03705818,     -0.08706699,
                0.06222007,     -0.01286026,     -0.00490653,     -0.00941233,
                0.01405282,     -0.01405741,      0.09146362,     -0.01339370,
                0.03200090,     -0.01590587,      0.07559980,      0.02885188,
                0.03437951,     -0.03216241,      0.09855805,      0.02778430,
                0.00840500,      0.00324505,     -0.01272928,     -0.02850739,
               -0.06688536,     -0.01506643,      0.05046492,     -0.01170104,
                0.31248561,      0.02725060,      0.03875794,      0.00410277,
               -0.04783126,      0.03342973,     -0.03111421,      0.01466259,
                0.09695926,      0.06474237,      0.00780865,      0.07004410,
                0.16517003,     -0.16469409,      0.08580564,      0.06443476,
               -0.10446695,     -0.02521346,      0.07474209,     -0.01211051,
               -0.03589003,     -0.00544694,      0.09153146,     -0.03057291,
               -0.00499226,     -0.05835245,      0.01894120,     -0.13301998,
               -0.13253820,     -0.08217651,      0.00103863,     -0.07913166,
                0.01878608,     -0.04376190,     -0.11154225,     -0.01317998,
                0.06868102,      0.04822680,      0.04012375,      0.00275426,
                0.04961416,     -0.02585188,      0.00639941,      0.06279705,
               -0.05227656,      0.09717279,     -0.07907346,     -0.00582778,
               -0.02387688,      0.01027996,     -0.03109197,      0.03564661,
               -0.01208048,     -0.05551068,     -0.00948415,     -0.06218668,
                0.00502012,      0.06596567,      0.06365320,      0.02996337,
                0.10131752,      0.02783032,     -0.02777129,      0.07003342,
                0.06144000,     -0.00439536,      0.00090185,     -0.05077557,
               -0.03842455,      0.05126068,     -0.03015918,      0.01148227,
               -0.03080012,      0.13162376,     -0.06661834,      0.02041024,
                0.05101940,      0.06007539,     -0.00772844,     -0.02078515,
               -0.02049041,     -0.03112222,      0.06040795,     -0.04663741,
                0.02588495,     -0.02179853,      0.01263636,     -0.08828513,
               -0.14322232,     -0.05019389,      0.00863420,      0.05208666,
               -0.11277129,      0.02648741,     -0.00100277,      0.01290166,
               -0.11073358,      0.01501028,     -0.08740876,     -0.09739847,
               -0.00827545,      0.11855821,      0.03605064,     -0.03402957,
               -0.00140364,      0.02917248,     -0.02724902,     -0.02516964,
               -0.01850026,     -0.13095726,      0.02939493,     -0.07202717,
                0.00081115,     -0.06337368,      0.00551138,     -0.14101601,
               -0.00692258,     -0.02608822,     -0.06691439,      0.02122530,
                0.02149630,      0.00099782,     -0.10266258,      0.04339773,
                0.01842768,     -0.08278306,     -0.00271239,     -0.07363182,
                0.10282666,     -0.11904334,     -0.12516840,      0.05706704,
               -0.03705855,     -0.10813100,     -0.00694355,      0.00715579,
               -0.03464249,      0.04744046,     -0.02150496,      0.00733261,
                0.03334861,     -0.01505861,     -0.03175025,     -0.01138749,
               -0.10338096,      0.05592491,      0.01334065,      0.03662892,
               -0.06474216,     -0.04739122,      0.08285025,     -0.00728464,
               -0.09160317,     -0.00889489,     -0.00189102,     -0.03498210,
               -0.08266622,      0.04539537,     -0.01965497,     -0.01869990,
               -0.02064168,      0.02771199,     -0.00636658,      0.03474491,
                0.03253695,      0.04641685,      0.08695269,      0.04377859,
               -0.03013389,      0.00555613,     -0.04914907,     -0.03375233,
                0.06910190,     -0.08046739,     -0.01961270,      0.06290693,
               -0.04698730,      0.06968307,      0.02285708,     -0.05236067,
                0.02019583,     -0.09511426,      0.06324472,      0.07360234,
               -0.04950883,      0.06986915,     -0.00498469,      0.06865072,
               -0.11305447,     -0.11707674,     -0.07877359,     -0.04235009,
               -0.03760435,      0.08500006,      0.01572762,      0.04576002,
                0.05789286,     -0.00729514,      0.00058879,      0.07235552,
               -0.03499310,     -0.02944779,     -0.15482184,     -0.02599342,
                0.07145225,      0.00768659,      0.07704674,     -0.07998772,
                0.01547879,      0.01920597,      0.15456112,     -0.07623232,
               -0.08849729,     -0.00083029,      0.00152251,      0.05191815,
               -0.05643020,     -0.08331929,      0.03681925,     -0.03788218,
               -0.02714691,     -0.01455383,      0.05037289,     -0.02149909,
                0.10088567,      0.06062958,     -0.04582627,      0.00325820,
                0.04675566,     -0.00476341,     -0.00152141,      0.02020131,
                0.11107283,     -0.01020508,      0.04477162,      0.04833339,
               -0.06657133,      0.07970595,      0.01735805,      0.06592300,
                0.07197111,      0.07609164,      0.01485219,      0.05998691,
                0.09332877,     -0.08435529,     -0.00346225,     -0.07761537,
               -0.04938053,      0.02568890,      0.05149020,     -0.03311537,
                0.00756115,     -0.14407445,     -0.03143122,      0.10080006,
               -0.01138628,     -0.07328173,     -0.07749479,      0.05146606,
                0.04075471,     -0.06597009,     -0.02124099,     -0.00890048,
               -0.12236165,     -0.05203425,      0.01502283,     -0.07181924,
               -0.00653857,      0.00789354,     -0.04561578,     -0.05089454,
               -0.00779576,      0.00806150,      0.07586008,      0.03000814,
               -0.00618882,     -0.13553543,      0.06655230,      0.02369490,
                0.03048026,      0.02426817,      0.03931562,      0.02929961,
                0.03036183,     -0.02979020,      0.06551307,     -0.03795141,
                0.04229010,     -0.01571313,     -0.02491441,      0.01327503,
               -0.02411272,      0.04427977,      0.00884289,     -0.02588781,
                0.03739427,     -0.03577418,     -0.10480145,     -0.00901575,
                0.09517062,     -0.05963451,      0.03995119,      0.03436412,
               -0.02278785,     -0.00229604,      0.05159025,      0.07974184,
                0.05763606,     -0.07815165,     -0.04023619,     -0.01903687,
                0.06407535,     -0.01292547,     -0.04660410,      0.04572314,
               -0.13723117,     -0.08631254,     -0.07256353,     -0.00164947,
                0.01209191,     -0.03084903,      0.03690564,     -0.02348449,
               -0.05684789,     -0.04061918,     -0.00554276,      0.04837392,
               -0.05777206,     -0.06206212,      0.04649315,     -0.05873229,
               -0.05885315,      0.02632730,      0.07021300,      0.03275701,
               -0.11592740,     -0.06491085,     -0.04399062,     -0.12439372,
                0.02398432,      0.03638941,      0.03984126,     -0.00730626,
                0.15550852,      0.02031150,     -0.07516479,     -0.07404177,
               -0.05670720,      0.00643732,      0.06812757,     -0.07818646,
                0.00528360,     -0.04279932,      0.13426176,      0.00806335,
               -0.08694565,      0.10608247,     -0.05814765,     -0.02364175,
               -0.02243161,      0.00330584,     -0.01462754,     -0.03298173,
               -0.08605780,     -0.04439433,      0.06295383,      0.03787747,
               -0.06350943,      0.02751615,      0.02447460,     -0.00238013,
                0.03191914,     -0.02595364,      0.07094170,      0.02834636,
                0.02092067,      0.06351146,     -0.02255167,      0.04860735,
                0.02102412,     -0.05728278,     -0.08787876,      0.02160450,
                0.05351613,     -0.03942768,     -0.00997616,      0.05875311,
                0.07529119,     -0.02215230,     -0.01918406,      0.03524737,
               -0.06319614,      0.08942849,      0.05495619,      0.04614043,
                0.04141089,     -0.02298717,      0.19281664,     -0.07047985,
                0.04627113,     -0.03026660,      0.03720817,      0.01690731,
                0.05260497,     -0.01390497,     -0.03219672,      0.06153922,
               -0.14792447,     -0.00482785,     -0.22094324,     -0.02736012,
               -0.02762427,     -0.01556502,     -0.03921791,     -0.04047569,
                0.03865809,     -0.04481118,     -0.06136941,      0.01693615,
               -0.01044692,      0.08978569,     -0.10207216,      0.06066395,
                0.04219406,      0.10982425,      0.05612437,     -0.06540667,
               -0.04668104,      0.01577888,      0.07797348,      0.11238472,
                0.00973537,      0.00180918,     -0.01774814,     -0.07917695,
               -0.01608978,     -0.04631628,     -0.01166027,      0.01108741,
               -0.02677303,     -0.01331620,      0.11121961,     -0.10695396,
               -0.07465705,      0.06756550,     -0.04532535,     -0.03180030,
               -0.07245085,     -0.02595873,      0.11590448,      0.00993896,
               -0.06233799,     -0.03843437,     -0.05623670,     -0.07277268,
               -0.03911892,      0.02093105,      0.00296059,      0.00015726,
                0.01504388,      0.02778513,      0.02990753,     -0.08660112,
               -0.00031057,     -0.00787642,      0.02563300,      0.07347333,
               -0.10653725,     -0.12165102,      0.04389266,     -0.09826028,
                0.01629040,     -0.04098556,      0.04576881,     -0.00161525,
                0.00999576,     -0.05578596,     -0.00871579,      0.04844480,
               -0.00023528,      0.13698666,     -0.10620482,     -0.01541964,
               -0.12793534,      0.03611051,      0.02336371,      0.08140928,
               -0.03442153,      0.10728569,      0.02744443,      0.02489515,
               -0.03549615,      0.01314429,      0.05223207,      0.02679591,
                0.00216234,      0.04704005,      0.03241413,     -0.01125057,
