
// weight for Expansion Convolution layer has dimension of torch.Size([1, 1, 480, 20])
const float MBConv6_6_squeeze_excitation1_conv2d_weights [1 * 1 * 480 * 20] =
{
-0.02905650,      0.06618211,     -0.00111377,      0.03906493,
                0.01644019,      0.03651639,     -0.05352182,      0.06346355,
               -0.04256546,      0.06998502,      0.01131379,     -0.05720204,
                0.15698658,      0.08146504,      0.12654053,      0.13901997,
                0.02889570,     -0.10948788,     -0.00147309,     -0.07179787,
               -0.01322496,     -0.06699725,      0.00167785,     -0.02005522,
                0.25429434,     -0.01464848,     -0.01866473,      0.00995590,
                0.10723893,      0.20885998,     -0.05572249,      0.04941346,
               -0.25681663,      0.03544503,      0.05331341,      0.01440140,
                0.03574630,      0.05520576,      0.04366296,      0.09977917,
               -0.00572932,     -0.00401954,      0.00398065,      0.19557628,
                0.10360424,      0.07597432,     -0.03501823,      0.03936001,
               -0.10079075,     -0.01994744,     -0.03974485,     -0.00450398,
               -0.00484116,     -0.01234259,     -0.01120084,      0.08183435,
                0.02487531,     -0.51578945,     -0.00357673,     -0.02084867,
               -0.05835415,      0.01543465,      0.06721701,      0.05649754,
                0.02440869,      0.00021594,     -0.12044717,      0.05233045,
               -0.05290343,      0.02892877,     -0.02919758,     -0.15834361,
                0.12370703,     -0.02892840,     -0.09005985,     -0.07253243,
               -0.01848317,     -0.00520475,     -0.09244492,     -0.01249416,
               -0.06229438,     -0.01080640,      0.10246867,      0.09601916,
                0.75764084,      0.07688403,      0.00303134,      0.01751764,
               -0.02969695,      0.06989835,      0.08958712,     -0.05420882,
                0.07054700,      0.00828274,     -0.03732553,      0.00600603,
                0.03628035,      0.05296887,     -0.00111784,      0.12033977,
                0.01063639,      0.00828924,      0.04479584,      0.02804638,
                0.03890709,      0.07162862,      0.00570123,     -0.12923118,
                0.05420113,      0.00682686,      0.12600419,     -0.00547229,
                0.20706688,      0.16638882,     -0.08333642,      0.05440416,
               -0.25423843,     -0.04374694,      0.01184654,      0.01095871,
                0.00040311,     -0.03782027,     -0.05607719,      0.20049709,
               -0.01300265,      0.03170022,      0.02806235,      0.01004770,
                0.03162139,     -0.03703708,      0.07276068,     -0.00581325,
                0.01802802,      0.08529810,     -0.02402772,      0.01591190,
               -0.01461276,     -0.04696542,     -0.07838053,     -0.05972234,
               -0.09507079,     -0.06153435,     -0.01230713,     -0.03122720,
                0.08589265,      0.01390758,     -0.01923865,     -0.16399738,
                0.04902672,     -0.01316241,     -0.00448299,     -0.17693317,
                0.20933020,      0.06743557,     -0.06469759,     -0.02564296,
               -0.00801124,     -0.00704835,      0.04815780,     -0.18477029,
               -0.01327552,      0.06007739,     -0.14865370,      0.08057254,
               -0.00118773,      0.00749064,      0.08423369,      0.15391131,
               -0.00478533,      0.02809219,     -0.03779355,     -0.11807403,
               -0.03545628,     -0.04002040,      0.01052511,      0.09346852,
               -0.12774691,      0.03063460,     -0.06613343,      0.03714940,
                0.02197883,     -0.09807602,      0.09544986,      0.07234079,
                0.00273210,      0.05251470,      0.04423567,     -0.00437434,
                0.14306815,     -0.00960952,     -0.04678276,     -0.04471453,
                0.00810015,      0.05900799,      0.06310160,      0.00980753,
                0.01194598,     -0.02529335,     -0.00190521,      0.06307027,
               -0.09659222,      0.02739683,      0.09032753,      0.01086193,
               -0.01758036,      0.01068958,      0.04626516,     -0.03497338,
               -0.00642547,     -0.04803013,     -0.05340438,      0.14055733,
               -0.02779708,     -0.13064490,      0.02815783,      0.00725242,
                0.05046970,      0.06124939,      0.02934621,      0.11885934,
               -0.06641962,     -0.05984750,     -0.01933304,     -0.03543497,
               -0.12075838,      0.14962651,      0.19929500,     -0.03917374,
                0.02969436,     -0.15227242,     -0.02439139,     -0.03217094,
                0.00515216,     -0.09389970,      0.12633896,     -0.31268045,
               -0.04853154,     -0.05218421,     -0.00286513,      0.03995138,
               -0.00157746,      0.04873380,     -0.00925377,      0.05091474,
                0.09798439,      0.03757000,     -0.06486822,      0.07161096,
                0.03277273,      0.05713386,     -0.04499723,     -0.00075252,
                0.11624722,      0.05714167,     -0.01135465,     -0.06657504,
                0.07692091,      0.10031754,      0.06584684,     -0.03784363,
                0.05056908,     -0.08670953,      0.08340555,     -0.04035062,
               -0.00459714,      0.00039372,     -0.06071322,      0.09036058,
               -0.06817708,      0.02483215,     -0.07741328,     -0.05205407,
               -0.00771885,      0.04611587,      0.01551532,      0.02451414,
                0.01845546,      0.03249252,     -0.08469667,     -0.02345959,
                0.01042199,     -0.00890299,     -0.05555944,     -0.03408073,
                0.06034324,     -0.00840123,      0.03663552,      0.00760342,
                0.03002709,     -0.01432015,      0.03807907,     -0.16313186,
                0.02635596,     -0.01615012,      0.08919837,     -0.21344674,
               -0.08317197,      0.09793395,      0.11237969,      0.03449406,
                0.03218137,      0.01203672,      0.09433779,     -0.01419160,
                0.01488347,     -0.03849601,      0.06286336,     -0.01820188,
               -0.03911548,     -0.02115242,     -0.01792528,      0.29296860,
               -0.02312542,      0.24180745,      0.02633976,     -0.07241534,
                0.01955988,      0.25405914,     -0.00219052,      0.02324105,
               -0.13777387,     -0.18711878,     -0.04337665,      0.05226297,
                0.04548660,      0.07230682,      0.03818816,      0.00141720,
                0.04240543,     -0.04590224,      0.07791759,      0.07307969,
               -0.02085836,     -0.01386913,     -0.01273826,      0.06411653,
                0.10089888,      0.14368920,      0.00196385,     -0.05093561,
               -0.01454366,     -0.08454881,     -0.00299745,     -0.20043041,
               -0.02211762,     -0.09559105,      0.02888860,      0.03368574,
                0.03742369,      0.08355958,     -0.01858304,     -0.03454696,
                0.25384381,     -0.05455637,      0.03055423,     -0.09761647,
                0.11154766,     -0.01232126,      0.00765007,     -0.03022920,
               -0.06704801,     -0.00737844,     -0.35475820,      0.04294309,
                0.01944594,      0.01482207,     -0.00090841,      0.08503140,
               -0.04631195,     -0.08165261,      0.06603198,      0.03336806,
                0.06346633,      0.20288599,      0.04212689,      0.05894465,
                0.02821350,      0.05386080,      0.05946973,     -0.12347362,
               -0.08415695,      0.00091826,      0.09995545,     -0.02905654,
                0.16097958,      0.07481782,      0.02138072,     -0.02133868,
                0.10431667,      0.10867912,      0.07731763,     -0.08814465,
                0.01260842,     -0.16872741,      0.00304871,     -0.00040271,
               -0.59580129,     -0.03381099,      0.08143462,      0.03517899,
                0.01952638,     -0.00392017,      0.05665334,     -0.02972462,
                0.02867474,     -0.19359481,     -0.08069542,     -0.00046783,
               -0.02559230,     -0.11491932,     -0.08713194,      0.01564609,
                0.06630418,      0.02551883,      0.01688444,      0.05029209,
               -0.04501583,      0.04382641,      0.04787169,      0.01236629,
               -0.05173316,      0.02616443,      0.00000106,     -0.02501927,
                0.00586300,      0.02596187,      0.01482223,      0.04785890,
               -0.36263615,      0.02863857,     -0.02433363,      0.00290814,
               -0.07113426,     -0.02404248,     -0.05713356,     -0.08320960,
               -0.08449726,     -0.02559219,      0.05020348,     -0.02090404,
               -0.01497960,      0.36058083,      0.00052839,      0.09255960,
                0.02235981,     -0.07142690,      0.02760541,      0.13528040,
                0.07282011,      0.04256639,     -0.11741684,     -0.09936201,
                0.04313792,      0.14256242,      0.02522788,     -0.12099549,
               -0.02148313,      0.35691914,     -0.01522366,     -0.04790716,
               -0.13805352,     -0.04799992,     -0.03007279,      0.18254812,
                0.09129212,      0.01631950,     -0.07413588,      0.02374044,
               -0.04059589,     -0.02388571,     -0.05687742,      0.02137782,
               -0.00676508,     -0.03619036,      0.07266720,      0.02822519,
                0.00553219,     -0.02664038,      0.09308046,      0.05455152,
               -0.02437395,     -0.04389875,      0.02339301,      0.02832619,
               -0.01536298,     -0.05326868,     -0.06293211,     -0.03054328,
               -0.02365259,     -0.13100779,      0.13078204,     -0.22273327,
                0.32770813,     -0.12173917,      0.03569644,     -0.07549612,
                0.02580534,     -0.02076642,     -0.02182006,      0.05419970,
               -0.10346761,     -0.05736814,      0.03075134,      0.06410604,
                0.19750775,      0.04489648,      0.05021003,      0.10612172,
                0.21630934,      0.14539063,     -0.02548830,     -0.08529122,
               -0.34660423,      0.01575287,      0.05424127,     -0.04889714,
                0.06072856,      0.09064868,     -0.00547009,      0.13290530,
               -0.02094792,      0.01062246,     -0.06144126,      0.10116352,
               -0.05687398,      0.05530215,     -0.02354568,     -0.03861720,
               -0.11384601,     -0.04809558,     -0.08013463,     -0.02841266,
               -0.02210880,     -0.03100698,     -0.02705741,      0.06280003,
               -0.02254695,      0.02787620,     -0.07072942,      0.07289720,
               -0.04191270,     -0.15398866,      0.01081682,     -0.05539747,
               -0.06569380,     -0.03612769,     -0.12022686,      0.01539071,
               -0.00468647,      0.04234546,     -0.06781895,     -0.17701285,
               -0.01575961,     -0.01070212,      0.00987364,      0.04511569,
               -0.02824642,     -0.00987284,     -0.22869520,     -0.05541876,
                0.00554073,     -0.06829299,      0.01390516,      0.07240097,
                0.01321520,     -0.02937569,      0.15251745,     -0.07006514,
               -0.08114579,      0.01091707,     -0.13242510,     -0.02154740,
               -0.05438350,     -0.01800744,      0.23997061,      0.05181497,
               -0.07475248,      0.00968520,     -0.04572568,      0.03627342,
               -0.02798416,     -0.01732226,     -0.06697873,     -0.03243520,
                0.04355403,      0.19515744,      0.02130788,      0.10749958,
                0.02934593,     -0.07316975,     -0.06428313,     -0.10592607,
                0.00065836,     -0.01023822,     -0.03492211,     -0.00816044,
                0.07986695,     -0.09276469,     -0.05472646,     -0.05126584,
               -0.00416306,     -0.05087868,      0.12181723,      0.07233611,
               -0.03799979,      0.00915325,     -0.00562463,      0.00333500,
                0.00720194,     -0.01078894,     -0.01400222,     -0.12045336,
               -0.00547071,     -0.08214351,     -0.01656893,      0.02310883,
               -0.02544731,      0.00694452,     -0.04514714,      0.00470510,
               -0.02387834,     -0.00479157,     -0.04696484,      0.08734135,
               -0.09646413,     -0.01266424,     -0.00049921,      0.06646300,
                0.11530739,     -0.03747235,     -0.04274885,      0.07509978,
               -0.03811167,     -0.04195324,     -0.00027293,     -0.01805803,
                0.05822174,     -0.02793247,      0.00086288,     -0.15380716,
               -0.05868622,     -0.00153322,      0.11539928,     -0.09483201,
               -0.02383247,     -0.03987898,      0.00843682,      0.14822406,
               -0.04879348,      0.05375775,      0.04749078,     -0.01380661,
               -0.06170894,     -0.01503802,     -0.03636400,      0.22534096,
               -0.00249982,     -0.03428428,     -0.04794574,     -0.02055766,
                0.07867658,     -0.01139589,     -0.03953501,      0.13164295,
               -0.06265869,      0.01278003,      0.04059092,     -0.06441048,
                0.04155657,     -0.10293769,     -0.03464616,     -0.07313605,
               -0.03162194,      0.12564982,      0.06358223,     -0.01745905,
               -0.03361857,     -0.12030096,      0.16540113,      0.12251189,
                0.03987879,      0.02908050,      0.04462714,     -0.07912759,
               -0.02644839,      0.04528458,      0.10553376,     -0.03197959,
                0.00874499,      0.04929595,      0.14563644,      0.03037433,
               -0.06808869,     -0.00764197,      0.01262455,     -0.01117260,
               -0.07027282,     -0.05830741,     -0.08113380,      0.18046264,
               -0.01497275,      0.00552045,      0.13914150,     -0.05242315,
               -0.04861271,     -0.18072222,     -0.05030251,     -0.04640612,
                0.06796534,     -0.21001486,     -0.05040780,      0.01334748,
               -0.11421739,     -0.09309523,     -0.09965789,      0.01300629,
               -0.02620845,     -0.05085712,     -0.03392390,     -0.01211265,
                0.00236305,     -0.10610960,     -0.04568613,      0.15478966,
               -0.11881663,      0.01917455,      0.05910191,      0.17086497,
               -0.15584153,      0.07333563,     -0.12505221,     -0.02494448,
               -0.17657661,     -0.06281365,     -0.09810202,     -0.08993313,
               -0.05513741,     -0.00767675,     -0.13436726,     -0.07640167,
                0.10103768,      0.17381196,      0.24727094,     -0.03107851,
               -0.11854843,     -0.05960087,     -0.02195171,     -0.04264877,
                0.05322162,      0.00875508,     -0.01724162,      0.06651554,
               -0.00265773,      0.01013010,     -0.02509482,     -0.00132589,
               -0.00080448,     -0.03493682,      0.00223605,     -0.00627469,
               -0.05461983,      0.15920965,     -0.02578519,      0.01585467,
                0.02233306,     -0.02234156,     -0.08630636,      0.03568409,
               -0.06945205,     -0.09410110,      0.05409769,     -0.06312704,
               -0.07266293,     -0.02415015,     -0.01970419,     -0.04773796,
               -0.08686806,      0.00544342,     -0.00935451,      0.03774482,
                0.02140491,     -0.05936796,      0.05614953,      0.14459482,
                0.02414827,     -0.03966429,      0.07027053,      0.09844840,
               -0.04884901,     -0.09686714,      0.04972853,      0.07491418,
               -0.04948832,      0.07633360,      0.05581958,     -0.04616985,
                0.03748643,      0.05753772,      0.01835325,     -0.03257552,
                0.03070864,     -0.28365543,     -0.04334528,     -0.04738159,
                0.00949330,     -0.08193667,      0.08256982,     -0.08888400,
               -0.03258219,     -0.07586509,      0.04433688,      0.04215918,
                0.01731591,     -0.03050372,      0.00578279,     -0.05104753,
               -0.07914206,      0.05064397,     -0.04129588,      0.11941699,
               -0.04887537,     -0.00741695,      0.06242179,     -0.03372611,
                0.01393486,     -0.01068659,      0.02546041,     -0.06361733,
               -0.08386781,     -0.02133085,     -0.00387696,     -0.20010550,
                0.15283111,     -0.02526798,      0.02180715,     -0.10432299,
               -0.04828383,     -0.05319349,     -0.02499196,     -0.04031119,
               -0.16214481,     -0.00385970,      0.12149529,      0.05094823,
                0.05439239,     -0.03579931,     -0.07998212,      0.18066126,
               -0.03092420,     -0.10365743,      0.05087973,      0.04454445,
               -0.04084631,     -0.17373511,     -0.04340269,      0.04021365,
               -0.03724609,     -0.04191809,     -0.02692182,     -0.09735902,
               -0.09993780,     -0.03303032,     -0.01765581,      0.07859483,
                0.01846741,     -0.06698755,     -0.00865522,     -0.07982185,
                0.07485420,      0.10972561,      0.05231698,      0.01301594,
               -0.01718828,     -0.02845133,     -0.00219150,     -0.04663257,
                0.07343067,     -0.01765897,     -0.02114664,      0.01030541,
               -0.08031789,     -0.11091299,     -0.04631873,     -0.03758266,
                0.06508061,      0.01768876,     -0.11720944,     -0.06859645,
               -0.05684120,     -0.08732476,      0.01201852,     -0.01087073,
                0.15150279,     -0.05533466,     -0.05499571,     -0.06347209,
               -0.14507665,      0.11700140,      0.01634490,     -0.03936062,
               -0.07234293,     -0.03968466,     -0.00977033,      0.03512802,
               -0.05223105,      0.02987950,     -0.01931254,      0.07265875,
               -0.04763432,     -0.04666150,     -0.08619868,     -0.03399910,
                0.06365161,     -0.03670711,     -0.17963816,      0.07040532,
                0.14789689,     -0.01821914,      0.00179596,     -0.00060564,
               -0.03127374,     -0.13852137,     -0.24484779,      0.11148307,
               -0.11037052,      0.09576829,      0.00120036,     -0.08329246,
                0.02101742,      0.01802957,     -0.04832759,     -0.05874722,
                0.03970546,      0.14801279,      0.16663931,     -0.02668967,
               -0.04559973,      0.00170674,      0.02333573,      0.00307526,
               -0.08427060,     -0.03663354,      0.03782603,     -0.13986334,
                0.15115407,     -0.01962748,     -0.10361926,     -0.02406507,
                0.03363449,     -0.06588228,     -0.08840173,      0.02125911,
               -0.04157710,     -0.06214990,     -0.24556376,     -0.08317599,
               -0.03293607,     -0.02050748,     -0.03627475,      0.00539578,
               -0.00261644,      0.01138986,     -0.05024972,      0.02662484,
               -0.02926992,     -0.19465992,      0.00663568,     -0.02652362,
                0.03337833,      0.01025064,      0.00019070,     -0.48402449,
               -0.14009701,     -0.03600392,      0.02088189,      0.17563048,
                0.10779942,      0.01928192,      0.11631434,      0.02632546,
               -0.02086983,     -0.07720678,      0.01687841,     -0.01896309,
               -0.05275505,     -0.07149239,     -0.24688908,      0.08334045,
               -0.03608284,      0.01355691,     -0.02984001,      0.01383382,
                0.08488954,      0.01095682,      0.03805123,     -0.01014286,
                0.00406958,     -0.01650333,     -0.04577938,      0.03258655,
                0.02753912,      0.01734578,     -0.06404450,     -0.45448270,
               -0.01605103,      0.05262651,      0.03452063,     -0.13488100,
                0.05336355,     -0.03336254,      0.02466910,      0.07482839,
               -0.00830243,     -0.00292593,     -0.03280212,     -0.18173945,
               -0.01773642,      0.07906236,     -0.03633376,      0.02423637,
                0.06129513,      0.03994337,      0.10664153,     -0.04458459,
                0.03249536,     -0.00728817,      0.04994677,      0.03412876,
                0.03399610,      0.05457528,      0.07768736,      0.00373300,
                0.08070326,      0.02281515,     -0.04517370,      0.05281935,
                0.03297042,      0.03665167,      0.02307690,     -0.06814662,
                0.01280675,      0.05137672,      0.01746950,      0.09251967,
               -0.01913125,      0.00594657,      0.14770755,      0.02063345,
               -0.02824468,     -0.05785421,     -0.03979553,      0.06883188,
                0.06670058,      0.00813342,      0.07095063,      0.03002877,
                0.05755091,     -0.05857911,      0.02312348,      0.05809585,
                0.04002387,     -0.10110618,     -0.00774853,      0.03101331,
                0.08137841,     -0.08637702,      0.01499930,     -0.05534927,
                0.00623203,     -0.09499597,     -0.11856280,      0.14408256,
                0.02666409,     -0.06049190,     -0.07283385,     -0.00915221,
                0.38653028,      0.02963994,      0.01972820,     -0.08585114,
                0.02378992,     -0.06334333,      0.04024856,      0.02162144,
                0.05706518,     -0.04059864,      0.02148918,      0.00647170,
               -0.04702422,      0.08213990,      0.02987344,      0.25038540,
                0.01631709,      0.10178900,     -0.02677875,      0.08765458,
               -0.06970494,      0.03412528,     -0.01805786,      0.02408499,
                0.06332624,     -0.00360757,      0.03755894,     -0.02121193,
               -0.01705953,     -0.05150478,      0.04860247,     -0.61099893,
               -0.02992317,     -0.01897943,      0.01539993,     -0.00051473,
                0.00005863,      0.03985259,      0.11123268,      0.02194794,
                0.04608949,      0.06653921,     -0.04839415,      0.09346084,
                0.04982300,     -0.01479265,      0.21724348,     -0.00906252,
               -0.03105680,     -0.00303627,      0.02398355,      0.01459282,
               -0.10719061,      0.00477396,     -0.01689761,     -0.03343561,
               -0.04185716,     -0.08161002,     -0.00392517,      0.04650417,
                0.18706577,     -0.02687569,      0.09884880,     -0.02633753,
                0.09860267,      0.03992983,      0.05576437,      0.13995768,
                0.04710399,     -0.02571481,      0.03713402,     -0.01170040,
                0.00694354,     -0.05697440,     -0.00125639,      0.05489419,
                0.02150890,     -0.07952174,     -0.10150875,     -0.04290821,
               -0.01559156,     -0.04032941,      0.05551051,     -0.03673202,
               -0.07673434,      0.08334744,     -0.00017557,      0.00636680,
               -0.04545046,      0.03925636,      0.01829049,      0.03744286,
                0.09162281,      0.00865971,      0.12416895,     -0.01172901,
                0.00174097,      0.03113780,      0.02811012,      0.03932314,
                0.06976978,      0.09924765,      0.01863191,      0.03751329,
               -0.07506392,      0.10197013,      0.02850755,     -0.07292617,
               -0.02143640,     -0.02506544,     -0.02228878,     -0.01861495,
                0.23623350,      0.10060950,      0.01386966,      0.06893025,
               -0.03814414,     -0.04154196,      0.07355160,     -0.03093397,
               -0.07937752,      0.00659827,     -0.02000812,      0.06434924,
               -0.12098654,      0.09991221,     -0.11330297,     -0.05060150,
               -0.14728563,      0.04806364,      0.01828332,     -0.00322137,
                0.01525679,     -0.08781660,     -0.00519294,     -0.03243759,
               -0.03133304,      0.06172061,      0.16681828,      0.01405444,
               -0.01390127,      0.04397366,      0.50792652,     -0.00346978,
               -0.00915501,     -0.00252398,     -0.05427170,     -0.00179507,
               -0.02980155,      0.03040085,      0.03722504,      0.10552630,
               -0.01046664,     -0.00282488,      0.04658724,      0.41354975,
                0.07345996,      0.06424839,      0.07305447,      0.02859372,
                0.04381976,      0.03350445,     -0.01022117,     -0.01378063,
               -0.05785764,      0.22085582,      0.06160581,     -0.16217160,
                0.06456585,     -0.04422449,      0.03783810,      0.06504971,
                0.01574811,      0.00524141,     -0.06503530,      0.17449753,
                0.11481038,     -0.02967718,      0.04514415,      0.08528507,
                0.01114381,      0.07347070,      0.00744892,     -0.09114781,
                0.04898332,      0.10172390,      0.00894333,      0.03703535,
                0.00313524,      0.02788324,     -0.00351487,     -0.12132886,
               -0.00518409,     -0.01953262,     -0.13126513,      0.07306711,
                0.00931290,      0.05127789,     -0.00991679,     -0.06195472,
                0.01673626,      0.11675028,      0.02048166,      0.07401533,
                0.26051924,      0.02354370,      0.11610994,     -0.09558170,
               -0.02949422,      0.04526091,      0.06406317,     -0.08559330,
                0.09811494,      0.00825183,     -0.09957121,     -0.03303672,
                0.03811148,      0.03707908,     -0.04630416,     -0.08544469,
                0.58927053,      0.02525498,     -0.08218575,      0.05783994,
                0.01013952,     -0.11006847,      0.04813504,     -0.00621906,
                0.02528483,      0.08096445,      0.00505802,      0.06430319,
                0.04348461,     -0.01980923,      0.00430376,      0.05795771,
               -0.54699624,      0.01732188,     -0.04767516,      0.02543843,
               -0.09929067,      0.03734707,      0.02833281,      0.03669798,
                0.00686783,     -0.59743726,     -0.30780548,      0.00621352,
               -0.02826324,     -0.00592524,      0.01704872,      0.05759888,
                0.03285462,      0.03847147,      0.02823110,     -0.07329322,
               -0.04717910,      0.05724420,     -0.06737509,      0.02223328,
               -0.02826951,     -0.00891803,     -0.05681451,     -0.01161687,
                0.01224752,      0.00318651,      0.03363885,     -0.14426300,
                0.00608594,     -0.14103070,      0.08391153,     -0.02439069,
               -0.02629597,      0.01721617,     -0.05270965,      0.04743294,
                0.01465961,      0.06418087,     -0.03391131,     -0.05002605,
               -0.00531257,     -0.30726525,     -0.00076936,      0.04392168,
                0.08092348,      0.05953139,      0.04375357,      0.20824853,
                0.04822887,      0.03704519,      0.20297852,      0.12052063,
               -0.01980473,      0.00557432,      0.02511304,     -0.05624720,
                0.01982709,     -0.01710263,     -0.03961943,      0.05738053,
                0.04164250,     -0.00318005,     -0.06954975,     -0.11145357,
               -0.01214635,     -0.00510594,     -0.03411705,      0.02596416,
               -0.03936587,      0.10134041,      0.01832123,     -0.02735739,
                0.08272313,      0.05374245,     -0.05259217,      0.01772158,
               -0.08187583,     -0.08569922,      0.03740308,     -0.00357305,
                0.09396867,      0.00362092,      0.03008971,     -0.04837444,
               -0.02666358,      0.15717192,      0.06141907,      0.16540354,
                0.09422204,      0.00101858,      0.08681690,      0.11171945,
                0.00956023,      0.06025352,     -0.03790519,      0.02379180,
                0.05914121,      0.03939131,      0.02497090,     -0.01162849,
               -0.03928474,      0.04516749,      0.05977641,      0.05070588,
               -0.00414564,      0.03533933,     -0.03610385,      0.05343533,
               -0.08575975,     -0.00541948,     -0.00688046,      0.05917633,
               -0.01131078,      0.00602639,      0.08653348,      0.03855823,
                0.04557927,      0.04913156,      0.03133098,     -0.00252558,
                0.01245475,      0.04253530,     -0.01372454,      0.00842361,
               -0.01335806,     -0.02924017,     -0.02474345,      0.08210928,
                0.03884138,      0.01264704,      0.12010546,     -0.04573360,
               -0.03330173,      0.03465902,      0.08237527,      0.01233009,
                0.01496288,     -0.08038332,      0.00969333,      0.00993546,
               -0.03431359,     -0.00986881,      0.03466577,     -0.01022756,
               -0.10217874,     -0.00652015,      0.05664018,      0.03553328,
                0.00506806,      0.02423676,     -0.00136891,      0.02893779,
                0.07981975,     -0.09915097,      0.01744754,      0.05790228,
               -0.09404433,      0.00441491,      0.00716295,     -0.00202981,
                0.03000076,      0.06662088,      0.00064820,     -0.05592858,
               -0.02516414,     -0.01057828,     -0.22314459,      0.04432646,
               -0.01468320,      0.05114831,     -0.01672541,     -0.00239675,
               -0.01271971,     -0.01954938,      0.02660075,      0.02172484,
               -0.01331212,     -0.01405083,     -0.00808193,      0.01270756,
               -0.00092251,      0.01105552,     -0.10769898,     -0.01471509,
               -0.04622641,     -0.01222211,      0.30864602,      0.16849951,
               -0.01583803,     -0.04024933,      0.12420709,     -0.13003066,
                0.00094251,     -0.03037793,     -0.01211597,      0.03701526,
               -0.00935656,     -0.01706724,      0.01632762,      0.05167036,
                0.01419096,     -0.00177177,      0.01000521,     -0.03549033,
                0.05242240,     -0.01946729,     -0.11778598,     -0.07756723,
               -0.03702012,     -0.04541695,      0.00648694,      0.00866760,
               -0.03626500,     -0.08864477,     -0.09763236,      0.05177294,
               -0.02677452,     -0.00904932,     -0.06821933,     -0.05040117,
                0.03536141,     -0.02170412,      0.03065102,      0.72602892,
                0.05288666,      0.02777126,      0.02650207,     -0.01614020,
                0.04162901,     -0.10113145,     -0.07889521,     -0.04824688,
                0.01827212,      0.01643459,      0.00629971,      0.13256571,
                0.08693503,     -0.02598713,     -0.08768412,      0.04300056,
                0.09419179,      0.00643853,     -0.00352492,     -0.02519293,
               -0.00040645,      0.01059963,      0.08446942,      0.00201613,
                0.10560232,      0.03264727,      0.02720271,     -0.02156484,
               -0.02644572,      0.03365822,     -0.00890676,     -0.09839645,
               -0.16473299,      0.02732199,      0.00478790,      0.01122154,
               -0.00629155,      0.15713736,     -0.06841660,      0.11184829,
                0.07447343,      0.00829374,     -0.00675597,     -0.02441162,
                0.10670209,     -0.02416122,     -0.04652679,      0.02508097,
                0.05832917,     -0.02526168,     -0.02596787,      0.03111088,
                0.04402540,      0.05241286,     -0.00817047,     -0.04225005,
                0.14157517,     -0.02192114,      0.01637681,     -0.02752093,
               -0.03236620,     -0.00620863,     -0.03334865,     -0.05850733,
               -0.00681282,     -0.06413828,      0.04117734,      0.00458325,
               -0.00288560,      0.11673360,      0.02673190,     -0.06821489,
                0.03631017,     -0.00464251,     -0.01507848,     -0.04952835,
               -0.00478845,     -0.02712156,     -0.07152486,      0.00260832,
                0.04988107,     -0.03196969,      0.05341855,      0.03719781,
                0.14611658,      0.00319688,      0.03617717,     -0.05709979,
                0.02750474,      0.00411009,     -0.01740772,      0.03150104,
               -0.01518649,     -0.01830319,      0.01953605,     -0.04122289,
                0.03624196,     -0.04219189,     -0.07308243,      0.06392875,
               -0.02343040,      0.02744705,     -0.02675017,     -0.01379555,
               -0.03086551,     -0.00758963,     -0.07482780,     -0.05159705,
                0.02815159,     -0.03272568,      0.04038157,      0.05989966,
                0.01064940,     -0.00916628,      0.09213772,      0.00950202,
               -0.06452240,      0.00480209,      0.01933764,      0.03077244,
                0.00648139,      0.00618283,     -0.01963088,     -0.04230186,
                0.00803203,     -0.00110880,      0.03621825,      0.02329411,
                0.07535744,      0.01115474,      0.04372028,      0.04633222,
                0.01681308,      0.03565254,     -0.11152176,     -0.00556390,
                0.04789022,      0.02539776,     -0.02093513,     -0.01645302,
               -0.01432020,     -0.02365156,     -0.02047818,      0.05308348,
                0.00931376,      0.03988324,      0.04396232,     -0.03245748,
               -0.33989179,     -0.02896166,     -0.01216734,     -0.08319339,
               -0.00113564,      0.05098099,     -0.00154096,     -0.11897350,
               -0.01877834,      0.26368317,      0.07559113,     -0.01281601,
                0.03833771,      0.20036854,     -0.08868097,     -0.05005737,
                0.05457643,     -0.00250892,     -0.06917426,     -0.01459516,
               -0.01459767,      0.05505910,      0.05374471,     -0.02695075,
               -0.01254298,      0.02117291,      0.00529724,      0.11978520,
                0.01392041,     -0.01565240,     -0.04306542,      0.03286400,
               -0.03202540,     -0.06085674,      0.02542591,     -0.01352321,
               -0.05383573,     -0.01266825,     -0.01566480,     -0.01995184,
                0.02182291,      0.01297143,      0.00444204,      0.03868543,
               -0.08330391,     -0.04126031,     -0.02227059,      0.10266342,
               -0.03615665,      0.05250440,      0.03360286,      0.05403359,
                0.03943986,      0.05855533,     -0.01368861,     -0.14576617,
               -0.02372446,     -0.00250083,      0.09462481,     -0.00742992,
               -0.00326667,     -0.02085056,     -0.10475363,     -0.02801155,
               -0.01017325,      0.12418380,     -0.09639987,     -0.02109311,
                0.15527774,     -0.08017503,      0.02362382,      0.00770561,
               -0.03343443,      0.05668764,     -0.01637193,     -0.05093010,
               -0.01556838,      0.07385816,      0.56877601,      0.03562771,
               -0.01961848,     -0.04564918,      0.05727847,      0.03509029,
                0.04324101,     -0.01444643,      0.02137781,      0.00932492,
               -0.03346832,     -0.13675657,      0.00381549,      0.03343631,
               -0.02443413,      0.16477238,      0.04535466,      0.02708867,
                0.00943001,     -0.01762977,     -0.01471957,      0.08156133,
                0.03698401,     -0.00273335,      0.03905423,      0.03029770,
                0.02295677,     -0.00874189,     -0.02569113,      0.03292418,
               -0.12500295,     -0.00519634,      0.04093192,      0.01677207,
                0.11322358,      0.04422471,      0.02018383,      0.01572075,
                0.00698412,     -0.01383062,      0.03294326,      0.03057469,
               -0.01458985,     -0.03055455,      0.00845731,     -0.14925086,
               -0.02157907,     -0.15012540,     -0.01877428,      0.02203612,
                0.01105688,      0.01047266,     -0.09318088,      0.01896717,
                0.03350879,     -0.02546474,     -0.01125677,      0.06591092,
               -0.00155745,     -0.04029488,     -0.11364318,     -0.01562580,
               -0.02408764,      0.10274658,     -0.02711197,     -0.02475872,
                0.00108435,      0.00033672,     -0.00632825,      0.00701750,
               -0.00361128,      0.02562854,     -0.03425543,      0.01180610,
                0.07481455,      0.05765372,      0.08581745,      0.00756122,
                0.00326552,     -0.08875484,     -0.05545657,     -0.03265832,
               -0.06475668,     -0.04982077,      0.08403038,      0.04260800,
               -0.00458878,     -0.01777339,     -0.03710857,      0.06494829,
               -0.06251131,      0.20633009,     -0.03712571,     -0.05286942,
               -0.00897712,     -0.02925000,      0.16187197,      0.03418389,
                0.01045260,      0.04341731,     -0.00175799,     -0.20728561,
                0.03260880,      0.09089754,     -0.03540290,     -0.00497350,
               -0.08214243,     -0.04327368,      0.04661866,     -0.02148326,
                0.12558244,     -0.02278725,      0.00020618,     -0.00750304,
               -0.01890321,     -0.08785845,     -0.10684679,      0.00880965,
               -0.05153417,     -0.04109993,     -0.08792251,      0.05294971,
               -0.04253039,      0.00984036,      0.00482863,      0.00422411,
                0.00767894,     -0.03931078,      0.11397285,      0.02045180,
                0.03235910,     -0.01243598,      0.00703464,      0.01409716,
                0.00053651,     -0.00994247,     -0.05657210,      0.01648326,
               -0.01782025,      0.00664753,     -0.03165180,     -0.01195925,
                0.01333937,      0.02147608,      0.12395299,      0.02574156,
                0.02053240,     -0.02001726,      0.33851758,     -0.00149608,
               -0.01346391,     -0.03120106,     -0.01936680,     -0.00592129,
               -0.03630800,     -0.08563006,      0.02624878,      0.06995148,
               -0.00191536,     -0.01592612,     -0.08233929,      0.00852630,
               -0.02383429,     -0.04368291,      0.14653711,      0.07470187,
               -0.16179967,      0.00029964,     -0.11956409,     -0.32148230,
               -0.00452849,     -0.00387546,      0.05558671,     -0.07754423,
                0.00382646,     -0.00330954,      0.00496830,     -0.10949454,
                0.10261170,     -0.04072649,     -0.05856743,     -0.11003578,
               -0.01917701,     -0.03043477,      0.00255495,     -0.04729966,
                0.11250342,      0.05490997,     -0.02497336,     -0.02879647,
                0.04914336,     -0.12311228,     -0.03796072,     -0.00818879,
                0.03151732,     -0.01307684,      0.00243531,     -0.22840607,
               -0.09868149,     -0.02667832,     -0.01319787,     -0.01959365,
                0.12990490,      0.01780684,     -0.01131617,     -0.03369116,
               -0.03593471,      0.00928925,      0.00156921,     -0.07678769,
               -0.03614101,     -0.11214186,      0.01759608,     -0.01400601,
               -0.01848611,      0.09102245,     -0.02483290,     -0.04719096,
               -0.08415445,      0.00330626,     -0.04370707,      0.05138105,
               -0.00033559,      0.09233862,     -0.00781653,      0.19389851,
               -0.12451947,     -0.00787690,     -0.02192302,      0.00945969,
                0.00485099,      0.01587505,      0.06588181,      0.00653088,
               -0.00319751,      0.00007913,     -0.04098098,      0.10390519,
               -0.17008083,      0.01763798,     -0.01872699,      0.00723238,
                0.00229505,     -0.02435618,     -0.01545772,     -0.02239457,
                0.01776806,     -0.00639572,      0.00308624,      0.02326100,
               -0.00527079,     -0.01292122,      0.00941861,      0.03996206,
               -0.09785660,     -0.00557399,      0.02930547,      0.02811380,
                0.00501417,      0.01214388,      0.03197331,      0.39328209,
               -0.04576088,      0.02693067,      0.00364959,     -0.11955320,
               -0.36049116,     -0.11828334,      0.08877088,     -0.06408376,
                0.14975983,      0.06373767,      0.01894309,     -0.03858789,
                0.03199258,      0.04650170,      0.01694254,     -0.00284955,
               -0.01497098,      0.03874809,     -0.04228020,     -0.01687784,
               -0.00730005,     -0.05987007,      0.02901764,      0.04260796,
                0.03491544,      0.05215224,     -0.06453079,      0.00696199,
                0.00125328,     -0.03353859,     -0.00881405,     -0.03073809,
                0.07761493,     -0.00440199,      0.01557723,      0.01208428,
               -0.00229656,      0.02753498,     -0.00469008,     -0.05234211,
               -0.01362747,      0.00440549,      0.02168117,     -0.06134573,
               -0.15495929,     -0.02503586,     -0.02806392,      0.01127874,
                0.06694582,     -0.01478211,      0.05850358,      0.08931960,
                0.00512821,      0.05673060,     -0.11684435,     -0.05967481,
               -0.03089191,     -0.03423540,      0.08192463,     -0.02284117,
               -0.01028360,     -0.04671561,     -0.00735597,      0.09497266,
                0.18330130,     -0.03062739,      0.00178791,      0.01743680,
               -0.01463251,     -0.00337255,      0.12493602,     -0.02185863,
               -0.00176248,      0.00898924,     -0.70500147,     -0.03822050,
               -0.00371127,     -0.00748681,      0.00018478,     -0.03767497,
               -0.12868248,      0.00252002,     -0.02532961,      0.01564222,
               -0.02318525,     -0.04744727,      0.05339700,     -0.00516791,
               -0.03948687,      0.11364619,      0.03279217,     -0.06586436,
                0.02944387,      0.01688813,     -0.04980486,     -0.00749647,
               -0.04244930,      0.02393394,      0.05794959,     -0.02407285,
                0.00253587,      0.01327424,      0.04810156,     -0.11341444,
                0.05108612,      0.04132030,     -0.01212827,      0.01844779,
               -0.04092803,      0.00495869,     -0.01903468,     -0.01604335,
                0.08780769,     -0.03033404,      0.06498769,     -0.02862721,
               -0.01985133,     -0.07470024,      0.03701701,      0.00031859,
               -0.06285143,      0.13264976,     -0.07957295,      0.02054266,
                0.12414873,      0.12052006,     -0.14385210,      0.00360128,
               -0.00744194,     -0.02677589,      0.05033844,      0.04149354,
               -0.05087333,      0.04127418,     -0.02374050,      0.11895264,
                0.11692753,     -0.02403065,      0.05807430,     -0.05078937,
               -0.07315974,     -0.06946010,      0.03176823,     -0.02439674,
               -0.04093350,     -0.11894140,     -0.06425565,      0.09708170,
               -0.04495843,      0.04725764,     -0.05152097,     -0.04357057,
               -0.13218629,      0.09721182,     -0.06883410,     -0.01639101,
                0.00590906,      0.00117733,     -0.00975183,     -0.13994497,
                0.02621221,     -0.00389327,      0.07322601,     -0.09216045,
                0.00306393,      0.01163544,      0.00738523,      0.04746742,
                0.02358285,      0.03074596,      0.23714790,     -0.11396591,
                0.02700834,      0.05000887,     -0.04316890,      0.04373325,
                0.05515045,     -0.03368666,     -0.00250343,      0.00848715,
                0.01383479,      0.01482811,     -0.05824919,      0.02484702,
                0.00294102,      0.02340778,      0.05610382,      0.02136659,
               -0.00555937,     -0.03668708,      0.00905359,      0.01775714,
                0.03177091,      0.00291065,     -0.06838208,      0.17573102,
               -0.00894025,     -0.00877250,     -0.05617274,     -0.04370165,
               -0.01262343,      0.01043907,      0.04221948,     -0.25852999,
                0.01370885,     -0.11276545,      0.01138360,      0.01077097,
                0.07640629,     -0.16848268,      0.01845622,      0.00111250,
                0.19249243,      0.11431732,     -0.01048648,      0.01866170,
                0.04006119,     -0.10115182,     -0.03638543,     -0.12276594,
               -0.07647955,      0.01617381,      0.00261437,     -0.04545917,
               -0.03662228,      0.04820213,     -0.06075350,      0.02543203,
                0.11986694,     -0.00210459,     -0.04224452,     -0.04745196,
                0.00834733,      0.02564001,      0.12010028,      0.74788994,
               -0.01734075,      0.07212393,     -0.01950275,      0.01849673,
                0.11115400,     -0.04761118,     -0.11979306,      0.11540546,
               -0.17039135,      0.03577218,      0.04673615,      0.06853650,
               -0.10052538,     -0.01055271,     -0.00086585,      0.01653694,
                0.01644539,      0.01978709,      0.16266362,     -0.00118624,
               -0.05163752,     -0.04345019,     -0.00678868,     -0.08803642,
               -0.04817041,      0.04472410,     -0.01101745,     -0.07236242,
                0.00600359,      0.02638641,     -0.04495168,     -0.00424005,
               -0.02552851,      0.07163920,     -0.11639450,     -0.00030758,
                0.00474529,     -0.00435243,     -0.03771946,     -0.09378666,
                0.12576115,      0.04961823,      0.03889961,      0.01567002,
                0.00990126,     -0.03782289,     -0.01960118,      0.02947569,
                0.00625486,      0.09739543,     -0.01681619,      0.02811859,
                0.65044975,      0.06770716,      0.01273252,      0.00390115,
               -0.02787615,     -0.03087334,     -0.06903572,      0.00584964,
               -0.01231765,      0.07123429,      0.14849469,     -0.05819424,
                0.06170926,     -0.00002395,      0.08677844,     -0.05159197,
               -0.00542166,     -0.04134309,      0.02098489,      0.01954312,
               -0.00499563,     -0.03666962,      0.02499071,     -0.08650918,
                0.02288621,      0.00647116,     -0.00919156,     -0.02507150,
               -0.03140464,      0.02438927,     -0.00444514,     -0.07214295,
               -0.05505750,      0.03264568,     -0.03129590,     -0.04534249,
                0.04435855,      0.01703209,     -0.00722452,      0.03727011,
               -0.02869222,     -0.05075726,     -0.13346373,      0.00691119,
                0.00171710,     -0.10158368,     -0.17463474,     -0.07853873,
               -0.03407273,     -0.08322151,      0.04054993,     -0.04854389,
                0.09557208,      0.03929225,     -0.02554463,      0.02507492,
               -0.03225496,     -0.01395400,      0.04104599,      0.01929043,
               -0.01133873,     -0.16579503,      0.01991977,     -0.06044666,
                0.05457029,      0.02642047,     -0.05011917,      0.06375588,
               -0.00577291,     -0.01644820,      0.00531449,     -0.02118458,
               -0.03204617,      0.01922720,      0.15746395,     -0.00403528,
                0.03048198,     -0.00573819,      0.06644646,     -0.06036705,
                0.00550062,     -0.02264822,     -0.07780468,     -0.01487008,
               -0.00053759,     -0.00639803,      0.08286491,      0.00853327,
               -0.02093442,     -0.06287599,      0.10736904,     -0.06324378,
               -0.05766432,     -0.13156351,      0.03804000,     -0.06004079,
                0.13670065,     -0.01968599,     -0.01371402,     -0.21604410,
                0.03985764,     -0.06047904,      0.09851467,      0.17257412,
                0.01105029,      0.02577987,      0.03740114,      0.01026525,
                0.11497360,      0.06659904,     -0.19428125,     -0.04262349,
               -0.05034240,     -0.02252309,     -0.02296200,     -0.07341210,
               -0.25608861,      0.05983336,      0.06706694,     -0.03109810,
               -0.00751952,      0.04400206,     -0.01844099,      0.05589813,
                0.01162792,     -0.01020353,     -0.04888304,      0.02523706,
                0.06095079,      0.02313526,     -0.03928255,      0.06053484,
               -0.13059372,     -0.01102125,     -0.08080935,      0.01747668,
                0.02785837,     -0.00780226,     -0.00590148,      0.08939596,
                0.07632389,     -0.09171833,     -0.05152004,      0.01843912,
               -0.04098170,     -0.12108772,     -0.14675438,      0.03855340,
               -0.01184940,      0.01601995,      0.04720504,     -0.03010545,
                0.02265745,     -0.01781912,     -0.01704545,     -0.15309130,
               -0.02969614,     -0.02490090,     -0.01047271,      0.03883075,
               -0.02215046,      0.03283603,      0.14799115,     -0.01731704,
               -0.02925369,      0.00904586,      0.14311495,     -0.03182087,
               -0.07530899,     -0.02294862,      0.02027192,      0.09918492,
                0.00489117,      0.04423893,      0.04200977,      0.05237472,
               -0.00665066,      0.04832775,     -0.06548377,     -0.00231312,
               -0.02300155,      0.02924234,      0.06927353,     -0.09628247,
                0.01693223,      0.01706650,     -0.10512368,      0.05380239,
                0.00872858,      0.02605004,      0.12930118,     -0.01529466,
                0.08090484,     -0.02751542,     -0.16452420,      0.20457138,
               -0.01008665,     -0.01203771,     -0.09839607,     -0.01794326,
                0.27319896,      0.08599333,      0.01124167,     -0.06242799,
                0.02421324,     -0.06140965,     -0.24567169,      0.02410353,
                0.11403277,     -0.04391940,      0.00369655,      0.03984895,
               -0.02487419,      0.00214728,     -0.10358205,      0.13100170,
                0.03808459,     -0.08168782,     -0.01171098,     -0.01323054,
                0.00482066,      0.35302800,     -0.02361625,     -0.06583844,
               -0.07254490,      0.07215343,      0.03982797,     -0.00900544,
                0.06372704,     -0.01400308,      0.10550399,      0.01191931,
                0.15946795,      0.01710987,      0.00380565,      0.44397137,
                0.03714653,     -0.01873881,      0.02244123,     -0.02135821,
               -0.08892142,      0.05331237,     -0.01099888,     -0.03219222,
                0.05905418,     -0.06813135,     -0.04221285,      0.04572935,
                0.04938037,      0.01030850,      0.08912241,     -0.06647550,
                0.02699198,      0.05975675,     -0.00219296,      0.04663644,
                0.05820408,      0.03602753,      0.07000156,     -0.08046285,
               -0.00456328,      0.00919214,     -0.04607727,      0.02767090,
                0.11679697,      0.16104619,      0.05320350,      0.02543147,
                0.02747722,      0.01157257,      0.04716727,      0.04530260,
                0.07701748,     -0.02437952,      0.01478652,      0.08598362,
               -0.03695112,      0.07169902,      0.06988598,     -0.00344019,
                0.04004468,      0.05166471,      0.04597596,      0.01703575,
                0.03650882,      0.04722097,      0.21531072,      0.00507819,
                0.05083467,      0.07378265,     -0.01641721,     -0.03882474,
                0.05465838,      0.00709429,      0.00951757,      0.07576712,
               -0.03353684,      0.11769291,     -0.10409884,      0.06261017,
                0.01670980,      0.14949298,     -0.03224678,      0.06678549,
               -0.02810350,      0.03015334,     -0.15532486,     -0.02027342,
               -0.04431561,      0.00426359,      0.10548951,     -0.00597416,
                0.02670352,     -0.05675600,      0.09855454,     -0.00746513,
               -0.06304409,      0.00894697,      0.02288337,      0.04594249,
                0.11706349,     -0.07022621,      0.11101775,      0.09585170,
               -0.01170373,     -0.02869815,      0.02762346,      0.08130140,
               -0.11870821,      0.05966565,     -0.22241509,      0.00088263,
                0.26354319,      0.10990116,     -0.00581901,      0.00498103,
                0.06766654,      0.01668652,     -0.00197409,     -0.07386132,
                0.00347985,      0.06734085,      0.03634597,     -0.05108059,
               -0.12623340,     -0.09685710,     -0.18008104,     -0.01681027,
                0.01462924,     -0.04703090,      0.00070505,     -0.01310598,
                0.08971485,      0.11275747,      0.03349562,     -0.05247757,
                0.09311857,      0.06050671,      0.00599940,      0.00562588,
                0.05403063,      0.03367567,     -0.25031713,      0.07295033,
                0.06126397,     -0.11838198,     -0.00188857,     -0.16464807,
               -0.07904598,      0.08991002,     -0.02780604,      0.07038435,
               -0.00697266,      0.02058745,      0.03160610,      0.16126947,
               -0.09263537,     -0.01998374,     -0.01429871,     -0.04418627,
                0.06378593,      0.01940399,      0.05769398,      0.03486947,
                0.05533883,      0.01613641,      0.01841340,     -0.04092923,
                0.05332164,      0.01220117,      0.04419401,      0.12344581,
               -0.02924623,      0.02517380,     -0.02480220,      0.10308481,
               -0.02918606,      0.03721848,      0.15133585,      0.03332278,
               -0.06517448,      0.11708770,      0.05084680,      0.05060469,
                0.00236066,     -0.03997841,     -0.02397513,     -0.01813441,
               -0.07769419,     -0.06824152,     -0.03978603,     -0.00781999,
                0.07310427,     -0.01355453,      0.12061340,      0.05299979,
                0.08446614,      0.05406757,      0.03347247,     -0.00144682,
                0.05132412,      0.09035737,     -0.02397142,      0.12658679,
                0.01617318,      0.04813205,      0.03274278,     -0.15803306,
               -0.01305225,      0.03913200,      0.05247705,      0.00968303,
               -0.13281097,     -0.02007412,      0.00909190,      0.12348855,
               -0.01120807,     -0.01421333,      0.00747172,     -0.15088166,
                0.10939482,     -0.01318702,      0.07351857,      0.10095784,
               -0.15919080,      0.03206242,      0.08862486,      0.04664503,
                0.04899013,      0.00809775,      0.01254533,      0.19865648,
               -0.02647641,      0.06369541,      0.07750553,     -0.02905132,
                0.07197338,      0.13871853,      0.03975781,      0.05466755,
                0.06044685,      0.04324168,      0.09704528,     -0.06331895,
                0.03482637,     -0.01610515,      0.07570841,      0.00670269,
               -0.00566883,      0.23783587,      0.08930144,      0.03266010,
               -0.01464145,     -0.06988951,      0.02860523,     -0.01649942,
               -0.01559194,     -0.04497487,      0.00949526,      0.00653034,
                0.01145502,      0.00768008,      0.06377893,      0.06378642,
                0.00656807,     -0.03143454,      0.07257472,      0.08945283,
                0.06797987,     -0.00070601,     -0.00890559,     -0.01745557,
               -0.00714265,     -0.00954466,     -0.02263747,      0.06063912,
                0.02430507,     -0.02371879,      0.03561362,     -0.03447965,
                0.00141714,      0.03353411,     -0.03588738,      0.02981161,
                0.04551398,     -0.00109545,      0.02781161,      0.08744864,
                0.05583124,      0.08489014,      0.06070445,      0.04738376,
                0.10910345,      0.06510232,     -0.03608584,      0.01914317,
               -0.03283367,     -0.02327901,      0.03359391,     -0.01506030,
               -0.10023659,     -0.04790794,     -0.20566176,      0.02049641,
               -0.02016840,      0.01549578,     -0.16725393,      0.08779037,
                0.10528114,     -0.10171556,      0.03833605,      0.08922458,
                0.02619560,      0.04209442,      0.10507786,      0.02057888,
                0.02581780,     -0.04707392,      0.12232234,     -0.01270662,
                0.04296605,      0.00931269,      0.04943932,     -0.01242678,
                0.02414910,      0.01866837,     -0.04226251,      0.23997127,
               -0.05803899,      0.01242970,      0.03515097,     -0.01228853,
               -0.05470552,     -0.16396014,      0.03119107,      0.01102478,
               -0.00565758,     -0.00656508,     -0.14889067,     -0.05391913,
               -0.04110002,     -0.01321705,     -0.00373151,      0.03105605,
               -0.01011494,     -0.04810223,      0.09329931,     -0.04327843,
                0.01742691,     -0.03235204,     -0.02303781,      0.07048163,
               -0.02946653,     -0.07143260,      0.06979430,      0.05985625,
               -0.08737977,     -0.05695777,     -0.05013643,      0.22598070,
               -0.03205035,     -0.03628090,      0.03670402,      0.05904445,
                0.02606075,      0.02395894,      0.00096821,     -0.24452974,
               -0.13029766,     -0.00210999,      0.27485910,     -0.00820244,
               -0.08103324,      0.03459958,      0.01906270,     -0.05914966,
                0.14742537,     -0.06148902,     -0.09495876,     -0.00756547,
               -0.02407769,      0.00960801,     -0.06075349,     -0.02076017,
                0.02929506,     -0.07785799,      0.09761003,     -0.00213982,
                0.08077153,     -0.03125676,     -0.04820308,      0.01647306,
                0.23346446,     -0.04540488,      0.00249196,      0.01543941,
                0.05196356,      0.06019473,      0.00821700,      0.24236614,
                0.00453433,      0.03819466,     -0.02839117,     -0.03024374,
               -0.02294595,      0.10551523,     -0.17116119,     -0.04559780,
               -0.03568914,     -0.01544091,     -0.05557005,      0.01140726,
               -0.01404130,      0.03528218,      0.03191227,      0.18318450,
               -0.02363382,      0.03154013,     -0.11293487,      0.06563796,
                0.06680921,     -0.00119296,      0.15059292,     -0.02056099,
                0.02498674,      0.00418227,      0.01082934,      0.08471280,
               -0.07039686,      0.05266128,      0.09229361,     -0.12148524,
                0.00132491,     -0.07083640,     -0.04011669,      0.10726514,
                0.07752914,     -0.00082590,      0.03836380,     -0.09722894,
               -0.00980515,     -0.06675497,      0.00191714,     -0.06013069,
               -0.08510157,      0.10996408,      0.01624808,      0.00144230,
                0.03041209,      0.00200098,      0.09101319,      0.12387207,
                0.02975511,     -0.02498989,      0.10185537,     -0.07918004,
               -0.03734423,     -0.10665123,     -0.04943043,     -0.02999777,
               -0.21462673,      0.04447890,      0.00359160,      0.03872847,
                0.08113979,      0.00841779,      0.07325657,      0.04195515,
                0.01978158,      0.08144835,      0.02221353,     -0.04072890,
                0.02714465,     -0.06809965,     -0.06786905,      0.10866312,
               -0.01218772,      0.14948870,     -0.00500084,     -0.00726673,
                0.00163601,      0.01422872,      0.00368696,      0.02998321,
                0.01528063,      0.04429049,     -0.01438717,     -0.01121661,
                0.01320505,     -0.05182099,      0.02619877,      0.23723589,
               -0.08905897,     -0.02356367,     -0.01332465,      0.12939985,
                0.04499537,     -0.05317559,     -0.01284762,      0.08625334,
                0.11301089,     -0.02175177,     -0.11797300,      0.07446657,
               -0.04859848,     -0.05087545,      0.08060379,     -0.00589836,
                0.01439297,     -0.03586300,     -0.00758039,      0.05092678,
                0.05544750,      0.00391791,      0.02598766,      0.05627841,
               -0.00165121,      0.03821947,      0.05395073,      0.00324678,
               -0.02818194,     -0.00931616,      0.17737602,      0.04653263,
               -0.08126572,      0.04862269,     -0.06799190,      0.21780969,
               -0.05214304,      0.00413499,      0.02852088,      0.05404025,
                0.16633378,     -0.00260130,      0.04460181,     -0.03973163,
                0.01183213,     -0.02891115,     -0.06536312,      0.02261504,
               -0.02844653,      0.08270239,      0.02361259,      0.14257975,
               -0.08751508,      0.03663408,      0.03999515,     -0.02723051,
                0.00244157,      0.05511465,      0.38198644,     -0.03735425,
               -0.01036877,     -0.03687155,     -0.00585952,     -0.04869371,
               -0.04923513,      0.01624760,      0.03551525,      0.01996615,
                0.13803130,      0.03573135,     -0.00303000,      0.01836128,
                0.09360560,      0.02284296,     -0.01250262,      0.07481254,
               -0.00148229,     -0.17893638,     -0.01859100,      0.04608410,
                0.02441488,      0.04165256,     -0.05629062,     -0.03780660,
                0.02623310,      0.07197046,      0.12211021,      0.15041634,
                0.11783772,      0.01371309,     -0.06519572,      0.02732472,
                0.08779845,     -0.03477047,      0.09494497,     -0.06732616,
               -0.10421397,     -0.02583155,      0.07380494,     -0.05790236,
               -0.04093770,      0.03205634,      0.08120475,      0.07162648,
                0.02813037,     -0.04101349,      0.04480795,     -0.00575150,
               -0.06350022,      0.04211385,      0.03703657,      0.11052877,
               -0.17261115,      0.02405854,     -0.14268985,      0.04867293,
                0.05258001,     -0.00754785,      0.03806661,      0.11280863,
                0.02182005,     -0.00817437,      0.06038970,     -0.23616339,
                0.03083936,      0.01286707,     -0.01380770,      0.08405793,
                0.01489487,      0.02426109,     -0.11931136,     -0.05861903,
               -0.00348619,      0.08994114,     -0.04497211,      0.16320632,
                0.08452757,      0.03300354,      0.00716236,     -0.02683311,
                0.04788391,      0.02273747,      0.01217687,      0.07735844,
               -0.15464637,      0.02685093,      0.03392356,      0.05779881,
                0.02306158,     -0.03659970,     -0.03535586,     -0.05666889,
                0.03274556,      0.03139792,      0.05833294,     -0.12620652,
                0.00997571,     -0.04292462,     -0.08791836,     -0.00743449,
               -0.06220379,     -0.04134649,     -0.00533154,      0.17549042,
                0.02445464,      0.10902660,     -0.09358589,     -0.07760611,
                0.05484553,      0.01829542,     -0.07090879,      0.01279391,
                0.38180244,      0.22273868,     -0.00499419,     -0.12801409,
                0.04909777,     -0.06007257,     -0.06613975,     -0.01811624,
               -0.02415683,      0.00437748,     -0.08288397,      0.05379046,
                0.00050713,      0.02832043,      0.00252904,     -0.00881530,
                0.02386379,      0.04907035,     -0.05362833,     -0.11870484,
                0.01569697,      0.00078708,      0.06316014,      0.12042145,
               -0.08464132,     -0.04916582,     -0.04181547,      0.09887692,
               -0.05479737,      0.04031085,     -0.02822780,      0.06052672,
               -0.01341996,      0.02264722,     -0.05291423,      0.01245443,
               -0.04365600,     -0.01508421,      0.02342829,      0.07368636,
                0.02581424,      0.22227080,     -0.06304798,     -0.02661770,
               -0.08330479,     -0.00480157,     -0.00008250,     -0.09708145,
               -0.03107896,     -0.00387844,     -0.02555690,      0.06632888,
                0.01764580,     -0.04576336,      0.02940437,      0.02450305,
               -0.04299260,      0.00742335,     -0.00254812,      0.07564264,
               -0.03673088,      0.00697660,     -0.00022862,     -0.06618499,
               -0.07928713,     -0.11488577,      0.08981895,      0.02280412,
               -0.04411320,     -0.01472683,     -0.05070600,     -0.01568049,
               -0.00188408,     -0.01166354,     -0.06321006,      0.03406664,
               -0.18991762,      0.02760934,     -0.08006351,      0.00843493,
                0.08970954,     -0.08724391,     -0.03977669,      0.02793242,
                0.08873232,      0.14658181,      0.20427306,     -0.04097971,
                0.02823356,     -0.05251865,      0.09419986,      0.00377201,
               -0.00185515,     -0.00608512,     -0.01699731,      0.04195491,
               -0.11354462,      0.11447751,      0.00972683,      0.10142739,
                0.01458159,      0.01808933,      0.00569178,      0.00048806,
               -0.03051846,      0.04798041,      0.06071221,      0.05379727,
                0.21646647,      0.01532571,     -0.01863065,     -0.05627789,
               -0.05394960,      0.04087725,     -0.00240003,      0.04840444,
                0.39876786,      0.02391444,      0.06388005,      0.03961657,
               -0.01030996,     -0.05844563,     -0.04404842,      0.02854795,
                0.09421881,      0.13080616,     -0.04157105,     -0.02319469,
               -0.05719448,      0.00175065,     -0.01433480,     -0.11342689,
               -0.06005095,     -0.05698755,     -0.09187215,     -0.06959777,
               -0.01223325,     -0.00463328,     -0.01956873,     -0.08469462,
                0.00553832,     -0.00102591,     -0.03398420,      0.01193197,
                0.03365171,     -0.06401556,      0.01262383,      0.02930881,
                0.12656055,      0.16272236,      0.00264012,     -0.02093476,
               -0.00439005,     -0.02734464,      0.06603562,     -0.05797746,
                0.02130984,     -0.02424379,      0.02754227,      0.01308687,
                0.00471496,     -0.01014668,      0.02865113,      0.00388029,
               -0.00315922,      0.02397371,      0.10180080,     -0.01133985,
               -0.02016843,     -0.06480400,     -0.02997105,     -0.03514856,
                0.07960393,     -0.01497500,     -0.04507288,      0.00740502,
                0.03634693,      0.09112159,      0.08882209,      0.05694393,
                0.01021051,      0.02562995,      0.00571124,     -0.01824006,
               -0.16325800,      0.01753585,      0.15821384,     -0.01824326,
                0.06693944,     -0.14015900,     -0.02385815,     -0.08271453,
               -0.00807164,      0.02793291,     -0.07186560,      0.03187378,
                0.11620743,      0.03631976,     -0.03318751,      0.10246921,
                0.00826840,      0.00468825,      0.06477044,     -0.01264929,
                0.00645831,     -0.01658478,     -0.02910951,      0.03514070,
                0.05032028,     -0.01203843,     -0.07906990,     -0.01501046,
               -0.00794794,      0.03274558,      0.00444074,      0.13191378,
                0.01491801,      0.18979242,      0.07693940,      0.06309374,
               -0.02159252,      0.14214154,     -0.08096901,     -0.00421745,
               -0.02071434,      0.00010314,     -0.00199262,      0.02210693,
                0.00241198,     -0.00315474,      0.00921504,      0.05089508,
               -0.01528290,      0.00010717,     -0.02101936,      0.24194375,
                0.00116179,      0.03427408,      0.11122546,     -0.00417702,
               -0.04949233,      0.04105454,     -0.04041124,      0.15706295,
               -0.05266921,      0.03396704,      0.02117209,     -0.08304994,
                0.02440811,      0.07520705,     -0.03510749,      0.03063584,
                0.08613891,      0.01249573,     -0.21473449,     -0.01438481,
                0.02801838,      0.03073024,     -0.01789042,      0.05661188,
                0.00519491,     -0.03676572,      0.06065744,     -0.00025198,
                0.04039728,     -0.05120898,      0.03029249,     -0.00655951,
                0.03897703,      0.12187140,     -0.17679590,      0.15554306,
                0.02107510,      0.02577156,      0.03392808,      0.01171034,
                0.18163748,      0.10009167,     -0.00429362,     -0.03886701,
               -0.49617183,      0.10471018,     -0.06302416,      0.08024553,
                0.05173012,     -0.02095703,     -0.01149784,     -0.05065082,
               -0.01808392,     -0.01424924,     -0.05837115,      0.11500765,
                0.04003586,      0.13603170,      0.00759919,     -0.03226231,
               -0.02900465,     -0.41807738,     -0.02500696,      0.02857548,
                0.03787061,      0.06243347,     -0.02025351,      0.02661252,
                0.15230264,      0.06779649,      0.10858250,      0.05743537,
                0.03525104,     -0.00135979,     -0.03042551,     -0.23035009,
                0.04224533,     -0.12482878,      0.03540462,     -0.01322241,
               -0.03939059,     -0.07325368,     -0.02124937,     -0.07258553,
                0.06368207,      0.03037879,     -0.08686694,      0.06750488,
                0.01059428,      0.15261842,      0.02293428,     -0.13646452,
                0.01911981,     -0.10354679,     -0.06552304,     -0.05982311,
                0.03548925,      0.01683556,      0.13388640,     -0.03942366,
                0.09248030,     -0.01096702,      0.01128610,     -0.01153413,
                0.03959401,      0.20649736,      0.17177039,      0.01175276,
                0.03077901,     -0.07190771,      0.03360508,      0.04187604,
               -0.00545202,      0.02790136,     -0.03695304,     -0.04528983,
                0.01015518,      0.03433412,      0.03220476,      0.01731330,
                0.01529842,      0.07642198,      0.09277153,     -0.17393503,
                0.04835108,      0.05412403,     -0.07274272,      0.12572099,
               -0.01301864,      0.00726486,      0.04989748,     -0.03546302,
                0.05236112,      0.05755928,     -0.02399242,      0.03258337,
                0.00521542,     -0.04601439,     -0.13487212,     -0.00428656,
               -0.10765269,      0.04936598,     -0.00090951,      0.06662560,
               -0.06704796,     -0.03142591,      0.05156573,      0.06281308,
               -0.04122777,      0.11478881,      0.00030008,      0.03259143,
                0.05831325,      0.08579970,      0.01097866,     -0.00443604,
               -0.04409454,      0.03167886,     -0.13418971,      0.00986536,
                0.04416762,     -0.02964031,      0.03854159,      0.00617254,
                0.03210415,     -0.11170913,      0.00206475,     -0.08125580,
               -0.02252233,     -0.03302205,      0.01168745,      0.01353948,
                0.00420741,      0.03732714,     -0.11988387,      0.12361467,
               -0.03832162,      0.02257566,     -0.13164543,     -0.05295276,
                0.03141160,     -0.05256986,      0.01152273,     -0.02518108,
                0.03962854,      0.06732516,      0.10230053,      0.04239083,
               -0.03859802,     -0.05706554,     -0.03097376,     -0.19241951,
                0.08646730,      0.00281773,     -0.21942730,      0.04629374,
               -0.02416908,      0.02893092,      0.01699109,     -0.03383101,
                0.03464047,      0.00816046,      0.13827951,      0.04264639,
                0.02144204,     -0.40958914,     -0.00381156,     -0.08824260,
                0.01108438,      0.00914478,      0.03134999,     -0.03324498,
                0.09524757,      0.02866563,     -0.04031803,      0.03550723,
               -0.07087554,     -0.00846091,      0.00408958,      0.00657184,
                0.00929671,     -0.03887990,      0.08563878,      0.06180942,
                0.06311022,      0.00706018,      0.06962159,      0.09988569,
               -0.00752180,      0.00026857,      0.06810741,     -0.00208893,
                0.04336469,      0.10678523,     -0.00889006,      0.08515943,
                0.03303510,      0.12642100,      0.09695671,      0.00504801,
                0.01934327,     -0.05546162,     -0.00042767,      0.03698260,
                0.05576389,     -0.15060399,     -0.03810460,     -0.06152994,
               -0.04556206,     -0.01555303,     -0.04024166,     -0.06239047,
               -0.08826624,      0.03634439,      0.07377429,     -0.04829669,
                0.06439950,      0.00908092,     -0.01006429,     -0.02348631,
                0.00443503,      0.04003913,      0.03881906,      0.06746721,
                0.03878802,     -0.13059822,      0.04118200,     -0.05700767,
                0.03204767,      0.01542631,     -0.00241622,     -0.07628449,
                0.38787705,      0.07035327,      0.05175940,      0.06327021,
               -0.04921347,     -0.06914967,     -0.08079884,      0.01371000,
                0.06222836,     -0.02641451,      0.08572803,      0.10581547,
               -0.04415821,      0.13492036,      0.02754133,     -0.02858708,
                0.04207149,     -0.01408459,      0.03740664,      0.05499468,
               -0.06653552,      0.01021370,      0.00425445,     -0.08981754,
                0.05592810,      0.09513218,      0.01376115,      0.01601384,
                0.02394888,      0.07096971,     -0.04525976,      0.13029134,
               -0.02265333,      0.00416823,      0.00459744,     -0.00380704,
                0.00443916,      0.07615035,      0.07447872,     -0.02041982,
               -0.02024177,      0.00559884,      0.00845915,      0.12818305,
               -0.01059987,      0.05148932,     -0.04090735,      0.00747388,
               -0.05606978,      0.01923106,     -0.02166626,      0.01816912,
                0.01206516,     -0.02209587,      0.04148800,      0.04537416,
                0.02564777,      0.17208073,      0.08726782,     -0.02080916,
                0.08683512,      0.10192832,      0.05408578,      0.01556109,
               -0.02982520,      0.01456225,      0.10362102,      0.03022300,
                0.04879257,     -0.07930772,     -0.01282588,     -0.09862861,
                0.03135231,      0.00561528,     -0.02349416,      0.06333240,
               -0.02824575,      0.08670349,      0.05242045,      0.00417537,
                0.12568200,      0.00821320,     -0.01198876,      0.01663758,
                0.04036728,     -0.01795167,      0.02982384,     -0.09632255,
               -0.01188819,      0.00937296,     -0.22179778,     -0.00551007,
               -0.01945047,      0.06704777,      0.23594932,      0.02364404,
               -0.12718497,      0.03779234,      0.09731853,     -0.04748563,
               -0.00109628,      0.01513149,      0.01636476,     -0.02671593,
                0.11167868,      0.28687495,     -0.09926762,     -0.03968896,
                0.04297983,      0.01754366,      0.05238640,      0.02516564,
                0.00681654,      0.02654272,      0.00289948,     -0.01964615,
               -0.10297865,      0.01619284,     -0.02285260,      0.01296892,
                0.04518043,     -0.06537067,      0.04991186,      0.01341778,
                0.01655907,     -0.02934839,      0.15024488,     -0.06366699,
                0.00708787,      0.00161701,      0.12166860,      0.01849240,
                0.10347905,      0.14130522,      0.03798949,      0.03921965,
                0.02073119,      0.16216426,      0.03129625,     -0.08194959,
                0.01351720,      0.12060404,     -0.04252446,     -0.08488049,
               -0.01205420,      0.04744316,     -0.01594782,     -0.25731063,
                0.07810246,      0.05826022,     -0.03103177,      0.08390994,
                0.05230163,      0.16160442,      0.00405562,      0.16417313,
                0.04011038,      0.04047931,      0.15144096,      0.06424747,
                0.05598005,      0.13671705,     -0.02004733,      0.13355204,
               -0.03596032,      0.02226692,      0.00212862,      0.02258244,
                0.01613771,      0.07905287,     -0.01855617,      0.12227573,
               -0.04813883,      0.04394417,      0.06622943,     -0.20192836,
                0.05240102,      0.02127750,     -0.00806145,      0.14589928,
                0.04494940,      0.01118530,     -0.04747764,      0.03258514,
                0.00505667,      0.02305162,     -0.01341125,      0.14558583,
               -0.05445575,      0.07319467,     -0.07368061,      0.02528249,
                0.02675925,      0.09614938,     -0.00437439,      0.11609859,
                0.02355902,     -0.03013664,     -0.04966200,     -0.01027181,
                0.04000526,      0.04520818,      0.03535338,      0.06625559,
               -0.04909030,      0.03815381,      0.03515033,      0.08403587,
                0.04838727,     -0.02150756,     -0.11802261,      0.01759126,
                0.03588463,      0.00338945,     -0.06445434,      0.08157795,
                0.07117784,      0.05002279,      0.10045851,     -0.13035686,
               -0.04940756,     -0.01429932,      0.01764303,      0.11108135,
               -0.00176456,     -0.04819952,     -0.03729148,     -0.01105412,
                0.05161848,      0.01260636,     -0.00724248,      0.02625135,
               -0.01536373,     -0.04326675,      0.02748540,     -0.00608900,
                0.00625703,     -0.03113908,     -0.02933636,     -0.21064296,
                0.03229764,     -0.01660766,     -0.00591459,     -0.14870921,
                0.04165925,     -0.00363709,      0.09118973,      0.01453378,
                0.01300081,     -0.02970721,     -0.05365792,      0.00524805,
                0.12704855,      0.06630485,     -0.01722094,      0.00482438,
                0.07854957,      0.06749197,      0.00821238,     -0.01299889,
               -0.01774598,      0.03344384,      0.06687037,      0.15386656,
               -0.01420536,     -0.00759106,      0.00089700,     -0.05879311,
               -0.06634615,      0.03794522,      0.01883573,      0.02727034,
                0.11771712,      0.02508908,     -0.03656985,     -0.00924122,
               -0.02840555,      0.10518735,      0.07004134,     -0.05814116,
                0.03773994,     -0.01984788,     -0.00603680,      0.10874517,
               -0.00919389,      0.00793423,      0.00887265,      0.04299554,
               -0.05491868,      0.02296481,      0.05384497,     -0.11064555,
               -0.04560592,      0.02236181,      0.01934400,      0.08819135,
               -0.02293832,     -0.00528011,      0.01264343,     -0.00529052,
                0.04670938,      0.02451639,     -0.00799900,      0.01553016,
               -0.20129685,     -0.02762899,      0.08455396,      0.10798856,
               -0.04158283,      0.00932918,      0.12152150,      0.01645026,
                0.03269281,     -0.07425291,     -0.06662610,     -0.09697509,
                0.02023311,      0.00897462,      0.01305317,     -0.01554096,
               -0.02348864,     -0.06936447,      0.04564264,     -0.03945635,
                0.00743409,      0.05044130,     -0.03786490,      0.02690434,
                0.00040294,      0.19829622,     -0.09040241,      0.03429431,
               -0.04927581,      0.03564171,      0.12763400,      0.03378649,
               -0.00321147,     -0.00433326,      0.06991808,      0.02818509,
               -0.11197478,     -0.00106804,     -0.01276315,     -0.02918677,
                0.00856340,      0.04425564,      0.00776921,     -0.00751512,
                0.04948852,      0.02598311,      0.02440112,     -0.01032365,
               -0.06364331,      0.00804189,      0.04769871,     -0.02576475,
               -0.02127050,      0.12474320,      0.03276964,     -0.00707594,
               -0.12322080,     -0.05252542,     -0.02426873,      0.01554011,
               -0.01603526,     -0.06615627,     -0.04624387,     -0.05804471,
                0.01463016,      0.03355245,     -0.00273298,     -0.00621384,
                0.01736668,      0.00383995,      0.05892130,      0.09310113,
               -0.00791882,     -0.00212074,      0.21540114,      0.03202194,
               -0.00347553,     -0.06630389,     -0.03121168,      0.06970771,
               -0.07215241,      0.03966919,      0.10124321,      0.05042867,
               -0.06380823,      0.09929685,     -0.10980369,     -0.09093427,
                0.02254266,      0.02921834,     -0.10100514,      0.00590499,
               -0.03702370,     -0.02757072,      0.01463377,     -0.00017218,
               -0.02428935,      0.00278399,      0.06729410,      0.08527359,
                0.02519475,      0.02078776,     -0.01857313,      0.08090080,
                0.00347751,     -0.00427685,     -0.02689802,      0.06196082,
                0.02779199,     -0.07138900,      0.01596393,      0.16223867,
                0.00124416,     -0.03161516,      0.00352513,      0.03874445,
                0.06462559,     -0.07420459,      0.08926420,      0.14837837,
               -0.11330426,      0.02605139,     -0.14815654,      0.08981030,
                0.00025257,     -0.03612402,      0.06899872,      0.06051748,
                0.03210225,     -0.04419845,      0.12614785,     -0.14807220,
                0.01980495,      0.05068670,     -0.14671238,      0.09534635,
                0.07782646,      0.03721231,      0.00346902,     -0.01384106,
                0.02589216,      0.11038936,     -0.03718644,      0.00190766,
                0.10316359,      0.02186715,     -0.01699010,     -0.00143392,
               -0.04692946,     -0.05944479,     -0.05239067,      0.03191227,
               -0.06426208,     -0.02835787,     -0.01175608,     -0.04778402,
                0.05281023,     -0.04217242,      0.00077519,     -0.04984677,
                0.00464785,     -0.03164969,     -0.02999867,      0.11870325,
                0.09241216,      0.00306596,     -0.04636802,     -0.01018534,
                0.01182100,      0.01225849,     -0.03484768,     -0.00774585,
                0.04725285,     -0.01152420,     -0.02886675,      0.02676061,
               -0.02783016,      0.08142938,      0.00817348,     -0.12264071,
                0.01325560,      0.06899666,      0.00097918,     -0.08343683,
               -0.05161797,     -0.01743801,      0.06440280,      0.09946670,
               -0.06328787,      0.04881446,     -0.10702816,      0.01980472,
                0.13401832,     -0.01634520,      0.05965696,     -0.09790445,
                0.01826949,     -0.05102061,     -0.03431259,     -0.02047311,
                0.04806597,      0.13221067,     -0.00205814,      0.01265498,
               -0.01414152,      0.10579215,     -0.08701051,      0.00732249,
               -0.06362794,     -0.00354057,     -0.01869419,     -0.07216104,
               -0.03836409,     -0.04021420,      0.00882580,     -0.04059821,
               -0.04371659,      0.05068905,      0.04028956,      0.14405037,
                0.02354239,      0.12130965,      0.00571827,     -0.06463796,
                0.02520415,     -0.05245218,     -0.02658197,      0.01435183,
                0.02110510,      0.09386857,     -0.06623077,      0.02089146,
                0.03878943,     -0.03267390,      0.02179279,     -0.01582036,
                0.00941885,      0.02538831,     -0.00012303,     -0.06460177,
               -0.09401459,      0.02525480,     -0.07978596,     -0.00869011,
               -0.04312282,      0.30119783,      0.00863839,     -0.04804440,
                0.02624135,      0.01074611,      0.11093796,     -0.02197335,
                0.06349847,      0.03308799,     -0.03685962,      0.00175421,
               -0.05338233,      0.06828073,      0.07353488,      0.01416716,
               -0.02548077,      0.00851376,     -0.05887925,     -0.06841850,
               -0.09434554,      0.05655001,      0.15771447,      0.08077317,
               -0.00181318,     -0.14123482,     -0.17839330,     -0.09217911,
                0.03655666,      0.01911352,      0.58279598,     -0.13280967,
                0.09011509,      0.00255235,     -0.10306580,     -0.06578241,
               -0.00006125,     -0.04025472,     -0.01858378,     -0.03268190,
               -0.05527820,      0.00644144,      0.01358442,     -0.02726063,
               -0.09555152,     -0.02977676,      0.03710021,      0.05194847,
               -0.10017107,     -0.01461571,     -0.00355994,      0.02504256,
               -0.01491449,     -0.14968579,      0.04329242,      0.00548659,
               -0.00102432,     -0.01579122,     -0.18122616,     -0.00087349,
               -0.01237209,      0.02705218,      0.02590895,      0.01403346,
               -0.01142617,     -0.03590502,      0.03394782,      0.00034288,
               -0.05882605,     -0.05789366,     -0.00086100,      0.05264526,
               -0.00303471,      0.04022549,      0.07856125,      0.08424766,
               -0.04242011,     -0.06606470,      0.12275650,      0.06955989,
               -0.03635501,     -0.03648618,      0.03385474,     -0.07580651,
               -0.04459493,     -0.08698729,      0.05381201,     -0.07765360,
               -0.00604404,     -0.02519920,     -0.04103657,     -0.02793845,
               -0.32197881,     -0.05194218,      0.03864133,      0.21248339,
                0.10771029,      0.07077218,     -0.00929036,     -0.07575934,
                0.00308617,     -0.03947475,      0.03634781,      0.08513524,
                0.00548034,      0.02565822,      0.02921634,     -0.01882618,
               -0.14399682,      0.12595864,      0.00917872,     -0.08065771,
                0.05693869,      0.02833121,      0.00148011,      0.06097358,
               -0.02085339,     -0.05621160,     -0.04647267,      0.03844697,
                0.00772193,     -0.01098422,     -0.03048597,     -0.00619119,
               -0.02265071,      0.07448208,     -0.04299863,     -0.07361762,
               -0.03817476,      0.00488062,     -0.01676767,     -0.03480482,
                0.05883001,      0.05051387,     -0.05525268,     -0.01404997,
                0.08354193,      0.02231258,      0.02341720,      0.00659297,
               -0.00607373,     -0.04692260,      0.06079222,     -0.02406989,
                0.05080455,     -0.02483046,      0.11263271,      0.00103100,
                0.08374241,     -0.09621303,     -0.03495640,     -0.01570038,
               -0.02956642,      0.00636993,     -0.00262850,      0.35533804,
               -0.00823484,     -0.06059863,      0.00340000,      0.01151660,
               -0.16174740,      0.00046091,      0.03330531,     -0.07356258,
               -0.09130525,     -0.05913335,     -0.02684586,     -0.00046066,
               -0.00102078,      0.03737629,      0.12367880,     -0.01937710,
                0.00727664,      0.06900300,     -0.03426692,     -0.06109887,
                0.31393126,      0.04406369,      0.10447739,      0.00418734,
               -0.10966202,     -0.02320499,      0.00762713,     -0.00969336,
                0.02755776,      0.03987204,      0.00909950,     -0.07956894,
                0.11357866,      0.11584783,     -0.03377798,     -0.00963807,
               -0.01843746,      0.04306304,     -0.06534945,      0.23284307,
                0.00275258,     -0.01529465,     -0.03245880,     -0.07244690,
               -0.01544160,      0.06588211,      0.05023516,      0.19783324,
                0.07656091,      0.04688692,     -0.02354977,     -0.10414175,
                0.05788001,      0.07718766,      0.07573914,      0.03571594,
                0.04021600,      0.00499069,      0.01251410,      0.22393286,
               -0.04826156,     -0.03522316,     -0.01126561,      0.01868788,
               -0.10787921,     -0.02085521,      0.00433063,     -0.00615755,
               -0.01472442,     -0.03408317,     -0.21204934,     -0.00317090,
               -0.00799461,     -0.07761713,      0.02066571,     -0.12544484,
               -0.01882611,      0.00026622,     -0.03930447,     -0.01994323,
                0.44103092,     -0.00581117,     -0.03384873,     -0.05200289,
                0.20557153,      0.02614618,     -0.05594067,     -0.03984730,
               -0.06127298,      0.09071607,      0.24795897,     -0.07663882,
                0.01036472,      0.00616991,      0.02028486,     -0.03100628,
                0.01922206,     -0.02907685,      0.01031175,     -0.04673584,
                0.03555879,     -0.20454054,     -0.07255729,     -0.02716585,
               -0.04165384,      0.03204902,      0.09158996,     -0.01276395,
                0.00767467,      0.06273987,      0.08888871,     -0.00868490,
               -0.00172826,      0.09460593,     -0.11088020,     -0.00260088,
               -0.02861511,      0.06115700,      0.08421195,      0.06392811,
               -0.00406261,     -0.06587183,     -0.00369151,      0.01036029,
                0.07832196,     -0.02490198,     -0.05438177,     -0.01498441,
                0.11806533,     -0.03656023,     -0.06901449,     -0.03203702,
                0.04776245,     -0.09416895,     -0.18986298,     -0.00048311,
                0.04118484,      0.08788968,     -0.02796538,     -0.04063813,
               -0.07329745,      0.05035646,     -0.04059564,      0.22413009,
               -0.07979433,      0.06568793,     -0.03455449,     -0.01285638,
               -0.01184534,     -0.06425925,     -0.02423125,      0.01742875,
                0.05241235,     -0.00670683,      0.17110141,     -0.04894556,
                0.08074543,      0.01599971,      0.03100975,      0.00598449,
               -0.02194830,     -0.07285399,      0.09047730,      0.08103601,
               -0.03085306,      0.00559663,      0.02038752,     -0.08695060,
                0.10776366,     -0.05307826,     -0.13383465,     -0.02599363,
               -0.04743622,     -0.02982856,     -0.02473408,      0.00621001,
               -0.00587070,      0.05140509,     -0.01112913,      0.17372112,
                0.01366239,     -0.00995798,      0.03961022,     -0.00361723,
               -0.00325360,     -0.00887715,      0.23535849,     -0.09235823,
               -0.03627098,     -0.05069878,      0.02588940,      0.10519409,
                0.02358995,      0.01039448,      0.04732286,      0.01523339,
                0.00427607,      0.02445807,     -0.06451727,     -0.10390658,
               -0.04037141,     -0.02047155,      0.08550268,     -0.03594938,
                0.06360484,      0.05302101,      0.01046590,     -0.08783721,
                0.02438553,      0.00975155,     -0.07169943,      0.10591637,
                0.01817520,      0.01656769,      0.09209687,      0.06030679,
                0.02182138,      0.02731515,     -0.10787196,      0.09666011,
                0.03288155,      0.15683353,      0.15015879,      0.06169361,
               -0.05825594,      0.12432624,     -0.01295743,      0.02332717,
                0.00306616,     -0.01214873,      0.01420816,     -0.04193888,
               -0.12850207,     -0.03643994,     -0.06433424,      0.05470631,
               -0.10015757,     -0.01784368,     -0.01347679,     -0.02482631,
               -0.01846038,      0.02870359,     -0.00802675,      0.08207116,
               -0.12812753,     -0.06983558,      0.03438430,      0.01797910,
                0.00700837,      0.11896986,     -0.09992883,      0.15185316,
                0.07866184,     -0.00365358,      0.01059898,      0.08000358,
                0.05940038,      0.17176583,     -0.07865153,      0.00236244,
               -0.07758199,     -0.04486572,     -0.03787857,     -0.05918482,
                0.00274324,      0.00376981,      0.07073650,      0.09776188,
                0.47873053,     -0.22707807,     -0.15950878,     -0.05487169,
               -0.03049153,     -0.01034715,     -0.02368174,      0.15508495,
                0.10838348,      0.05380616,      0.03387079,     -0.12117030,
                0.00601067,     -0.03434588,     -0.04247017,     -0.00572268,
               -0.05123243,     -0.00404613,     -0.04104097,      0.07957506,
               -0.03516941,     -0.01319816,      0.02924734,      0.01265296,
               -0.19610491,     -0.00622192,     -0.13749434,     -0.02614131,
               -0.01949543,     -0.16604690,     -0.06453109,      0.05136471,
               -0.01147813,     -0.15881117,      0.03721202,      0.00003083,
                0.24138318,      0.10627723,     -0.10956898,      0.00633833,
               -0.01397781,      0.05965288,     -0.03602303,     -0.07808635,
               -0.01779703,      0.26155299,      0.02329293,      0.03523563,
                0.03168904,      0.15506004,      0.15603551,     -0.04202388,
               -0.00672762,     -0.02727158,      0.04442676,      0.05654670,
                0.01576047,      0.01166367,     -0.00296833,     -0.17792219,
               -0.03394296,     -0.00298105,      0.02099940,     -0.01346758,
                0.05345466,      0.03955711,     -0.01298493,      0.07820144,
                0.23378155,     -0.03206024,      0.07275452,      0.03375142,
                0.03447311,     -0.02827433,      0.04619131,      0.20582043,
               -0.14903662,      0.02153058,      0.03270299,     -0.02340963,
               -0.01217063,     -0.05802805,     -0.09966453,     -0.07816161,
               -0.00888161,      0.07024904,     -0.13808787,     -0.14255458,
                0.05129785,      0.04967825,      0.11114910,      0.03290804,
                0.05292664,      0.01511161,     -0.20768170,      0.03406657,
               -0.05789872,     -0.06021980,     -0.04962998,      0.01766442,
                0.04216813,     -0.08281721,     -0.01284278,     -0.19078439,
               -0.15689917,      0.00068351,      0.04478774,     -0.05541729,
               -0.00669378,      0.08458238,      0.04268961,      0.02078831,
                0.02415468,      0.01517551,      0.02742190,     -0.03059143,
               -0.01071383,     -0.04838867,     -0.04634632,     -0.00502375,
               -0.01338533,      0.05076291,      0.01604695,      0.09179644,
                0.04006024,     -0.04018421,      0.07329866,     -0.04957619,
                0.10035230,     -0.05887942,      0.05876440,      0.40583184,
                0.08837000,     -0.02809745,     -0.02280514,     -0.09031501,
                0.00427805,      0.06649895,      0.19456203,      0.06861787,
               -0.04799975,     -0.09226771,      0.01711925,     -0.07210911,
                0.01332639,      0.01245877,     -0.00933765,     -0.00659909,
               -0.02621255,      0.02381165,      0.04469086,      0.03706302,
                0.03232875,     -0.02902935,      0.00686599,      0.05762416,
                0.00896051,      0.05847081,      0.06175965,      0.02862804,
               -0.01519251,     -0.00365151,     -0.05197034,      0.17478380,
               -0.03092372,      0.13799426,      0.07313702,     -0.10650083,
               -0.18690197,      0.00159257,     -0.02567804,     -0.05141186,
               -0.03290898,     -0.03501034,     -0.00696183,     -0.20221075,
               -0.00463628,      0.02592551,      0.01872020,      0.02462271,
                0.08863387,      0.05514910,      0.00989320,     -0.06794347,
                0.03279061,     -0.02244358,     -0.13835961,      0.03916906,
                0.03025613,     -0.00217476,     -0.06731275,     -0.04903367,
               -0.03844787,     -0.03258292,     -0.00704788,     -0.01272788,
               -0.00415503,      0.04041676,     -0.09302779,     -0.01202754,
               -0.04215346,     -0.04665555,     -0.00352824,      0.08453698,
               -0.11060971,     -0.05496762,     -0.01138176,     -0.03200214,
                0.02283633,     -0.03458044,      0.01792589,     -0.11771101,
                0.00897544,      0.12501100,     -0.13918114,      0.02161260,
                0.00340213,      0.04131233,     -0.02732720,      0.00064664,
                0.00683003,     -0.00781822,     -0.03550562,      0.02388157,
                0.04869557,     -0.04737284,      0.04815561,      0.07637773,
                0.03708226,      0.00498653,      0.03867664,      0.03284291,
               -0.09106775,      0.04950640,      0.08795829,      0.01036076,
               -0.22880386,     -0.02148376,     -0.01834730,     -0.03473484,
               -0.03838484,     -0.05565085,     -0.12725806,      0.11454182,
               -0.01251801,     -0.09403889,     -0.00413536,      0.02927084,
               -0.00644516,     -0.02597361,      0.05600191,      0.07444094,
               -0.00938333,     -0.12292703,      0.02777389,     -0.08821964,
                0.00433891,     -0.06153109,     -0.00735211,     -0.05321269,
                0.05405784,      0.05629506,      0.05909536,      0.01935052,
               -0.01827141,     -0.04832658,      0.05704368,      0.08342416,
                0.10445271,     -0.02629216,     -0.00306615,      0.10822353,
                0.08934043,     -0.10707114,     -0.02456248,     -0.04071005,
               -0.02945360,     -0.03108820,     -0.02312561,      0.21832870,
               -0.04135242,      0.07800630,     -0.18800119,      0.02402356,
                0.00001734,      0.10923608,      0.02321684,      0.05341321,
               -0.10450502,      0.04232643,      0.08726189,     -0.05446230,
               -0.09984486,      0.00730758,     -0.00513522,      0.07834570,
                0.13244580,      0.00035705,      0.04486093,     -0.08683952,
               -0.05530179,      0.05880468,      0.18173081,      0.15885231,
                0.01334167,     -0.03060206,      0.03967776,     -0.04501867,
               -0.17213470,     -0.03398937,     -0.03017311,     -0.06152023,
                0.00598534,      0.01189559,     -0.05773539,     -0.03422331,
               -0.10316157,     -0.07929748,     -0.00357009,      0.04977093,
                0.07934608,      0.05908187,      0.02100731,      0.03923373,
                0.07065137,     -0.02109024,      0.06236366,      0.09225096,
                0.00608360,     -0.03196244,      0.04343773,      0.08988629,
                0.01057073,     -0.07268921,     -0.00366271,     -0.09294415,
                0.06143635,     -0.03452968,      0.04215226,      0.07656428,
               -0.15667902,     -0.01526863,     -0.07565308,     -0.03053393,
                0.07499795,     -0.17706530,     -0.02687951,     -0.06005255,
                0.03233887,      0.01830234,     -0.08671591,     -0.00430584,
                0.25060341,     -0.05816738,      0.01453848,     -0.01442849,
               -0.08418830,     -0.01771738,     -0.03867541,     -0.04139674,
               -0.05903371,     -0.07658374,     -0.07619886,     -0.09597991,
                0.25306812,      0.04889236,      0.08474910,     -0.00313307,
                0.08110479,     -0.00405536,     -0.18424223,      0.02339361,
