
// weight for Expansion Convolution layer has dimension of  torch.Size([1, 1, 240, 10])
extern float MBConv6_5_squeeze_excitation1_conv2d_weights [1 * 1 * 240 * 10] =  
{

-0.05142154,      0.03820715,     -0.10619144,     -0.01352225,
                0.07063235,      0.06812972,      0.00362802,     -0.00618266,
                0.11376464,      0.01712073,     -0.00352952,      0.00218464,
               -0.06880198,     -0.06510936,      0.01700803,     -0.02076998,
               -0.21654990,      0.01153765,      0.00401479,     -0.02840095,
                0.10775906,     -0.14990394,     -0.05455461,      0.00671696,
                0.00876995,      0.06184773,     -0.01507394,     -0.00206476,
                0.09811037,     -0.04489184,     -0.04608162,     -0.07116190,
               -0.07607468,      0.02194480,     -0.03473158,     -0.00732692,
                0.02931856,      0.02150683,     -0.04679762,      0.04559303,
               -0.09328191,     -0.00897101,      0.00788948,      0.01766512,
               -0.00382985,     -0.00735263,      0.06043153,     -0.01976327,
               -0.10828540,      0.05722807,      0.00068491,     -0.03414312,
                0.05153435,      0.04164777,     -0.07914826,     -0.04741428,
                0.05871066,      0.01793221,     -0.03263783,     -0.01709650,
               -0.12507577,      0.05865721,      0.07609647,      0.00401715,
               -0.01897830,      0.15458404,     -0.03764036,      0.02208509,
               -0.02310424,     -0.01171274,     -0.02488929,      0.00104435,
                0.01922584,     -0.00966624,     -0.03454687,     -0.05930850,
               -0.03906294,     -0.16247118,     -0.05962528,      0.02566945,
                0.03515326,     -0.13439199,      0.02620911,     -0.02378814,
                0.01717454,      0.01563810,      0.02011279,     -0.06312588,
               -0.09047925,      0.12460729,      0.02812372,     -0.06261811,
                0.02048126,      0.03981329,     -0.00239692,      0.01515465,
                0.03978723,      0.03710750,     -0.05850180,     -0.00922314,
               -0.02351049,     -0.00581433,     -0.02643683,     -0.08211258,
               -0.13663843,     -0.01169519,      0.02406007,      0.00178377,
                0.01522512,     -0.03424515,     -0.00645323,     -0.08274279,
                0.02870419,     -0.03929703,      0.02154301,     -0.01609140,
               -0.01838874,      0.11154485,     -0.00754145,     -0.00800889,
               -0.02880518,      0.01187526,     -0.11841746,     -0.00859645,
               -0.04905981,     -0.06583951,     -0.01259778,     -0.07221444,
               -0.00283159,     -0.01693143,      0.03523792,     -0.02819387,
               -0.09516132,      0.01722523,      0.05050687,     -0.05544794,
                0.07689752,      0.01825170,     -0.01066569,     -0.01569798,
               -0.01064141,     -0.03336182,      0.03401013,      0.03405295,
               -0.05263383,     -0.03143933,     -0.04961435,      0.09475943,
               -0.01149898,      0.00190881,      0.07662585,     -0.01785305,
                0.09345531,     -0.03188610,      0.01029466,      0.00608914,
               -0.00687314,     -0.04193653,     -0.00473899,     -0.08743121,
               -0.02079331,     -0.02577874,      0.05575210,     -0.06484468,
               -0.00129068,     -0.00010109,     -0.02242890,     -0.00078993,
               -0.00064884,     -0.00872607,      0.00938367,     -0.02271740,
               -0.16989817,      0.07610399,      0.02552589,      0.00695117,
                0.04938986,     -0.02938127,      0.05168846,     -0.05354795,
               -0.01170662,     -0.04046818,      0.00497638,      0.11126421,
               -0.01438536,      0.03988325,     -0.08039336,     -0.00981488,
               -0.01594527,      0.10049446,      0.02474689,      0.00197168,
                0.03110864,      0.19121948,      0.04268628,     -0.01457424,
                0.05895152,     -0.01890933,     -0.02627538,      0.05509078,
                0.04390973,     -0.08615720,     -0.03548417,     -0.02124766,
               -0.04495100,     -0.02034359,     -0.03659958,      0.01281693,
               -0.00989194,      0.03893318,     -0.13117892,     -0.04591642,
                0.00696338,     -0.08543598,     -0.01271144,     -0.07569517,
                0.04496630,      0.00984925,     -0.14334653,      0.05241242,
               -0.00576571,      0.01516515,     -0.07774374,     -0.00399730,
               -0.01933448,     -0.04422889,     -0.02490272,      0.02665899,
               -0.02429872,     -0.07399066,     -0.02091733,      0.08546211,
                0.03537347,     -0.06358080,     -0.11271250,     -0.00415255,
               -0.01768295,      0.01355626,     -0.04597123,      0.01250698,
               -0.05418080,      0.01721583,      0.02439488,     -0.03777462,
               -0.01624276,      0.06402016,     -0.01267400,     -0.03998480,
                0.02587677,     -0.01685333,     -0.02923207,     -0.01811033,
               -0.00476056,     -0.03377702,      0.06407814,     -0.04252404,
               -0.08701476,      0.00499584,     -0.03258952,     -0.01078616,
               -0.03896271,     -0.14289767,     -0.01122697,     -0.01196830,
               -0.01712171,      0.01527044,      0.01439786,     -0.01330568,
                0.09409952,      0.03830647,     -0.00783715,      0.02960842,
               -0.04363879,      0.07685320,     -0.02379776,      0.06048989,
                0.05196183,      0.07753722,     -0.06114906,      0.01171159,
               -0.02784397,      0.03976668,      0.14192696,      0.04303151,
                0.02337245,     -0.00891836,     -0.01849819,      0.00176507,
               -0.04015345,      0.00846936,      0.00275912,     -0.03609568,
                0.02069993,      0.00342475,     -0.01464223,      0.00136591,
               -0.00066507,     -0.00913138,     -0.02339690,      0.01173024,
               -0.01826921,     -0.05186973,      0.01869128,      0.05343380,
               -0.00297190,     -0.14030357,      0.03438353,     -0.05075291,
               -0.00228543,      0.03555747,     -0.02639998,     -0.00511501,
                0.02443450,     -0.02455137,     -0.01596825,     -0.03353057,
               -0.01852651,     -0.06276464,      0.02971119,     -0.02006848,
               -0.04910045,     -0.04474861,     -0.00546271,     -0.01057933,
               -0.00014475,      0.02159907,     -0.00391616,      0.00178621,
                0.07633632,     -0.10602449,      0.02415557,     -0.05487038,
               -0.02688179,     -0.08388397,     -0.00039716,     -0.08762884,
                0.02963031,     -0.07356686,     -0.01499049,     -0.00854950,
                0.02215819,      0.00683849,     -0.00343108,     -0.06194242,
                0.04127613,     -0.03188369,      0.09759456,     -0.04744104,
                0.01902515,      0.02021159,      0.00141176,     -0.05513638,
               -0.00868992,      0.00262473,      0.09052157,     -0.01304359,
                0.01173258,     -0.00562904,     -0.06895539,     -0.03681918,
                0.04741113,     -0.05880607,     -0.00027883,     -0.02080727,
               -0.03082443,      0.07846949,     -0.00790650,     -0.08188821,
                0.01751084,      0.01128250,      0.03783525,     -0.03336394,
                0.05375754,     -0.00396897,      0.03006514,     -0.03353783,
                0.04982845,     -0.03923408,      0.00039035,      0.00378660,
               -0.01508101,     -0.02804268,      0.02453065,      0.02050837,
               -0.04064100,      0.00159436,      0.01444181,      0.03152589,
                0.00510047,     -0.00506472,     -0.03064891,     -0.02797578,
                0.00599809,      0.02084875,      0.04388968,      0.01265600,
               -0.01309692,     -0.08499454,     -0.02599632,     -0.08878028,
                0.00244820,      0.04752984,     -0.01011507,     -0.03320658,
               -0.00574611,     -0.06179972,      0.03622959,      0.02341464,
               -0.03240857,     -0.00070835,      0.00109363,     -0.00732861,
               -0.03506038,     -0.00940205,      0.00112214,     -0.02335082,
                0.00478754,     -0.01352812,     -0.00197482,     -0.00282101,
                0.01349283,     -0.00291464,     -0.00426827,     -0.02271237,
               -0.00292851,     -0.00779664,      0.05466063,      0.04114914,
               -0.00605393,      0.07059510,     -0.03737203,      0.00791060,
                0.02907938,     -0.14652307,     -0.02478902,      0.03018214,
                0.01245509,     -0.01917792,      0.01708248,      0.01652102,
                0.01521822,      0.00482681,     -0.02344865,      0.00618971,
               -0.04290598,     -0.02206588,     -0.10179275,     -0.00667572,
               -0.05094862,      0.00667710,     -0.01186118,     -0.09574664,
                0.00890078,     -0.00761610,     -0.03187283,     -0.05072509,
               -0.02817796,      0.01289758,     -0.02407308,      0.04863440,
                0.02170034,     -0.13552310,     -0.02989927,     -0.01097557,
                0.02095965,     -0.00894946,      0.03457724,      0.03005347,
               -0.00366078,      0.00736648,      0.03813069,      0.11543022,
               -0.02885114,     -0.05602420,     -0.01461936,     -0.01270483,
               -0.03808945,      0.01666194,     -0.04895726,     -0.00843688,
                0.01269852,      0.04648065,      0.00531344,      0.02223860,
                0.09117979,     -0.02098172,      0.01013045,     -0.02353843,
                0.00119891,      0.02800928,     -0.00027276,      0.02852624,
                0.01665460,     -0.00739121,     -0.09649957,     -0.00196864,
               -0.08408795,     -0.01759796,      0.01345264,      0.06515498,
                0.02965496,     -0.06577355,     -0.01098628,     -0.02666485,
                0.01260746,     -0.00260593,     -0.00705862,      0.02630379,
                0.10103437,     -0.00748913,     -0.15129079,      0.01912640,
               -0.04049575,     -0.08499457,      0.02183223,      0.06452973,
                0.05060350,     -0.01798411,      0.03941831,     -0.04144445,
                0.01737264,      0.00775699,     -0.01880558,      0.01432228,
                0.03009408,     -0.01931761,     -0.01922399,      0.00777829,
               -0.08539028,     -0.02867782,     -0.00034043,      0.01217339,
               -0.04006097,     -0.10309432,     -0.08867945,      0.00697277,
                0.09962931,      0.00587967,     -0.00617232,     -0.01419410,
                0.03028043,     -0.00330937,      0.05689278,     -0.09655678,
                0.05439996,     -0.06546787,     -0.00228703,     -0.11946127,
                0.03793893,      0.12400550,      0.00477786,     -0.06164569,
               -0.01165275,      0.01668618,     -0.05406342,      0.01850096,
               -0.05787138,     -0.12747550,      0.00146096,     -0.03375054,
                0.07542355,      0.03182317,      0.08836927,     -0.00728142,
                0.02110020,      0.01585703,      0.01138138,     -0.05731123,
               -0.01684011,      0.13445635,     -0.00604841,     -0.01223560,
                0.02375845,     -0.01611371,      0.00705052,     -0.03494449,
               -0.16832441,      0.04818365,      0.03903919,     -0.00523741,
                0.06003457,     -0.00971479,     -0.00964878,     -0.05192417,
               -0.19647844,     -0.04790186,     -0.05400427,     -0.10331059,
               -0.02872720,      0.01166412,     -0.06081543,     -0.02395906,
               -0.01167252,      0.00405913,      0.00645878,     -0.06585189,
               -0.01462149,      0.06484363,      0.06652673,     -0.05091868,
               -0.04785716,      0.07101788,     -0.04561564,      0.02406350,
               -0.00811934,     -0.21919580,      0.00639274,      0.00411846,
               -0.00111420,     -0.01829905,     -0.10867051,      0.00139958,
               -0.17587870,     -0.00468535,      0.00755499,      0.03278160,
               -0.03938151,     -0.00579624,      0.07985082,      0.00334556,
               -0.08520999,      0.02630618,      0.03894309,      0.02199402,
               -0.04094445,     -0.00484449,     -0.01378358,     -0.06171855,
               -0.03922941,     -0.04628363,      0.06421947,      0.02660167,
               -0.01301761,      0.04304336,     -0.01269135,     -0.00690226,
               -0.02072186,     -0.05405211,      0.01022249,      0.02369286,
                0.08426581,     -0.05267581,     -0.00147838,      0.03314935,
                0.00273837,     -0.04548148,     -0.02829540,      0.01705281,
               -0.04790437,      0.00028847,      0.04580089,      0.09113524,
                0.01962601,     -0.00876334,     -0.01062315,      0.06440067,
               -0.03477436,      0.02372630,     -0.00398645,      0.00732889,
                0.01277847,     -0.06756060,     -0.01629307,      0.10024182,
               -0.00702472,      0.03973743,     -0.03889631,      0.01610279,
               -0.01871148,      0.09199067,      0.01018718,      0.00011050,
                0.00487521,      0.20432125,     -0.02838266,     -0.04246365,
                0.00094462,     -0.03698786,     -0.05355581,     -0.00727905,
               -0.00235793,     -0.04443215,     -0.16302884,     -0.01998704,
               -0.05579450,      0.00071447,      0.04321108,      0.00264018,
               -0.03637707,     -0.03166227,      0.00319766,      0.01036530,
               -0.01448511,     -0.09103081,      0.02108342,     -0.14976294,
                0.11612684,     -0.03273403,      0.01844602,     -0.11393683,
               -0.00125903,     -0.11464474,     -0.00956770,      0.01477286,
                0.05777114,      0.01159127,     -0.06696542,     -0.02888205,
                0.01269421,     -0.02516031,     -0.03730445,     -0.04264919,
               -0.08399343,     -0.03151173,     -0.02829014,     -0.00017458,
                0.02767112,     -0.00957690,      0.09475064,      0.00456674,
               -0.00866567,      0.04280182,     -0.03481906,      0.02920230,
               -0.15252487,      0.05738585,     -0.00107146,      0.02960661,
                0.05643983,     -0.02259066,     -0.04998757,      0.02463006,
               -0.02789394,     -0.08415875,     -0.02127317,     -0.00891956,
                0.03301436,     -0.00512798,      0.03759774,      0.03913396,
                0.02882328,     -0.13115416,      0.07868623,     -0.01827781,
               -0.10044154,     -0.01616300,     -0.06661101,     -0.01170677,
               -0.08550438,      0.06349163,     -0.12386619,     -0.00619439,
               -0.15464278,      0.05307346,     -0.09011024,      0.09559824,
                0.04119705,     -0.04725331,      0.03115518,     -0.02262204,
               -0.00885190,      0.03185441,      0.08433617,      0.07494271,
                0.03426215,     -0.03556811,      0.02544674,      0.02755409,
               -0.03753686,     -0.00504805,     -0.00473509,      0.18985532,
               -0.06637037,     -0.16556107,      0.06156298,     -0.00007847,
                0.02968069,      0.02193702,     -0.02117954,     -0.01534659,
               -0.03124790,     -0.08347064,      0.05353792,      0.11797936,
               -0.00749115,     -0.24217995,     -0.02207552,     -0.29726657,
                0.05093963,      0.16179529,      0.00486534,     -0.06489841,
               -0.03087611,      0.02745453,     -0.06712158,     -0.05424045,
               -0.02473505,     -0.13710998,      0.09480614,     -0.03934184,
               -0.06480204,      0.05515447,      0.02284368,     -0.04049073,
                0.01989598,     -0.01379374,     -0.01285500,     -0.01353747,
                0.00902126,      0.02790478,     -0.01253829,     -0.01508636,
               -0.03357056,     -0.01105337,     -0.01271164,      0.05570010,
               -0.00096289,     -0.03468967,      0.02565787,     -0.03013576,
                0.11352042,      0.01634624,     -0.03679564,      0.03410811,
               -0.13059120,     -0.13657136,      0.04543806,     -0.06153778,
                0.01411996,      0.05146061,     -0.05171501,     -0.07004359,
               -0.04221421,      0.00056669,      0.04659770,     -0.00101058,
               -0.02912268,      0.17188689,      0.11899257,      0.02981276,
                0.03112471,     -0.02711331,     -0.11393194,      0.01987530,
               -0.01522314,      0.00593067,     -0.00593274,     -0.00081210,
                0.00254391,     -0.01150779,     -0.03411136,     -0.06018677,
               -0.20044963,     -0.03008403,      0.06774027,      0.00621222,
                0.02009380,      0.03357524,      0.02920975,     -0.00098318,
               -0.03592594,      0.02057415,      0.05609705,     -0.05697996,
               -0.01711353,     -0.03862100,     -0.04656285,     -0.06371691,
               -0.03583328,     -0.08971648,     -0.02539142,      0.00647160,
               -0.00792847,     -0.00108081,     -0.01036562,     -0.02682227,
               -0.07082333,     -0.05102608,      0.03774444,     -0.00833247,
               -0.02097548,      0.04257661,     -0.08134416,     -0.03698869,
                0.02823618,     -0.06459855,      0.02846292,      0.01000830,
               -0.08103360,     -0.01357201,     -0.12002832,      0.00662983,
               -0.07087454,     -0.01112238,     -0.00516110,      0.01977644,
                0.00456751,      0.03486540,     -0.00025962,     -0.04761674,
               -0.00093554,     -0.08647443,     -0.04792545,      0.02003385,
               -0.04781988,     -0.03075147,     -0.02250260,      0.03070139,
               -0.03785005,     -0.03942557,     -0.11858634,      0.01149778,
                0.05367934,     -0.02159203,     -0.04309964,      0.05585876,
               -0.03141469,     -0.00776573,      0.00566786,      0.08644596,
                0.12199211,      0.01196342,     -0.14986557,     -0.06956802,
               -0.02672784,      0.01197765,     -0.00846156,     -0.00826111,
                0.01684668,     -0.03859997,     -0.03210275,     -0.04881378,
               -0.01190928,      0.00039086,      0.02574359,     -0.11714992,
               -0.01528541,     -0.00084217,     -0.08394772,      0.00487953,
                0.01148412,     -0.12642182,      0.00990663,     -0.02694429,
                0.10553426,      0.00566691,     -0.01471739,     -0.06233978,
                0.03678821,     -0.00568556,     -0.10494939,      0.07382286,
               -0.19095136,     -0.03545802,     -0.07745516,     -0.02290218,
                0.04913927,     -0.01650454,      0.05338306,     -0.02074106,
               -0.04278076,      0.13853416,     -0.06962111,     -0.00898132,
               -0.24179569,      0.05552139,      0.00037335,     -0.00161242,
               -0.04247045,     -0.03626380,      0.05309042,      0.00913441,
                0.03017895,      0.00109253,     -0.03891152,      0.10143828,
                0.08854038,      0.00559715,     -0.02306519,     -0.02265266,
                0.16915248,      0.09404855,      0.06470757,      0.01753672,
               -0.11844198,      0.02165779,     -0.08510917,     -0.04928836,
               -0.39381939,     -0.02596143,      0.00730267,     -0.06088032,
               -0.03265128,     -0.02518724,     -0.14941454,      0.07994003,
               -0.05714840,     -0.10400327,     -0.01872630,      0.00089595,
                0.01628728,     -0.02897760,     -0.01479127,      0.04318148,
               -0.03011529,      0.00181512,      0.04942633,     -0.02510735,
               -0.00497498,      0.07018597,     -0.00168203,      0.08570926,
               -0.09536853,     -0.08749947,     -0.00099281,      0.00654661,
               -0.09930053,     -0.01942872,      0.03588467,     -0.00808091,
               -0.06045531,     -0.01633371,     -0.00758977,      0.08323737,
               -0.09727284,      0.02614893,      0.02853633,     -0.03640991,
                0.03599223,      0.01337744,     -0.00385003,     -0.08646093,
               -0.00155209,     -0.01224238,     -0.00226912,     -0.06913672,
               -0.10004831,      0.01213617,      0.12146445,     -0.04993652,
               -0.11997330,      0.08098932,      0.10434012,      0.00219669,
                0.00522926,     -0.03598025,     -0.02625319,      0.01086979,
               -0.07955012,     -0.13378291,      0.00953913,      0.01147188,
               -0.03814529,      0.09726615,     -0.06534985,     -0.09135170,
                0.14158787,      0.01894408,     -0.04193863,      0.01524009,
               -0.04777893,     -0.02253066,      0.00420937,      0.01744276,
                0.03748566,      0.01421129,     -0.03477248,      0.09813568,
               -0.01855351,      0.06275359,      0.00368359,     -0.14198793,
               -0.04298493,     -0.03971900,     -0.16328807,     -0.10387708,
               -0.02516877,      0.12468360,      0.09019512,     -0.01613191,
                0.06749087,     -0.05993487,     -0.03709229,     -0.03617961,
               -0.00506789,     -0.16869795,      0.01027969,      0.01463800,
                0.07507908,      0.01703767,     -0.02514408,     -0.00462922,
               -0.08315318,     -0.01200252,     -0.01312838,      0.01932537,
               -0.00236086,      0.07408094,     -0.03647621,     -0.04438443,
               -0.02084731,      0.03034046,      0.03917646,     -0.10558582,
                0.04445518,     -0.12717181,     -0.05173863,     -0.02025695,
               -0.00571289,      0.03654139,     -0.00972286,     -0.04308209,
                0.01164955,     -0.05630423,     -0.02636711,      0.00862068,
               -0.07291543,     -0.03620105,      0.00771057,      0.02640785,
               -0.08877195,      0.05761384,      0.01516003,     -0.01588687,
                0.00642603,      0.07300673,      0.01704495,     -0.01637991,
               -0.02654429,     -0.02874219,     -0.02943911,     -0.07952122,
                0.03044697,     -0.02182713,     -0.04138499,      0.00743112,
                0.04417793,     -0.04217320,      0.08361702,     -0.02532861,
               -0.07408218,     -0.02625346,     -0.00132987,      0.02025056,
               -0.07226813,     -0.00247848,     -0.03838169,      0.09587336,
               -0.06796929,      0.08225920,     -0.15197794,      0.00695658,
                0.11243091,      0.29167944,     -0.00694611,      0.08146112,
               -0.01466589,     -0.00968890,     -0.02829911,      0.10085852,
                0.08204832,     -0.01537225,     -0.04499907,     -0.07134550,
                0.05782891,     -0.03012578,     -0.01217391,     -0.01365294,
                0.06733547,     -0.00323972,     -0.07806341,      0.10259656,
                0.00822262,      0.19974147,      0.01342265,     -0.03186274,
               -0.06053858,      0.03511713,     -0.14662077,     -0.03276083,
                0.03482903,      0.03673552,      0.01756423,     -0.00656830,
               -0.01220960,     -0.00581046,      0.02130052,     -0.03596042,
                0.01482676,      0.01019928,     -0.16442627,      0.06275281,
               -0.16692467,     -0.02839551,     -0.09042448,     -0.02126619,
                0.00277576,     -0.01158580,     -0.04932807,      0.00508232,
               -0.01041317,      0.03775309,     -0.02066487,     -0.03052233,
               -0.04256723,      0.06548828,      0.02403313,     -0.00275452,
                0.06443109,     -0.04839677,     -0.01889413,     -0.03609369,
                0.01872936,     -0.03976929,      0.04080990,     -0.03719953,
               -0.04918677,     -0.01248069,     -0.02459479,     -0.02656721,
               -0.07127994,     -0.09195830,      0.00450211,     -0.03087960,
               -0.02387886,      0.00027598,      0.04227164,     -0.01787955,
                0.03317123,     -0.04282906,      0.06733086,     -0.05393858,
               -0.15475880,      0.04607076,     -0.09636424,     -0.04544158,
               -0.00451857,      0.10511300,     -0.17199290,      0.01412128,
               -0.03275221,      0.03808188,     -0.02122477,      0.00337135,
               -0.00347669,     -0.00611290,     -0.01527850,      0.01644756,
               -0.08845653,     -0.01521972,      0.00129679,      0.01192788,
                0.05342644,      0.10613056,      0.03348390,     -0.01771779,
               -0.01703252,      0.00451343,     -0.05965978,      0.02275815,
               -0.06041619,     -0.01380404,     -0.01073813,     -0.04473600,
                0.00862824,     -0.10170301,      0.01167143,      0.00690318,
               -0.00753903,     -0.04177744,     -0.02733872,      0.07608991,
                0.03406279,     -0.01950127,     -0.01356515,      0.09578910,
                0.07211307,     -0.17326738,     -0.01224146,     -0.00336421,
               -0.05387463,      0.20235434,     -0.02519876,     -0.00562677,
               -0.01816141,      0.00687822,     -0.00550083,      0.00008523,
                0.04557339,     -0.05344516,      0.06781469,     -0.02186151,
               -0.04950128,     -0.04466577,      0.00563457,      0.12036987,
               -0.00897331,      0.01601820,     -0.05295670,     -0.01712047,
                0.01071688,     -0.01127374,      0.01814044,     -0.00104260,
                0.06214037,     -0.03580010,      0.09067340,     -0.04586931,
                0.07270914,     -0.01944825,      0.06764727,     -0.00658524,
               -0.00325473,     -0.00431844,      0.07577050,     -0.02325038,
               -0.04895793,      0.08533167,     -0.08203382,     -0.07141349,
                0.02539115,      0.04091959,      0.00322301,      0.01103000,
               -0.06189844,      0.20434329,     -0.00182888,      0.01739768,
               -0.00316316,      0.00871686,      0.09348929,     -0.04188932,
                0.06945036,     -0.00224111,      0.07787226,     -0.00457315,
               -0.08551458,      0.00494918,     -0.05192664,     -0.00202895,
                0.01261175,      0.01620134,      0.03750968,      0.01390376,
               -0.02345058,     -0.02035047,     -0.01761270,      0.14040579,
                0.00034162,     -0.01195100,     -0.01295810,     -0.05914012,
                0.12360881,     -0.04142348,      0.03515101,      0.03569237,
               -0.01219353,      0.00456601,     -0.02563698,     -0.05075536,
                0.06099333,      0.01445062,     -0.02730229,     -0.04289990,
               -0.00648887,      0.00678516,     -0.03528575,      0.00393911,
               -0.01352944,     -0.00530355,     -0.04870195,     -0.00358907,
               -0.13638903,      0.09663905,      0.02429186,     -0.04645466,
                0.16060971,     -0.01528833,      0.00760387,     -0.09290375,
                0.00630508,      0.00037559,     -0.00783759,     -0.04847833,
               -0.02665844,     -0.01386865,     -0.04775960,     -0.03337785,
               -0.00860293,      0.00924652,      0.01472898,      0.00569392,
                0.03825039,     -0.25538349,     -0.03743514,     -0.00670207,
                0.02674299,     -0.03139373,      0.01091305,     -0.00106660,
                0.01887957,      0.01648110,     -0.04409827,      0.01165620,
               -0.05827126,     -0.02554904,     -0.00434827,     -0.01979600,
               -0.04364419,      0.01917086,     -0.03855504,     -0.00543479,
               -0.02544013,     -0.06487191,     -0.02287989,      0.09508973,
               -0.04248997,     -0.01662343,     -0.09118099,      0.16020668,
                0.05610280,      0.00946336,      0.01071235,      0.01514988,
               -0.06838568,     -0.01159365,      0.00266131,      0.08522289,
                0.00361747,     -0.00883008,      0.02546635,      0.14072394,
               -0.03771678,     -0.04170886,     -0.16876435,      0.00012497,
               -0.03589425,      0.01492560,     -0.13979343,     -0.00425379,
               -0.01522626,      0.16911754,     -0.20547526,      0.00199463,
               -0.17670693,      0.02546779,     -0.01000922,     -0.06401552,
               -0.01096331,     -0.02751038,      0.02627005,      0.00170908,
               -0.03792942,      0.05622966,     -0.15081458,      0.04381070,
                0.12271502,      0.00668858,      0.02993573,      0.01663892,
                0.01454655,      0.21058504,     -0.00968109,     -0.01962487,
               -0.13508579,      0.00725483,     -0.03789480,     -0.07646623,
               -0.03159072,     -0.01368885,      0.08842354,     -0.09977831,
               -0.31062737,     -0.06853057,      0.01271768,      0.09883244,
                0.00170912,     -0.02700124,     -0.05054303,      0.03497149,
               -0.16992457,     -0.04923574,     -0.02723785,     -0.00051700,
               -0.04213741,     -0.00280591,      0.00411213,     -0.01133302,
                0.02866323,     -0.01934551,     -0.00444762,      0.13552754,
               -0.02531456,     -0.08487420,      0.06706550,     -0.01544990,
                0.00038488,      0.00086021,     -0.00253785,      0.00998404,
               -0.05683037,      0.14686984,      0.03905655,      0.11544566,
                0.01203527,      0.03724974,      0.07708480,      0.09499300,
                0.02239796,     -0.03043388,      0.01488681,     -0.10949919,
               -0.01662543,      0.00929834,     -0.01144943,      0.04065938,
               -0.00740945,     -0.15051526,      0.07284570,     -0.05542215,
               -0.04282504,     -0.02493603,     -0.03762237,      0.00680233,
                0.02642094,     -0.03838864,      0.01111734,     -0.06875013,
                0.02594523,      0.05009565,     -0.03052542,     -0.03673260,
               -0.00943778,      0.02048484,     -0.08988094,      0.00546842,
                0.06798200,      0.08892532,     -0.01318216,     -0.00507350,
                0.00800832,     -0.06235305,      0.03229965,      0.09863628,
                0.04028508,     -0.01475000,     -0.07266217,     -0.06410734,
               -0.05098492,     -0.04845019,      0.03860777,     -0.03807969,
               -0.00315674,     -0.00452263,     -0.16632766,      0.04719349,
               -0.01440392,      0.05394636,      0.10109996,     -0.03453704,
                0.03233056,     -0.04939393,     -0.07049193,     -0.01370472,
               -0.06374439,      0.13989124,     -0.00396899,     -0.05179307,
                0.00981128,     -0.01115295,     -0.13227180,     -0.00404086,
               -0.04996456,      0.01989733,     -0.07236794,      0.04268471,
                0.01364856,      0.00362305,     -0.00989978,     -0.02634140,
                0.05025120,      0.10248309,     -0.02711850,     -0.05846227,
                0.01298044,     -0.05104043,     -0.03723576,     -0.03998229,
               -0.01086589,      0.04927149,     -0.07357527,     -0.01092145,
                0.08535570,      0.04060606,     -0.06009299,      0.03323018,
               -0.00589890,      0.00394295,      0.00945952,     -0.01209705,
               -0.06465122,     -0.04754601,     -0.07568681,     -0.00160972,
                0.00862317,      0.13852257,      0.04538982,     -0.03107657,
                0.00212986,     -0.00982756,     -0.02634908,     -0.00143803,
                0.02597238,     -0.04528563,     -0.02218368,      0.00613359,
               -0.07086442,     -0.00573326,     -0.01942873,     -0.02585089,
               -0.06513921,     -0.01974815,     -0.00938668,      0.00479817,
               -0.04120650,     -0.02220961,     -0.07355922,     -0.05078384,
               -0.02373552,      0.01873953,     -0.00099164,      0.00541600,
               -0.08282591,     -0.09862873,     -0.01774423,      0.06364106,
                0.02636297,     -0.00533308,      0.07401911,      0.04600443,
               -0.00946345,     -0.02041138,     -0.03663959,     -0.01445694,
                0.12804763,      0.01336870,      0.01544620,     -0.03135281,
               -0.08257564,     -0.00060109,      0.01336162,      0.10699891,
               -0.02519585,      0.06508357,      0.00726923,     -0.13356590,
               -0.06718499,      0.04481876,      0.03425984,     -0.02418164,
                0.04498709,      0.07849380,      0.03104404,     -0.00640287,
               -0.03606037,     -0.02845143,      0.01747742,     -0.01154870,
                0.02676697,     -0.12598595,     -0.05725007,     -0.02791799,
               -0.06930979,      0.02314528,     -0.11026085,     -0.00567856,
                0.01130372,      0.02164955,     -0.02819014,     -0.02520203,
               -0.03495895,     -0.00055911,     -0.17047052,      0.00016042,
               -0.05970629,     -0.04511021,     -0.00054607,      0.02983129,
               -0.06983937,     -0.03002310,      0.02876579,      0.00223470,
                0.01442596,      0.03540734,     -0.11405890,      0.07898699,
                0.18252403,     -0.00379703,      0.02693143,     -0.08818228,
                0.09345262,      0.02496935,      0.11087143,      0.04844582,
                0.04382414,      0.08132613,      0.00292265,     -0.06395768,
               -0.20159483,     -0.04082158,     -0.05080965,     -0.02065353,
               -0.19441554,     -0.06233105,     -0.03280160,     -0.03781401,
                0.01336706,     -0.13779217,      0.08696806,      0.04974261,
               -0.00447693,     -0.03776820,     -0.01607222,     -0.04063604,
                0.02173144,     -0.02389316,      0.06639200,     -0.00922608,
                0.08008047,      0.05358387,     -0.00094582,     -0.01187405,
                0.05810242,     -0.07770115,      0.07442142,     -0.06822495,
               -0.08953784,      0.01725690,      0.00094951,     -0.01033666,
               -0.05770475,      0.06598005,      0.08550604,     -0.05224688,
               -0.02633691,      0.10574028,     -0.01995236,      0.02560124,
               -0.02236005,     -0.03338692,     -0.00783791,      0.00688127,
                0.05366006,     -0.00096933,      0.01094331,     -0.09377074,
               -0.03483271,      0.13109304,     -0.09799093,     -0.03674731,
               -0.00702422,     -0.09895793,     -0.01594556,     -0.03146110,
                0.01929140,     -0.02150363,      0.01959811,     -0.00052355,
               -0.13350317,      0.00641851,     -0.03172226,     -0.08969202,
               -0.03761112,      0.08774991,      0.08323447,      0.02583603,
                0.01189751,      0.04945474,      0.04169066,     -0.00771251,
               -0.07304168,      0.01436343,     -0.02938849,      0.06928655,
               -0.16966382,     -0.00801701,     -0.00171309,     -0.06935488,
               -0.01954672,     -0.00454910,      0.00870679,      0.04452894,
               -0.00228350,     -0.14404471,      0.00069835,      0.06797154,
               -0.04326186,      0.01012797,      0.00995336,     -0.04411454,
               -0.19339512,      0.00702675,     -0.13283508,      0.03946018,
                0.02934617,      0.08207247,      0.00899891,      0.07578702,
                0.03288929,     -0.01972363,      0.02278612,     -0.01607756,
                0.02033537,     -0.02753899,      0.03854584,     -0.00994107,
               -0.02081274,      0.03881904,     -0.06300831,     -0.04548319,
               -0.10660976,      0.03982223,      0.11022533,     -0.07681224,
                0.00623688,      0.00656857,     -0.03395522,      0.04726430,
                0.02066878,     -0.00094885,     -0.12619637,     -0.02732595,
                0.10156678,     -0.03124398,     -0.07357811,      0.04134613,
               -0.02480176,     -0.02165646,     -0.02470844,     -0.08861642,
               -0.01344857,      0.03392390,      0.01560625,     -0.04094532,
               -0.00177914,      0.10692977,     -0.09487352,     -0.05057124,
               -0.06598204,     -0.00359398,     -0.10865473,     -0.10631043,
               -0.09949625,      0.02006876,     -0.00626756,      0.10941768,
                0.06109948,      0.02863375,      0.03542445,     -0.02968764,
               -0.06629857,     -0.02773231,     -0.00924873,     -0.01749431,
               -0.02717599,     -0.01603580,     -0.16148031,     -0.04436238,
               -0.01516670,     -0.06841022,     -0.02101001,     -0.03298382,
               -0.07253551,      0.26589686,      0.10382899,     -0.00918707,
                0.04540631,      0.13493222,      0.04603286,      0.04065807,
                0.08221397,     -0.04003438,     -0.01061052,     -0.02623460,
                0.06986824,     -0.01220525,      0.02988066,     -0.00931605,
               -0.02505776,      0.05489005,     -0.02558380,      0.06128239,
               -0.03566758,     -0.16407342,      0.02164710,      0.04393904,
               -0.05142481,      0.00026715,      0.03905118,     -0.04738003,
                0.06544147,     -0.04437251,      0.00240568,      0.02241099,
                0.02366909,     -0.03029748,      0.03332981,      0.00087192,
                0.00003541,      0.01140223,     -0.15217352,     -0.05699957,
                0.17085940,     -0.02350316,      0.03498153,      0.01264336,
                0.00676418,      0.01708803,      0.02138267,      0.02678257,
                0.01899287,      0.07390161,     -0.00156284,      0.01173544,
               -0.18285839,      0.03353500,     -0.00514553,     -0.00611350,
               -0.01495801,     -0.04368130,     -0.02069622,      0.01509310,
                0.01061605,     -0.00818046,      0.00906173,     -0.01122167,
               -0.09111407,     -0.01063541,      0.01704007,     -0.00784519,
                0.03501825,     -0.05199656,      0.02557929,     -0.03397801,
               -0.14938499,     -0.00397230,     -0.05870058,     -0.02374320,
               -0.22712468,      0.02207694,     -0.01366309,     -0.06998990,
               -0.01678663,     -0.00252130,     -0.11921079,      0.03267191,
                0.03414671,     -0.01342781,     -0.00657776,     -0.05572351,
                0.03115724,      0.03005530,      0.01587584,      0.05498842,
                0.00607693,     -0.02816295,     -0.00247730,      0.03705463,
               -0.11504167,     -0.02981809,     -0.00270401,      0.07438064,
               -0.00597331,     -0.11355498,      0.10274833,      0.02189902,
               -0.00337428,     -0.00667535,     -0.01484769,     -0.00858865,
               -0.03452927,     -0.12075102,     -0.01664178,      0.02947189,
               -0.00914250,     -0.23385058,      0.03727753,     -0.13416950,
                0.03045194,      0.10365744,      0.00025736,     -0.04754402,
               -0.01523541,      0.01566303,     -0.05130971,      0.01273458,
               -0.03624205,     -0.02357741,      0.08427352,     -0.10356732,
               -0.08095054,      0.17082646,     -0.01801863,     -0.01510237,
               -0.00753499,     -0.01630242,     -0.02030710,      0.00575760,
               -0.03572458,     -0.11088897,     -0.03008598,      0.05935685,
                0.01122234,      0.01331948,     -0.03322477,      0.04004949,
                0.00687298,     -0.00222282,      0.02369221,     -0.01777730,
                0.04973092,      0.03350025,     -0.00693739,      0.04680894,
                0.12862715,     -0.09737007,      0.07709690,     -0.03024352,
                0.04687029,      0.02000251,     -0.02204216,     -0.07053766,
               -0.04827158,      0.00925573,      0.01382931,     -0.06919461,
               -0.02753417,      0.14538231,      0.03174116,     -0.01279786,
               -0.01496480,     -0.01754096,      0.00065058,      0.04024050,
               -0.04164224,      0.01357753,     -0.00254997,      0.06271444,
                0.03878225,     -0.01017760,     -0.07421800,     -0.03323151,
                0.01101595,     -0.03579350,      0.02333613,      0.00482083,
               -0.01864164,      0.04054158,      0.04556323,      0.01699270,
               -0.02590150,     -0.00840684,      0.03571555,     -0.02718368,
               -0.00049204,     -0.02250412,     -0.00300120,     -0.00957960,
               -0.02680398,     -0.03639663,      0.07084955,     -0.02382563,
               -0.02043202,     -0.03218841,     -0.02376700,     -0.03484024,
               -0.06225385,     -0.02108584,      0.01144529,     -0.01718932,
               -0.00456100,      0.01075052,     -0.11739153,     -0.01970972,
                0.01726693,     -0.06252193,      0.07113765,      0.01534343,
               -0.07795718,     -0.01879785,     -0.02692687,      0.04606999,
                0.02270314,     -0.01283637,     -0.03175747,     -0.03551336,
                0.03766553,      0.04466264,      0.00494734,     -0.01675780,
                0.01860998,     -0.03559750,     -0.03873805,     -0.02112640,
               -0.05596977,     -0.01874827,     -0.00452846,      0.03901759,
               -0.04954861,      0.04166051,     -0.08249330,     -0.00067542,
                0.07707012,     -0.11175741,     -0.01498483,      0.05565620,
               -0.02135350,      0.02664543,      0.02594652,      0.05081073,
                0.03292957,      0.05476776,     -0.05287815,     -0.05088159,
               -0.00957033,     -0.00345611,     -0.01952736,     -0.00011586,
                0.07276408,     -0.04668497,      0.01288197,     -0.04608048,
                0.01798784,      0.09010901,      0.02839480,     -0.04619291,
               -0.03522947,      0.00126216,     -0.03525706,     -0.00215063,
               -0.05075202,     -0.10513836,      0.01093899,     -0.01475343,
                0.00639327,      0.01483502,     -0.01110118,     -0.02621050,
                0.09277121,      0.05187741,     -0.09226608,      0.08546793,
               -0.19979616,     -0.02762548,     -0.14309956,     -0.01400041,
                0.03612161,     -0.01824906,     -0.01244179,     -0.03939141,
               -0.02139390,      0.13046846,     -0.07052134,     -0.00233184,
               -0.12205646,     -0.16531609,     -0.01524548,     -0.02767896,
                0.01802538,     -0.03811290,      0.01694771,     -0.00544602,
               -0.05284267,      0.08641181,     -0.09620936,      0.04434622,
                0.14440516,      0.00348096,      0.03040832,      0.02606146,
                0.04975126,      0.04311057,      0.14692321,     -0.00115034,
               -0.06455697,      0.04855421,     -0.03452154,     -0.04986720,
               -0.21007997,     -0.01647476,     -0.04352461,     -0.02488371,
                0.02110109,     -0.14550933,     -0.00869978,      0.07449508,
                0.04918522,     -0.01632491,      0.06000757,      0.03089202,
               -0.00321450,     -0.00738175,     -0.04880261,     -0.03654848,
               -0.02562353,     -0.00841522,     -0.00195612,     -0.00401138,
                0.08238166,      0.01833507,      0.00107316,      0.11191908,
               -0.00545974,     -0.09410606,      0.08579219,      0.00945328,
                0.00402050,     -0.00548631,     -0.04527110,     -0.00280504,
               -0.01764948,     -0.04665353,      0.00830539,     -0.06090596,
                0.00480430,      0.13094656,      0.00702749,      0.08145036,
                0.02256913,     -0.04871719,      0.01018226,      0.06673395,
               -0.01609807,      0.00958743,      0.00806553,      0.05049045,
               -0.00516537,     -0.07227752,     -0.02768862,      0.01375522,
                0.03741692,     -0.07932238,     -0.07496589,     -0.00155196,
                0.02404968,     -0.02295445,      0.02048278,      0.01049381,
               -0.05118945,      0.00086138,     -0.01896145,     -0.04554452,
               -0.00594537,      0.01241777,      0.00683259,      0.10413374,
                0.02450247,      0.13736343,     -0.01158747,     -0.02232101,
               -0.03909039,     -0.01001443,      0.01497086,      0.11253754,
               -0.04336866,     -0.00174060,      0.05637209,     -0.09279265,
               -0.00462265,      0.01370112,      0.02335006,      0.05198668,
               -0.01347635,     -0.01246168,     -0.16662985,     -0.02433802,
               -0.02243777,     -0.00140696,      0.03026982,     -0.05343501,
               -0.07948669,     -0.05389695,     -0.14105041,      0.03707233,
               -0.02782424,      0.06768564,      0.01288892,      0.06420659,
                0.01672473,     -0.01916874,     -0.05003778,     -0.04111452,
               -0.04577226,     -0.01345533,      0.04353403,     -0.00002824,
               -0.01219666,      0.06991986,      0.02461298,     -0.00023711,
               -0.00482085,      0.00199181,     -0.00406094,     -0.07432051,
                0.01566590,      0.00059031,     -0.01841028,      0.06541322,
               -0.01157051,      0.09369505,     -0.07246551,      0.00283848,
                0.06968758,     -0.04143339,     -0.02256501,     -0.01868913,
               -0.02608383,      0.01632860,     -0.04175890,      0.00072811,
               -0.09779654,      0.03897257,     -0.02602380,     -0.01057878,
                0.01356835,      0.03062354,     -0.00561468,     -0.01755328,
               -0.01370528,      0.00326522,     -0.03635979,      0.05743481,
               -0.04901827,     -0.01484801,     -0.01808651,     -0.00449000,
               -0.01177872,      0.00331606,      0.06146776,     -0.02604732,
               -0.03635200,     -0.02375194,     -0.03108990,     -0.19549218,
               -0.03541793,     -0.00412069,     -0.05984947,     -0.09276462,
               -0.02641801,     -0.02258865,     -0.06969283,     -0.00628373,
                0.06963975,     -0.05086055,      0.04717665,     -0.02112180,
               -0.02698477,      0.03578721,     -0.02194577,      0.00798863,
                0.00242498,     -0.03647116,     -0.02776249,     -0.00059173,
                0.07032207,      0.01066051,      0.01721886,     -0.00110343,
                0.05541031,      0.01040978,      0.13823323,      0.01670292,
                0.02293481,     -0.06374083,      0.02146355,      0.03939186,
                0.02252340,      0.04575321,     -0.04472686,      0.05397858,
                0.08584098,      0.04647667,      0.01450337,      0.02688866,
                0.02589902,     -0.00454996,      0.01577826,     -0.03036684,
                0.01949919,      0.02906503,     -0.15140346,     -0.19315575,
               -0.08517690,      0.03506187,     -0.08811324,      0.01117724,
                0.02296586,      0.01100582,      0.05441847,     -0.02523165
};

// weight for Squeeze Excitation2 layer  has dimension of  torch.Size([1, 1, 10, 240])
extern float MBConv6_5_squeeze_excitation2_conv2d_weights [1 * 1 * 10 * 240] =  
{
 -0.08062720,     -0.06786894,     -0.04974864,     -0.05590195,
               -0.02436585,      0.03372470,      0.06027164,     -0.03975970,
               -0.00036575,      0.05941195,      0.19250599,      0.04329594,
                0.08934298,     -0.00797264,      0.07719769,      0.02966546,
                0.08113401,     -0.06889730,      0.04313373,     -0.04536882,
               -0.01787513,     -0.02896269,     -0.01151859,      0.04256830,
                0.03156137,     -0.13106351,      0.04153294,      0.07182740,
               -0.01801072,      0.15280908,     -0.05430422,     -0.00924454,
               -0.02013391,     -0.04988747,     -0.07761544,     -0.04303045,
               -0.05514641,      0.04701545,     -0.02623670,     -0.03685505,
                0.11566090,     -0.04362815,      0.17418732,     -0.15634452,
               -0.29638124,     -0.07764359,     -0.16418481,     -0.08656897,
               -0.18640810,      0.02324672,     -0.04972650,      0.11280788,
                0.15002935,      0.02454645,     -0.20164606,      0.08225128,
               -0.19492966,     -0.16051425,      0.09978927,     -0.02286976,
               -0.00291366,     -0.00221799,     -0.05686248,     -0.04794300,
               -0.05507625,      0.00129857,     -0.01196364,     -0.05041165,
               -0.06285813,     -0.07930960,     -0.23564424,     -0.00710373,
               -0.28951359,     -0.26688257,      0.06293558,      0.00849333,
               -0.24356002,      0.18178573,     -0.08093390,     -0.12512316,
                0.00329019,      0.01489626,     -0.03162127,     -0.02688986,
               -0.08741163,     -0.04069494,      0.03531381,     -0.02948587,
               -0.09487151,     -0.06230129,     -0.00491172,      0.00005655,
               -0.00586805,     -0.02176334,      0.02225056,      0.00353368,
                0.00663834,     -0.00023306,     -0.00782653,     -0.00942865,
                0.01707086,      0.02619562,     -0.02808502,     -0.02769633,
               -0.03694632,      0.00795545,     -0.01821738,     -0.04170757,
               -0.02009252,     -0.04995498,     -0.01404507,      0.01461378,
               -0.01437605,     -0.08011445,     -0.07037766,     -0.05336092,
               -0.03983279,     -0.05605420,     -0.06984682,     -0.12527265,
               -0.03367187,      0.00471089,      0.00516724,      0.03597170,
                0.01099560,     -0.01108389,      0.02124536,     -0.04310344,
                0.01855991,     -0.04227167,     -0.01606873,     -0.05946900,
                0.01471661,     -0.01885710,      0.01991875,      0.00399592,
                0.06659915,      0.00108333,     -0.00032143,      0.05094048,
                0.06561969,      0.02059172,      0.12110916,      0.18321577,
                0.02840091,      0.06951146,      0.02184669,      0.11538077,
                0.13558967,      0.04666823,     -0.04028146,     -0.00315935,
               -0.06533264,     -0.05092745,     -0.03583224,      0.01505409,
               -0.05814679,      0.00965268,     -0.03289907,     -0.06767037,
               -0.34179991,     -0.05077794,      0.02735779,      0.07161042,
                0.02435785,     -0.10190403,      0.03410747,      0.06736201,
               -0.02946058,      0.03051902,     -0.00157147,      0.00238350,
               -0.01291239,     -0.01265712,     -0.01815298,      0.00356030,
               -0.01316042,      0.01991448,     -0.01936538,     -0.01586010,
               -0.02829473,     -0.04123741,     -0.01390127,     -0.06901190,
               -0.06180338,     -0.02441318,     -0.04498296,      0.04919518,
               -0.04973383,     -0.03399682,     -0.07723877,     -0.09888304,
                0.05240937,     -0.00847154,     -0.06981300,      0.06048505,
                0.01417786,      0.11291851,      0.01759111,      0.06282416,
               -0.00436983,     -0.04462658,      0.05019932,     -0.06496480,
               -0.03387648,     -0.05283263,     -0.03025789,      0.03216413,
               -0.01795204,      0.03971575,     -0.18195876,     -0.03132024,
                0.03524405,     -0.00245469,     -0.06519511,     -0.11804905,
                0.04391450,     -0.12839614,      0.10965350,     -0.06844502,
               -0.09349406,     -0.02978033,     -0.03200326,     -0.05719560,
               -0.04831174,     -0.07032632,     -0.01803560,     -0.06244599,
               -0.08610004,     -0.09703161,     -0.04946531,     -0.02647647,
               -0.00439154,     -0.01931183,      0.00985491,     -0.01039670,
                0.00412333,     -0.00824902,     -0.01044592,      0.01026530,
               -0.04798141,      0.04579132,      0.12899730,      0.07612091,
               -0.20497045,     -0.07116234,     -0.11476702,     -0.03842167,
                0.08940633,     -0.06923553,     -0.03731643,     -0.00354689,
               -0.05662121,     -0.07359445,     -0.00564793,     -0.00020203,
               -0.00671320,     -0.00644892,     -0.02963486,     -0.01984691,
                0.00645831,      0.06987333,     -0.04742540,     -0.02012724,
               -0.03820095,      0.06372667,      0.02284253,     -0.02627016,
               -0.00071185,     -0.02502801,     -0.06647643,     -0.10183086,
               -0.04158642,     -0.19101594,     -0.10871504,     -0.09213977,
               -0.00942957,     -0.00140013,     -0.16485204,     -0.04735388,
               -0.01657025,      0.12835985,     -0.07350004,     -0.32584891,
               -0.56049961,      0.06167587,     -0.16174443,     -0.27266121,
               -0.33572781,     -0.26612812,      0.00876169,      0.01631840,
               -0.00536388,     -0.08474088,     -0.03585727,     -0.00532351,
               -0.00433543,     -0.01786988,     -0.04683006,     -0.04647192,
               -0.00930933,      0.03039833,     -0.06970113,     -0.15316968,
               -0.07128204,      0.11108503,     -0.00121477,      0.03324736,
               -0.06826191,      0.02311781,      0.09641140,     -0.03235885,
                0.12615179,     -0.06899904,     -0.08645868,     -0.11615804,
               -0.06793267,      0.06958910,     -0.18948683,      0.03059047,
               -0.07531576,     -0.05350639,      0.02293820,     -0.10547144,
                0.02635472,     -0.11830729,     -0.35330144,     -0.23895919,
                0.05402096,      0.01524239,     -0.00831374,      0.12729692,
               -0.03673123,      0.00621512,     -0.11469947,     -0.08261738,
               -0.10976392,     -0.17103419,      0.01045345,     -0.26458874,
                0.02415270,      0.00308606,     -0.15722635,     -0.16703948,
               -0.03977450,      0.05020915,     -0.08885217,     -0.02623258,
               -0.15129270,     -0.02614917,     -0.04008814,     -0.01022610,
               -0.02530876,      0.01877009,     -0.03049571,      0.00184857,
                0.00667885,     -0.02519979,     -0.00436971,     -0.02371234,
               -0.00981116,      0.00423615,     -0.06399333,     -0.06989069,
               -0.01505673,     -0.01848304,      0.03298089,     -0.09550611,
               -0.03164305,     -0.07452416,      0.00852204,      0.07947269,
               -0.21539213,     -0.15751934,     -0.04312498,      0.09835355,
               -0.02663890,     -0.17738648,     -0.10698169,     -0.20845005,
               -0.01448100,     -0.04441180,      0.11453943,     -0.02400671,
               -0.15992707,     -0.23015922,     -0.12014279,      0.07666104,
               -0.08448602,      0.07938424,     -0.06849917,      0.00468393,
               -0.09895069,     -0.06251319,      0.04198229,     -0.05041133,
               -0.03834232,     -0.11231854,     -0.02129319,     -0.06712028,
                0.00529392,      0.05050636,     -0.09054624,     -0.07059078,
               -0.10647111,      0.02460243,     -0.02862847,     -0.05263622,
               -0.06553321,     -0.10769281,      0.03405416,      0.03314168,
               -0.03891486,      0.02052896,     -0.02712598,      0.01542166,
                0.02692222,     -0.03640205,      0.00123426,     -0.06456034,
                0.06910358,      0.18659917,     -0.08521344,      0.09097339,
                0.02708715,     -0.01821736,     -0.03026227,     -0.02884220,
               -0.05053594,     -0.04385667,      0.01541068,     -0.05231620,
               -0.14578477,     -0.25365746,     -0.05282342,      0.00011687,
                0.01431481,      0.04132910,     -0.19978409,     -0.00039423,
               -0.01689914,     -0.02246712,      0.01704795,     -0.00958731,
                0.00610835,     -0.03524243,      0.00030130,     -0.01369110,
               -0.00724071,     -0.00308899,     -0.07364486,     -0.03500197,
                0.00786061,     -0.01917262,      0.02394194,     -0.02083173,
                0.03134067,     -0.01662933,      0.01726515,      0.02945216,
               -0.00923390,     -0.00229435,      0.00668546,      0.02111126,
                0.02474436,     -0.00698439,      0.00375520,     -0.00885825,
                0.01532334,     -0.01006999,     -0.01027450,     -0.01454730,
               -0.11712553,     -0.16653839,     -0.03600396,      0.03254708,
               -0.04330291,      0.00813437,     -0.09687651,     -0.00015423,
               -0.24498215,     -0.02311676,     -0.16712451,     -0.12188487,
               -0.18617442,     -0.09155388,     -0.29849979,      0.08499732,
               -0.17269473,     -0.18005957,      0.10415369,      0.10133102,
                0.05343953,      0.07545162,     -0.08072520,      0.01190882,
               -0.09991883,     -0.08782887,      0.06940692,     -0.12653416,
               -0.01655003,     -0.01247635,     -0.01679281,     -0.01473118,
               -0.01957044,     -0.02227484,     -0.02520378,     -0.02011040,
               -0.01506431,     -0.01899299,     -0.12572280,     -0.01961434,
               -0.00875754,      0.00831066,      0.04781851,      0.04028399,
                0.10142533,     -0.20282491,      0.04543087,      0.06855017,
                0.01306844,     -0.00866286,     -0.03840487,     -0.06721576,
                0.01145314,      0.01021814,      0.03587396,      0.06248462,
                0.00765471,     -0.00387087,     -0.11056642,     -0.00304592,
               -0.19495201,     -0.24325991,     -0.02931225,      0.00995061,
               -0.10991886,     -0.26646170,     -0.06732646,     -0.15175350,
                0.05222449,      0.01947338,      0.07751929,      0.07719629,
                0.10876364,      0.03049328,      0.06005768,     -0.02880046,
                0.06584889,      0.04673406,     -0.06544722,     -0.02887083,
                0.00440721,      0.14601643,      0.06287879,      0.01310594,
                0.09280080,     -0.07590940,      0.14205754,     -0.01489513,
               -0.04956591,     -0.01905842,     -0.08594169,     -0.04951013,
               -0.03919296,     -0.01480028,     -0.02884448,     -0.01799506,
               -0.05760148,     -0.06334320,     -0.04861765,      0.00890710,
               -0.06788880,     -0.10241865,     -0.07915277,     -0.04683148,
               -0.00427982,     -0.06206583,     -0.07491560,     -0.05174704,
               -0.00348130,      0.01124271,      0.00720152,      0.00184524,
                0.01956098,      0.00156435,      0.01938290,     -0.00956712,
                0.01377836,      0.00450865,     -0.01205424,     -0.00846349,
                0.00562671,     -0.00176444,     -0.00257457,     -0.00944950,
                0.00014060,      0.00203666,     -0.00130366,      0.00312517,
               -0.04552388,     -0.02190141,      0.07270061,      0.02775264,
                0.02578976,     -0.06361807,     -0.09372608,     -0.01566549,
                0.07840317,      0.08363615,      0.19152838,     -0.04612327,
                0.06539156,     -0.15233409,     -0.24178450,     -0.09900840,
                0.10501905,      0.05576159,     -0.37397298,     -0.13368089,
                0.05117318,      0.04705862,      0.00861389,     -0.09799665,
               -0.10401819,      0.04158719,     -0.06766067,      0.03310648,
               -0.03531956,      0.00109668,      0.00925535,      0.04745064,
                0.03553788,      0.15594110,      0.11949232,      0.14072645,
                0.06200167,     -0.06492078,      0.22980437,      0.06770683,
                0.00463963,      0.01911197,     -0.02679086,     -0.03134288,
               -0.00661106,      0.01465598,      0.02299603,     -0.01655931,
               -0.01633703,     -0.02510857,      0.14426063,     -0.12126643,
               -0.00387295,     -0.20946853,     -0.07741953,     -0.02756505,
               -0.08394791,     -0.05666287,     -0.12767899,      0.05113969,
                0.00430584,     -0.05997956,     -0.00816622,     -0.11805484,
               -0.05052542,     -0.00159888,     -0.11649250,     -0.01646222,
               -0.04702694,     -0.05282363,      0.10070539,     -0.07447236,
               -0.08210127,     -0.36022681,     -0.00880422,      0.03672757,
                0.18206358,      0.18593360,     -0.15383828,      0.17148528,
               -0.00462605,      0.01667741,     -0.01866269,     -0.00731389,
               -0.01943194,      0.00559095,     -0.01742274,     -0.01454698,
               -0.00660669,     -0.03092972,     -0.03078052,     -0.02454618,
               -0.09807909,     -0.13498330,     -0.00812932,     -0.03201663,
                0.15949760,      0.06971379,     -0.06935104,      0.06676567,
               -0.02244009,     -0.04535753,     -0.04640053,     -0.07962231,
               -0.03322565,      0.02013375,      0.01203151,      0.02333006,
               -0.06977072,     -0.02419988,     -0.02314545,     -0.02813264,
                0.02572440,      0.02501984,      0.02994492,     -0.04529930,
               -0.00800164,      0.03999269,     -0.04702861,      0.00538904,
                0.00292254,      0.01068506,      0.00208343,     -0.01466028,
                0.00004183,      0.01862357,      0.00240768,     -0.00441591,
               -0.00055318,     -0.01220306,     -0.00713354,     -0.02126794,
                0.02264545,     -0.06137041,     -0.00312495,     -0.04453259,
               -0.07004477,      0.11284085,     -0.00822918,      0.06535239,
               -0.03990093,     -0.02495163,      0.00556303,     -0.00262090,
                0.02303838,     -0.02113698,      0.02283449,      0.00512748,
                0.02812391,      0.05718205,     -0.08851687,     -0.13659258,
                0.01883745,     -0.09696250,      0.00383494,      0.13752650,
                0.13453740,     -0.01275413,     -0.07327561,      0.02701207,
               -0.12151625,     -0.13124020,     -0.01649623,     -0.04846286,
                0.03898961,      0.00564175,      0.12236046,      0.01351827,
               -0.06897116,      0.15833890,     -0.12266052,     -0.08073784,
               -0.20634718,     -0.30063492,      0.02304097,     -0.25406948,
               -0.33803385,      0.08930404,     -0.09859188,      0.03282708,
               -0.09134058,      0.03480133,     -0.12011652,     -0.09195874,
                0.00679797,     -0.01963384,     -0.01127411,     -0.25220647,
               -0.06902688,     -0.14147235,     -0.03084739,      0.00636533,
                0.00903076,     -0.00067869,     -0.04838581,     -0.05053999,
               -0.06313833,     -0.04003279,     -0.02652847,     -0.05755624,
               -0.00421142,     -0.02734158,      0.01155767,     -0.06861007,
               -0.03053150,     -0.17803383,     -0.17622587,     -0.15969890,
               -0.03062681,     -0.08547536,      0.02506097,      0.02345583,
               -0.16241710,     -0.09242499,     -0.05710027,      0.08564280,
               -0.08169829,      0.02507743,     -0.13742602,      0.00267763,
                0.02689772,     -0.04993206,      0.14505678,     -0.06793120,
                0.06167949,     -0.10605630,     -0.05749482,      0.01228613,
               -0.08124910,     -0.07676449,      0.01244891,      0.00442928,
                0.00170974,     -0.00555650,     -0.01125498,      0.01394307,
                0.00914859,      0.02245971,     -0.00981937,     -0.00801983,
               -0.00941548,     -0.00149209,     -0.01744903,     -0.03043457,
               -0.01911991,      0.00381315,     -0.01252219,     -0.03369372,
               -0.00692829,     -0.03052625,     -0.01175921,      0.00062753,
               -0.01935815,     -0.01371608,     -0.01599674,     -0.00277781,
               -0.01606946,     -0.01893670,     -0.00973638,     -0.03137736,
               -0.01007004,     -0.02084997,     -0.02185988,     -0.04161507,
               -0.01042305,     -0.01129839,      0.01421553,     -0.00176532,
               -0.03641678,      0.00401340,     -0.03195921,     -0.00714689,
                0.00739391,     -0.01552742,     -0.04852704,     -0.09838957,
               -0.04008154,     -0.03099009,     -0.02947852,     -0.01170475,
               -0.09941137,      0.03648178,     -0.01303543,      0.08594299,
                0.03709755,      0.05804874,      0.07449273,     -0.11185357,
                0.06332861,     -0.01434262,      0.28129360,     -0.05829968,
                0.14272584,     -0.08574844,     -0.32354638,      0.00343098,
                0.10626342,      0.01116651,     -0.32427427,     -0.11944240,
                0.02670954,      0.03896954,     -0.03036186,     -0.00023919,
                0.03831994,     -0.00195279,      0.03666051,      0.03642616,
               -0.09374303,      0.03000549,     -0.05141791,      0.00027724,
               -0.08994375,     -0.08827119,     -0.12390178,     -0.01856300,
               -0.07948652,     -0.05676887,     -0.12147056,     -0.15664008,
                0.01178151,     -0.05794903,     -0.00094887,     -0.11329939,
               -0.05966968,     -0.08745799,     -0.13236155,     -0.10854207,
               -0.12661268,     -0.09296572,     -0.03500373,     -0.09752838,
               -0.07304852,     -0.09469656,      0.02385872,     -0.04702289,
                0.21433048,      0.24579984,     -0.11012465,      0.12268040,
               -0.03735486,      0.00036983,      0.01613834,     -0.00179079,
               -0.01018033,     -0.02947723,     -0.03072339,      0.05092725,
                0.00672931,      0.05312293,     -0.03791792,     -0.08798539,
               -0.06221457,     -0.03515694,     -0.05774090,      0.08060126,
                0.05680011,     -0.03717652,     -0.03575002,     -0.00715908,
               -0.07143065,     -0.04019193,      0.00735096,     -0.07776996,
                0.05063247,     -0.09720518,      0.04653138,     -0.10268361,
                0.05125019,      0.03874982,     -0.07298206,     -0.09458952,
                0.03691635,     -0.03134714,     -0.04983414,     -0.02203804,
                0.09261867,     -0.10839806,      0.04591955,     -0.02984427,
                0.05907598,      0.03178021,      0.08973731,      0.05994379,
               -0.00906652,      0.01599704,     -0.04720860,      0.01724215,
                0.03215555,     -0.05071072,     -0.02170387,     -0.02455403,
               -0.03309346,     -0.05191693,     -0.01213381,      0.00507865,
                0.00483685,      0.03545110,     -0.00752519,      0.00863905,
               -0.02503953,      0.02189795,     -0.03012013,      0.09130233,
                0.05642818,      0.00390667,      0.01260922,     -0.01157284,
                0.05416265,      0.08378365,     -0.05544065,     -0.04385163,
                0.02696152,      0.02698633,      0.07254933,     -0.03754272,
                0.04159050,      0.00349232,      0.04617218,      0.06552578,
               -0.00140983,     -0.00302612,     -0.00519930,     -0.01340318,
               -0.00692270,     -0.00385447,     -0.00800076,      0.00876490,
               -0.00874623,     -0.00468536,      0.02286674,     -0.05940533,
                0.03313255,     -0.06381694,      0.02404761,     -0.26392072,
               -0.13964157,     -0.12871771,     -0.14193584,     -0.12234604,
               -0.09996346,      0.03474957,     -0.14589265,     -0.17829177,
               -0.06073285,      0.00598194,     -0.08407277,     -0.11904750,
               -0.05808912,     -0.16772641,     -0.03573694,     -0.03950089,
                0.00883844,     -0.01889613,      0.02855851,     -0.01120705,
                0.04667950,      0.05495172,      0.01692360,      0.10535106,
               -0.01746775,     -0.01813801,     -0.00094118,      0.01872719,
                0.04204148,     -0.00172983,      0.00751340,      0.09517520,
                0.05305909,      0.06031521,     -0.03847843,     -0.07226408,
               -0.02755944,     -0.08654483,      0.23721795,     -0.20076893,
               -0.18263976,     -0.04350317,     -0.05476933,     -0.11319254,
               -0.00461017,     -0.02263186,      0.01593670,     -0.01450160,
                0.00120318,     -0.00856959,      0.02983251,      0.02694466,
                0.00049017,      0.02997706,     -0.11991007,      0.02686420,
               -0.02051839,      0.05355876,      0.07700934,     -0.01828075,
                0.15851124,     -0.10938982,     -0.01705818,      0.00169953,
               -0.11309078,     -0.02341554,     -0.07362168,     -0.07287271,
                0.01625726,     -0.00919625,      0.01979078,     -0.06626910,
                0.00587636,      0.02638605,     -0.14017856,     -0.03817965,
               -0.12383161,     -0.06300485,     -0.06514902,     -0.07197384,
               -0.00205125,     -0.14779389,     -0.03738964,     -0.05332431,
               -0.02225471,     -0.03116387,      0.02491945,     -0.03268113,
                0.01838349,     -0.04139578,      0.00488221,      0.00295840,
               -0.01130664,      0.03527824,      0.05718803,      0.01264990,
               -0.06425067,     -0.06882717,     -0.10038988,      0.01458826,
               -0.07243837,     -0.01643175,     -0.09562884,     -0.05671259,
                0.08009878,      0.15186127,     -0.00198018,     -0.04198725,
               -0.13113056,      0.02821968,     -0.15079966,      0.03705341,
               -0.10603760,     -0.15990859,     -0.06534461,      0.02487892,
               -0.31990123,     -0.01566671,     -0.08413657,      0.09467489,
                0.01435394,      0.20982547,     -0.14111862,      0.04013076,
               -0.00448659,     -0.02866926,     -0.01995432,     -0.05758608,
               -0.02685387,     -0.03017743,     -0.01915844,     -0.03328155,
               -0.07361048,     -0.05464461,      0.08580532,      0.02284188,
               -0.00903792,      0.04102381,      0.10262384,      0.02075232,
               -0.11032686,     -0.01374276,      0.03227475,     -0.04016851,
               -0.06468060,     -0.07960767,     -0.03590828,     -0.00989476,
                0.13342088,      0.01412471,      0.09773649,      0.19425255,
                0.04437677,      0.11390764,     -0.05437127,     -0.04013188,
               -0.07152651,     -0.10312092,      0.01148864,     -0.04476473,
                0.02352539,     -0.08700974,     -0.08975674,     -0.00848462,
                0.02949990,      0.07671810,      0.01412915,      0.09195242,
               -0.03529751,      0.13921224,      0.13965252,     -0.05265920,
                0.00116689,     -0.02504581,     -0.03373551,     -0.17758957,
               -0.04666055,     -0.22528647,     -0.15964161,      0.10079961,
                0.01557602,     -0.05074298,     -0.19611971,     -0.16409031,
               -0.09581744,      0.08709491,     -0.17928986,     -0.17350993,
               -0.02642941,      0.08966421,     -0.09369824,     -0.12847783,
               -0.02573134,     -0.13821194,     -0.06301612,     -0.01623917,
               -0.12816662,     -0.11620520,     -0.10029045,      0.00187596,
               -0.12959069,     -0.04770940,     -0.04696907,     -0.05747763,
               -0.03272590,     -0.00011860,     -0.06312402,     -0.05057756,
               -0.04184623,     -0.01091411,     -0.05585764,     -0.04871441,
               -0.03728017,     -0.03488012,     -0.06600635,      0.12660852,
               -0.20184593,      0.00350641,     -0.21175267,      0.18651634,
                0.13778533,     -0.10812103,     -0.00757929,     -0.04735864,
               -0.05228193,     -0.02310756,      0.01556440,      0.01562747,
                0.03048803,     -0.01857674,      0.02529714,     -0.00467296,
                0.02836856,      0.04321077,      0.05529698,      0.03075720,
                0.00143504,     -0.00724015,      0.05829938,      0.03176471,
                0.02984833,      0.03558632,      0.00267183,      0.02143837,
               -0.02542497,     -0.01168597,     -0.04736471,     -0.04355581,
               -0.04112859,      0.00735083,     -0.01612216,     -0.03497037,
               -0.04284739,     -0.06690112,     -0.01182379,      0.00231251,
               -0.01247837,     -0.00019733,     -0.01244438,     -0.00899009,
               -0.01160129,     -0.02088683,      0.00574444,     -0.01843934,
               -0.00587041,      0.02306880,     -0.00704714,     -0.01656034,
               -0.02310926,     -0.00303002,     -0.02581259,     -0.05651483,
                0.01338411,     -0.05612907,      0.00292992,      0.00594392,
                0.00411832,     -0.01760332,      0.01887553,      0.00340788,
                0.00420370,     -0.00059111,     -0.00266708,      0.00609110,
               -0.11117838,      0.03410174,     -0.20983459,     -0.31609830,
               -0.27651235,      0.12951857,     -0.05797778,     -0.03826894,
               -0.06688830,     -0.04973382,      0.00642588,      0.00814752,
               -0.01341682,     -0.01030581,     -0.00161305,      0.00296705,
                0.00083840,      0.02260881,     -0.00835595,     -0.00333278,
               -0.04290578,     -0.05463164,     -0.10634485,     -0.13633861,
               -0.05944070,      0.02499771,     -0.08263933,     -0.16206922,
               -0.06846118,     -0.04508663,      0.02744016,      0.03097254,
               -0.04012170,     -0.02520107,     -0.02952019,      0.03373468,
               -0.00887851,     -0.02983674,     -0.02112573,     -0.03142413,
                0.02297932,     -0.00334317,     -0.14213197,     -0.09133083,
                0.03460123,     -0.07420626,      0.05553278,     -0.10460573,
               -0.09777493,     -0.09647183,     -0.08203183,     -0.00016423,
               -0.07046500,     -0.05295284,     -0.02088373,     -0.01804660,
               -0.12662023,     -0.02212713,     -0.00350623,     -0.04791266,
               -0.06385267,     -0.01842059,     -0.08270803,     -0.03925883,
               -0.02107338,     -0.01011944,     -0.06716213,     -0.04645145,
               -0.00633922,     -0.01765523,     -0.02494071,     -0.01547993,
               -0.06388976,     -0.05510889,     -0.02355019,      0.01414255,
                0.00958817,     -0.01255836,     -0.04443661,     -0.02432574,
               -0.05587342,      0.06858559,     -0.08109407,      0.16950788,
               -0.04674174,     -0.05506351,      0.13774544,     -0.21432310,
                0.05755184,     -0.16898291,      0.01256883,     -0.03354727,
                0.01154776,     -0.02551789,      0.01017047,     -0.04554814,
               -0.00622867,     -0.02228918,     -0.01509095,      0.02074829,
               -0.01384749,      0.03275670,     -0.04365403,     -0.03059821,
               -0.06670149,      0.01364161,     -0.05107146,     -0.09248884,
               -0.02024911,     -0.09816752,     -0.00663323,     -0.00527660,
               -0.00056022,     -0.02956746,     -0.00173228,     -0.00046108,
                0.00410810,     -0.00310555,     -0.00382147,     -0.00504547,
               -0.01532125,     -0.02045984,      0.02002813,      0.04743608,
                0.02489541,     -0.01072075,      0.03054110,     -0.04246054,
                0.05650328,     -0.01538408,      0.00605212,     -0.01624810,
               -0.04813091,     -0.05304539,      0.02372209,     -0.00259323,
               -0.00693328,     -0.10569426,     -0.01317543,     -0.00565329,
               -0.07639041,      0.06274521,     -0.00533976,      0.05632202,
               -0.15269090,      0.00196803,     -0.19385238,     -0.09786572,
                0.04926403,     -0.08020725,      0.19419432,      0.05825195,
                0.01022165,     -0.13413860,     -0.11626531,      0.08761627,
               -0.03528045,     -0.00164588,     -0.09550813,     -0.08904929,
                0.00103717,      0.00637881,     -0.00979310,     -0.02442831,
               -0.00170017,      0.01197920,     -0.00292977,     -0.01443820,
               -0.00280916,     -0.00354378,      0.01477071,     -0.05675198,
               -0.05761401,     -0.19618718,     -0.08985798,     -0.02042682,
               -0.01496644,     -0.01996250,     -0.08631371,     -0.00696638,
                0.00809163,     -0.09183220,     -0.09067269,     -0.06549993,
                0.09846369,     -0.10430681,      0.03752460,      0.07558630,
               -0.02423545,      0.20580401,      0.21885699,      0.02021458,
               -0.26068193,     -0.30374858,     -0.17852031,     -0.06537796,
               -0.08801343,     -0.06435554,     -0.32251772,     -0.20194454,
               -0.00440354,      0.00009068,     -0.02868978,     -0.04861819,
               -0.04645139,     -0.01419192,     -0.04883919,     -0.05261985,
               -0.05382834,     -0.03978294,     -0.02654054,     -0.01743310,
               -0.05322175,     -0.07371452,     -0.04018715,     -0.03213405,
               -0.10847771,     -0.03927952,     -0.03501566,     -0.04177985,
               -0.01754915,     -0.00167908,      0.00327612,     -0.01677432,
                0.00103118,      0.00946519,      0.00230174,      0.01208645,
               -0.01015851,      0.02668836,     -0.02521811,      0.02675144,
               -0.05312819,     -0.05701656,     -0.04988925,      0.05502415,
                0.02440527,     -0.00769242,     -0.03753150,     -0.00689914,
                0.00086234,      0.00246013,     -0.00036491,     -0.02249165,
                0.00151932,      0.01049145,      0.01782377,     -0.01160832,
               -0.00277252,     -0.01051631,     -0.03785993,     -0.07554179,
                0.00315914,      0.01888439,      0.01510236,      0.00985572,
                0.05590782,     -0.08683399,      0.02931211,     -0.00168818,
                0.04001936,      0.02926255,     -0.06540713,     -0.05762718,
                0.01722731,     -0.03032219,     -0.04305267,      0.06573904,
               -0.04632652,     -0.01347175,     -0.08639187,     -0.02471263,
                0.07044127,      0.06338783,     -0.05968586,     -0.02672606,
                0.09157013,     -0.16544223,     -0.02086137,     -0.03920031,
               -0.01191961,      0.00503408,      0.06664958,      0.11427223,
                0.11053587,     -0.11908194,      0.03260763,      0.00450775,
                0.11337977,      0.04628921,     -0.04655896,      0.05432960,
               -0.01485168,      0.03067126,     -0.02011830,     -0.00286960,
               -0.02471233,      0.01731025,      0.13323875,      0.00553937,
                0.01467636,      0.03998712,     -0.01485299,      0.00244904,
                0.00018201,      0.00439501,     -0.00046875,     -0.06318665,
               -0.00839877,      0.00144668,      0.02447983,      0.00828754,
               -0.06535549,     -0.08186868,     -0.05676213,     -0.00122338,
               -0.02939056,     -0.04384088,     -0.11724359,     -0.07810473,
               -0.04875843,     -0.00919944,      0.01513230,     -0.00211420,
               -0.05041673,      0.01529570,     -0.03605203,     -0.03530768,
               -0.02587323,     -0.06211243,     -0.00545615,      0.03133619,
               -0.14776309,     -0.09037765,      0.03713632,     -0.00019115,
               -0.03615682,     -0.01094992,     -0.02487154,     -0.16946608,
               -0.02459079,      0.04746221,     -0.06201811,      0.05681419,
                0.08646056,      0.01447910,     -0.01904240,     -0.10543282,
                0.00819089,     -0.02591867,     -0.01094198,      0.00758436,
               -0.00495629,      0.00614747,     -0.00144297,      0.01036924,
                0.02136297,     -0.00270542,      0.00455907,     -0.01038403,
               -0.02973376,     -0.03180572,     -0.06655565,     -0.16492566,
               -0.10484295,      0.01881838,     -0.06485070,     -0.05704339,
               -0.02204468,     -0.07485176,     -0.03592830,     -0.02057040,
               -0.02289108,     -0.04208394,     -0.01991643,     -0.01766347,
               -0.00894721,     -0.02110714,     -0.02258240,     -0.01525198,
                0.02251287,     -0.02094265,      0.02226136,     -0.15400551,
               -0.07375521,     -0.02454202,      0.01350849,     -0.05633961,
               -0.08296686,      0.00651465,     -0.06723080,      0.03806444,
               -0.11785089,     -0.04263773,     -0.08083524,     -0.01255448,
               -0.03996761,     -0.07367027,     -0.05944313,     -0.12181873,
               -0.24146807,     -0.01644165,      0.18334195,      0.11182954,
                0.02161723,     -0.03036330,      0.08641724,     -0.08912493,
                0.23475097,      0.01594015,      0.03784007,     -0.00220976,
               -0.00178154,      0.04170549,      0.04246475,      0.00043071,
                0.04909397,      0.07476821,     -0.04411260,      0.02277975,
               -0.04760946,     -0.01550503,     -0.03238213,     -0.01336731,
                0.00918709,     -0.00842168,      0.05432104,     -0.04718905,
                0.00724190,      0.00286942,      0.08748657,      0.04409274,
               -0.06047517,     -0.07515895,     -0.02545238,      0.00757953,
                0.03916105,     -0.03403091,     -0.08439588,     -0.10939433,
               -0.01444583,      0.03116227,     -0.04730712,     -0.01603079,
               -0.02317603,     -0.00702110,     -0.03182715,     -0.05545819,
               -0.00828803,     -0.06845471,      0.01465086,     -0.01869229,
               -0.01954452,     -0.03849438,     -0.01555050,     -0.02337210,
               -0.03570587,      0.06319480,     -0.03717023,      0.03146590,
               -0.04679969,     -0.08799221,     -0.03195047,     -0.10205480,
               -0.00282604,     -0.00538094,     -0.01202653,      0.04015896,
               -0.05573925,      0.09475016,     -0.15756910,     -0.04954449,
               -0.04677412,      0.00481205,      0.09777191,     -0.02278462,
                0.01894841,      0.05394275,      0.01965237,      0.10099144,
               -0.01522854,     -0.01962528,      0.00387117,     -0.02504552,
                0.00271780,     -0.01249135,      0.00228906,      0.00688075,
               -0.01521626,      0.00724621,      0.00670662,      0.00297552,
                0.00617093,     -0.04126171,     -0.00209707,      0.01061271,
                0.00184205,      0.01357785,     -0.02969832,     -0.00627174,
               -0.01862683,     -0.02485065,     -0.00965892,     -0.04121042,
               -0.00054393,      0.00174368,      0.02236587,      0.02409351,
               -0.00125979,      0.04016062,      0.21160956,      0.01647792,
                0.00804078,     -0.16003522,     -0.20200063,     -0.01646946,
               -0.05089222,     -0.03024631,     -0.24337795,     -0.10637890,
                0.00141302,      0.02575463,     -0.00518726,      0.00150325,
                0.01569470,      0.00263233,      0.00826899,     -0.01192483,
                0.01066473,     -0.01100962,      0.00880349,      0.01416364,
               -0.01674668,     -0.04409004,      0.00430788,      0.00167483,
               -0.02061018,     -0.01909352,     -0.02047997,     -0.00639491,
                0.07737631,      0.10068815,     -0.05597505,     -0.01884704,
               -0.04129330,      0.05109919,      0.02701220,     -0.12892209,
               -0.04126893,     -0.03232870,     -0.01856078,     -0.00270454,
               -0.02538526,     -0.03263377,     -0.07552814,      0.05231789,
                0.02958337,     -0.02642279,     -0.03200289,     -0.03020691,
               -0.01357578,      0.00379344,      0.00969251,      0.00631052,
                0.02772790,      0.01723173,      0.03737383,     -0.01605752,
                0.02316616,      0.02287867,      0.04023971,     -0.04806783,
                0.08330328,     -0.13021655,      0.03497510,     -0.11837518,
                0.02984054,      0.06010178,     -0.00769382,      0.06677034,
                0.04775800,      0.06240372,     -0.03489901,      0.01079765,
                0.02409246,      0.09219129,      0.03525223,     -0.02086808,
                0.04568518,     -0.06680225,     -0.00541246,     -0.00120449,
               -0.02067947,     -0.01536783,     -0.01115875,     -0.00311672,
               -0.00125286,     -0.00197319,     -0.01851689,     -0.01686131,
               -0.08910674,     -0.03975845,     -0.14704719,     -0.13132130,
               -0.05835425,     -0.04294693,      0.10665866,      0.01195238,
               -0.16623060,     -0.09981667,      0.27192158,     -0.10261461,
                0.37212810,     -0.02346020,      0.30441424,     -0.37226036,
               -0.10941964,      0.06137146,     -0.15156883,     -0.23986572,
               -0.04042635,     -0.08604785,     -0.07085565,     -0.08940800,
                0.00005366,     -0.05695071,      0.06039343,      0.07107987,
               -0.05792586,      0.07218862,     -0.01616998,      0.04790774,
                0.01043927,      0.03672586,     -0.01254229,     -0.03371308,
               -0.02068228,     -0.06705122,      0.02334316,     -0.07982173,
               -0.00959943,      0.01077095,     -0.04114312,     -0.04582264,
               -0.02018677,      0.03404887,      0.03592969,     -0.00941466,
               -0.02102456,      0.00567873,     -0.01673866,     -0.04111212,
               -0.02582122,     -0.04791585,     -0.05963260,     -0.05464384,
               -0.01398653,     -0.02212670,     -0.04417564,     -0.03707404,
               -0.06507325,      0.04183437,     -0.04701613,     -0.06432117,
               -0.01117334,     -0.02253686,     -0.07778852,      0.00243727,
                0.03177463,     -0.10145336,     -0.03697561,      0.01443173,
               -0.03095015,     -0.11278702,      0.01651298,     -0.03315246,
               -0.03756339,     -0.06184471,     -0.03770340,     -0.04420783,
                0.00971968,      0.01024843,      0.03828271,      0.06353974,
                0.12488374,      0.03504625,      0.04451616,      0.09956004,
                0.05880253,      0.06211099,      0.04262093,      0.05022842,
               -0.08897918,     -0.05555563,      0.00804651,      0.08529059,
               -0.05701632,     -0.08067025,     -0.02621186,     -0.02539210,
               -0.07061924,      0.01640067,     -0.03061279,     -0.07628045,
               -0.12858425,      0.04174360,      0.03309506,     -0.07301119,
               -0.03578737,     -0.04210366,      0.00160412,     -0.00152526,
                0.01625128,     -0.00080674,     -0.01130352,     -0.01613086,
               -0.00216059,      0.01075443,     -0.01029383,     -0.00144245,
               -0.02338355,      0.03696920,     -0.09422170,     -0.02602498,
                0.02025291,      0.00221685,      0.02079700,     -0.08941652,
               -0.02553417,     -0.09926186,      0.00113998,      0.01738050,
               -0.04726527,     -0.03076500,     -0.03350018,      0.05122269,
               -0.01493923,      0.00635742,     -0.00348705,     -0.00567479,
               -0.04717295,     -0.03283691,      0.00180602,      0.05425340,
                0.02063643,      0.01770130,      0.04780199,     -0.08862760,
               -0.02254917,     -0.05230996,     -0.01784681,     -0.03342336,
               -0.01861280,     -0.04835416,     -0.01930494,     -0.01817036,
               -0.00311908,     -0.02076638,     -0.04267650,     -0.02243159,
               -0.13317242,     -0.03068658,     -0.09899882,     -0.11701599,
               -0.02639072,     -0.14503282,     -0.13488227,     -0.01798124,
               -0.06330643,     -0.03876634,      0.04593683,      0.01317528,
               -0.06842379,     -0.10984368,      0.01916555,     -0.03500694,
                0.03002142,      0.09652077,     -0.10043574,      0.04135000,
               -0.07267943,     -0.02277558,     -0.09079082,     -0.12804839,
               -0.04107974,     -0.09137182,     -0.15319814,     -0.10071533,
               -0.06965078,     -0.11873601,     -0.07179826,     -0.03051121,
               -0.08994922,     -0.06044834,      0.04651630,     -0.04658835,
                0.02636826,     -0.05894364,     -0.05052256,     -0.00347044,
                0.01144140,     -0.00313099,     -0.00347721,      0.06161804,
                0.04867368,      0.04824665,      0.05187757,      0.17656285,
                0.08823735,      0.12905239,     -0.10366015,      0.07773966,
               -0.18903330,     -0.07327832,      0.17962913,     -0.01661235,
                0.07066504,     -0.38386860,      0.13887356,     -0.11583873,
               -0.06839133,     -0.03700444,     -0.04149256,     -0.04998443,
               -0.01712666,     -0.04268052,     -0.04583958,      0.04409056,
               -0.03372680,     -0.05784997,     -0.06793577,      0.05720869,
               -0.34349465,     -0.14409928,     -0.10213910,      0.22420718,
               -0.11759033,      0.18565035,     -0.10765197,      0.00292143,
               -0.04875819,     -0.17382152,      0.03930059,     -0.16832672,
                0.10384959,     -0.16016133,     -0.04642140,      0.18819422,
               -0.10576236,      0.14419062,      0.08080781,      0.01033680,
               -0.18667585,     -0.19776052,      0.01468974,      0.01533128,
                0.05466395,      0.07688420,     -0.18278137,     -0.03637966,
                0.03261411,      0.02866052,     -0.11759542,     -0.18785082,
                0.03112633,      0.07021862,      0.09588464,      0.06508893,
               -0.05657805,     -0.12916327,      0.09345399,      0.00955074,
               -0.06880275,     -0.04436083,     -0.13568869,      0.19951315,
               -0.00308678,      0.01690413,     -0.09424883,      0.06250275,
               -0.05850450,      0.04787809,      0.10949969,     -0.01862125,
               -0.04881762,      0.06018270,      0.05313861,     -0.03497665,
               -0.04201867,     -0.02527138,     -0.04455473,     -0.04059872,
               -0.08706541,     -0.11053669,     -0.06193111,      0.01273529,
                0.00129667,      0.05670432,     -0.08914255,     -0.01612570,
                0.00073123,     -0.01406695,     -0.07319799,     -0.06101197,
               -0.01532028,     -0.02013436,     -0.00417968,     -0.00896391,
               -0.06960256,     -0.04430389,     -0.05364144,     -0.01885496,
               -0.03229158,     -0.02166832,     -0.00706952,     -0.02106396,
                0.01032864,     -0.04639705,     -0.00303427,     -0.01903686,
               -0.00537329,     -0.00904615,     -0.06378860,     -0.09747833,
               -0.06006581,      0.04375969,      0.01108324,     -0.03585424,
               -0.04284966,     -0.06891615,     -0.00888250,     -0.00542843,
                0.01514590,      0.00679198,      0.00971000,      0.02165956,
                0.04847089,     -0.00712407,      0.01010959,      0.01749398,
                0.02383002,      0.02803534,      0.04493345,      0.07566742,
               -0.05100507,      0.00662664,      0.02541769,     -0.02305083,
                0.03034228,     -0.03530766,     -0.02436162,      0.02215784,
               -0.03636787,     -0.07481517,     -0.02056067,      0.01012166,
               -0.01345930,     -0.07390294,     -0.01555012,     -0.05678908,
               -0.04469853,      0.00536685,     -0.04312301,     -0.04318441,
               -0.01924467,     -0.10551510,     -0.04418367,      0.00421981,
               -0.07739880,     -0.01186116,     -0.07645982,     -0.00085650,
               -0.08763063,     -0.11726176,     -0.11094528,     -0.04671792,
               -0.07549398,     -0.13147835,     -0.06528729,     -0.10991826,
               -0.10218821,      0.11143095,     -0.18585080,     -0.08997094,
               -0.23555395,      0.16464813,      0.07940479,     -0.26551723,
               -0.01732598,     -0.11073612,      0.28709072,      0.19160463,
               -0.20312262,     -0.13285956,      0.01479588,      0.22317466,
               -0.14240050,     -0.11160225,     -0.11837617,     -0.46426693,
                0.11621829,      0.05688031,     -0.19274665,     -0.18447292,
               -0.10505276,      0.07872555,     -0.08579353,      0.08588485,
               -0.28797272,     -0.25249863,     -0.01759484,     -0.04682068,
               -0.04738609,     -0.05491802,      0.02286807,     -0.00766513,
                0.06198044,      0.03877210,     -0.03617229,      0.01735798,
               -0.02767174,     -0.00261496,     -0.01159322,     -0.08865745,
               -0.12737027,     -0.10108006,     -0.09372390,      0.12988664,
               -0.17556307,     -0.06595054,     -0.00348295,     -0.01971744,
               -0.00469117,     -0.02786576,      0.00068283,     -0.00211845,
                0.01648613,      0.01286111,     -0.01348387,      0.02484910,
               -0.01765722,     -0.02896386,     -0.01808334,     -0.07671607,
                0.01372089,     -0.04413062,     -0.00019916,     -0.02505961,
               -0.10130940,     -0.03917489,     -0.00855797,     -0.00076845,
               -0.00901097,     -0.01917128,     -0.01535304,      0.00034247,
               -0.00544085,     -0.01432256,     -0.01239197,     -0.01466085,
               -0.15749694,     -0.00845912,     -0.06365868,      0.01381505,
               -0.08797012,     -0.12331460,     -0.05537951,      0.13345928,
               -0.09345210,      0.04677225,     -0.01828367,     -0.01516046,
                0.01066936,      0.00482315,      0.01613412,     -0.00753410,
                0.02259313,      0.01127621,      0.00310780,      0.00677371
};


// Bias for Squeeze Excitation1 layer has dimension of torch.Size([10])
extern float MBConv6_5_squeeze_excitation1_conv2d_bias [10] =  
{
-0.00274654, -0.00696279,  0.00482483,  0.00679519, -0.00271525,
           -0.00620034,  0.00313013,  0.00031302,  0.00391572,  0.00261150
};


// Bias for Squeeze Excitation2 layer has dimension of  torch.Size([240])
extern float MBConv6_5_squeeze_excitation2_conv2d_bias [240] =  
{
0.25539732,     -0.10055462,     -0.11490632,      0.17183785,
               -0.20273769,     -0.04421258,      0.10958572,      0.00580096,
                0.06997836,     -0.18725736,      0.06685193,      0.02274848,
                0.02979764,      0.22794348,     -0.06378567,      0.12632474,
               -0.16457392,      0.01610266,      0.12467635,      0.15552147,
               -0.11200762,     -0.09561329,      0.27488577,     -0.06652579,
               -0.11367960,      0.30166829,     -0.40329877,      0.26251426,
               -0.35651061,      0.11834376,     -0.15354589,     -0.14428240,
               -0.20204037,     -0.12896159,     -0.05258809,      0.25963017,
                0.10774709,     -0.13515188,     -0.13853134,      0.11068995,
                0.07001435,      0.20517437,     -0.10883407,      0.11402909,
                0.14172132,      0.00029240,      0.02495305,      0.21295670,
               -0.17606789,     -0.08629147,      0.21166590,     -0.13635540,
               -0.06656849,     -0.18999226,     -0.07940541,      0.32155588,
                0.27943966,      0.16511990,     -0.14149858,      0.02960431,
               -0.09226202,     -0.14743078,     -0.08901776,      0.17796382,
               -0.18493564,     -0.12869045,     -0.07973797,     -0.52638203,
                0.00819898,      0.32810891,      0.15248030,      0.22768819,
               -0.18098459,     -0.06047715,     -0.01523822,     -0.11167468,
               -0.15123723,     -0.24662183,     -0.13604735,      0.22548556,
                0.30451241,      0.06423286,     -0.09830891,     -0.07912033,
                0.04470107,      0.02608200,     -0.00969353,      0.21018384,
               -0.06087351,     -0.06789269,     -0.44587666,      0.22895794,
                0.23843811,     -0.08837881,     -0.10775964,     -0.01088560,
               -0.09787123,     -0.11676246,     -0.06430665,      0.04793093,
                0.15179147,      0.17123945,      0.02435506,      0.19265032,
               -0.16843726,     -0.09272401,     -0.02549212,     -0.17173164,
                0.13298900,     -0.07613281,     -0.10737002,      0.51034480,
               -0.23575020,      0.32344982,     -0.14335530,     -0.11436405,
                0.23543394,     -0.01316662,      0.14984401,     -0.10837198,
               -0.08691927,     -0.13083231,     -0.14494409,      0.31821305,
                0.24340285,     -0.23562481,     -0.01697117,     -0.09416926,
                0.12842651,      0.05503656,      0.00017866,     -0.19244875,
               -0.20649461,     -0.05042473,     -0.10246038,      0.06485327,
               -0.12538040,      0.27606788,      0.19822221,     -0.04929527,
               -0.12051629,     -0.01020829,      0.04338889,     -0.13164255,
                0.27751964,      0.22663444,     -0.12930918,     -0.06849909,
               -0.08885288,     -0.12582205,      0.28110388,      0.24068801,
               -0.04667375,      0.11518242,     -0.29406413,     -0.31801507,
               -0.13694857,     -0.10624470,      0.17298588,     -0.11029045,
               -0.08174512,     -0.06406183,     -0.11072553,      0.08316039,
                0.20734245,      0.10979184,     -0.08090235,     -0.04440105,
               -0.10559353,      0.08842639,     -0.15282373,      0.17455333,
               -0.12479462,     -0.26665297,     -0.03517962,     -0.07833695,
               -0.07361220,      0.10639858,     -0.10065817,      0.28036267,
                0.02632026,     -0.30861390,     -0.00168227,     -0.15349293,
               -0.22158293,     -0.34733811,     -0.14989956,     -0.10155698,
               -0.20096673,     -0.14426775,     -0.09707078,      0.02252520,
                0.17337412,     -0.31855568,     -0.08507328,     -0.04188830,
               -0.23580076,      0.16650997,     -0.10152373,     -0.07728253,
               -0.10966443,      0.17170662,     -0.12190240,     -0.05131455,
               -0.02295119,      0.02187810,      0.07449347,      0.06891303,
                0.17015596,     -0.19757783,      0.22111604,     -0.10688211,
                0.03384751,     -0.15466455,      0.20294622,     -0.12696061,
               -0.15570197,     -0.29047680,     -0.11105875,     -0.12908109,
               -0.08822571,     -0.10877398,      0.19837992,      0.09651708,
