
// weight for Depthwise layer has dimension of torch.Size([240, 1, 3, 3])
float MBConv6_5_depthwise_conv_conv2d_weights  [240 * 1 * 3 * 3]  =
{
     -0.15202399,     -0.21442126,     -0.11044770 ,
               -0.21521859,     -0.28661290,     -0.14788663 ,
               -0.10238294,     -0.14064351,     -0.06366422   ,


                0.21302705,      0.27576584,      0.12504262 ,
                0.29713413,      0.36445796,      0.16422677 ,
                0.13623229,      0.17773125,      0.07779363   ,


                0.18227297,      0.25232977,      0.12564714 ,
                0.24758101,      0.30737567,      0.15240668 ,
                0.12030078,      0.15640445,      0.07620098   ,


               -0.05984206,     -0.50146949,     -0.40536180 ,
                0.43708169,      0.02312429,     -0.27931589 ,
                0.42082691,      0.34253049,      0.01571401   ,


                0.23850551,      0.29399067,      0.12489709 ,
                0.30851352,      0.36176616,      0.14055748 ,
                0.14219594,      0.15164886,      0.05410221   ,


                0.20893399,      0.30034292,      0.14487283 ,
                0.31071809,      0.49244216,      0.20392795 ,
                0.14776435,      0.21022795,      0.09919036   ,


               -0.42784885,     -0.39664125,     -0.09584449 ,
               -0.01037060,      0.28104475,      0.24990025 ,
                0.12566523,      0.37065616,      0.20855129   ,


               -0.16639693,     -0.21745585,     -0.11298894 ,
               -0.23787721,     -0.33707142,     -0.18250611 ,
               -0.12973104,     -0.17657365,     -0.10679703   ,


               -0.13885316,     -0.18713911,     -0.09286253 ,
               -0.17964785,     -0.23545320,     -0.11301737 ,
               -0.08988503,     -0.11759721,     -0.04497764   ,


                0.20557152,     -0.11790578,     -0.11914804 ,
                0.25723866,     -0.16691457,     -0.16862880 ,
                0.18018378,     -0.11368492,     -0.09954256   ,


               -0.09230452,     -0.14934473,     -0.07252515 ,
               -0.15011328,     -0.22274800,     -0.11225270 ,
               -0.09070815,     -0.13148445,     -0.05372801   ,


               -0.20580509,     -0.33967268,     -0.08659037 ,
                0.07869772,      0.08151047,      0.01979665 ,
                0.22448270,      0.32847452,      0.10626834   ,


                0.16156477,      0.18911812,      0.07411823 ,
                0.20961286,      0.26016322,      0.11198747 ,
                0.12217967,      0.15957792,      0.06369429   ,


               -0.15346172,     -0.18471292,     -0.11015577 ,
               -0.19685379,     -0.21372943,     -0.15496553 ,
               -0.10270192,     -0.14566977,     -0.08974200   ,


                0.19113959,      0.25696352,      0.10862383 ,
                0.26113889,      0.33440712,      0.15507172 ,
                0.11503502,      0.14936979,      0.06819928   ,


               -0.14734951,     -0.20730284,     -0.07043920 ,
               -0.21064219,     -0.28160831,     -0.12081303 ,
               -0.08641448,     -0.12489147,     -0.05807917   ,


                0.16640154,      0.26615962,      0.13440445 ,
                0.26223999,      0.40610835,      0.19007033 ,
                0.13941956,      0.20835492,      0.11182822   ,


               -0.09943696,      0.28389311,     -0.19895603 ,
               -0.22678325,      0.45493200,     -0.16220371 ,
               -0.17400520,      0.20984982,     -0.05136910   ,


               -0.14477438,      0.31777930,      0.42658463 ,
               -0.56927752,      0.07198803,      0.40184274 ,
               -0.38476369,     -0.12598304,      0.08998898   ,


               -0.16115747,     -0.20533961,     -0.11813215 ,
               -0.21770968,     -0.30026382,     -0.14449820 ,
               -0.11609057,     -0.13533404,     -0.07275894   ,


                0.19941027,      0.23254396,      0.10100082 ,
                0.24970025,      0.28790560,      0.12071066 ,
                0.10948713,      0.12872478,      0.04495908   ,


                0.13660491,      0.21596445,      0.09680057 ,
                0.22796261,      0.39498571,      0.17602384 ,
                0.12577614,      0.20730448,      0.09427841   ,


               -0.13185187,     -0.20126532,     -0.08596634 ,
               -0.19780931,     -0.31106508,     -0.16733436 ,
               -0.09040599,     -0.16286437,     -0.09024024   ,


                0.23225139,      0.26782405,      0.13299586 ,
               -0.09109151,     -0.18194564,     -0.11121218 ,
               -0.13249943,     -0.22521541,     -0.10974181   ,


                0.24378896,      0.32011721,      0.14348248 ,
                0.33004114,      0.42319706,      0.19318482 ,
                0.14686537,      0.19574808,      0.08517101   ,


               -0.15086070,     -0.32665211,     -0.15633044 ,
               -0.30890638,     -0.35548484,     -0.06554726 ,
               -0.17342420,     -0.07890233,      0.12627268   ,


               -0.21315007,     -0.36983746,     -0.22252642 ,
                0.14173172,      0.09788634,      0.05287164 ,
                0.18411431,      0.18958117,      0.11507452   ,


               -0.18436444,     -0.25785041,     -0.09501790 ,
               -0.26204434,     -0.35069284,     -0.11980078 ,
               -0.12458311,     -0.16582696,     -0.02583191   ,


                0.25568664,      0.33856606,      0.14832282 ,
                0.34389094,      0.47788551,      0.19101423 ,
                0.15768829,      0.20583069,      0.09735088   ,


               -0.13363865,     -0.18383135,     -0.10215347 ,
               -0.19336146,     -0.22037287,     -0.14737284 ,
               -0.10291852,     -0.14339375,     -0.06950324   ,


                0.19378141,      0.26228628,      0.13145104 ,
                0.25103498,      0.31822684,      0.15294640 ,
                0.11674846,      0.15382287,      0.06484284   ,


                0.17314282,      0.22531745,      0.10230756 ,
                0.25079137,      0.35468596,      0.16371240 ,
                0.12615083,      0.17968921,      0.07892321   ,


                0.19507456,      0.27990061,      0.13120699 ,
                0.33879489,      0.50418276,      0.23800048 ,
                0.15947457,      0.24100366,      0.14256008   ,


                0.17347953,      0.22387165,      0.10563700 ,
                0.24543293,      0.33366472,      0.16304655 ,
                0.12578443,      0.18341191,      0.09129734   ,


                0.20609088,      0.26483721,      0.10430469 ,
                0.26142928,      0.33733484,      0.13593188 ,
                0.13078339,      0.14952281,      0.05622416   ,


               -0.15322086,     -0.22327532,     -0.09518507 ,
               -0.22647437,     -0.30313525,     -0.14099260 ,
               -0.13168728,     -0.18457003,     -0.07264028   ,


               -0.12274129,     -0.16816895,     -0.09113546 ,
               -0.16437304,     -0.23736349,     -0.13471867 ,
               -0.10042638,     -0.14768864,     -0.06354135   ,


                0.24026564,      0.26774985,      0.12626246 ,
                0.26845270,      0.30267614,      0.15066032 ,
                0.12622713,      0.14788011,      0.07218662   ,


                0.23443373,      0.32042295,      0.12715083 ,
                0.27693596,      0.38823700,      0.16520870 ,
                0.09867877,      0.15175654,      0.07076389   ,


               -0.11220008,     -0.19210488,     -0.09621608 ,
               -0.18550561,     -0.36034104,     -0.16501692 ,
               -0.08686893,     -0.17465644,     -0.09691263   ,


               -0.13663471,     -0.18186733,     -0.08377878 ,
               -0.17147627,     -0.20764720,     -0.12609458 ,
               -0.08976328,     -0.13110709,     -0.05954801   ,


                0.15413952,      0.20519841,      0.11577997 ,
                0.18027905,      0.24393532,      0.15271589 ,
                0.09797952,      0.13781650,      0.09048868   ,


                0.18288621,      0.27475837,      0.12534411 ,
                0.28248876,      0.45159698,      0.19116768 ,
                0.11285909,      0.16538112,      0.08630372   ,


               -0.19025999,     -0.27550438,     -0.10331406 ,
               -0.25741053,     -0.30973595,     -0.14450645 ,
               -0.10210594,     -0.13764079,     -0.03780713   ,


               -0.13627245,     -0.18062484,     -0.08571775 ,
               -0.17500669,     -0.19764365,     -0.13401945 ,
               -0.09011433,     -0.14775670,     -0.05926603   ,


               -0.18016565,      0.06890873,      0.28245652 ,
               -0.22576375,     -0.10845784,      0.35752574 ,
               -0.09687035,     -0.10635857,      0.12798831   ,


               -0.16992670,     -0.11465114,      0.00804921 ,
               -0.16977383,     -0.24609692,     -0.12471360 ,
                0.00518649,     -0.10871439,     -0.09489398   ,


               -0.22424534,     -0.21025783,     -0.07470807 ,
               -0.21133135,     -0.31058514,     -0.22221456 ,
               -0.05052565,     -0.19024281,     -0.12370992   ,


                0.21925074,      0.26119629,      0.12327239 ,
                0.26684275,      0.29412353,      0.12404767 ,
                0.13405216,      0.15770106,      0.07037516   ,


                0.18406647,      0.22584532,      0.09577062 ,
                0.24375029,      0.29789239,      0.12232777 ,
                0.11149321,      0.13994429,      0.04811172   ,


                0.05357188,      0.05313856,      0.05119555 ,
                0.05512483,      0.04254315,      0.04554460 ,
                0.05548067,      0.04522755,      0.03410810   ,


                0.18652014,      0.28488472,      0.14854585 ,
                0.27068487,      0.41524926,      0.18870774 ,
                0.07172491,      0.11133268,      0.04461339   ,


                0.15353765,      0.20128764,      0.10535584 ,
                0.20418884,      0.26789665,      0.13601461 ,
                0.09660354,      0.13376802,      0.06602387   ,


                0.18176676,      0.24457447,      0.11284472 ,
                0.25148910,      0.32667193,      0.14468738 ,
                0.09907304,      0.13644415,      0.05801332   ,


                0.21576940,      0.25452307,      0.12024970 ,
                0.25649914,      0.28940535,      0.13155304 ,
                0.11733592,      0.13983935,      0.05787121   ,


               -0.15366714,     -0.22465664,     -0.10628924 ,
               -0.21772006,     -0.29509330,     -0.13477071 ,
               -0.11351712,     -0.15054579,     -0.07232071   ,


               -0.14850760,     -0.18028677,     -0.11363978 ,
               -0.20614833,     -0.21263957,     -0.15238301 ,
               -0.11121576,     -0.14049079,     -0.05871609   ,


               -0.32981539,     -0.59400558,     -0.34064949 ,
                0.19554070,      0.15609786,      0.03202004 ,
                0.33875534,      0.41682926,      0.17057727   ,


                0.15412328,      0.24501514,      0.18231186 ,
               -0.16503043,     -0.11271019,     -0.02694743 ,
               -0.16245797,     -0.16710295,     -0.09302323   ,


               -0.25384271,     -0.02995264,      0.16033469 ,
                0.01537711,     -0.29620111,     -0.06208577 ,
                0.16851412,     -0.02267878,     -0.17193905   ,


                0.17590141,      0.20956460,      0.08236933 ,
                0.23185332,      0.28823566,      0.11311857 ,
                0.11177650,      0.14459217,      0.04934713   ,


                0.25742280,      0.32612389,      0.14794265 ,
                0.32791823,      0.42891660,      0.17542078 ,
                0.14962116,      0.17581873,      0.05915889   ,


                0.16861477,      0.22300068,      0.10038199 ,
                0.22571824,      0.28869998,      0.15185694 ,
                0.10854685,      0.14484724,      0.07279226   ,


               -0.18329163,     -0.23486674,     -0.11418738 ,
               -0.25014865,     -0.28728911,     -0.15354037 ,
               -0.13030270,     -0.15873520,     -0.07738984   ,


                0.27217591,      0.38199756,      0.21980131 ,
               -0.19167818,     -0.15847239,     -0.09094054 ,
               -0.19075279,     -0.25610650,     -0.12456677   ,


                0.19342910,      0.26774129,      0.09971873 ,
                0.26937866,      0.38323003,      0.15264148 ,
                0.10578786,      0.15632141,      0.06164153   ,


                0.27796352,      0.31662580,      0.14818448 ,
                0.31320572,      0.35923615,      0.16885383 ,
                0.14554867,      0.17190772,      0.06699178   ,


                0.21285772,      0.27551344,      0.10887135 ,
                0.26196364,      0.36853644,      0.18040144 ,
                0.09751596,      0.15061760,      0.10706207   ,


                0.29599708,      0.41901493,      0.22806372 ,
               -0.10872634,     -0.20324364,     -0.11604220 ,
               -0.16944824,     -0.20842911,     -0.10889824   ,


               -0.18017946,     -0.25569579,     -0.13328558 ,
               -0.23435874,     -0.35257319,     -0.16969573 ,
               -0.12305100,     -0.15769577,     -0.04767404   ,


                0.32661408,      0.20605704,     -0.11141718 ,
                0.27519843,     -0.10170590,     -0.30259049 ,
                0.03523377,     -0.22765800,     -0.14032657   ,


               -0.18516590,     -0.24656032,     -0.12991884 ,
               -0.26535782,     -0.36184967,     -0.18157625 ,
               -0.13098131,     -0.18117094,     -0.09955447   ,


               -0.20252450,      0.11813746,      0.14273886 ,
               -0.31793469,      0.14596742,      0.16254941 ,
               -0.19522949,      0.06310388,      0.09665193   ,


                0.47900400,     -0.21265072,     -0.30882183 ,
               -0.03410599,     -0.22721769,      0.16990669 ,
               -0.23963185,      0.06360675,      0.37136781   ,


               -0.27556658,      0.07584226,      0.12372542 ,
               -0.36065176,      0.15642847,      0.17012879 ,
               -0.19242959,      0.08565079,      0.10617223   ,


                0.16824427,      0.22776695,      0.09076422 ,
                0.26234713,      0.37978038,      0.14426200 ,
                0.12584002,      0.16972993,      0.06483793   ,


                0.15303163,      0.21509895,      0.09967497 ,
                0.23048024,      0.31254250,      0.14016907 ,
                0.11349718,      0.15314849,      0.07482238   ,


                0.23226495,      0.30183733,      0.13649864 ,
                0.31310609,      0.40563381,      0.17532487 ,
                0.15282243,      0.18652566,      0.08790444   ,


                0.18763877,      0.26518255,      0.11225481 ,
                0.27230620,      0.41585001,      0.16792034 ,
                0.13207516,      0.20897162,      0.07949340   ,


               -0.15288530,     -0.21859147,     -0.08371042 ,
               -0.22286658,     -0.30337337,     -0.13131467 ,
               -0.08961240,     -0.14940339,     -0.05629975   ,


               -0.16485763,     -0.22907130,     -0.11577449 ,
               -0.23530015,     -0.30836654,     -0.17244866 ,
               -0.11840976,     -0.16980311,     -0.07376379   ,


               -0.14035620,     -0.18923354,     -0.08373915 ,
               -0.20207010,     -0.27591735,     -0.13427730 ,
               -0.09260978,     -0.13910192,     -0.05345569   ,


                0.18395400,      0.26896149,      0.13385285 ,
                0.28313607,      0.41248927,      0.19731244 ,
                0.14939073,      0.20479053,      0.08955834   ,


                0.27694699,      0.29892442,      0.12607552 ,
                0.05823693,     -0.02125557,     -0.08182062 ,
               -0.15785089,     -0.32281965,     -0.20727623   ,


               -0.22133070,      0.14770433,      0.11693355 ,
               -0.29960114,      0.14743859,      0.13781801 ,
               -0.14334688,      0.07362451,      0.08127046   ,


               -0.31236067,      0.10613421,      0.18334687 ,
               -0.39136660,      0.08714834,      0.24457982 ,
               -0.22701676,      0.05499868,      0.16002993   ,


                0.17430408,      0.22779500,      0.10958590 ,
                0.02164906,      0.06445206,      0.07079781 ,
               -0.24629927,     -0.31877312,     -0.12417539   ,


               -0.14960907,     -0.20164697,     -0.09664985 ,
               -0.19602908,     -0.25488594,     -0.12979506 ,
               -0.09433921,     -0.14729416,     -0.07155960   ,


                0.16673699,      0.21490760,      0.10721459 ,
                0.23095934,      0.30205941,      0.13927917 ,
                0.12419739,      0.15802801,      0.06728122   ,


               -0.15269624,     -0.23204750,     -0.11493021 ,
               -0.25544110,     -0.40433004,     -0.18580087 ,
               -0.14592424,     -0.19768569,     -0.10679723   ,


                0.17271268,      0.25491965,      0.14922835 ,
                0.30154860,      0.41226947,      0.17831096 ,
                0.14542983,      0.15335624,      0.01572645   ,


               -0.12983549,     -0.17956407,     -0.09648494 ,
               -0.18405484,     -0.28710037,     -0.14927152 ,
               -0.09892666,     -0.16626003,     -0.08803148   ,


               -0.15826316,     -0.21175396,     -0.08252782 ,
               -0.25478598,     -0.36850008,     -0.13745064 ,
               -0.10095375,     -0.15203476,     -0.07856128   ,


                0.21132588,      0.28054664,      0.12654412 ,
                0.28676179,      0.36410037,      0.16472811 ,
                0.13167332,      0.16261177,      0.07717561   ,


               -0.07837574,     -0.10089185,     -0.00895006 ,
                0.16607019,      0.24024257,      0.13056912 ,
                0.20900992,      0.28327402,      0.16563341   ,


                0.16626096,      0.23123035,      0.09827782 ,
                0.28829592,      0.37384400,      0.14636904 ,
                0.14709441,      0.18356499,      0.06824502   ,


                0.19239095,      0.24954544,      0.12084167 ,
                0.26546797,      0.33223760,      0.15761334 ,
                0.12859482,      0.16176753,      0.06717422   ,


                0.16852430,      0.20626959,      0.07681648 ,
                0.21367380,      0.26816019,      0.12843102 ,
                0.11228281,      0.15101501,      0.06806840   ,


                0.18505371,      0.24797070,      0.09997898 ,
                0.27037746,      0.34110695,      0.11733712 ,
                0.12211675,      0.14550784,      0.05270402   ,


               -0.05575192,     -0.24499846,      0.30497295 ,
                0.15731019,     -0.46953154,     -0.09333240 ,
                0.20678578,     -0.05010048,     -0.15008533   ,


               -0.16463515,     -0.25383785,     -0.10960807 ,
               -0.25359881,     -0.36814201,     -0.16211769 ,
               -0.10336478,     -0.16260678,     -0.06249229   ,


               -0.12657554,     -0.16643752,     -0.15557991 ,
               -0.16220009,     -0.23178770,     -0.16780528 ,
               -0.07215587,     -0.08342345,     -0.06989407   ,


                0.19065930,      0.35639504,      0.23090713 ,
               -0.27083737,     -0.29733953,     -0.10341411 ,
               -0.06451184,     -0.08171757,     -0.06620774   ,


               -0.17391853,     -0.24228887,     -0.12622806 ,
               -0.28409842,     -0.41764459,     -0.20340529 ,
               -0.13772288,     -0.19305691,     -0.10311197   ,


                0.18676633,      0.22371060,      0.10693473 ,
                0.20618808,      0.25728378,      0.12912369 ,
                0.10946060,      0.14113605,      0.05759516   ,


                0.08766012,      0.21661648,      0.13832368 ,
                0.19463718,      0.33875379,      0.13776281 ,
                0.12282962,      0.12848452,     -0.05095058   ,


                0.15649338,      0.20867079,      0.11594645 ,
                0.21915637,      0.28772610,      0.17268473 ,
                0.11796275,      0.15473275,      0.09257115   ,


                0.19202627,      0.26853999,      0.13008638 ,
                0.28308597,      0.39421198,      0.16839187 ,
                0.13919404,      0.18686073,      0.08991601   ,


               -0.12767424,     -0.18080777,     -0.12353845 ,
               -0.15059195,     -0.18751742,     -0.14730209 ,
               -0.07697269,     -0.14070144,     -0.05254815   ,


                0.19289909,      0.24848498,      0.10845783 ,
                0.27766460,      0.33959976,      0.14398298 ,
                0.12332731,      0.15633969,      0.07621151   ,


                0.14007911,      0.20741268,      0.09914155 ,
                0.22774313,      0.30694187,      0.16711988 ,
                0.12817931,      0.15721177,      0.08951871   ,


               -0.18435012,     -0.23248340,     -0.11074002 ,
               -0.24821909,     -0.29435751,     -0.17217974 ,
               -0.12943338,     -0.17277339,     -0.07267824   ,


               -0.21526261,     -0.38299805,     -0.17227918 ,
                0.13191369,      0.10773809,      0.04142903 ,
                0.18981165,      0.22921251,      0.10216425   ,


               -0.16186650,     -0.21365511,     -0.09967313 ,
               -0.22051942,     -0.27397865,     -0.13885741 ,
               -0.11197882,     -0.14753614,     -0.06117111   ,


                0.18697710,      0.25498018,      0.12858188 ,
                0.28395995,      0.38558558,      0.18628991 ,
                0.14429289,      0.20808540,      0.10484882   ,


                0.22479384,      0.29104704,      0.13335060 ,
                0.30659983,      0.36711869,      0.14234544 ,
                0.13933657,      0.15482406,      0.05760978   ,


               -0.15731256,     -0.17931871,     -0.10567787 ,
               -0.19555321,     -0.17921901,     -0.14801200 ,
               -0.10239104,     -0.10818796,     -0.06105752   ,


               -0.17044710,     -0.21141931,     -0.09560982 ,
               -0.21161298,     -0.25026053,     -0.12988946 ,
               -0.09923104,     -0.13097602,     -0.05670769   ,


               -0.18156509,     -0.22270679,     -0.09094117 ,
               -0.21603946,     -0.29379842,     -0.13302574 ,
               -0.09604581,     -0.12917082,     -0.03259614   ,


                0.16542092,      0.21742915,      0.08605120 ,
                0.22146012,      0.28025728,      0.11495899 ,
                0.10577434,      0.13690922,      0.05399127   ,


                0.13037518,      0.21066038,      0.09684368 ,
                0.19991463,      0.32142100,      0.14855033 ,
                0.09124146,      0.15249120,      0.07141828   ,


                0.19014025,      0.26377645,      0.11355867 ,
                0.29280752,      0.45318559,      0.18910864 ,
                0.13369203,      0.19372925,      0.07714442   ,


                0.20463821,      0.23662852,      0.09768578 ,
                0.24711560,      0.28407881,      0.11216103 ,
                0.11906804,      0.13195617,      0.04706369   ,


               -0.19030112,     -0.22704400,     -0.09924159 ,
               -0.23112465,     -0.26979688,     -0.14164804 ,
               -0.11216938,     -0.15105504,     -0.06123678   ,


               -0.15750791,     -0.18700227,     -0.09842318 ,
               -0.18517686,     -0.20612860,     -0.12769987 ,
               -0.09397890,     -0.13917027,     -0.03176784   ,


                0.19413137,      0.26036417,      0.11332708 ,
                0.25414771,      0.33191785,      0.14914544 ,
                0.11234965,      0.15058233,      0.05803444   ,


                0.10776614,     -0.22428949,      0.10562553 ,
                0.17087133,     -0.38847041,      0.14537533 ,
                0.06866276,     -0.17751949,      0.07524974   ,


                0.19109876,      0.25089726,      0.11140037 ,
                0.25093487,      0.33218563,      0.14761388 ,
                0.12274748,      0.15033630,      0.06971028   ,


               -0.11672261,     -0.14540815,     -0.08269705 ,
               -0.15679918,     -0.19252081,     -0.13691463 ,
               -0.08053823,     -0.12240461,     -0.06192793   ,


                0.15556389,      0.17049769,      0.12333521 ,
               -0.21088237,     -0.31911317,     -0.18788479 ,
                0.00870106,      0.02413167,      0.00380277   ,


               -0.13926174,     -0.18093389,     -0.09362217 ,
               -0.18324097,     -0.20711127,     -0.14836593 ,
               -0.09657589,     -0.13977964,     -0.06527655   ,


                0.25303569,      0.13874269,      0.00407045 ,
                0.14660589,     -0.16013081,     -0.20018804 ,
               -0.00202861,     -0.21266273,     -0.14808176   ,


                0.21919093,      0.30210108,      0.14725704 ,
                0.32112420,      0.43154323,      0.19608520 ,
                0.16933851,      0.20937333,      0.11021329   ,


               -0.07451902,     -0.12530939,     -0.10872915 ,
                0.24562445,      0.38820028,      0.16480678 ,
               -0.22187546,     -0.20119211,     -0.07265514   ,


                0.19392076,      0.24319135,      0.11282150 ,
                0.24550135,      0.30062252,      0.14139126 ,
                0.11544731,      0.14471848,      0.07681460   ,


               -0.11890350,     -0.16446343,     -0.07393435 ,
               -0.18032458,     -0.21787663,     -0.11202361 ,
               -0.10373308,     -0.14984357,     -0.06747395   ,


                0.16030779,      0.21419631,      0.09349674 ,
                0.25414672,      0.36054137,      0.13563702 ,
                0.12106408,      0.14771791,      0.05775515   ,


               -0.17276926,     -0.19481708,     -0.10869315 ,
               -0.19908693,     -0.21726865,     -0.14471480 ,
               -0.12100078,     -0.16289757,     -0.08127806   ,


               -0.11627461,     -0.15691352,     -0.08775682 ,
               -0.17281882,     -0.21435119,     -0.13278677 ,
               -0.10472934,     -0.13924186,     -0.06858220   ,


                0.10740948,      0.11662015,      0.07351559 ,
                0.12274800,      0.06387438,      0.09204643 ,
               -0.27104977,     -0.42417720,     -0.20687060   ,


                0.18620026,      0.25907037,      0.08720842 ,
                0.30012926,      0.42529759,      0.13451007 ,
                0.14725327,      0.19991070,      0.07097785   ,


                0.11543527,      0.13656783,      0.06535224 ,
                0.15836114,      0.21003816,      0.11154115 ,
                0.08114917,      0.13350788,      0.05827120   ,


               -0.12504418,     -0.15957358,     -0.08341865 ,
               -0.15296994,     -0.15431741,     -0.11450606 ,
               -0.07834911,     -0.12495159,     -0.06445702   ,


                0.20465685,     -0.26335964,     -0.16155498 ,
                0.39454421,     -0.18310104,     -0.17862833 ,
                0.24345495,     -0.07622924,     -0.10746320   ,


               -0.14408460,     -0.19023231,     -0.08042853 ,
               -0.21947652,     -0.26582429,     -0.14221719 ,
               -0.11617900,     -0.16318792,     -0.06687210   ,


               -0.18732968,     -0.24638490,     -0.10432056 ,
               -0.24827786,     -0.32603997,     -0.14653486 ,
               -0.10238997,     -0.12936476,     -0.06189513   ,


                0.18607822,      0.26061872,      0.12999864 ,
                0.25203064,      0.36728588,      0.18122157 ,
                0.10789920,      0.17257614,      0.07909985   ,


                0.20802578,      0.25935778,      0.10252824 ,
                0.27573287,      0.35280877,      0.14011540 ,
                0.13848704,      0.17473269,      0.07422218   ,


               -0.20493418,      0.15418018,      0.20838124 ,
               -0.28665984,      0.08334722,      0.16566178 ,
               -0.24382032,     -0.00873042,      0.07589063   ,


                0.19566771,      0.27854484,      0.11153293 ,
                0.28345606,      0.42029816,      0.17091866 ,
                0.12158510,      0.15769789,      0.06373253   ,


               -0.11253598,     -0.19885966,     -0.10361111 ,
               -0.20563638,     -0.36747044,     -0.19513790 ,
               -0.11771654,     -0.20724674,     -0.11313407   ,


               -0.18401383,     -0.25497597,     -0.11885861 ,
               -0.25248975,     -0.32070690,     -0.15655960 ,
               -0.11706486,     -0.16617209,     -0.07722741   ,


               -0.14213587,     -0.17913759,     -0.05669318 ,
               -0.16259541,     -0.18771541,     -0.08116755 ,
               -0.07684267,     -0.08928820,     -0.03364540   ,


               -0.12042752,     -0.15998198,     -0.08233603 ,
               -0.16933846,     -0.21580595,     -0.11525455 ,
               -0.10225339,     -0.12692133,     -0.05488171   ,


                0.17770065,     -0.13248971,     -0.16201951 ,
                0.24930295,     -0.11942565,     -0.19521104 ,
                0.19076028,     -0.07699874,     -0.14759880   ,


               -0.22880433,      0.11895681,      0.17480578 ,
               -0.32374105,      0.12016363,      0.18755870 ,
               -0.20937955,      0.07488151,      0.10432041   ,


                0.28442395,      0.15370248,     -0.04151621 ,
                0.20075226,     -0.23779957,     -0.28981319 ,
               -0.01582451,     -0.27705467,     -0.05836153   ,


                0.18130906,      0.23824699,      0.10338487 ,
                0.24125014,      0.31724158,      0.14688908 ,
                0.12025615,      0.14926371,      0.07904674   ,


               -0.14307906,     -0.22356145,     -0.09017400 ,
               -0.22243167,     -0.29974073,     -0.11910667 ,
               -0.10049412,     -0.15090553,     -0.06086921   ,


                0.20765498,      0.26165575,      0.11517484 ,
                0.29285291,      0.39449117,      0.17501138 ,
                0.08149355,      0.11370955,      0.05442720   ,


                0.17495330,      0.21001433,      0.09292214 ,
                0.19636145,      0.25342408,      0.13170072 ,
                0.09830789,      0.12283903,      0.06037342   ,


                0.18509135,      0.22994085,      0.11088520 ,
                0.23099354,      0.29838756,      0.15729345 ,
                0.12167147,      0.17575894,      0.08316454   ,


                0.16662738,      0.27208483,      0.12131535 ,
                0.26768652,      0.43897155,      0.18591219 ,
                0.11676790,      0.18007874,      0.09133430   ,


               -0.12161120,     -0.16453873,     -0.09396553 ,
               -0.16898794,     -0.23760697,     -0.16081212 ,
               -0.08097982,     -0.12497231,     -0.06745844   ,


               -0.39572856,      0.06897506,      0.38205841 ,
               -0.58641320,      0.08201408,      0.53760338 ,
               -0.31222451,      0.01637415,      0.28040597   ,


               -0.14160982,     -0.22009237,     -0.09075191 ,
               -0.23149587,     -0.38079074,     -0.17786641 ,
               -0.09538363,     -0.17814040,     -0.09314977   ,


                0.17166682,      0.22022995,      0.10623837 ,
                0.22173069,      0.29053172,      0.15768701 ,
                0.10047808,      0.13459320,      0.07814545   ,


               -0.18200992,      0.30900967,     -0.14001636 ,
               -0.25353837,      0.44463953,     -0.22232603 ,
               -0.13919248,      0.24721603,     -0.11426438   ,


                0.26776913,      0.28425342,      0.10282907 ,
                0.30477661,      0.34203157,      0.12854566 ,
                0.14019266,      0.16266592,      0.03500213   ,


               -0.17931437,     -0.34823769,     -0.16035783 ,
                0.22371012,      0.09274437,     -0.04857923 ,
                0.09988591,      0.13379684,      0.11247873   ,


                0.18982391,      0.30565992,      0.15756850 ,
                0.29082260,      0.47132775,      0.20790195 ,
                0.14126734,      0.21974309,      0.12508495   ,


               -0.11103125,     -0.17036735,     -0.08316749 ,
               -0.16395475,     -0.22514492,     -0.13129482 ,
               -0.09171752,     -0.13714544,     -0.05566817   ,


                0.19348928,      0.21289705,      0.10378734 ,
                0.23093690,      0.27293608,      0.14029644 ,
                0.12144809,      0.14693038,      0.06256185   ,


                0.23368952,      0.34434086,      0.16801502 ,
                0.32406235,      0.45159811,      0.18395862 ,
                0.14663404,      0.19346516,      0.06101229   ,


                0.28062594,      0.41661131,      0.12834699 ,
               -0.15548128,     -0.17687508,     -0.19530006 ,
               -0.14186519,     -0.14365803,     -0.10907891   ,


                0.17189756,      0.23388328,      0.09777519 ,
                0.24366149,      0.30170330,      0.15149401 ,
                0.12135839,      0.16638069,      0.07675907   ,


               -0.18112451,     -0.21480660,     -0.06558840 ,
               -0.21133332,     -0.20713170,     -0.08008523 ,
               -0.07990374,     -0.08915874,     -0.02390004   ,


               -0.14663669,     -0.18753277,     -0.10614975 ,
               -0.19236910,     -0.20412673,     -0.15137304 ,
               -0.11687633,     -0.16475703,     -0.06097323   ,


                0.22234255,      0.26868299,      0.11589825 ,
                0.25906801,      0.31635901,      0.15102758 ,
                0.11616286,      0.16374552,      0.07343366   ,


               -0.19218665,     -0.25162080,     -0.11830097 ,
               -0.24991921,     -0.33505324,     -0.15694846 ,
               -0.12199397,     -0.16921908,     -0.08053568   ,


               -0.22635448,      0.06433406,      0.09309700 ,
               -0.30616206,      0.16147608,      0.13831651 ,
               -0.17849635,      0.10887256,      0.12023116   ,


               -0.23469119,      0.13578236,      0.15903051 ,
               -0.33709854,      0.10820070,      0.18591321 ,
               -0.22678852,      0.03275729,      0.09241736   ,


                0.15140826,     -0.33857933,     -0.12212695 ,
                0.33429471,      0.10486741,     -0.13700029 ,
                0.09217704,      0.19694951,     -0.04496301   ,


                0.17413715,      0.23626247,      0.11703062 ,
                0.26302004,      0.36393708,      0.17363434 ,
                0.12267104,      0.17337033,      0.08953879   ,


                0.18859033,      0.26845616,      0.18866971 ,
               -0.15532094,     -0.13671748,     -0.06684781 ,
               -0.14668477,     -0.17522751,     -0.10352424   ,


                0.21995361,      0.32097289,      0.22005741 ,
               -0.17417592,     -0.10882168,     -0.05455193 ,
               -0.15641560,     -0.22271506,     -0.11011347   ,


                0.20724852,      0.23853654,      0.10123842 ,
                0.29551464,      0.34667635,      0.14497727 ,
                0.15025362,      0.17827554,      0.08148161   ,


                0.17954341,      0.22764131,      0.10757660 ,
                0.24343492,      0.30111444,      0.14151546 ,
                0.11602444,      0.14656067,      0.06902609   ,


                0.26207390,      0.04410800,     -0.03845884 ,
                0.21264888,     -0.18085273,     -0.22498816 ,
                0.08462425,     -0.17324302,     -0.17066513   ,


                0.15035073,      0.22700225,      0.10766330 ,
                0.22479154,      0.34095067,      0.16398831 ,
                0.12015105,      0.18004772,      0.09366868   ,


                0.13782676,      0.21224001,      0.10003281 ,
                0.20288450,      0.31255880,      0.14219090 ,
                0.08817413,      0.13915557,      0.05893460   ,


                0.17416450,      0.20235415,      0.09771617 ,
               -0.33539140,     -0.48158416,     -0.24633743 ,
                0.12060294,      0.23050179,      0.11886794   ,


               -0.12955716,     -0.22177269,     -0.08836278 ,
               -0.21682851,     -0.33991808,     -0.14552936 ,
               -0.09347820,     -0.15353130,     -0.07395864   ,


                0.18736671,      0.24475068,      0.09728666 ,
                0.25722116,      0.33860233,      0.12585182 ,
                0.11016462,      0.14020117,      0.04434834   ,


                0.18381539,      0.24036944,      0.08839477 ,
                0.27359104,      0.35646352,      0.10854323 ,
                0.11080234,      0.13874330,      0.03342419   ,


                0.15562324,      0.21437100,      0.11037987 ,
                0.18498768,      0.24459499,      0.13617200 ,
                0.09769616,      0.13484143,      0.05574168   ,


                0.33294523,      0.15271391,      0.02861315 ,
                0.14086564,     -0.22172332,     -0.23187870 ,
                0.04092982,     -0.20784895,     -0.13898721   ,


               -0.14814700,     -0.20210633,     -0.09656698 ,
               -0.20277737,     -0.27312225,     -0.15399364 ,
               -0.09574022,     -0.16413225,     -0.07799943   ,


                0.16624682,      0.23631540,      0.09766770 ,
                0.24159005,      0.34374103,      0.14131050 ,
                0.11209455,      0.15188903,      0.06982725   ,


                0.17001309,      0.22138533,      0.11911651 ,
                0.20111059,      0.26505467,      0.13250832 ,
                0.09002504,      0.11624160,      0.05825245   ,


                0.20343229,      0.20094171,      0.06664871 ,
                0.19629525,      0.26806805,      0.15552655 ,
                0.05123488,      0.14342929,      0.09959064   ,


               -0.11042642,     -0.17693809,     -0.08892071 ,
               -0.17981303,     -0.30559117,     -0.14934519 ,
               -0.08310258,     -0.13531566,     -0.07646885   ,


                0.23156555,      0.24889410,      0.11054682 ,
                0.25964156,      0.30874217,      0.13986751 ,
                0.13173902,      0.15721831,      0.07188287   ,


                0.06905682,     -0.18055287,     -0.11465535 ,
               -0.27408808,     -0.31234881,      0.06339589 ,
               -0.08818029,      0.11229370,      0.18713985   ,


                0.17953919,      0.22742037,      0.11990488 ,
                0.23533587,      0.27948618,      0.14446032 ,
                0.12950765,      0.14691409,      0.07508561   ,


                0.27769470,      0.38666031,      0.19478613 ,
               -0.08362719,     -0.08719289,     -0.05500424 ,
               -0.23024788,     -0.30435333,     -0.16148174   ,


               -0.13650569,     -0.22952735,     -0.11130089 ,
               -0.21623252,     -0.35617450,     -0.17263922 ,
               -0.07881525,     -0.15353285,     -0.10481757   ,


               -0.27911463,      0.06852209,      0.14195082 ,
               -0.33566299,      0.08726577,      0.14833286 ,
               -0.23242493,      0.06168267,      0.11269470   ,


               -0.17161535,     -0.22627719,     -0.09277301 ,
               -0.23046885,     -0.30185324,     -0.14817436 ,
               -0.11753932,     -0.16805878,     -0.06757071   ,


                0.22231786,      0.25251636,      0.01843222 ,
                0.25243938,      0.40817556,      0.13749000 ,
                0.04699919,      0.19570932,      0.08921390   ,


               -0.13653371,     -0.21617503,     -0.10745272 ,
               -0.22201437,     -0.33575529,     -0.15980181 ,
               -0.10477710,     -0.16515848,     -0.07830673   ,


                0.16403256,      0.22630337,      0.10983592 ,
                0.22807881,      0.32707700,      0.16153227 ,
                0.09702344,      0.14734736,      0.07041228   ,


               -0.13996582,     -0.21923928,     -0.08126471 ,
               -0.22917216,     -0.39497772,     -0.13613907 ,
               -0.11139900,     -0.15251110,     -0.06663660   ,


                0.20150530,      0.25530335,      0.11809424 ,
                0.26530215,      0.33142251,      0.17106901 ,
                0.13205698,      0.17717785,      0.09591851   ,


               -0.45974270,     -0.20798136,      0.03760662 ,
               -0.38678280,      0.21076787,      0.40665251 ,
               -0.03308973,      0.34688538,      0.30268383   ,


                0.22835952,      0.28975454,      0.11544252 ,
                0.30715856,      0.37765682,      0.14043747 ,
                0.13561904,      0.16067545,      0.05740158   ,


                0.19993672,      0.25489745,      0.12405651 ,
                0.26292074,      0.33058709,      0.15309703 ,
                0.13062327,      0.14450140,      0.06446237   ,


                0.15290277,      0.27352589,      0.14445210 ,
                0.25719601,      0.37967637,      0.15850917 ,
                0.12696227,      0.16372345,      0.03027719   ,


                0.18895324,      0.23366068,      0.11238900 ,
                0.24885045,      0.29747397,      0.15006298 ,
                0.13568576,      0.17267793,      0.07521643   ,


                0.20442483,      0.26679176,      0.11535079 ,
                0.26847085,      0.33943647,      0.13954753 ,
                0.11797091,      0.14251615,      0.06444612   ,


                0.18384302,      0.23785424,      0.12842810 ,
                0.26069230,      0.32050359,      0.15503983 ,
                0.13826598,      0.15401648,      0.06629675   ,


                0.15857543,      0.21796072,      0.08873267 ,
                0.24609385,      0.32585454,      0.14057052 ,
                0.11355876,      0.14810973,      0.07069305   ,


               -0.14081782,     -0.18632779,     -0.06712215 ,
               -0.18030678,     -0.22678831,     -0.10842179 ,
               -0.10427096,     -0.15348454,     -0.06212592   ,


                0.11879255,      0.15724683,      0.09002021 ,
               -0.30323812,     -0.44599774,     -0.22373733 ,
                0.16797242,      0.16456327,      0.09780004   ,


               -0.14239946,     -0.17869042,     -0.08268765 ,
               -0.19368257,     -0.21326752,     -0.12660904 ,
               -0.08829949,     -0.12692796,     -0.05872247   ,


               -0.20853584,      0.04387821,      0.12587690 ,
               -0.25101027,      0.12323949,      0.22355476 ,
               -0.20250718,      0.05849474,      0.13340622   ,


               -0.14855599,     -0.19436504,     -0.09273883 ,
               -0.18141043,     -0.21923356,     -0.14474978 ,
               -0.08792535,     -0.12978789,     -0.07732210   ,


               -0.24420145,     -0.40557024,     -0.27974761 ,
                0.14532603,      0.12012774,      0.02675418 ,
                0.19227356,      0.21495827,      0.10854017   ,


               -0.12422679,     -0.17167547,     -0.08674761 ,
               -0.19247451,     -0.24624333,     -0.14240979 ,
               -0.10190299,     -0.15221258,     -0.07266197   ,


               -0.14936987,     -0.19947150,     -0.10225037 ,
               -0.19190823,     -0.21671906,     -0.13545892 ,
               -0.12031718,     -0.15205289,     -0.06838951   ,


                0.23980623,      0.29627454,      0.13268803 ,
                0.26996198,      0.33469698,      0.14649180 ,
                0.10729510,      0.14682736,      0.05197363   ,


                0.25943285,      0.33479196,      0.13585430 ,
                0.34875479,      0.44386846,      0.18167052 ,
                0.13709384,      0.17888591,      0.07920624   ,


                0.22343874,      0.29920557,      0.11408664 ,
                0.32143825,      0.43261304,      0.17031895 ,
                0.13714123,      0.18846330,      0.07460915   ,


               -0.15048635,     -0.18932413,     -0.09543268 ,
               -0.18748093,     -0.25642776,     -0.15614253 ,
               -0.11587697,     -0.15274303,     -0.06010647   ,


                0.19641531,      0.25362760,      0.11308153 ,
                0.28893262,      0.38021582,      0.17565444 ,
                0.14509223,      0.19395240,      0.08824521   ,


               -0.31431830,     -0.29037121,     -0.21709542 ,
                0.04822876,      0.22466373,      0.09085350 ,
                0.11938899,      0.17838602,      0.03524064   ,


               -0.46132094,     -0.08427283,      0.18390198 ,
               -0.46090490,      0.17002937,      0.47963449 ,
               -0.13102131,      0.22934926,      0.27755234   ,


                0.29108608,      0.14324965,     -0.00389177 ,
                0.14671984,     -0.22283846,     -0.21497151 ,
                0.00047450,     -0.16864285,     -0.08164703   ,


               -0.16813180,     -0.24399091,     -0.11857841 ,
               -0.25768191,     -0.38217387,     -0.15787745 ,
               -0.12420940,     -0.18223237,     -0.08452764   ,


               -0.08497477,      0.22684491,     -0.13947669 ,
               -0.09251432,      0.31896257,     -0.24222682 ,
               -0.05743890,      0.17693612,     -0.07615493
};

// Parameters for BN in Depthwise layer
// Weight shape =  torch.Size( 240 )

float MBConv6_5_depthwise_conv_BN_weights  [240]  =
{
1.36523151,  1.30896473,  1.09160745,  1.06851196,  0.97474587,
         1.59880912,  1.00297368,  0.83187860,  1.65372562,  1.65128791,
         2.41465282,  0.93872601,  1.33194566,  2.20790648,  1.14524674,
         1.42149794,  1.32356620,  1.57317781,  1.16159403,  0.90603077,
         1.00361538,  1.28401852,  1.10643780,  1.47503054,  1.29362500,
         1.59829390,  2.17661238,  0.82651699,  1.27588129,  1.92486918,
         1.15079522,  1.13290441,  1.45073497,  1.09879112,  0.95301187,
         1.16534102,  1.30585158,  0.95065480,  1.22435832,  1.42636907,
         3.50457811, -2.05877662,  1.28681362,  2.73662162,  2.16449738,
         1.39270520,  1.78476679,  1.37157214,  0.91476899,  0.98684490,
        -1.66137421,  1.25467145,  0.84456116,  1.02858746,  1.02562213,
         0.89708173,  1.59248662,  1.02231932,  1.83031452,  1.93723893,
         0.94058502,  1.25117493,  0.95937288,  1.04682970,  2.29110599,
         1.27116239,  1.18908107,  1.67766893,  1.79390609,  0.90078193,
         0.95791060,  0.97310919,  1.94528782,  1.05012083,  2.02440548,
         1.25960088,  1.05169082,  1.16328263,  1.18337452,  1.36045039,
         1.30616653,  0.95877641,  1.35601258,  1.46375370,  1.78945136,
         2.69774413,  2.15417147,  1.18360519,  1.05300736,  1.04322672,
         1.77679503,  0.79238087,  1.29446077,  1.24450815,  1.02792740,
         1.15045774,  1.06816173,  1.01592541,  1.05866492,  1.46433687,
         1.33587146,  1.64698923,  1.66883445,  0.91855305,  0.89278412,
         0.86597914,  1.18958008,  1.12125897,  1.90668678,  1.11532402,
         0.95081812,  1.14992571,  1.67383826,  2.39265299,  1.24967563,
         1.14499283,  3.23912120,  0.99065590,  0.81472856,  1.01604283,
         1.13651764,  1.25818002,  0.83453870,  1.36042762,  3.27949524,
         1.19538713,  1.77557278,  1.16297734,  3.06831455,  1.64616215,
         2.52651000,  1.93942797,  1.24250555,  1.55581653,  0.95202518,
         2.09839749,  1.20035303,  1.03323531,  1.42329478,  1.61565626,
         1.38566947, -1.82246232,  3.26577282,  2.18500400,  2.00977373,
         0.96801358,  0.98668879,  1.07813132,  1.47402990,  1.11182809,
         0.92731071,  0.84535825,  2.74204898,  1.39316797,  1.86906099,
         2.17643762,  2.02795959,  1.03936708,  1.98752940,  1.33214855,
         1.34054542,  0.97400391,  1.32799339,  2.22125077,  1.16047275,
         0.87367612,  1.01596725,  1.59038234,  0.93208987,  1.70462239,
         1.20357859,  1.67263508,  1.06141293,  2.04782319,  1.48864686,
         0.91622561,  3.54823494,  2.28164339,  1.02375257,  1.03254807,
         1.68982148,  2.05522156,  1.57191801,  1.10576594,  1.62684774,
         1.95677257,  1.03341234,  0.98752332,  1.89805174,  0.96069312,
         0.90265524,  2.03843713,  0.98448968,  1.18813705,  1.02422059,
         1.03758442,  2.06956530,  1.77385855,  0.98083514,  0.92857289,
         1.02959669,  0.90964311,  0.94182771,  1.95144415,  1.08946538,
         1.05654788,  1.31096721,  1.72132552,  1.17839646,  1.61727571,
         1.06701589,  0.98511612,  1.22439790,  1.24573612,  0.95589137,
         1.15122402,  1.05813587,  2.14590263,  1.12383974,  1.00741267,
         1.15493321,  0.98186374,  2.34336185,  1.54586208,  2.64939809,
         1.89752531,  2.41724396,  1.88319111,  1.50519204,  1.56365871,
         1.03958285,  1.35985887,  1.17905164,  2.26132250,  1.23189640,
         1.86144102,  1.13025069,  1.84441423,  0.96045470,  1.52269840
};

float MBConv6_5_depthwise_conv_BN_bias  [240]  =
{
		 0.76444179,  3.69959259,  2.77590084,  4.99616003,  2.94626713,
         4.68346024,  1.32508636,  3.51341915,  0.55319095, -0.53738219,
        -1.01150489,  3.12927175,  0.40393707, -0.47144946,  3.20979881,
         1.08951032,  3.43338108, -0.80254799,  6.08504438,  3.52114463,
         2.87926888,  2.53548384,  0.97315788, -0.10925370,  3.29121971,
        -0.58455825, -0.11431149,  2.84619117,  3.73858929,  0.59794593,
         3.03024244,  2.98603511,  3.00876212,  2.97238040,  2.31094599,
         1.49071050,  0.71530831,  2.44935441,  2.94114614,  0.14284240,
        -1.77451348, -0.19179375,  3.04070878, -0.62562597, -0.13471779,
         0.48148811, -0.78535843,  1.43342876,  3.18662858,  2.15916777,
        -2.21111274,  2.25061321,  1.36944270,  2.94024158,  2.51455379,
         2.22130251,  0.27428395,  3.80897331, -0.64577067, -0.65071946,
         2.64299512,  3.13511920,  2.69451427,  4.27168036, -0.35748222,
         2.80624056,  2.72035813,  1.49279821, -0.46928507,  5.46261263,
         2.68934965,  2.74446559, -0.60020345,  3.83629060, -0.43293077,
         2.89862609,  2.70876312,  3.13541937,  2.01373935,  0.96171343,
         1.18130040,  1.97361994,  3.28939652, -0.01474655, -0.79492128,
        -1.29911685, -0.74887317,  0.83805972,  1.50944030,  2.79933786,
         1.09157538,  2.72824883,  0.69036126,  3.26586986,  1.05686200,
         3.12313056,  2.38784003,  3.33100224,  2.82382059, -0.63219398,
         2.24108171,  0.74081600, -0.57551217,  2.77166605,  2.71657825,
         1.74438548,  0.14046140,  3.42195702,  0.04437706,  3.21425843,
         2.87764263,  1.20920539,  0.57088584, -0.38267565,  3.21267080,
         3.18534327, -1.46173823,  3.08161926,  2.75043082,  1.20085883,
         2.55298376,  3.32319689,  2.43427610,  0.58141607, -1.97760439,
         2.14710903, -0.86164433,  1.96411932, -1.06044352, -1.11115074,
         0.00825641, -0.56379414,  2.95133233, -0.63566530,  2.93705750,
         0.31092751,  3.24797201,  1.55339134, -0.12218215,  0.04437564,
         2.52106309, -0.08388376, -1.47289038, -0.51942092,  0.39998221,
         2.08740354,  2.64719748,  2.94658184, -0.34693399,  2.68080568,
         2.28246975,  4.42719555, -0.42223799,  0.29342386, -0.63394952,
        -0.44418713,  0.03377268,  2.68684483,  1.41641021,  2.78116393,
         3.11168671,  2.59336805,  2.89116669, -0.57431698,  2.93176198,
         2.40801811,  2.56296968, -0.64903075,  2.24683952, -0.95604801,
         1.47706902,  0.13762495,  2.45084929,  0.64743644,  0.42826596,
         2.34275866, -0.33181342,  0.35951936,  3.15985155,  2.09816408,
        -0.71319878, -0.44163489, -0.30686602,  3.28102684, -0.46645051,
        -0.09238116,  2.52896261,  2.80362940, -0.77277511,  2.90161920,
         2.54659963, -1.22089779,  2.41735816,  2.74472666,  2.44027376,
         1.10010111, -0.40879953,  0.98371398,  2.60498095,  2.81141043,
         1.85367823,  1.75132847,  2.57332134, -0.12530236,  1.61163521,
         2.91978788,  0.87549919, -0.85311228,  1.30708444, -0.16740976,
         0.68761992,  1.61312389,  2.24935246,  2.48121166,  4.19803810,
         2.99597478,  3.15566182,  0.22308683,  2.62130594,  3.07612967,
         2.76372457,  2.32565188, -0.52795666, -0.66901684,  0.14720261,
        -0.11960643,  0.67841333,  0.15283047,  0.93657339,  0.12890558,
         3.01632953,  3.73374367,  2.80114126, -0.44813082,  3.04358840,
        -0.59630400,  6.14065409, -0.34029752,  3.80852818, -0.81356782
};


float MBConv6_5_depthwise_conv_BN_mean  [240]  =
{
		-1.01724732,     -0.23355363,     -0.30717075,      0.00148822,
            -0.37639868,      2.87777400,     -0.00323907,     -1.37161982,
             0.12860091,     -0.05237179,     -1.70440328,      0.20495334,
             0.15003233,     -1.89139974,     -0.32649800,     -0.79725289,
            -0.19311492,      0.10943964,      0.00061804,     -0.25442612,
            -0.28706312,      1.02365100,     -1.28386772,     -0.22979447,
            -0.32281789,     -6.44474220,     -0.00062243,     -1.15546882,
            -0.10073330,     -0.69896924,     -0.12124790,     -0.24818438,
             0.03650905,     -0.27084726,     -0.40698081,     -0.21613920,
            -0.31900907,     -0.22252686,      0.75531799,     -1.83080697,
            -0.64925593,      2.03449678,      0.21889402,     -3.56458712,
            -1.17753983,      0.06885444,     -2.73233819,     -0.73062921,
            -0.30436489,     -0.24125983,     -0.03803788,     -0.18219186,
            -0.14908980,     -0.26885569,     -0.30365789,      0.10596406,
            -0.51844877,     -0.00350198,     -0.00777957,     -0.09358901,
            -0.27869457,     -0.42648038,     -0.10621126,      0.15023196,
            -0.00197074,     -0.14317147,     -0.37586406,     -0.12428135,
            -0.00423050,      0.15831459,      0.01150704,     -0.19690974,
             0.00072641,      0.06548816,     -0.01212211,      0.22876635,
            -0.26069209,     -0.33626837,     -0.33581322,     -0.79112720,
            -0.24908276,     -0.17509833,      0.08533748,      0.01235810,
            -0.00133975,     -0.45501587,     -0.00245069,     -0.27392647,
            -0.25758716,     -1.12982309,      0.46663243,      0.06887612,
            -1.74352360,     -0.29149115,      0.00919211,     -0.05359858,
            -0.26804152,     -0.23020194,     -0.31361017,     -1.26454461,
            -0.73584110,     -0.68062371,     -0.03227257,     -0.92591918,
            -0.30894202,     -0.16069299,     -0.12470584,     -0.32513434,
            -1.36967123,     -0.24601449,     -0.22228375,     -0.34114948,
             0.00046416,     -1.69241953,     -0.21352096,     -0.33856937,
            -2.57219076,      0.23143204,      0.10223839,     -0.22008616,
            -0.13265936,      0.25893477,     -0.28919855,     -0.58780396,
            -2.01935768,     -0.20018250,     -0.03257262,     -0.27767056,
            -1.56300509,     -0.29508191,     -0.34911343,     -0.00093282,
            -0.27168575,      0.03157322,     -0.17764179,     -0.61981797,
            -0.26820895,      0.04713421,     -0.38738507,     -0.26423290,
             0.23699373,     -0.03768021,     -1.08767354,     -0.00228700,
            -1.76328516,     -1.31146967,     -0.20674357,     -0.31947911,
            -0.00063461,     -0.31649020,     -1.76540661,      0.20995429,
             0.14345351,      0.06298219,     -0.10370509,     -0.00063491,
            -0.00076163,     -0.27869496,     -0.08597555,     -0.04568888,
            -0.22518587,     -0.32252958,      0.72247827,     -2.49267197,
             0.00197859,     -1.48396516,     -0.25236920,     -0.02062884,
            -0.32444584,     -0.07660799,     -0.22768892,     -1.20716262,
            -0.25967354,      1.80316794,     -0.07496777,     -0.09070949,
             0.16336656,     -0.83337307,     -0.28483713,     -1.44227624,
            -0.00219098,     -0.00272910,     -0.02282598,     -0.20160471,
            -0.13026741,      0.00120905,     -0.33242148,     -0.29386714,
            -0.00782274,     -0.26881611,     -0.27097103,     -0.24292009,
            -0.99705535,      0.05125682,     -0.15369092,     -0.20123208,
            -0.00272395,     -0.30738854,     -0.09846681,     -0.29038134,
            -0.20592956,     -0.36942965,     -0.28711754,     -0.16460562,
            -0.22441724,      0.00436790,     -3.06304622,     -0.28670588,
             0.01866175,      0.04204077,     -0.61404586,     -0.16539444,
            -2.31846857,     -0.18428257,     -0.01270830,     -0.38719475,
            -0.30513132,      1.93448234,     -0.29333836,     -0.23680377,
            -0.29941887,     -0.14646788,     -2.17802691,     -0.24297895,
            -0.15903531,     -0.00232047,     -0.61695230,     -0.00026870,
            -0.66566122,     -0.90969723,     -0.27027729,     -0.36612242,
            -0.11839326,     -1.47033513,     -0.18142697,     -0.00539751,
            -0.00059853,     -0.00290746,     -0.20467949,      0.08224563
};


float MBConv6_5_depthwise_conv_BN_variance  [240]  =
{
1.22040415,     0.03209904,     0.01569826,     0.07587486,
            0.01711117,     4.47028303,     0.05122870,     2.24129462,
            0.03591352,     0.02725406,     1.98245525,     0.34933090,
            0.23027416,     1.77678752,     0.00884847,     1.43905222,
            0.05815516,     0.21660423,     0.10527227,     0.26417840,
            0.01382883,     1.64791739,     2.03396583,     0.57680732,
            0.03007657,     1.41208971,     0.00428448,     0.86630887,
            0.15699944,     1.41023207,     0.13730568,     0.04414368,
            0.36023375,     0.02504290,     0.00398694,     0.25836366,
            0.28330806,     0.08772542,     1.07529843,     0.55516332,
            0.72972012,     2.15303969,     0.20686954,     3.99991536,
            1.77311027,     1.73935020,     0.74789542,     1.39804482,
            0.02217126,     0.02311869,     0.00627842,     0.25379470,
            0.06454616,     0.03118867,     0.01252203,     0.05331304,
            0.68141097,     0.14428051,     0.00280574,     0.02377939,
            0.01961483,     0.01585316,     0.09350878,     0.03558096,
            0.00226052,     0.04215423,     0.02982411,     0.12791066,
            0.00533952,     0.10489348,     0.16062585,     0.06333185,
            0.00487903,     0.16539912,     0.00682797,     0.53356767,
            0.03344074,     0.03653840,     0.04903905,     1.12146580,
            0.61093956,     0.03284366,     0.20687835,     0.16549999,
            0.00371621,     0.41204560,     0.00366689,     0.27791455,
            0.02194626,     0.53367096,     0.73931968,     0.05517698,
            2.57247114,     0.02818816,     0.02491684,     0.03421477,
            0.02465419,     0.01223208,     0.00751265,     0.27647781,
            2.11206746,     1.18299353,     0.02860186,     1.63142312,
            0.00951774,     0.05831154,     0.05352431,     0.02349641,
            2.06628942,     0.02278656,     0.03556866,     1.00643206,
            0.00495976,     2.41696978,     0.06351764,     0.02251281,
            5.87877274,     0.01050807,     0.10929778,     0.04083766,
            0.03027019,     0.26926368,     0.02289746,     0.87005621,
            1.94274974,     0.04232463,     0.00834505,     0.02804791,
            2.89519739,     0.11166252,     0.51573348,     0.00237368,
            0.12486219,     0.21478158,     0.04736132,     0.97989243,
            0.02156572,     0.20220987,     0.19542834,     0.17923932,
            1.19273567,     0.03024795,     1.33594453,     0.00217706,
            4.87680197,     1.37447739,     0.11524934,     0.01168962,
            0.02577620,     0.05568760,     1.29312313,     0.02750669,
            0.01777625,     0.03666483,     0.25645027,     0.00223567,
            0.00401990,     0.03069416,     0.45793012,     0.39561155,
            0.02015481,     0.01318044,     1.50827622,     2.72340512,
            0.05701424,     0.43905222,     0.02335249,     0.07539245,
            0.05149041,     0.07505418,     0.07395186,     2.04039145,
            0.02968447,     2.75103021,     1.25677896,     0.04208763,
            0.03984412,     1.95180297,     0.02051574,     2.07120419,
            0.00589260,     0.01175505,     0.00848608,     0.05763678,
            0.32045406,     0.00339206,     0.05310562,     0.02093302,
            0.00331249,     0.03674630,     0.01129109,     0.11422341,
            0.33429772,     0.24085946,     0.10382948,     0.01358272,
            0.00277563,     0.38557422,     0.18395145,     0.00637941,
            0.03788887,     0.20199515,     0.04540741,     0.06338336,
            0.02169759,     0.06468804,     2.71539879,     0.27279148,
            0.16194469,     0.16967712,     0.26417258,     0.11789815,
            1.48921084,     0.16131541,     0.07386328,     0.01090828,
            0.02592309,     1.71606731,     0.04379445,     0.03138754,
            0.02280265,     0.04511552,     4.06983614,     0.13212176,
            0.28282931,     0.00526637,     1.81195951,     0.02956238,
            1.07982230,     1.09655929,     0.05700616,     0.03207964,
            0.10329229,     1.27202702,     0.09777670,     0.00679090,
            0.09217373,     0.00139142,     0.08717704,     0.66749454
};
