
// weight for Depthwise layer has dimension of torch.Size( 144, 1, 5, 5 )
extern float MBConv6_3_depthwise_conv_conv2d_weights  [144 * 1 * 5 * 5]  =  
{
-0.11232020,     -0.20954992,     -0.15107238,      0.00964415,
                0.03482233 ,
               -0.25791439,     -0.52506119,     -0.36580628,     -0.01855014,
                0.07086488 ,
               -0.19609204,     -0.38683572,     -0.31132776,     -0.04471729,
                0.05957196 ,
               -0.03334486,     -0.05405735,     -0.05063365,     -0.03337026,
                0.00251966 ,
                0.01081792,      0.05715490,      0.04284539,     -0.01082562,
               -0.01693803   ,


               -0.11248991,     -0.29293528,     -0.24041630,     -0.02952095,
                0.02454286 ,
               -0.21759346,     -0.44057721,     -0.40791416,     -0.15393721,
                0.01344007 ,
               -0.20844473,     -0.39399493,     -0.28274766,     -0.06386542,
                0.04963943 ,
               -0.04598262,     -0.13848451,     -0.10905891,      0.02036692,
                0.06216636 ,
                0.02224196,      0.02396401,      0.00292112,      0.03048931,
                0.03466580   ,


               -0.21266837,     -0.34558508,     -0.21832770,     -0.03950485,
               -0.00406964 ,
               -0.16087258,     -0.40273124,     -0.38644320,     -0.11280809,
               -0.04216684 ,
                0.21764039,      0.28287712,      0.09547306,      0.05978572,
                0.00744357 ,
                0.19125554,      0.39748707,      0.28296033,      0.09034058,
               -0.00872770 ,
                0.04140429,      0.09277385,      0.10550056,      0.05549696,
               -0.01376470   ,


                0.29313791,     -0.03520179,     -0.31091407,     -0.01523760,
               -0.00448430 ,
                0.03586239,      0.58988488,     -0.41156495,     -0.10366200,
               -0.03824567 ,
               -0.24617690,      0.36688510,      0.25507462,     -0.19649497,
               -0.00896334 ,
               -0.06145078,     -0.11560500,      0.27025777,     -0.05085199,
               -0.03522621 ,
               -0.11296205,     -0.03889813,      0.08962307,     -0.02460884,
               -0.00163696   ,


               -0.03122870,     -0.14467546,     -0.08506286,     -0.02958258,
                0.01773092 ,
               -0.14217101,     -0.53959894,     -0.47640100,     -0.05612326,
               -0.01466773 ,
               -0.08931159,     -0.48296383,     -0.46705401,     -0.08100326,
               -0.00767909 ,
               -0.02710067,     -0.07025080,     -0.07527584,      0.00179740,
                0.00594531 ,
                0.01865294,     -0.01790276,     -0.00572223,      0.00777328,
                0.03128878   ,


                0.10346560,      0.27611440,      0.25703043,     -0.05249856,
               -0.17614454 ,
                0.20409973,      0.70915300,      0.58867395,     -0.05561610,
               -0.25510707 ,
                0.15026234,      0.50688601,      0.43749562,     -0.03283380,
               -0.13945577 ,
               -0.09345189,     -0.09984521,     -0.03911161,     -0.03559428,
               -0.03965566 ,
               -0.13842677,     -0.24082753,     -0.13992119,     -0.03167149,
               -0.02298625   ,


                0.13493523,     -0.22352394,      0.06599478,      0.00066886,
                0.00742125 ,
                0.41600445,     -0.56770200,      0.09192948,      0.01484100,
                0.00623134 ,
                0.32916644,     -0.47811952,      0.07752780,      0.04089550,
                0.01243943 ,
                0.11036053,     -0.17440116,      0.03169650,      0.01518232,
                0.00270729 ,
                0.02053434,     -0.04589238,     -0.00279530,      0.00024308,
                0.00064797   ,


                0.00611079,      0.11144105,      0.16317359,      0.10707362,
                0.03295454 ,
                0.30370399,      0.46906397,      0.14410244,     -0.10058990,
               -0.04583430 ,
                0.06341820,     -0.35866088,     -0.61518902,     -0.23981395,
               -0.08038961 ,
               -0.22462998,     -0.17526074,      0.05682007,      0.05419793,
                0.04172033 ,
                0.04506220,      0.05286634,      0.00030732,      0.00664170,
                0.03747748   ,


               -0.11097866,     -0.18272917,     -0.15854897,     -0.06975316,
               -0.01203343 ,
               -0.23789720,     -0.35092619,     -0.30758682,     -0.13026626,
               -0.00090089 ,
               -0.18289010,     -0.27541992,     -0.24872467,     -0.12170701,
                0.00471744 ,
               -0.05756431,     -0.09237790,     -0.08254459,     -0.04061173,
               -0.00831992 ,
                0.00761000,      0.01453833,      0.02636997,      0.01166121,
               -0.01822308   ,


                0.06706733,     -0.12868230,     -0.21786550,      0.04597120,
                0.12536652 ,
                0.30507776,     -0.30034980,     -0.37865591,      0.17400450,
                0.36786687 ,
                0.28987846,     -0.28352797,     -0.29994449,      0.17913109,
                0.32466155 ,
                0.00355893,     -0.23529533,     -0.22901055,      0.07002591,
                0.09425715 ,
               -0.10120408,     -0.06672633,     -0.10691573,      0.00137922,
               -0.01581511   ,


               -0.08552218,     -0.22871947,     -0.19363518,     -0.02708326,
                0.02126399 ,
               -0.23952560,     -0.49275610,     -0.40863770,     -0.11229639,
                0.02999594 ,
               -0.19759470,     -0.36487094,     -0.33685598,     -0.09530275,
                0.04196906 ,
               -0.03898407,     -0.09318690,     -0.07861955,     -0.01463693,
                0.01860080 ,
                0.02102542,      0.02590697,      0.02432936,      0.01666772,
               -0.00475944   ,


                0.07298435,      0.23605895,      0.19744141,     -0.00482768,
               -0.06040657 ,
                0.28036019,      0.71550202,      0.54672885,     -0.01051049,
               -0.14468198 ,
                0.23966488,      0.60799575,      0.47760198,     -0.00649656,
               -0.12543790 ,
               -0.03590577,     -0.05329532,     -0.04129213,     -0.02264336,
                0.00055790 ,
               -0.10888374,     -0.21102685,     -0.16502202,     -0.02534590,
                0.04364249   ,


                0.04033370,      0.25781605,      0.31764612,      0.04080169,
               -0.12435339 ,
                0.22464766,      0.63454127,      0.52083254,      0.03427617,
               -0.12854555 ,
                0.26351282,      0.48977888,      0.33803394,      0.02208280,
               -0.03760161 ,
                0.04101152,      0.03696929,      0.00407222,     -0.02075974,
                0.00441099 ,
               -0.10003275,     -0.12487774,     -0.04838445,     -0.01071116,
               -0.02588274   ,


                0.04942396,      0.16008596,      0.14512591,     -0.10932910,
               -0.17669019 ,
                0.26261425,      0.65033776,      0.55800354,     -0.12704812,
               -0.30605960 ,
                0.25015074,      0.65303707,      0.57875651,     -0.03633364,
               -0.21890315 ,
               -0.09292202,     -0.13079785,     -0.03843903,     -0.03250244,
               -0.06044874 ,
               -0.18727790,     -0.29898807,     -0.21855494,     -0.06602544,
               -0.02415048   ,


                0.09355806,      0.26202467,      0.21157961,     -0.00542412,
               -0.08134685 ,
                0.23930670,      0.51855057,      0.41044348,      0.01573738,
               -0.10156018 ,
                0.18149434,      0.37356856,      0.28053465,      0.01535409,
               -0.06488698 ,
               -0.01977191,      0.01869274,      0.01032819,     -0.03347844,
               -0.03096217 ,
               -0.06932615,     -0.08483537,     -0.05698226,     -0.04058032,
               -0.02206181   ,


                0.12246259,      0.20805211,      0.14284024,     -0.02156972,
               -0.04233084 ,
                0.26979336,      0.53997117,      0.40415111,      0.07129215,
               -0.06627320 ,
                0.15641473,      0.49137235,      0.41169941,      0.04888086,
               -0.08587818 ,
               -0.00224530,      0.05198013,      0.08681563,     -0.03163448,
               -0.06398179 ,
               -0.03924705,     -0.10060189,     -0.06212130,     -0.04120899,
               -0.03038725   ,


               -0.10827878,     -0.21789546,     -0.19067886,     -0.04245596,
                0.01568527 ,
               -0.23435599,     -0.34605372,     -0.30753464,     -0.12633744,
               -0.00561247 ,
               -0.21206380,     -0.33498013,     -0.29868448,     -0.11008557,
               -0.00142035 ,
               -0.06233424,     -0.13970029,     -0.10902445,     -0.01693038,
                0.01401578 ,
                0.01952326,      0.00442544,      0.00228067,      0.00930661,
                0.00813167   ,


               -0.22163776,     -0.22027029,      0.07252038,      0.18381144,
                0.09969974 ,
               -0.49089742,     -0.32305521,      0.19921577,      0.40224841,
                0.22289124 ,
               -0.38043267,     -0.18382984,      0.17189623,      0.32409641,
                0.16961057 ,
               -0.06736039,     -0.06631519,      0.04286123,      0.06719884,
                0.02633181 ,
                0.01716126,     -0.04217869,     -0.02672214,     -0.02677923,
                0.00194619   ,


                0.05538535,      0.19820574,      0.23567264,      0.05653318,
               -0.04254524 ,
                0.21795696,      0.46833363,      0.42154142,      0.08638276,
               -0.07891341 ,
                0.19362541,      0.43638292,      0.34500730,      0.04172281,
               -0.06226884 ,
                0.02164466,      0.10643080,      0.05398012,     -0.02297892,
               -0.01175456 ,
               -0.02675724,     -0.06649793,     -0.07383326,     -0.03590466,
                0.00338759   ,


                0.00583215,      0.13080321,      0.13463418,     -0.18521614,
               -0.15195432 ,
                0.20496346,      0.30613944,      0.13150743,     -0.32667148,
               -0.22411399 ,
                0.18122309,      0.20760076,      0.00204279,     -0.25297299,
               -0.10102865 ,
                0.04583456,      0.02193547,     -0.03219024,     -0.07838668,
               -0.00893931 ,
                0.03417855,     -0.01736758,     -0.01820499,     -0.04397526,
               -0.05228126   ,


                0.05510505,      0.17798795,      0.13137120,     -0.01090164,
               -0.05497100 ,
                0.19677295,      0.40570027,      0.30515677,      0.05259144,
               -0.04850641 ,
                0.17021662,      0.32597443,      0.23515517,      0.04995839,
               -0.02372025 ,
               -0.01868038,      0.01211766,      0.02051569,     -0.02259438,
               -0.01625397 ,
               -0.05848307,     -0.06710612,     -0.03923203,     -0.02743101,
               -0.01469637   ,


               -0.08863076,      0.06017510,      0.06334209,     -0.12722184,
               -0.12140834 ,
                0.06772146,      0.41872931,      0.39540166,     -0.19686849,
               -0.26559964 ,
                0.13427463,      0.46219164,      0.40028021,     -0.11896586,
               -0.19364317 ,
               -0.08113493,     -0.14263161,     -0.12424825,     -0.01013963,
                0.01708087 ,
               -0.11691026,     -0.26185229,     -0.22601539,      0.00412080,
                0.04030150   ,


               -0.09705698,     -0.22642992,     -0.15361266,     -0.04647723,
               -0.00385104 ,
               -0.22755171,     -0.31906101,     -0.26935595,     -0.12701888,
               -0.03854971 ,
               -0.16567844,     -0.28220135,     -0.23680736,     -0.08331833,
               -0.02289820 ,
               -0.05088940,     -0.13531053,     -0.09928423,     -0.00978591,
               -0.00652727 ,
               -0.00539947,     -0.02868280,     -0.02182394,     -0.01673509,
               -0.01071376   ,


                0.02200636,      0.16037722,     -0.28547183,      0.06538187,
                0.02714502 ,
               -0.02108361,      0.26068267,     -0.61195570,      0.25724858,
                0.04782948 ,
                0.02741129,      0.22396386,     -0.49903172,      0.21692300,
                0.02169050 ,
                0.02449821,      0.10061151,     -0.18807007,      0.04356242,
                0.00760052 ,
                0.00890094,      0.01084184,     -0.00061859,     -0.03113721,
               -0.00223340   ,


               -0.19441867,     -0.41932866,     -0.28868631,     -0.07666076,
               -0.00330839 ,
               -0.21105199,     -0.44113275,     -0.21227556,     -0.03801374,
               -0.02659508 ,
                0.07308375,      0.33100870,      0.35133883,      0.07109422,
               -0.01873338 ,
                0.13357240,      0.27431187,      0.23024385,      0.05391967,
               -0.00826822 ,
                0.09947465,      0.08666316,      0.06517715,      0.04159893,
                0.01951749   ,


                0.05219321,     -0.15301608,     -0.31164673,     -0.04143089,
                0.08611851 ,
                0.27111527,      0.07778668,     -0.53785008,     -0.27019158,
               -0.04939083 ,
                0.28074226,      0.48261687,     -0.07617313,     -0.15812844,
               -0.09860250 ,
               -0.01188460,      0.14971291,      0.08811599,      0.02691923,
               -0.00428072 ,
               -0.03631155,     -0.00495768,      0.00953832,     -0.01319904,
                0.00221094   ,


                0.07656764,      0.29167473,      0.30285802,      0.04002830,
               -0.08433501 ,
                0.21509351,      0.43162975,      0.43525147,      0.09533525,
               -0.09746481 ,
                0.22057432,      0.35514283,      0.31210881,      0.06348510,
               -0.06809564 ,
                0.01854802,      0.08803560,      0.06436358,     -0.01941659,
               -0.04280889 ,
               -0.06801713,     -0.08415403,     -0.07203867,     -0.05057403,
               -0.02217490   ,


               -0.25419354,     -0.17492566,     -0.15289767,     -0.15819526,
               -0.12751082 ,
               -0.21387862,      0.28097424,      0.27216491,     -0.20153835,
               -0.22213432 ,
               -0.16111371,      0.15882477,      0.19640468,     -0.14522323,
               -0.14316025 ,
               -0.13332228,     -0.19365847,     -0.15455806,      0.00904954,
               -0.00914682 ,
               -0.12464024,     -0.22897510,     -0.14708854,     -0.00278173,
                0.01446410   ,


                0.20262638,      0.09402695,     -0.12080307,     -0.15064105,
               -0.07693268 ,
                0.46468067,      0.22186717,     -0.29764101,     -0.41110235,
               -0.19810054 ,
                0.37020248,      0.25618160,     -0.17173688,     -0.35977623,
               -0.15526408 ,
                0.08195302,      0.13601620,      0.00100754,     -0.05984378,
               -0.02796320 ,
               -0.01416865,      0.01877257,      0.02936843,      0.04113549,
               -0.00561961   ,


               -0.10715023,     -0.22583340,     -0.21716599,     -0.01550775,
                0.06628948 ,
               -0.21260871,     -0.35927492,     -0.34874579,     -0.08366667,
                0.06787062 ,
               -0.17803797,     -0.31036556,     -0.28259632,     -0.05054494,
                0.06271200 ,
               -0.02581741,     -0.08540501,     -0.06697105,      0.01152025,
                0.04010665 ,
                0.03304323,      0.03852597,      0.03109679,      0.01236307,
                0.00500466   ,


               -0.07335127,      0.08273859,      0.13133898,     -0.04463932,
               -0.07384925 ,
                0.08958004,      0.37272981,      0.44196540,      0.02601723,
               -0.11582480 ,
                0.11079582,      0.44240129,      0.47111255,      0.02732109,
               -0.10576244 ,
               -0.05833411,      0.06261449,      0.05082732,     -0.03437232,
               -0.03273421 ,
               -0.07662302,     -0.09335361,     -0.09701734,     -0.03894978,
               -0.00679718   ,


               -0.17943564,     -0.02630584,      0.32990286,     -0.16347772,
               -0.01078728 ,
               -0.27712342,      0.55180466,     -0.01437244,     -0.13276136,
               -0.03840517 ,
                0.20887189,      0.38190007,     -0.34368932,      0.03514029,
               -0.03414144 ,
                0.22037208,     -0.13385302,     -0.09281063,     -0.03665353,
                0.01250552 ,
                0.05517749,     -0.07017773,     -0.11594712,     -0.05182552,
               -0.01178201   ,


                0.19615588,      0.14636664,      0.06944229,      0.02749398,
               -0.01409955 ,
               -0.07202879,      0.27618396,      0.36883980,      0.18921961,
                0.11378340 ,
               -0.51757294,     -0.59370190,     -0.09730613,      0.04801384,
                0.03402102 ,
                0.06583678,     -0.07964735,     -0.17893255,     -0.11332940,
               -0.07488234 ,
                0.00396166,      0.01147335,      0.04034191,      0.00760723,
                0.00275326   ,


               -0.09851382,     -0.19818252,     -0.10797305,     -0.01218557,
               -0.01687321 ,
               -0.14505370,     -0.31236246,     -0.17877872,     -0.04562569,
               -0.03639052 ,
               -0.08566732,     -0.19676991,     -0.12080760,     -0.00508541,
               -0.01638319 ,
               -0.03596510,     -0.07433401,     -0.04257752,     -0.01224674,
               -0.01091747 ,
               -0.00569006,     -0.01726827,     -0.00118532,     -0.02639985,
               -0.02510515   ,


               -0.11239694,     -0.24226841,     -0.23496959,     -0.13101436,
               -0.03384148 ,
                0.29528594,      0.44802445,      0.36682889,      0.18027112,
                0.07783843 ,
               -0.07228914,     -0.07613705,     -0.03816167,     -0.02365154,
                0.00894179 ,
               -0.12359554,     -0.05884850,     -0.05709963,     -0.09025767,
               -0.07417405 ,
               -0.02365757,      0.00465561,      0.02895000,     -0.00146791,
               -0.03419300   ,


                0.18055603,      0.32803294,      0.35585982,      0.13181134,
               -0.01165986 ,
                0.13383973,      0.28099135,      0.26619044,      0.05360727,
               -0.03434541 ,
               -0.20436166,     -0.35838518,     -0.30259493,     -0.13507178,
               -0.02696539 ,
               -0.16785197,     -0.26791227,     -0.21659720,     -0.09040380,
               -0.03690248 ,
               -0.04873243,     -0.07220630,     -0.07930823,     -0.02840426,
               -0.03709034   ,


                0.11330152,      0.29646745,      0.24550252,     -0.05084125,
               -0.11275164 ,
                0.30179599,      0.71448290,      0.57616824,     -0.07315215,
               -0.20707224 ,
                0.22096793,      0.49987513,      0.38840836,     -0.05303890,
               -0.14453101 ,
               -0.07447334,     -0.14573507,     -0.09959942,     -0.03175856,
               -0.02736333 ,
               -0.12489871,     -0.23375265,     -0.16226587,     -0.03424003,
               -0.01403473   ,


               -0.01189482,     -0.19731687,     -0.20066874,      0.01195253,
                0.07825791 ,
               -0.19044761,     -0.55496329,     -0.44047219,     -0.04828249,
                0.08138197 ,
               -0.17796358,     -0.42995477,     -0.33623728,     -0.05526746,
                0.04730378 ,
                0.01571702,     -0.02871729,     -0.04413241,      0.00319969,
                0.01501251 ,
                0.07832196,      0.12298233,      0.04814636,      0.01991327,
               -0.00268544   ,


               -0.38495663,     -0.19675238,      0.24612810,      0.41968128,
                0.15914913 ,
               -0.17899820,     -0.07542881,      0.16137861,      0.21231610,
                0.07513818 ,
                0.29217899,      0.15095337,     -0.20256871,     -0.31321424,
               -0.09475849 ,
                0.37098742,      0.17180093,     -0.33063346,     -0.37360165,
               -0.07116219 ,
                0.15385324,      0.05368392,     -0.16094673,     -0.10988987,
               -0.00546551   ,


                0.12928985,      0.05810166,     -0.12930277,     -0.03146757,
               -0.02146002 ,
                0.03393544,      0.30767134,      0.28135538,     -0.08054837,
               -0.07481089 ,
               -0.21264884,     -0.36224666,      0.06729994,      0.20148768,
                0.11830432 ,
                0.00589907,     -0.06616628,     -0.19861765,     -0.06202793,
               -0.03890457 ,
                0.01044695,     -0.00066161,     -0.00022788,     -0.00368563,
                0.01340485   ,


                0.07881209,      0.23142762,      0.24291338,      0.02631596,
               -0.04604990 ,
                0.24445601,      0.47767812,      0.36576006,      0.07177906,
               -0.03909663 ,
                0.23323373,      0.39570579,      0.23150569,      0.06042891,
               -0.00326778 ,
                0.05813149,      0.11856448,      0.07196620,      0.02832216,
               -0.00614009 ,
               -0.03714788,     -0.01660193,      0.01343024,     -0.01061580,
               -0.01430278   ,


               -0.09455457,      0.23335110,      0.39520976,      0.08652359,
               -0.08535125 ,
                0.32769299,      0.37438923,     -0.16523473,     -0.29386935,
               -0.11681587 ,
                0.08634000,     -0.31906766,     -0.18172882,      0.03601674,
               -0.02606989 ,
               -0.11064246,     -0.11009355,     -0.02230521,     -0.05233686,
               -0.01360469 ,
               -0.05339048,     -0.07909390,     -0.03058290,     -0.02857278,
               -0.02644068   ,


               -0.17908886,      0.14169799,      0.15017930,      0.01121362,
               -0.01490756 ,
               -0.45314601,      0.20976683,      0.33794150,      0.02009433,
               -0.03489130 ,
               -0.33514914,      0.09771391,      0.24564861,      0.01827473,
               -0.03942064 ,
               -0.09942842,      0.04074577,      0.06915222,      0.05085709,
                0.00916220 ,
               -0.04782618,      0.04017511,      0.01347852,      0.00601296,
                0.02035519   ,


               -0.19478151,      0.33305740,     -0.00523968,     -0.12197446,
               -0.02144889 ,
               -0.19874462,     -0.06311855,      0.51935941,     -0.21028705,
               -0.02324747 ,
                0.07996265,     -0.40042731,      0.37888122,      0.10042880,
               -0.05603325 ,
                0.02288393,     -0.14059430,     -0.07438859,      0.16152801,
               -0.01396985 ,
               -0.01445647,     -0.12718855,     -0.11032081,      0.07101562,
               -0.00137162   ,


                0.08690088,      0.22828656,      0.20999269,      0.02329239,
               -0.04962166 ,
                0.19156641,      0.39429128,      0.37220103,      0.08288450,
               -0.06215394 ,
                0.17632638,      0.33413425,      0.28421679,      0.05414386,
               -0.03249994 ,
                0.01722355,      0.08028241,      0.04544591,     -0.02512584,
               -0.02947813 ,
               -0.04427526,     -0.06996335,     -0.05584209,     -0.03586100,
               -0.00914067   ,


                0.06638841,      0.18625067,      0.19189627,     -0.02539012,
               -0.10731105 ,
                0.21336827,      0.56135249,      0.46871233,     -0.01933179,
               -0.16759402 ,
                0.19201711,      0.46931106,      0.37405264,      0.00694107,
               -0.09761614 ,
               -0.02987200,     -0.03669101,      0.00611727,     -0.01213307,
               -0.03432274 ,
               -0.09257005,     -0.16811760,     -0.10823651,     -0.02664458,
                0.00588796   ,


               -0.01728339,     -0.16804519,     -0.14050706,      0.01455692,
                0.04437442 ,
               -0.18547000,     -0.36645624,     -0.30930597,     -0.03019665,
                0.05409995 ,
               -0.14776628,     -0.32352412,     -0.27674150,     -0.00054883,
                0.05340499 ,
                0.02443707,     -0.01724901,     -0.01526610,     -0.00013489,
               -0.00412298 ,
                0.02681971,      0.07074201,      0.05074058,     -0.00016951,
               -0.02166558   ,


               -0.11073934,     -0.25956735,     -0.21411768,     -0.00647358,
                0.05406425 ,
               -0.25814578,     -0.46588677,     -0.40395564,     -0.09323002,
                0.03852627 ,
               -0.19017647,     -0.39661306,     -0.30163705,     -0.02911895,
                0.03937695 ,
                0.00019429,     -0.08373795,     -0.02107583,      0.03399650,
                0.02034208 ,
                0.05587851,      0.05040095,      0.04712259,      0.01631971,
               -0.00291087   ,


               -0.22082902,     -0.44592509,     -0.32120112,     -0.10432956,
               -0.03412667 ,
               -0.01468475,     -0.14623804,     -0.24142662,     -0.16932476,
               -0.04107013 ,
                0.23781355,      0.36784554,      0.23598933,      0.03826640,
                0.00608849 ,
                0.11446647,      0.17188993,      0.17230678,      0.07607681,
                0.04511686 ,
                0.00672448,      0.01261014,      0.05483899,      0.03781519,
                0.03348239   ,


                0.09597106,      0.22834295,      0.17320682,     -0.00343598,
               -0.05677994 ,
                0.21776983,      0.40590966,      0.32418889,      0.03596850,
               -0.06366507 ,
                0.13303363,      0.27670312,      0.23165824,      0.01556887,
               -0.04507001 ,
               -0.02567326,      0.02376985,      0.02861560,     -0.01648937,
               -0.03361962 ,
               -0.04927932,     -0.06525231,     -0.04402179,     -0.02494356,
               -0.01831193   ,


                0.08483372,      0.30826253,      0.24428599,     -0.05893846,
               -0.12803854 ,
                0.29813015,      0.77457744,      0.52328110,     -0.08898640,
               -0.21142045 ,
                0.25118074,      0.51892650,      0.33019230,     -0.04295988,
               -0.11875230 ,
               -0.06498229,     -0.10356375,     -0.04346471,     -0.03148627,
               -0.02382453 ,
               -0.13651088,     -0.22624813,     -0.12991533,     -0.01203240,
                0.00273954   ,


                0.13942771,      0.24140674,      0.11770275,      0.01421518,
               -0.00409682 ,
                0.27676612,      0.49443969,      0.34073821,      0.06911271,
               -0.02409301 ,
                0.15831478,      0.38838622,      0.34569132,      0.06564295,
               -0.02926915 ,
               -0.00456507,      0.09580854,      0.12441484,      0.00372381,
               -0.03238560 ,
               -0.02964043,     -0.03011071,     -0.00658609,     -0.01950598,
               -0.02261667   ,


               -0.09263308,     -0.30151352,     -0.18837541,      0.02696474,
                0.05203513 ,
               -0.27068898,     -0.57772374,     -0.40960154,     -0.01417935,
                0.07031429 ,
               -0.18730341,     -0.40047032,     -0.26774588,     -0.00288986,
                0.06191223 ,
                0.02273743,     -0.01838913,      0.00422877,      0.01631290,
                0.00646657 ,
                0.05232850,      0.07512592,      0.05695303,      0.00725643,
               -0.00965177   ,


               -0.10696746,     -0.34134364,     -0.35476881,     -0.10175575,
                0.02173347 ,
                0.20363523,      0.14437468,     -0.19674113,     -0.31176046,
               -0.13728024 ,
                0.22337221,      0.43807486,      0.33694181,      0.06585918,
               -0.04072907 ,
               -0.07105214,     -0.03188501,      0.08565763,      0.07346439,
                0.02452407 ,
               -0.02623840,     -0.08976758,     -0.03831754,      0.00439832,
                0.01532368   ,


               -0.09002664,     -0.17534113,     -0.12562062,     -0.03297919,
                0.01167458 ,
               -0.16999704,     -0.38808274,     -0.24628018,     -0.05883937,
                0.00640108 ,
               -0.15060289,     -0.32610103,     -0.29818544,     -0.06405684,
                0.00915993 ,
               -0.06811091,     -0.15598123,     -0.11422003,     -0.03429049,
               -0.00633125 ,
               -0.02688962,     -0.03651355,     -0.01903132,     -0.02060230,
               -0.00909356   ,


                0.04087467,      0.11203428,      0.10761274,     -0.00136108,
               -0.03358197 ,
                0.14196573,      0.27408439,      0.24697769,     -0.00521621,
               -0.09055146 ,
                0.15865593,      0.30807176,      0.24169983,      0.02891458,
               -0.05416562 ,
                0.00789991,      0.02479587,      0.04918227,      0.01605724,
               -0.01352417 ,
               -0.04603617,     -0.06343079,     -0.01956573,     -0.01131830,
               -0.02057201   ,


               -0.01695480,     -0.32853565,     -0.29877675,     -0.01361429,
               -0.04010668 ,
                0.30673960,      0.37317109,     -0.09205100,     -0.22089735,
               -0.09796520 ,
               -0.07600224,      0.17151341,      0.30345342,      0.11432913,
                0.07917704 ,
               -0.05489504,     -0.06058952,      0.03112043,      0.04815959,
                0.01182543 ,
               -0.03374435,     -0.02184671,      0.01670717,      0.03176892,
                0.02975758   ,


               -0.09593894,     -0.18838972,     -0.15038237,     -0.04083821,
                0.00549676 ,
               -0.20822302,     -0.25898936,     -0.23610650,     -0.12157783,
               -0.02882324 ,
               -0.16426304,     -0.23608235,     -0.20379016,     -0.09519212,
               -0.02747931 ,
               -0.02854235,     -0.11724576,     -0.07510967,     -0.00821958,
                0.00202367 ,
                0.00938518,     -0.02105577,     -0.02379875,     -0.00551068,
                0.00250249   ,


                0.07519797,      0.30570111,      0.22523813,     -0.02424973,
               -0.03892163 ,
                0.24051453,      0.40139514,      0.29257739,     -0.03365799,
               -0.04980674 ,
                0.12929143,      0.20613000,      0.04288986,     -0.13191603,
               -0.09371516 ,
               -0.06707865,     -0.09982508,     -0.15257668,     -0.15358639,
               -0.07984185 ,
               -0.06964415,     -0.09165689,     -0.10884750,     -0.07981070,
               -0.04890528   ,


               -0.14657527,     -0.35548767,     -0.13333280,      0.08911726,
                0.04184781 ,
               -0.19307055,      0.30934769,      0.55587417,      0.15969826,
                0.02469859 ,
                0.34673113,      0.41920096,     -0.21662930,     -0.23859781,
               -0.06404530 ,
               -0.05515421,     -0.24884300,     -0.06617732,      0.03400854,
               -0.03226487 ,
               -0.03815885,     -0.03470732,     -0.05109597,     -0.03309217,
                0.00828542   ,


                0.00816092,      0.22753173,      0.21124935,     -0.06212567,
               -0.14064148 ,
                0.22941726,      0.68164057,      0.53852695,     -0.10792351,
               -0.26909563 ,
                0.21536115,      0.51603782,      0.37458223,     -0.07020123,
               -0.14870499 ,
               -0.09904011,     -0.16581850,     -0.11470416,      0.01712991,
                0.03808340 ,
               -0.15410060,     -0.28683478,     -0.17910787,      0.00920061,
                0.03100516   ,


               -0.20279354,      0.22653747,      0.12341344,     -0.16422699,
               -0.02186280 ,
               -0.35308793,      0.43661433,      0.19997434,     -0.28279710,
               -0.03040917 ,
               -0.26400721,      0.33942306,      0.10411034,     -0.21318406,
               -0.02722149 ,
               -0.04699427,      0.04796807,     -0.00702983,     -0.03742062,
               -0.01323868 ,
                0.05054490,     -0.07813989,     -0.02203436,      0.03048049,
                0.02380896   ,


                0.17312828,      0.35144174,      0.22921352,      0.08382953,
                0.04055752 ,
                0.31452671,      0.27070755,     -0.02803561,     -0.07816182,
               -0.02422014 ,
               -0.06277667,     -0.25347161,     -0.36132750,     -0.20087348,
               -0.05389744 ,
               -0.08739677,     -0.17322814,     -0.13646410,     -0.01439779,
               -0.00712933 ,
                0.00554026,     -0.01933893,     -0.01062551,      0.02443778,
                0.01085041   ,


               -0.18803130,     -0.31874171,     -0.02917491,      0.04316685,
               -0.00352486 ,
               -0.40575284,     -0.36166811,      0.23635848,      0.26097143,
                0.08469651 ,
               -0.23796073,     -0.03512811,      0.41436771,      0.25419360,
                0.03506862 ,
               -0.06082566,      0.06379459,      0.18043269,      0.05024530,
               -0.01338348 ,
               -0.02904703,     -0.00090780,      0.03493675,      0.00151504,
                0.00789139   ,


                0.05848597,      0.13089600,      0.11507683,      0.00222399,
               -0.04928137 ,
                0.18266287,      0.35371599,      0.28070170,      0.04209506,
               -0.07264764 ,
                0.16911390,      0.32247323,      0.28665406,      0.05964844,
               -0.04981266 ,
               -0.01012221,      0.02885915,      0.04541032,     -0.01562848,
               -0.03003591 ,
               -0.06410740,     -0.08889587,     -0.06006247,     -0.03519035,
               -0.02028045   ,


                0.01960501,     -0.09923478,     -0.30692986,     -0.15008780,
               -0.02514658 ,
                0.26907408,      0.25256416,     -0.11705974,     -0.25116450,
               -0.14242376 ,
                0.28598550,      0.46267483,      0.23395653,     -0.07882306,
               -0.08252338 ,
               -0.02262808,      0.22639295,      0.22684267,     -0.00526399,
               -0.02882838 ,
               -0.13106059,      0.02521981,      0.10046092,     -0.03187585,
               -0.02974112   ,


                0.12928039,      0.15556647,     -0.16116787,     -0.17623678,
               -0.05214620 ,
                0.24225764,      0.23872761,     -0.22741309,     -0.20904937,
               -0.02360601 ,
                0.26744056,      0.16679689,     -0.26138821,     -0.15406799,
               -0.01939941 ,
                0.03577710,     -0.12389883,     -0.22017299,     -0.08386407,
               -0.01894889 ,
               -0.10182746,     -0.12209062,     -0.01514659,     -0.03130781,
               -0.01507838   ,


                0.32822683,      0.37904203,     -0.04563575,     -0.15349485,
               -0.07774809 ,
               -0.26416665,      0.26059419,      0.45552066,      0.06309424,
               -0.02675641 ,
               -0.07458293,     -0.36339694,     -0.02787516,      0.15860562,
                0.02190141 ,
               -0.07128558,     -0.09056698,     -0.12980674,     -0.03191340,
               -0.02193888 ,
               -0.04552579,     -0.06685103,     -0.07994536,     -0.03495625,
               -0.02032581   ,


                0.08402918,      0.23371379,      0.21906206,     -0.00736687,
               -0.11096901 ,
                0.29251090,      0.66404986,      0.52286333,      0.00680696,
               -0.17095539 ,
                0.25572962,      0.50109261,      0.38203573,      0.02500626,
               -0.11052825 ,
               -0.01811625,     -0.03332796,     -0.01446273,     -0.02639320,
               -0.02389948 ,
               -0.07952543,     -0.12715001,     -0.10647979,     -0.02469747,
                0.02913305   ,


                0.02678776,     -0.15801202,     -0.13426369,      0.08126780,
                0.08420888 ,
               -0.12076324,     -0.63694221,     -0.49377126,      0.16699341,
                0.25124681 ,
               -0.11097440,     -0.50446141,     -0.42284030,      0.06970382,
                0.19261523 ,
                0.06969891,      0.15786852,      0.06821370,     -0.04029651,
               -0.02033954 ,
                0.10489490,      0.28565687,      0.21177840,     -0.03275854,
               -0.07855188   ,


                0.09378592,      0.27954528,      0.22063833,     -0.07879243,
               -0.12869963 ,
                0.28378615,      0.76569456,      0.56104255,     -0.11786796,
               -0.23033167 ,
                0.19666560,      0.52394044,      0.38844109,     -0.04606215,
               -0.12587549 ,
               -0.11174800,     -0.15821612,     -0.07056576,     -0.02988606,
               -0.04037863 ,
               -0.14322823,     -0.25153840,     -0.13888314,     -0.03552639,
               -0.01179971   ,


               -0.07887293,     -0.19822751,     -0.18905091,     -0.02584395,
                0.04668438 ,
               -0.19062734,     -0.47410032,     -0.44532514,     -0.09599642,
                0.03018341 ,
               -0.19823858,     -0.41795379,     -0.33569062,     -0.08392106,
                0.00516585 ,
               -0.03509769,     -0.09247515,     -0.05223758,      0.01455868,
                0.03019489 ,
                0.04757516,      0.05279439,      0.04433019,      0.04243905,
                0.02894563   ,


               -0.12991394,     -0.25528041,     -0.20448647,     -0.06762137,
                0.02345497 ,
               -0.25649410,     -0.40074036,     -0.31102028,     -0.11652165,
               -0.02553922 ,
               -0.15966225,     -0.21600080,     -0.16120267,     -0.04631045,
                0.00206362 ,
               -0.02322291,     -0.02903536,     -0.01948047,      0.02281992,
                0.04062276 ,
               -0.01287323,     -0.04187290,     -0.03300982,     -0.00593193,
                0.01918081   ,


                0.10216881,      0.26123020,      0.17936012,     -0.02569779,
               -0.05461991 ,
                0.30587807,      0.72510773,      0.50896579,     -0.02784634,
               -0.12577425 ,
                0.22715671,      0.50827277,      0.35317519,     -0.02149685,
               -0.09453482 ,
               -0.03899500,     -0.08788775,     -0.08476691,     -0.02329115,
                0.00164741 ,
               -0.09119032,     -0.18253540,     -0.14278112,     -0.01287562,
                0.02790490   ,


                0.22903511,      0.36500269,      0.25233448,      0.05128259,
                0.00055021 ,
                0.20500623,      0.31640679,      0.14951609,      0.00862827,
                0.01863521 ,
               -0.08138654,     -0.31461221,     -0.36215073,     -0.13491538,
                0.00704037 ,
               -0.13467389,     -0.22369000,     -0.21579792,     -0.10566164,
               -0.03566441 ,
               -0.04633265,     -0.06306732,     -0.03495780,     -0.03366927,
               -0.01955686   ,


               -0.08094506,     -0.18603246,     -0.14755060,     -0.00460969,
                0.02965454 ,
               -0.17855521,     -0.33452460,     -0.29208323,     -0.05154898,
                0.01884756 ,
               -0.12371796,     -0.27767578,     -0.23758823,     -0.03819324,
                0.01814184 ,
                0.00922297,     -0.05492435,     -0.04387457,      0.01966236,
                0.02851314 ,
                0.03527835,      0.02457727,      0.01731128,      0.02592327,
                0.01584841   ,


               -0.09486362,     -0.18337882,     -0.15452458,     -0.03945260,
               -0.00579700 ,
               -0.20724747,     -0.27925694,     -0.23250692,     -0.12025926,
               -0.02065989 ,
               -0.14612205,     -0.22263972,     -0.19396059,     -0.08288207,
               -0.01995608 ,
               -0.05061571,     -0.11164092,     -0.07915730,     -0.03313320,
               -0.01034480 ,
               -0.01010145,     -0.02935011,     -0.01355372,     -0.00101462,
               -0.00626350   ,


               -0.02185594,      0.18728350,      0.20877884,     -0.07309743,
               -0.16228791 ,
                0.16377956,      0.80129445,      0.69585949,     -0.06143964,
               -0.23162004 ,
                0.20075704,      0.66308641,      0.54717308,     -0.02607515,
               -0.15367977 ,
               -0.07463568,     -0.10755330,     -0.06459200,     -0.03782088,
               -0.03137338 ,
               -0.17140581,     -0.25570023,     -0.18362090,     -0.04908211,
               -0.00542768   ,


                0.06963750,      0.22099258,      0.19667983,     -0.04967305,
               -0.11246803 ,
                0.26345050,      0.66420078,      0.52715081,     -0.07823119,
               -0.21946119 ,
                0.23769593,      0.55928093,      0.45439583,     -0.04930513,
               -0.13739440 ,
               -0.03058399,     -0.07411542,     -0.04870162,     -0.03522852,
               -0.01343576 ,
               -0.11842823,     -0.21949612,     -0.16444440,     -0.05317340,
               -0.02427801   ,


               -0.12673512,     -0.17802075,     -0.17168550,     -0.09239554,
               -0.02143288 ,
               -0.28650427,     -0.33238691,     -0.32135025,     -0.22828633,
               -0.01904502 ,
               -0.24197781,     -0.26187694,     -0.25545433,     -0.17027904,
               -0.01466843 ,
               -0.05380138,     -0.06145101,     -0.05517411,     -0.02401342,
               -0.01977442 ,
                0.03658190,      0.01554420,      0.02863520,      0.02954672,
                0.00476004   ,


               -0.09298250,     -0.22668351,     -0.17291571,     -0.03023858,
               -0.00408297 ,
               -0.23429903,     -0.28520986,     -0.23040865,     -0.12935500,
               -0.02912940 ,
               -0.19715762,     -0.26095894,     -0.20373547,     -0.11111481,
               -0.02132539 ,
               -0.04896833,     -0.14618056,     -0.10706688,     -0.01482295,
               -0.00464427 ,
               -0.00582264,     -0.03817861,     -0.03303035,     -0.00264174,
                0.00428597   ,


               -0.29925826,     -0.38167003,     -0.08841944,      0.02488827,
               -0.01494239 ,
               -0.33018222,     -0.04133147,      0.29029316,      0.23293653,
                0.07909533 ,
                0.01494097,      0.33611625,      0.38452268,      0.15261605,
                0.01434818 ,
                0.09292663,      0.20773919,      0.12837674,     -0.04834596,
               -0.05750749 ,
                0.01165554,      0.07033245,     -0.01248352,     -0.06236201,
               -0.06395552   ,


               -0.10867400,     -0.24245746,     -0.24612096,     -0.05504687,
                0.03047961 ,
               -0.23327656,     -0.14785376,     -0.21118316,     -0.22030011,
               -0.02143969 ,
               -0.18454912,     -0.18575904,     -0.22633106,     -0.10454545,
                0.01263877 ,
               -0.03980305,     -0.20642880,     -0.14745212,      0.02558527,
                0.04000981 ,
                0.01978038,     -0.01813738,      0.00224784,      0.03571384,
                0.01935186   ,


                0.00427123,     -0.41190135,      0.17564182,      0.01560281,
                0.06051622 ,
                0.35218117,     -0.44955444,     -0.09088035,      0.16662118,
                0.00300921 ,
                0.17949750,      0.27864704,     -0.41177708,      0.15272261,
               -0.01406118 ,
               -0.03744603,      0.20534100,     -0.14851017,     -0.04585250,
               -0.03526073 ,
                0.02572045,     -0.00428594,     -0.10653828,     -0.02430025,
               -0.02018306   ,


                0.09439266,      0.27346891,      0.21811086,     -0.01294235,
               -0.09249257 ,
                0.26060534,      0.60721380,      0.45542505,      0.02582073,
               -0.11135238 ,
                0.18726563,      0.43544674,      0.32877573,      0.01599598,
               -0.07479070 ,
               -0.05775423,     -0.03393220,     -0.00448231,     -0.05860797,
               -0.05463590 ,
               -0.10650820,     -0.15300111,     -0.09765948,     -0.05401830,
               -0.02384388   ,


                0.15110536,      0.32789680,      0.21211271,     -0.15086439,
               -0.18544351 ,
                0.33086473,      0.77461171,      0.53404129,     -0.23651540,
               -0.35655579 ,
                0.21570656,      0.53046632,      0.40980530,     -0.11300024,
               -0.22467682 ,
               -0.16919947,     -0.24192162,     -0.11703411,     -0.04862926,
               -0.03641129 ,
               -0.19925386,     -0.37029141,     -0.22869578,     -0.03750733,
               -0.01518634   ,


                0.06197194,      0.22695339,      0.21194378,      0.01382748,
               -0.05693492 ,
                0.17758366,      0.42633724,      0.38172549,      0.05433725,
               -0.10333202 ,
                0.12530395,      0.29203159,      0.27374238,      0.03457741,
               -0.07499038 ,
               -0.03644295,     -0.04060990,     -0.04534409,     -0.02496492,
               -0.00119506 ,
               -0.05976948,     -0.10530009,     -0.08544667,     -0.02677872,
               -0.00144424   ,


               -0.06671929,     -0.26522157,     -0.27399975,     -0.05189760,
                0.03746231 ,
               -0.24750292,     -0.46600664,     -0.43536666,     -0.17389311,
                0.01646783 ,
               -0.23444016,     -0.41919231,     -0.29913443,     -0.10538121,
                0.00936781 ,
               -0.04927710,     -0.15951334,     -0.10578992,     -0.00047613,
                0.02281088 ,
                0.01254480,     -0.00491770,      0.01804082,      0.04154312,
                0.01907783   ,


                0.06391919,      0.23234551,      0.19225551,      0.01505262,
               -0.05071082 ,
                0.19987534,      0.45244354,      0.34500921,      0.00902456,
               -0.10552040 ,
                0.19969714,      0.38923079,      0.26865378,     -0.00381556,
               -0.08443411 ,
                0.01795896,      0.06486664,      0.03500869,     -0.01198370,
               -0.03013258 ,
               -0.05089285,     -0.08577748,     -0.05883325,     -0.01483286,
                0.00716305   ,


                0.02644585,      0.14876845,      0.15287997,      0.02250343,
               -0.05783743 ,
                0.14940137,      0.39071849,      0.35580254,      0.08679143,
               -0.05281617 ,
                0.11991313,      0.30804342,      0.29117373,      0.05433947,
               -0.05500622 ,
               -0.01519081,      0.00865093,     -0.00261082,     -0.02768713,
               -0.03015125 ,
               -0.04626418,     -0.06027227,     -0.06104659,     -0.03487813,
               -0.00807865   ,


               -0.22641620,     -0.41002661,     -0.32291919,     -0.15073296,
               -0.04866532 ,
                0.22339931,      0.39111176,      0.34173334,      0.17171820,
                0.06474910 ,
                0.02399617,      0.01838493,      0.02081874,      0.02797027,
                0.03740527 ,
               -0.01342412,     -0.05941616,     -0.04257677,     -0.02092525,
               -0.00839877 ,
               -0.02908323,     -0.02807720,     -0.01704913,     -0.02060048,
               -0.01513679   ,


               -0.07728513,     -0.23677455,      0.30135301,      0.00015797,
               -0.09007275 ,
               -0.09681051,     -0.30735290,      0.50281155,     -0.03526329,
               -0.05730039 ,
               -0.04499401,     -0.22497052,      0.41737500,     -0.01606644,
               -0.04150458 ,
               -0.03276977,     -0.11812813,      0.18325481,     -0.00709148,
               -0.03800371 ,
               -0.06006821,     -0.06389289,      0.05012237,      0.03324661,
               -0.02803393   ,


               -0.43357545,     -0.28345111,     -0.26522893,     -0.22887787,
               -0.16846821 ,
               -0.20167343,     -0.01380060,     -0.00953236,     -0.22440927,
               -0.19347113 ,
               -0.22570913,     -0.01112421,     -0.00058007,     -0.20598669,
               -0.15456842 ,
               -0.30131122,     -0.24445239,     -0.18406013,     -0.13667558,
               -0.07973382 ,
               -0.21581936,     -0.16616219,     -0.15005048,     -0.04326744,
                0.00388698   ,


                0.02166158,      0.28982341,      0.28132811,     -0.02204123,
               -0.10790104 ,
               -0.03916419,      0.37386411,      0.44293040,      0.13777563,
               -0.00933674 ,
               -0.25992781,     -0.04015910,      0.23502468,      0.13422199,
                0.02353532 ,
               -0.25040641,     -0.27243853,     -0.04013997,     -0.02091326,
               -0.02594316 ,
               -0.09527335,     -0.14040639,     -0.07021327,     -0.02966645,
               -0.01978898   ,


               -0.28873500,     -0.40984598,     -0.32876647,     -0.18307051,
               -0.00775965 ,
               -0.12104121,     -0.23816271,     -0.24987058,     -0.16991222,
               -0.02508642 ,
                0.21149847,      0.27746341,      0.20047039,      0.06421879,
                0.00386836 ,
                0.15696675,      0.27726975,      0.24633259,      0.09094259,
               -0.01311892 ,
                0.03292064,      0.06859030,      0.05450842,      0.03886887,
                0.01164332   ,


                0.12811263,     -0.05025900,     -0.25474396,      0.15569450,
                0.04041930 ,
                0.16614424,     -0.53974950,      0.12640513,      0.13176306,
                0.06878284 ,
               -0.17557961,     -0.24076004,      0.36028543,     -0.00130228,
                0.02374384 ,
               -0.16287231,      0.14219393,      0.06447820,      0.03858437,
               -0.03438252 ,
               -0.09497557,      0.07600605,      0.03692749,      0.04120500,
               -0.01269916   ,


                0.01642123,     -0.36481598,     -0.01885921,      0.20884450,
               -0.02043121 ,
               -0.10634010,     -0.45229447,      0.55578095,      0.00679677,
               -0.00637233 ,
               -0.26800206,      0.26718161,      0.32895797,     -0.11337593,
                0.00236188 ,
               -0.07311180,      0.25362551,     -0.07592113,     -0.03733693,
               -0.03121251 ,
               -0.02302283,      0.06277151,     -0.01471139,     -0.06231126,
               -0.03073612   ,


                0.08972017,     -0.24427164,      0.13193882,     -0.03664869,
               -0.03623782 ,
               -0.22246468,      0.27854022,     -0.31319791,      0.04748074,
                0.00501750 ,
                0.09739517,     -0.28974956,      0.15090546,     -0.08827374,
               -0.03484685 ,
               -0.01046068,      0.02298960,     -0.07307675,     -0.04866787,
                0.03509722 ,
               -0.03529355,      0.01673061,     -0.02995205,      0.04563367,
               -0.05579967   ,


               -0.19762166,      0.09571946,      0.22873931,      0.02873711,
               -0.04134442 ,
               -0.28652215,     -0.03444147,      0.38110578,      0.19270624,
                0.03691470 ,
               -0.21602078,     -0.27352878,      0.20285970,      0.20346929,
                0.03496032 ,
               -0.06059049,     -0.20212021,      0.00623169,      0.10328907,
                0.00862394 ,
                0.00035782,     -0.14300635,     -0.02148721,      0.01708247,
                0.01948649   ,


               -0.09582553,     -0.25769407,     -0.23686436,     -0.04464993,
                0.02604778 ,
               -0.25546461,     -0.44565770,     -0.40877071,     -0.12706620,
                0.01023101 ,
               -0.17176080,     -0.37363407,     -0.34343553,     -0.07985185,
                0.01701801 ,
               -0.01725673,     -0.09743424,     -0.06804977,     -0.00336837,
                0.01727439 ,
                0.03179625,      0.02449435,      0.02244125,      0.02433855,
                0.01668269   ,


               -0.08291771,      0.31532320,     -0.13408603,     -0.10618643,
               -0.02982138 ,
                0.04192043,      0.42513105,     -0.47861230,      0.05275570,
                0.00948739 ,
                0.17177197,     -0.25744361,     -0.15264468,      0.09798178,
                0.02223275 ,
                0.09809060,     -0.24455218,      0.13039242,     -0.00502345,
                0.03907468 ,
                0.03819006,     -0.11882175,      0.02520182,      0.03212075,
                0.01551145   ,


                0.13770510,      0.23355371,      0.16674010,      0.01274339,
               -0.05229887 ,
                0.30116954,      0.50490212,      0.34834003,      0.04602387,
               -0.07852676 ,
                0.22766881,      0.39427650,      0.25160205,      0.03452553,
               -0.04888623 ,
                0.01221688,      0.01978899,     -0.00984913,     -0.02166022,
               -0.01800194 ,
               -0.06311970,     -0.09267718,     -0.07776921,     -0.04061077,
               -0.00660478   ,


               -0.08398863,     -0.20925803,     -0.15069364,     -0.00022719,
                0.02340435 ,
               -0.20894752,     -0.38073769,     -0.33460829,     -0.06726956,
                0.04036416 ,
               -0.17015205,     -0.31085700,     -0.28520676,     -0.08473841,
                0.02159570 ,
               -0.01747857,     -0.10219882,     -0.08571596,      0.00014034,
                0.00847019 ,
                0.03698222,      0.00887806,      0.00627379,      0.04410207,
                0.00398575   ,


                0.21228400,      0.08108123,     -0.22319253,     -0.19071378,
               -0.11612466 ,
               -0.15061130,     -0.46671924,     -0.24917994,      0.12102915,
                0.15930279 ,
               -0.29663631,     -0.00717620,      0.32235038,      0.25240719,
                0.09779665 ,
                0.06183492,      0.17463872,      0.12302933,      0.00530936,
               -0.04476264 ,
                0.03972862,      0.10076848,      0.00908484,     -0.04172187,
               -0.01144181   ,


               -0.11664832,     -0.27059135,     -0.16740575,      0.01557127,
                0.06058145 ,
               -0.28515282,     -0.56474096,     -0.35184675,     -0.00634414,
                0.09238948 ,
               -0.16545145,     -0.37105712,     -0.23481770,      0.01887033,
                0.07276558 ,
                0.03371512,      0.00208888,      0.02258552,      0.02858017,
               -0.00775385 ,
                0.07908587,      0.09726568,      0.07722595,      0.00668172,
               -0.02843555   ,


                0.13290872,      0.31077155,      0.21890128,     -0.01925716,
               -0.07985619 ,
                0.24845506,      0.59428138,      0.41059735,     -0.04491439,
               -0.15893744 ,
                0.13680698,      0.37668821,      0.25799027,     -0.05845721,
               -0.10597531 ,
               -0.03400457,     -0.01453490,      0.00382099,     -0.03692009,
               -0.01574391 ,
               -0.04945762,     -0.10699499,     -0.07516390,     -0.00660432,
                0.01014633   ,


                0.07543093,      0.27426982,      0.23268571,      0.00328720,
               -0.06105238 ,
                0.23635064,      0.56548584,      0.48215154,      0.06316597,
               -0.09807675 ,
                0.18882395,      0.48407927,      0.39422071,      0.02818635,
               -0.07148180 ,
               -0.00877898,      0.10412168,      0.09876296,     -0.03627845,
               -0.03228594 ,
               -0.07091485,     -0.07003930,     -0.04435964,     -0.04159364,
               -0.01473172   ,


                0.11338727,      0.26750353,      0.18415031,     -0.00682780,
               -0.06844855 ,
                0.28414702,      0.55178499,      0.37715802,      0.02633237,
               -0.11334459 ,
                0.22338751,      0.40760049,      0.26335886,      0.01624790,
               -0.06451944 ,
                0.00746862,      0.00882130,     -0.01674983,     -0.01748850,
               -0.00287258 ,
               -0.06620955,     -0.11029163,     -0.09374765,     -0.02705814,
                0.01085852   ,


                0.04550464,      0.21975781,      0.19972818,     -0.06111439,
               -0.11399904 ,
                0.21648891,      0.66481411,      0.56443405,     -0.06388576,
               -0.20219006 ,
                0.18373626,      0.56208092,      0.50872386,     -0.02960700,
               -0.16280657 ,
               -0.09101261,     -0.07695906,     -0.02158209,     -0.06804991,
               -0.06366785 ,
               -0.14282873,     -0.22211868,     -0.16210440,     -0.05731070,
               -0.01410219   ,


                0.08411925,      0.29567572,      0.24010079,     -0.03256749,
               -0.06850344 ,
                0.21776125,      0.56682724,      0.46075258,      0.01192565,
               -0.10373801 ,
                0.15211567,      0.39045817,      0.33569491,      0.02482436,
               -0.07591802 ,
               -0.01165426,      0.05101770,      0.07973418,     -0.03543124,
               -0.05504585 ,
               -0.05826195,     -0.06556701,     -0.01854149,     -0.04614942,
               -0.04063946   ,


                0.01520304,     -0.01978672,      0.00244452,      0.04726111,
                0.01989529 ,
               -0.04947704,     -0.14693588,     -0.14091748,      0.00610535,
                0.04199793 ,
               -0.17738935,     -0.28895864,     -0.23599815,     -0.06660476,
                0.02091885 ,
               -0.14673772,     -0.28567755,     -0.18899950,     -0.02391353,
                0.02277094 ,
               -0.05873855,     -0.08953497,     -0.05692704,     -0.02394847,
               -0.01237481   ,


                0.05740546,      0.19542876,      0.19962665,      0.01424161,
               -0.09177219 ,
                0.16697709,      0.42158577,      0.34504172,     -0.00006323,
               -0.12834625 ,
                0.14351358,      0.30631277,      0.21364133,     -0.00603281,
               -0.05718403 ,
               -0.00859655,     -0.02766764,     -0.01017297,     -0.01676928,
               -0.03932245 ,
               -0.06111750,     -0.09966381,     -0.05964828,     -0.03499368,
               -0.03519223   ,


               -0.31597948,     -0.41204739,     -0.40092507,     -0.23323613,
               -0.11069161 ,
                0.00742043,      0.03290746,     -0.00831124,      0.00143481,
                0.02942017 ,
                0.20904669,      0.25169018,      0.17388454,      0.11360093,
                0.09787384 ,
                0.08670628,      0.06791611,      0.02569649,      0.04467282,
                0.07216203 ,
                0.00592134,      0.03557623,     -0.00130702,     -0.00026590,
                0.02742836   ,


                0.27966529,      0.13940069,     -0.19657117,     -0.15153660,
               -0.06728745 ,
                0.37791878,      0.24128351,     -0.26289478,     -0.19703288,
               -0.05753227 ,
                0.33433527,      0.14616656,     -0.25704983,     -0.09910005,
               -0.00877289 ,
                0.13282099,     -0.00009190,     -0.14167865,     -0.04663123,
               -0.00007432 ,
                0.06051500,     -0.00316317,     -0.10180233,     -0.05662270,
               -0.04799593   ,


               -0.12247045,     -0.26121289,     -0.19363590,     -0.02201218,
                0.04214339 ,
               -0.26694685,     -0.49648258,     -0.40160674,     -0.09344114,
                0.02798495 ,
               -0.16444658,     -0.38291872,     -0.29277512,     -0.06991045,
                0.01451663 ,
               -0.01265561,     -0.06959471,     -0.06534371,      0.00576125,
                0.01864128 ,
                0.03115004,      0.04883300,      0.03909485,      0.01960922,
                0.02190672   ,


                0.22556308,      0.37034702,      0.30644211,      0.10711596,
                0.02768572 ,
                0.16340609,      0.31305420,      0.19529739,      0.07705736,
                0.02767733 ,
               -0.14327204,     -0.31541699,     -0.27101329,     -0.14915626,
               -0.03386952 ,
               -0.14272889,     -0.28524354,     -0.22966640,     -0.08963193,
               -0.05731314 ,
               -0.03038646,     -0.07900933,     -0.04935820,     -0.04745349,
               -0.03955735   ,


               -0.12239555,     -0.27421042,     -0.21082474,     -0.01813281,
                0.05358766 ,
               -0.22319072,     -0.53009665,     -0.45320857,     -0.07308779,
                0.06880493 ,
               -0.17288709,     -0.36291507,     -0.32748398,     -0.05637735,
                0.04958071 ,
                0.00205933,     -0.02417563,     -0.00458773,      0.04007769,
                0.03802239 ,
                0.06094691,      0.08763055,      0.07194669,      0.04450277,
                0.00820827   ,


               -0.24889839,      0.07311632,      0.18196879,     -0.12524906,
               -0.16861901 ,
                0.06069664,      0.77233022,      0.74152672,     -0.05439851,
               -0.30646458 ,
                0.11716031,      0.66791886,      0.63807905,     -0.06929264,
               -0.22559299 ,
               -0.15244408,     -0.10046157,     -0.06057612,     -0.07395932,
               -0.00333576 ,
               -0.16288763,     -0.27121794,     -0.19415149,     -0.03261834,
                0.01789886   ,


               -0.18251641,      0.27743700,     -0.03891172,     -0.13649505,
               -0.02544601 ,
               -0.24916895,      0.52053779,      0.04657618,     -0.11468548,
                0.00772580 ,
               -0.20835286,      0.43797645,      0.05647213,     -0.10367992,
                0.00863741 ,
               -0.11621109,      0.16456588,     -0.01484033,     -0.07139086,
               -0.01208130 ,
               -0.04434091,      0.06405215,     -0.02501042,     -0.05715531,
               -0.03760237   ,


               -0.04062733,     -0.16504522,     -0.13837850,      0.01484494,
                0.06035771 ,
               -0.18086822,     -0.31831044,     -0.25926545,     -0.07000677,
                0.02705572 ,
               -0.15545881,     -0.25483221,     -0.22757718,     -0.06761297,
                0.00562955 ,
                0.02129552,     -0.04449233,     -0.04939023,      0.04555464,
                0.05272089 ,
                0.06459584,      0.04344961,      0.03639003,      0.05139690,
                0.02937445   ,


               -0.01331865,      0.29044443,     -0.43647763,      0.02886855,
               -0.01947406 ,
                0.28641841,     -0.07149274,     -0.40419129,      0.23245449,
               -0.04385322 ,
                0.25141728,     -0.48672530,      0.24909367,      0.10964973,
                0.05099832 ,
               -0.07681148,     -0.17948714,      0.10034673,      0.00387677,
                0.04050332 ,
               -0.06315736,     -0.15580685,     -0.03184036,      0.01936496,
               -0.01419190   ,


               -0.11724297,      0.32386518,     -0.23206578,      0.01550384,
                0.00030540 ,
               -0.26376846,      0.73362929,     -0.56750333,      0.08099513,
                0.01432773 ,
               -0.19366050,      0.53769040,     -0.41795650,      0.06841219,
                0.01131906 ,
               -0.02355008,      0.12346056,     -0.11274601,     -0.00750784,
                0.01125104 ,
                0.03303875,     -0.00264944,      0.00411285,     -0.02935022,
               -0.00322098   ,


                0.07574833,      0.33355913,      0.27402109,     -0.09818371,
               -0.14539008 ,
                0.30479279,      0.80167812,      0.63301975,     -0.09996015,
               -0.25330347 ,
                0.23382266,      0.57934469,      0.43912858,     -0.06506897,
               -0.17018910 ,
               -0.11701904,     -0.14187998,     -0.09934224,     -0.05754405,
               -0.01447262 ,
               -0.14826281,     -0.26173192,     -0.18064514,     -0.03155503,
                0.02575065   ,


               -0.12028816,     -0.24032113,     -0.19883667,     -0.02443855,
                0.02608290 ,
               -0.21477675,     -0.33915162,     -0.30348971,     -0.06541998,
                0.01195160 ,
               -0.16584212,     -0.33925200,     -0.28716227,     -0.05040809,
                0.02489548 ,
               -0.08796832,     -0.22220540,     -0.17087667,     -0.02232393,
                0.01582122 ,
               -0.00821327,     -0.00973163,      0.00333060,     -0.01123418,
                0.00130154   ,


                0.09084127,      0.25381690,      0.19982292,     -0.02005770,
               -0.06861494 ,
                0.22032449,      0.45011127,      0.38114423,      0.01765892,
               -0.10908280 ,
                0.13932864,      0.32009661,      0.25986260,      0.01499344,
               -0.07335990 ,
               -0.01879392,      0.00140265,      0.01966576,     -0.00565373,
               -0.02414860 ,
               -0.06079103,     -0.07832268,     -0.04163262,     -0.02816045,
               -0.01867526   ,


               -0.10657637,     -0.44338119,     -0.16514446,     -0.03057633,
               -0.03689953 ,
               -0.43910187,     -0.44202194,      0.06444753,      0.17666684,
                0.05290057 ,
               -0.16778238,      0.00544894,      0.47744152,      0.25236180,
                0.04750175 ,
                0.00618699,      0.15536802,      0.27816474,      0.09108536,
                0.00165932 ,
                0.01236239,      0.04674005,      0.06625485,      0.00592086,
               -0.01445570   ,


               -0.10955693,     -0.42821160,     -0.33726206,     -0.08273008,
               -0.01703492 ,
                0.03979256,     -0.13543601,     -0.45064005,     -0.19102460,
               -0.08901556 ,
                0.32759082,      0.36781067,      0.11723936,     -0.01168465,
               -0.01930691 ,
                0.15525046,      0.34710816,      0.15823723,      0.04016845,
                0.00743743 ,
               -0.00285901,      0.10150491,      0.07721622,      0.01428169,
               -0.00434931   ,


               -0.07602913,     -0.29797110,     -0.24757288,      0.04450343,
                0.09720862 ,
               -0.28581649,     -0.67821610,     -0.56193674,      0.00865975,
                0.18044010 ,
               -0.21553351,     -0.49893957,     -0.38178843,      0.01197446,
                0.12936012 ,
                0.06413464,      0.06293163,      0.04138793,      0.05883984,
                0.03243305 ,
                0.10426663,      0.19099297,      0.13668658,      0.02795485,
                0.00416971   ,


                0.17411245,      0.19245490,     -0.28880608,      0.00956348,
               -0.01692101 ,
                0.08947060,      0.29070196,     -0.15854126,     -0.09323860,
               -0.01362196 ,
               -0.08126540,      0.17889427,      0.22992896,     -0.17971434,
                0.00560508 ,
               -0.05724103,     -0.10883892,      0.23396660,     -0.00276078,
               -0.01558271 ,
               -0.07040796,     -0.15773311,      0.10573169,      0.04450562,
               -0.04114440   ,


               -0.04017249,      0.19707111,      0.25717676,     -0.04211526,
               -0.14653566 ,
                0.09375095,      0.65411609,      0.70200455,     -0.01688484,
               -0.26660904 ,
                0.13159487,      0.55903274,      0.56315535,      0.02680699,
               -0.17278586 ,
               -0.06589440,     -0.08178651,     -0.02366302,     -0.00085448,
               -0.02281618 ,
               -0.14030308,     -0.23427656,     -0.16782495,     -0.03789188,
               -0.01306980   ,


               -0.12296222,     -0.33293080,     -0.21639636,      0.04904576,
                0.10963701 ,
               -0.33229402,     -0.78591436,     -0.53247517,      0.10157916,
                0.21985239 ,
               -0.23854540,     -0.55015391,     -0.34665605,      0.10406540,
                0.13968349 ,
                0.09427968,      0.14269213,      0.11720891,      0.01487494,
               -0.03534953 ,
                0.18030374,      0.28536189,      0.17330064,     -0.01429093,
               -0.01656036   ,


                0.05218282,      0.19742151,      0.16873561,      0.00891789,
               -0.05531587 ,
                0.22004783,      0.47049028,      0.38589373,      0.05987329,
               -0.10095458 ,
                0.19598831,      0.37595379,      0.30761603,      0.03442070,
               -0.09034670 ,
               -0.00819642,      0.01099475,     -0.00166651,     -0.02920368,
               -0.03447395 ,
               -0.08415401,     -0.15283744,     -0.11967411,     -0.01984262,
                0.00775808   ,


                0.17154555,      0.30432606,      0.16778611,     -0.01709500,
               -0.03331446 ,
                0.31396255,      0.65982395,      0.46239120,      0.00346684,
               -0.09453294 ,
                0.20181681,      0.49730885,      0.41504261,      0.01934599,
               -0.09829403 ,
               -0.04420403,      0.01062030,      0.03806758,     -0.02597910,
               -0.06188575 ,
               -0.05122210,     -0.12121593,     -0.11815153,     -0.05872191,
               -0.02855959   ,


                0.08157428,      0.18968935,      0.20247953,      0.01048112,
               -0.09299630 ,
                0.21660046,      0.41266733,      0.38888651,      0.06228340,
               -0.09265205 ,
                0.16693224,      0.30387098,      0.26860148,      0.05054160,
               -0.05784380 ,
               -0.01750894,     -0.01491182,      0.00940876,     -0.02616522,
               -0.05529922 ,
               -0.06613695,     -0.09999184,     -0.07589324,     -0.04218688,
               -0.01309079   ,


               -0.07086921,      0.07572206,      0.35313135,      0.08151165,
               -0.05402044 ,
               -0.36730507,     -0.11688759,      0.40668017,      0.29482737,
                0.03434205 ,
               -0.27474076,     -0.48488167,      0.13245553,      0.15862213,
                0.04915874 ,
               -0.06739768,     -0.22948010,     -0.07697711,      0.03577302,
                0.00077043 ,
                0.00330051,     -0.06956817,     -0.03781470,     -0.01343894,
                0.00171532   ,


                0.18385889,      0.23883453,      0.02806712,     -0.08993541,
               -0.04049233 ,
                0.31922027,      0.35907620,     -0.18286172,     -0.22268015,
               -0.11208975 ,
                0.26268363,      0.13508497,     -0.33139262,     -0.27440068,
               -0.05312932 ,
                0.07742540,      0.01815974,     -0.20712808,     -0.11554506,
               -0.03717069 ,
                0.02356835,     -0.02205083,     -0.04700398,     -0.05173481,
               -0.04366646   ,


               -0.11637361,     -0.27277204,     -0.22040823,     -0.04820311,
                0.00041272 ,
               -0.23020792,     -0.37162048,     -0.34153849,     -0.13509691,
               -0.02338831 ,
               -0.17151801,     -0.32049695,     -0.24715957,     -0.08543944,
               -0.00306522 ,
               -0.03762448,     -0.12408590,     -0.08463373,      0.00261412,
                0.02042581 ,
               -0.00147736,     -0.00056607,      0.00378774,     -0.00170657,
               -0.00993748   ,


               -0.04240874,     -0.32310623,     -0.14347817,     -0.00419916,
               -0.04374020 ,
                0.42521742,      0.44338495,     -0.07214794,     -0.21555625,
               -0.09543689 ,
               -0.27842140,      0.17898645,      0.46783513,      0.10664814,
               -0.00281673 ,
                0.00628573,     -0.22505674,     -0.10751782,      0.02953549,
                0.00468218 ,
               -0.06187913,     -0.03635441,     -0.02454519,     -0.01745973,
               -0.02262850   ,


               -0.07908652,     -0.27323198,     -0.18006711,      0.02356315,
                0.05562537 ,
               -0.23710702,     -0.41215840,     -0.33974135,     -0.05095628,
                0.02190198 ,
               -0.14623727,     -0.30443630,     -0.24802682,     -0.01136413,
                0.00905988 ,
                0.05446310,     -0.03049335,     -0.02356434,      0.04453333,
                0.04051226 ,
                0.06835604,      0.04483421,      0.03901075,      0.03553203,
                0.02172298   ,


               -0.10409215,     -0.29068881,     -0.24767305,     -0.02981996,
                0.06553330 ,
               -0.29120201,     -0.50185037,     -0.39439902,     -0.10938149,
                0.05111232 ,
               -0.20078401,     -0.40187424,     -0.35670248,     -0.09262346,
                0.02568615 ,
               -0.03749718,     -0.13889436,     -0.08101510,      0.00938306,
                0.00131528 ,
                0.03808381,      0.02898278,      0.04204258,      0.02828886,
                0.00298119   ,


               -0.12303189,     -0.22921228,      0.22764844,      0.17432156,
               -0.02916638 ,
               -0.33362666,     -0.34078595,      0.41676626,      0.27404496,
               -0.08521245 ,
               -0.28144875,     -0.27263489,      0.35992000,      0.18429486,
               -0.06375622 ,
               -0.08573098,     -0.09614538,      0.11770573,      0.05188611,
               -0.01793507 ,
                0.01925648,      0.00454450,      0.00116701,      0.00227764,
               -0.00345140   ,


                0.05487233,      0.16298725,      0.13692501,      0.01089839,
               -0.05728878 ,
               -0.28395471,     -0.53788716,     -0.37597165,     -0.15130346,
               -0.04335710 ,
                0.17782833,      0.33101135,      0.29159895,      0.11630595,
                0.02125216 ,
                0.07413935,      0.03890581,      0.05058077,      0.02397140,
                0.01703041 ,
               -0.01303090,     -0.06140595,     -0.01770404,     -0.01090455,
                0.00083786   ,


                0.18711156,      0.22635053,      0.02276932,     -0.11771246,
               -0.04548485 ,
                0.33629948,      0.35859668,     -0.04733130,     -0.25126499,
               -0.08404573 ,
                0.18932180,      0.18559957,     -0.03957341,     -0.20584346,
               -0.09951714 ,
                0.02977326,      0.02071136,     -0.04286637,     -0.05870315,
               -0.02917472 ,
                0.02472552,      0.00259215,     -0.05236626,     -0.03614628,
               -0.01177454   ,


               -0.17196026,     -0.33546096,     -0.17514971,      0.00706852,
                0.05296660 ,
               -0.31547451,     -0.50702661,     -0.37727314,     -0.13253753,
                0.01406385 ,
               -0.19051780,     -0.35968524,     -0.34530282,     -0.11982808,
                0.00227798 ,
               -0.02781720,     -0.14119932,     -0.11743062,     -0.01523687,
                0.01872537 ,
                0.05407313,      0.00079242,     -0.01756768,     -0.00111832,
                0.00095037
};

// Parameters for BN in Depthwise layer 
// Weight shape =  torch.Size( 144 )

extern float MBConv6_3_depthwise_conv_BN_weights  [144]  = 
{
1.33057296,  0.89640588,  2.61087537,  2.35578656,  5.89570951,
         1.55217159,  3.50869179,  2.04993463,  1.59450078,  1.09290791,
         1.39528108,  1.83646190,  1.79405832,  1.59815931,  1.43073857,
         1.53261793,  1.70716655,  1.44145405,  1.54318440,  2.44242835,
         1.20077336,  1.10868740,  2.55573750,  3.28899789,  3.25535846,
         3.11917615,  1.31513524, -1.14072609,  1.36678934,  1.32228971,
         1.19780862,  2.33108854,  2.23429942,  1.78743339,  2.23721290,
         2.75230241,  2.05777311,  1.22148502,  1.61541569,  2.60373569,
         1.43289244,  2.65947390,  3.69612408,  2.43375349,  1.25207615,
         1.40152955,  2.10937595,  1.08429205,  3.66310406,  1.04612708,
         1.38391185,  1.48913741,  2.39687657,  2.54892683,  3.85199189,
         0.89083445,  2.68643165,  2.05696464,  2.49305749,  2.18298769,
         1.38271606,  2.28039074,  2.20246530,  2.58694673,  0.96626163,
         3.11706519,  3.07553315,  2.50701261,  1.90678179,  1.17743790,
         1.68285656,  1.10045779,  1.77501810,  1.64191544,  2.74181724,
         1.61276209,  2.50142431,  2.01773810,  1.68154621,  2.20321083,
         3.50636744,  3.06481385,  2.01105309,  2.61249614,  1.54617071,
         2.14717078,  1.09275031,  1.70399320,  1.27582943,  1.15822434,
         3.20856047,  2.18463254,  2.47581506,  3.06724787,  2.09504223,
         3.13084173,  2.35164905,  2.95535874,  2.44194078,  2.11351895,
         2.89620686,  1.36067140,  1.82562578,  3.24210763,  1.25953758,
         1.38366485,  1.68295717,  1.36475384,  1.44614065,  1.70612144,
         1.22540677,  1.29729140,  2.25609541,  2.61773515,  1.03450155,
         2.98771906,  1.03495038,  1.77057707,  1.99987841,  0.80125803,
         2.69000602,  3.53512144,  1.54558432,  3.29337120,  1.16294467,
         2.70430970,  2.94860721,  1.40650630,  2.92787623,  1.53902483,
         1.42822111,  1.55764461,  1.75690269,  1.30092418,  2.81036162,
         2.91819334,  2.13700819,  2.40235734,  1.58087552,  1.25487518,
         2.42429709,  2.99667144,  3.32297826,  1.83784747
};

extern float MBConv6_3_depthwise_conv_BN_bias  [144]  = 
{
		 0.76209682,      3.44291425,     -0.36692908,     -0.45477653,
            -2.75990582,      2.52677536,     -0.48017928,     -0.64285100,
             1.43410170,      2.86305499,      0.67982846,      3.55176568,
             1.50075424,      2.20419621,      4.43549061,      2.52992344,
             0.87555134,      2.33642197,      3.12658262,      0.12126971,
             2.87318993,      1.71365130,     -1.02544403,     -0.48217154,
            -0.47278163,     -0.78344327,      2.64556217,      3.65368152,
             2.72152615,      2.10677528,      2.58537364,     -0.44298181,
            -0.64142090,     -0.90505499,     -0.75789475,     -0.13941149,
             3.19709730,      0.58901787,      7.42013979,     -0.83560240,
             3.30343843,     -0.51942676,     -0.47484139,     -0.52124590,
             3.00441837,      2.92996907,      0.43660262,      2.42747641,
             0.19198731,      2.67708874,      3.81369042,      3.50543594,
            -0.30397201,     -0.67659885,     -1.75741553,      1.78734589,
            -0.70955795,     -0.38611114,      0.00066877,     -0.77920014,
             3.15926194,     -0.88937372,     -0.36618090,     -0.47763616,
             2.66620755,      0.11123123,     -1.17265618,     -0.40687880,
             3.18067241,      6.17557240,      2.97430348,      2.09146142,
             0.51234841,      3.18185592,     -0.44828209,      0.61253697,
            -0.77594036,      2.12746668,      2.81797218,      0.37858486,
            -1.85027957,     -0.17669398,      0.25847653,     -0.06333694,
             4.89375639,      2.13682389,      1.87460971,      0.75687307,
             2.78131247,      2.89283013,     -0.53247464,     -0.80344391,
             0.44644469,      0.01573525,     -0.37518385,     -0.58859289,
            -0.55819070,     -1.53179157,     -0.49907312,      0.99799520,
            -0.48220181,      3.66013551,      1.76727581,     -0.48708209,
             1.26941299,      2.63567328,      3.39228892,      3.79768372,
             2.26457381,      3.68246269,      2.92433953,      1.56800735,
            -0.80238444,     -0.46659696,      2.05431533,     -0.51147223,
             2.44462633,      2.90345430,     -0.82778943,      2.58826613,
             0.02860919,     -0.32363844,      4.55810118,     -0.46572727,
             2.72951818,     -0.24709396,     -0.32945678,      8.89900780,
            -0.57249528,      2.14152288,      5.18139219,      2.29946780,
             1.66894555,      2.31649399,     -0.59506112,     -0.23844235,
             1.29178739,     -0.88687706,      1.28594255,      6.18159008,
            -0.84821731,     -0.62346935,     -0.20977378,      0.67378199
};


extern float MBConv6_3_depthwise_conv_BN_mean  [144]  = 
{
	-0.94619250,     -0.14560369,     -0.00619967,      0.12947038,
            -3.06385612,      0.81051755,     -0.03275869,     -0.01082376,
             0.01602156,     -0.64426267,     -0.22755021,     -0.16560972,
             0.82426047,     -0.15957579,      1.34541857,      0.16609858,
             0.22875644,     -0.01685015,      0.02560250,     -0.00498909,
            -0.27370408,      0.00480462,     -1.10014653,     -0.22820118,
            -0.12735501,     -0.51255208,     -0.54973978,     -4.40622234,
            -0.00595957,     -0.11827879,     -0.31644484,      0.08920473,
            -0.01848266,     -5.15574884,      0.02722719,     -0.04259804,
            -0.06892706,     -9.37431240,     -0.05814204,     -0.03602678,
             0.86236477,      0.00851849,      0.00033735,     -0.11231503,
            -0.38812038,     -0.29827195,     -0.77659088,     -0.21249022,
            -0.00209024,     -0.24914184,      0.55209553,      2.33790517,
            -1.55224633,      0.00438538,     -1.67486954,     -0.28483528,
             0.00063715,     -0.69499660,      0.05126773,      0.10032533,
             0.06549115,     -0.06875494,     -0.00042366,     -0.00036409,
            -0.28171176,      0.04251224,      0.06177185,      0.02479558,
             0.25118238,     -0.44775116,      0.12101704,      0.48663950,
            -4.05462456,      0.60255158,     -0.05958521,      0.06633367,
            -0.79934365,      0.29254991,     -0.10845192,     -0.44306481,
            -1.29558110,      0.04284502,     -1.58305264,      0.00343703,
             1.40108156,      0.09681018,     -0.22523019,     -4.33937073,
             0.06729217,     -0.24043527,     -0.00031146,     -0.12533979,
           -24.47395325,      0.06248636,     -0.11446357,     -0.00016259,
             0.03592742,     -1.68751538,      0.00168737,     -0.31885803,
            -0.29390985,     -0.06906886,     -0.56804377,     -0.00218717,
            -1.96222663,      0.97670162,     -0.52340114,      1.51168799,
            -0.23110455,     -0.34825027,      0.30389175,     -0.01816536,
            -0.00407356,     -0.00016643,     -7.67555857,     -0.02212648,
             0.14898565,      0.17783312,      0.20279515,      0.24082837,
            -0.18393488,     -0.03045553,      0.86422217,     -0.36692178,
            -0.34764341,     -0.00389285,     -0.00712238,     -1.23934960,
             0.01641267,      0.43283385,      0.02531503,      0.10828959,
             0.50336999,     -0.31776509,     -0.13142805,     -0.06247080,
            -0.35690072,     -0.01409583,     -0.17402366,     -0.20134169,
            -0.15516794,     -0.01723228,      0.01581907,     -4.09028292	
};


extern float MBConv6_3_depthwise_conv_BN_variance  [144]  = 
{
0.69378632,     0.54000050,     0.01121006,     1.58022892,
           12.50687027,     1.41226065,     0.07952804,     0.01981830,
            0.41356742,     2.64465523,     0.18202433,     0.18951012,
            3.49434781,     0.21058260,     0.46693140,     0.76535344,
            0.24874923,     0.52203971,     0.44435632,     0.13930811,
            0.03858709,     0.08093942,     1.37222469,     1.61960483,
            2.29071259,     4.51823330,     0.01709048,     1.46965730,
            0.14760886,     0.46636271,     0.02964867,     1.14421690,
            0.02544176,     2.81456542,     2.68024039,     0.27943027,
            0.30001080,    10.79548073,     1.01955330,     0.55208522,
            1.78495443,     0.04366852,     0.04099442,     1.39255035,
            0.03971396,     0.02842999,     1.46929479,     0.43733233,
            0.08049044,     0.06046671,     0.94706130,     7.26833010,
            2.88459492,     0.00225444,     3.01818109,     0.01305734,
            0.00932407,     0.74029374,     0.19825949,     0.96767431,
            0.06389969,     0.25579607,     0.00394305,     0.00357102,
            0.02818461,     0.15461029,     0.11719291,     0.66491342,
            0.81804091,     1.20331883,     0.20526227,     0.01823530,
           10.07252789,     0.60708362,     0.16714072,     0.19425780,
            0.89922911,     0.71276903,     0.26046532,     1.37395048,
            1.78373563,     0.10216545,     4.18398762,     0.00813640,
            1.62171102,     0.43327212,     0.16007844,    12.02593231,
            0.21412921,     0.04112281,     0.01422517,     3.34158611,
           15.77398968,     0.20872356,     0.43889949,     0.00361225,
            1.45838785,     3.88272905,     0.00809547,     1.59449065,
            1.26937628,     0.06319639,     2.27314997,     0.04422802,
            2.11929917,     1.27238321,     0.02909538,     1.90244174,
            0.14218435,     0.04875316,     0.04263532,     0.17053226,
            0.00945939,     0.00537398,     2.38111234,     0.05395367,
            0.07421019,     0.34559867,     2.12440300,     0.03925228,
            0.61574572,     3.97804379,     2.00687790,     0.98828393,
            0.02804865,     0.01060871,     0.01413064,     2.63858056,
            0.06290797,     1.14408934,     0.08651590,     0.61311841,
            2.37120128,     0.02231072,     0.23605134,     0.17559187,
            1.82928371,     1.16107273,     1.17554235,     0.67438090,
            2.02946115,     0.06153965,     0.01443382,    10.45330906
};


