
// weight for Expansion Convolution layer has dimension of torch.Size([1, 1, 144, 6])
float MBConv6_3_squeeze_excitation1_conv2d_weights [1 * 1 * 144 * 6] =
{
-0.05665060,      0.02287704,      0.14802037,     -0.01809718,
               -0.00379736,     -0.11513733,     -0.07253525,      0.02291075,
                0.04364984,      0.00802061,     -0.20516679,      0.18693121,
                0.01095291,     -0.03167980,      0.03349166,     -0.04171713,
               -0.12630899,     -0.03626977,     -0.04738412,      0.02432898,
               -0.08809586,      0.00245316,      0.01818639,     -0.02450352,
               -0.11893668,      0.04173123,     -0.01868534,      0.05586386,
               -0.02282282,     -0.17950501,      0.04746462,     -0.02886336,
                0.03322854,      0.02049403,     -0.01799733,      0.01531972,
               -0.39467975,     -0.08743803,      0.05546616,     -0.00879505,
                0.02558281,      0.03937430,     -0.09536126,      0.01261321,
               -0.07192478,      0.05585285,     -0.05232706,     -0.12474199,
                0.02747535,     -0.00233828,     -0.17056815,     -0.00889273,
               -0.04967379,      0.05236953,      0.02602302,      0.03988536,
               -0.00943828,     -0.08048649,      0.03277916,      0.00768621,
               -0.03550079,      0.11039651,      0.05105032,      0.10395306,
               -0.19372810,     -0.09865011,     -0.03648993,      0.01099206,
                0.03420039,      0.13406512,     -0.20575161,      0.05920488,
                0.01105352,      0.01617610,     -0.01389797,     -0.06649145,
                0.07157519,      0.00981858,     -0.05281070,     -0.06562312,
                0.01928773,     -0.04696837,      0.03123807,      0.00726730,
               -0.00399143,     -0.08535955,      0.03259160,     -0.00825512,
               -0.05701697,     -0.09221547,     -0.11889530,      0.01080194,
                0.06022375,      0.07023275,      0.06612253,     -0.01237666,
               -0.02466913,     -0.07275663,      0.01313471,     -0.02147126,
               -0.01366037,     -0.01913833,     -0.12249298,      0.04343166,
               -0.05864388,     -0.02928690,     -0.10280222,     -0.10251640,
               -0.06011626,     -0.19368261,      0.00229678,      0.12380835,
                0.03838711,      0.00602733,      0.00258493,     -0.05267644,
                0.06710637,      0.11388699,      0.02695885,      0.02019488,
                0.00763254,     -0.03870533,      0.05992157,     -0.00113042,
               -0.00858308,     -0.02723151,     -0.07456335,      0.00323503,
                0.02407937,     -0.08016228,      0.13725048,      0.04783346,
                0.01535848,      0.13642797,      0.03849833,      0.04709654,
               -0.05956740,     -0.02532939,     -0.06864764,      0.02832077,
                0.07503351,     -0.08100515,     -0.09123298,      0.00184320,
               -0.02805826,     -0.00043046,     -0.05057065,     -0.00225396,
                0.10479140,     -0.13009061,     -0.11657812,      0.03831154,
                0.04679953,      0.02199777,      0.08189988,      0.10963181,
                0.01133091,     -0.04879984,      0.00791308,      0.00773843,
               -0.06756621,     -0.04935878,     -0.12164664,     -0.02256542,
                0.11462319,     -0.01231485,     -0.07642136,     -0.14437409,
               -0.07339249,     -0.04285171,      0.00867242,     -0.03906417,
               -0.03409453,      0.00665144,      0.01467942,     -0.04914108,
                0.04474588,     -0.35420018,      0.03882574,      0.03941724,
                0.00572430,      0.07089362,     -0.02172977,      0.00968102,
                0.01657846,      0.04415197,      0.03600325,     -0.01754637,
               -0.06513530,     -0.00051288,     -0.05595076,      0.08486946,
                0.06544717,     -0.03854923,     -0.70095927,     -0.14004183,
               -0.17168067,      0.01065780,      0.19590664,      0.04590982,
               -0.01980287,      0.02295553,      0.09356039,      0.04164654,
                0.01621645,      0.09032515,      0.05224291,     -0.12950170,
                0.02316662,      0.01457474,     -0.06988511,      0.00112523,
                0.00635640,     -0.01476055,     -0.08837046,      0.10075501,
                0.08899152,      0.05683536,     -0.08584607,     -0.17270406,
                0.01093059,      0.04806441,      0.04577952,     -0.18978168,
               -0.07374217,      0.08423427,      0.00337319,      0.00712155,
               -0.01384933,     -0.14371002,      0.00434067,     -0.01482376,
               -0.09980722,      0.05745599,     -0.06106395,      0.00471758,
                0.03109405,      0.14530174,      0.10980905,      0.03209772,
               -0.02429539,     -0.65716070,     -0.02794957,     -0.03349319,
                0.02941586,      0.07240859,      0.06222756,     -0.00569435,
               -0.01125755,     -0.23628071,     -0.00244289,     -0.01915041,
                0.01941288,      0.06654400,     -0.03233678,     -0.11471424,
               -0.01141475,      0.00338996,     -0.08825437,      0.06986018,
               -0.00227153,     -0.16534850,      0.02441460,     -0.05599889,
               -0.01197732,     -0.18404503,      0.11658714,      0.01694496,
                0.04942026,      0.03185789,      0.01339653,      0.10914075,
                0.11966818,     -0.05694968,      0.02577868,      0.01194170,
                0.03026957,     -0.05326372,      0.12429730,      0.12329035,
                0.05091463,     -0.01594191,     -0.00281377,     -0.03141182,
                0.10677231,     -0.05500935,     -0.00522987,      0.01599554,
                0.00376544,      0.01554813,     -0.02014227,     -0.01671685,
                0.01393527,     -0.36533961,      0.00171888,      0.02233035,
               -0.02162340,     -0.02366345,     -0.07170828,      0.06830567,
                0.00399850,     -0.17769890,      0.12764008,      0.08043832,
               -0.05700961,     -0.02344435,     -0.01303232,      0.03078596,
                0.06878598,     -0.04917905,      0.01978267,      0.00781432,
               -0.00437200,     -0.01182005,      0.04443844,      0.01502939,
               -0.00641369,      0.11554658,     -0.06589734,     -0.00128489,
                0.01884290,     -0.02264644,     -0.04218427,     -0.06296076,
               -0.03630215,     -0.01854116,     -0.00498266,     -0.04456498,
                0.03323113,      0.05968194,     -0.08478676,     -0.00177160,
                0.02588845,     -0.07928355,      0.15305297,     -0.08878382,
                0.06255180,     -0.28393006,     -0.01369866,      0.01008281,
                0.02360919,     -0.09350078,      0.02103326,      0.11530048,
               -0.04355556,     -0.00118027,      0.06232499,      0.03000756,
                0.10236204,      0.04608670,     -0.00370024,      0.04725506,
               -0.18827169,     -0.02263407,     -0.05176286,      0.03163986,
                0.02342761,      0.17258509,      0.29427084,     -0.06926751,
               -0.09549581,      0.05205346,     -0.03530480,     -0.04161644,
                0.16746292,     -0.06349482,     -0.00223434,      0.01292338,
               -0.05214526,      0.06326543,     -0.10007648,     -0.01153450,
                0.11945852,     -0.17003167,     -0.00496679,     -0.04936229,
               -0.02883921,      0.02925256,     -0.08786232,     -0.02320029,
               -0.01300256,      0.05093331,     -0.03914055,     -0.02126365,
                0.00352647,      0.09089104,      0.02795914,      0.00240059,
               -0.03205697,     -0.08846845,     -0.10326427,      0.03411485,
                0.02837264,     -0.05579288,      0.05465648,     -0.16240272,
               -0.32288215,     -0.04289849,     -0.06069687,      0.00274273,
               -0.01127000,      0.01885984,      0.00247643,     -0.04924091,
               -0.02881721,      0.05181884,     -0.01860740,      0.07778961,
                0.01771308,      0.01719442,     -0.22343732,     -0.02611319,
               -0.22532782,     -0.17157534,     -0.20001516,      0.01126910,
               -0.06078560,     -0.05703217,     -0.04043338,      0.01759673,
                0.02861866,     -0.02412733,     -0.12923391,     -0.11218912,
               -0.06432461,      0.02988390,      0.12316512,     -0.01101252,
                0.00452627,     -0.06621780,     -0.06801408,      0.04174723,
               -0.01664116,     -0.00141692,     -0.02693997,      0.02798142,
               -0.03539984,     -0.15385099,      0.07601790,      0.01155310,
               -0.11636218,     -0.00023478,     -0.00626451,      0.03901831,
                0.05819862,     -0.18571910,     -0.05981834,      0.01076491,
               -0.09157155,      0.00155636,      0.09400685,     -0.02239051,
                0.00921368,     -0.02437980,     -0.03444009,      0.02498052,
               -0.03243870,     -0.04768180,      0.05483976,     -0.04363001,
                0.00047299,      0.00568699,     -0.01844886,      0.02325726,
                0.01512871,      0.03466697,     -0.03591954,     -0.07209242,
               -0.11441534,      0.01684963,     -0.03098376,      0.01786610,
               -0.00253657,      0.04244686,      0.06912252,      0.00694977,
               -0.02111400,      0.04422483,      0.10061506,     -0.05225481,
                0.08098018,     -0.11643998,      0.00308561,      0.02683932,
                0.04088051,     -0.03196868,     -0.00281087,      0.03094237,
               -0.00125222,      0.06643356,     -0.06248609,      0.02573285,
                0.10472851,      0.02669240,     -0.00773755,      0.01213131,
               -0.03371314,     -0.02686260,     -0.05234270,      0.04867477,
               -0.06284613,      0.16702288,      0.36318398,     -0.01587265,
                0.03211933,     -0.03660493,     -0.01216067,      0.03249789,
                0.14581551,     -0.15202221,      0.00613694,      0.00019954,
               -0.04315632,     -0.05622141,     -0.11457764,      0.00242060,
               -0.24956357,     -0.35659871,     -0.03780272,     -0.06815240,
               -0.05844652,      0.02599242,      0.07730809,     -0.03657844,
                0.10386796,     -0.04517083,     -0.02507569,     -0.03423719,
                0.03195513,      0.03238349,      0.05321508,      0.08122551,
               -0.02289756,     -0.01165915,      0.06319016,     -0.04445786,
               -0.01302527,      0.06799505,     -0.01239963,      0.13562594,
               -0.12956174,      0.01311820,     -0.10243412,     -0.09350972,
               -0.03619675,      0.00055658,     -0.05098129,      0.02207041,
               -0.07669721,      0.00615353,     -0.02476890,      0.01508731,
               -0.00395756,      0.01575264,     -0.07038706,     -0.00852431,
               -0.11965781,     -0.08678488,     -0.08406727,     -0.03908446,
               -0.01649463,     -0.01242512,     -0.08097377,      0.07985344,
                0.04014940,     -0.13866173,     -0.00625845,     -0.03536382,
                0.03232686,      0.04698294,      0.24021211,      0.01153775,
                0.02668835,      0.05229878,      0.01219382,     -0.10498248,
                0.00852951,      0.01676641,     -0.06881453,      0.01424895,
                0.14441963,     -0.11766868,      0.04877565,      0.02484601,
               -0.06996962,      0.01745992,      0.07728814,     -0.02523659,
               -0.02089994,      0.01058642,     -0.00010989,      0.00262081,
                0.00898635,     -0.00290922,      0.02184001,     -0.00941989,
               -0.04004428,     -0.02437533,     -0.10662556,      0.02227412,
                0.01727524,     -0.02485353,     -0.05113573,     -0.01097216,
               -0.00056704,      0.10241448,     -0.05849761,      0.00978462,
                0.03446054,     -0.06609219,     -0.01740557,     -0.09314683,
               -0.00394417,     -0.14208139,      0.02075267,     -0.01003292,
                0.02668206,     -0.00970413,      0.00480078,      0.00386808,
                0.01975613,      0.03372571,     -0.05840355,      0.02226186,
                0.00772154,     -0.11380456,     -0.16380441,     -0.00794294,
               -0.04775876,     -0.06580590,      0.01933455,      0.13358438,
               -0.00127846,     -0.02972865,      0.00481298,     -0.00296047,
                0.12443569,      0.05298816,      0.00629516,     -0.06197175,
               -0.00319433,      0.02576402,     -0.09367023,      0.00190463,
                0.08150683,      0.03888543,      0.11710531,      0.05514429,
                0.00325203,     -0.15852542,     -0.00925858,     -0.05118605,
                0.02406028,     -0.15961115,     -0.03389927,     -0.00219509,
                0.00008739,      0.01238603,     -0.04312943,     -0.00302702,
               -0.21068998,      0.04440656,      0.00158439,     -0.06956621,
               -0.01955604,     -0.02719250,      0.07843537,      0.02320061,
                0.11812865,      0.01609671,      0.04880422,     -0.02371057,
                0.02174030,      0.02662176,      0.01616918,      0.06526139,
               -0.03641798,     -0.08625619,      0.05249447,      0.00147187,
                0.01035724,     -0.20050886,      0.02976382,      0.00344527,
               -0.10155347,      0.00908307,     -0.05930793,     -0.16546632,
                0.03265813,      0.04489412,      0.12271257,     -0.01130242,
                0.00386526,     -0.06751167,      0.01571410,      0.05198196,
                0.01394140,      0.04917111,      0.04392619,     -0.02237553,
               -0.08102715,     -0.05775989,     -0.06894741,     -0.10816266,
               -0.04610132,     -0.06131346,      0.04618597,      0.04658961,
               -0.04091435,     -0.11422368,     -0.04850053,     -0.07565084,
                0.04232218,      0.00947671,     -0.08110257,      0.03393383,
                0.06384270,      0.08051320,     -0.01469245,     -0.03457258,
               -0.00510856,     -0.07488710,      0.02375064,      0.01130411,
               -0.02057548,     -0.08106007,     -0.06552401,     -0.01882212,
                0.11672030,     -0.01541721,     -0.02536752,      0.04096535,
               -0.05049162,     -0.23250030,     -0.10263132,     -0.02465306,
               -0.12990028,     -0.01936361,      0.00185130,      0.07317944,
               -0.03983537,     -0.00754435,     -0.03243328,     -0.08567400,
               -0.18445602,     -0.03735720,     -0.01231202,     -0.00879111,
               -0.01350172,      0.01905116,      0.00398808,      0.00765759,
               -0.01657526,      0.00775913,     -0.03399120,     -0.01899864,
               -0.47228768,     -0.08313066,      0.01996182,      0.05511366,
                0.01414821,      0.01506885,     -0.03799316,      0.00370728,
               -0.06326243,      0.00494442,      0.07825717,     -0.02919482,
                0.01135780,      0.06711353,     -0.07861281,     -0.02330467,
               -0.06935420,     -0.00462528,     -0.00741675,      0.10173027,
               -0.00079005,      0.07650852,     -0.01387570,     -0.00971186,
               -0.09496164,      0.03503180,      0.01251213,      0.02607606,
               -0.15116277,     -0.06670105,     -0.00747051,      0.01055305,
                0.13344863,      0.25667810,      0.25044584,      0.04737227,
               -0.01674373,     -0.14313833,     -0.05947858,      0.06105145,
                0.12917829,     -0.05654801,     -0.01888718,      0.08758214,
               -0.04967420,     -0.01996835,     -0.04353897,      0.01717387,
                0.10284743,     -0.25996917,     -0.01115665,     -0.05578859,
                0.18211339,     -0.05627317,     -0.01532755,     -0.00993631,
                0.05391774,     -0.03412380,     -0.00874448,      0.01247934,
                0.01357780,     -0.21247360,      0.03934081,      0.06394822,
                0.02142865,      0.07658373,      0.01066550,      0.04271831,
                0.08308341,      0.08348155,     -0.07434412,     -0.13681638,
               -0.10239954,     -0.00973625,     -0.05447719,     -0.04645561,
               -0.02870620,      0.01154927,     -0.03723943,      0.05770391,
               -0.05244990,      0.03519649,      0.01412286,     -0.00742078,
                0.04309195,     -0.06754421,      0.02220402,     -0.00049574,
               -0.09259414,     -0.01182752,     -0.03868418,     -0.02098225,
                0.04318291,      0.06765131,     -0.08025014,     -0.16494763,
               -0.00434559,      0.06493715,      0.06469049,      0.05615014,
               -0.04213198,     -0.01515337,      0.12912485,     -0.06157580,
                0.03138130,      0.00283330,     -0.00758923,     -0.02949661

};

// weight for Squeeze Excitation2 layer  has dimension of torch.Size([1, 1, 6, 144])
float MBConv6_3_squeeze_excitation2_conv2d_weights [1 * 1 * 6 * 144] =
{
-0.07420798,     -0.04057469,     -0.12538990,     -0.06247733,
               -0.04447002,     -0.02744269,      0.02012353,      0.02807599,
               -0.05620145,      0.01815273,      0.00841541,     -0.07607815,
                0.03088799,      0.00651273,     -0.02925060,     -0.03680940,
               -0.02578636,      0.02846184,     -0.02194835,     -0.05778229,
               -0.01947842,     -0.01612203,     -0.04364657,     -0.04837395,
                0.11220345,      0.03012455,      0.19475038,      0.17086995,
                0.11059419,      0.09111038,     -0.24151856,     -0.02681089,
               -0.62131739,     -0.35671744,     -0.18243486,     -0.30976453,
               -0.01764419,     -0.01724667,      0.05822941,      0.00186534,
               -0.02512813,     -0.01837323,     -0.01228924,     -0.08868281,
               -0.02757392,     -0.05682322,     -0.06263641,     -0.01722123,
                0.10347828,     -0.06161726,      0.01854456,     -0.01131379,
                0.02083174,      0.04940231,     -0.04691062,      0.00671114,
               -0.11936668,     -0.00538317,     -0.02153593,     -0.08324094,
               -0.03480972,     -0.11597909,      0.03163640,     -0.04882259,
               -0.12135669,      0.00647430,      0.22987328,     -0.16083266,
                0.12009645,     -0.02438001,     -0.21986133,      0.05529477,
               -0.15538843,     -0.01876386,     -0.16405353,      0.21643010,
                0.06156192,     -0.13125624,     -0.13352484,      0.01218446,
               -0.52629465,     -0.50282788,     -0.06494777,     -0.40632436,
                0.14971010,      0.31733781,      0.11822040,     -0.02098500,
               -0.01434332,     -0.11653483,     -0.08140120,      0.08247082,
                0.10674721,      0.01272387,     -0.02397002,      0.00493642,
               -0.09283906,     -0.05403898,     -0.03396052,      0.00009910,
               -0.03743867,     -0.01795717,     -0.17270085,      0.03199206,
               -0.02771133,      0.04339798,      0.03233868,     -0.12076062,
               -0.08200981,     -0.12132019,     -0.02789253,      0.01275569,
               -0.09352007,     -0.01636535,     -0.06434078,      0.01868545,
                0.03660629,      0.08479693,     -0.02562240,     -0.01061195,
               -0.15313891,     -0.02560240,      0.11480346,      0.14167209,
               -0.05924081,     -0.01557369,     -0.06593031,      0.02216587,
               -0.21852171,     -0.12341495,     -0.04279444,     -0.11719910,
               -0.01693311,     -0.03120376,      0.06586877,      0.02665964,
               -0.00052778,      0.04387503,     -0.00480724,     -0.03012233,
                0.04052185,     -0.00457898,     -0.03042997,     -0.02015926,
               -0.05179817,      0.02661618,     -0.07337036,     -0.07294199,
               -0.02958781,     -0.06714386,      0.04688429,      0.01580912,
               -0.00122517,     -0.01979105,     -0.01589009,     -0.02616672,
                0.04859708,     -0.15309078,      0.02624702,      0.07995355,
               -0.06499353,      0.01820974,      0.01396057,     -0.02013065,
                0.04095976,      0.04450340,      0.01335074,      0.04984181,
               -0.16454126,      0.01650690,     -0.00876297,      0.03549506,
                0.02817035,     -0.16858412,      0.08780017,     -0.01565218,
                0.10624573,     -0.00064429,     -0.03512504,      0.00292444,
               -0.02872853,     -0.06298738,     -0.05973956,      0.04767893,
               -0.04735699,      0.03116238,     -0.01896000,     -0.03867622,
               -0.01952412,     -0.00701642,     -0.04684510,     -0.03719217,
               -0.00536654,     -0.02429326,     -0.02518268,     -0.08043662,
               -0.03549948,     -0.01463261,      0.02315984,      0.19237961,
               -0.13205722,     -0.06617462,      0.05212096,      0.01538827,
                0.02108452,     -0.05282557,      0.00696267,     -0.08837529,
               -0.03753391,      0.00861508,     -0.01846295,     -0.05398750,
               -0.00346503,     -0.00947911,     -0.04683857,     -0.01737070,
               -0.47039878,      0.05187471,      0.01289286,     -0.10225926,
               -0.06574664,     -0.36671513,     -0.08177162,     -0.05527786,
               -0.04155273,      0.01404500,     -0.02785281,     -0.02891355,
                0.03364233,     -0.23342599,      0.02966805,     -0.11588556,
               -0.02383218,     -0.09394007,     -0.02596903,     -0.02864991,
                0.01213890,      0.01016244,     -0.01726738,     -0.00128414,
               -0.10610303,     -0.10328202,     -0.01016695,      0.06014548,
               -0.05855800,     -0.02139137,     -0.01886747,     -0.03042519,
               -0.04020864,      0.02533878,     -0.01980510,     -0.03057447,
               -0.01241144,      0.03345656,      0.04233473,      0.00066931,
               -0.01519400,     -0.02123644,     -0.01801373,     -0.02380650,
               -0.00078515,     -0.01361300,     -0.03112204,     -0.03140901,
               -0.08281258,     -0.04443327,     -0.10768172,     -0.11518648,
               -0.06221439,     -0.04524981,      0.16552529,     -0.09189402,
                0.06005349,     -0.01669104,     -0.12953904,      0.04099855,
               -0.00187775,      0.00249589,      0.15572917,      0.09867437,
                0.05159817,      0.03526663,     -0.14504121,     -0.11745120,
               -0.21662763,     -0.17002402,     -0.11616067,     -0.12016650,
               -0.09371099,      0.04999226,      0.03995996,     -0.04264990,
                0.04291230,      0.03324396,     -0.04186698,     -0.08962891,
               -0.20054065,     -0.09884188,     -0.12248629,     -0.00490626,
               -0.13481614,     -0.85623145,      0.10783770,      0.14626491,
               -0.11007710,     -0.01884943,     -0.04898371,     -0.17441072,
               -0.05848349,      0.05846547,     -0.02469675,     -0.11385246,
               -0.08218730,     -0.04933278,     -0.03993834,     -0.03491712,
               -0.03776827,     -0.13288362,      0.00102194,     -0.00128326,
               -0.02482934,     -0.03326211,     -0.01410278,     -0.00240933,
                0.02603650,     -0.05349950,      0.00987032,     -0.01500014,
               -0.01436035,      0.00560549,      0.00313955,      0.00438588,
               -0.05390596,     -0.14960022,      0.04345577,     -0.07467505,
               -0.03780306,     -0.02044961,     -0.02794125,     -0.01841014,
               -0.01828403,     -0.01402705,      0.00592201,      0.00281211,
               -0.05936769,     -0.04171024,     -0.00883714,     -0.00361835,
               -0.08464532,      0.05087793,     -0.01578248,     -0.02502413,
                0.02836630,     -0.01682854,     -0.07623710,     -0.08302543,
               -0.06034274,     -0.00010830,     -0.05211860,     -0.05169579,
               -0.18718936,      0.05346204,      0.02989584,      0.01293208,
                0.12529501,     -0.33040139,      0.00308172,      0.00045177,
               -0.00538058,     -0.01645184,     -0.00562802,      0.01359623,
               -0.01131975,     -0.04039080,     -0.02373755,     -0.02624522,
               -0.02565364,     -0.00473966,     -0.00034166,     -0.02391235,
               -0.00372875,     -0.00548935,     -0.03395608,      0.00340177,
               -0.05486840,      0.00285611,     -0.11105968,     -0.11970842,
                0.02084921,     -0.19812045,     -0.13432659,      0.00440739,
               -0.00774182,      0.06249341,      0.01021675,     -0.03448556,
               -0.02372918,     -0.05930173,      0.00881220,      0.03598892,
               -0.03704993,     -0.02769114,     -0.04638800,     -0.03485600,
               -0.04075937,      0.00740730,     -0.02378572,     -0.03948199,
                0.11113708,     -0.12869617,      0.15810338,     -0.29935643,
               -0.14636138,      0.22513884,     -0.15239936,      0.02134823,
                0.29475689,      0.44109926,      0.12210101,      0.22656222,
               -0.25946498,      0.05782792,      0.06874688,      0.16693501,
               -0.02385025,     -0.02505607,      0.02227675,      0.01101023,
               -0.02383309,     -0.04530227,     -0.02984247,     -0.06383217,
                0.07596669,     -0.03050663,      0.04323225,     -0.01704739,
                0.00211141,      0.03655275,      0.22655122,     -0.04176894,
                0.30976865,     -0.03400250,     -0.10058346,     -0.03366582,
               -0.03127218,      0.03824139,     -0.15057284,     -0.13544652,
               -0.03690556,     -0.08471870,     -0.01501313,     -0.00094880,
                0.10473542,      0.03405781,      0.01937668,      0.02320725,
               -0.05337220,      0.01645768,     -0.03187812,     -0.03266936,
                0.01145574,     -0.03364223,      0.13973333,      0.01176197,
               -0.10224213,     -0.15570827,     -0.21175162,     -0.25624231,
                0.00844517,      0.00385167,      0.12492359,      0.14574498,
               -0.06743605,      0.08053641,     -0.03480696,     -0.04196890,
               -0.03365483,     -0.06106782,     -0.03215230,     -0.02707484,
               -0.08610810,     -0.05002863,      0.00585972,      0.00906027,
                0.00752813,     -0.04420943,     -0.13216609,      0.02742221,
               -0.06578910,     -0.00615375,     -0.02150445,     -0.03303692,
               -0.00843530,     -0.18231364,      0.05490748,      0.00103380,
               -0.04126154,     -0.01720748,     -0.03656008,     -0.01843523,
               -0.02724489,     -0.02573029,     -0.03613341,     -0.05854336,
                0.16560061,     -0.04550770,      0.15638453,     -0.24634247,
               -0.21968366,      0.13584788,     -0.21167508,      0.01776172,
               -0.49985439,     -0.56629813,      0.02696995,     -0.45114863,
               -0.05739167,      0.07715182,     -0.18506986,     -0.21476893,
                0.00771991,     -0.20266965,     -0.21664028,     -0.11815461,
               -0.13160159,      0.11685296,      0.00287191,     -0.07719394,
                0.05771166,     -0.11607761,      0.07610064,     -0.04666655,
                0.01774956,      0.19125703,     -0.16074114,     -0.02416654,
                0.06901973,      0.11176249,     -0.01565003,     -0.07332679,
               -0.00254149,     -0.03252925,      0.01955240,     -0.08350136,
               -0.02716514,      0.00306375,      0.01509647,     -0.10762456,
                0.01098584,     -0.06721115,     -0.07493983,     -0.05077789,
               -0.14760822,      0.25171301,     -0.15461968,      0.05294165,
                0.11162132,      0.05166435,     -0.08252432,     -0.00584843,
               -0.00818088,     -0.02367640,     -0.00887109,     -0.01836565,
               -0.00553558,     -0.00097322,     -0.02224998,     -0.01680195,
               -0.01924262,     -0.00154437,     -0.06945935,     -0.02912580,
               -0.03525010,      0.00525279,     -0.01703544,     -0.02796836,
               -0.02632608,     -0.06149074,     -0.02189335,     -0.01773521,
               -0.05683133,     -0.06025155,     -0.00143876,     -0.00327902,
                0.01082634,      0.02881151,      0.01185443,      0.01210648,
               -0.01618213,     -0.01968602,     -0.02615657,     -0.03206919,
               -0.02282413,     -0.04163067,     -0.00427271,     -0.10170677,
               -0.05032571,     -0.06638736,     -0.01748486,     -0.01501448,
               -0.05887974,     -0.02264007,     -0.03788225,      0.00445936,
               -0.01120859,     -0.02823288,      0.10679273,      0.05087853,
               -0.00921774,      0.00911906,      0.00731627,      0.06750699,
                0.08418155,     -0.08183584,      0.05231470,     -0.05073458,
               -0.03915497,      0.06562477,     -0.08250325,     -0.00452105,
               -0.01808953,      0.03838162,      0.00148355,      0.00771670,
               -0.09631556,     -0.07485058,      0.01429696,     -0.10082305,
                0.01948257,     -0.11010555,      0.04988219,     -0.12098120,
               -0.04555159,      0.04574295,      0.02882297,      0.17489028,
               -0.25646016,     -0.06476589,      0.11406152,     -0.01884418,
               -0.11790278,      0.00785200,     -0.04442772,     -0.04050920,
               -0.18359753,      0.09142709,      0.08213874,     -0.17852868,
               -0.20213699,      0.06341766,     -0.64107668,     -0.39600158,
               -0.20566571,     -0.29298717,     -0.34285346,     -0.10312141,
                0.09696962,      0.06101944,     -0.07035025,      0.09868406,
                0.04862244,      0.01087976,     -0.03063021,     -0.05456366,
               -0.01549095,     -0.03964670,      0.10751833,     -0.05005127,
                0.07233674,     -0.00915690,     -0.06655485,      0.05710181,
                0.02292999,     -0.04328033,     -0.02573912,     -0.08426557,
               -0.03710375,     -0.01330086,      0.04943527,     -0.01751728,
               -0.02153323,     -0.07480666,     -0.04632975,     -0.03206985,
               -0.01176861,      0.25446287,     -0.12966113,     -0.00675772,
                0.16069870,      0.01556601,     -0.05501075,      0.01298427,
               -0.14686511,     -0.11105115,     -0.04940106,     -0.04899099,
               -0.18490577,     -0.15876982,     -0.10443577,     -0.23483568,
               -0.14215395,     -0.21682623,      0.32197538,     -0.40406242,
                0.14317942,      0.10299404,     -0.30010644,      0.15674408,
               -0.00595080,     -0.04561228,     -0.03798214,     -0.06760924,
               -0.05284952,     -0.04502890,     -0.04237503,     -0.05342196,
               -0.01361477,     -0.00798124,     -0.03146768,     -0.06292419,
               -0.04701509,     -0.03314006,     -0.05979212,     -0.03164193,
               -0.04629402,     -0.05403151,      0.00617243,     -0.00911559,
                0.03848640,     -0.01592565,     -0.05540841,     -0.02724319,
                0.34406203,      0.74325544,     -0.19001716,     -0.01610004,
                0.09396002,      0.13300429,      0.02562732,     -0.05901686,
                0.04150694,     -0.01409366,     -0.01522195,      0.00852485,
               -0.03925212,     -0.05941168,     -0.14720790,     -0.06267079,
               -0.03775597,     -0.12270349,     -0.02813067,      0.01350755,
               -0.11780851,     -0.07896905,     -0.04624720,     -0.05072698,
               -0.03557073,      0.02237680,     -0.12496853,     -0.10779399,
               -0.04817935,     -0.05510400,     -0.13380390,     -0.01207503,
               -0.13859458,      0.04267959,     -0.36629486,     -0.07171385,
               -0.01859254,      0.01542550,      0.02950561,      0.05735839,
                0.02213285,      0.01455294,     -0.17420928,      0.09573024,
               -0.47172651,     -0.24353547,     -0.21467347,     -0.06291667,
               -0.13051917,     -0.11191323,      0.07855441,     -0.19054523,
               -0.03007352,     -0.47875339,      0.13268037,      0.09115508,
                0.11577553,     -0.05646426,      0.01430833,     -0.11775973,
               -0.11903019,      0.14152536,     -0.02211986,      0.14453174,
                0.07986962,     -0.09201231,      0.06666411,     -0.08627941,
                0.05863592,     -0.06750154,     -0.11507140,     -0.01990259,
               -0.03400562,      0.00201015,     -0.10500393,     -0.07362758,
               -0.04201363,     -0.07840504,     -0.02224174,     -0.00081195,
               -0.12015900,     -0.05788964,     -0.06643244,     -0.06915314,
                0.05880012,     -0.05654371,      0.13029733,      0.00081646,
               -0.01035897,      0.04575478,     -0.05487837,     -0.06756162,
               -0.04841010,     -0.01733412,     -0.04970270,     -0.04823691,
               -0.08029304,      0.05770503,      0.00169639,      0.01540251,
               -0.03916472,     -0.08281513,      0.03518778,      0.00146587,
               -0.02686739,      0.01978157,     -0.01756977,     -0.05378374,
               -0.03890251,     -0.00955674,     -0.03273508,     -0.01398146,
               -0.01393181,     -0.02049544,      0.00683175,     -0.03387598,
                0.04191612,     -0.03750250,     -0.01535785,      0.01570498,
               -0.02256922,      0.00047695,      0.05034692,      0.02945505,
               -0.01608129,     -0.02207256,     -0.12609841,      0.08962508,
                0.00019845,      0.06795903,      0.06875242,     -0.04130381
};


// Bias for Squeeze Excitation1 layer has dimension of  torch.Size([6])
float MBConv6_3_squeeze_excitation1_conv2d_bias [6] =
{
0.00677018, -0.00413849, -0.00179801, -0.00466684,  0.00249846,
            0.00250885
};


// Bias for Squeeze Excitation2 layer has dimension of torch.Size([144])
float MBConv6_3_squeeze_excitation2_conv2d_bias [144] =
{
	0.35540831,  0.66824371, -0.22285572, -0.02451407, -0.21267107,
           -0.44438648, -0.32591900,  0.27895856,  0.27141967,  0.19334851,
            0.46917644,  0.03227864, -0.02282124, -0.36321178,  0.00583076,
           -0.02987191,  0.38553700,  0.16617285, -0.09481711, -0.38019282,
           -0.12392950,  0.04981641,  0.30115515, -0.28561741, -0.48822218,
           -0.28882644, -0.10742312,  0.32580113,  0.18903831,  0.20816413,
           -0.01848538, -0.05403038,  0.17205328,  0.21561754,  0.00623830,
           -0.34491903, -0.41554287,  0.69346201,  0.20515749, -0.15221113,
           -0.11901768, -0.08874681, -0.36666778, -0.07659532, -0.10499360,
            0.02637367, -0.07573743,  0.40914580, -0.54609060, -0.15602309,
           -0.14005105, -0.14896968,  0.37526062, -0.07566221,  0.01346557,
           -0.09527732, -0.06409674,  0.19743831, -0.42622536,  0.15946342,
           -0.12433219, -0.12482163,  0.06160017, -0.07047913, -0.14846279,
           -0.48131198, -0.23320146, -0.15183128, -0.09203707,  0.18561326,
           -0.15963314,  0.34649277,  0.32566243,  0.05973528, -0.52138227,
            0.09906863,  0.16862930, -0.37731364, -0.11441247,  0.48666987,
            0.09408568, -0.36446702,  0.16346659, -0.12336712,  0.00335655,
           -0.59708965, -0.03438561,  0.68422949, -0.06190303, -0.07017095,
           -0.32255447,  0.11832466, -0.27526066, -0.53386939,  0.08544630,
           -0.16212334,  0.03631651, -0.12414259, -0.07127405,  0.44863051,
           -0.22126600, -0.00730082,  0.20414144, -0.28487974,  0.19508226,
           -0.03393742, -0.11853135, -0.05682407, -0.21024159, -0.09809751,
           -0.17024009, -0.04631551,  0.20023963, -0.04915171,  0.24578053,
           -0.54276747,  0.32263941, -0.09396817,  0.19272713,  0.13609439,
           -0.13666676, -0.34394085,  0.06017534,  0.20254838, -0.16530250,
           -0.33289754, -0.47872108,  0.05266050, -0.30822274, -0.35584831,
           -0.01250134, -0.11745581,  0.01394520, -0.08915706, -0.34651652,
           -0.55678391,  0.34394032,  0.02299478,  0.32447270,  0.29522556,
           -0.00549717, -0.19655137, -0.46292090,  0.67698288
};
