
// weight for Expansion Convolution layer has dimension of torch.Size([1, 1, 24, 144])
const float MBConv6_3_expansion_conv_conv2d_weights [ 1* 1 * 24 * 144] =
{
	 -0.11783222,      0.11240838,      0.35569742,      0.05838747,
                0.72041821,      0.18708597,     -0.01849718,     -0.41162899,
               -0.15500210,     -0.37500682,     -0.07170413,     -0.34799710,
               -0.02301016,     -0.11811175,     -0.54099548,     -0.21549428,
               -0.07560016,     -0.11744190,     -0.24479662,     -0.30972627,
               -0.67256916,      0.04873243,      0.04145855,      0.20626374,
                0.24484977,     -0.43234599,     -0.44172597,     -0.04623394,
               -0.15978551,      0.07047730,      0.42060754,     -0.45089665,
               -0.87443489,     -0.15164758,     -0.02744205,      0.19288775,
                0.51457477,      0.45966718,      0.26642707,      0.09470429,
                0.12182736,     -0.20451933,     -0.76696998,      0.28397906,
               -0.14493732,      0.16491170,     -0.45322329,      0.28017038,
                0.30545235,     -0.01233132,     -0.06352434,     -0.06166856,
                0.13835309,     -0.03747893,     -0.19788159,     -0.22861326,
                0.01823387,     -0.02494324,      0.23278917,      0.64790601,
                0.10289075,     -0.01420478,     -0.07905401,      0.03491555,
               -0.00020158,     -0.03165002,     -0.02762225,      0.00657142,
                0.07617977,     -0.12056156,      0.00046439,     -0.02833481,
               -0.10207893,     -0.01527395,      0.16973928,     -0.15951715,
                0.00698402,     -0.38657746,     -0.12406179,      0.19607809,
               -0.25684193,      0.14247382,     -0.05577347,     -0.04028026,
                0.26764259,     -0.08287788,     -0.11939828,      0.03591969,
               -0.31443349,      0.05997361,      0.09883081,      0.14693938,
               -0.02584837,      0.29010984,      0.17152573,      0.15745224,
               -0.21847297,     -0.08388867,      0.47764754,      0.04784068,
                0.14070426,      0.30480933,      0.07701096,      0.00653091,
               -0.14064117,     -0.76738012,      0.22184177,      0.28762093,
               -0.25818226,     -0.00495411,     -0.43538728,      0.05985054,
               -0.00293091,     -0.08324099,     -0.29688793,     -0.34147578,
                0.03166938,      0.15369816,      0.47477499,      0.63793212,
                0.10817681,      0.18105489,      0.32370979,      0.01690586,
               -1.11684632,     -0.15437186,     -0.29807261,      0.33032635,
               -0.20615613,     -0.42243686,      0.03423685,     -0.17175274,
               -0.15215220,      0.24842961,      0.37483394,      0.01561072,
               -0.36945209,      0.03434080,     -0.30367637,     -0.26346791,
                1.16159570,     -0.20312050,     -0.05694530,      0.25413075,
               -0.30286455,     -0.35547078,     -0.05416648,      0.00326961,
                0.05620008,      0.10048953,     -0.02779990,      0.01118506,
                0.14246547,     -0.01134193,      0.01566449,      0.13879874,
                0.18603961,      0.14125708,      0.25280482,      0.07210352,
               -0.23137325,      0.10204905,     -0.27232817,      0.09877756,
               -0.18923414,     -0.26784518,      0.10163976,      0.03798086,
               -0.34244412,      0.14858672,      0.06129115,      0.13978334,
                0.06883010,     -0.16860151,     -0.35848412,      0.15263006,
               -0.25631398,      0.19769618,      0.14904197,      0.18226828,
                0.12939604,     -0.06898027,      0.08665742,     -0.02863886,
                0.11270657,      0.09303614,      0.11033081,      0.03807634,
               -0.07962911,      0.16276076,     -0.07929332,      0.26172704,
               -0.11806547,      0.28491163,      0.39994052,     -0.02694866,
                0.18162957,      0.01960802,     -0.43576872,      0.30782562,
                0.17933670,      0.09946297,     -0.23671524,      0.06165532,
               -0.01333106,     -0.15775634,     -0.43359008,      0.23456658,
                0.10093206,      0.44497594,      0.87799037,      0.23699629,
                0.29599327,      0.14893201,     -0.08642420,      0.37943172,
                0.25341398,     -0.24781519,     -0.17938398,     -0.34233966,
               -0.12827140,      0.01979761,      0.20956212,     -0.26076627,
                0.06926929,     -0.26563039,     -0.01905513,     -0.10275373,
                0.11730991,      0.26236477,     -0.10382397,     -0.10594609,
                0.04391398,     -0.14392307,     -0.14228645,     -0.08465511,
                0.12554170,     -0.02223768,      0.02911443,     -0.20837663,
               -0.05327331,     -0.03660316,     -0.56712180,      0.22175898,
                0.10199282,      0.67229021,     -0.25181681,     -0.28228828,
                0.07341573,      0.13330992,      0.50312167,      0.34933895,
                0.41372454,     -0.56825316,     -0.08079462,      0.26883557,
                0.26691666,      0.09232309,      0.12029538,     -0.18627059,
                0.19745550,     -0.27111933,     -0.49753734,      0.45233628,
               -0.52050877,      0.76266199,      0.24460466,      0.25719562,
                0.32379660,     -0.08151324,     -0.71241385,      0.58673561,
               -0.30659807,      0.59957385,      0.14030752,      0.04317507,
               -0.16234243,     -0.46412525,      0.05587626,      0.11484556,
               -0.11024311,      0.21194728,     -0.05491692,     -0.08347316,
               -0.19488804,     -0.00560576,     -0.36702347,      0.64981282,
               -0.01010493,      0.44239563,     -0.00051179,     -0.03984747,
               -0.01121572,      1.02709699,     -0.05633710,      0.19561198,
                0.10318423,      0.17312281,     -0.13169771,      0.54389817,
               -1.20384312,     -0.18974417,     -0.18609802,      0.18055442,
               -0.38246801,     -0.19657871,      0.08983689,      0.19290647,
               -0.09920467,     -0.64830178,     -0.13098675,     -0.16620548,
               -0.00123511,     -0.02140771,      0.07455456,      0.09002186,
                1.20265162,      0.03615174,     -0.33562565,      0.40139017,
               -0.16093165,     -0.29648480,     -0.11742348,     -0.11718986,
                0.02815825,      0.28516772,      0.44155121,     -0.15554056,
               -0.09748706,     -0.85989916,      0.02153609,      0.12095850,
                0.56913722,      0.06391799,     -0.16282851,     -0.19510733,
               -0.36423770,      0.24250115,      0.65400004,     -0.07541469,
                0.14914952,      0.02229051,      0.49285081,      0.01232559,
                0.36373928,     -0.31105301,      0.92098278,      0.15699373,
                0.03123445,     -0.36850154,     -0.15414283,      0.35045522,
               -0.02471616,      0.16522317,     -0.36262307,      0.65551454,
                0.22589384,      0.14958817,     -0.47718301,     -0.36673826,
                0.38328686,     -0.54365879,      0.33423063,      0.10561235,
                0.05580192,     -0.36834243,     -0.19699961,     -0.17984337,
                0.33505556,     -0.22599109,     -0.03215658,      0.39492750,
                0.86972731,      0.33963677,     -0.32890832,      0.19350280,
                0.23380761,      0.19658077,      0.33656669,     -0.51759064,
                0.23255979,      0.49528769,     -0.28495076,     -0.18530414,
                0.17254481,     -0.41899002,      0.18942508,      0.25142747,
                0.05957896,     -0.08666112,      0.19411746,      0.10873701,
                0.39329401,     -0.19591165,     -0.44177121,     -0.26926684,
               -0.26002342,     -0.30262157,      0.16217595,      0.19930837,
               -0.47201774,      0.11725052,     -0.10968139,      0.35691750,
               -0.13036345,      0.45830697,     -0.06000403,      0.11189356,
                0.29959792,      0.09442734,     -0.31532165,      0.05815183,
               -0.17601091,      0.14501138,     -0.00246914,     -0.05866857,
               -0.13141330,     -0.25865838,      0.08749218,      0.16281621,
               -0.13027830,     -0.39566821,      0.04522042,      0.09528370,
                0.26737085,     -0.53065616,      0.06475531,     -0.02992190,
               -0.05824288,      0.48072565,     -0.33405036,      0.05294788,
                0.68919575,      0.06826112,     -0.00571648,     -0.06210019,
                0.13757885,      0.59125137,     -0.04997916,     -0.53810620,
               -0.01478044,     -0.33631319,     -0.61962479,      0.14197661,
               -0.39840007,      0.13577829,     -0.25423452,      0.17068848,
                0.22534709,      0.34338915,      0.50609165,      0.49379614,
                0.38231075,     -0.43001175,     -0.08050580,      0.07327741,
                0.21088544,      0.05071883,     -0.09479225,     -0.02368537,
               -0.13996433,     -0.02784809,      0.08005676,     -0.11737309,
               -0.07345131,     -0.15990216,     -0.01343328,      0.17483731,
               -0.19257000,     -0.33509716,     -0.04012537,      0.05836391,
                0.27748746,     -0.37960035,      0.11394732,     -0.01820865,
                0.02695270,      0.36138308,     -0.29728240,      0.05196229,
               -0.28699711,     -0.75821906,      0.06776441,      0.15645750,
                0.16499636,      0.42698878,     -0.22031519,      0.05427698,
                0.16283998,      0.05120676,     -0.00787614,      0.36041671,
                0.44178692,      0.24682011,      0.08557838,      0.07949866,
               -0.31133062,      0.49657032,     -0.22065985,      0.07240048,
               -0.19814022,     -0.60660535,     -0.10284199,      0.04733851,
                0.05311835,     -0.01210350,      0.11406223,      0.13640748,
               -0.47559959,      0.06265298,     -0.28066003,      0.45433331,
               -0.12003585,     -0.25463444,      0.01841236,      0.35820746,
               -0.06685986,      0.13658413,      0.36566985,      0.23302028,
                0.03108531,     -0.07061736,      0.01819695,      0.14812323,
                0.34217367,      0.03490439,     -0.18480308,     -0.07012151,
                0.29074386,     -0.19724408,     -0.29253134,     -0.03802789,
               -0.10216954,     -0.29685384,     -0.20371348,     -0.02824316,
                0.48533240,      0.29188719,     -0.23225653,     -0.01351187,
               -0.17206573,     -0.12112646,      0.51584059,      0.35926166,
               -0.35905921,      0.14590107,     -0.08426236,      0.37435368,
                0.09243575,      0.26337773,     -0.22808437,      0.00017859,
                0.22852778,      0.24188334,     -0.15322928,     -0.02018532,
               -0.15928462,     -0.04048618,      0.11366132,     -0.09547259,
               -0.02039338,     -0.00404187,      0.02785916,     -0.02131934,
               -0.13166685,     -0.29892546,      0.09731413,     -0.08908354,
                0.04496626,     -0.36904180,     -0.07489911,      0.01468327,
                0.03725737,      0.42682081,      0.02348045,      0.07464365,
                0.31602392,      0.01418796,      0.14367546,     -0.06732733,
                0.06123778,     -0.17133576,      0.14217730,      0.23756634,
                0.00715269,      0.07885813,     -0.15401974,     -0.13372625,
                0.01062580,     -0.03054572,     -0.09398728,     -0.59665197,
               -0.17258643,      0.10049570,     -0.23477714,     -0.05041030,
               -0.00079391,     -0.07166956,      0.08455344,     -0.09384124,
                0.32031596,     -0.14164376,      0.14112452,     -0.03747876,
               -0.01373337,      0.00850448,      0.25789791,      0.31634662,
                0.01366797,      0.06626246,     -0.16411312,     -0.43560308,
                0.10925120,     -0.25037020,     -0.12857638,     -0.00309919,
               -0.18392004,     -0.00977242,     -0.06857497,     -0.06449918,
               -0.04660388,     -0.10092457,      0.05687849,     -0.07737972,
                0.05443433,     -0.19262116,      0.29959023,      1.06868851,
               -0.03891694,     -0.03738120,      0.33608538,      0.13689965,
               -0.00773419,     -0.05785115,     -0.27058423,      0.17019078,
               -0.12763850,     -0.23233497,      0.16180420,      0.21295486,
               -0.02003034,      0.03388051,      0.06950062,      0.28416824,
               -0.07104114,      0.04022626,     -0.15855350,      0.00855470,
               -0.06391633,      0.04935094,      0.05774512,      0.09129521,
                0.14692609,      0.21257322,     -0.01388444,     -0.14763336,
                0.05545944,      0.16478358,      0.02037012,      0.99280065,
               -0.10234296,      0.12344802,      0.06998309,      0.22840376,
                0.33293557,      0.01525959,     -0.07958047,      0.02032712,
                0.04737870,      0.13010703,      0.03252848,      0.03156264,
               -0.33960658,     -0.51027626,     -0.14582902,      0.10240195,
                0.04902235,      0.27611530,     -0.11492696,      0.12311776,
                0.14866558,     -0.24995777,      0.10304859,      0.27450958,
                0.29820260,      0.14494692,      0.06431367,     -0.03100264,
               -0.08147094,      0.15120080,     -0.08747146,      0.02659485,
               -0.20410541,     -0.47520965,     -0.29164419,      0.02243674,
               -0.33681667,     -0.66563475,      0.21834460,     -0.57020456,
               -0.25709927,      0.02907745,      0.20123644,      0.12101308,
               -0.14561793,     -0.34839869,     -0.28958213,      0.14173193,
               -0.17978185,     -0.18341231,      0.07639516,     -0.01055030,
               -0.42430416,     -0.23107648,      0.39062154,      0.13095498,
               -0.23753081,      0.35266122,     -0.12625943,     -0.14285746,
                0.39282981,     -0.26632205,      0.05612431,      0.14714482,
               -0.05257848,     -0.11976685,      0.00096708,      0.23585702,
                0.19767775,     -0.20994543,     -0.36490110,     -0.39975855,
               -0.13205968,     -0.26118332,     -0.17919609,      0.04383114,
               -0.58387268,      0.12701531,     -0.04653034,      0.27217066,
               -0.11858366,      0.34435049,     -0.32544234,     -0.02047453,
               -0.14615378,      0.07870691,      0.15315546,     -0.13054334,
               -0.03840450,      0.02057392,     -0.13517287,      0.19656627,
               -0.02355551,      0.15916272,     -0.06260091,      0.05587532,
               -0.31076249,     -0.13020241,     -0.19213843,      0.02150532,
               -0.46396640,     -0.03826753,      0.21449319,      0.05643509,
               -0.05507551,     -0.07949732,      0.25562251,     -0.12431740,
               -0.25111780,      0.27711755,      0.04783467,      0.19439650,
                0.05435270,      0.11381833,     -0.32647446,      0.21406740,
               -0.13409612,      0.21875627,      0.12325649,      0.15656208,
               -0.30117461,     -0.17750354,      0.07379483,     -0.00942096,
               -0.02569906,     -0.00543711,      0.14183976,      0.09253857,
               -0.13273194,     -0.11322279,     -0.00109211,      0.10606725,
               -0.20942512,      0.58228725,      0.12041508,     -0.19572994,
               -0.17519619,      0.41203868,     -0.07830874,     -0.03371665,
                0.17860034,      0.28353024,     -0.48993543,     -0.39380100,
                0.27001151,      0.50686288,      0.02614419,     -0.01458881,
               -0.05381493,      0.03473077,     -0.21516970,      0.00025130,
                0.04765758,      0.34880939,     -0.36186418,     -0.29785684,
                0.02778425,     -0.20690882,     -0.06824324,     -0.32200462,
               -0.07493597,      0.01020535,      0.24746361,     -0.24299662,
                0.15027197,     -0.19414727,     -0.17691553,     -0.03568454,
                0.04962886,      0.14785980,     -0.10355672,      0.05853174,
               -0.00869882,     -0.01621821,     -0.07748605,     -0.08579369,
                0.18863684,      0.08154904,      0.09092996,     -0.26031938,
                0.19765979,     -0.17776732,      0.12993868,      0.11127831,
               -0.03404217,     -0.18100289,      0.10371990,      0.21864685,
                0.06529389,     -0.03051627,     -0.13018222,     -0.37958241,
               -0.06422038,     -0.08017378,     -0.16160198,      0.61348212,
               -0.29159406,     -0.07273502,     -0.03640874,      0.13649330,
               -0.04816463,      0.01315806,      0.01326644,      0.00991479,
                0.25417456,      0.14348522,      0.08898867,     -0.04380524,
                0.08165742,     -0.00532076,     -0.19452649,      0.45175159,
               -0.29516342,     -0.12986302,      0.07262802,      0.35699660,
                0.00126026,      0.18581618,     -0.26284739,     -1.69632101,
                0.06876194,      0.32505488,     -0.19191277,      0.00872401,
               -0.19798344,     -0.05148195,     -0.21820535,     -0.32112882,
               -0.25761223,     -0.85198873,     -0.31560460,      0.09129366,
               -0.03901793,     -0.09008414,     -0.32013446,      0.08436175,
               -0.13091516,     -0.36377543,      0.58807033,     -0.67695576,
               -0.35544807,     -0.40560952,      0.23782475,     -0.32558700,
                0.50935221,     -0.12468734,      0.28916454,      0.18832768,
               -0.14449310,     -0.11566509,      0.01259019,      0.27587780,
                0.03017946,     -0.17326041,      0.08583395,     -0.07602987,
                0.03921395,     -0.35387993,     -0.00965069,     -0.02321372,
               -0.23252982,     -0.01321189,     -0.02322744,     -0.01081339,
                0.51044065,      0.02180595,      0.01118483,      0.02967423,
                0.07718503,      0.13137823,     -0.10725069,      0.01559617,
                0.02271326,      0.31899205,     -0.17301963,      0.22946365,
                0.07610971,     -0.29807395,      0.00985801,      0.00643140,
               -0.01296445,     -0.06544342,     -0.08870512,      0.00521234,
                0.22520170,     -0.13497539,     -0.00030326,     -0.00927474,
                0.05507232,     -0.02406312,      0.00006789,      0.14518878,
               -0.15323745,     -0.00542513,      0.08360697,     -0.10924276,
               -0.12658097,      0.29282153,     -0.05883813,     -0.01095052,
               -0.39377934,      0.09658206,      0.32449648,      0.23018806,
               -0.12583646,      0.07197460,     -0.54429942,      0.45571193,
                0.66545331,      0.14228679,      0.36867774,      0.13739192,
               -0.33962497,     -0.00787407,     -0.52387220,      0.01526681,
               -0.19931777,     -0.24653339,      0.55039638,     -0.60189867,
               -0.00308283,      0.11775462,     -0.07669355,     -0.58173996,
                0.05427587,      0.03665474,     -0.12726855,     -0.16773662,
               -0.10762881,      0.17621815,      0.14467591,     -0.07219124,
                0.21706261,     -0.12023907,     -0.10796300,      0.11531094,
               -0.33032256,      0.14724991,     -0.16389428,      0.04641742,
               -0.34494156,     -0.17850374,      0.11566696,     -0.01006295,
               -0.05272815,     -0.14846937,      0.14000972,     -0.23941962,
               -0.03828595,     -0.04610959,     -0.22456375,      0.02280278,
               -0.12912352,      0.10513373,      0.06317730,     -0.09331219,
               -0.04301426,      0.06591053,      0.14590812,      0.10986806,
               -0.11417564,     -0.14370807,      0.32695013,      0.09391583,
               -0.18514925,     -0.34123001,     -0.43162200,     -0.07000851,
               -0.23960479,      0.29819122,     -0.00427755,      0.03573716,
               -0.04948280,     -0.04054614,      0.14810945,     -0.05769670,
               -0.04482005,     -0.27434930,      0.01509146,      0.21477976,
               -0.21446298,      0.14572842,     -0.08608003,     -0.14439222,
                0.15307121,     -0.13887955,     -0.05663008,     -0.02907445,
               -0.31618127,      0.04261440,      0.09695260,      0.09035799,
               -0.05256435,      0.27424139,      0.13931377,      0.15006033,
               -0.12004616,      0.09831923,      0.19450481,      0.82849562,
               -0.12829144,     -0.06489976,      0.29210415,      0.31145528,
               -0.56822318,      0.07880572,      0.11524327,      0.16103326,
                0.02988709,      0.18569058,     -0.21202983,     -0.16688086,
                0.23886338,     -0.08645935,      0.04114673,      0.05537055,
                0.04354308,     -0.23154323,     -0.07267018,     -0.43573594,
               -0.30018455,     -0.27105126,      0.04919738,      0.19670720,
               -0.05029800,      0.84134573,     -0.19165476,     -0.25703874,
               -0.03038535,      0.09810459,      0.18913732,      0.45694119,
                0.17725758,     -0.57443118,      0.39647987,      0.20578070,
                0.62534416,     -0.11111392,      0.17470974,     -0.20086877,
               -0.10331062,     -0.08998727,     -0.63090199,      0.22078879,
               -0.25860408,     -0.12052032,      0.11399660,     -0.00180568,
                0.91546625,     -0.02368481,      0.08631255,     -0.36010441,
               -0.03565730,      0.07168893,     -0.03173290,     -0.12347283,
               -0.11720681,      0.07522076,     -0.06539674,     -0.22732960,
               -0.16278678,     -0.41534930,      0.07564145,     -0.12418736,
                0.30596313,      0.00422417,     -0.17170900,      0.08566600,
               -0.20263739,     -0.20834596,      0.40350258,      0.49500620,
               -0.07007381,     -0.50743896,      0.41696844,      0.14617348,
               -0.17442283,     -0.36603770,     -0.37261048,     -0.01778819,
               -0.32671484,      0.27620891,      0.06014771,     -0.09552500,
               -0.28998834,     -0.02276719,      0.28425345,      0.46894062,
               -0.08460160,      0.24612497,      0.34928194,     -0.46947339,
               -0.14264680,     -0.08999778,      0.15031742,      0.01510476,
               -0.21218999,     -0.07473713,     -0.23698208,     -0.01329111,
                0.22939503,     -0.05545577,     -0.21821317,      0.19712894,
                0.18152750,     -0.17702152,     -0.15763520,     -0.01659415,
                0.18572779,     -0.40046838,      0.05710787,      0.23132370,
               -0.05850092,     -0.21476156,     -0.09674023,      0.16739891,
               -0.14991085,      0.07003906,      0.04730627,      0.06351245,
                0.50975698,      0.12784289,     -0.26323357,     -0.39075634,
                0.10616719,     -0.40933290,     -0.12882888,     -0.06536391,
               -0.00024629,     -0.13034835,      0.17641716,      0.51559800,
               -0.06310759,     -0.26804966,     -0.13615738,     -0.10249420,
               -0.48542464,      0.16081876,      0.19589190,      0.24157132,
                0.61604208,     -0.10938757,     -0.17248303,      0.02758903,
                0.54624087,     -1.16144025,      0.11897715,      0.17783748,
               -0.02875495,     -0.32892668,      0.32006907,      0.89082229,
               -0.31941247,     -0.40893617,     -0.47430974,      0.32760105,
               -0.33357427,      0.14600824,     -0.25636408,      0.00795425,
                0.18601994,     -0.55321991,      0.26648104,      0.01532428,
                0.10235153,      0.16503510,      0.07713895,     -0.10707390,
                0.14534371,      0.05552957,     -0.06495546,     -0.22632380,
               -0.91229087,     -0.03707732,     -0.35991648,     -0.02587049,
                0.29221433,      0.11286271,     -0.19531278,      0.13198702,
                0.24632379,      0.39393485,      0.14888339,      0.89475548,
                0.26582268,     -0.04062402,     -0.31396839,      0.59777296,
                0.07938319,      0.16173932,     -0.02267526,      0.07393561,
               -1.06780159,     -0.03218805,     -0.09010015,      0.02370461,
               -0.15112355,     -0.12799554,      0.13919431,      0.14547071,
               -0.01083312,     -0.06550902,     -0.31228498,      0.15946376,
                0.29032969,      0.66019857,     -0.06213564,      0.00281249,
               -0.79726654,     -0.07936949,     -0.00735766,     -0.11827134,
               -0.18003730,     -0.07659534,      0.02996075,      0.12752354,
               -0.13123101,      0.18206696,      0.01625763,      0.13142259,
               -0.09842560,      0.03068512,     -0.16374627,     -0.48701379,
               -0.13348396,      0.06074592,      0.11783789,     -0.17831726,
               -0.05571932,     -0.00668600,      0.02381990,      0.10996199,
               -0.09393635,      0.12805602,     -0.07590641,     -0.01027205,
                0.26187342,     -0.07338992,      0.00939556,      0.03090251,
                0.15874815,     -0.07874001,     -0.20109819,     -0.26172668,
                0.55842304,     -0.38670847,     -0.63843483,      0.04110413,
               -0.06025999,     -0.11890001,     -0.13740568,      0.18359651,
               -0.01703899,      0.38209566,      0.45169109,      0.15953113,
                0.25802898,      0.20710286,      0.01229574,      0.26666293,
               -0.12877336,      0.03825752,      0.02113081,      0.03639008,
               -0.51534456,     -0.11957804,     -0.31995434,     -0.33352250,
                0.17318746,     -0.28638512,     -0.07354049,     -0.02069321,
               -0.19520861,     -0.09334406,      0.21912998,      0.18816550,
                0.02683695,      0.16813140,     -0.05268658,      0.02369040,
               -0.42722932,      0.11540376,     -0.09579687,      0.19078156,
               -0.17733409,      0.28554392,     -0.03279958,     -0.00935548,
                0.05431581,      0.21335609,     -0.00272878,      0.07052877,
               -0.31217265,      0.14018248,      0.07089414,      0.23343973,
               -0.19179296,     -0.01305862,      0.05210591,     -0.13191648,
                0.03721650,      0.01964134,     -0.08458034,      0.21909966,
                0.02091068,     -0.15523282,     -0.07738719,      0.04689410,
               -0.14168298,      0.09660452,      0.24856445,      0.03622141,
                0.12405283,      0.23972110,      0.15650693,      0.11399975,
               -0.46568343,     -0.24322680,      0.14713612,      0.14388335,
                0.15508795,      0.07829882,     -0.55958110,     -0.37480947,
                0.14076287,     -0.13825996,      0.09757353,     -0.28237897,
               -0.15719451,     -0.20613517,      0.01282883,     -0.08456721,
                0.08875781,      0.09791368,      0.13864349,      0.04893060,
               -0.35317087,     -0.26419079,      0.02707791,     -0.05176206,
                0.02548143,     -0.02979907,     -0.04563812,      0.27827126,
                0.09241776,     -0.35545421,     -0.09555794,     -0.15279087,
                0.35786980,     -0.80765885,      0.00477683,      0.10692052,
               -0.02452087,      0.29482898,     -0.20857568,      0.09919643,
                0.20826674,      0.01306592,     -0.14763619,     -0.19689649,
               -0.10497847,      0.19841474,      0.22709207,     -0.19905418,
                0.25012153,     -0.17212167,     -0.13741124,      0.10053921,
               -0.33130422,      0.11612491,     -0.13403504,     -0.04868061,
               -0.26960728,     -0.18128011,      0.05243321,      0.02288264,
                0.03089614,     -0.18900485,      0.14997397,     -0.28106809,
                0.00605543,     -0.01524122,     -0.03651367,      0.29155588,
                0.05656239,      0.00300368,     -0.38220069,     -0.22817016,
                0.09437610,     -0.23635432,     -0.12082223,      0.51499856,
               -0.23093502,      0.00234619,      0.19861344,     -1.38763356,
               -0.34221524,      0.37136692,     -0.09000202,      0.17044963,
                0.12386327,      0.38104180,     -0.22698681,      0.15359923,
                0.01284548,     -0.27323118,     -0.17553234,     -0.21322602,
               -0.09596299,      0.03034419,      0.16148223,     -0.28538218,
                0.04664387,     -0.25125158,     -0.03673074,     -0.05901387,
                0.05591407,      0.08190347,     -0.07462835,     -0.00167420,
                0.06729636,     -0.06445652,     -0.12518857,     -0.04562966,
                0.17702541,      0.03709105,      0.01845981,     -0.26652008,
                0.19051282,      0.07069925,     -0.22749960,     -0.22280563,
                0.01675655,      0.17829226,     -0.10565554,     -0.34290230,
                0.12282690,     -0.13199183,      0.10342682,      0.29822537,
               -0.11985040,      0.10247954,     -0.19376151,      0.04934972,
               -0.05643010,     -0.07977387,     -0.02935094,     -0.07248326,
                0.05880325,     -0.19777903,     -0.07912706,     -0.11226276,
               -0.09494642,      0.32432562,     -0.27897665,     -0.12723142,
                0.15494868,     -0.03973946,     -0.12255376,     -0.04456956,
               -0.00343038,      0.06278009,      0.11717918,      0.51089776,
               -0.02756719,     -0.08216092,     -0.04666410,      0.10851572,
               -0.01222489,      0.02826103,     -0.02810435,     -0.04188311,
                0.07915603,     -0.18978664,      0.02269719,      0.15541229,
               -0.19250587,      0.00708529,      0.13766526,     -0.01566005,
                0.41902468,      0.22799246,      0.13424449,      0.06036273,
               -0.28321511,     -0.17283058,      0.09910079,      0.19059503,
                0.09306135,      0.15639235,     -0.50520211,     -0.54504043,
                0.08515758,     -0.15215507,      0.10641147,     -0.12933242,
               -0.12794994,     -0.04425928,     -0.06938138,     -0.04374509,
                0.33034042,      0.25887179,     -0.21186811,     -0.01825188,
                0.11640406,      0.14641558,      0.10191095,     -0.01512139,
               -0.39829075,     -0.06974798,      0.23863675,      0.11427383,
               -0.45117629,     -0.12046866,      0.20631336,      0.07520340,
               -0.00577313,      0.08351491,      0.15068284,     -0.16311474,
               -0.03322895,      0.59057570,     -0.11362402,     -0.12226266,
                0.19063549,     -0.20933992,      0.01314470,      0.10231682,
               -0.03783391,     -0.15445176,      0.14236891,      0.15265620,
                0.14537676,     -0.14843217,     -0.12928586,     -0.25750440,
               -0.06942047,     -0.14340986,     -0.05294248,      0.48319578,
               -0.17109108,     -0.09752430,     -0.03484765,      0.12569045,
               -0.00567672,      0.09972948,     -0.09568185,      0.03573148,
                0.12150066,     -0.14110947,     -0.03789191,     -0.23226446,
               -0.03302049,     -0.35620815,      0.19099127,     -0.08607014,
               -0.16862954,     -0.15481438,     -0.10697260,      0.18659541,
                0.39839864,      0.20030494,     -0.11596740,      0.06509749,
               -0.13489006,      0.00380627,     -0.05348105,      0.06137180,
                0.01827291,      0.32860243,     -0.03714977,      0.08924480,
                0.50156230,     -0.44828722,     -0.44555321,     -0.12657893,
               -0.12070344,      0.41628644,      0.09014451,     -0.37514520,
                0.19100119,     -0.51891047,     -0.33712360,      0.14509110,
               -0.00751301,      0.43136707,     -0.15682569,      0.10938356,
                0.35812914,     -0.09357020,     -0.43303594,     -0.45795313,
                0.11225604,     -0.06580289,     -0.74208474,     -0.29774109,
                0.31196260,      0.05031888,     -0.14019357,      0.08322415,
                0.06464066,      0.55589551,     -0.03523394,      0.91338575,
                0.00933385,     -0.25890902,     -0.06620137,      0.41754025,
                0.48842403,     -0.14514783,      0.18431826,      0.31662306,
                0.31530502,     -0.12443175,      0.05328360,      0.19186023,
               -0.23830898,      0.06538294,      0.23256807,     -0.17584088,
               -0.33949623,      0.06953898,      0.42488697,      0.04424985,
                0.03590566,     -0.73241615,     -0.32313910,     -1.03706479,
               -0.26134387,      0.09912153,      0.02220458,     -0.66996408,
               -0.67231464,      0.39650598,     -0.25744352,     -0.40937024,
               -0.40802446,     -0.06095628,     -0.19036604,     -0.25677803,
                0.20092702,     -0.09766368,     -0.61974126,      0.09242319,
                0.18508229,      0.15315954,     -0.19652535,      0.56952000,
                0.24778485,      0.05468150,     -0.19876952,     -0.42072594,
                0.60048211,     -0.08532625,     -0.32706302,      0.43089956,
                0.02607667,     -0.30646798,      0.60160941,      0.29642105,
               -0.15037227,      0.17040133,     -0.19777291,      0.20261547,
               -0.06636346,      0.31801170,      0.11279747,      0.42750737,
                0.23340850,     -0.65735924,     -0.17673442,      0.20887867,
               -0.12723801,     -0.04175876,     -0.14782429,     -0.48838195,
               -0.26330447,     -0.21705690,     -0.15390086,     -0.00379810,
                0.09653217,     -0.25855377,     -0.43596897,      0.02666471,
               -0.10993513,     -0.01274437,     -0.28290790,     -0.02555143,
                0.38062471,      0.01063519,      0.17726940,     -0.75182784,
                1.10007489,     -0.22121194,      0.60042435,      0.16173971,
                0.04586595,      0.20576888,     -0.19429226,     -0.83991981,
               -0.05368964,     -0.07591660,      0.49873817,      0.51302254,
                0.29552498,      0.11176117,      0.08085274,      0.08798306,
               -0.22617196,     -0.19488977,     -0.16410966,      0.22745641,
                0.06996790,     -0.27149725,      0.06253977,     -0.44362190,
                0.02292110,     -0.01134820,      0.09802004,      0.02759241,
                0.65564948,      0.01461062,     -0.11788239,      0.17288612,
               -0.07688654,     -0.06719247,     -0.09354020,     -0.10794944,
                0.03411692,      0.10073488,      0.12717184,     -0.15117182,
               -0.13224232,     -0.41014367,     -0.01926531,      0.02652131,
                0.30769184,      0.03108375,     -0.04253411,     -0.04515836,
               -0.15329148,     -0.16474377,      0.09961920,      0.00753667,
                0.57216120,      0.03590421,      0.21975034,     -0.04281293,
               -0.10427814,      0.06226655,     -0.00644717,     -0.01899411,
               -0.00267631,      0.01463614,      0.08444372,     -0.34663552,
               -0.17391072,     -0.44331548,      0.14543459,     -0.14066528,
                0.72727090,     -0.12490047,     -0.21498901,      0.07258317,
               -0.06063223,      0.05589985,      0.08284010,      0.07217633,
                0.35473958,      0.21925074,     -0.17469619,     -0.32448274,
                0.17866379,     -0.50940764,     -0.16803208,     -0.08747452,
                0.01210597,     -0.24311541,      0.11882911,      0.25900829,
               -0.26100180,     -0.05551756,     -0.22064660,     -0.16059957,
               -0.40012687,      0.22512753,      0.32556108,      0.41482413,
                0.41857326,     -0.07967479,      0.10716321,      0.00571889,
               -0.17998587,      0.02769292,     -0.04559511,      0.33963123,
               -0.04215178,      0.16394228,     -0.12161229,     -1.71769965,
                0.15052168,     -0.23573488,     -0.08462940,     -0.43531451,
               -0.01157210,      0.09692302,     -0.22889511,     -0.15991428,
               -0.06628013,     -0.16460474,     -0.13847759,     -0.06403480,
                0.16180167,      0.04656273,      0.20756842,     -0.09318653,
                0.06188136,     -0.13772660,     -0.34463400,     -0.06000737,
                0.06852553,     -0.14655879,     -0.20858006,     -0.71537387,
               -0.10583667,     -0.03304110,      0.15070169,      1.50359356,
               -0.12445678,     -0.40535554,     -0.24143460,     -0.06749923,
               -0.29816553,      0.05655832,     -0.15919885,      0.06522932,
               -0.21842821,      0.18094420,      0.50938010,      0.04661901,
                0.04689324,     -0.14372392,     -0.21034910,      0.37045041,
               -0.28293824,      0.60780865,      0.16363992,      0.04263160,
                0.01221007,     -0.53727502,      0.00485527,      0.00097580,
               -0.53623503,     -0.00525271,      0.14910892,      0.20106506,
               -0.11509487,      0.09433422,      0.28298083,      0.23178938,
               -0.04526308,     -0.09569786,      0.07944603,     -0.02729916,
               -0.25548652,     -0.24752243,      0.25632235,      0.24244514,
               -0.31314680,      0.43691376,      0.12248095,      0.13770421,
               -0.01568496,      0.24993300,     -0.24797776,     -0.10877126,
                0.14470707,     -0.07602572,      0.26138937,      0.04046817,
                0.37166077,     -0.29537752,     -0.38185301,     -0.44272304,
               -0.24450757,     -0.39476618,      0.01826895,      0.03499260,
                0.26097333,      0.14555860,     -0.09060677,      0.22375208,
               -0.10354997,     -0.07626662,      0.28864339,      0.23629868,
                0.03625440,      0.31344768,      0.14632089,      0.05711035,
               -0.25454298,      0.56582350,      0.06606598,     -0.22943592,
               -0.11854812,     -0.05361000,     -0.19577608,     -0.16485795,
                0.11585925,      0.21665667,      0.07085148,     -0.18483055,
               -0.05562262,     -0.39321122,      0.09345501,      0.17732818,
                0.02846364,     -0.01155270,     -0.17671482,     -0.14510123,
               -0.12840405,      0.47490242,     -0.38388416,     -0.06261667,
               -0.46837142,     -0.01025404,     -0.21654867,      0.21085106,
                0.03393027,      0.26969150,      0.23165868,     -0.18674804,
               -0.11316708,      0.00345838,      0.13000122,     -0.16271853,
               -0.01338235,     -0.33866009,     -0.04638325,      0.17351393,
               -0.17717089,      0.11496176,     -0.04868638,      0.03771261,
                0.21643770,     -0.08455698,     -0.06667735,      0.08829074,
               -0.27330744,      0.04177428,     -0.02657556,      0.02117696,
               -0.02748483,      0.22305039,      0.09300119,      0.12429723,
               -0.49436486,      0.07941552,      0.03203356,      0.21094930,
                0.20049632,      0.08412953,     -0.24658589,     -0.13907315,
               -0.21373390,     -0.10491852,     -0.61293024,      0.37552121,
                0.07485025,     -0.61464930,     -0.26044646,      0.35707733,
                0.24081288,      0.35665017,     -0.71310520,     -0.04947079,
                0.60135919,      0.14961311,     -0.00733883,     -0.80661136,
                0.05187277,      0.28577754,      0.05519103,      0.09093778,
               -0.93868786,     -0.22809871,     -0.34355313,      0.02195188,
               -0.12948203,     -0.26383489,      0.08509906,      0.01009308,
               -0.17765240,      0.22425815,     -0.17815845,      0.29334614,
                0.36725163,      0.59923124,     -0.14711039,      0.11889258,
               -0.96611667,      0.03652528,     -0.01855432,     -0.26882026,
               -0.16365713,     -0.10111953,      0.41948539,      0.06127896,
                0.07930720,     -0.18824200,      0.34900194,      0.09597370,
               -0.40434176,     -0.06867338,     -0.09859522,      0.12875161,
               -0.11035073,     -0.05901917,      0.50254667,     -0.09358343,
                0.46654713,     -0.07259858,      0.29032609,     -0.23899038,
               -0.16007492,     -0.40020689,      0.14582482,     -0.40533134,
                0.00248454,     -0.31798521,      0.21569787,      0.13299245,
                0.00982301,     -0.85699564,     -0.04534911,      0.07223387,
               -0.27472392,     -0.07267758,      0.20106134,     -0.10390212,
                1.06641233,      0.20789967,      0.15664560,      0.00415062,
                0.07521701,      0.12751752,     -0.02323341,     -0.19139506,
               -0.12371487,      0.68559575,     -0.30217448,      0.40892246,
               -0.47160164,      0.03186832,     -0.38777637,     -0.00943543,
                0.06761283,     -0.28775093,      0.69128454,      0.32701427,
                0.25385562,     -0.65490711,     -0.26526406,      0.03507868,
               -0.44265205,      0.31331599,      0.02846011,      0.09694677,
                0.19743764,      0.05669940,     -0.29154885,     -0.10781024,
               -0.04004180,      0.11114717,     -0.62173319,     -0.03657326,
                0.59597975,      0.29286605,     -0.25589722,      0.05481918,
               -0.29677758,      0.21805392,      0.11015426,     -0.21662521,
               -0.22748575,     -0.00135511,      0.08891149,      0.25437337,
               -0.21519226,     -0.55616665,     -0.06389992,      0.06301690,
                0.33673701,     -0.66284102,      0.18130697,     -0.14111261,
                0.10077088,      0.75087827,     -0.17178625,     -0.00938134,
                0.11633982,      0.00480809,     -0.06729137,      0.00090152,
                0.22096352,      0.09945988,      0.04989884,      0.01895305,
               -0.21570294,      0.02309054,      0.18114741,      0.05090768,
               -0.24472032,      0.03736362,      0.21277787,      0.15111591,
               -0.14121999,      0.36435780,      0.08990490,     -0.22845736,
               -0.01730424,      0.27434143,      0.02252358,     -0.12973161,
               -0.25951767,      0.05037433,      0.18968689,     -0.19656377,
               -0.05166201,     -0.19765992,      0.01775153,      0.20567378,
               -0.13527957,      0.13639793,     -0.11235605,     -0.12676732,
               -0.05104765,     -0.26945776,     -0.12293537,      0.15716015,
               -0.32930550,      0.02522877,      0.02329518,      0.08349565,
                0.09344715,      0.08894387,      0.23583017,     -0.03012361,
                0.14918709,      0.29107141,      0.14786226,      0.30977654,
                0.07422631,     -0.38735276,      0.01897369,     -0.02756305,
                0.14607330,      0.00993034,     -0.16776548,     -0.73370147,
               -0.12715353,      0.25564155,      0.32478514,     -0.21816844,
                0.29029202,      0.10692601,     -0.19344558,      0.06221149,
               -0.00381932,     -0.15105017,      0.13185014,     -0.17756251,
               -0.39412808,     -0.29204902,      0.18012910,      0.02708586,
               -0.11420716,      0.09510543,     -0.09816986,      0.02976567,
                0.15874858,     -0.04465204,     -0.16448587,      0.35268316,
                0.13853543,      0.04321463,     -0.13024537,     -0.15717055,
               -0.00483094,     -0.23400788,     -0.09672319,      0.35702628,
               -0.14603792,     -0.63682503,     -0.15495561,      0.14789243,
               -0.35233685,      0.17822596,      0.16184507,     -0.11182016,
                0.09881386,     -0.15817438,     -0.24375245,      0.24367972,
               -0.14630933,      0.14858715,     -0.04107934,      0.09920231,
               -0.13553554,     -0.28216848,     -0.06108517,      0.05365065,
               -0.19762070,      0.12388150,      0.01885787,      0.07671170,
                0.07673413,      0.06055227,      0.15873985,     -0.04844386,
               -0.03896528,     -0.08577941,      0.01822075,      0.04634585,
                0.08497406,     -0.04017244,     -0.03445881,     -0.02312953,
                0.04167116,     -0.00218039,      0.20203714,      0.18953978,
                0.22127025,      0.26137328,     -0.20629612,     -0.06628765,
                0.13142236,      0.05835132,      0.12101424,     -0.23839098,
                0.09510680,     -0.02420923,     -0.04224509,     -0.27397642,
               -0.07837299,      0.17268798,      0.16360129,     -0.11763409,
               -0.06400993,      0.01167934,     -0.12992530,      0.20198248,
               -0.02903658,      0.17827964,     -0.08680905,      0.03869148,
               -0.32940710,     -0.17546679,     -0.15773939,     -0.04268592,
               -0.40202796,     -0.11744796,      0.23795585,      0.04541777,
               -0.05988003,     -0.07076595,      0.25881359,     -0.06350603,
               -0.03957776,      0.09973975,      0.20659296,      0.02613340,
                0.02163163,      0.10454386,      0.00844226,     -0.04267641,
               -0.08517541,     -0.31703272,      0.00401029,     -0.08791526,
               -0.03172585,      0.04289949,     -0.14142181,     -0.04821792,
               -0.07175239,     -0.02322749,     -0.13528354,     -0.20166214,
               -0.03872013,      0.01376782,      0.20070836,      0.21483524,
               -0.17619972,      0.09161314,      0.02407977,     -0.24379791,
                0.05767193,     -0.25502437,     -0.28425840,      0.06685789,
               -0.18656614,      0.18628505,      0.08470218,      0.20007776,
                0.20580313,     -0.12045322,     -0.10831551,      0.04017614,
               -0.16030221,      0.07210293,      0.01600733,     -0.01455702,
                0.01433015,      0.22939742,     -0.06985652,      0.28910151,
               -0.16839761,     -0.17897139,      0.65008759,     -0.07005997,
               -0.11818685,     -0.22304618,      0.56039208,      0.11735580,
               -0.54893595,      0.03557626,     -0.14963961,     -0.16427979,
               -0.15795460,      0.01744680,      0.27554667,     -0.37073368,
                0.41658160,     -0.08731783,      0.26831359,     -0.30466905,
               -0.12987700,     -0.39323801,      0.12268366,     -0.52547836,
                0.06472389,      0.07299770,      0.02011040,      0.06876418,
               -0.05005845,     -0.09595182,     -0.04394896,     -0.01575004,
               -0.02044053,      0.01736370,      0.17649870,      0.10248016,
                0.18552460,      0.15550193,     -0.25979260,     -0.11626094,
                0.20056833,     -0.12040821,      0.12864205,     -0.19487250,
                0.11156493,      0.07455321,     -0.04215292,     -0.22957489,
                0.22111656,      0.52323556,     -0.17585771,     -0.60732514,
                0.06396297,      0.01953306,     -0.98091203,     -0.24268065,
               -0.14381377,      0.03357600,      0.23071873,      0.23800150,
                0.19393368,      0.27852935,     -0.16597904,      0.03298069,
                0.11665399,     -0.18365386,     -0.38659927,     -0.28559911,
               -0.01395701,     -0.21532236,     -0.31628522,      0.05595359,
                0.16307959,     -0.40537867,      0.08985421,      0.01307979,
               -0.06741776,      0.30357993,     -0.01286741,     -0.60234058,
               -0.01641000,     -0.23491105,      0.13984989,      0.23010141,
                0.15593140,     -0.06211221,     -0.14489153,      0.11077916,
                0.08668796,     -0.02768679,     -0.14637782,      0.23708639,
                0.38008660,      0.11236246,      0.16084106,     -0.68199486,
                0.06522298,      0.03485749,      0.03062512,     -0.07130262,
               -0.20805371,     -0.03857997,     -0.08039604,     -0.10630595,
               -0.01233543,     -0.05389754,     -0.13517155,      0.19822364,
                0.03051191,     -0.30540869,     -0.04910310,      0.01715744,
                0.23130557,     -0.49766940,      0.01718816,      0.17901117,
               -0.02704346,      0.18541536,     -0.15511808,      0.18505538,
                0.14199938,     -0.08192971,      0.00205067,      0.01872923,
                0.77559781,      0.28941670,     -0.23385273,      0.63889748,
               -0.07879552,     -0.25516790,     -0.10020293,     -0.06030318,
                0.22208951,      0.01100795,      0.47104552,      0.11818232,
               -0.05919945,     -0.67411953,      0.03472638,      0.05150888,
                0.61148298,      0.03834079,     -0.00421408,     -0.06992243,
               -0.10555375,      0.11102749,     -0.24120235,      0.07304701,
                0.17542274,     -0.43227983,     -0.04683199,      0.49173635,
               -0.32437560,      0.38706511,     -0.76878029,      0.87809223,
               -0.32178703,      0.01735080,     -0.20996620,      0.18904571,
               -0.12935334,     -0.02153482,     -0.09014156,     -0.65039545,
               -0.24189958,     -0.20874344,     -0.07611265,      0.52435195,
               -0.35171735,      0.36207449,      0.15257365,      0.40249199,
               -0.40856805,     -0.09736214,     -0.57266271,     -0.06072083,
                0.30846938,     -0.01831992,     -0.27570897,      0.26588020,
                0.45752287,     -0.41882509,     -0.31108591,     -0.32209453,
                0.36338621,     -1.05049419,     -0.30827829,      0.50516558,
               -0.13833466,     -0.39081952,     -0.44824371,      0.46740356,
                0.97014451,      0.02388315,      0.25257906,     -0.01162816,
               -0.00397882,      0.01791119,      0.06847249,      0.04279301,
                0.13453254,      0.11302227,      0.27885726,      0.72202045,
               -0.08763386,      0.74790990,      0.18117249,     -0.04099858,
               -0.28459108,     -0.38945591,      0.37623656,     -0.09028669,
               -0.59392101,     -0.24228249,     -0.33629462,      0.70559597,
               -0.23675044,      0.23264198,      0.34004760,      0.07959593,
                0.63141757,      0.29757875,     -0.32350689,     -0.25751865,
               -0.33440435,     -0.73200673,      0.04274309,     -0.28236371,
                0.00251228,      0.08182035,     -0.42517993,     -0.21667679,
                0.05997935,     -0.22831184,     -0.21080999,     -0.29195035,
               -0.74110168,      0.10805146,      0.10970008,      0.14191046,
                0.02464157,      0.28632945,     -0.45574009,      0.36509570,
                0.60249692,      0.55750674,     -0.18864362,      0.17723462,
               -0.54308307,      0.05241000,      0.66740710,     -0.09859594,
               -0.17678815,     -0.03359387,      0.40770456,      0.49433336,
               -0.29306677,      0.89251345,      0.26789010,     -0.41416940,
               -0.01493184,      0.44620943,     -0.29981065,     -0.07497508,
               -0.21189854,      0.04160077,      0.06619520,     -0.08067761,
               -0.18230851,     -0.28376064,     -0.03803468,      0.01323080,
                0.28783721,     -0.12431268,     -0.24467862,     -0.02892642,
                0.07580955,      0.21510553,     -0.16536272,      0.01880259,
                0.00301955,     -0.45671397,      0.06741901,      0.40192354,
               -0.04792947,      0.00815536,      0.13603218,      0.06870898,
               -0.27430642,      0.54309195,      0.25536299,      0.04344174,
                0.38664407,     -0.17718655,     -0.12985852,      0.03994432,
                0.01507956,      0.12200402,      0.05341222,      1.02023673,
                0.00652261,     -0.42040458,     -0.11373474,      0.46517649,
                0.05503573,      0.32513115,     -0.37432876,      0.05328505,
                0.31519920,     -0.08543443,     -0.16553412,     -0.15319972,
               -0.02933077,      0.29230022,      0.07180670,      0.37832141,
                0.08074716,     -0.02021748,     -0.15384376,      0.22118020,
               -0.12028584,      0.24506836,      0.20603932,      0.10514860,
               -0.00861738,     -0.07526184,      0.13526607,     -0.05396954,
               -0.02587801,      0.02178667,      0.14799623,      0.08403234,
               -0.15210418,     -0.06310412,      0.02146607,      0.30096969,
               -0.28641215,      0.04254825,      0.10230438,     -0.38393906,
               -0.02921725,     -0.06441309,     -0.21062572,      0.22278212,
               -0.11149339,      0.15774722,     -0.02395570,     -0.04159039,
               -0.09273483,     -0.32876778,     -0.16660054,     -0.00900761,
               -0.27706617,     -0.00140494,      0.00564257,      0.01980272,
               -0.01227976,      0.08205902,      0.00038900,      0.06081979,
               -0.11074750,      0.87053007,     -0.23726068,      0.06171632,
               -0.06190225,     -0.37605801,      0.13689855,     -0.38537142,
               -0.11897250,     -0.53558016,      0.07588962,      0.03390070,
                0.75060117,     -0.56974185,      0.67990494,     -0.12196717,
               -0.63053304,     -0.00084834,      0.50299537,     -0.12995411,
               -0.35582337,     -0.64932305,     -0.59090102,     -0.40806109,
               -0.01586795,      0.01930341,      0.08432996,      0.00181440,
                0.27390486,     -0.01627931,      0.02556222,     -0.18434753,
               -0.07680442,      0.02307599,     -0.01925715,      0.00676756,
               -0.00317289,     -0.09081327,     -0.35807005,     -0.30321768,
                0.03284383,      0.08880218,     -0.08959775,     -0.00994440,
               -0.65629220,      0.07616162,     -0.00963062,     -0.08309226,
               -0.10209942,      0.46092242,     -0.13117395,      0.54129618,
               -0.01584635,      0.32922789,     -0.08490574,      0.07757974,
               -0.47983563,      0.30173510,      0.44578660,      0.33037627,
                0.26248115,      0.47322455,     -0.71422982,      0.10851487,
                0.24199259,     -0.10103253,      0.00315130,     -0.10657991,
                0.27979159,     -0.27058983,     -0.42706394,     -0.09665291,
               -0.44604391,      0.08656831,      0.07396051,      0.13920704,
                0.21341877,     -0.00994485,     -0.37365070,     -0.49629328,
               -0.14736845,     -0.17634532,      0.01706116,      1.37000704,
               -0.26578921,      0.31448728,      0.35145384,      0.22996691,
                0.17940737,     -0.15174823,      0.19132784,      0.09594993,
               -0.16597551,      0.20377301,     -0.29635352,     -0.10777867,
               -0.34036744,      0.09867699,      0.11408860,     -0.28652754,
                0.00167280,     -0.19938745,     -0.02888007,      0.23109441,
               -0.10535963,      0.16590159,     -0.08937802,     -0.11464732,
               -0.02748797,     -0.27013561,     -0.17261320,      0.12311708,
               -0.30833790,      0.04597095,      0.02466460,      0.10841712,
                0.07339705,      0.13882697,      0.20701702,      0.01205061,
               -0.13542052,     -0.15220518,      0.08477010,     -0.00845415,
               -0.24258722,     -0.27482748,      0.00348967,     -0.04688667,
               -0.20328270,      0.33655727,      0.05756696,     -0.06083765,
               -0.11580636,      0.20452137,      0.03209722,      0.08041546,
                0.08632568,     -0.12854594,      0.15566982,      0.02332163,
                0.29320118,     -0.22745919,     -0.43858230,     -0.32822400,
               -0.07738542,      0.15206730,      0.05747104,     -0.13866301,
               -0.01812741,      0.00661829,      0.00865392,      0.12255090,
               -0.00886809,      0.14768220,     -0.12561399,     -0.02993899,
               -0.29540604,     -0.17458878,     -0.11130062,      0.04738245,
               -0.36626768,     -0.03758818,      0.06703928,      0.09399699,
               -0.04904302,     -0.06856938,      0.20826507,      0.00041766,
               -0.38960230,     -0.40349132,      0.06692743,      0.02066598,
                0.17551924,      0.09440359,     -0.04980883,      0.05806452,
                0.10395841,      0.04427732,     -0.02928348,      0.03807461,
                0.25870198,      0.32000998,      0.06212449,      0.20063855,
               -0.14915322,      0.34824681,     -0.05685352,      0.07480273,
               -0.12681966,     -0.52541596,      0.11845983,      0.00074157,
               -0.32405522,      0.14032961,      0.41873437,      0.20946896,
               -0.32051718,      1.07691813,     -0.05586259,     -0.15288474,
                0.01810319,      0.43431377,     -0.52384943,     -0.19770238,
                0.20082618,      0.45445430,      0.16846591,     -0.07623892,
                0.14381459,     -0.04007867,     -0.06565098,     -0.00530135,
               -0.10664465,      0.57448453,     -0.53669554,     -0.12733048,
                0.48753250,     -0.54103571,     -0.09708466,     -0.02855958,
               -0.15638128,      0.18332161,      0.45979598,     -0.45307851,
                0.19717102,     -0.49819738,     -0.06798143,      0.02911479,
                0.04905217,      0.36668080,     -0.02578718,     -0.07512422,
                0.03854254,     -0.13847092,      0.01455266,     -0.02145325,
                0.07135340,     -0.00196288,     -0.05700050,     -0.32306111,
               -0.02759679,     -0.13976052,      0.02468495,      0.00281459,
               -0.53370559,     -0.17843448,     -0.32278815,     -0.19650334,
                0.21831653,      0.06171224,     -0.13285561,     -0.02500195,
               -0.20087916,     -0.01675222,      0.59192371,      0.56853068,
               -0.27067095,     -0.10838401,     -0.06369917,      0.04720271,
                0.43922311,      0.06049985,     -0.30681846,      0.19011569,
               -0.03810297,     -0.08209147,      0.06321722,     -0.01872044,
                0.59071660,      0.13365416,     -0.07068305,     -0.20138921,
               -0.03952755,     -0.01808228,     -0.03087101,     -0.04407272,
               -0.00558634,     -0.06807878,     -0.23745638,      0.15359412,
                0.08574971,     -0.07990753,      0.06499540,      0.05668047,
               -0.57398534,      0.11966497,     -0.14830971,     -0.05244793,
               -0.04672443,     -0.05416474,      0.00937225,     -0.02083800,
                0.58752340,      0.06794333,     -0.05877079,     -0.17698854,
                0.02273189,     -0.02401603,     -0.00502316,     -0.08441394,
               -0.06038092,     -0.06336328,     -0.23225293,      0.28228125,
                0.09185214,     -0.11567284,      0.07743189,     -0.00243098,
               -0.53675795,      0.09406299,     -0.10260244,     -0.05976175,
               -0.20631866,     -0.63592398,      0.05699201,      0.14996567,
               -0.11076096,      0.02647621,     -0.61942953,      0.20988876,
               -0.44299766,     -0.69253880,      0.30884880,     -0.19870465,
               -0.36120069,     -0.40704715,      0.39896223,     -0.18129428,
                0.28631383,     -0.16067950,      0.27140996,      0.09782092,
               -0.42022666,     -0.09858360,     -1.05229068,     -0.10299632,
               -0.13419411,     -0.21957712,     -0.01289291,     -0.03021305,
               -0.04840499,     -0.00218411,     -0.01808123,      0.17211702,
                0.12405732,     -0.05558833,      0.03012539,      0.23829418,
               -0.08322465,     -0.22891016,      0.23035595,     -0.01178419,
               -0.30449921,     -0.15896924,     -0.16738072,     -0.23962063,
               -0.26073590,      0.30452526,     -0.18152466,     -0.04391691,
                0.07663781,      0.07645287,     -0.25586647,     -0.05355000,
                1.26760340,     -0.22804852,     -0.00187257,     -0.25854915,
                0.09290528,      0.41283885,     -0.17685787,     -0.28563046,
                0.05143771,      0.09157721,     -0.49995667,     -0.21784081,
                0.18013591,     -0.14693891,      0.06083321,      0.35991505,
               -1.15593314,      0.18192022,     -0.17098951,     -0.52766931,
               -0.26086304,      0.03487116,      0.08857834,      0.25922218,
                0.00842110,     -0.15062480,     -0.33318400,     -0.25056484,
               -0.37971869,     -0.13358043,      0.08701907,     -0.51037729,
               -0.14530852,      0.45293847,     -0.24059390,      1.77385449,
               -0.06134865,     -0.34254879,      0.00524663,      0.01657660,
                0.01190314,     -0.14709653,     -0.22220042,     -0.07125109,
               -0.11638281,      0.08728558,      0.79489195,      0.10585064,
                0.02233930,      0.02625498,     -0.61782146,     -0.04946097,
               -0.33152488,      0.40188327,      0.46421525,     -0.04960893,
               -0.00983859,     -0.31885254,     -0.04907282,      0.03512738,
               -0.31240866,      0.08119419,      0.14372611,      0.53821087,
                0.04171519,      0.14644489,      0.21462731,     -0.18144695,
               -0.15033938,     -0.28712690,      0.41716787,     -0.05648581,
                0.12050885,     -0.67418468,     -0.02625890,      0.25312263,
               -0.31066495,      0.16757232,      0.10619279,      0.54428440,
                1.01580560,      0.08726287,      0.05659809,      0.29609168,
                0.16683847,      0.23249181,     -0.11210046,     -0.23130710,
               -0.05575541,      0.79431498,     -0.53550017,      0.51806515,
                0.59567702,     -0.10493638,     -0.19465752,      0.18575929,
                0.08363352,      0.26842210,     -0.06474914,     -0.49795455,
                0.12733582,     -0.18094139,      0.27110156,      0.62756580,
                0.16082822,      0.24084732,     -0.08637621,      0.20865336,
                0.32991490,     -0.02368175,     -0.15645935,     -0.14425696,
                0.21450944,     -0.25602216,     -0.25338748,     -0.10186598,
                0.07317099,      0.00182244,      0.07635943,     -0.00165150,
                0.56213218,      0.14708239,      0.00906393,     -0.06778467,
               -0.03615412,     -0.04485883,     -0.08562962,     -0.05206007,
               -0.00131413,     -0.07628071,     -0.26587009,     -0.09952140,
                0.05153764,     -0.12015103,     -0.05816871,     -0.01287224,
               -0.55360842,      0.06786257,     -0.07746262,     -0.07433086,
                0.02345940,      0.10459220,      0.11972261,     -0.00624150,
                0.53003854,      0.01973741,     -0.01695389,     -0.11589349,
               -0.06445304,     -0.15182415,     -0.07912505,     -0.15306844,
                0.02539746,      0.01503647,     -0.33293423,     -0.15759785,
               -0.06446513,     -0.09602563,     -0.08626688,     -0.12783574,
               -0.38855243,      0.03978214,      0.07159032,     -0.01061790,
               -0.93357331,      0.37218994,     -0.05656951,     -0.05048168,
                0.18704005,     -0.22231546,      0.07084636,      0.43909538,
               -0.02675305,      0.12474520,     -0.16286881,      0.22727610,
               -0.17700700,     -0.53964931,     -0.17157933,      0.27090690,
               -0.03151662,      0.29474875,     -0.18189000,      0.14194846,
                0.22221597,      0.22339438,     -0.00569616,      0.01630333,
                0.19222224,     -0.20709081,     -0.04967823,     -0.20700945,
               -0.00925551,     -0.33468404,      0.21699294,     -0.11432505,
               -0.12613088,     -0.16149086,     -0.10348330,      0.11241530,
                0.41202092,      0.22902903,     -0.06107374,     -0.02525830,
               -0.13633472,      0.04289641,     -0.08003966,      0.03105888,
                0.04162105,      0.24755815,      0.03377341,      0.06224491,
                0.03664140,      0.13232765,      0.00359138,      0.12778626,
               -0.98652905,     -0.05179993,     -0.11018549,      0.06942417,
               -0.08275219,     -0.17373712,      0.05110570,      0.24800423,
               -0.04420105,      0.00686667,     -0.16262126,      0.20180233,
                0.20885292,      0.53205317,     -0.01386663,      0.10234352,
               -0.54838157,      0.02439453,      0.04640195,     -0.12483501,
               -0.06631833,     -0.25461265,     -0.40033028,      0.21175855,
               -0.39111987,      0.47863039,      0.05398479,      0.03194248,
                0.43197730,     -0.02097340,      0.39609179,      0.33729821,
               -0.49447665,      0.37427697,     -0.06354773,     -0.04352058,
               -0.30095667,     -0.84092492,     -0.41129854,     -0.72414196,
               -0.33782548,     -0.09757030,     -0.12857294,     -0.75921029,
                0.17647777,     -0.30101255,     -0.01074108,     -0.17120543,
               -0.14377040,      0.02929353,      0.08112831,     -0.21658497,
               -0.02101308,     -0.33593160,     -0.11178719,     -0.13003302,
                0.03560904,      0.05861068,     -0.07029382,      0.05665118,
                0.06617532,     -0.04318387,     -0.24209149,     -0.07197355,
                0.13421217,      0.03952990,     -0.09439653,     -0.36589956,
                0.01020931,      0.03212278,     -0.05774712,      0.01390604,
                0.23775470,      0.09968076,      0.03204897,      0.02079536,
               -0.22069910,      0.05044616,      0.21347825,      0.13812965,
               -0.19520159,      0.08896025,      0.19252732,      0.11500995,
               -0.16722323,      0.37317795,      0.10754514,     -0.17562906,
               -0.01313255,      0.23631561,      0.03292442,     -0.13032506,
                0.01141179,     -0.05912326,     -0.19956270,     -0.01004097,
               -0.10128354,      0.09476405,     -0.01197946,     -0.07282772,
               -0.08542708,      0.11974148,      0.17798601,      0.08321062,
               -0.05820678,     -0.16368969,      0.23282076,      0.11678229,
               -0.32797042,     -0.25424609,     -0.43285528,     -0.04681926,
               -0.27231675,      0.30457085,      0.06147300,      0.02286848,
                0.07265632,      0.49005347,     -0.20918295,      0.14048386,
               -0.10604040,      0.71576715,     -0.14586994,      0.04270936,
                0.12320887,     -0.07374386,     -0.05124500,     -0.11387670,
               -1.07262218,     -0.08208698,     -0.05356571,     -0.10148182,
               -0.45360816,     -0.28213769,      0.14802201,      0.20140372,
               -0.19198619,     -0.76631665,      0.07802714,     -0.27255684
};

// Parameters for BN in Expansion Convolution layer
// Weight shape = torch.Size([144])


const float MBConv6_3_expansion_conv_BN_weights [144] =
{
0.85232669, 1.29437017, 0.19943087, 1.12673163, 6.90844965, 0.91709548,
        0.36482105, 0.25257823, 1.39677060, 2.03237891, 0.79947066, 0.67223680,
        2.32665181, 0.74519032, 0.60860664, 1.35242748, 1.13841093, 1.33767021,
        1.23779047, 0.76859474, 1.44972587, 1.03949618, 2.12541366, 1.09993553,
        1.37776077, 2.31132030, 0.61321557, 0.55579299, 0.83062136, 1.21840656,
        0.61377656, 1.03503525, 0.24778976, 1.22854578, 1.54846239, 0.82406121,
        0.73998880, 1.76535690, 0.79844147, 0.93485206, 2.11877728, 0.35798535,
        0.38132060, 1.20185161, 0.83866620, 0.76860762, 1.90022111, 1.01474690,
        0.48445883, 1.31261432, 1.10574400, 4.02614498, 1.24878919, 0.11656026,
        3.18943000, 0.86751366, 0.23002478, 2.00301552, 1.03037894, 0.90274650,
        0.31776574, 1.20662439, 0.13590939, 0.13203634, 1.12191594, 0.60024750,
        1.00079334, 0.94737047, 0.98867792, 1.22798932, 0.51370764, 0.70087540,
        2.37203932, 0.78261930, 0.70227081, 1.16135633, 2.11236858, 0.63339061,
        0.79969710, 1.15126526, 2.60333586, 0.49028519, 2.43400550, 0.16554374,
        1.27049816, 0.73965740, 1.27458000, 2.21818757, 0.75615740, 1.67392755,
        0.22374198, 1.50094581, 0.87097132, 0.77831495, 0.93951112, 0.12592690,
        1.10892975, 3.17169476, 0.17036581, 1.70225501, 1.06156564, 0.61302125,
        1.89326620, 0.46730703, 1.00942218, 1.34002018, 0.65738761, 1.75210953,
        0.78525078, 0.67528439, 0.98988116, 2.27373815, 0.17503156, 0.10510255,
        1.14375103, 0.38357496, 0.76941162, 0.81584430, 1.24967515, 1.19928086,
        0.84203422, 1.63886154, 0.99235779, 1.04060805, 0.86654758, 0.17630695,
        0.20354863, 1.40347731, 0.52054554, 0.83706045, 0.33876246, 1.14956212,
        2.08289909, 1.15629148, 0.62307358, 0.62385482, 1.44415367, 1.09239447,
        1.51817763, 1.32320786, 2.04576492, 0.34006250, 0.23387673, 2.03830957
};

const float MBConv6_3_expansion_conv_BN_bias [144] =
{

		 0.41931003,     -0.55956024,      0.18527171,      1.29506481,
            -3.47285581,      0.51870072,      0.37619096,      0.09858673,
            -0.89699692,      1.94109726,     -0.10792480,     -0.38407186,
            -0.71205771,     -0.68012714,      0.85771388,     -0.54093426,
            -1.05768526,     -0.07499873,     -0.64495903,      0.13761500,
            -1.79285717,     -0.81847692,     -0.45281520,      1.95961225,
             1.50370288,      2.23464060,     -1.14432025,      2.52252841,
            -0.17684859,     -0.53885734,     -1.06965482,      1.18635714,
             0.21865197,      3.04928780,      1.60040307,     -0.07750691,
            -0.37407234,      4.35114145,      1.87436402,      1.10584211,
            -0.67934537,     -0.13068330,     -0.06306060,      1.46283960,
            -1.07888854,     -0.79614121,     -0.07153162,     -0.26775271,
            -0.05592526,     -1.58520377,      0.09317546,     -1.11019874,
             0.69290322,     -0.05860706,     -1.06567800,     -1.38076591,
            -0.02087005,     -0.61768246,     -0.26166818,      1.03319001,
             0.04190914,      0.32754794,      0.00544528,      0.02399136,
            -1.75432396,     -0.03085542,     -0.83384526,      0.44977635,
            -0.16397563,      0.27335939,      0.03105615,     -0.91848963,
             1.65774286,      0.26316217,      0.31500918,     -0.71303111,
            -0.59771109,      0.13269719,     -0.48521310,     -0.16847745,
            -0.73443818,      0.01282422,     -0.20378549,     -0.05523030,
             0.68105388,     -0.00870260,     -1.98451030,      1.24757457,
            -0.19168870,     -1.91742253,      0.00006043,      2.01142240,
             6.22590017,     -0.03232606,      0.39301127,     -0.02806030,
             1.37218988,      2.77424932,      0.01337459,     -0.95796424,
             2.83945060,     -0.24245231,     -0.58488888,     -0.02089047,
             1.17631900,      0.35695732,     -0.87829018,      0.43115756,
            -0.78654838,     -0.67963737,     -1.44093180,     -1.96778405,
             0.03752716,     -0.01523515,      3.07656908,      0.18414941,
            -0.45154497,      0.01702922,      1.16764963,     -1.73243332,
             0.64284760,      2.94191599,      0.48626012,     -0.16303861,
            -1.17868495,      0.09805904,      0.10868230,      0.46300748,
            -0.00741668,      0.18671793,     -0.08792225,     -0.41464949,
            -0.80171907,     -1.42073619,      0.75740695,      0.42593423,
            -0.51760137,      0.96205306,     -0.68445855,     -0.53962761,
             1.21433020,      0.43130898,      0.04195528,      1.20784283
};


const float MBConv6_3_expansion_conv_BN_mean [144] =
{
		  0.42424867,  -3.39527631,  -0.29088017,  -3.40145326,  -1.24939370,
          1.76789904,  -1.43024111,   0.27478251,  -1.37304807,  -1.09007621,
         -2.70060968,   3.39683056,  -2.21869540,   1.59020030,  -0.66635430,
         -1.23468721,  -2.68114758,  -2.54792047,   0.36646491,  -1.46258819,
         -2.92278314,  -0.54360753,  -0.08733407,  -0.35810640,   2.21584797,
         -0.41560000,   0.22902450,   0.98939669,  -3.11940765, -10.77020645,
         -4.02403927,  -3.36096525,   0.70609844,   1.00748158,  -1.65496385,
         -1.74418569,   2.77180433,   0.23342982,  -0.85763931,  -2.26487064,
         -1.58446050,  -3.11489463,  -1.46553028,  -2.97526264,   1.31512189,
         -1.17252529,  -0.25268450,  -2.28933048,  -1.74306190,  -0.05969261,
          1.43505871,  -2.21314001,   0.01845888,  -0.50437456,  -0.64701414,
          0.35237247,   0.24479267,  -1.95052266,  -1.50115955,  -2.15756774,
         -0.02558460,  -1.64251220,  -1.04068005,  -0.04740241,  -2.21433616,
          0.01713454,  -1.71180284,  -3.55728579,   0.36975089,  -1.57937586,
          3.49396515,   2.42475891,  -3.74822211,   1.32494891,   0.63931966,
         -1.10448682,  -0.81123596,   4.95261192,   1.07208872,  -2.75077009,
         -0.80805552,  -1.40694237,  -1.20264018,  -2.56074071,   0.79195756,
          2.83220077,   4.19365215,  -0.83227187,   0.51425195,  -2.33233905,
          0.68471694,  -2.87398005,   9.75575733,  -2.73492622,  -1.02838731,
          0.22610240,  -2.59098220,   0.32348111,  -2.36901546,   3.67451239,
          0.44825414,   3.14106131,  -2.58888125,  -2.04592371,  -0.04759992,
         -0.23491797,  -1.07607305,   0.28543580,   0.44357359,   0.49423742,
         -2.09744787,   2.20613742,   1.74951756,  -3.36632061,  -3.27404547,
         -0.19346897,  -0.28491694,  -1.66037738,  -3.21206951,   0.20256782,
         -2.05855799,  -0.69202769,  -1.31770372,  -2.05974627,  -0.36973771,
         -1.02766991,  -0.56473464,  -2.23611259,  -3.01138020,   1.37055957,
         -1.46208382,  -1.05291831,  -2.20577621,   2.30252671,  -0.07699116,
          0.37362403,  -1.80851662,  -2.61898208,  -0.50000089,  -2.49862957,
         -0.70177925,   0.20239317,  -2.29778743,  -0.22488719
};


const float MBConv6_3_expansion_conv_BN_variance [144] =
{
172.99227905, 247.79914856,  68.75012207,  63.04212189, 161.63943481,
        130.59214783,  36.96660233,  71.80092621, 154.35945129,  78.50864410,
        302.89743042, 402.73162842, 339.51437378, 149.37477112, 120.11270142,
        246.38400269, 150.67828369,  77.16324615, 192.46929932,  42.89812088,
        124.73252106,  50.13408279, 159.07594299,  35.63773727,  43.45426559,
         42.70245743, 136.47256470, 102.19194031,  70.90953064, 154.71762085,
         92.74268341,  55.61908340,  69.16068268,  76.61505127,  52.42702866,
         49.99631500, 186.96705627, 124.69844055,  63.98825836,  26.48237038,
        170.45144653,  53.40494156,  50.13002014,  49.13183594, 163.80014038,
        238.33735657,  74.89675903, 219.83853149,  54.05970764, 125.63377380,
        238.03103638, 168.70852661, 136.01785278,  43.05407715, 109.75513458,
         66.26224518,  43.84534454, 123.97808838,  87.58307648,  72.37713623,
        100.26683044,  47.43124008,  54.09513474,  65.10565186, 101.92015839,
         75.84033966,  38.54362488,  57.36792755, 254.79872131,  59.29771423,
        130.01860046, 245.30352783, 150.96156311, 270.51309204,  42.06511688,
         78.21276093, 133.43096924, 225.97166443, 184.89825439, 156.18408203,
        129.97825623,  69.41088104,  90.55124664,  42.01525879, 182.82617188,
        148.72782898,  71.11872101, 273.92327881, 101.34452820, 138.36639404,
         42.14179230,  58.50794601,  63.98982239,  79.28701782,  60.04991913,
         38.49789810,  57.91016769,  26.97655678,  57.44407654, 174.70817566,
         33.40160370, 193.96066284, 130.86341858,  42.53493118, 100.62290955,
        193.21537781, 330.91464233, 194.70277405, 217.30291748, 284.03536987,
         60.43791580, 219.54798889,  59.26020813,  57.23762512, 157.91134644,
         43.47681046, 269.50115967, 200.57844543,  68.50487518,  62.84704971,
         43.06250000,  52.36271667, 156.95883179, 192.08180237, 126.85731506,
         45.14862442,  42.81037140, 167.52134705,  37.20942307, 132.33103943,
        150.80009460, 106.06686401, 335.73278809, 218.22848511,  42.58954239,
         50.13639069, 184.97282410,  60.78742218,  95.21416473, 259.94131470,
         60.49067688,  39.90634155,  47.83044815, 281.65139771
};
