
// weight for Squeeze Excitation1 layer has dimension of  torch.Size([1, 1, 32, 8])
const float MBConv1_0_squeeze_excitation1_conv2d_weights [1 * 1 * 32 * 8] =
{
	-0.34641647,  0.04351887, -0.19689904, -0.21445009, -0.15479167,
	-0.28942972,  0.05182117, -0.53581226,  0.25777572, -0.07794163,
	-0.15119703,  0.15634549, -0.26798224, -0.16977274, -0.08861761,
	-0.10747472, -0.04604618,  0.00413852, -0.15973206,  0.09384765,
	0.34361264, -0.06547577,  0.07216600,  0.38779709, -0.18004854,
	-0.17896201, -0.07780090, -0.04613839, -0.34426838, -0.18112180,
	-0.18163255, -0.09267422, -0.51208186, -0.03516384, -0.01991562,
	0.14210978, -0.27876821, -0.02662840,  0.03816877, -0.95836776,
	-0.04321937, -0.14986834,  0.03766924, -0.18728292,  0.09174975,
	0.04785334, -0.04753185,  0.16195899, -0.04603494,  0.17043379,
	0.05214122,  0.07913886, -0.07839223, -0.05394993, -0.77856588,
	-0.04574449, -0.03040349, -0.19790767,  0.04476580, -0.14099903,
	0.47178760, -0.07490677, -0.09255727,  0.05612193, -0.10966957,
	-0.06845252, -0.20409918, -0.04770374,  0.02982422,  0.11282270,
	-0.23473747,  0.12290210, -0.39878941, -0.14006291, -0.05066117,
	-0.38257432,  0.11114715, -0.22448128, -0.04578363,  0.02791664,
	0.19350241,  0.03871100, -0.14865622,  0.03373711, -0.02469428,
	-0.24177490, -0.04046535,  0.08738707, -0.30585206, -0.27782094,
	-0.01854527, -0.03580555, -0.01979897, -0.13298304, -0.30239594,
	-0.03297956,  0.04282338,  0.01918596, -0.55481106,  0.12291174,
	-0.03244259, -0.26199892, -0.21868737,  0.04675001, -0.40903983,
	0.27003604,  0.03529360, -0.26125595,  0.09719966, -0.06618207,
	-0.00453571, -0.35225931,  0.01770422, -0.45605797,  0.16179889,
	0.02909004, -0.01004202,  0.16344209,  0.11186743,  0.09709738,
	0.04631935, -0.06344154,  0.02187113, -0.02639181, -0.02770918,
	0.00689639,  0.06344727,  0.08593535, -0.19432065,  0.05318063,
	0.21302834, -0.26791278, -0.13437861,  0.30195594, -0.12324219,
	-0.10985286, -0.26160938,  0.11413687, -0.01305957, -0.35977620,
	0.04103971,  0.04123510, -0.07969284, -0.41701588, -0.19091918,
	-0.02609716, -0.27618864, -0.04039793,  0.25337598,  0.13153078,
	-0.06622462, -0.06440591,  0.07443232,  0.14818105, -0.02614721,
	-0.06789176,  0.12079353,  0.04225576,  0.13228850, -0.17258319,
	-0.09386421,  0.05919500, -0.95905906,  0.13704470,  0.21002418,
	-0.55462849, -0.18524957, -0.05894174, -0.24893443,  0.23773465,
	0.19271611, -0.06854992,  0.31544441, -0.54211062,  0.02674543,
	0.05031623,  0.16415115,  0.13437077, -0.01633463,  0.01613775,
	-0.00437666, -0.25003976,  0.05094681, -0.06525299, -0.50167292,
	-0.73012787,  0.07500041, -0.33688870,  0.13233626, -0.14816557,
	-0.44387507,  0.03300954,  0.15699904,  0.10122348, -0.07766506,
	0.01654782, -0.09425632, -0.18301955,  0.08530544,  0.01249671,
	0.25824648, -0.23380612, -0.07071672,  0.40173814, -0.12904455,
	-0.12978692, -0.01946006, -0.46040195, -0.05356414, -0.21510452,
	-0.11021835, -0.09032806,  0.34138215, -0.25245914, -0.02492477,
	-0.15370698, -0.25751600, -0.01394391, -0.05525348,  0.09092183,
	0.08662573,  0.06080396, -0.27998325, -0.01614394,  0.16363873,
	0.14005794,  0.08915944, -0.45290431,  0.12443827, -0.12586470,
	0.11500015, -0.16141340,  0.27293342, -0.07129827, -0.01310868,
	0.19440894, -0.02528931,  0.01652732, -0.06556919, -0.27649277,
	0.05546870, -0.35462981, -0.55786973, -0.21067816, -0.24775894,
	-0.08860996, -0.48692259,  0.32768768,  0.02914210, -0.00122783,
	-0.00433527, -0.09372014,  0.25222272,  0.11792236, -0.06655752,
	-0.30200014
};

// weight for Squeeze Excitation2 layer has dimension of  torch.Size([1, 1, 8, 32])
const float MBConv1_0_squeeze_excitation2_conv2d_weights [1 * 1 * 8 * 32] =
{
	0.14352739,      0.26483035,     -0.00227881,     -0.11421395,
	0.05653184,      0.01298613,     -0.09289262,      0.08155657,
	0.13719229,      0.09149460,      0.06935717,      0.01460265,
	-0.00463096,      0.20278193,     -0.03565117,      0.14647119,
	-0.41632184,     -0.12537083,     -0.34954900,     -0.70063776,
	0.37039956,     -0.86441070,      0.07823376,      0.34785476,
	-0.42191973,      0.13160723,     -0.14027891,      0.01912785,
	-0.20443003,      0.02485506,      0.13131180,     -0.27899012,
	-0.50015885,     -0.88943470,      0.07907736,      0.15277654,
	-0.36720103,      0.00284779,      0.17726599,      0.11797590,
	-0.44787955,     -0.32139558,     -0.36116916,     -0.76877242,
	0.37289539,     -1.19209218,      0.24749053,      0.21242175,
	-0.29060027,      0.00306354,     -0.31121105,     -0.37749699,
	0.20994449,     -0.46797687,     -0.00839326,      0.19752949,
	0.06346089,      0.10142127,      0.11291499,      0.11460973,
	0.04159782,      0.16911741,      0.07927793,      0.06841697,
	-0.28782174,     -0.18822555,     -0.47714943,     -0.78394043,
	0.13759637,     -0.77911073,      0.08468572,      0.33219889,
	0.24779943,      0.04526601,     -0.07128732,      0.06064446,
	0.15677400,     -0.12335355,     -0.09742155,     -0.10171450,
	-0.03814371,     -0.02076348,     -0.01175497,      0.00918872,
	0.09142698,      0.21521045,     -0.23822133,      0.01272825,
	0.15131800,     -0.07480841,     -0.45807338,     -0.20205186,
	-0.23384935,     -0.09495255,      0.23989195,      0.20347811,
	0.02664018,      0.02288336,      0.14388274,     -0.05036451,
	0.11185412,      0.21085517,     -0.12615688,      0.06924256,
	-0.48506299,     -0.07870310,     -0.35111395,     -0.32106560,
	0.36749497,     -0.96294194,     -0.22137931,      0.07229767,
	-0.30348948,     -0.12230375,     -0.12753302,     -0.23496006,
	0.10400647,     -0.21554302,     -0.19057322,      0.07693724,
	-0.13602653,      0.14839469,      0.25459617,     -0.66378349,
	-0.72623807,      0.10013916,     -0.70461857,     -0.53644407,
	0.14803614,     -0.38190159,      0.08956032,      0.08603136,
	-0.49211222,      0.04674557,     -0.66563153,      0.12445302,
	0.11636421,     -0.07226588,      0.05989500,      0.31868142,
	0.36778384,      0.24210103,      0.43990394,      0.21467835,
	-0.24666451,     -0.23248215,     -0.07726982,      0.12329319,
	-0.29216594,      0.08873475,     -0.21114078,     -0.78773546,
	0.05839510,     -0.05841138,     -0.03005963,     -0.01519393,
	0.06532358,     -0.03853481,      0.04420533,     -0.04921214,
	0.49991730,     -0.67901242,     -0.02116909,      0.04679924,
	0.02437305,      0.06140749,      0.02619003,     -0.77845532,
	-0.10000698,     -0.16957493,     -0.45906243,     -0.02870649,
	0.23383780,     -0.59408277,     -0.25437328,      0.04478549,
	-0.03290287,     -0.23445006,      0.04539075,      0.02666414,
	-0.19477853,      0.08112802,     -0.21316430,     -0.28163722,
	0.65306050,      0.03800796,      0.10508707,     -0.49981654,
	-0.13974026,     -0.16452578,     -0.49523547,     -0.33033109,
	-0.54354572,     -0.05427400,     -0.32802427,     -0.23342685,
	0.36158332,     -0.69978029,     -0.28717577,      0.20070226,
	0.07911112,      0.03786701,     -0.04143592,     -0.18205829,
	0.10285290,     -0.12728913,      0.04923814,      0.07881161,
	0.05947137,      0.05230147,      0.09738845,      0.15176123,
	-0.03999638,      0.29349673,     -0.03664855,      0.04886631,
	-0.11483580,     -0.20888168,     -0.26724711,     -0.24652836,
	0.12787546,     -0.93017918,     -0.00113678,      0.12231258,
	-0.04385733,     -0.14011502,      0.11939134,      0.03801169,
	-0.24035402,      0.35772634,     -0.06736397,     -0.49205348,
	0.04253422,      0.08817375,      0.02448851,      0.06188929,
	0.07932051,      0.13831949,      0.03727243,      0.13801053,
	-0.36710629,     -0.10194952,     -0.35988033,     -0.02908416,
	0.35596579,     -0.77928197,     -0.23723012,      0.01904791,
	-0.33907709,     -0.31782106,     -0.10749433,     -0.16882074,
	-0.29834324,     -0.09799628,     -0.23610500,     -0.68858182
};


// Bias for Squeeze Excitation1 layer has dimension of  torch.Size([8])
const float MBConv1_0_squeeze_excitation1_conv2d_bias [8] =
{
	-0.04058303,  0.01947822,  0.00491460,  0.01685208,
	-0.04464736,  0.06740507, -0.02213598, -0.00350703
};


// Bias for Squeeze Excitation2 layer has dimension of  torch.Size([32])
const float MBConv1_0_squeeze_excitation2_conv2d_bias [32] =
{
	0.29729816,  0.02362603, -1.15607023, -0.22843614,  0.10971949,
	-1.08131552, -0.27285764, -0.44114870, -0.43827251, -0.28696531,
	0.46831611, -0.49752656,  0.46489125, -0.78895718,  0.33926556,
	-0.76872212,  0.33789182, -0.08549312, -0.52605498,  0.17604925,
	0.09550640, -0.83165509, -0.42319575, -0.10267314, -0.59749454,
	-0.28297970, -0.12761177, -0.92058951,  0.22579314,  0.11726750,
	-0.63462061, -0.48653674
};
