
// weight for Depthwise layer has dimension of  torch.Size([3, 3, 1, 32])
const float MBConv1_0_depthwise_conv_conv2d_weights  [3 * 3 * 1 * 32]  =
	{
	-0.03292532, -0.35945484,  0.00521705 ,
	0.07394724,  0.73812872, -0.07195859 ,
	-0.10932039,  0.51368999, -0.13907993   ,


	0.08078840,  0.80453461, -0.22316268 ,
	0.10212795,  0.03980616,  0.06189213 ,
	-0.05685827, -0.18577500, -0.02736076   ,


	-0.10041475,  0.03370303, -0.11267076 ,
	-0.14177549,  1.35987020, -0.28478840 ,
	-0.15470865, -0.03566309, -0.16070251   ,


	-1.13255286, -1.76059699,  0.13752346 ,
	-0.10711480,  0.16966070, -0.05046307 ,
	1.16067314,  1.81513846, -0.15427743   ,


	-0.29551855, -0.34414181, -0.07399938 ,
	-0.12057769,  2.58388448, -0.33320963 ,
	-0.39338693, -0.10112418,  0.09440103   ,


	-0.15161294,  1.38656652, -0.24685392 ,
	-0.18863903,  0.36650270, -0.22146025 ,
	-0.11721231,  0.08149829, -0.12113816   ,


	0.16431180,  0.17644072,  0.15776968 ,
	0.09497111, -1.45642126,  0.12600978 ,
	0.02332722,  0.03354970,  0.02160173   ,


	-0.06846042,  1.43761671, -0.19424151 ,
	0.09004716, -0.30885512, -0.11614735 ,
	-0.10232471, -0.37189704, -0.00720887   ,


	0.01733153, -0.07308605,  0.04487111 ,
	0.06333219, -1.69216025,  0.13198479 ,
	0.04556038, -0.09746782,  0.04716360   ,


	0.00984529, -0.13716353,  0.00449459 ,
	-0.15214036, -1.29641843, -0.15580568 ,
	0.05932085,  0.05084511,  0.03206222   ,


	-0.03817194,  0.05481031,  0.00666219 ,
	-1.24873281, -0.29675490,  0.08668503 ,
	0.07084677,  0.08183254, -0.00489359   ,


	-2.16902924, -3.06009507, -0.92030185 ,
	-0.43347627, -0.66773838, -0.37688503 ,
	2.54446340,  3.84492278,  1.23174739   ,


	-0.01127202, -1.20217705,  0.17215650 ,
	0.07881526, -0.27484718,  0.03144858 ,
	-0.01997834,  0.08227719, -0.02552011   ,


	-0.09554853, -0.11251944, -0.10816631 ,
	0.00769149,  1.33362389, -0.05937175 ,
	-0.07539847, -0.18515475, -0.16167186   ,


	0.19787884,  0.21915886,  0.08510204 ,
	0.09407427, -1.20482409,  0.09888461 ,
	0.14871429,  0.09352154,  0.09735316   ,


	0.92096591,  1.35713291, -0.90091246 ,
	0.69185871,  0.16852373, -0.23561549 ,
	-0.77783763, -0.32330903,  0.12387288   ,


	-1.04962075, -0.99381918,  0.84076953 ,
	-0.84308797,  0.20697381, -0.07459785 ,
	0.72790331,  0.03881172,  0.01796188   ,


	0.77061355,  0.05758028, -0.32188669 ,
	0.43442494,  0.18044439, -0.11051912 ,
	-0.40354079, -0.20769285,  0.11357036   ,


	-0.89663571, -0.31745419,  1.15909493 ,
	-1.68068278, -0.12618224,  1.88655794 ,
	0.08281434, -0.30070210,  0.13954087   ,


	-0.32204366,  0.01760925, -0.06248652 ,
	-0.08541081, -0.30639803,  0.13924176 ,
	0.01255440,  0.11034400, -0.03656838   ,


	-1.02935386, -0.85068989,  0.76198363 ,
	-0.91769010,  0.03261819,  0.14296211 ,
	0.75011635,  0.14615463, -0.13185412   ,


	1.71471250,  0.41725400, -2.15020227 ,
	1.59682393,  0.43228430, -1.91286194 ,
	0.08325092,  0.38798311, -0.50441682   ,


	0.70679265,  0.48339406, -0.32688671 ,
	0.32283288,  0.26530600, -0.14176208 ,
	-0.30555713, -0.14848681, -0.02350827   ,


	-0.47638485, -0.51824075,  0.25952891 ,
	-0.11697114, -0.11981709,  0.10537321 ,
	0.25863531,  0.10700215,  0.00460548   ,


	-0.05371122, -0.07605981, -0.06645574 ,
	-0.01998707,  1.30253160, -0.15877883 ,
	-0.08762071, -0.13900778, -0.07805292   ,


	0.06105251, -0.19552076,  0.16444883 ,
	1.29002488, -1.18039560, -0.13759616 ,
	-0.00843921, -0.16024701,  0.16354577   ,


	-0.06210295,  0.03460892,  0.02322332 ,
	-0.80973673,  0.32769164,  0.47532001 ,
	-0.07808834,  0.10308184, -0.03196725   ,


	-0.54603559, -0.20876016,  0.51781285 ,
	-1.29751563, -0.71695477,  2.40470338 ,
	-0.97717375, -0.38826865,  1.33084679   ,


	-0.22475113, -0.47225592,  0.04100874 ,
	-0.33412412,  0.02209159,  0.16593114 ,
	0.03691731,  0.15935773, -0.14797921   ,


	-0.16485505,  0.01944283, -0.09119127 ,
	-0.19332792,  1.13863099, -0.00444271 ,
	-0.13559775, -0.12635644, -0.05982393   ,


	-0.10239583, -0.21106960,  0.16130282 ,
	2.48014021, -1.63109243, -0.53582090 ,
	-0.05860826, -0.10685079,  0.07439043   ,


	0.48088068, -0.62238765, -0.22805116 ,
	1.77634037, -0.66748214, -0.55385017 ,
	-0.07856108, -0.40444499,  0.18519810
};

// Parameters for BN in Depthwise layer Weight shape =  torch.Size([32])

const float MBConv1_0_depthwise_conv_BN_weights  [32]  =
{
	0.70870876, 1.23043561, 4.56025362, 2.64616704, 2.20662498, 3.21518612,
	3.11803246, 1.34075689, 3.85315037, 4.46677113, 1.29283488, 4.27125263,
	1.10824752, 2.83847404, 1.46741104, 1.61881614, 1.08822095, 0.79142028,
	2.93121004, 1.02505612, 1.07304633, 5.00833464, 1.12255943, 0.48154637,
	2.59900641, 3.95507455, 0.63354272, 3.98747301, 1.02158105, 0.92838925,
	3.81758547, 1.55175877
};

const float MBConv1_0_depthwise_conv_BN_bias  [32]  =
{
	0.09355987, -1.70364785,  2.28658056,  1.72414136,  4.97848845,
	2.70625114,  2.37036824,  0.79834080,  1.44467974,  0.55261970,
	3.08831096,  2.10952020,  5.28985786,  1.85038996,  2.64160109,
	2.93422341,  7.84576178,  1.27535462,  1.78425145, -0.01010301,
	6.31738663,  1.89672947,  1.22857761,  4.36844110,  1.92273462,
	-2.06831574,  1.89539528,  2.22336483,  0.56839150,  0.99465328,
	1.73356128,  1.59912241
};


const float MBConv1_0_depthwise_conv_BN_mean  [32]  =
{
	-0.04372812,      0.00606236,      0.98591650,      0.08958923,
	0.07123029,      2.15387130,     -1.19204652,     -0.02944879,
	0.01964964,     -4.58933449,     -3.13577366,     -0.16725492,
	-2.26183677,      1.08071375,     -0.26715669,      2.43717551,
	-4.35659266,     -0.09311606,     -0.14844729,      0.01026300,
	-1.31514633,     -0.01269536,      0.31426680,     -0.20560259,
	1.30023825,     -0.03688928,      0.00115384,      0.90828174,
	-2.75022697,     -0.04071514,      0.27321750,     -0.51006395
};


const float MBConv1_0_depthwise_conv_BN_variance  [32] =
{
	0.00743733,     0.02219386,     9.52487659,     0.37861595,
	0.03954346,    11.67193604,     2.41580105,     0.01711238,
	0.01166367,    46.51831055,     2.15074921,   320.26663208,
	3.96378350,     3.22947574,     0.70450813,     5.04441071,
	5.22916126,     0.00709260,     1.66100943,     0.02421811,
	1.52876425,     0.01125812,     0.59971124,     0.69963115,
	3.50098801,     0.22751917,     0.00574232,    34.94352341,
	7.99156427,     0.01577999,     4.96889734,     2.82004118
};
