
// Weight for Project Conv layer has dimension of  torch.Size([1, 1, 16, 32])  
extern float MBConv1_0_project_conv_conv2d_weights [1 * 1 * 16 * 32] =  
{
	0.01715154,      0.12068915,      0.10851547,      0.57103354,
	0.24510810,     -0.09494174,     -1.03315556,      0.50473893,
	-0.87962514,     -0.02486768,      0.14536251,      0.49803928,
	-0.02956397,     -0.00026090,     -0.21311757,      0.20882118,
	-0.24621846,      0.28052196,     -0.23740916,      0.02650882,
	-0.12757431,     -0.05881625,     -0.03870697,      0.19536960,
	-0.07004337,      0.18154635,     -0.06291558,     -0.06659938,
	-0.08397640,     -0.10606476,     -0.13843210,      0.34794983,
	-0.44239965,     -0.18488894,      0.48295209,     -0.24903549,
	-0.38937873,     -0.19513039,      0.34557098,     -0.09763670,
	-0.86788672,     -0.22784896,      0.77130276,      0.17840675,
	-0.21595784,      0.02176058,     -0.14341334,     -0.19593541,
	0.40150699,     -0.25992426,     -0.57920986,      0.10938706,
	0.11872956,     -0.20797512,      0.09666284,     -0.09049848,
	-0.15468489,     -0.56959230,      0.07187739,      0.13020323,
	0.02255242,      0.00576425,      0.74768430,      0.21157032,
	-0.24065784,     -0.00733834,     -0.48843649,     -1.14491487,
	-0.09653438,      0.22212191,     -0.48659042,      0.06596602,
	0.41138464,     -0.46718994,      0.34916300,      0.01345034,
	0.50683135,      0.36782917,     -0.68062538,     -0.15613560,
	0.01377550,     -0.18000117,     -0.25501078,      0.05998314,
	-0.04998960,      0.21726528,      0.00782583,     -0.05869488,
	-0.48672953,      0.11185824,     -0.06688854,     -0.13944405,
	0.02984934,      0.00283112,     -0.11373538,      0.17524473,
	-0.32789817,      0.20350845,     -0.39345595,      0.21697010,
	-0.83619362,     -0.44240481,      0.32592571,     -0.04872512,
	-0.13678707,     -0.33792949,     -0.36025926,      0.00328150,
	-0.22042444,     -0.06098839,     -0.32080349,      0.32228136,
	-0.63467675,      0.32989341,      0.04312826,      0.59299791,
	1.55713069,     -0.30098879,      1.04873776,      0.70774144,
	-0.38066933,      0.22476509,     -0.12757179,      0.33233324,
	-0.91689509,      0.19364309,     -0.43493575,     -0.05020594,
	-0.31682399,     -0.51102012,     -0.61107254,     -0.01256403,
	-0.08632609,      0.04150699,     -0.22770746,     -0.25353977,
	-0.09916905,      0.46616605,      0.09377009,      0.09860774,
	0.59441644,     -0.30137259,      0.84012932,     -0.09371070,
	0.09284013,     -0.26835001,     -0.41095030,     -0.21249352,
	0.02676670,     -0.16976897,     -0.22220004,      0.10281402,
	-0.49932930,     -0.06989416,      0.10822973,     -0.04361887,
	-0.22278094,     -0.59403986,     -0.16454324,      0.22005364,
	-0.17593704,      0.09235442,     -0.29818723,     -0.05781980,
	0.10637929,      0.24578761,     -0.00334598,      0.01341391,
	0.01245534,      0.18074079,     -0.01534361,      0.07936699,
	0.46146291,     -0.97261059,     -0.32583141,      0.28010240,
	-0.41043347,      0.03372302,      0.31256002,      0.08349963,
	-0.20527947,     -0.52479136,      0.01470480,      0.00277259,
	0.80049121,     -0.47190449,      0.05191778,      0.16804141,
	0.09778391,     -0.12885273,      0.59646106,     -0.17252252,
	-0.15469164,     -0.00507296,     -0.07425424,      0.10407484,
	-0.45005688,      0.00206787,     -0.20365550,     -0.01998296,
	0.23482786,     -0.18692097,     -0.79742408,     -0.03253205,
	0.04958328,     -0.64158684,     -0.32183114,     -0.43044010,
	0.82293969,     -0.14397474,     -0.63877952,     -0.01107907,
	0.34107843,      0.42125505,      0.13967080,     -0.08477175,
	0.64353526,     -0.01129326,      0.07095174,      0.20777336,
	-0.07379335,      0.02203498,     -0.18662663,      0.27769247,
	0.02571654,      0.16703320,      0.20942703,     -0.92109334,
	-0.25019357,     -0.00323053,     -0.32193696,      0.32074058,
	-0.41827068,      0.21690147,      0.11218622,      0.38497606,
	-0.01956933,     -0.28803697,      0.78558815,     -0.14093420,
	0.49760026,      0.07866853,      0.67128319,      0.10565536,
	0.41487449,     -0.04787124,      0.27121249,      0.15243348,
	0.25352937,     -0.23963939,      0.06437950,      0.29968318,
	-0.28588593,      0.15827020,      0.28804109,     -0.30131686,
	0.73784685,     -0.21562442,     -0.28370869,     -0.21639472,
	1.96170461,     -0.43809685,      0.61941081,     -0.07758247,
	0.53221536,     -0.34339941,      0.05446158,      1.81678665,
	0.06295972,      0.22498013,     -0.23195422,     -0.21864335,
	0.68281406,     -0.37045169,     -0.02121197,      0.16594510,
	0.24125874,     -0.51421398,      0.32672834,     -0.12785693,
	-0.15362154,      0.19063696,     -0.14547569,      0.54350084,
	0.01886257,     -0.59637213,     -0.09925941,      0.04252626,
	0.41864583,     -0.25696185,      0.10457429,      0.11136002,
	1.54522669,      0.09827451,      0.25200513,      0.19515204,
	-0.05688870,      0.42377463,      0.42043582,     -0.37863514,
	0.16142674,     -0.12427027,     -0.18025188,      0.84136426,
	0.54428798,      0.12919825,     -0.13651238,      0.25015199,
	0.21662121,      1.13575077,      0.39754179,      0.55758744,
	0.21355911,     -0.27351919,      0.25748605,     -1.06954563,
	-0.64823359,     -0.56186765,      0.55864424,     -0.11318497,
	0.18671252,     -0.11020431,      0.17395580,      0.07396795,
	1.06694376,      0.17676622,      0.02203967,     -0.06765617,
	-0.16656703,      0.27158740,      0.25101340,     -0.39024779,
	0.18667027,     -0.08691315,      0.06310289,     -1.69923794,
	-1.10503578,     -0.72475237,     -0.03902134,      0.40567228,
	1.20277166,      0.53873783,      0.69896793,     -0.81485635,
	0.16704458,     -0.15490112,     -0.01052975,     -0.40275306,
	0.74535334,     -0.29264426,      0.34151137,      0.09078517,
	-0.21611494,      0.03762316,      0.52937126,     -0.22534434,
	-0.00556621,      0.73292285,      0.34719202,      0.39749685,
	-0.65746689,      0.07091794,     -0.55685800,      0.50552249,
	0.80898029,     -0.03645877,     -0.14681834,      0.10102852,
	-0.07043007,     -0.04837824,     -0.01836528,      0.22449723,
	-0.08770886,      0.14346181,      0.02101742,     -0.05215422,
	-0.00098788,      0.46868929,     -0.12428027,     -0.25343156,
	0.15920761,      0.16238928,     -0.64088488,      0.11198229,
	-0.14575562,     -0.59262615,      0.62998360,     -0.02883907,
	0.47697410,      0.56966710,     -0.56205493,     -0.31772506,
	0.04397205,     -0.13780659,      0.03632408,     -0.00035677,
	0.19685899,      0.16847411,     -0.09472816,      0.11964243,
	-0.35886139,     -0.16446359,      0.04165196,      0.02036245,
	0.48133904,     -0.47174275,      0.26631591,      0.30853787,
	0.21081598,      0.11543807,      0.04377394,      0.39129227,
	-0.56880510,     -0.37986964,     -0.18340561,     -0.51039553,
	0.46940878,     -0.09666709,      0.36850634,      0.13949008,
	1.69749379,      0.50171417,      0.21376568,      0.52889794,
	-0.35720310,     -0.37307233,     -0.08589025,     -1.67007661,
	0.48313287,      0.19693202,     -0.11362844,     -0.00478685,
	0.88860339,     -0.20889945,      0.03418595,      0.25021061,
	0.04819405,     -0.80589104,      0.25950643,     -0.06441128,
	-0.17077915,      0.30502039,     -0.24832729,      0.74991357,
	0.07703786,     -0.42965481,     -0.18579175,      0.16703734,
	-0.18849319,      0.18566415,     -0.17888334,      0.82624006,
	-0.41954109,      0.60899729,     -0.11231513,      0.20292719,
	0.41639206,     -0.19315867,      0.74107152,      0.09142688,
	0.79405272,      0.32435364,      0.18615274,     -0.13981645,
	0.47579268,     -0.00518619,      0.33341128,      0.07806289,
	0.31921592,      0.03585413,      0.20597720,      0.01052925,
	-0.32351148,     -0.27748784,      0.07514753,      0.14116047,
	-0.03164790,      0.29747546,      0.42055607,     -0.16738033,
	0.45918041,      0.51693648,      0.11739151,     -0.20755552,
	0.10068534,      0.39324245,     -0.06011533,      0.19814102,
	0.64635068,      0.25756344,      0.20544870,      0.01963075,
	0.06110120,      0.28302324,      0.57846904,      0.27124134,
	-0.20860769,      0.46557608,     -0.99726552,     -0.02620156,
	0.40461543,     -0.34558016,      0.30224431,      0.14817041,
	0.33888382,     -0.09907372,      0.07429196,     -0.12011300,
	-0.15539050,      0.32395661,      0.34003741,      0.66451341
};


// Parameters for BN in Project Conv layer Weight shape =  torch.Size([16])
extern float MBConv1_0_project_conv_BN_weights [16] =  
{
	5.56536436, 6.41136456, 6.20776558, 5.21682167, 5.14990473, 6.27915144,
	5.57469749, 5.65815687, 7.75624514, 6.66946125, 5.53823328, 6.26459742,
	4.43533278, 7.12915134, 6.45152617, 5.57683802
};

extern float MBConv1_0_project_conv_BN_bias[16] =  
{
	0.00462267, -0.00115919, -0.00036915,  0.00589598, -0.00880162,
	0.00252980,  0.00402172,  0.00403006, -0.00971426, -0.00105763,
	0.00319033,  0.00092771,  0.00615967,  0.00581070, -0.00039968,
	-0.00325059
};

extern float MBConv1_0_project_conv_BN_mean [16] =  
{
	-1.55508566,  1.15244627, -1.48390353, -0.63220519,  1.84969187,
	-0.73967427,  1.34384394,  4.90068054, 10.70640087, 11.61470699,
	-0.08321756,  1.42441332,  2.19945645,  8.97311878,  8.42300606,
	4.20420742
};

extern float MBConv1_0_project_conv_BN_variance [16] =  
{
	2.59896493,  2.33948255,  2.82772040,  4.73285866,  1.84109616,
	2.20084119,  1.55678701,  2.19441819, 17.13715172,  8.67965984,
	6.13355303,  2.02052426,  2.30519247, 13.10214996,  2.90636778,
	2.95968604
};



