
// Weight for Project Conv layer has dimension of  torch.Size([1, 1, 144, 24])
float MBConv6_2_project_conv_conv2d_weights [1 * 1 * 144 * 24] =
{
0.04541286,     -0.07312025,      0.13460720,     -0.54331452,
                0.09975620,      0.19063351,     -0.00115734,      0.02140146,
                0.12007067,      0.09849632,      0.56176025,     -0.18701686,
               -0.08442276,      0.07402460,      0.04361504,      0.07835306,
                0.01939104,      0.00740156,      0.14656210,     -0.11608057,
               -0.15020292,      0.12116024,     -0.03022880,      0.29055965,
               -0.22470529,     -0.14378686,     -0.00782867,     -0.15908629,
                0.08675383,      0.11724675,     -0.16501315,     -0.47738686,
                0.05407765,     -0.26175120,     -0.10398606,      0.01384499,
                0.11294468,     -0.05822934,      0.02257626,      0.06470667,
               -0.16086407,     -0.27424479,     -0.01394825,     -0.30428529,
                0.16000690,     -0.13305829,      0.16830602,      0.15602478,
               -0.01308290,      0.14608355,      0.04056483,      0.00646466,
                0.02846870,      0.00862209,     -0.12644647,      0.06684240,
                0.61312157,     -0.13156275,      0.06816045,      0.45552018,
               -0.06153707,     -0.00348620,      0.09145837,     -0.24088715,
                0.72550088,      0.04036375,      0.24760114,     -0.01737860,
                0.09390755,     -0.13594683,      0.04246166,      0.07260383,
                0.06237968,     -0.06176639,      0.09903111,      0.20242564,
                0.01045683,     -0.08482811,      0.00476797,      0.02259443,
                0.16997142,     -0.18854891,      0.13352560,     -0.28716472,
               -0.25303426,      0.15219641,      0.13503066,     -0.00532807,
               -0.25378826,     -0.00069766,      0.06179762,      0.11296517,
               -0.37529662,      0.19408491,      0.16593966,      0.09768512,
                0.06117745,      0.18682066,     -0.11572444,      0.02577769,
               -0.01467867,     -0.04767871,     -0.47017071,      0.01663897,
                0.11355060,      0.36662218,     -0.05489046,      0.04015143,
               -0.06402187,      0.27341443,     -0.41974154,     -0.01788435,
               -0.03206399,      0.21719307,      0.07637145,      0.05689204,
               -0.03561547,      0.05662687,      0.00492991,     -0.24637917,
               -0.19493589,     -0.04126848,      0.00514503,     -0.16209567,
                0.08689559,     -0.01317425,     -0.33371466,      0.21347338,
               -0.19201453,      0.04760954,     -0.29719335,     -0.03869410,
                0.31032142,     -0.09559318,     -0.01378801,      0.09912701,
                0.07205985,     -0.32980698,      0.04384630,      0.32389644,
               -0.30185127,      0.08484054,     -0.16919744,     -0.23378347,
                0.09518148,      0.08883409,      0.22089602,     -0.02251001,
                0.01602037,      0.10861089,     -0.02361140,     -0.07827693,
                0.02899885,     -0.30276418,     -0.28468567,     -0.30636513,
               -0.13882932,      0.08207801,      0.14390753,     -0.03513015,
                0.17759004,      0.08414618,      0.18923305,      0.04077024,
               -0.08505803,     -0.03293146,      0.06505434,     -0.17254192,
                0.29944101,     -0.03576739,     -0.08335181,      0.19355217,
               -0.75874829,      0.11004952,     -0.18070254,     -0.00667269,
               -0.40931305,     -0.08080535,      0.02552103,     -0.00999492,
               -0.21383987,      0.36540043,     -0.23049575,      0.23814540,
               -0.07977840,     -0.16839063,     -0.10218909,      0.14436491,
               -0.05281354,      0.27557296,     -0.02412675,      0.05614907,
               -0.28395727,      0.22942038,     -0.09625826,     -0.01919961,
                0.16423032,     -0.21844214,      0.00919288,     -0.17594650,
               -0.02046846,      0.08852953,      0.02213720,     -0.16994771,
                0.37367615,      0.09523693,      0.01575491,      0.02772187,
               -0.12874226,      0.01990498,      0.61482960,     -0.04544633,
               -0.19512825,      0.03686152,     -0.11761575,      0.06657754,
                0.18799114,     -0.06025966,      0.06830018,     -0.06255450,
               -0.11191912,      0.16698952,      0.06178584,      0.48358399,
                0.04980335,      0.04355580,      0.32025248,      0.05640203,
               -0.37678689,      0.07996494,      0.02926666,     -0.38579172,
               -0.10350637,      0.01592124,      0.04990361,     -0.07813656,
                0.22491013,     -0.29404554,      0.26087749,     -0.08811652,
                0.03183175,     -0.03844256,      0.17829736,      0.15977749,
                0.13683623,      0.14443201,     -0.30548301,     -0.29884419,
               -0.06207823,      0.35793903,      0.16532189,     -0.01878437,
                0.12681831,      0.14838426,     -0.00309421,      0.08435486,
               -0.03258794,      0.20472114,     -0.23568188,     -0.01557291,
               -0.13325359,     -0.16430953,      0.15178029,     -0.31159246,
               -0.05918720,     -0.01780592,      0.19509342,     -0.11356489,
               -0.07947899,      0.16905554,      0.18550543,     -0.22375180,
               -0.13137682,      0.11635569,      0.24833518,     -0.32284707,
               -0.06564420,     -0.04494068,      0.09618896,     -0.24122672,
                0.03090312,     -0.32599661,     -0.13275599,      0.01105350,
                0.23378026,     -0.08841380,      0.16496725,      0.02024404,
                0.10998669,     -0.06249758,     -0.52305400,      0.20352334,
               -0.04924624,     -0.04417007,     -0.11393099,      0.07018367,
               -0.05394308,     -0.13595644,      0.49685881,      0.07578766,
               -0.05746070,     -0.14862865,     -0.26128638,     -0.11562084,
                0.03572203,      0.08780919,     -0.33128121,      0.01140834,
                0.09017765,      0.20338775,     -0.13092919,      0.36318260,
                0.07369700,     -0.11298318,     -0.20361091,      0.12195075,
               -0.20944841,     -0.00314967,     -0.34986880,     -0.21145800,
               -0.18994953,      0.12383013,     -0.00535092,     -0.13046879,
               -0.07057166,     -0.22840640,     -0.29650110,     -0.20259902,
               -0.06388400,      0.00868399,      0.05844406,      0.18838070,
                0.00268316,      0.23116021,      0.12191933,      0.05492529,
               -0.01276566,      0.01606604,      0.13250577,     -0.03747219,
               -0.13595952,      0.13866600,      0.22728358,      0.01442844,
                0.07707132,      0.08706379,     -0.01170556,      0.30394673,
               -0.00555542,     -0.24131003,     -0.00835443,     -0.02966142,
                0.10309578,      0.36400113,     -0.47663364,     -0.00518274,
                0.01757510,     -0.02915789,     -0.08827190,     -0.05995674,
               -0.15169860,      0.06303526,     -0.16353743,     -0.25204635,
                0.29533485,     -0.01939564,     -0.24966536,     -0.71487784,
                0.17058539,     -0.06851258,     -0.58014572,      0.02941678,
                0.43816209,     -0.14062628,      0.25924239,     -0.00219787,
                0.19911785,      0.12482826,     -0.01366281,     -0.13988110,
                0.14230973,     -0.21327618,      0.04837089,     -0.07183411,
               -0.14567193,     -0.17293702,      0.05848092,      0.05685870,
                0.05367905,      0.10591169,      0.70387894,      0.04042998,
               -0.17895649,      0.05612003,      0.15400815,      0.11790428,
                0.14996327,     -0.02548404,      0.17161882,      0.37367159,
                0.16180940,      0.20979156,     -0.08442432,     -0.08465620,
               -0.01894782,      0.03909374,      0.09372158,      0.20419016,
                0.23367287,      0.08113969,      0.00896833,      0.23682168,
                0.44012865,     -0.14116569,      0.13557072,     -0.31099609,
                0.06179921,     -0.17727360,      0.10792859,     -0.15563826,
                0.04474925,      0.10153948,     -0.00465963,      0.03494160,
                0.07817964,     -0.04111838,     -0.04182629,      0.06065636,
                0.27049947,     -0.00406658,     -0.14396116,      0.09638685,
               -0.14937438,     -0.24551100,      0.07523349,     -0.09363235,
               -0.27612281,     -0.00594859,     -0.30846757,      0.12621446,
               -0.21072166,     -0.08402875,      0.13105705,      0.10172214,
                0.04454236,      0.02837902,     -0.26587930,      0.03765967,
                1.12300456,     -0.00319073,      0.32657096,     -0.02729901,
                0.05687702,     -0.05472080,      0.13417597,     -0.07676424,
               -0.07371024,      0.10339237,      0.04420185,      0.51609284,
                0.08187468,      0.02720481,      0.09974787,      0.06387218,
                0.02954921,      0.05204506,     -0.03834285,      0.07704929,
               -0.50856000,      0.21468012,      0.06726766,     -0.13961545,
                0.15029426,      0.02303474,      0.16499706,      0.09396238,
               -0.09902995,     -0.09643108,     -0.13305029,     -0.01000108,
                0.20783132,      0.29980001,      0.08641756,      0.09323678,
                0.07407037,      0.03463337,     -0.00378753,     -0.04533774,
                0.05716462,     -0.00742448,     -0.01923029,      0.05997121,
               -0.00508728,     -0.18120603,      0.05156488,      0.05614361,
                0.04703163,      1.05448496,      0.17748414,      0.02267283,
                0.00105815,     -0.02533796,      0.14388250,      0.04822134,
               -0.08896536,      0.08510168,     -0.00432028,      0.48998037,
                0.05650390,      0.03483199,     -0.13980305,      0.01779225,
               -0.00398809,      0.02897432,     -0.17974225,     -0.04468941,
               -0.30591211,     -0.22108723,     -0.13833483,     -0.01842890,
               -0.07994071,      0.08941090,      0.12504889,     -0.04724224,
               -0.03750885,      0.05005514,      0.04968293,     -0.06149715,
               -0.07147139,      0.04692451,     -0.02800134,     -0.01424157,
               -0.00686695,      0.05521419,      0.12711897,     -0.00762528,
               -0.06162048,     -0.04409762,      0.04076908,     -0.03800564,
               -0.03249464,     -0.09006768,     -0.11468673,     -0.05420759,
               -0.01413754,     -0.11972383,      0.12539484,     -0.16001295,
               -1.13721585,      0.00260843,     -0.02105721,     -0.03104540,
                0.02023737,      0.09006792,     -0.17634273,     -0.02516584,
                0.01229343,     -0.20152740,     -0.83285356,     -0.10451284,
                0.07798393,     -0.02246362,      0.08579949,      0.08008213,
               -0.03216404,      0.07271531,     -0.17032450,      0.10424722,
                0.13496144,      0.09436473,      0.01384411,      0.09636533,
               -0.02247335,      0.04207882,     -0.03733197,      0.18777867,
                0.01969428,     -0.00711561,      0.35764703,     -0.00518731,
                0.11668307,      0.19682859,     -0.03389277,     -0.06100550,
                0.15953220,      0.00960732,     -0.04853396,      0.62856728,
               -0.02103263,     -0.46534240,      0.03200832,     -0.27291358,
                0.10135889,     -0.10834952,      0.00654011,     -0.03112827,
               -0.56128645,      0.01796102,     -0.09660781,     -0.02373854,
                0.04111554,     -0.07826348,     -0.03464965,      0.18001564,
               -0.13217169,      0.24395765,     -0.04660079,     -0.00571775,
               -0.14187999,     -0.05349289,      0.05543626,     -0.05931418,
                0.06987928,      0.15344989,      0.07295752,      0.11116208,
                0.29697406,      0.10416385,      0.33548513,      0.10316290,
                0.30794337,     -0.00994790,      0.11350716,     -0.00667623,
               -0.40108666,     -0.11451831,      0.04168434,      0.14145347,
               -0.11983051,      0.00562293,     -0.32977727,     -0.04371778,
                0.38630313,      0.10268486,     -0.06798650,      0.00349098,
               -0.02751351,     -0.02128200,     -0.07426252,     -0.22528252,
               -0.08769545,      0.08720979,      0.30568376,      0.02061970,
                0.16004106,      0.12608565,     -0.12148651,      0.04642496,
               -0.23903450,      0.09685956,     -0.01675376,     -0.09934157,
                0.03689734,     -0.72529304,      0.14472468,      0.12281197,
               -0.00578211,      0.14308496,      0.03069111,      0.02362785,
               -0.29012090,      0.09238718,      0.09907202,     -0.16012648,
                0.01863421,      0.07316307,     -0.66293103,     -0.48839590,
                0.13506906,      0.23687769,      0.03343876,     -0.50828075,
               -0.07475913,      0.02921862,     -0.11129063,     -0.53840798,
               -0.03600289,      0.26205355,     -0.18965074,     -0.00308249,
               -0.26364458,     -0.14287183,     -0.09557645,      0.45422947,
               -0.08058310,      0.18991902,      0.11198001,     -0.07362700,
                0.38255674,      0.03791647,      0.07914217,      0.01107551,
               -0.06007817,      0.05159603,      0.09262376,      0.01936327,
                0.19913305,      0.01259128,     -0.01527172,     -0.08147503,
               -0.12645687,      0.12564868,      0.30938885,      0.10266696,
                0.07444769,     -0.25210920,     -0.00160225,     -0.20982572,
                0.00135523,     -0.65506810,     -0.02529427,      0.04868430,
               -0.16487181,      0.03674859,     -0.04612233,      0.01874775,
                0.05679115,      0.08815464,     -0.05450729,      0.00411065,
               -0.21049705,      0.14460486,     -0.46667320,     -0.14200224,
               -0.03808374,     -0.13781254,     -0.13756098,     -0.02800459,
               -0.13297926,      0.05763819,      0.09214134,      0.16232577,
                0.07353203,      0.08500548,     -0.06100859,     -0.18068898,
                0.02932283,     -0.07054449,      0.04451245,     -0.44079450,
                0.08799993,     -0.44145691,     -0.08744989,     -0.03748029,
               -0.26314569,     -0.19117105,     -0.16060834,     -0.20812471,
               -0.04411850,      0.01546375,      0.52693695,      0.06625804,
               -0.08525349,      0.35163867,     -0.23681641,     -0.17949605,
               -0.14630319,      0.53836733,     -0.34842390,      0.11023733,
                0.21553534,     -0.23147772,      0.14461717,     -0.05450753,
                0.00936487,      0.61202228,     -0.06080643,     -0.06308177,
               -0.14688590,     -0.16278695,     -0.46539804,     -0.11575951,
                0.12533143,     -0.41781330,     -0.20249346,     -0.07311812,
               -0.17353696,     -0.07090969,     -0.02698425,      0.20533670,
               -0.03458940,      0.08784683,     -0.09475820,     -0.18160567,
                0.29191846,     -0.06299438,     -0.29580414,     -0.01654939,
                0.09493756,      0.01583626,     -0.14918518,      0.08705809,
               -0.19636954,     -0.01637678,     -0.07001713,      0.09249325,
                0.25152370,     -0.18371670,     -0.10514583,      0.28462505,
               -0.01754689,      0.20450433,      0.39276519,     -0.22554959,
                0.23601711,     -0.08239397,     -0.18706186,     -0.04902120,
               -0.10556457,     -0.15738034,     -0.04823180,     -0.21587674,
               -0.18884021,      0.15845260,     -0.19792089,     -0.13325296,
               -0.14567259,      0.14440170,     -0.12420052,     -0.02715067,
                0.02257864,      0.03276109,     -0.29665080,     -0.00595610,
               -0.10750427,     -0.04764397,     -0.05275354,      0.12865181,
                0.11751925,      0.13846648,     -0.20483078,      0.37903270,
               -0.01903339,     -0.03249265,     -0.24304351,     -0.05466142,
               -0.01923063,     -0.50509220,      0.07460482,     -0.34855437,
                0.04392271,     -0.01989280,     -0.03253649,     -0.06268872,
                0.16214231,      0.01644267,     -0.09989662,      0.39173967,
               -0.48972914,      0.06922062,      0.28605011,     -0.06838733,
                0.03909837,      0.09272844,      0.13976517,     -0.14429285,
                0.15062949,      0.18906169,     -0.24124074,     -0.23685570,
               -0.12021370,      0.07648124,     -0.18560463,      0.14098860,
               -0.17904925,      0.15970455,     -0.18628100,      0.04755814,
               -0.08846962,     -0.23198718,      0.49662182,      0.10328653,
                0.40163171,      0.18480836,      0.10206118,      0.11860791,
               -0.12903745,     -0.01865480,      0.18038242,     -0.05415357,
                0.34821096,     -0.04921341,     -0.42456368,      0.06197854,
                0.06470910,     -0.05567781,     -0.04190073,     -0.02653092,
                0.19392791,      0.05950781,      0.23393938,      0.62406647,
               -0.14114748,     -0.09478685,     -0.01581477,      0.02789745,
               -0.10227738,      0.10644855,      0.00646719,      0.01984615,
                0.05751663,      0.04405582,      0.25587642,      0.20396808,
                0.05016003,     -0.11058264,     -0.03814225,      0.00353057,
                0.19184031,     -0.08094944,     -0.08378668,     -0.13031349,
                0.04856816,      0.27672118,      0.01614741,      0.01521068,
               -0.05488067,     -0.08055734,     -0.08363367,     -0.13992131,
                0.06761029,     -0.19183123,      0.17629898,     -0.01013380,
                0.07584540,      0.07610516,     -0.01688047,      0.00845553,
                0.10088358,      0.07213520,     -0.40939030,      0.27889305,
                0.16980897,     -0.01277588,     -0.13771041,      0.00697877,
                0.24776109,     -0.22783253,      0.12004340,     -0.04829845,
                0.01777579,     -0.07671305,      0.36312041,     -0.84671652,
               -0.09574756,      0.07625050,     -0.59273785,     -0.02974823,
                0.41149968,      0.18479677,      0.08842379,      0.06967356,
                0.03505220,     -0.09411986,      0.03691241,      0.13175918,
                0.07647615,     -0.03116206,     -0.12940636,      0.04122946,
                0.03404113,      0.00009231,      0.15088050,      0.01361193,
                0.02593466,     -0.09761959,      0.21357292,     -0.15511233,
               -0.05080245,      0.10943517,     -0.04356037,      0.00512836,
               -0.09381220,     -0.04338856,      0.07706107,      0.08370689,
               -0.15149643,      0.11815482,      0.43103105,      0.50393206,
               -0.29252055,      0.07242332,     -0.18205805,      0.33462274,
               -0.05168889,     -0.10537846,      0.17529175,      0.13867852,
                0.11551790,      0.37326899,     -0.39070940,      0.16207981,
               -0.05672822,      0.01787229,     -0.23632008,      0.05871482,
                0.47500271,      0.16845514,     -0.18147135,     -0.18087243,
                0.24909247,      0.05906721,     -0.05233402,     -0.08619282,
               -0.19272715,      0.04528691,      0.13743278,     -0.09326294,
               -0.13055459,     -0.04211561,      0.46898183,      0.36358166,
               -0.06590085,     -0.20723945,      0.08035193,     -0.01495532,
               -0.03471108,     -0.13948509,     -0.29758650,     -0.30867156,
                0.03256804,      0.44890547,     -0.00203411,      0.25788009,
               -0.13798960,      0.12744094,     -0.08977655,      0.01204342,
               -0.45381251,      0.01858873,      0.00483034,     -0.16905567,
                0.13987006,      0.00122421,     -0.23057413,      0.13816869,
                0.09950159,      0.05681738,      0.13035066,      0.11534470,
               -0.19099949,      0.30651328,      0.05500670,     -0.00077975,
               -0.22494394,     -0.13257124,     -0.02647222,     -0.11979014,
               -0.13043770,      0.42577833,      0.01265099,      0.09898994,
               -0.05726664,      0.20402327,     -0.12828149,     -0.15973571,
                0.19487582,      0.12608831,      0.05812857,     -0.27857885,
               -0.15344000,     -0.01883791,      0.31515697,     -0.15829210,
               -0.40299603,     -0.01453074,     -0.08853702,     -0.20359582,
               -0.12727997,     -0.01365752,     -0.11810759,     -0.24073222,
               -0.32533723,     -0.02675233,     -0.19663617,      0.03161996,
                0.01337389,      0.16255488,      0.03817154,      0.02917527,
                0.01342280,      0.03856179,     -0.15690219,     -0.28614047,
                0.24421950,     -0.01293021,      0.01130590,     -0.32218912,
               -0.03353864,     -0.25374448,     -0.34050924,      0.16315426,
                0.36325461,     -0.13733020,      0.22453313,     -0.19627059,
                0.37747011,      0.17758122,      0.03008986,      0.08141771,
                0.20591168,     -0.17672782,     -0.15288202,      0.15852584,
               -0.11067560,     -0.13532563,      0.03897703,     -0.13188843,
                0.02062288,      0.02526273,      0.03703386,     -0.09842570,
                0.32420176,     -0.02336445,      0.17652723,      0.10582012,
                0.03674633,     -0.21148759,      0.21120198,     -0.24021153,
               -0.03082244,      0.06857336,     -0.05312393,      0.06975648,
                0.14462638,     -0.08451278,      0.04905187,      0.03221821,
                0.12953611,      0.20891827,     -0.00402483,      0.16242351,
               -0.02821874,      0.09187817,      0.29928932,     -0.36155358,
                0.02841638,     -0.19424798,      0.17745051,     -0.08006033,
               -0.07728317,      0.06901001,      0.14564407,     -0.26538253,
                0.21395396,      0.08784369,      0.06876962,     -0.26274729,
                0.49741280,     -0.21386236,      0.04122685,     -0.10208946,
                0.56246114,     -0.33228526,     -0.05569970,     -0.23232347,
               -0.20936272,      0.27229872,      0.23614556,      0.04835467,
               -0.00952359,     -0.10962931,      0.17486329,      0.02318911,
               -0.00150027,     -0.00656930,      0.06180078,      0.12196647,
               -0.05713259,     -0.28949532,     -0.11337906,      0.00536444,
                0.02600120,     -0.31664535,     -0.10475335,     -0.04640958,
                0.01880761,     -0.28991911,      0.03755182,      0.35791948,
               -0.13167775,     -0.01437020,     -0.05949138,     -0.04524114,
                0.07869028,      0.20783858,      0.14474654,     -0.09408976,
                0.20575777,      0.16107263,      0.12060504,     -0.63430631,
               -0.02997220,     -0.05679106,     -0.24263078,     -0.04780505,
                0.12448124,      0.01758451,     -0.31648272,     -0.22376569,
                0.06493489,     -0.02144879,      0.00723710,     -0.12103612,
               -0.10912594,     -0.26968047,     -0.10833265,      0.23957177,
                0.16697770,      0.02990743,      0.00003660,     -0.16656907,
                0.01348768,      0.23263101,     -0.04229388,      0.02240833,
                0.10722735,     -0.23859543,      0.10317858,      0.48009458,
               -0.14949545,      0.03124050,      0.35525951,     -0.12776631,
                0.17954586,      0.10982740,      0.18205446,     -0.00227979,
               -0.05356602,     -0.00215760,      0.19169512,      0.00711923,
               -0.00905101,     -0.03110215,      0.20032610,      0.04059217,
               -0.14257984,      0.06909883,      0.14534076,      0.04774468,
               -0.08987772,     -0.08131541,     -0.02038871,      0.24826491,
                0.00327699,     -0.17266068,     -0.07562564,      0.14080922,
                0.04760802,     -0.08317527,     -0.08474537,      0.32336783,
                0.04530347,     -0.09682298,     -0.47737125,     -0.19628772,
                0.11095800,     -0.05307968,      0.04164699,      0.20747919,
                0.26072729,     -0.08832763,      0.10037526,      0.18217215,
               -0.14303342,     -0.05195826,     -0.01432474,      0.32660165,
                0.00050603,     -0.04792556,      0.10341275,     -0.52241087,
                0.01149484,     -0.00227729,     -0.47937328,     -0.12860733,
               -0.07643349,     -0.06870864,     -0.00515234,      0.42440128,
                0.27856261,     -0.17275304,      0.02101978,     -0.34241882,
               -0.09512938,     -0.01664229,      0.28044003,      0.46246585,
                0.40979204,      0.18999854,      0.17895746,     -0.18033068,
               -0.15379466,      0.00529459,     -0.16521397,      0.36528435,
               -0.18324347,      0.02674639,      0.31905979,     -0.04388542,
                0.18549047,     -0.12299712,     -0.06540108,     -0.15014271,
               -0.03790967,     -0.26751697,     -0.04023007,      0.04509927,
               -0.04840086,     -0.13658714,     -0.20424607,      0.09798984,
                0.10859318,      0.07079200,      0.08492026,     -0.08255215,
               -0.09741524,     -0.02258073,     -0.10329100,      0.46260986,
               -0.27986261,     -0.05960435,     -0.45081940,     -0.22776042,
                0.19118199,     -0.00979380,      0.40200174,     -0.09872364,
               -0.18824121,     -0.03788846,     -0.03803325,     -0.10097748,
               -0.24432175,      0.14576137,     -0.19957583,      0.05262211,
               -0.05783286,      0.17942302,      0.02115641,     -0.03692391,
               -0.04382928,      0.51601690,      0.43397290,      0.31123585,
                0.15228717,     -0.18304561,     -0.20553926,      0.14388220,
                0.03095957,     -0.03708208,     -0.18862440,     -0.17598544,
               -0.03164358,      0.13361485,     -0.23610388,      0.52183914,
               -0.06989492,     -0.11974136,      0.12968720,      0.32780352,
                0.04377464,      0.28643560,      0.13609284,      0.23257184,
                0.10641505,      0.12905262,     -0.07639958,      0.04147554,
               -0.14257492,      0.16324212,      0.15418403,     -0.13095541,
               -0.23740199,     -0.12381752,      0.10989234,      0.01172042,
                0.34056410,     -0.05555586,     -0.04134736,     -0.03840134,
               -0.18688618,     -0.07898312,     -0.11581586,     -0.31447697,
                0.06171368,      0.06557845,     -0.08945170,      0.25549319,
               -0.24636851,     -0.20775381,      0.27212235,      0.17731260,
                0.16041447,     -0.23154600,      0.03318716,      0.01640904,
               -0.16314280,     -0.13195364,     -0.33378252,     -0.11827894,
                0.30486795,     -0.02521884,      0.06514788,      0.22915037,
                0.02261855,     -0.13058010,     -0.31028730,     -0.02186722,
               -0.08812173,      0.02750604,     -0.51875889,      0.01607550,
               -0.04390066,     -0.28532556,      0.36646691,     -0.15027276,
               -0.00863532,     -0.06498948,      0.06097067,      0.12552471,
                0.03970445,     -0.14226228,      0.07670704,     -0.15811558,
               -0.00718721,     -0.15098315,      0.58939093,     -0.11354266,
                0.24608883,      0.01787835,      0.21841635,     -0.30411315,
                0.21664326,     -0.01452798,     -0.07949447,      0.40872526,
                0.27222574,     -0.38463813,     -0.17453408,      0.02027635,
               -0.50896990,     -0.13281935,     -0.17953335,     -0.09910728,
               -0.03281771,     -0.30484480,     -0.33051395,     -0.13452470,
               -0.15777929,     -0.13141434,      0.30305013,      0.11125410,
                0.05587661,      0.04952674,      0.05854054,     -0.05161887,
               -0.13016099,     -0.02417334,      0.16575904,     -0.00314236,
                0.11669071,     -0.20575224,      0.01059806,     -0.00243565,
                0.17432140,      0.05289127,     -0.11290009,     -0.08204099,
                0.04848999,     -0.02843030,     -0.60136247,     -0.07504043,
               -0.33601660,     -0.04818569,      0.18699864,      0.21294773,
                0.10951922,      0.17194691,      0.08065754,      0.07836494,
                0.01424680,     -0.31952432,      0.22979617,      0.01282207,
               -0.14771347,      0.45946547,     -0.10349318,     -0.10841995,
                0.19487998,     -0.08674411,     -0.07895540,     -0.01475435,
               -0.35185060,     -0.14084467,      0.00528602,     -0.38566673,
                0.75350046,      0.05277843,     -0.05213418,     -0.06688963,
               -0.07488713,      0.07990633,      0.10260549,     -0.07187819,
                0.15624526,     -0.21499406,      0.16240178,      0.09098470,
                0.07900116,      0.31502736,      0.14894192,     -0.03968044,
               -0.09526265,      0.40868241,      0.10363921,      0.02040755,
                0.13126232,      0.14602210,      0.02581423,      0.65221673,
               -0.11207656,      0.02695583,      0.48406786,      0.11539472,
               -0.45392412,      0.10542161,      0.50509274,     -0.32397121,
               -0.01531082,     -0.04151925,     -0.04389682,     -0.09457275,
                0.03124224,     -0.12176801,      0.00694826,      0.05311831,
                0.07486007,     -0.05551400,      0.09741697,      0.01829121,
               -0.18744399,     -0.08321261,     -0.54100424,      0.03065190,
                0.09492683,     -0.05304333,      0.06150809,     -0.04737485,
                0.01868079,     -0.26132220,      0.06430927,      0.26409394,
               -0.12159524,     -0.13436154,     -0.14109884,     -0.14485493,
                0.12339311,      0.04340124,     -0.00397500,     -0.26531625,
                0.11247157,     -0.03463106,     -0.12839256,     -0.15145311,
               -0.23847818,     -0.06341714,      0.20032114,      0.06438901,
                0.22001866,     -0.05796297,      0.17445758,      0.18093838,
               -0.22667146,      0.21589851,      0.08937685,     -0.49206793,
                0.05936205,      0.01115484,      0.22254361,     -0.02704967,
                0.01348210,     -0.17601128,      0.15277742,      0.05752551,
               -0.04877222,      0.06663916,      0.37235633,      0.04038903,
                0.15159710,     -0.09777332,      0.06203306,      0.10207327,
               -0.16730298,      0.04643096,     -0.02074581,     -0.13950875,
                0.44183102,      0.12370121,      0.05203704,      0.19328187,
                0.08922654,     -0.01085891,     -0.11338848,     -0.04378392,
               -0.10927036,     -0.12927501,     -0.29497042,     -0.03168213,
               -0.19273153,     -0.03430364,     -0.06444558,      0.26654810,
               -0.04718920,     -0.01913279,      0.02929739,     -0.28538823,
               -0.10236590,      0.03681187,     -0.01128024,     -0.15223394,
                0.27142397,      0.02751220,     -0.03609699,     -0.12434622,
                0.09447163,     -0.33921686,     -0.12361556,      0.04898602,
               -0.26998478,      0.01792796,     -0.09179693,     -0.04771334,
                0.07387911,     -0.13280115,     -0.24235444,      0.00218321,
                0.01850895,     -0.15571472,      0.21793185,      0.05680305,
                0.49142629,     -0.12946466,     -0.04197530,     -0.18768497,
               -0.03506604,      0.01966483,     -0.10646690,      0.01393736,
                0.26430738,      0.05454079,      0.38846555,     -0.03429012,
               -0.01657707,     -0.02706948,     -0.16336122,      0.15736668,
                0.02464938,      0.06607544,     -0.07985991,     -0.32173774,
                0.11882300,      0.12568703,      0.06164960,     -0.29447547,
                0.00000339,     -0.00426472,      0.12787062,     -0.16228122,
                0.02728183,      0.42097959,     -0.10970125,      0.03860198,
               -0.41796812,      0.02452812,      0.26596963,      0.16339862,
               -0.23763350,     -0.14860469,     -0.05788109,      0.01593285,
                0.02987541,     -0.28567496,      0.02227697,     -0.06644236,
               -0.17255877,     -0.11359844,      0.49138898,     -0.31073329,
                0.02840135,     -0.12024558,     -0.02501897,     -0.21597150,
               -0.10501364,     -0.17225240,     -0.16301763,     -0.32187974,
               -0.06987880,      0.16825923,      0.06998790,     -0.01859271,
                0.06956370,      0.40107477,      0.39740357,      0.05349521,
               -0.05576017,     -0.11440741,      0.07085814,      0.18967554,
               -0.31577405,     -0.15497336,      0.29781064,     -0.02915225,
                0.12502670,     -0.10490476,      0.08969641,     -0.17649114,
               -0.23253600,     -0.08521131,      0.21396834,     -0.11301585,
               -0.22543265,      0.04484582,     -0.27808529,      0.14198488,
                0.11657867,     -0.08305536,     -0.07786000,      0.02390061,
               -0.09314568,     -0.10052307,     -0.27686110,     -0.12976661,
                0.23834647,     -0.12865545,      0.03299903,     -0.21725251,
                0.15902020,     -0.13337862,      0.03503400,     -0.11371089,
               -0.05521441,      0.23530218,      0.11909575,      0.00439473,
                0.04659535,     -0.04998654,      0.07763580,      0.26691383,
               -0.12936944,      0.16216832,     -0.24736270,      0.19231942,
               -0.15893638,      0.15508182,     -0.02578023,     -0.20367843,
               -0.26718739,      0.04724389,     -0.02170669,     -0.14284326,
                0.13000035,     -0.62962449,     -0.15953748,      0.22846372,
               -0.04352443,     -0.67672426,     -0.08550915,     -0.09949679,
                0.06311806,     -0.36861041,     -0.02545647,      0.14670254,
                0.04031544,      0.29455972,      0.32137612,      0.24503335,
               -0.29662943,      0.02720200,      0.11011196,      0.43363839,
                0.26325810,      0.31569684,     -0.09282195,     -0.01232412,
                0.16542730,      0.13615093,     -0.00323822,      0.30063429,
                0.30791172,     -0.11600106,     -0.28467894,     -0.08365284,
                0.04464091,     -0.01322589,      0.11510871,     -0.06254266,
               -0.17568886,     -0.08054249,      0.09375527,     -0.00479588,
                0.01308990,      0.31474566,      0.01953583,      0.17401713,
               -0.25947678,     -0.00381193,      0.00966091,      0.44860485,
                0.15055035,      0.06485645,      0.29597920,     -0.11961799,
               -0.02411628,      0.02188662,     -0.25464439,     -0.00938292,
               -0.12362318,     -0.06965671,     -0.00640180,     -0.09198346,
               -0.11890641,     -0.26351851,      0.01193617,     -0.08642674,
               -0.20703731,     -0.08383799,     -0.09627361,     -0.28125516,
               -0.43675840,      0.07319794,     -0.32561290,     -0.08367635,
               -0.01667687,     -0.22238170,     -0.24712555,     -0.09986623,
               -0.15147153,     -0.15986821,      0.00904049,      0.16943745,
               -0.09861932,      0.03037540,     -0.15045033,      0.11209274,
               -0.00395595,     -0.01025491,     -0.15899397,      0.54960144,
                0.20677729,     -0.33692673,      0.07908894,      0.02294759,
                0.05266379,      0.29270473,     -0.12561613,      0.12578927,
                0.47188509,     -0.12598713,      0.11339045,     -0.00213633,
                0.25371888,     -0.01041968,     -0.19028147,     -0.07672039,
                0.04487575,      0.22868982,      0.09360524,      0.10622170,
               -0.13780376,      0.07652639,     -0.11407594,      0.14333592,
                0.08987581,      0.20058586,      0.11208063,     -0.33058682,
               -0.01125329,      0.21941267,      0.02301150,      0.09895323,
                0.21613029,      0.22140919,      0.13701127,     -0.13174151,
               -0.11598682,      0.11551606,      0.23763070,      0.04402912,
               -0.01200810,      0.34212193,      0.04003142,      0.03471779,
               -0.28434056,      0.08081558,      0.17339438,     -0.17808990,
               -0.36378238,      0.21239489,      0.22760983,      0.14393106,
                0.13737220,      0.00549853,     -0.05409406,      0.03874038,
               -0.21695733,     -0.03775141,     -0.08713798,     -0.03557691,
                0.24833168,     -0.32462057,     -0.18777877,      0.29542851,
               -0.22660387,      0.00320198,      0.08641861,      0.21388680,
                0.07050316,      0.01182948,     -0.11825594,     -0.02579337,
               -0.10002581,      0.37796563,      0.15416794,     -0.32541773,
               -0.00424306,      0.12367436,      0.27666858,     -0.12385655,
               -0.38874120,      0.24945270,      0.18275656,     -0.20701297,
               -0.09133960,      0.14266343,     -0.38764745,      0.13185027,
                0.52083844,     -0.38481447,      0.02504984,     -0.10357703,
               -0.26618138,      0.37332180,     -0.00555596,      0.04959315,
                0.32096067,     -0.04302928,     -0.06368627,      0.19007464,
                0.20977655,      0.09131225,      0.20582020,     -0.52382982,
               -0.02275962,     -0.08112425,     -0.28022349,     -0.01013722,
                0.17922245,      0.43549159,      0.15152439,      0.01617833,
               -0.29998907,     -0.25392729,     -0.06755968,      0.07869752,
               -0.03794940,     -0.20953213,      0.03826031,     -0.05864366,
               -0.21923377,     -0.09352385,     -0.24970144,     -0.04300547,
               -0.02988058,     -0.16692145,      0.34086153,     -0.06026496,
                0.01330526,     -0.14444828,      0.16665345,     -0.03927664,
               -0.02904831,      0.02153467,     -0.25065020,      0.18956193,
                0.16651566,     -0.04516190,      0.15850188,     -0.05004913,
                0.11093456,     -0.41798142,     -0.04792020,      0.11433125,
                0.11273995,      0.11323220,      0.12451363,     -0.09110851,
               -0.01703418,      0.11387508,     -0.32678849,      0.02353264,
               -0.10742920,     -0.34131891,     -0.38691139,      0.26101384,
               -0.12714155,     -0.13262437,      0.09386090,     -0.16341110,
               -0.06511250,     -0.10986581,     -0.02785387,     -0.07533027,
               -0.27696672,      0.01274534,     -0.08823819,     -0.03085050,
               -0.13059746,     -0.06129954,     -0.15132630,     -0.02961493,
               -0.17345136,      0.27867487,      0.06716581,      0.13835567,
                0.10489264,     -0.06329688,      0.15842843,      0.01497443,
                0.06654640,      0.17763217,     -0.14353956,      0.37936503,
                0.01876446,     -0.51438135,     -0.14578581,      0.10217457,
               -0.21264902,     -0.07415316,      0.17123410,     -0.00727704,
                0.08375380,      0.04970360,     -0.03712988,      0.16692716,
               -0.19317648,     -0.04810342,      0.04564607,      0.15935396,
               -0.01954000,     -0.18860209,      0.43434834,      0.11560758,
                0.13126074,      0.02100430,     -0.02197652,      0.02449373,
               -0.01715277,     -0.07717356,      0.34378746,     -0.06614504,
               -0.07154341,     -0.15148245,     -0.11273408,     -0.15050559,
                0.32266575,      0.23315984,      0.19139303,      0.18674655,
                0.06260550,      0.02011980,      0.05772825,     -0.00568653,
               -0.23126413,     -0.26500317,      0.00690296,     -0.15389381,
                0.14741687,     -0.13877371,      0.34501842,      0.23963223,
                0.06272683,      0.03821265,     -0.29429659,     -0.11088888,
                0.28380370,      0.00896530,      0.17507212,      0.10014936,
               -0.00310941,     -0.14226009,     -0.42569616,      0.05028605,
               -0.24034761,      0.21679178,     -0.22277249,     -0.07635033,
               -0.09085625,     -0.22577031,     -0.38692728,     -0.10099191,
                0.01912010,     -0.10138685,     -0.00328434,     -0.12317091,
               -0.09660988,      0.16668335,     -0.21410289,      0.29427254,
               -0.15095523,      0.31420034,     -0.13813801,      0.23580551,
                0.36982861,      0.25577801,     -0.03848926,     -0.24520108,
                0.11068897,     -0.05485829,      0.06412113,     -0.15003185,
                0.37138072,     -0.27180406,     -0.20429167,      0.02731231,
               -0.04616107,      0.33394623,      0.12577015,      0.06317859,
                0.07795212,      0.04274001,      0.08145693,     -0.06268578,
               -0.00547315,      0.06547647,     -0.25763044,      0.00747417,
               -0.32101005,     -0.09025795,     -0.27707118,     -0.03116078,
                0.23112349,     -0.05039751,     -0.01171789,      0.08225396,
               -0.03642206,      0.09714182,      0.05321664,     -0.08579437,
               -0.05027460,      0.07818796,     -0.29810786,     -0.15313645,
               -0.26346621,      0.34692436,      0.19038990,     -0.10253872,
                0.05022795,      0.05744113,      0.06570341,     -0.12034523,
                0.22155553,     -0.09463343,      0.06040699,      0.05340141,
                0.18710907,      0.11958110,      0.07909008,     -0.05657087,
               -0.04547039,     -0.00014608,     -0.08158358,     -0.15375814,
               -0.64055389,      0.00756790,      0.13284911,      0.18616664,
                0.05806246,     -0.08309673,     -0.01508188,     -0.10393222,
               -0.05089160,      0.07243938,     -0.21277839,     -0.05579961,
                0.07430466,     -0.09917182,     -0.13098997,      0.12774278,
               -0.11639286,      0.03868613,      0.04917031,     -0.13638192,
                0.10627288,      0.03395945,     -0.04743947,     -0.10432896,
                0.08621722,      0.08563761,      0.03667710,     -0.00980307,
               -0.02131234,     -0.20091695,      0.21158271,      0.03931072,
                0.08396897,     -0.05761876,     -0.00353688,      0.06699508,
                0.12304755,     -0.15470493,     -0.14668329,      0.02034179,
                0.00413322,     -0.12071662,      0.01835557,      0.06168334,
                0.14440662,     -0.24783535,      0.06495453,      0.01437026,
               -0.01188955,      0.04253643,      0.38585758,      0.16357563,
                0.00487019,      0.09731068,      0.22559820,     -0.05187052,
                0.26112774,      0.05527896,     -0.17226662,     -0.69115794,
               -0.05721622,      0.17836121,      0.04489809,     -0.04929056,
                0.07343039,     -0.06242128,      0.08132926,      0.26803824,
                0.02687308,     -0.08527265,      0.38992742,     -0.02625495,
                0.06222332,      0.19153668,     -0.09937706,     -0.15231785,
               -0.09705885,      0.06417765,      0.28006327,      0.24433480,
                0.08564239,      0.21256912,     -0.13192303,      0.06008509,
               -0.12059864,     -0.03315439,     -0.11933640,      0.08347957,
               -0.13569766,     -0.05208979,      0.15033433,     -0.14131960,
                0.18416090,      0.03033212,     -0.25019762,     -0.17935146,
               -0.10222556,      0.14338814,      0.04598395,     -0.12496588,
               -0.13766597,     -0.27177909,      0.00434850,     -0.25184801,
               -0.06074582,      0.11160063,      0.17456993,      0.06561720,
                0.10347227,     -0.10284524,     -0.11572001,      0.10173652,
               -0.08759023,      0.09393549,      0.15007739,      0.06244419,
                0.14039040,     -0.16494326,      0.16147453,     -0.26285037,
                0.15923600,     -0.00589748,      0.06029683,      0.14009859,
                0.06755869,     -0.22580895,     -0.10207371,      0.05672404,
                0.11019430,     -0.03535463,     -0.15107404,     -0.05383812,
                0.14068420,      0.01890840,      0.08060108,     -0.24741285,
               -0.16002570,     -0.01773630,     -0.11605734,     -0.26084414,
               -0.01246553,     -0.15339726,      0.03780776,     -0.11193457,
                0.06098633,      0.06263223,     -0.05874036,      0.14502692,
                0.13283314,      0.04930516,      0.11174881,     -0.11487669,
                0.15627293,     -0.10659350,     -0.09478659,     -0.22339448,
                0.08047310,     -0.00613219,     -0.11066452,      0.25529915,
                0.28913170,      0.05598515,      0.45371875,      0.09414631,
               -0.02704861,     -0.30051982,     -0.33008933,     -0.10433462,
                0.24261717,      0.14751226,      0.17698584,      0.10806048,
                0.13637276,      0.28457075,     -0.02913644,      0.07867168,
               -0.05829989,      0.38830015,     -0.23063710,     -0.10279929,
                0.14704965,     -0.18564165,     -0.03677454,      0.40411013,
               -0.19804014,     -0.09906295,     -0.02583804,      0.16170369,
                0.12637793,      0.06711871,     -0.04491358,     -0.08086284,
               -0.21788001,     -0.00822466,     -0.20502488,      0.07461440,
                0.08840298,     -0.18872252,     -0.19616024,     -0.04382590,
                0.08691487,     -0.17123127,     -0.25882733,      0.28175622,
                0.02945872,      0.34590703,      0.17601512,      0.14847951,
                0.12493707,     -0.10124030,     -0.07646110,      0.37140837,
               -0.15980604,      0.17175077,      0.02099063,     -0.05626922,
               -0.47685918,     -0.06097013,      0.14994225,      0.00988785,
               -0.09649524,      0.02868515,     -0.00846138,      0.03304008,
                0.11496837,     -0.10966859,     -0.01686157,      0.09510578,
               -0.29404420,     -0.17467955,      0.00496845,      0.00000041,
               -0.13138805,     -0.11013587,     -0.57363594,      0.21496147,
               -0.01938391,      0.53807527,     -0.11117056,     -0.30204830,
               -0.14050408,     -0.28172812,     -0.13211344,     -0.01952098,
               -0.17107984,     -0.02771207,      0.15555786,     -0.01658001,
               -0.03665457,     -0.35988459,     -0.18018310,      0.00679016,
                0.12211134,     -0.17135327,      0.21594946,     -0.39482215,
               -0.01184307,      0.16924445,      0.20051582,      0.65260965,
                0.07907289,      0.00855361,     -0.14228909,     -0.01276103,
               -0.07297472,      0.05690821,     -0.20362698,      0.20553897,
               -0.20068191,     -0.16902506,      0.03446727,     -0.23630165,
               -0.24906236,     -0.04959373,     -0.17210816,      0.30134621,
                0.00849544,     -0.03381409,      0.23223536,      0.06899126,
                0.16142753,      0.28541681,      0.03247588,     -0.11751369,
               -0.03891382,      0.16480507,     -0.02894414,     -0.26410061,
                0.01826042,      0.05333008,      0.04243828,      0.04935912,
                0.04869030,     -0.10384961,     -0.09132457,      0.00357787,
                0.49807179,      0.13365744,     -0.19948059,      0.03164580,
               -0.00750976,     -0.16012815,     -0.01230714,      0.11277550,
               -0.23941110,     -0.07731277,      0.01578836,     -0.02274432,
               -0.13974753,     -0.15762582,     -0.01584526,     -0.05591610,
               -0.06105464,      0.08222331,      0.09177907,      0.23162928,
               -0.10999027,      0.15396622,      0.55036151,      0.22347020,
               -0.12186804,     -0.06569719,      0.10250032,      0.09934796,
                0.08914419,     -0.23861155,      0.06509422,      0.24345058,
               -0.00904957,      0.11778083,     -0.06932079,     -0.15058635,
                0.18311450,      0.37478402,     -0.02300444,      0.10705907,
                0.05190890,     -0.05358789,     -0.31735408,     -0.03625824,
               -0.18136345,      0.11205553,      0.15152751,     -0.07360031,
                0.30160040,      0.23810977,     -0.19394125,      0.09225780,
                0.09672967,      0.07821370,      0.44190392,     -0.02180611,
               -0.04145036,      0.11524741,      0.03593311,      0.25528222,
                0.04413632,      0.04830246,      0.16072483,      0.08975848,
               -0.13485850,      0.02978631,     -0.09126651,     -0.18834974,
                0.06418539,     -0.01770321,      0.35768220,      0.17148551,
                0.23150647,      0.47341463,      0.01416171,      0.21229491,
               -0.09479582,      0.10508326,     -0.23321901,      0.23838772,
               -0.07734264,     -0.07281987,     -0.19835983,      0.11967979,
               -0.08181585,     -0.31935877,     -0.16749313,     -0.34452358,
               -0.13556369,      0.34917897,      0.23645820,      0.00751065,
               -0.23541509,      0.25519592,     -0.01847073,      0.01972119,
               -0.09726365,      0.00521852,     -0.04074105,      0.13674739,
                0.39106685,      0.00976010,     -0.04213125,     -0.08147772,
                0.01972576,      0.09405252,      0.23910390,      0.10092864,
                0.11835752,     -0.47167915,     -0.09103216,     -0.20117149,
                0.19526650,      0.21244670,     -0.12486754,      0.17704681,
               -0.18039420,      0.17811120,     -0.17418344,      0.04567123,
                0.07491706,     -0.03869968,     -0.09303827,     -0.09742510,
               -0.03225151,     -0.29533467,      0.08372991,      0.11606657,
               -0.18064816,     -0.01390969,     -0.09467763,      0.15160102,
               -0.26526183,      0.26305312,      0.17029586,      0.12280366,
                0.16082820,      0.01168271,     -0.17179944,      0.08927324,
               -0.13399696,      0.01113499,     -0.20503585,      0.10556792,
               -0.04156355,     -0.20473662,      0.24090107,      0.08174418,
                0.21378343,      0.19139755,      0.00397426,     -0.17152487,
               -0.04737433,     -0.06135290,     -0.34447262,     -0.21885079,
                0.24997774,      0.09936456,     -0.33646297,      0.33733740,
               -0.21590139,     -0.19143468,     -0.01112462,     -0.16014847,
                0.10109548,      0.21627517,      0.19922177,      0.31729147,
               -0.24032684,     -0.20714064,      0.02939934,     -0.05990965,
                0.03661622,      0.31888542,      0.08283386,     -0.21238896,
                0.04469975,     -0.24947318,      0.06995545,      0.03547699,
               -0.29692772,      0.15464491,     -0.27866220,      0.12733589,
                0.06230084,     -0.04212635,     -0.28802466,      0.11910474,
                0.09365253,      0.14227156,     -0.22704324,      0.22675875,
                0.32152456,     -0.09881334,      0.22862239,      0.11584004,
               -0.23522291,     -0.10147527,     -0.03031972,     -0.12060180,
               -0.10124120,     -0.06804648,     -0.10857765,     -0.21114756,
               -0.03485902,      0.03652071,     -0.24440250,     -0.00037481,
                0.25131261,     -0.30257624,      0.13737153,      0.12985912,
                0.18042584,      0.04923528,     -0.05098848,      0.18310067,
                0.13166545,      0.21112877,      0.09594582,      0.03955960,
               -0.39461309,      0.19711792,      0.26571187,     -0.00580653,
               -0.04018786,      0.01113454,      0.37427709,      0.15807919,
                0.09233210,      0.28985304,      0.02336383,      0.16377158,
                0.11357177,     -0.05222279,      0.14953479,     -0.06867539,
                0.00478158,      0.02235239,     -0.09751959,     -0.17698404,
                0.10826261,      0.08105826,     -0.04876900,     -0.18143354,
                0.39393663,      0.00103520,      0.07111097,      0.17334136,
               -0.00043631,     -0.20210469,     -0.10306901,     -0.12888379,
               -0.11627659,      0.13545066,      0.19222853,     -0.17417569,
               -0.06001198,     -0.09505136,     -0.02842571,      0.25309855,
                0.11002256,     -0.39256221,      0.17594342,     -0.01762878,
                0.19403592,     -0.11607413,      0.25372636,     -0.05121460,
                0.26374820,      0.41995314,     -0.44214007,      0.14035462,
                0.15184495,      0.01755746,     -0.09941146,      0.17526534,
               -0.00222298,     -0.06397235,      0.25017723,     -0.15240237,
               -0.00752366,      0.13046221,     -0.05347980,      0.16619702,
                0.20423806,      0.03826339,      0.00109038,     -0.03433790,
               -0.21055682,      0.09960162,      0.05793759,      0.01211644,
                0.15532877,      0.15956460,      0.10116244,      0.26099315,
               -0.09144801,     -0.04666331,     -0.44040453,     -0.01233285,
               -0.09368279,     -0.13915536,      0.25244504,     -0.25839597,
                0.05759845,      0.03756586,      0.08709638,      0.13875194,
                0.05068242,     -0.00511200,     -0.24900325,     -0.01069915,
               -0.12016070,     -0.01318585,      0.15711343,      0.12161471,
                0.15096618,     -0.02864694,      0.00571919,      0.37128076,
               -0.15248343,      0.06341749,      0.32137626,      0.12106924,
                0.20658121,      0.08771978,     -0.20036413,      0.03172949,
               -0.03023800,     -0.22927731,      0.09510333,      0.10628279,
               -0.17562123,      0.29975438,     -0.14012858,     -0.26175308,
               -0.23926343,     -0.41955987,     -0.21725252,      0.00679727,
               -0.02080680,     -0.38132152,      0.04527603,     -0.14034370,
               -0.07619362,     -0.04976718,     -0.03943481,     -0.40446544,
                0.02071133,     -0.03056658,     -0.06841103,      0.26445100,
                0.10608155,     -0.01685314,      0.19978343,      0.06413757,
                0.20292158,     -0.03029188,      0.06388931,      0.16462409,
                0.11266959,     -0.22422199,      0.13931048,      0.05622973,
                0.24218635,      0.37157217,      0.09017101,     -0.23249617,
                0.11981416,     -0.01831782,      0.38600537,      0.12110946,
                0.07092988,     -0.13282204,     -0.28631383,     -0.16058746,
               -0.23641784,      0.22129415,      0.14799291,      0.32514298,
               -0.06847256,     -0.34559551,      0.04138054,     -0.14811809,
               -0.09151371,      0.10111586,     -0.00489723,      0.22432651,
                0.12276740,     -0.04403917,      0.37735611,      0.16585244,
               -0.11688987,      0.18819462,      0.10980513,     -0.35574999,
               -0.34807739,      0.16978072,      0.07186231,     -0.00520230,
                0.21982720,     -0.22870257,     -0.22682911,      0.13756289,
               -0.28207117,     -0.00093006,     -0.11814255,      0.07219772,
                0.14036185,     -0.16315588,      0.15131940,      0.00222110,
                0.14163941,      0.02050227,     -0.08823698,     -0.00648793,
                0.13479230,      0.01697946,     -0.05527928,     -0.18035978,
                0.23237890,      0.05218447,     -0.05112284,      0.53698045,
               -0.04636101,      0.18505131,      0.04623049,      0.18052404,
                0.14365053,      0.09655599,      0.09021889,     -0.05143598,
               -0.40055168,      0.03762477,     -0.21415856,     -0.03934508,
                0.06263224,     -0.04929689,      0.12147761,      0.05336946,
               -0.03631739,     -0.20345120,      0.05987184,     -0.05551420,
                0.00505140,     -0.04080858,     -0.27639505,     -0.13551795,
                0.07079607,      0.26558715,      0.11590711,      0.11733276,
               -0.30087605,      0.01139467,     -0.02256968,      0.08279543,
               -0.04206140,      0.05616661,      0.23455779,      0.05425380,
                0.39870879,     -0.37420416,     -0.11879899,      0.20463429,
               -0.04045876,     -0.04879204,      0.40562600,      0.03420843,
                0.28808919,      0.21406268,      0.25403351,      0.16486970,
               -0.05707300,      0.04576575,     -0.19601223,      0.21057536,
               -0.11056381,      0.00585372,      0.15225102,      0.02674743,
                0.01109093,     -0.02510204,     -0.27680939,      0.02154167,
                0.06805784,      0.11296239,     -0.51000136,      0.12151911,
                0.13000065,      0.65987641,      0.11023404,      0.25383639,
                0.07541533,     -0.69077629,      0.44221792,      0.08909234,
               -0.28974187,      0.16416487,     -0.12261391,      0.01465979,
               -0.08840867,      0.08856355,     -0.60200971,      0.19320193,
                0.14280660,     -0.00499718,      0.17777970,      0.26410609,
               -0.16276987,     -0.18883376,      0.01158875,     -0.42605180,
               -0.07753772,     -0.12002485,     -0.21478792,      0.24896765,
                0.75615883,      0.26285109,     -0.03350243,      0.41171095,
                0.04641485,     -0.12965806,     -0.09472453,      0.05695992,
                0.13703385,     -0.00497238,      0.05198004,      0.13495556,
               -0.15503311,     -0.07791799,      0.11532715,      0.06767949,
                0.18542688,     -0.05718202,      0.11779327,     -0.14758138,
               -0.10612222,     -0.11135413,      0.01908981,      0.22267054,
                0.17133263,     -0.18356086,     -0.12904730,     -0.00993402,
                0.13901316,      0.62365359,      0.04568053,      0.30348551,
                0.05477213,     -0.26521263,     -0.23682883,      0.13708463,
               -0.18372226,     -0.08409762,     -0.07452410,      0.09451586,
                0.07491290,     -0.46599466,     -0.16249968,      0.16136326,
                0.27280855,      0.20286277,     -0.04721976,      0.05925717,
               -0.04726638,      0.17781314,     -0.11122676,      0.02798146,
                0.01647188,     -0.04978549,      0.09636895,     -0.04837715,
               -0.05080805,     -0.18821537,     -0.07421784,      0.07022133,
                0.02425503,      0.25077218,     -0.20805693,     -0.17027080,
                0.05989753,      0.04025346,      0.12736076,      0.14481890,
                0.03241328,     -0.02281769,      0.14998250,      0.17315803,
               -0.05724718,     -0.08533221,      0.14370511,      0.11410948,
                0.04057570,     -0.27986661,     -0.11804143,     -0.09607220,
                0.00406521,      0.01708969,     -0.01009403,     -0.24900867,
                0.07980528,     -0.00131643,      0.12126552,      0.13229397,
               -0.05409855,     -0.08914284,      0.19675992,      0.18605983,
                0.00660522,      0.07369342,      0.12636954,      0.01019814,
               -0.52570856,     -0.28636146,      0.00003969,     -0.06495386,
               -0.10978594,     -0.07900147,      0.34081125,     -0.04004151,
               -0.19188365,      0.10825086,     -0.23108606,     -0.19827148,
                0.11188594,      0.05170816,      0.12737265,      0.02439300,
               -0.02696342,     -0.05275220,      0.00085538,     -0.22797167,
                0.14634053,     -0.10776597,      0.00273774,     -0.53675789,
                0.04700906,      0.11566847,     -0.20295620,      0.08971825,
                0.36592200,      0.08644120,     -0.09873896,     -0.00581144,
                0.11721522,     -0.14988691,      0.05998081,      0.01839719,
                0.01691298,      0.08827864,      0.17634423,     -0.09030031,
                0.27341431,     -0.08176561,      0.25833571,     -0.06218413,
               -0.13040589,      0.04945452,      0.53686768,      0.00646921,
               -0.16686094,      0.39951342,     -0.26031178,     -0.12282502,
               -0.09491215,     -0.11675648,     -0.24294515,      0.22652529,
                0.07459866,     -0.21160804,      0.03690154,     -0.04916497,
                0.06853666,     -0.12855819,      0.06828311,      0.50940603,
               -0.51118582,     -0.22317390,     -0.32987809,      0.11206423,
                0.00175863,     -0.06755865,      0.02338470,     -0.08952664,
                0.53966725,     -0.19244798,      0.01619053,      0.04138662,
               -0.02894970,     -0.16618282,     -0.00464531,     -0.00737814,
                0.01523618,     -0.26583785,     -0.02050387,     -0.05478623,
                0.05662083,     -0.00286884,     -0.32836497,     -0.68874145,
                0.06044382,      0.06872379,      0.05298149,      0.06348376,
                0.02427469,      0.06092526,     -0.13032226,      0.05069154,
               -0.10800263,      0.14207949,     -0.19439058,     -0.40898761,
               -0.12680227,      0.22881213,     -0.29086465,     -0.03881311,
                0.04936370,     -0.31224701,     -0.18944503,      0.10964959,
               -0.04416421,     -0.07036466,      0.16157469,      0.46764171,
               -0.15849759,      0.05931761,      0.17498049,     -0.19297957,
                0.28998885,      0.03119982,      0.03656036,      0.01430279,
                0.11614884,      0.05401588,     -0.06437936,      0.05272506,
                0.26828671,      0.08623385,      0.09397176,      0.01195572,
               -0.02785079,      0.05471779,      0.04227811,      0.04378640,
               -0.06335230,     -0.29132879,      0.30070341,      0.33840865,
               -0.14182024,     -0.13693681,     -0.01893093,     -0.04204394,
               -0.10458150,     -0.06928063,      0.36437270,      0.09829625,
                0.15154055,      0.11243261,     -0.05006088,      0.37680447,
               -0.18792111,     -0.22331500,     -0.00570959,      0.11887497,
               -0.18969457,      0.30570510,      0.04699809,      0.23361982,
               -0.00364454,      0.09781128,      0.04714620,      0.07416142,
                0.01454438,     -0.23488478,      0.00626280,     -0.27778736,
                0.14906856,      0.21589464,     -0.03443216,     -0.50161749,
                0.49426451,      0.12269946,     -0.36166728,      0.09223772,
               -0.07337222,      0.06714910,     -0.10947460,      0.10616098,
                0.17452429,     -0.04840648,      0.09475195,     -0.19510822,
               -0.14706826,      0.15053864,      0.49686718,     -0.08616727,
                0.19161125,      0.02230634,      0.14530678,      0.19533075,
                0.06079675,      0.12654141,      0.07389726,      0.15343481,
               -0.27190009,     -0.09918895,      0.02802156,      0.09790245,
                0.30441308,     -0.00950580,     -0.22627808,     -0.06771364,
               -0.04919301,     -0.26945770,      0.26197547,     -0.11145187,
               -0.06973825,      0.01870192,      0.31072888,     -0.18192595,
               -0.11095543,      0.00612325,     -0.01865044,      0.12418354,
               -0.25664976,      0.07480839,     -0.09170993,     -0.11464926,
               -0.09207062,     -0.01464735,     -0.05309123,      0.11419259,
                0.21522623,      0.19586259,      0.01453769,      0.12648784,
                0.36192358,     -0.04895914,     -0.02764974,      0.42255855,
                0.06087161,      0.09139635,      0.05511380,      0.00790306,
                0.25621107,      0.06540640,      0.69150215,     -0.12281774,
                0.14710553,      0.02724253,     -0.11792804,     -0.03164501,
                0.08370517,     -0.25587335,     -0.28485328,      0.29696792,
                0.02522365,     -0.09781510,      0.11350577,     -0.11033847,
               -0.02301606,     -0.18971272,      0.10083932,     -0.08836967,
                0.24422903,     -0.05312414,     -0.08974995,     -0.11118651,
               -0.03549639,     -0.01195352,     -0.34357741,     -0.01920799,
                0.29800326,     -0.10302188,      0.13237491,      0.03063801,
               -0.08995482,     -0.50800526,      0.05300680,      0.01952480,
               -0.45327827,     -0.32148707,     -0.09986861,      0.06113079,
               -0.02576933,      0.17902070,     -0.30200025,     -0.07224286,
                0.04302331,      0.21756224,      0.14914496,      0.14759770,
                0.09434216,      0.11936942,      0.01239790,      0.39248869,
               -0.18574271,     -0.05493227,     -0.05731184,      0.01577981,
                0.06356793,      0.06009794,      0.13827457,      0.15196280,
               -0.17263126,     -0.05485275,      0.08073740,     -0.07192799,
                0.28735310,     -0.03336662,      0.18429360,     -0.12872632,
                0.01083214,     -0.35296085,      0.08225038,     -0.14360929,
               -0.01504504,      0.12515554,     -0.03120507,     -0.13336411,
                0.39907688,      0.18565202,      0.10391523,      0.42374584,
               -0.00406000,      0.02982165,      0.31835184,     -0.01243977,
               -0.18049763,     -0.10327207,      0.34051695,     -0.11322790,
                0.06282143,     -0.06572945,     -0.07327030,     -0.10543635,
               -0.09745041,     -0.18474750,     -0.02690028,     -0.00728350,
                0.01555636,      0.47819915,      0.02044052,     -0.11800292,
               -0.17176519,     -0.05410457,     -0.78238463,     -0.31026548,
               -0.01995578,     -0.01216530,     -0.48415577,     -0.09589988,
               -0.11767702,      0.21684012,     -0.01405446,     -0.23752430,
               -0.06639010,     -0.11683132,     -0.23148537,      0.15662265,
                0.17394859,     -0.17921619,     -0.01091337,      0.13557294,
                0.03526333,     -0.33870810,      0.13422295,     -0.12488046,
               -0.09874199,      0.08282781,     -0.02448187,      0.11992354,
               -0.19508812,      0.14448807,      0.54675680,     -0.32987532,
                0.37702200,      0.31644851,     -0.19306470,      0.06429448,
               -0.12477782,      0.19863392,      0.26894802,      0.03892210,
                0.29827759,     -0.17369227,     -0.10994323,      0.08660398
};


// Parameters for BN in Project Conv layer Weight shape =torch.Size([24])
float MBConv6_2_project_conv_BN_weights [24] =
{
3.60961628, 3.53023624, 5.04943228, 8.97652149, 2.55883336, 3.09422159,
        5.52364969, 2.87437272, 4.71533728, 4.28276682, 4.89646530, 1.63061178,
        3.47995329, 4.19431877, 3.67905664, 1.21962035, 3.73991489, 2.83140278,
        4.26269150, 4.24426174, 3.24919367, 3.94817424, 3.95203209, 4.82478666
};

float MBConv6_2_project_conv_BN_bias[24] =
{
2.54496312,  3.19187355,  2.24238062,  1.75222933,  2.04476285,
        -2.30003977, -1.16048300, -0.00707727,  1.94164443,  1.40760148,
         0.52531427, -1.96350443, -2.29172492,  1.58858526,  3.21715045,
        -0.91207749,  5.94811630,  2.27526617, -3.36921310, -1.98792911,
         0.56632614, -2.10145044,  0.99302512, -0.04446770
};

float MBConv6_2_project_conv_BN_mean [24] =
{
-0.35761675,  1.32410371, -0.14615671,  1.92626846, -0.15289120,
        -1.24045777,  0.09620564, -0.83240891, -0.37507921, -0.35637420,
         0.88289952,  0.06853833, -1.00793195, -0.09463193, -0.52063739,
         1.29483533,  0.94983435,  2.62401223, -0.06223911,  2.00369859,
         2.11886859, -0.83193582, -0.15008122,  1.01012015
};

float MBConv6_2_project_conv_BN_variance [24] =
{
3.79149342, 3.11359119, 3.88680530, 4.05556536, 3.24466920, 3.18353796,
        3.23607635, 2.89871860, 2.96714473, 2.96863174, 4.30662775, 2.86511946,
        3.38552189, 3.58188152, 3.35279083, 1.88166714, 2.67318034, 2.92222881,
        2.66760731, 3.01810956, 4.00536633, 3.72072172, 2.68414664, 5.15339708
};
