
// weight for Depthwise layer has dimension of torch.Size( 144, 1, 3, 3 )
float MBConv6_2_depthwise_conv_conv2d_weights  [144 * 1 * 3 * 3]  =
{
  0.11764459,      0.57911843,     -0.02154263 ,
                0.01709986,      0.28827098,     -0.04088267 ,
               -0.12311845,     -0.33446717,     -0.15697673   ,


                0.00612126,     -0.08011915,     -0.04924312 ,
                0.20295280,      0.29592943,      0.14955474 ,
                0.25920442,      0.04810310,      0.02675791   ,


                0.04915263,      0.08701129,      0.03844687 ,
                0.10045142,      0.57650572,      0.23889303 ,
                0.01593025,      0.14115015,     -0.05944120   ,


                0.11885142,     -0.09297732,      0.08433954 ,
                0.33735335,     -1.11822557,      0.21883345 ,
                0.11777633,     -0.05837943,      0.10794231   ,


                0.06417510,     -0.17619298,     -0.29317048 ,
                0.21806268,      0.00559733,     -0.31634304 ,
                0.31194523,      0.20359603,     -0.02450131   ,


               -0.01624813,      0.29432216,     -0.04678942 ,
                0.00600158,     -0.33963275,     -0.00604056 ,
                0.02994026,      0.39067277,     -0.03258485   ,


                0.12499802,      0.49385589,      0.11540769 ,
               -0.26529109,     -0.83887982,     -0.20256364 ,
                0.07182975,      0.33235839,      0.04966792   ,


                0.11477085,      0.18467639,     -0.06702597 ,
                0.15232527,     -0.66948545,      0.16237061 ,
               -0.08976173,      0.20969732,      0.09135908   ,


                0.17010175,      0.45536184,      0.22851354 ,
               -0.22759339,      0.10322611,      0.18495278 ,
               -0.27496833,     -0.54711109,     -0.17703655   ,


                0.10468712,      0.26077202,      0.07838342 ,
               -0.09351540,     -0.88040692,     -0.06600504 ,
                0.07238387,      0.27295214,      0.06062109   ,


                0.13518962,     -0.31764826,      0.12453832 ,
               -0.00715725,     -0.43360651,      0.09410492 ,
                0.11041255,     -0.32734731,      0.12272091   ,


               -0.05113708,     -0.27173078,     -0.22975802 ,
               -0.32833737,      1.26529086,     -0.10917006 ,
               -0.15262148,     -0.14414561,     -0.18177906   ,


                0.16193432,      0.06365454,      0.33448669 ,
               -0.00780405,     -0.50925243,     -0.07415347 ,
               -0.01504129,     -0.04052849,      0.06342839   ,


               -0.01944494,      0.04506746,      0.06796434 ,
                0.10886040,      0.30942607,     -0.04278304 ,
                0.02346982,      0.08579015,      0.15619484   ,


               -0.35700321,     -0.34247792,      0.22012530 ,
                0.17427064,     -0.05766603,      0.07032963 ,
                0.37514991,      0.11602826,     -0.16499674   ,


                0.01031701,     -0.15095365,     -0.15144761 ,
               -0.27313015,      0.68668938,     -0.14550515 ,
               -0.16974255,     -0.17537133,     -0.17368539   ,


                0.43733397,      0.10153391,     -0.52581495 ,
                0.12399290,     -0.21882311,      0.14218684 ,
               -0.49791443,      0.16321211,      0.34269214   ,


               -0.03206508,      0.21710855,     -0.05658720 ,
                0.22349030,     -0.12758762,      0.23189782 ,
                0.00909656,      0.34324095,      0.01632647   ,


               -0.07630020,     -0.09093197,     -0.10785861 ,
               -0.12694997,      0.79185933,     -0.17654309 ,
               -0.12024748,     -0.14742869,     -0.09961787   ,


                0.05794794,      0.02650087,     -0.25300908 ,
               -0.09080020,      0.46433723,     -0.00856334 ,
               -0.28504223,      0.03692657,      0.03964062   ,


               -0.02503514,     -0.18415827,     -0.24000202 ,
               -0.25210115,      1.19381022,     -0.13440481 ,
               -0.24203727,     -0.12024461,     -0.18766199   ,


               -0.05853710,      0.02691793,     -0.23807791 ,
               -0.02187903,      0.80178493,      0.05801013 ,
               -0.25415200,     -0.03777752,     -0.02223102   ,


                0.01864352,      0.25963461,     -0.09339259 ,
                0.28074503,     -0.77761000,      0.20841870 ,
               -0.06784485,      0.22970030,      0.07119070   ,


                0.07704678,     -0.14539945,      0.01301511 ,
                0.58501542,     -0.65957552,      0.07606193 ,
                0.09272986,     -0.16767804,      0.00423525   ,


               -0.03875245,      0.00893023,     -0.09353271 ,
               -0.32012960,      0.68882239,     -0.41274908 ,
               -0.03371027,      0.00359720,     -0.08136639   ,


               -0.12956361,      0.07873182,      0.13483150 ,
                0.15720339,     -0.56753087,      0.16212289 ,
                0.13990837,      0.18906491,     -0.16779056   ,


                0.17773478,      0.35333318,      0.12910222 ,
               -0.03134960,     -1.08462203,     -0.02062449 ,
                0.15067425,      0.29853538,      0.13474508   ,


                0.22988725,      0.58712471,      0.18657029 ,
               -0.55644071,     -0.84148020,     -0.60636282 ,
                0.16126186,      0.57025409,      0.12848419   ,


               -0.10122599,     -0.16118723,     -0.00558017 ,
               -0.17557049,      0.03303695,     -0.12301700 ,
                0.04345725,     -0.26500323,     -0.00729399   ,


               -0.12595212,     -0.07796320,     -0.03407614 ,
               -0.14643900,      0.49577707,      0.07329655 ,
               -0.12995721,     -0.05545323,     -0.03809623   ,


                0.02987813,      0.09069836,     -0.01916279 ,
                0.12620974,      0.47604510,      0.11839525 ,
               -0.04233009,      0.09032108,     -0.05959343   ,


                0.07549112,     -0.02106836,      0.04493371 ,
                0.08395901,     -0.79650009,      0.15667795 ,
                0.05078674,     -0.03852211,      0.01770901   ,


               -0.05846125,      0.20443569,      0.02547436 ,
                0.01569806,     -0.69120789,     -0.07283891 ,
                0.07278662,      0.43283060,      0.16247460   ,


                0.44051239,     -0.23234078,      0.16338323 ,
               -0.14500202,     -0.83930850,      0.04931236 ,
                0.12231430,     -0.06326178,      0.36654571   ,


               -0.10354701,      0.01173344,     -0.00725834 ,
                0.25858209,     -0.58435917,      0.38460362 ,
               -0.01549056,      0.02886372,     -0.02787524   ,


               -0.32565022,      0.15624152,      0.18893887 ,
                0.45213673,     -0.55991453,     -0.04145513 ,
                0.02258725,      0.18981285,     -0.08684707   ,


               -0.24879566,     -0.00440809,     -0.35674393 ,
                0.40981439,      0.60551912,      0.45966941 ,
               -0.27851382,     -0.13448784,     -0.29657498   ,


                0.08106999,      0.27484113,     -0.12071835 ,
                0.27887303,      0.24322867,      0.27522713 ,
               -0.17635886,      0.27733099,      0.05629131   ,


               -0.01512523,     -0.06689704,     -0.08699316 ,
                0.24335966,      0.48288700,      0.28212228 ,
               -0.02442459,     -0.04409728,     -0.05778951   ,


               -0.04222926,      0.57160729,      0.17178650 ,
               -0.12555443,      0.17573461,      0.19509099 ,
               -0.09999410,     -0.24775924,     -0.07464302   ,


               -0.00239463,      0.14420295,     -0.04755190 ,
                0.31473809,      0.20323038,      0.23009783 ,
                0.02007689,      0.24194643,     -0.02258428   ,


                0.04048457,      0.02538607,     -0.00735439 ,
                0.01059448,     -0.68543047,      0.09763192 ,
                0.03719500,     -0.01833924,     -0.01586087   ,


                0.14533815,      0.07960472,      0.04947226 ,
                0.35377818,      0.04493058,      0.17703903 ,
                0.06454935,      0.17022756,      0.02211890   ,


               -0.05063221,      0.03802223,     -0.14088638 ,
                0.37933898,      0.26749644,     -0.16747552 ,
                0.03743218,      0.01687764,     -0.11764488   ,


               -0.08292536,     -0.16819222,     -0.08686594 ,
                0.02776026,     -0.30958760,     -0.14487003 ,
                0.10130855,      0.42243189,      0.16270275   ,


                0.00336404,      0.14911176,      0.02758324 ,
               -0.11393561,      0.56162775,     -0.08483633 ,
               -0.00587605,      0.03037181,      0.05106577   ,


               -0.12757456,      0.19378388,      0.19420278 ,
               -0.46273294,     -0.06038390,      0.48494408 ,
               -0.25064948,     -0.21393687,      0.18056163   ,


               -0.14502217,      0.12201711,      0.21730936 ,
               -0.34964734,     -0.09260191,      0.42265528 ,
               -0.14489771,     -0.27215615,      0.19082922   ,


               -0.05695470,     -0.21671972,     -0.02356343 ,
               -0.35766366,     -0.18700920,     -0.26118582 ,
               -0.09126205,     -0.39310238,     -0.02506128   ,


               -0.05075690,     -0.02060110,     -0.05989550 ,
               -0.05740906,     -0.39953321,     -0.09966073 ,
               -0.02177314,     -0.08121466,     -0.03422414   ,


               -0.00206206,      0.13876760,      0.14701051 ,
                0.22620285,     -0.90237182,      0.17567044 ,
                0.12650639,      0.18794496,     -0.03471991   ,


               -0.01029568,      0.17032778,      0.05284646 ,
                0.13066219,      0.25968471,      0.29117501 ,
                0.02844905,      0.25557610,     -0.30331573   ,


               -0.07837184,      0.50144958,     -0.30369246 ,
               -0.47415322,     -0.24237613,      0.27757204 ,
               -0.00656525,      0.40046248,     -0.03646429   ,


               -0.05054692,     -0.12903656,     -0.22250107 ,
               -0.00686947,      0.83607888,     -0.02397708 ,
               -0.23141667,     -0.01127819,     -0.05494012   ,


               -0.18426009,     -0.04268156,     -0.16004759 ,
               -0.16435811,      0.07128336,     -0.09272795 ,
               -0.11925412,     -0.12372436,     -0.06244375   ,


               -0.20791194,     -0.19800147,     -0.17045873 ,
                0.16419688,      0.29391405,      0.11502896 ,
                0.08794755,      0.13303882,      0.00770155   ,


                0.07740063,      0.00745370,      0.04707329 ,
                0.27108067,      0.23641770,      0.26154828 ,
                0.04451118,      0.17043459,      0.06702650   ,


                0.23652776,     -0.10256321,     -0.17222486 ,
                0.48779079,      0.04215220,     -0.24880451 ,
                0.18962494,     -0.12952352,     -0.14340532   ,


               -0.14752559,     -0.48816156,     -0.26624048 ,
                0.10694872,      0.29636770,      0.16872180 ,
                0.07112100,      0.19919299,      0.19262728   ,


                0.22388439,     -0.18471181,     -0.17087469 ,
                0.65679163,     -0.02582145,     -0.62399948 ,
                0.19525045,      0.05355219,     -0.11503059   ,


               -0.02657258,     -0.10628960,     -0.01865336 ,
               -0.14249413,     -0.09238830,     -0.13089073 ,
                0.11335945,      0.66894329,     -0.32380632   ,


                0.34227565,     -0.17322335,     -0.31657559 ,
                0.06008781,     -0.08662787,      0.00520506 ,
               -0.30891633,     -0.00971058,      0.40045938   ,


               -0.05157600,      0.06397948,      0.01864732 ,
               -0.53847551,      0.50842655,      0.06165560 ,
               -0.03523599,      0.09275059,     -0.01679420   ,


               -0.07310355,     -0.08722347,     -0.05184865 ,
               -0.07380747,     -0.04431497,     -0.08001576 ,
               -0.04606630,     -0.08185628,     -0.08438001   ,


                0.05860608,      0.21868068,      0.03474827 ,
                0.07431635,      0.27461025,      0.15706196 ,
                0.02570176,      0.33583286,     -0.02311834   ,


                0.05963184,     -0.72081602,      0.11529615 ,
                0.62666214,     -0.49912268,      0.52867049 ,
                0.09627037,     -0.74073601,      0.12239335   ,


                0.07967861,      0.20684116,      0.10946415 ,
                0.18677729,     -1.24145031,      0.18535507 ,
                0.05596170,      0.10996456,      0.07663368   ,


               -0.12797736,      0.36884663,      0.04987540 ,
                0.42066586,      0.10711566,     -0.40501389 ,
               -0.03332301,     -0.36417294,      0.02653800   ,


               -0.13068517,      0.43763530,      0.03412679 ,
               -0.13623287,      0.26159626,      0.02794634 ,
               -0.16976331,     -0.37029442,     -0.03190115   ,


                0.21603729,      0.52758086,     -0.13631381 ,
                0.23357122,      0.17956541,     -0.13314964 ,
               -0.07092865,     -0.14081502,     -0.10712255   ,


                0.04465004,     -0.24090916,      0.12452169 ,
               -0.13706975,      0.55263597,     -0.24642134 ,
                0.12131657,     -0.14924297,      0.02126161   ,


                0.10191356,     -0.00627556,     -0.05473765 ,
                0.22862945,     -0.66203904,     -0.11307172 ,
                0.16347606,      0.06730702,      0.00426792   ,


                0.17391501,      0.40905032,      0.20798078 ,
               -0.11377133,     -0.04473970,     -0.05124665 ,
               -0.12930429,     -0.33264056,     -0.15830252   ,


               -0.42155802,      0.15774147,      0.16452974 ,
                0.09907751,      0.18592831,      0.13345696 ,
                0.14260367,      0.13061969,     -0.34482080   ,


                0.06743181,     -0.00187970,      0.04577869 ,
               -0.05668986,     -0.68277234,      0.04584637 ,
                0.05594488,     -0.00154679,      0.09604958   ,


               -0.22017828,      0.26237100,     -0.25736398 ,
               -0.31953195,      0.41131040,     -0.24384610 ,
               -0.25147760,      0.28293750,     -0.13803056   ,


                0.12267631,     -0.38175115,      0.13383359 ,
               -0.25465924,      0.52957338,     -0.36808380 ,
                0.00317675,     -0.23125966,      0.07267826   ,


                0.05467108,     -0.11137655,      0.07949394 ,
               -0.20218633,     -0.28381509,     -0.01946978 ,
                0.05733641,     -0.06890036,      0.10756019   ,


                0.19215707,      0.40419030,      0.19964737 ,
               -0.06233315,     -0.06567234,     -0.05952820 ,
               -0.11566961,     -0.38383374,     -0.16184418   ,


                0.02681789,     -0.62540925,      0.03390431 ,
               -0.62363219,      1.85695541,     -0.59865463 ,
               -0.00766349,     -0.58928394,      0.02836036   ,


                0.21144873,     -0.12060691,     -0.14119692 ,
                0.45067063,     -0.06686980,     -0.40235609 ,
                0.17658401,     -0.03437177,     -0.11181915   ,


               -0.00018356,      0.09231395,     -0.01422788 ,
                0.05617420,      0.45167184,      0.06117437 ,
               -0.00973396,      0.05737906,      0.01472789   ,


                0.10960817,      0.36569148,     -0.09643010 ,
                0.32145533,      0.33588690,      0.36479512 ,
               -0.00946596,      0.38142398,      0.03806326   ,


               -0.10239971,      0.06894474,     -0.01294067 ,
               -0.33120421,      0.41951284,      0.01103631 ,
               -0.07286644,      0.05134464,     -0.01432712   ,


               -0.28210986,      0.10609346,     -0.30878174 ,
                0.07932516,      0.94863427,      0.10911945 ,
               -0.33507130,      0.04551814,     -0.26839125   ,


                0.14003648,      0.49971929,      0.17883015 ,
               -0.08911934,      0.03712175,      0.00541468 ,
               -0.13147239,     -0.50560349,     -0.16719450   ,


               -0.05385466,      0.09206030,     -0.06745442 ,
                0.26243654,      0.23078176,      0.28225666 ,
               -0.04496831,      0.19762965,     -0.06150486   ,


                0.09853061,      0.34122664,      0.06754048 ,
               -0.09649521,     -0.92172879,     -0.07317172 ,
                0.07637106,      0.35066253,      0.07472935   ,


               -0.08436826,      0.28119549,     -0.07504044 ,
               -0.17319006,      0.49812341,     -0.09220767 ,
               -0.04830275,      0.26550940,      0.00740903   ,


               -0.10292661,      0.22382866,     -0.09829449 ,
               -0.21711466,      0.60515106,     -0.26528481 ,
               -0.12382176,      0.14659896,     -0.15358768   ,


                0.09150704,      0.17841715,      0.18741877 ,
                0.25835308,     -0.88183218,      0.09767922 ,
                0.16209689,      0.06373329,      0.15917680   ,


                0.00130465,      0.44487658,     -0.01912442 ,
               -0.02161246,     -0.62604767,     -0.00407444 ,
                0.01171310,      0.37438634,      0.01094789   ,


                0.00981172,     -0.03840963,      0.02356495 ,
                0.19852592,     -0.68330365,      0.24715461 ,
                0.00268748,     -0.04965884,     -0.02457290   ,


               -0.09277485,     -0.40682808,     -0.03619684 ,
                0.05990731,      0.69138795,      0.02065416 ,
               -0.10005226,     -0.50991088,     -0.10743392   ,


                0.00278229,     -0.00634588,      0.09980149 ,
                0.21726191,     -0.87587756,      0.48633558 ,
                0.07573003,     -0.08577862,      0.11700669   ,


                0.02415991,      0.08123262,      0.02828004 ,
                0.03820868,      0.44389969,      0.04635878 ,
                0.01508117,      0.06615884,      0.01381250   ,


               -0.01605915,      0.05411585,     -0.08729201 ,
                0.46100825,      0.33911535,     -0.48915601 ,
                0.03153581,     -0.00735610,     -0.11504878   ,


                0.04866985,     -0.10083915,      0.02850729 ,
               -0.09124474,      0.54914182,     -0.29602975 ,
                0.00302259,     -0.34583658,      0.10177357   ,


                0.06621911,     -0.05615167,      0.07606921 ,
                0.29852739,     -0.71679503,      0.26025492 ,
                0.03346990,     -0.08149036,      0.10872027   ,


               -0.21008684,     -0.50150377,     -0.02266949 ,
               -0.43797892,      0.02709978,      0.37781686 ,
               -0.06544521,      0.40650648,      0.36361495   ,


                0.21877849,      0.08627784,      0.04891689 ,
                0.11154880,     -0.85519481,      0.08247216 ,
                0.06255119,      0.07481170,      0.19070414   ,


               -0.21698947,     -0.07901147,     -0.18902467 ,
               -0.26876053,      0.44058919,     -0.12286285 ,
               -0.17157708,      0.07588650,     -0.15784407   ,


                0.03679041,     -0.33145550,     -0.01593971 ,
               -0.37968734,      0.36680123,     -0.33547968 ,
               -0.00437843,     -0.29375648,     -0.02310345   ,


                0.07855938,      0.25094539,      0.02750448 ,
               -0.14879288,     -0.56282395,     -0.08529191 ,
                0.02483662,      0.27036381,      0.01228711   ,


               -0.08389048,      0.03334393,     -0.15741679 ,
               -0.17494456,      1.05457044,     -0.10352176 ,
               -0.14287785,     -0.11110549,     -0.11209192   ,


                0.02356909,     -0.09414724,     -0.13012002 ,
               -0.04911869,      0.09359874,     -0.56307632 ,
                0.05465855,     -0.04186691,     -0.10729644   ,


               -0.20243575,     -0.20133819,     -0.11955630 ,
               -0.31993750,      0.66383815,      0.23521040 ,
               -0.06550059,      0.29001120,     -0.16573554   ,


               -0.19436488,     -0.41349819,      0.00766713 ,
               -0.56453735,      0.03494449,      0.43757516 ,
               -0.14493482,      0.33794981,      0.34594753   ,


               -0.03797789,     -0.36827135,     -0.00967843 ,
               -0.26654288,     -0.06544923,      0.34227818 ,
               -0.08423037,      0.25454676,      0.15585919   ,


                0.23254520,     -0.53935605,     -0.13931775 ,
               -0.43047097,      0.37622696,      0.24953827 ,
                0.01076168,      0.38889861,     -0.10262588   ,


                0.07027701,     -0.10440490,      0.01802606 ,
                0.47162440,     -0.76354933,      0.37410933 ,
                0.06836203,     -0.03359939,     -0.05023102   ,


               -0.02876092,      0.20686582,     -0.00909661 ,
                0.13519399,     -0.92139179,      0.04620137 ,
               -0.04468241,      0.16633877,     -0.06346874   ,


               -0.01782286,     -0.12236102,     -0.03669355 ,
               -0.14386921,     -0.00984200,     -0.09332043 ,
               -0.03361316,     -0.08101048,     -0.00949419   ,


               -0.19797781,     -0.30380690,     -0.20090733 ,
               -0.16900116,      0.57179993,      0.04202328 ,
               -0.17411713,      0.02298369,     -0.13578944   ,


               -0.18541573,     -0.01539471,     -0.15296319 ,
               -0.12352758,      0.14444037,     -0.15805151 ,
               -0.07897875,     -0.03619804,     -0.07670091   ,


               -0.07086103,     -0.14544299,     -0.01384617 ,
               -0.06558226,     -0.47428343,     -0.12810798 ,
                0.15131159,      0.32360595,      0.17164765   ,


                0.52874410,     -0.18297797,     -0.31171453 ,
               -0.13594040,      0.34935352,     -0.16462855 ,
               -0.32961038,     -0.15888086,      0.50372696   ,


                0.03514512,      0.13263172,     -0.04391755 ,
                0.12355547,     -0.03317024,      0.41184142 ,
                0.17441069,      0.09577844,     -0.03632197   ,


                0.18429576,      0.16763856,     -0.20825791 ,
                0.41647375,      0.01486837,     -0.46476305 ,
                0.13650475,     -0.22322232,     -0.05208579   ,


                0.11906921,     -0.03195105,      0.33787665 ,
               -0.07769638,     -1.02993202,     -0.02542236 ,
                0.36417431,     -0.04593632,      0.15911356   ,


                0.06085784,      0.04008428,      0.06356132 ,
               -0.80736715,      0.37452841,      0.16196288 ,
               -0.01009230,      0.07192123,      0.08514650   ,


               -0.19878529,      0.07650827,     -0.09431691 ,
                0.02152884,      0.74687558,     -0.15297920 ,
               -0.07778468,     -0.17831951,     -0.16184933   ,


               -0.09538051,     -0.22212236,      0.24763633 ,
                0.35070935,      0.07412666,     -0.54868436 ,
               -0.29080987,      0.59478450,     -0.13612930   ,


                0.10879946,     -0.00973114,      0.07916997 ,
                0.30232134,     -0.86190706,      0.32608876 ,
                0.09363926,     -0.08348987,      0.09092398   ,


               -0.13549407,     -0.07222155,     -0.22558391 ,
               -0.14503255,      0.90330124,     -0.16069667 ,
               -0.20014803,     -0.15391527,     -0.11493294   ,


               -0.06155173,     -0.37456748,     -0.21801457 ,
                0.21861151,     -0.04088645,     -0.22171019 ,
                0.16471343,      0.45276105,      0.09416731   ,


                0.20493409,     -0.50847733,      0.26325202 ,
                0.11944350,     -0.70356393,      0.15457444 ,
                0.24472338,     -0.47192916,      0.18683800   ,


               -0.02816883,      0.12809967,      0.08067824 ,
                0.16566405,      0.63367885,      0.10723956 ,
               -0.02105547,      0.13305002,     -0.04930419   ,


                0.03443552,      0.14415748,      0.01009575 ,
                0.25186160,      0.22640589,      0.19293982 ,
                0.01254371,      0.20070674,     -0.00137435   ,


                0.46764180,     -0.20398907,     -0.08689294 ,
               -0.12924734,     -0.50120395,      0.19648655 ,
               -0.16316912,      0.36911619,      0.09512569   ,


               -0.02950713,      0.15732498,     -0.08557523 ,
                0.39657775,      0.09199000,      0.44618198 ,
               -0.05365688,      0.14299934,     -0.03722928   ,


                0.03661847,      0.23142242,      0.04015363 ,
               -0.08148116,     -0.77056837,     -0.02206797 ,
                0.03567542,      0.23736608,     -0.04272513   ,


               -0.02241908,      0.51827562,     -0.03875394 ,
               -0.40125987,     -0.11937156,      0.50885934 ,
               -0.08421458,     -0.43320632,      0.05943595   ,


                0.10417800,      0.07266329,      0.14727677 ,
                0.04420577,     -0.72981131,      0.15379700 ,
                0.14068283,      0.09910040,      0.13192996   ,


               -0.28893515,     -0.30072781,      0.03594111 ,
               -0.25727212,     -0.01177393,      0.29846421 ,
                0.00852016,      0.19954227,      0.28385755   ,


               -0.06484996,     -0.61282969,     -0.08538647 ,
                0.11701327,      0.49818689,      0.14473574 ,
                0.04268508,      0.03066751,      0.07495569   ,


               -0.05612796,     -0.46369824,     -0.01588312 ,
               -0.48450726,      0.00812439,      0.54533714 ,
               -0.04910655,      0.52532727,     -0.01175183   ,


               -0.01807504,     -0.02974293,      0.15286465 ,
               -0.01314890,     -0.43271440,      0.49818167 ,
                0.04952956,      0.00739916,     -0.01974691   ,


                0.08830394,     -0.03558261,      0.13894331 ,
               -0.06507243,     -0.33918446,      0.39629507 ,
                0.12560038,      0.31712726,     -0.42052054   ,


               -0.16428745,      0.00763988,      0.22341828 ,
               -0.52397048,     -0.06716311,      0.50319916 ,
               -0.15745890,     -0.08922214,      0.16792601   ,


               -0.02858198,      0.05220925,      0.01010896 ,
                0.00425964,      0.55862546,      0.00865783 ,
                0.02350793,      0.01070485,      0.01147542   ,


               -0.13927875,     -0.28976774,     -0.11365462 ,
                0.16841680,      0.47159889,      0.10113581 ,
               -0.07705913,     -0.22679663,     -0.08372638   ,


               -0.20059800,     -0.05838909,      0.12101839 ,
               -0.06740963,      0.49570435,     -0.05940730 ,
                0.03395780,      0.11396921,     -0.31755066   ,


                0.05397607,      0.14010401,      0.02210843 ,
                0.33058834,      0.24732958,      0.05691119 ,
               -0.18784574,      0.22477081,      0.06683693
};

// Parameters for BN in Depthwise layer
// Weight shape = torch.Size([144] )

float MBConv6_2_depthwise_conv_BN_weights  [144]  =
{
  1.33306909, 1.51721299, 1.24640405, 1.50387633, 1.56921816, 1.92592955,
        2.83529544, 1.85804677, 2.23310018, 1.35777080, 0.95855379, 1.33532071,
        1.57891214, 1.88650477, 1.44849312, 2.21537828, 0.69600695, 1.34380817,
        1.57347631, 1.39219296, 1.41340363, 2.13750291, 2.18608522, 3.00952077,
        3.55398035, 1.74446785, 2.25285411, 1.39396906, 3.67610693, 2.86404228,
        1.20952070, 1.37133694, 2.68144608, 1.04505134, 1.73987985, 2.34967208,
        0.89928770, 1.52705407, 1.46136510, 1.26421130, 1.34455216, 0.91909456,
        1.56181681, 0.79172283, 1.99502289, 1.44941008, 1.58893013, 1.79593706,
        2.37638927, 2.03825474, 1.97042608, 1.56868851, 5.63120747, 2.03484631,
        0.83731419, 0.79475540, 1.02338350, 1.13794434, 2.40920901, 2.82688737,
        5.86084127, 1.68468666, 2.13454962, 1.84279883, 0.99594861, 1.05087233,
        0.80449545, 1.94630599, 1.66434503, 1.44175613, 2.96000957, 2.08009124,
        2.33757949, 1.67782819, 1.05704427, 0.96638292, 3.91594219, 1.51604593,
        2.20792270, 1.30318642, 2.56523728, 2.37678599, 1.77162290, 1.72151768,
        1.52117836, 1.63841951, 1.96481848, 1.46544516, 0.97652918, 3.02513576,
        0.63228291, 0.75879443, 1.86357534, 3.58703923, 2.74287105, 1.67935777,
        1.50236988, 3.11233115, 1.31649995, 1.88461483, 1.96674192, 3.97270942,
        1.96718383, 2.03736091, 1.99352062, 1.14426959, 2.02037501, 1.71185195,
        2.03517938, 1.65584302, 3.05845785, 1.11143899, 3.10585952, 2.88343811,
        1.03898263, 2.26463628, 0.68209398, 2.14009190, 1.58083951, 0.96270806,
        2.37516904, 2.11459279, 1.13207245, 1.34994936, 2.26105618, 1.99725926,
        1.12175441, 1.75152099, 1.61771667, 2.93714428, 1.02054834, 1.47602773,
        1.83618438, 2.15867972, 1.61100900, 2.39139390, 1.96642852, 3.33874512,
        2.14523244, 2.44471288, 0.92960858, 1.62053037, 1.97556603, 1.61466169
};

float MBConv6_2_depthwise_conv_BN_bias  [144]  =
{
	1.13441098, -0.20247751,  0.83335251,  0.37540030, -0.79244608,
         0.44608846, -1.42361808, -1.32157600, -0.47302032,  0.68788856,
         1.14476383,  1.02426255, -0.18338276, -3.28136039, -0.72623116,
        -0.67331165,  2.55137324,  0.42313820, -0.50792247, -0.15913525,
         0.73908281, -0.77472174, -1.48544037, -1.54304028, -1.48547149,
        -0.46286008, -0.78940523,  1.71799278, -1.38792026, -2.10808539,
         0.98953199,  1.14614320, -1.32624960,  1.07016623,  0.63717812,
        -0.67055422,  1.03209758, -1.42961216, -0.39767635,  0.94838738,
         0.20648971,  1.64625275, -1.07347977,  0.64283395, -1.32894492,
         1.08015513, -0.64420027, -0.74982196, -0.99653482, -0.18960993,
        -0.95534515, -1.26280224, -0.58753568, -0.62946892,  1.33822334,
         0.44510475,  0.81401575,  0.88374341, -0.02213126, -0.52311242,
        -1.45670152, -0.57411557, -0.17761290,  0.48000088,  0.42834190,
         1.64751267,  1.58901632, -1.09496689,  0.25230163,  0.75461519,
        -0.26663411, -0.31578699, -0.90932763, -1.84103394,  1.29986382,
         0.47967786, -0.08662131,  1.05627596, -0.91435361,  2.54805899,
        -0.77971411, -2.06475067,  0.28839535, -0.46041524,  1.54278278,
        -0.65422028, -0.13737941,  0.36767727,  0.02775594, -1.00845635,
         1.11011147,  1.33312559,  0.33776325, -0.18545848, -1.12331367,
        -2.71914148,  0.86784202, -0.10804083,  0.67343563, -0.06155652,
        -0.57298738, -3.15989590, -0.00608830, -0.09271058,  1.55973327,
         1.17837715,  0.01404734, -0.04290002, -0.99072582,  1.01662493,
        -0.65136331,  1.83011448, -0.58841395, -2.62824678,  0.96072179,
        -1.88800883,  2.59915805, -2.53141475, -0.62923914,  0.97402513,
         0.26686293, -0.27150178,  1.56006122,  0.38044247, -0.88829511,
        -0.74185574,  0.18350147, -0.61481035, -2.14848351, -1.01625192,
         0.43290615,  0.95208549, -0.64488524,  1.10231531, -0.59955126,
        -0.11719655, -0.56043029, -0.18722370, -1.98556411, -0.63019830,
         0.76979589, -0.52949238, -1.27614820, -1.35527873
};


float MBConv6_2_depthwise_conv_BN_mean  [144]  =
{
		0.45854670,      1.29233718,     -0.24809843,     -0.00627352,
            -0.01755381,      0.24284475,     -0.42811900,      0.00171963,
             0.00197971,      0.00284153,     -0.04556338,     -0.17684764,
             0.00750949,      0.04785168,      0.03274366,     -0.37565193,
             0.06077495,      0.92754179,     -0.07954632,     -0.00023893,
            -0.15616888,      0.03252167,      0.02020567,     -0.40736344,
            -0.98091614,      0.00087232,     -0.00542342,     -0.15482600,
            -1.93658137,      0.00741740,      1.04947734,     -0.10007083,
            -0.00501307,      0.03005221,     -0.00707548,     -0.00628930,
             0.25610739,      0.85191464,     -0.12851101,     -0.01010414,
             1.12486959,     -0.08982094,      2.04142237,      0.00687568,
            -0.05493953,      1.34526801,     -0.00395813,     -0.08722416,
            -3.94511700,     -1.80361962,      0.00151065,      0.72712409,
             0.05983568,      0.06667718,      0.09557554,     -0.00889518,
             1.24333382,      0.05102084,      0.00609633,      0.00099605,
            -0.06503132,     -0.06559173,      0.13770510,     -0.18566795,
            -0.18979557,     -0.59916794,     -0.13087083,      0.00502030,
            -0.03091875,     -0.05448316,      0.23404327,      0.04309001,
            -0.09581260,      0.56067497,      0.08940616,     -0.51235652,
            -1.41590595,     -0.30030686,     -0.08127422,     -0.18350077,
            -0.06206453,      0.76013422,     -0.25808862,     -0.00216223,
             0.44496828,     -0.06286376,      1.66120219,     -0.00705148,
            -0.06793657,      0.03176051,     -0.04109015,     -0.03087308,
            -0.22768758,      0.03270288,     -0.00075803,      0.00884920,
            -0.02361167,     -0.17708264,     -0.00492130,      0.00390638,
             0.00000654,     -0.97518486,     -3.81606078,     -0.13334140,
             0.57520086,     -0.20918441,      0.00804518,      0.00979031,
            -0.01901501,      0.04399467,      0.00471347,     -0.03268545,
             0.01051206,     -0.49847266,     -0.25478080,     -0.33753857,
             0.05414789,     -0.04486071,     -0.08135228,      0.05092076,
            -0.00584890,      0.00137766,     -0.00271421,     -0.00300192,
            -0.54814792,      0.00233114,     -1.64094770,      2.38382101,
             1.59183168,      0.00203194,     -0.16954568,      0.03374800,
            -0.00568825,      0.21158248,     -0.06901305,     -0.01056797,
            -0.00065736,      0.04609672,      0.01675600,     -0.20136841,
             0.08637332,     -0.33393314,     -0.00431329,      1.72776663
};


float MBConv6_2_depthwise_conv_BN_variance  [144]  =
{
    1.74811769,     0.98485905,     0.00843281,     0.01980086,
            0.98053098,     0.36505169,     1.30647755,     0.01395265,
            0.00198300,     0.03412729,     0.04222064,     0.20392334,
            0.00153282,     0.01252025,     0.17373601,     0.26797339,
            0.46595860,     0.85832518,     0.28077915,     0.02192190,
            0.21295838,     0.07718123,     0.06090643,     0.64563459,
            2.43085575,     0.00635055,     0.00757706,     0.06499804,
            2.63302135,     0.00285475,     0.18374129,     0.15135962,
            0.00328526,     0.00282133,     0.03649745,     0.07406568,
            0.55361736,     0.02557959,     0.00381698,     0.02396127,
            0.19826408,     0.08035185,     0.40361035,     0.01982236,
            0.11002836,     0.37085435,     0.00690594,     0.37595591,
            0.97320169,     2.13484621,     0.02794129,     0.02089903,
            4.56528378,     0.33720049,     0.03046968,     0.01233977,
            3.60254788,     0.17149113,     0.02023552,     0.01689572,
            2.26985526,     0.47887677,     0.28434101,     0.09682394,
            0.07688935,     0.16374519,     0.18773745,     0.01247576,
            0.30697918,     0.01028357,     1.91942382,     0.00181598,
            0.65544367,     0.28125024,     0.00410078,     0.18038744,
            8.07202339,     0.17552064,     0.35770023,     0.03261073,
            0.16905050,     0.58413273,     0.00754668,     0.01746137,
            2.86758375,     0.65723658,     0.75117427,     0.04827331,
            0.01139406,     0.27980292,     0.00862705,     0.00498380,
            0.36901996,     0.00307871,     0.00276693,     0.05363226,
            0.00660138,     1.59562325,     0.06790078,     0.00500047,
            0.00670670,     2.36087918,     2.25458455,     0.74366462,
            0.44750172,     0.17362054,     0.03502395,     0.00226004,
            0.02645497,     0.20293728,     0.00925940,     0.04964342,
            0.06153840,     1.71538174,     0.47830942,     0.28450543,
            0.30757764,     0.02250751,     1.02762890,     0.00283946,
            0.00297429,     0.61771125,     0.04700898,     0.01381065,
            0.92456460,     0.00752054,     1.53925574,     0.04367011,
            0.37080270,     0.03001104,     0.08510460,     0.01561222,
            0.04898588,     0.06528864,     0.88162625,     0.00993732,
            0.01826370,     0.02798687,     0.03648145,     0.75776684,
            0.01121688,     0.93873990,     0.01492669,     1.05680585
};
