
// weight for Expansion Convolution layer has dimension of  torch.Size([1, 1, 24, 144])
const float MBConv6_2_expansion_conv_conv2d_weights [ 1* 1 * 24 * 144] =
{
 	-0.31478804,     -0.01431804,      0.16332300,      0.29898575,
               -0.23642327,     -0.02241047,      0.14563371,      0.10401525,
               -0.26051119,      0.24532478,      0.11429414,      0.42223564,
                0.11214236,     -0.19452243,     -0.14666894,     -0.25211117,
                0.17602438,     -0.59951162,     -0.18684810,      0.12841484,
               -0.12528521,     -0.26506224,     -0.17772907,      0.17272329,
               -0.14822626,     -0.02065481,     -0.18907510,     -0.26535919,
               -0.17613208,      0.51303166,     -0.34069240,      0.03676307,
                0.23024763,      0.15020430,      0.02766303,      0.24743178,
               -0.08664206,     -0.07524682,     -0.25170994,     -0.04509369,
               -0.36073929,     -0.35302553,     -0.23136921,      0.20808981,
               -0.16160519,     -0.56300491,     -0.08188652,      0.00801864,
               -0.33035082,     -0.38970023,     -0.01201741,      0.25815129,
               -0.34474438,      0.35316968,     -0.05974268,     -0.35276216,
               -0.14758773,     -0.26509252,     -0.01461196,     -0.09736113,
                0.05957348,      0.28681031,      0.00804437,     -0.22199175,
                0.00269359,     -0.26429427,      0.23470277,      0.31918675,
                0.03111292,      0.26043582,      0.18193252,     -0.35459283,
                0.32815528,     -0.05287248,     -0.22007498,      0.04089308,
               -0.08840220,      0.27252233,     -0.03997892,     -0.36188802,
                0.14242220,     -0.22512199,      0.09492762,      0.15337184,
                0.06281929,      0.17043978,     -0.00831883,     -0.03177057,
                0.27794665,     -0.04926296,     -0.23904921,     -0.14464498,
                0.12582430,     -0.00268488,     -0.37472486,     -0.07215565,
                0.05857923,      0.02700136,     -0.11212708,     -0.02161627,
               -0.31103578,      0.29889402,      0.10144617,      0.17885025,
               -0.00567381,     -0.10721524,      0.00623610,     -0.23927054,
               -0.25987786,     -0.03682639,      0.00812560,      0.01514431,
               -0.02166791,     -0.04045252,      0.05165641,      0.01835622,
               -0.11536770,     -0.17071222,      0.03601421,     -0.08147304,
               -0.12339245,      0.15262401,      0.01526911,      0.30389503,
               -0.04517465,      0.10398281,      0.12102270,      0.23132244,
               -0.38192591,      0.32799289,      0.27985927,      0.00301453,
                0.11012511,      0.05442659,     -0.28351492,     -0.13130003,
               -0.09722067,     -0.06650667,     -0.09804396,     -0.00307803,
               -0.01063758,     -0.12998399,     -0.11961932,      0.04020744,
               -0.12608941,     -0.04507694,     -0.26205900,     -0.01147813,
                0.02294272,      0.22960986,     -0.10855351,      0.00165646,
               -0.00090682,     -0.16590972,      0.23435760,      0.49036959,
                0.07558459,     -0.11400579,     -0.03766186,      0.00556474,
                0.22161888,      0.01900521,      0.06830064,     -0.04810158,
                0.13945609,     -0.06920145,     -0.20362581,      0.17738439,
                0.05588799,      0.19894288,      0.02558205,      0.17253216,
                0.02967338,      0.18767531,     -0.08270008,      0.07788461,
                0.14915591,      0.32140481,      0.28367797,      0.23778141,
                0.13524656,      0.12198936,     -0.18973061,      0.10921165,
                0.27002394,      0.05206881,     -0.08579331,     -0.34463289,
                0.13126253,     -0.01199348,     -0.17449021,      0.00979382,
                0.02531598,     -0.07650431,      0.09544335,     -0.02577161,
                0.41469082,      0.02919525,     -0.02983826,      0.15683845,
               -0.04088568,     -0.04176739,     -0.05571688,      0.07087131,
                0.02669863,      0.06981902,      0.18695812,     -0.26514950,
               -0.22317375,     -0.38676885,      0.01480554,     -0.02749307,
                0.63424498,     -0.02434788,     -0.00328898,      0.01682742,
               -0.10268994,      0.35685787,      0.18754423,      0.10874832,
               -0.06927215,     -0.03935200,     -0.23257370,      0.03072673,
                0.18321279,      0.36379144,     -0.03520679,      0.13083164,
                0.17876633,     -0.18078634,     -0.13283515,     -0.02767443,
                0.22998382,     -0.25388381,     -0.27208906,      0.10743044,
                0.03522770,     -0.21029365,     -0.03400958,      0.23385470,
                0.03787189,      0.47419289,     -0.17130421,     -0.13876362,
                0.18895842,     -0.07967006,     -0.06522031,      0.26150122,
                0.07031830,      0.19680561,      0.02262590,      0.25416401,
                0.02465731,     -0.10559144,     -0.15104030,      0.18856554,
                0.07435835,      0.21135661,     -0.37613437,     -0.15961659,
                0.07573056,     -0.16911283,     -0.31420431,      0.20894489,
               -0.30424520,     -0.05223115,     -0.10575750,      0.10817272,
                0.68253613,     -0.05426621,     -0.24663247,     -0.22681096,
               -0.06856224,     -0.05759685,      0.09058149,      0.05002944,
               -0.12976740,      0.24791722,      0.20107935,     -0.16216461,
               -0.07126027,     -0.43432459,      0.11611225,      0.05657446,
                0.42900789,      0.07312781,     -0.20682570,      0.04662911,
                0.05980145,     -0.07419489,     -0.04060079,     -0.09792063,
                0.17852713,      0.01556193,      0.02103468,      0.10238753,
               -0.13541238,     -0.00913855,      0.11942779,     -0.07982171,
               -0.08821054,      0.05289265,      0.00804539,      0.37112442,
               -0.19029316,      0.10222312,      0.13515249,     -0.04043715,
                0.05363859,      0.20642231,      0.02159271,     -0.07746542,
               -0.01039292,     -0.06870649,     -0.09036300,      0.03163124,
                0.52438664,      0.14755604,     -0.06502492,      0.07269253,
               -0.05694791,     -0.10286156,     -0.00028245,     -0.17233488,
                0.12318960,     -0.11768910,     -0.10083540,      0.31129992,
                0.06024336,     -0.23325670,      0.06481609,     -0.03910174,
               -0.23536356,      0.00352154,      0.04334167,      0.01534463,
                0.04068167,      0.09041256,      0.16548361,      0.04199673,
                0.07660642,     -0.12353776,     -0.06556707,      0.23922847,
               -0.12028386,      0.19877163,     -0.04444524,     -0.01165231,
               -0.14945327,     -0.16987662,     -0.12945205,      0.01685975,
               -0.28711903,      0.00669628,      0.02807897,      0.05722800,
                0.00276827,     -0.06073297,      0.20964584,     -0.04881839,
                0.01443633,      0.16067792,     -0.05586067,      0.00567085,
               -0.57447928,      0.10533204,     -0.29322368,      0.29003900,
               -0.06090800,     -0.35327736,      0.12955637,      0.17843431,
                0.09592557,      0.09285332,      0.25941253,      0.15819693,
                0.12329859,      0.06329925,     -0.04830186,     -0.03401225,
                0.28853574,     -0.07937843,      0.19148943,      0.06972214,
                0.21204996,      0.21847624,      0.04549441,     -0.02823466,
               -0.01401560,      0.41444105,     -0.04067414,      0.05327246,
                0.16223001,      0.15796521,     -0.02590248,     -0.00986260,
               -0.44079849,      0.01939944,     -0.10088805,     -0.00394667,
               -0.22655417,     -0.09125116,     -0.06216227,     -0.01338660,
               -0.06351963,     -0.42787975,      0.00411379,     -0.03177990,
                0.09442763,     -0.07228681,     -0.14218532,     -0.19585074,
                0.03047875,     -0.03441611,     -0.35177544,     -0.14580239,
                0.27109498,     -0.18360217,     -0.14355446,     -0.17564870,
                0.04398444,     -0.26034012,      0.09306493,      0.22382408,
               -0.39317429,     -0.06277631,     -0.01397071,     -0.01805995,
               -0.11556332,      0.28380257,      0.11204126,      0.12784061,
                0.22764784,      0.18530594,     -0.06989152,     -0.13816604,
                0.21073863,     -0.56781614,      0.00014726,     -0.08128177,
                0.01898419,     -0.14093985,     -0.15886734,      0.50928116,
               -0.11469114,      0.12500145,     -0.20030758,      0.07260402,
               -0.20843939,      0.10846160,     -0.17841820,     -0.01214962,
                0.03842867,     -0.12685354,      0.16100557,     -0.11163666,
                0.05492538,      0.05682160,     -0.07039359,      0.29474542,
                0.07879481,     -0.02384241,     -0.14165057,      0.06451144,
                0.65744096,      0.15926450,      0.18502952,     -0.04446797,
               -0.06972004,     -0.09855699,      0.11413133,     -0.02147024,
                0.05729784,     -0.04802579,     -0.19477923,     -0.37072402,
               -0.00650859,      0.06599263,      0.07125866,     -0.05492396,
               -0.29497558,      0.12536466,     -0.04312237,      0.15060765,
               -0.48007566,     -0.13322186,     -0.22283609,     -0.42671961,
               -0.06127891,     -0.13737723,      0.11505955,      0.20133249,
               -0.21353504,      0.16766801,     -0.10036185,      0.06747008,
                0.19285475,      0.33260471,      0.06972971,      0.10043894,
               -0.59657007,      0.12201942,     -0.06247089,     -0.02060951,
                0.31948704,      0.23347855,     -0.00296471,      0.42552775,
                0.08127311,      0.14655787,      0.26980516,     -0.04203025,
               -0.08882755,      0.06945856,      0.16002904,      0.24753171,
               -0.54277933,     -0.17113580,      0.22150020,      0.17818804,
                0.13621670,      0.01751103,      0.17181645,     -0.18827835,
                0.04633602,      0.51444048,     -0.17447391,     -0.08994944,
                0.30950543,      0.12139709,     -0.09567155,      0.09828146,
                0.22506413,     -0.05234985,     -0.05367419,     -0.23876168,
                0.08866075,      0.10963863,     -0.13441361,      0.06663208,
                0.12218005,     -0.09119295,      0.27072614,      0.10757287,
                0.17217682,      0.27930012,     -0.27389336,      0.21753557,
                0.07911659,     -0.01626611,      0.04846806,      0.50123936,
                0.18501846,      0.12880363,      0.11365493,      0.09165108,
               -0.06780699,     -0.23081708,      0.17518482,      0.11258858,
                0.06430007,     -0.07873826,     -0.19415723,     -0.44326276,
               -0.10824548,      0.25147942,     -0.09421954,     -0.12834390,
               -0.13060480,      0.03668971,     -0.15771325,      0.06060157,
                0.00133169,      0.04919023,     -0.01407616,     -0.12185132,
               -0.49784285,     -0.19618775,     -0.02608319,     -0.12053218,
               -0.00604426,     -0.00384467,      0.03766310,      0.07175323,
                0.05115714,      0.06140899,     -0.18773705,     -0.13502820,
                0.03722109,      0.08893912,      0.10681210,     -0.04327080,
               -0.19093558,      0.21155584,     -0.12392545,     -0.02514541,
               -0.10603210,     -0.18613109,     -0.05591607,      0.09670961,
                0.08036502,      0.02125499,      0.05802263,      0.22261475,
                0.00765676,      0.27712804,     -0.27210012,     -0.05553475,
                0.56352395,      0.18584134,      0.15642929,      0.11155234,
               -0.06806386,     -0.12390348,      0.17573275,      0.09177718,
                0.17115386,     -0.01682236,     -0.12021236,     -0.34628144,
               -0.07502164,     -0.01458205,     -0.03979127,      0.11644322,
               -0.25879961,      0.01335098,      0.26869228,      0.51723480,
                0.02458291,      0.25939584,     -0.29630160,      0.08356516,
               -0.11625572,      0.36433548,      0.15753376,      0.09520257,
                0.03603477,     -0.40748066,      0.10182110,      0.14737989,
                0.12955211,      0.02020845,      0.14701097,      0.06983291,
                0.03084291,      0.04917719,     -0.08638892,      0.22723275,
                0.25980401,     -0.07584782,     -0.21787125,      0.19385339,
                0.01801505,      0.33836788,      0.06577903,     -0.42777815,
                0.21520406,     -0.09970476,      0.28889671,      0.36458448,
                0.16350639,      0.10984494,      0.08517972,      0.16636345,
                0.22208691,     -0.10272892,     -0.12420095,     -0.04981387,
                0.01013543,     -0.05102522,     -0.12691848,      0.03056963,
               -0.33341491,      0.61265510,      0.35193896,     -0.10797622,
               -0.24629219,      0.69771057,      0.42537391,     -0.44846249,
                0.31336254,     -0.23251058,      0.33110872,     -0.15607308,
                0.62480342,      0.24177350,      0.27660564,      0.02520555,
               -0.47558376,     -0.06816202,      0.35835549,      0.40430099,
               -0.05233939,      0.33487207,     -0.17369418,     -0.37038282,
                0.15325478,      0.14447358,      0.16799748,      0.13055497,
                0.45914587,     -0.06340234,     -0.32187125,      0.02574559,
               -0.10776684,     -0.13864954,     -0.08149406,     -0.09989590,
               -0.15208432,      0.11270807,     -0.08083805,     -0.11632536,
                0.19887957,     -0.10130119,     -0.10638344,      0.03246768,
               -0.40886590,      0.03686132,     -0.32673395,     -0.18039973,
               -0.24068977,     -0.06855092,      0.16167881,     -0.63818645,
                0.09206548,     -0.32843140,      0.07193837,      0.39981773,
                0.16662693,     -0.37964427,      0.52791494,     -0.08222255,
               -0.41970336,      0.05687417,      0.01580740,      0.00998940,
                0.37293297,      0.00067682,      0.06392791,      0.22629862,
               -0.01848255,     -0.06950509,     -0.34684300,      0.06310498,
                0.50237328,      0.00186345,      0.10924023,      0.20043966,
                0.02791846,      0.15080146,      0.07603445,     -0.22272290,
                0.05628245,      0.10297783,      0.08944037,      0.30397224,
                0.11362888,      0.33673897,     -0.38831094,      0.05092742,
                0.26898092,      0.06398514,      0.37158781,     -0.10210099,
                0.28972349,     -0.23234528,      0.07214887,      0.06996736,
               -0.19401047,      0.25262105,     -0.15788227,      0.17758581,
               -0.00032790,     -0.22522359,     -0.09146082,      0.12336910,
                0.02725628,      0.08341283,     -0.07280476,      0.33196631,
                0.12413667,     -0.05169916,     -0.10756384,     -0.06304511,
                0.18783104,     -0.27302617,     -0.04478528,      0.05949856,
               -0.03569933,     -0.17230280,      0.15779956,      0.19040431,
                0.24847943,      0.00734203,      0.19321580,      0.17639405,
                0.14690952,     -0.16797599,      0.01969827,     -0.15941358,
                0.05947614,      0.08727455,     -0.18323490,      0.26576838,
                0.36720961,     -0.00274308,      0.20077036,      0.08958580,
                0.24237770,      0.23821078,     -0.27603963,      0.12677830,
                0.03004983,      0.29845247,     -0.13271002,      0.34011945,
                0.25837207,      0.13637103,      0.04900839,      0.02007756,
                0.00184116,      0.22524509,     -0.09181321,      0.04194690,
               -0.06974648,      0.05641201,      0.00910966,     -0.05994526,
                0.10509555,      0.31490609,     -0.48985440,      0.00188010,
                0.37662500,      0.02038294,      0.18112092,     -0.12279139,
                0.27343461,     -0.16804457,     -0.20537771,     -0.10225540,
                0.20634377,      0.12798016,     -0.03323062,      0.04339373,
                0.10307028,      0.19801763,      0.02561552,      0.12038575,
               -0.08411665,      0.00870078,      0.16997057,      0.14781766,
               -0.30839619,     -0.24866712,      0.05387907,      0.11789472,
               -0.00859003,      0.10633039,      0.03149980,     -0.16581325,
                0.08469072,      0.28089166,     -0.18762797,     -0.07375100,
                0.45345780,     -0.22473121,     -0.11259671,      0.02204384,
               -0.01326282,      0.10765691,      0.00795432,     -0.35155085,
                0.09394034,     -0.12914437,      0.09059282,      0.02702324,
                0.18675064,      0.02363113,     -0.23495778,     -0.02716564,
                0.11311119,      0.03828325,     -0.22519910,     -0.16410927,
                0.27560270,     -0.23644516,     -0.02659554,     -0.23385987,
               -0.10533696,     -0.16965856,      0.05937316,     -0.07522395,
                0.05734171,     -0.60732454,     -0.06157260,      0.02230109,
               -0.00104447,     -0.01565362,     -0.00581369,     -0.01108776,
                0.49443784,      0.51739758,     -0.08278468,     -0.02768254,
                0.12566026,      0.13005327,     -0.06756084,      0.10881290,
                0.10014881,      0.35512599,     -0.01140808,      0.14682667,
                0.02020916,      0.25327304,     -0.35690504,      0.06568485,
                0.27909201,     -0.44551694,      0.02423945,      0.01116595,
               -0.08057803,     -0.03425161,      0.16678806,      0.31179580,
                0.04097522,     -0.31704646,     -0.30255610,      0.22898638,
               -0.00821424,      0.19537419,     -0.45321637,     -0.16691881,
                0.31870303,     -0.40439996,      0.08796534,     -0.06527075,
                0.35349846,      0.05683803,     -0.00625160,     -0.24599737,
                0.13999590,      0.38199052,     -0.10438145,      0.02800393,
               -0.07115553,     -0.03094636,      0.21590084,     -0.05138381,
               -0.53636903,     -0.60700983,      0.27195475,      0.27978438,
               -0.05540951,      0.11348468,      0.17719287,     -0.26436940,
               -0.00817391,      0.29043037,     -0.18533061,     -0.06564028,
               -0.24466135,     -0.03753756,      0.40080643,      0.45290905,
                0.10714684,      0.30063051,     -0.04255944,     -0.10732790,
               -0.18215691,     -0.69301856,      0.11158888,      0.00979478,
               -0.18642072,     -0.14735913,     -0.06283727,     -0.09107421,
                0.09668467,     -0.10711493,     -0.04958227,     -0.36919609,
               -0.19639552,     -0.02553004,     -0.16930337,      0.42229059,
                0.73545885,     -0.11722847,     -0.10530527,      0.32198405,
                0.04458968,      0.10390345,     -0.05999411,     -0.47235951,
                0.06049318,      0.17630669,      0.25007963,      0.55694520,
                0.29260641,     -0.08893383,      0.07306337,      0.13436207,
               -0.30078605,     -0.16521800,     -0.29081312,     -0.09877776,
               -0.06445698,     -0.12737446,      0.17829284,      0.04125822,
               -0.07181514,      0.29908726,     -0.11696728,      0.31043869,
               -0.27105173,     -0.16336267,     -0.13364808,     -0.29480252,
                0.17667201,      0.06322900,     -0.20864411,     -0.04807468,
                0.19281581,      0.10426603,     -0.33471668,     -0.27027544,
                0.05229333,     -0.60046077,      0.00516546,      0.21409926,
                0.05785255,     -0.20185097,      0.18514431,      0.09330007,
               -0.01803797,     -0.20814270,      0.02653614,     -0.19006103,
                0.07167971,      0.39110151,     -0.23365121,      0.01885104,
                0.20224039,      0.09864313,      0.14963549,     -0.07892673,
                0.23224056,      0.03703855,     -0.03801102,      0.05646575,
                0.25571561,      0.27678517,     -0.26965624,     -0.20307314,
                0.06187976,     -0.33892328,     -0.26300910,      0.19853026,
               -0.00776909,     -0.04386039,      0.05302640,     -0.12802130,
                0.64152241,     -0.05361524,     -0.04375457,     -0.07872698,
                0.01667628,      0.04452391,     -0.12991616,     -0.10860478,
                0.01960963,      0.09331337,      0.07944700,      0.04865175,
               -0.06368484,     -0.31129244,      0.03200434,      0.08439890,
               -0.08952149,      0.04250812,     -0.05856479,     -0.10041289,
                0.07287566,     -0.62183851,     -0.26394582,      0.55942875,
                0.00281699,     -0.04193904,     -0.21717490,     -0.17813839,
               -0.26733243,     -0.03522983,      0.13198280,     -0.24541496,
               -0.07763468,     -0.33224010,      0.08999021,     -0.07042777,
                0.09439349,     -0.02247702,      0.31568107,      0.15694341,
                0.03412466,     -0.05017044,      0.41963309,     -0.03365191,
               -0.04266681,     -0.02334381,      0.00052621,      0.09693741,
               -0.71712166,      0.00937835,      0.03587842,     -0.31559923,
                0.05078563,      0.03673284,      0.08059485,     -0.13289852,
               -0.15376346,     -0.09035539,     -0.25351882,      0.04753793,
                0.08417414,      0.44625664,     -0.04505398,     -0.03809975,
               -0.40011930,      0.00378526,     -0.08144546,      0.04714454,
               -0.07407729,     -0.11383782,      0.02303174,      0.14097404,
                0.05720892,      0.10535869,     -0.00829314,      0.02762104,
                0.00032652,     -0.03553410,     -0.02203903,     -0.19155875,
               -0.09823296,      0.12186877,      0.20674978,     -0.23784761,
               -0.09314980,     -0.30769965,     -0.00610770,     -0.06269443,
                0.64774561,     -0.03664095,     -0.16993418,      0.08698800,
               -0.01337912,      0.37811559,      0.36220703,      0.09429301,
                0.15066184,      0.34816593,      0.19831766,      0.11536491,
               -0.10219562,     -0.60738909,     -0.14765248,     -0.14020231,
                0.14235534,      0.21415293,     -0.48541397,     -0.05039853,
               -0.21603476,     -0.06874144,     -0.33807683,     -0.24977170,
               -0.08469100,      0.21071759,      0.62258756,      0.30286229,
               -0.10616489,     -0.34048817,     -0.06639529,      0.06056011,
               -0.03362412,      0.22483151,      0.26357600,     -0.41218531,
                0.19085225,     -0.43926767,      0.28126207,      0.07067867,
                0.01774089,      0.11900131,     -0.11648256,      0.07745132,
                0.15008795,      0.02549592,     -0.07810234,      0.37692443,
                0.32888475,      0.27536041,      0.09639582,     -0.46094990,
                0.05123397,      0.33812979,     -0.12675269,      0.14819413,
                0.06698557,      0.36442849,      0.02157532,     -0.11101374,
               -0.27723217,      0.22718732,      0.09304628,      0.22716415,
               -0.13184711,      0.04065881,     -0.11719722,      0.10148106,
                0.24716923,      0.03818544,     -0.09791022,      0.16044286,
                0.13878386,     -0.45818791,     -0.05951727,      0.09593172,
               -0.07287446,      0.20234397,     -0.34077185,     -0.32040188,
               -0.02022495,      0.10121915,      0.15193035,      0.04697810,
                0.12912266,      0.02282924,      0.07301938,      0.06329439,
               -0.27271038,      0.32639480,     -0.34825152,      0.03172817,
               -0.35519901,     -0.05351158,      0.08582722,     -0.14504722,
                0.06142436,     -0.20492852,      0.30693793,     -0.32513747,
               -0.13263173,     -0.12910497,     -0.52685940,      0.36104259,
               -0.11140954,      0.15787232,     -0.19309077,      0.03634149,
               -0.25324583,      0.24234071,     -0.54038620,     -0.01037619,
                0.08427864,      0.02661742,     -0.22812130,      0.04806920,
               -0.15352584,     -0.02309392,      0.10845014,     -0.27209291,
                0.00346356,      0.11988279,      0.11545333,      0.16028319,
               -0.32251206,     -0.27764466,      0.25082979,      0.01776957,
               -0.03729924,      0.08018738,     -0.13675447,      0.03507663,
                0.39955482,      0.03884538,     -0.22560230,      0.47996798,
                0.20749304,      0.10202454,     -0.00947714,      0.03117569,
               -0.02091849,     -0.16528325,     -0.10325629,      0.11166144,
               -0.19702074,     -0.56610715,     -0.04006904,      0.04052736,
               -0.10761381,      0.12237553,      0.16115677,      0.19190191,
                0.29380769,     -0.24855861,      0.12567905,     -0.33142486,
               -0.08920431,     -0.08695228,     -0.16267420,     -0.23028074,
               -0.13706025,      0.19343902,     -0.25142571,     -0.11134586,
               -0.21102346,     -0.01400430,     -0.03939344,      0.03311931,
               -0.26262850,      0.10739070,      0.27892098,     -0.00129534,
                0.14852239,      0.12548137,      0.19716725,      0.34081843,
                0.18500613,      0.20945968,     -0.36510560,     -0.12236620,
                0.37564895,      0.20421937,     -0.14771067,      0.03542470,
                0.01155125,     -0.22807269,      0.07730584,      0.23038130,
                0.28845450,      0.30435368,      0.10622660,      0.10542253,
                0.19034149,      0.12499856,      0.05731981,      0.41401219,
               -0.58202726,     -0.04688101,     -0.06044205,     -0.66207850,
               -0.16435307,      0.01726195,     -0.24343577,      0.22799551,
               -0.09636472,     -0.18073130,     -0.08054114,     -0.35411730,
               -0.28766775,      0.26749596,      0.18602644,     -0.15147272,
                0.17839260,     -0.10446283,      0.02250243,      0.03867415,
               -0.20811047,      0.32202441,     -0.29022050,      0.03612202,
                0.05659140,     -0.42648712,      0.06338778,     -0.03157936,
                0.09879553,      0.17070267,     -0.02054381,      0.10057659,
                0.25943354,     -0.09608160,     -0.12500960,     -0.26435798,
                0.13856295,     -0.08580653,      0.09291638,      0.42834207,
               -0.06062326,      0.11465911,     -0.02317461,      0.00231766,
               -0.10713889,     -0.29026833,     -0.21822149,      0.12352312,
               -0.08342960,      0.00704558,      0.20016335,      0.08207463,
               -0.29478887,     -0.13503575,     -0.20836271,     -0.11190250,
               -0.11467527,      0.02180110,      0.09091974,     -0.29436716,
               -0.16754769,      0.14312115,      0.17743057,      0.03755304,
               -0.16501090,     -0.12732682,     -0.02432847,     -0.06881233,
                0.59943962,     -0.10444870,     -0.14476585,      0.17187627,
               -0.10440658,      0.14905901,     -0.37527749,      0.06589016,
               -0.03132121,     -0.12469204,     -0.19023338,     -0.08062275,
                0.03969353,     -0.19116086,      0.21938120,      0.36039117,
               -0.03376450,      0.13613026,     -0.01444974,     -0.04351943,
                0.27036431,      0.08409709,     -0.09848942,     -0.11043523,
                0.15585592,     -0.12418700,     -0.07989664,      0.07984518,
               -0.07025810,      0.44524324,     -0.03533467,     -0.07834530,
               -0.04447673,      0.20238006,      0.08680225,     -0.13762419,
                0.12467734,     -0.10310359,      0.17737257,     -0.21604431,
                0.43872979,      0.01105980,      0.00612443,      0.00281365,
               -0.25172055,      0.02559564,      0.08664850,      0.11931507,
                0.01971354,     -0.00814357,     -0.25862676,     -0.15471080,
               -0.07256730,      0.03672400,      0.16115326,      0.00001070,
                0.01054980,     -0.18216354,     -0.04479442,      0.12133485,
               -0.19332780,      0.25032985,     -0.01159619,      0.02843324,
                0.12771657,     -0.21516588,     -0.13594639,      0.04683895,
               -0.25999099,      0.02764376,      0.04066276,      0.12085053,
                0.00825291,      0.08649947,      0.21091495,      0.10710897,
               -0.17694080,     -0.32415214,     -0.03933647,     -0.19612655,
                0.07411117,      0.13619392,      0.04507517,     -0.01026669,
                0.16999674,     -0.11248725,      0.05357746,     -0.07064935,
                0.14708175,      0.16720696,      0.06124346,      0.07427226,
                0.09506740,      0.24094979,     -0.14244422,     -0.15038720,
               -0.01206662,     -0.44831961,     -0.22013175,      0.00370927,
               -0.20625103,      0.05625723,      0.24688900,      0.13224044,
                0.05962916,      0.08918321,      0.14935757,     -0.12157007,
               -0.28210878,     -0.26423490,      0.10655701,     -0.09263488,
               -0.14472534,      0.08540148,     -0.28242198,     -0.14494935,
                0.08011200,     -0.03852419,     -0.10369719,     -0.11554206,
               -0.18726957,     -0.01333728,      0.00159476,      0.14686167,
               -0.57920927,      0.18279651,     -0.00398111,     -0.50382990,
                0.04669453,     -0.16220869,     -0.20700391,      0.28914982,
               -0.05084991,     -0.03821423,     -0.02102939,      0.05477295,
               -0.18917653,     -0.23940650,      0.13931422,      0.00069509,
               -0.06484043,      0.10870528,      0.03676740,      0.19018845,
                0.01893963,      0.17267069,      0.04338694,      0.08231961,
               -0.46148014,      0.32479027,     -0.10073984,      0.35897726,
                0.11810919,     -0.03485827,     -0.07846628,      0.21609780,
               -0.03900629,      0.31444705,      0.08370306,      0.38960013,
               -0.04356927,     -0.20540883,     -0.00852804,      0.13005190,
               -0.00027587,      0.03118377,      0.19338945,      0.03055838,
               -0.00422682,      0.04334194,      0.12463196,      0.42331403,
                0.15364997,     -0.10239227,      0.17033327,      0.19982232,
               -0.14219500,      0.72853816,      0.24404715,      0.13405809,
                0.16563782,      0.28997126,     -0.01339853,     -0.46408689,
                0.33658141,     -0.37158802,      0.15250567,     -0.23786569,
                0.10376110,      0.01094070,     -0.03881951,     -0.17730543,
                0.00629247,      0.03483842,     -0.15943787,      0.12791732,
               -0.26659107,     -0.03308043,     -0.11521818,      0.28575724,
               -0.01924757,      0.15741780,     -0.23282140,     -0.18091418,
               -0.06238126,     -0.11398966,      0.16636574,      0.14571767,
               -0.02664191,      0.01685213,      0.21649143,      0.03622850,
                0.35921487,     -0.03505933,      0.11498222,     -0.02933330,
               -0.00029247,     -0.00396314,     -0.26485014,      0.07965483,
                0.00199994,     -0.14766324,     -0.00692553,     -0.06747661,
               -0.09806120,     -0.03223209,      0.04476418,     -0.02992828,
                0.13428672,      0.10081196,     -0.09527928,     -0.45444787,
                0.18469691,     -0.16541827,     -0.18711029,      0.13370027,
               -0.08654460,     -0.08996587,     -0.12490819,      0.04313108,
               -0.02627985,     -0.14924039,      0.03418713,      0.25354579,
                0.00366310,     -0.39575154,      0.21666506,     -0.13223048,
                0.36313024,      0.13120151,     -0.21358502,      0.07118277,
                0.02997854,     -0.13091443,      0.03400655,      0.13159734,
                0.10453142,     -0.06312363,      0.43900150,      0.40271264,
               -0.08048578,      0.69002998,      0.02358113,     -0.10343533,
               -0.05856789,      0.15767118,     -0.28249273,      0.15736951,
                0.08799881,      0.10305502,     -0.04126388,     -0.18266144,
               -0.00243365,      0.06077994,      0.20561665,      0.04428172,
               -0.50153905,      0.04368879,     -0.00591125,      0.10202407,
                0.01521768,      0.09243111,     -0.22027509,      0.18368703,
                0.02767805,      0.00280116,     -0.08416976,      0.21569090,
                0.16353959,     -0.11170239,     -0.05473269,     -0.02583066,
               -0.08826902,     -0.19616036,      0.15342195,     -0.11933050,
                0.08273718,     -0.01998471,     -0.03372206,      0.20841986,
               -0.13852067,     -0.05537466,     -0.11922856,     -0.01584372,
                0.14244410,      0.15747462,     -0.21096559,      0.09137270,
               -0.11946405,      0.04708022,      0.00500181,      0.12633733,
               -0.10622782,     -0.25375366,     -0.00041799,     -0.11426992,
                0.06106778,      0.13036764,      0.05895072,     -0.03606828,
               -0.57747293,     -0.20658916,     -0.12307972,      0.02352040,
               -0.10595788,     -0.20464644,     -0.00540334,      0.32575279,
               -0.09568341,      0.22622871,     -0.07902046,     -0.02969914,
               -0.12556531,      0.23521698,     -0.02485628,      0.05063571,
                0.07409360,      0.02393551,      0.03160044,     -0.10518192,
                0.04624307,      0.06969938,      0.05502283,     -0.09758757,
               -0.07606296,     -0.11285576,     -0.01536106,     -0.14573161,
                0.10213034,     -0.17810228,     -0.23227131,     -0.14765333,
               -0.37690711,      0.03910695,     -0.01590564,     -0.15097111,
               -0.24241546,      0.00818991,     -0.08222000,      0.18434596,
                0.03110151,     -0.01866866,      0.02777807,     -0.05789334,
                0.00675824,     -0.07832289,      0.07780149,      0.10145144,
                0.10505399,      0.04448920,      0.08854017,      0.01999439,
               -0.00102851,      0.06093463,      0.01332241,     -0.43656483,
                0.02511528,      0.00653886,      0.01597184,      0.60646558,
               -0.11175293,     -0.19000459,     -0.04288336,     -0.12020198,
                0.35738221,     -0.14682801,     -0.09562877,      0.16355063,
                0.34702298,     -0.08002616,     -0.01423027,     -0.29593077,
               -0.03259847,      0.05070136,      0.03272000,     -0.19221707,
                0.18287031,     -0.37561184,      0.02188906,     -0.00094241,
               -0.07450410,      0.35977021,      0.07033782,     -0.05663897,
                0.11023366,     -0.11225288,     -0.08231906,     -0.03967965,
                0.05109044,      0.00670594,     -0.27043310,     -0.06705994,
               -0.08717684,      0.23258244,      0.19355872,      0.16270189,
                0.08552796,      0.16712035,     -0.02031170,     -0.08905160,
               -0.14264287,     -0.47835034,      0.01644382,     -0.23430330,
                0.04566856,      0.08308136,     -0.30186677,     -0.13843521,
               -0.12036119,     -0.02371092,     -0.23403415,     -0.29744637,
                0.00716671,      0.02086162,      0.33139226,      0.32481834,
                0.15786019,      0.03241543,     -0.01048309,     -0.03607259,
               -0.24467850,      0.23603678,     -0.04308506,      0.40740022,
               -0.06561229,     -0.13798155,      0.05517159,      0.05431875,
                0.19206345,     -0.05902052,      0.20825852,     -0.02437925,
                0.03048752,     -0.10184570,     -0.07030820,     -0.07321356,
                0.30464309,     -0.04382958,      0.22099991,      0.04176684,
               -0.09444854,     -0.02951720,      0.01719133,     -0.08939436,
                0.24264288,     -0.40739670,     -0.07962510,     -0.31366757,
               -0.08121622,      0.01368662,     -0.10895842,      0.03499883,
               -0.23063064,      0.25410253,     -0.12066780,      0.45304891,
               -0.14403263,     -0.14334647,      0.00993173,      0.04001674,
               -0.23282193,      0.00107041,     -0.11315776,     -0.10348997,
               -0.49826586,      0.02089921,     -0.54401183,      0.05351136,
                0.26905283,     -0.02356289,     -0.19256018,     -0.46131992,
                0.03473322,      0.05136575,      0.39004198,      1.16159916,
               -0.04679194,      0.01705975,      0.00185416,      0.34587088,
                0.34165287,      0.02091715,      0.28383696,     -0.02807325,
                0.12208273,      0.01150646,      0.07318695,      0.20313090,
               -0.34561625,      0.01002449,      0.11547852,     -0.04165530,
               -0.18235016,     -0.11670291,     -0.28084722,     -0.52909297,
               -0.17585495,      0.03939666,      0.15695199,     -0.02311128,
               -0.22824749,      0.14860232,     -0.00339476,     -0.03588132,
               -0.22107728,      0.00421106,      0.06675643,     -0.09080596,
                0.28501263,      0.05148361,     -0.16147438,      0.17048344,
                0.04475229,     -0.07988047,     -0.11182397,     -0.22024690,
                0.30905449,     -0.11253981,     -0.16062075,     -0.12591033,
                0.10747825,      0.09688531,     -0.10458431,     -0.30020371,
               -0.01825966,      0.03093194,      0.07540377,      0.83046949,
                0.01092837,     -0.15617296,      0.00733291,      0.10023333,
               -0.31212595,      0.05156260,     -0.02332856,     -0.11508711,
                0.11930246,     -0.19476496,      0.27043942,      0.44165948,
               -0.19707499,     -0.28130761,      0.26195681,      0.30114400,
               -0.08212006,     -0.07116375,     -0.27171281,     -0.54118252,
               -0.20256245,      0.18730050,      0.22524253,     -0.20082414,
               -0.15090071,     -0.01562793,      0.09617680,      0.07627724,
               -0.07083388,      0.15419725,     -0.00472327,     -0.21635383,
                0.09270303,      0.07863549,      0.02022475,     -0.09484605,
                0.07351317,      0.16490400,      0.06033411,      0.07763916,
                0.14032248,     -0.06801719,      0.03661286,     -0.12497854,
                0.10107931,      0.09482185,     -0.46151856,      0.07501172,
                0.58178449,      0.27053121,      0.30226639,     -0.19433931,
                0.37168902,     -0.33625594,     -0.24963342,      0.04068572,
               -0.15351917,      0.10289183,      0.04352056,     -0.10663316,
                0.07442768,     -0.62759036,     -0.17854038,     -0.29852688,
               -0.17960896,     -0.28270432,     -0.07856877,      0.02041207,
               -0.33401626,      0.31436110,      0.08713771,     -0.05415923,
               -0.17721812,     -0.04100508,      0.06527697,      0.06625774,
               -0.09072787,      0.00667944,      0.04960937,     -0.20840470,
               -0.34041122,     -0.00815085,      0.09849578,      0.10503330,
               -0.14671427,      0.18956921,     -0.06306237,      0.19020531,
               -0.05556945,      0.16294654,     -0.04572681,     -0.36450550,
                0.00357665,     -0.24747735,      0.02542398,     -0.05883065,
               -0.05097464,      0.02779492,      0.25195995,      0.10701233,
               -0.19599555,      0.10323288,      0.05663948,      0.10892823,
                0.62262493,      0.00608649,      0.25090834,      0.15951388,
                0.25622147,     -0.46847928,      0.26686931,     -0.09610356,
                0.28761345,     -0.39677149,      1.15820003,      0.09409802,
               -0.01047885,     -0.01749856,     -0.09149949,     -0.02915331,
                0.07369943,     -0.06601606,     -0.07327181,      0.30706805,
                0.07248188,     -0.43835631,     -0.01379371,      0.19176637,
               -0.01134683,      0.19418551,      0.08402343,      0.16444212,
                0.27846944,      0.08287729,     -0.02892400,      0.17416660,
               -0.14474350,      0.26958326,      0.15626235,      0.36135584,
               -0.13400045,     -0.08883601,      0.09677784,      0.31789127,
               -0.12381136,      0.41777587,     -0.00658680,     -0.11082895,
                0.04835375,      0.14059825,     -0.10405262,      0.09336262,
                0.27967462,      0.06115668,     -0.02514290,      0.17059806,
                0.23891035,     -0.45298171,     -0.05780590,     -0.33133653,
                0.06941163,     -0.00141805,      0.59128815,      0.32220548,
                0.00724639,     -0.13253397,     -0.20216417,      0.17694706,
               -0.07413316,      0.09831142,     -0.11683668,      0.21871184,
                0.25717661,     -0.27144277,      0.32794669,     -0.09791723,
               -0.13827123,     -0.05605717,     -0.08921781,     -0.09876177,
                0.01912110,      0.10469253,     -0.07842353,      0.04261645,
               -0.04829741,     -0.11383662,      0.01247025,     -0.08271848,
               -0.00047319,      0.19649918,      0.27706790,     -0.07002988,
                0.06049513,     -0.29263392,     -0.01265146,     -0.19494852,
                0.55541295,     -0.07890371,     -0.08939378,      0.07188627,
               -0.04919572,     -0.01172675,     -0.11091560,      0.36496961,
                0.42102718,      0.19587463,     -0.08030870,      0.04164592,
                0.13916366,      0.05130873,      0.05512132,     -0.10329555,
                0.02162308,      0.01936205,      0.21398413,     -0.16009109,
                0.13100319,     -0.23779182,      0.04381786,      0.02012244,
                0.35919777,      0.01319007,     -0.25514269,      0.12201399,
               -0.05062262,      0.24563599,      0.09994180,      0.07335892,
                0.33854598,      0.25030282,     -0.21112534,      0.07981490,
               -0.10166897,      0.07810546,      0.09748124,     -0.01241595,
                0.11701521,     -0.08449916,     -0.18632048,     -0.15742163,
               -0.00629048,     -0.04467419,     -0.18170512,     -0.06256083,
               -0.08861195,      0.05395097,      0.06974311,      0.18185586,
                0.19961405,     -0.14719327,     -0.17879805,      0.10308871,
               -0.03151753,      0.15741494,     -0.00925253,     -0.19043866,
                0.26100853,      0.04862979,      0.19691566,      0.05209585,
               -0.00629977,      0.05334751,      0.35757962,      0.02677223,
               -0.11084483,     -0.16689824,     -0.45093426,     -0.06616835,
               -0.20329274,      0.06325381,      0.03131668,      0.08312425,
               -0.09914861,     -0.07974939,      0.27249834,     -0.00991949,
               -0.33126476,      0.04519456,     -0.05661535,     -0.20350106,
                0.07000936,      0.11485055,     -0.07918568,     -0.16790654,
                0.20950042,     -0.08224597,     -0.14783043,     -0.19836542,
                0.06376103,     -0.36070862,     -0.01363633,      0.21228144,
                0.01004596,     -0.09229422,     -0.05698663,      0.03421149,
               -0.08546823,     -0.26383340,     -0.22241640,      0.12442279,
               -0.03679673,      0.35211673,      0.00176727,     -0.08092213,
                0.12596320,     -0.09158001,      0.12311550,     -0.11645098,
                0.03825165,     -0.06004799,      0.00998061,      0.13547173,
                0.27763480,      0.00808947,     -0.03593172,     -0.15613575,
                0.02138253,     -0.11106808,     -0.46410939,      0.17300053,
               -0.06620728,     -0.09034366,      0.16215415,      0.11532063,
               -0.13403115,      0.11837512,     -0.07141635,     -0.22967558,
                0.22625844,     -0.25216758,     -0.02417849,     -0.27468920,
               -0.12285286,     -0.10499417,      0.14947580,      0.57429850,
               -0.18923847,     -0.02734859,     -0.09362009,     -0.23256458,
                0.32939050,      0.02398700,      0.04917667,      0.54981405,
                0.39478049,      0.10599077,      0.03495543,      0.03967068,
               -0.13479219,      0.09167372,      0.07075252,     -0.02785560,
               -0.15488064,     -0.08671916,      0.09880592,      0.05358835,
               -0.18758577,     -0.39744228,     -0.04950555,      0.10371872,
                0.36419883,     -0.38932517,      0.06930802,     -0.17684004,
                0.11609747,      0.25152159,     -0.29327971,     -0.02700130,
                0.01447836,     -0.04570765,     -0.01891389,     -0.13562308,
               -0.08886966,     -0.02472698,     -0.02455073,      0.23942609,
               -0.01201640,      0.15912323,      0.24522527,     -0.00994957,
                0.18586595,      0.03461673,     -0.42077830,      0.06741885,
               -0.05056098,     -0.17998149,      0.06626061,     -0.33018568,
                0.06966045,     -0.00831653,      0.01794729,     -0.23122205,
                0.08839836,     -0.10658848,      0.02592596,      0.15792294,
                0.17633452,      0.09635631,     -0.00297296,     -0.04671440,
                0.18095681,      0.03189591,     -0.04362401,      0.15893708,
                0.16305371,      0.32326609,     -0.11597483,      0.09128469,
                0.01415805,      0.29410827,     -0.29685777,     -0.05828983,
                0.10430988,     -0.36934832,     -0.07012686,     -0.02183331,
                0.01135694,      0.13581216,      0.08237906,     -0.09082232,
               -0.71312571,     -0.13671800,     -0.11254530,     -0.22105318,
               -0.05300387,     -0.10266915,     -0.02027092,     -0.00559159,
               -0.12628591,      0.01943580,     -0.28142864,      0.24475539,
                0.10216961,      0.48737741,     -0.09404637,      0.01791198,
               -0.67703938,      0.05194592,      0.02118132,     -0.07431865,
               -0.01686528,     -0.03533860,      0.05693054,      0.14814846,
                0.00891886,     -0.07168441,     -0.02114263,      0.06740773,
               -0.00958874,      0.22725499,      0.29170218,      0.30524734,
                0.43514797,      0.14058249,     -0.20634872,      0.07241918,
                0.15690255,      0.03056157,      0.08017015,     -0.38023549,
                0.05455665,      0.11733405,     -0.18603118,      0.04016856,
               -0.12855203,      0.05039502,      0.02078504,      0.08381608,
                0.52039152,      0.11579400,     -0.02334214,     -0.02737776,
               -0.01901318,     -0.24603118,     -0.06950833,      0.06276410,
               -0.00550003,      0.10138400,     -0.03644537,     -0.03783977,
                0.14058305,     -0.17822604,      0.01653493,     -0.03313890,
               -0.25630948,      0.10089622,      0.04273284,     -0.02446041,
               -0.04234359,     -0.18527143,      0.23576073,      0.01877855,
               -0.03481661,     -0.32797515,      0.15863734,      0.11799581,
               -0.18953466,     -0.19013554,     -0.20054968,     -0.32353428,
               -0.36720657,      0.25505716,      0.31765214,     -0.21912475,
                0.13397846,     -0.12368427,      0.23554362,      0.00741663,
               -0.24420831,      0.01613941,      0.00620692,     -0.18412200,
               -0.09694716,      0.16219425,     -0.14867355,      0.26423177,
                0.02581636,      0.03033637,      0.12842178,      0.27983123,
               -0.33163092,      0.32888687,      0.32290635,      0.13565564,
               -0.07588407,      0.11470850,      0.01913907,      0.03418896,
               -0.00519291,     -0.12649432,     -0.37102526,      0.00517604,
               -0.14715433,     -0.11213790,     -0.09946308,      0.08845908,
               -0.38961884,      0.10904597,      0.12014452,      0.04201544,
               -0.33171189,     -0.24338388,     -0.17895846,     -0.34339747,
               -0.24961928,     -0.25257894,      0.06708398,      0.34028995,
               -0.32233223,      0.37082756,      0.10722858,     -0.05912486,
               -0.19682133,     -0.04398555,      0.06566895,     -0.05786009,
                0.44785723,      0.07146873,     -0.03004064,      0.07790802,
               -0.22891021,     -0.49706870,      0.07145298,     -0.14404462,
                0.15780243,      0.22027473,     -0.16565309,      0.15558790,
                0.05675875,     -0.14969559,      0.09182310,     -0.00132148,
                0.24810496,      0.01471134,      0.11874607,     -0.09269033,
                0.06747460,      0.44185024,      0.02495795,     -0.04387339,
               -0.09796392,     -0.48232907,     -0.21915877,      0.02735371,
                0.30064285,      0.14191866,      0.07530220,      0.14935581,
               -0.19404790,     -0.09731927,      0.14433710,     -0.19068281,
                0.07353643,      0.06558973,     -0.19921084,      0.11726522,
                0.06811537,     -0.48527375,      0.03379503,     -0.03904460,
                0.42017478,     -0.51475739,     -0.06831165,      0.14820710,
                0.02263675,      0.22812556,     -0.18134496,      0.28642645,
               -0.01058971,     -0.06255739,      0.12442974,     -0.12000514,
                0.65127867,      0.03159984,     -0.05258891,      0.11779024,
               -0.11322512,     -0.07292763,     -0.15533110,     -0.02493067,
                0.02023142,      0.10959688,      0.17251080,     -0.21326293,
               -0.25847259,     -0.51759207,     -0.01869087,     -0.02927081,
                0.59875721,      0.00076276,     -0.04726175,     -0.01083536,
               -0.15452084,     -0.05627174,      0.14123778,      0.07432432,
               -0.29028404,     -0.04486369,     -0.12761536,     -0.19139512,
               -0.08088405,      0.00514829,      0.01131422,     -0.08757494,
               -0.16227452,      0.16045791,      0.18014027,      0.04157806,
               -0.13033457,     -0.07609385,     -0.05593835,     -0.06537507,
                0.55383968,      0.00412816,     -0.23819433,      0.10735650,
               -0.08343005,     -0.27286747,      0.14627534,      0.00261849,
                0.21020176,      0.10544281,     -0.09357847,      0.10063774,
               -0.10624240,      0.06186713,      0.10623611,      0.12070736,
                0.09327614,      0.12647946,      0.14672738,      0.03974682,
                0.00995558,      0.52192694,     -0.10082248,     -0.15454628,
               -0.01166954,     -0.10293064,     -0.18687646,     -0.07399076,
               -0.02244279,     -0.21925850,     -0.04732144,     -0.06792334,
                0.15061709,      0.14633648,     -0.20487946,     -0.00704054,
                0.09807312,     -0.05583868,      0.13754229,      0.16101307,
                0.30456036,      0.21068178,     -0.08336082,      0.21031332,
                0.03441920,      0.13378038,      0.06940541,      0.08378644,
               -0.03926244,     -0.38866943,      0.06622671,     -0.04951162,
                0.07365493,      0.63011980,     -0.25496697,     -0.19034517,
                0.29291695,     -0.31833094,      0.05834005,      0.45047137,
                0.03295270,      0.36038566,      0.01258308,      0.54942524,
               -0.08983707,     -0.12219702,     -0.01148493,      0.20316327,
                0.04714267,      0.12049679,     -0.20472471,     -0.43800524,
               -0.14243044,     -0.43361023,     -0.23126554,      0.63754964,
               -0.03110532,      0.13287158,     -0.00740954,      0.01377882,
               -0.59650362,     -0.07400507,     -0.04169999,     -0.10107419,
               -0.02725114,     -0.10905208,      0.04807259,      0.17663220,
               -0.05106296,      0.04302649,     -0.02695527,      0.16819917,
                0.11953355,      0.37165132,     -0.03123047,     -0.02455508,
               -0.37462774,     -0.00958323,      0.10333726,     -0.01594935,
                0.26441628,      0.01060346,      0.28718677,      0.36908779,
                0.12428614,     -0.16712970,      0.24751167,      0.14249697,
                0.02897578,      0.11333020,     -0.17175494,      0.08946864,
               -0.15919907,     -0.09753897,      0.05468445,     -0.44735512,
                0.14866009,     -0.00249568,     -0.16356763,      0.00962553,
               -0.05845477,     -0.08635297,     -0.09407278,     -0.10454474,
                0.18576907,      0.04416279,     -0.14196353,     -0.22224835,
                0.03824301,     -0.19940181,      0.31260097,     -0.00638601,
                0.07404617,     -0.20810913,     -0.12698641,      0.04317764,
                0.09921928,      0.19034886,     -0.09342217,      0.03006984,
               -0.04483655,     -0.05515267,     -0.10935971,     -0.08733744,
                0.03698330,     -0.10210782,     -0.05992495,     -0.28592977,
                0.16883890,     -0.05482513,      0.22336562,     -0.02807688,
                0.04843006,     -0.03219309,      0.19139148,      0.11654767,
               -0.05286564,     -0.01299570,     -0.17636035,      0.05842046,
               -0.13462529,      0.23790084,     -0.04207755,     -0.34307712,
               -0.21598272,     -0.07493071,     -0.09970566,     -0.01304044,
                0.10631648,      0.08893678,     -0.21064427,     -0.08155441,
                0.25787687,     -0.04101608,      0.20452419,     -0.01373035,
                0.06804150,     -0.26853839,      0.01323062,      0.00376065,
               -0.00975629,      0.15037429,      0.07748991,      0.09137683,
                0.50179785,      0.20513397,      0.00199438,      0.07775405,
                0.09360348,      0.02107510,     -0.10610370,     -0.14445670,
               -0.02475605,      0.30794239,     -0.19005150,      0.36229181,
                0.45974740,      0.35437042,     -0.34183496,      0.61845011,
                0.35098025,     -0.29712510,     -0.15385412,     -0.54138947,
                0.01704751,      0.07595713,      0.00159918,      0.74097764,
                0.44240633,     -0.71746653,     -0.20302477,      0.34902894,
               -0.20287310,      0.30261374,     -0.53874958,     -0.31596211,
                0.43718532,     -0.46580723,      0.07481147,     -0.41916484,
                0.09402265,     -0.30194750,     -0.11925768,     -0.08697892,
               -0.20827550,     -0.05067651,      0.16447325,     -0.03883534,
               -0.03476027,     -0.29585740,     -0.09057786,     -0.22547100,
                0.21200773,      0.18725072,     -0.02936146,     -0.03390652,
                0.08091639,     -0.04090878,     -0.01759502,     -0.03690173,
               -0.00633564,      0.08554868,     -0.10008578,     -0.07448803,
                0.11423853,      0.25241259,      0.10760502,      0.30018392,
                0.03838404,      0.41469660,     -0.16290809,      0.01312280,
                0.47662479,      0.17453003,      0.00882154,      0.31873426,
               -0.47254634,     -0.08840139,      0.12251251,      0.05469318,
               -0.04041110,     -0.08457844,     -0.12410152,     -0.10840920,
               -0.06774944,     -0.26685706,      0.01279488,     -0.04416849,
                0.25206763,      0.10830472,     -0.21084362,     -0.18989916,
               -0.16986877,      0.06073358,      0.15260947,     -0.07303359,
                0.09682027,     -0.20851265,      0.06406674,      0.19420733,
               -0.11447200,     -0.18407299,     -0.00357897,     -0.28978631,
                0.24649082,     -0.16501425,      0.03900226,     -0.10189340,
                0.07234829,      0.27108508,     -0.17468609,     -0.00396910,
               -0.03101348,     -0.17431407,      0.04742535,      0.09689981,
                0.34565029,      0.17261514,      0.17119625,     -0.01906708,
               -0.02865165,      0.03905929,     -0.09800088,      0.29888174,
                0.04473441,      0.18719634,      0.33350828,      0.20556104,
               -0.13646668,      0.59453523,     -0.10054074,      0.07643308,
               -0.03394460,     -0.10445222,     -0.03108845,      0.10310115,
               -0.24777709,     -0.21435104,      0.07962037,      0.09046825,
               -0.04461330,      0.08211702,     -0.14327481,      0.02110837,
                0.24984664,     -0.05296142,     -0.12181602,      0.14852598,
                0.13557270,     -0.06961425,      0.04137725,     -0.02784079,
                0.12633409,     -0.20120935,     -0.19859880,      0.15309495,
               -0.12470488,     -0.46579522,     -0.12484130,      0.09039444,
                0.32851818,      0.01036069,     -0.26086920,      0.08003289,
               -0.02182381,      0.21811178,     -0.11471588,     -0.21961454,
                0.11056659,     -0.13187240,      0.08335637,     -0.04068208,
               -0.03918622,      0.02584074,     -0.08113062,      0.04466280,
                0.48473468,     -0.03791654,     -0.22763298,     -0.24009770,
                0.18501146,     -0.03619573,     -0.37889886,      0.04094304,
               -0.24121696,     -0.00540287,      0.30858675,      0.06875351,
               -0.17540404,      0.39683446,      0.07014024,     -0.07799931,
                0.07001033,      0.06507403,     -0.09345165,     -0.28810871,
                0.05361064,      0.09523395,      0.26665604,     -0.04101584,
                0.12452114,     -0.09916938,      0.07923531,      0.04572207,
               -0.03623701,      0.18809913,     -0.14428148,     -0.09049232,
               -0.30988190,     -0.09288380,      0.00328015,      0.00473963,
               -0.06780338,     -0.03070253,     -0.12045794,     -0.44417754,
               -0.01649545,      0.03517756,      0.14823174,      0.11052500,
               -0.17253633,      0.07853141,      0.11743283,     -0.14224458,
               -0.07399633,     -0.07347162,      0.12756477,     -0.14848134,
                0.42048311,      0.02514116,     -0.20210008,      0.23306908,
                0.34544167,     -0.31962830,     -0.11884163,     -0.39888164,
               -0.22544268,      0.02380775,      0.18709219,     -0.20351759,
                0.00407766,     -0.40193188,      0.02667043,     -0.09570472,
                0.00323360,      0.43166661,     -0.08389084,     -0.12892224,
               -0.18183792,     -0.22043991,      0.09095994,     -0.02074038,
               -0.10678789,      0.04579817,      0.04716591,     -0.19906476,
                0.02767625,      0.18452479,      0.34678882,      0.61454260,
                0.12193489,     -0.32759869,      0.10529802,      0.08427510,
               -0.18094143,      0.41945949,      0.08810550,      0.24374604,
                0.05184956,      0.20546843,     -0.06570305,      0.03116701,
               -0.49897665,      0.04686110,      0.18893845,      0.35533771,
               -0.11511625,     -0.13859220,      0.47533366,     -0.03624589,
               -0.05435859,     -0.03247076,     -0.11613214,     -0.09306133,
               -0.03885008,      0.44547895,     -0.17516339,      0.00501573,
                0.05404480,     -0.07081392,     -0.02915046,     -0.08178176,
               -0.61298609,     -0.06206459,      0.05441646,     -0.08287703,
               -0.02866779,     -0.09085412,      0.11041803,      0.36815292,
               -0.04780457,     -0.23956817,      0.00055603,      0.09632467,
                0.10856172,      0.03838796,      0.04238718,      0.06225532,
               -0.12036415,     -0.09266614,      0.03967391,      0.07885700,
                0.04531008,      0.05160233,     -0.01552556,      0.29047701,
                0.11596829,     -0.34345028,     -0.13572642,      0.02554784,
                0.20312658,     -0.37115279,     -0.06263411,     -0.05651201,
                0.06314960,      0.04808738,      0.00215708,      0.07244165,
                0.23975228,     -0.16874036,     -0.32555413,     -0.28577054,
               -0.04293388,     -0.01221900,      0.31097355,     -0.21524727,
                0.12243475,     -0.38068855,     -0.18607207,      0.28727376,
                0.05646480,      0.33150724,     -0.08702881,     -0.01183752,
                0.03499798,     -0.04009345,     -0.17893036,     -0.08639435,
                0.19241203,      0.08993675,      0.08165520,     -0.31245655,
                0.13041377,      0.37645733,      0.16956162,      0.00370768,
                0.21401054,     -0.05729113,     -0.28631431,      0.04364812,
                0.55385131,      0.11672802,     -0.16580127,     -0.04065236,
               -0.07115109,     -0.12858434,      0.12616308,      0.13202840,
                0.20032413,      0.20261110,      0.03437487,      0.03023210,
                0.05026301,      0.02242742,      0.02502201,      0.36865318,
               -0.27347609,      0.02146775,     -0.19089466,      0.05208270,
                0.10312913,      0.12109710,     -0.20766914,     -0.36946404,
               -0.02018000,     -0.00340705,      0.19313762,      0.42884842,
               -0.10006252,     -0.00215974,      0.11938027,     -0.14289528,
                0.28387344,      0.01530911,      0.12748389,     -0.03478588,
               -0.01965616,     -0.03310970,     -0.11954148,      0.06547131,
                0.07634016,      0.04147049,      0.02243171,      0.09494074,
               -0.27742010,     -0.24936749,     -0.11987620,      0.07325301,
               -0.00309565,      0.21159953,     -0.02114883,      0.13254547,
               -0.17677583,      0.18297958,      0.19554204,      0.13718469,
                0.09650682,      0.09531391,     -0.00903734,      0.18216474,
                0.22885852,     -0.02693724,     -0.19417684,     -0.19799502,
               -0.04339690,     -0.31377959,      0.10701477,      0.13575318,
               -0.05971820,     -0.10113459,      0.27035785,      0.04154852,
               -0.04447380,      0.02721822,     -0.00280929,     -0.20950380,
                0.27946365,      0.01615210,      0.02292923,     -0.01621687,
                0.06796342,      0.08315095,      0.08143999,     -0.00532679,
               -0.13862585,      0.20007199,     -0.12195502,      0.19093572,
               -0.03972073,     -0.17082497,      0.07239506,      0.19235338,
                0.17446384,      0.14697769,      0.02023735,      0.09029543,
               -0.33810934,      0.19482462,      0.32330376,      0.03384469,
               -0.18026368,     -0.17721258,      0.13475668,      0.24226783,
               -0.13046405,      0.39449963,      0.11332625,     -0.27536649,
                0.06852513,      0.10453948,     -0.06757404,      0.06217125,
               -0.30720204,     -0.00734627,     -0.23525277,      0.00916588,
                0.04940601,     -0.02086317,     -0.20432371,     -0.49657905,
               -0.01329683,      0.01263187,      0.24458893,      0.41553378,
               -0.05333843,      0.06444702,      0.02885747,     -0.25767562,
                0.15275581,      0.06616674,      0.05922943,     -0.08036701,
                0.04790935,      0.01508136,     -0.10537530,      0.12333801,
               -0.05910351,     -0.20860487,      0.03559037,      0.02781735,
                0.10320600,      0.01589473,     -0.02752946,     -0.03698194,
                0.34188491,     -0.13401799,     -0.10125751,      0.21401867,
                0.07835726,     -0.02498621,      0.18527848,     -0.03556721,
               -0.05090883,      0.19027539,     -0.17184126,      0.12084014,
               -0.03720712,     -0.15923972,      0.04871903,      0.09590778,
                0.21546373,      0.05067882,     -0.10274739,      0.21770522,
                0.09767399,     -0.10272577,     -0.25282180,     -0.07318303,
                0.59574890,      0.07056820,      0.15585425,      0.04757793,
                0.00441222,     -0.20097680,      0.13277797,      0.01800310,
               -0.00086177,     -0.02360527,     -0.29905230,     -0.33555374,
                0.00497480,     -0.05987896,      0.19156986,     -0.04227566,
                0.07184874,      0.01226207,      0.01880895,      0.02092600,
                0.05837820,     -0.52872258,      0.03897966,     -0.14992841,
               -0.07155168,     -0.16728421,     -0.05079057,      0.34039173,
               -0.30586603,      0.20725553,     -0.17536765,     -0.10517497,
               -0.34028652,      0.05047010,     -0.05646960,      0.05607837,
                0.07446250,     -0.05489855,     -0.00989009,     -0.03609314,
                0.39833057,      0.13309196,     -0.15015844,     -0.03524354,
               -0.01249631,     -0.39668816,      0.01038994,     -0.03856859,
               -0.01383521,      0.01529159,      0.20617850,      0.07867640,
               -0.06755530,      0.48541412,     -0.08110908,     -0.16961507,
               -0.20681329,     -0.14110002,      0.24593340,     -0.00224971,
               -0.21936044,     -0.16796589,      0.10454327,      0.28105676,
               -0.04045603,      0.11888103,     -0.04178999,     -0.19435239,
                0.31953061,      0.15970004,     -0.13015257,     -0.13282120,
               -0.00675820,      0.02428449,      0.11518916,     -0.32617792,
                0.17048812,     -0.01772150,     -0.19257845,     -0.12076833,
                0.04837451,     -0.07460063,     -0.04713462,     -0.02527782,
               -0.24430685,      0.04606444,      0.20972162,      0.07087730,
                0.37578511,      0.10768821,     -0.22891046,      0.16420722,
                0.23278600,     -0.06247925,      0.10622469,     -0.36706507,
                0.02539499,     -0.05697184,      0.01207502,      0.09719045,
                0.10268075,     -0.25401405,      0.28802764,      0.15417448,
                0.21483333,      0.17956756,     -0.44145399,      0.31684187,
                0.15329805,     -0.12217399,     -0.00129950,      0.45227829,
                0.20848496,      0.27037287,     -0.22633122,      0.03439393,
                0.14080282,     -0.20654711,      0.17210245,     -0.12722701,
               -0.10365169,      0.02019653,      0.07251363,     -0.05819026,
                0.03085133,      0.06822956,      0.11091342,      0.15100320,
               -0.14756222,      0.17210652,     -0.14475639,     -0.05521790,
                0.07967941,      0.58538109,      0.09910568,      0.08558561
};

// Parameters for BN in Expansion Convolution layer
// Weight shape = torch.Size([144])


const float MBConv6_2_expansion_conv_BN_weights [144] =
{
3.22082901,  2.66896009,  0.32637200,  0.68077630,  1.68987501,
         1.78740752, -2.17200685,  3.33720183,  0.15128276,  1.73110676,
         1.34057057,  0.70604062,  0.20760381,  0.33567414,  0.89656281,
         1.09378207,  1.17618155,  2.32485056,  1.95436263,  2.32450485,
         0.78439027,  0.87041175,  1.63992548,  1.52555382,  2.34869456,
         3.53142214,  0.45647973,  0.32736522,  2.62621427,  0.83163607,
         0.64649302,  4.18045092,  0.29936090,  0.41091260,  1.06855023,
         1.25336754,  1.24795544,  0.16960134,  1.30194592,  0.62786192,
         0.94448054,  4.09355879,  0.84854043,  4.41401148,  0.86848724,
         0.98382527,  0.29480046,  1.27119470,  1.07498574,  2.29798365,
         1.29470861,  0.18635084,  4.38385534,  1.54987347,  0.91373295,
         4.35587788,  2.35891700,  1.16381943,  0.53365636,  0.32456678,
         3.13508153,  2.03111362,  1.11179900,  1.62005544,  0.77680814,
         0.41952100,  0.80263567,  0.66867256,  1.28204358,  0.51006389,
         2.33885550,  0.18361990,  1.39555228,  0.97013777,  0.88618630,
         0.82429999,  4.60264015,  1.18192971,  1.38463795,  0.36340168,
         0.76228631,  1.58712673,  0.15063892,  2.50402045,  2.61382866,
         1.32215905,  1.67199850,  1.56878257,  1.34981358,  1.61658955,
         0.88269293,  0.87328768,  2.16907716,  0.14748001,  0.30710128,
         1.30683625,  0.52103597,  2.33762550,  2.23454428,  0.23268327,
         0.68340123,  3.04593801,  1.62001264,  3.18443799,  1.03411055,
         1.73277152,  0.61409247,  0.14527065,  0.56685531,  0.83397061,
         0.27011594,  4.70629406,  1.24595821,  2.59452891,  2.07013512,
         0.93501025,  1.16617954,  2.45182371,  1.73163199,  0.50919026,
         0.27340356,  1.86667275,  0.61322844,  1.94470155,  1.82926619,
         0.27523288,  1.66418552,  0.17639616,  0.78390700,  0.76230383,
         0.95102745,  1.40503919,  0.63877779,  0.24583861,  1.54763937,
         0.43016252,  0.38037601,  0.50642622,  1.81710804,  1.20951867,
         0.28612319,  1.93271625,  2.89034319,  1.47356296
};

const float MBConv6_2_expansion_conv_BN_bias [144] =
{
	 0.48979345,  1.07333863, -0.70615989, -0.17177603,  2.69707012,
         0.65720314,  3.29240847, -3.03288412, -0.06148675, -1.19136608,
        -0.50698990,  1.28408694, -0.47536612,  0.07568205,  1.33576787,
         0.81246483,  0.98091632,  0.79224569,  0.20344184, -1.74461472,
         1.21198714, -0.08797711, -0.52667981,  3.11149502,  3.83488178,
        -3.88067937, -0.21780011,  1.19065964,  2.68786192, -1.96485496,
         1.54656935, -2.38248348, -0.19870026, -0.60348678, -0.20717840,
         0.08122132,  1.45603371,  0.98857963, -1.48516369, -0.22599494,
         1.22441912, -2.67941260,  2.08793855, -4.57169485,  0.79554683,
         2.37076044,  0.08618594,  1.74460268,  2.66199589,  2.24128437,
        -0.49595362,  1.10642898,  0.35303560,  0.17420788, -0.87608969,
        -4.50719786,  0.66992265,  0.16185638, -0.06617984,  0.31234762,
         0.75514138,  0.41927528,  1.36281490, -0.25894415, -0.98456275,
         1.67188883,  0.60248709,  0.03384713,  0.25923562, -0.36168575,
         2.48420191, -0.39999941,  2.53264260,  2.40219045, -1.58358932,
         1.36768198,  3.43556285,  0.83069676,  1.45308959,  0.56645316,
         1.72538352,  1.01130569, -0.36739039, -1.95397508,  3.48233676,
         2.18382430,  1.97448397, -0.75627118, -1.07014716,  1.12624073,
        -0.85333228, -1.12047386,  0.18022174, -0.17059235, -0.13587193,
        -0.71203125, -0.49498317,  1.69944513, -1.37857533, -0.15787522,
        -0.48035720,  0.96381038,  4.08704090, -0.21181817,  2.72134352,
        -0.34648505, -0.07521364, -0.15264770,  0.30897465,  0.91841727,
         0.21696070, -3.74813294, -0.82600033,  0.68249321, -0.56824583,
         1.50788224,  0.53821856, -2.06056547,  3.04408646, -0.74366075,
        -0.34287351,  0.85133493,  0.16554241, -1.49073768,  2.16220260,
         0.30347776,  3.26045609,  2.29858518,  1.73317552,  0.01841405,
        -1.34108043, -1.07697678,  0.54261380,  1.79467404,  2.25591874,
        -0.24316263,  0.39081278,  0.33316305, -0.91584903,  2.16861701,
         0.20552953,  1.92819214, -2.69524264,  1.97029662

};


const float MBConv6_2_expansion_conv_BN_mean [144] =
{
	-0.00203574,      0.00768769,     -0.00348196,      0.00655845,
             0.00122936,     -0.00574111,     -0.00026985,     -0.00123112,
             0.00209296,     -0.00129759,     -0.00000344,      0.00011650,
             0.00023423,     -0.00377092,      0.00016259,      0.00030170,
             0.00757335,      0.00331817,      0.00994924,      0.00201008,
            -0.00178215,      0.00358308,      0.00256314,      0.00068485,
            -0.00633523,      0.00215533,     -0.00891567,      0.00711503,
            -0.00647367,     -0.00104357,      0.00011514,      0.00733767,
            -0.00044630,     -0.00075009,     -0.00004499,      0.00115738,
             0.00705035,     -0.00336782,      0.00182807,      0.00352217,
            -0.01147260,      0.01561601,      0.00337553,     -0.00343747,
             0.00119054,     -0.00103139,     -0.00139754,      0.00035151,
            -0.01183166,      0.00053869,      0.00119777,      0.00638769,
            -0.00358684,      0.00280803,     -0.00344032,     -0.00250891,
            -0.00711621,      0.00041267,      0.00122544,      0.00187194,
            -0.00326585,     -0.00304121,     -0.00158586,     -0.00811772,
            -0.00696730,     -0.00711697,     -0.00841250,     -0.00378007,
            -0.00172789,     -0.00419576,      0.00057502,     -0.00176481,
             0.00455370,      0.00472795,     -0.00071509,      0.00903144,
            -0.00974432,     -0.00043752,      0.00564340,      0.00351017,
            -0.00046173,      0.00407763,     -0.00173072,     -0.00383468,
             0.00460995,     -0.00995566,      0.01179789,     -0.00260688,
             0.00884193,      0.00015266,     -0.00210147,     -0.00713523,
             0.00698021,     -0.00060990,     -0.00241150,     -0.00099248,
             0.00396838,     -0.00040512,      0.00162136,     -0.00040943,
            -0.00318085,     -0.00454966,     -0.00004879,     -0.00160416,
             0.00169846,     -0.00581155,      0.00412229,      0.00124176,
             0.00133008,     -0.00474437,      0.00128577,      0.00379674,
             0.00011951,      0.00137049,      0.00568602,      0.00325552,
            -0.00052131,      0.00787010,      0.00016208,      0.00722611,
             0.00486616,     -0.00145527,      0.00021366,      0.00363802,
            -0.00674462,      0.00052892,      0.01026648,      0.00164546,
             0.00440861,      0.00231270,      0.00893499,      0.00056794,
            -0.00024637,      0.00640987,     -0.00570066,     -0.00530424,
             0.00017009,      0.00158895,      0.00537387,      0.00832206,
             0.01161728,     -0.00554504,      0.00467105,      0.00016169
};


const float MBConv6_2_expansion_conv_BN_variance [144] =
{
77.14632416, 108.48574066, 139.91807556, 117.01519775,  36.73364258,
         42.18039703,  92.68932343, 111.85430145,  37.69113541,  94.66668701,
        147.52854919,  48.00577927,  17.76360321,  30.32960892,  32.22037888,
         29.95508194,  64.45568848,  44.76256943,  47.33706665,  56.03694153,
         50.19658279,  66.75080109,  80.63442230,  59.48088074,  38.02367401,
         97.91140747,  85.44372559, 153.69068909, 157.08786011,  29.45466995,
         45.78678131,  98.63280487,  53.65600967,  77.52595520,  50.25137711,
         39.47401047, 103.61920929,  84.52941895, 177.00234985,  81.32779694,
         63.12878036, 197.63302612,  58.98186493,  83.33419037,  26.30563545,
         39.49629974,  41.10668564,  32.24111557,  97.73852539, 115.82471466,
        101.26671600,  53.64279175,  38.80008316,  67.16410065,  61.70462036,
        111.18464661, 129.90820312,  36.08191681,  30.97984695,  76.28134155,
         23.04710197,  30.83144569,  33.17864227,  34.74279404,  78.10865021,
        133.95489502,  41.23256683,  41.81692886,  17.54113770,  79.63255310,
         21.96943474,  26.17271233,  26.91204834,  44.40610123,  28.08896446,
         57.22323608,  42.76491928,  16.50352478,  27.44874763, 305.76870728,
         22.09595299,  48.07873154, 199.76817322,  64.69141388,  60.53513336,
         61.55069733, 190.24525452,  92.45864105, 128.28108215,  24.99324226,
         40.56310272,  47.16847610,  47.25996780,  40.76071930,  55.37340927,
         56.79429245,  51.43986130,  21.55111313,  57.60976791,  63.72988129,
         89.73197937,  28.16879845, 172.33743286,  50.11530304,  28.45262527,
         45.59208298,  71.28554535,  53.91237259,  25.72232628,  36.60439301,
         41.80139160, 324.51159668,  30.22997093,  20.41056633,  31.01530647,
         32.52771378,  74.96858215, 554.73632812,  57.29098892, 109.45751953,
         35.69363785,  42.85676575,  44.34016418, 107.81468964,  54.00729370,
         29.54305458, 135.55966187,  61.77490616,  70.00807190,  36.85590363,
         82.51583099,  80.83070374,  66.00243378,  26.11656761,  37.71367645,
         52.34993362,  67.97780609,  23.32288551,  85.86009216,  27.32675362,
         46.42944717,  20.71590996, 124.82701874,  44.23667145
};
