
// weight for Expansion Convolution layer has dimension of  torch.Size([1, 1, 144, 6])
const float MBConv6_2_squeeze_excitation1_conv2d_weights [1 * 1 * 144 * 6] =
{
-0.07108013,     -0.10852538,     -0.02175324,      0.00988367,
                0.01554345,     -0.00713150,     -0.00079755,     -0.07401760,
                0.00984049,     -0.01750816,      0.10375568,     -0.03379666,
                0.00088590,     -0.01721926,      0.00681154,      0.00092548,
               -0.13989878,      0.03173098,      0.00973812,     -0.04048198,
               -0.04319638,      0.02659099,     -0.00266179,     -0.01621765,
                0.00315369,     -0.07216603,     -0.01104199,     -0.08452840,
               -0.08851723,      0.00277419,      0.07377899,      0.01550062,
                0.03125877,     -0.02955231,     -0.00206039,      0.05073957,
               -0.05444878,      0.00440789,     -0.05030592,     -0.06999414,
               -0.01829267,      0.07902075,     -0.01402356,     -0.09646909,
                0.00431118,      0.08117525,      0.00943921,      0.00230429,
               -0.04184642,     -0.10601671,     -0.00714705,      0.00771355,
                0.04248723,      0.01825126,     -0.10330609,     -0.07255004,
               -0.00143354,     -0.03908272,     -0.02484600,     -0.04598663,
                0.10167119,      0.00865415,      0.00109552,     -0.18797262,
               -0.06669342,     -0.05255022,     -0.06238794,     -0.00427577,
               -0.00683794,     -0.05328706,      0.10778757,     -0.02520271,
               -0.00114489,      0.00327542,     -0.06647683,     -0.04159162,
               -0.09480915,      0.04936818,      0.00517033,     -0.03043803,
                0.00390450,     -0.01477871,     -0.01225158,     -0.06518197,
               -0.03764125,      0.00797945,     -0.05655423,     -0.01127830,
               -0.01150818,      0.00571592,     -0.08818334,     -0.09855144,
                0.03260732,     -0.01954629,     -0.01359784,     -0.03111584,
               -0.06525555,      0.09741592,     -0.05299915,     -0.00208695,
                0.01807022,      0.01545628,     -0.25543502,      0.02791395,
               -0.02480229,     -0.04616293,     -0.00948583,     -0.00624583,
                0.00516135,     -0.02130496,      0.02486114,      0.08784760,
               -0.02470296,      0.00690791,     -0.07463384,     -0.00054832,
               -0.14902976,     -0.08031308,      0.01357235,     -0.00910371,
               -0.01209641,      0.03933426,     -0.06415095,     -0.06944136,
                0.01585953,     -0.00422735,     -0.08003081,     -0.01471700,
                0.00054629,      0.02305489,     -0.03319193,      0.01949676,
               -0.02309888,     -0.06315926,      0.02085333,      0.01604369,
               -0.02080259,     -0.00369925,     -0.00960471,      0.00407636,
                0.01346645,      0.02029052,     -0.01898170,      0.00488076,
                0.05525234,      0.16168769,      0.33761421,      0.00161683,
                0.07222690,      0.10273697,      0.17920946,      0.08145957,
               -0.07605051,     -0.12138406,     -0.14888553,      0.03489706,
               -0.04926560,     -0.19659440,     -0.02222421,      0.10201317,
                0.36169368,     -0.14158437,     -0.18059312,     -0.08688673,
                0.03489876,     -0.22826001,      0.01291276,      0.18587506,
               -0.04549361,      0.21258131,      0.22707798,      0.11430520,
                0.39538735,      0.59340227,     -0.09566657,      0.04752922,
               -0.14753044,      0.08461484,      0.07597302,     -0.18308733,
                0.10860682,      0.09758137,     -0.12731276,      0.00656708,
                0.44545746,      0.06484349,     -0.11117364,     -0.05073791,
                0.09961700,     -0.06066736,     -0.04683175,     -0.21598552,
               -0.02076049,      0.31006655,     -0.00737658,      0.09338517,
                0.09263293,     -0.07391133,     -0.15058130,     -0.12584141,
                0.09622509,      0.10523069,     -0.47234941,      0.17955846,
               -0.31398827,      0.07137809,     -0.09671559,     -0.26166794,
                0.03845474,      0.24913880,      0.15249720,      0.15522994,
               -0.04189447,      0.10273197,     -0.35242406,      0.17175376,
               -0.26923722,     -0.14338040,      0.13044350,      0.02579812,
                0.85396135,      0.20267957,     -0.08088575,      0.20049535,
               -0.10163698,      0.24282311,      0.01007110,      0.02106661,
                0.09521367,      0.01377348,     -0.12606244,     -0.13898641,
               -0.19551876,     -0.55550563,     -0.02966974,      0.13852100,
               -0.13394235,      0.12402926,      0.33255103,     -0.14356314,
                0.03133118,     -0.35287434,     -0.09045513,      0.10840499,
                0.14490823,      0.13161260,      0.28858799,      0.04971640,
               -0.37451372,      0.11374988,     -0.02168677,      0.07486740,
               -0.09784166,     -0.03917350,     -0.11762763,     -0.24390228,
               -0.04158980,      0.10234918,     -0.05429342,      0.00514752,
                0.43799096,     -0.69890982,      0.05183836,      0.09202562,
               -0.09330717,     -0.05793218,      0.12397868,     -0.04393160,
               -0.10072977,      0.00621783,      0.11971609,      0.00380550,
               -0.05892097,     -0.18907334,      0.09917861,     -0.06160340,
                0.13717514,     -0.03127282,      0.05348741,      0.01353365,
                0.08321267,     -0.11947734,     -0.16206862,     -0.18717389,
                0.07695127,      0.09160882,     -0.43279076,      0.06106144,
               -0.01813468,      0.07251609,     -0.30936682,     -0.20660448,
                0.06619340,     -0.08133724,      0.06173253,      0.07198096,
                0.06210194,     -0.03686783,      0.09086149,      0.03519619,
                0.07137450,      0.16457705,     -0.01868120,     -0.14057986,
                0.19390464,     -0.06565005,     -0.00255890,     -0.24718840,
                0.02348854,     -0.18400525,      0.03351468,      0.07429044,
               -0.09284431,      0.17584305,      0.03729473,      0.11871805,
               -0.51400459,      0.04334684,      0.38765040,     -0.21819468,
               -0.06418671,      0.04590838,      0.02788123,     -0.25159004,
                0.19091758,      0.09944698,     -0.17131038,      0.00292473,
                0.12553044,     -0.64713198,      0.03383059,     -0.12238520,
                0.07088241,     -0.30586901,     -0.07042269,     -0.03411378,
                0.03118207,     -0.62083775,     -0.09146878,      0.00507102,
               -0.81952333,     -0.08211137,      0.33938140,     -0.10700544,
                0.65314013,      0.02388897,      0.09758691,     -0.01324588,
                0.36067441,     -0.14255300,      0.14904560,      0.02713499,
                0.36184201,      0.11210833,      0.03274656,      0.05220898,
               -0.11850924,      0.06781151,     -0.19301122,     -0.04473503,
                0.01734530,     -0.08411071,      0.02395860,     -0.11545124,
                0.44893184,      0.02641860,     -0.01250784,      0.07005995,
                0.03854583,     -0.05061550,     -0.13648692,      0.02106099,
                0.06393059,     -0.10639879,      0.94181734,     -0.04900311,
                0.29381901,     -0.02535410,      0.00230947,      0.11549003,
               -0.03275944,      0.20186551,      0.07734940,      0.08787633,
                0.02486348,     -0.15159154,     -0.13272783,      0.05057222,
                0.01477354,     -0.20383959,      0.04123890,      0.15378048,
                0.00496381,      0.12371448,     -0.02497510,     -0.01007218,
               -0.02652342,     -0.12567073,     -0.10943616,      0.81631875,
                0.02289480,      0.01822485,     -0.15074371,      0.26252416,
                0.19971164,     -0.09465745,      0.23283806,      0.07444052,
               -0.02401880,     -0.05984223,     -0.04365431,     -0.24560268,
               -0.03728705,     -0.02037321,     -0.03713576,     -0.18899740,
                0.02701325,     -0.24022900,      0.18614951,      0.16915998,
               -0.03362972,      0.02676756,      0.04338083,     -0.04166622,
               -0.03233486,     -0.00368886,      0.14586875,      0.13656469,
               -0.17464922,      0.24185431,     -0.19105753,     -0.05018717,
               -0.14128955,     -0.25333098,      0.01865030,     -0.04482384,
               -0.25542587,     -0.19220345,     -0.22753555,      0.05717723,
                0.10660219,      0.13154039,      0.37347046,      0.13079093,
               -0.08219955,      0.02693186,     -0.06834824,      0.15117688,
                0.02034085,     -0.00598615,      0.12046267,      0.08801158,
               -0.00917487,     -0.14888734,      0.13157177,     -0.05086856,
               -0.19000694,      0.19163384,     -0.39533952,      0.08027993,
                0.90043646,     -0.03200768,      0.29609022,      0.48489919,
               -0.19061096,      0.00457436,     -0.16792884,      0.11045198,
               -0.10208149,     -0.05149481,      0.48186013,     -0.24316797,
                0.15796195,      0.77214259,     -0.39684102,     -0.05757592,
                0.04471464,      0.29497337,      0.01876503,      0.03010843,
                0.14986947,      0.14433086,     -0.22785828,     -0.05523787,
               -0.20278803,     -0.15909253,      0.33960500,      0.08227134,
                0.21231221,     -0.02590874,      0.18718147,     -0.11366293,
               -0.82202041,     -0.17451519,     -0.15518555,      0.04763723,
               -0.10218487,     -0.11622251,     -0.00476771,      0.06086845,
               -0.00901960,     -0.16667601,      0.09721634,     -0.09370211,
                0.06321657,      0.06492999,     -0.14296052,      0.04344421,
                0.05997847,     -0.07988580,      0.09695353,     -0.05727698,
                0.05310669,     -0.07183529,     -0.00993587,      0.26770774,
               -0.04404872,     -0.03634530,      0.21800603,      0.12891102,
                0.30012304,      0.31647947,      0.13671535,      0.08264189,
                0.01544280,     -0.13345091,     -0.21254481,     -0.00608323,
               -0.13993347,      0.21586655,     -0.01406010,     -0.16134900,
               -0.28046694,     -0.16320679,     -0.36815497,     -0.04729743,
                0.14297153,     -0.01540179,     -0.13225053,      0.07542474,
               -0.15188225,     -0.05403162,     -0.22038458,     -0.05975615,
               -0.09588087,     -0.04604995,      0.29421088,     -0.18330397,
                0.08007362,      0.65911251,     -0.16320989,      0.01063266,
               -0.10574617,     -0.00388342,     -0.00057484,     -0.04963401,
               -0.21408969,      0.03853580,      0.05900111,      0.03884052,
               -0.02471855,     -0.14532048,      0.01531355,      0.29739699,
               -0.07348154,     -0.11015873,     -0.11921111,     -0.14269403,
                0.05561647,     -0.10140746,      0.20051427,      0.32509267,
               -0.09010280,     -0.01242026,      0.44625583,     -0.16814642,
                0.08029926,      0.16122799,      0.46275961,      0.04131023,
                0.15520693,      0.16542964,      0.08096483,      0.03839978,
               -0.03959439,     -0.10998207,     -0.15810964,     -0.15874721,
               -0.04699015,      0.24999809,      0.01111833,     -0.35818288,
                0.15805113,     -0.00205525,     -0.24507964,     -0.15235958,
               -0.08454643,     -0.01122207,     -0.21453318,      0.14837243,
                0.10723837,      0.00023293,      0.14908724,      0.03120140,
                0.17723092,     -0.52062762,     -0.20507370,     -0.14213653,
                0.17972448,      0.08670139,      0.05408713,     -0.13171652,
                0.06387510,      0.18586604,     -0.25693783,      0.07178640,
               -0.08288427,     -0.04033944,      0.01911681,     -0.02622614,
               -0.24327144,      0.00628107,     -0.05764426,      0.17032057,
                0.02901516,      0.22001465,      0.15840349,      0.14630638,
                0.21551466,      0.00971370,      0.57226139,     -0.00680720,
               -0.04107895,     -0.04772930,      0.55154979,      0.03831901,
               -0.08938346,      0.06935956,      0.00815751,      0.59198689,
                0.13496982,      0.06777567,     -0.00304646,      0.07570804,
               -0.07272665,      0.14493379,     -0.20121850,      0.00259561,
                0.23808691,      0.02826096,     -0.02569407,      0.00301257,
                0.50341070,     -0.11426527,     -0.28503317,      0.09913576,
                0.00467230,     -0.14217013,      0.03514214,     -0.05129338,
                0.01570444,      0.04415875,     -0.32799661,     -0.13512780,
               -0.37939265,      0.26245999,      0.02183719,      0.03515421,
               -0.19597398,      0.07713547,      0.22830530,      0.14934570,
                0.06725530,     -0.32024094,     -0.04610426,      0.05463960,
                0.35239863,     -0.16273472,      0.12751602,      0.08448643,
                0.42915192,      0.04839168,     -0.03081330,      0.02769356,
                0.34595931,      0.02574479,      0.04342175,     -0.35203084,
                0.16691482,     -0.08680176,      0.16131273,      0.22553587,
                0.18794475,     -0.77593637,     -0.03870506,      0.04917434,
                0.06365948,     -0.05075477,      0.08946785,     -0.00605958,
               -0.12474120,     -0.03132445,      0.07822325,     -0.00345450,
               -0.07634523,     -0.03842200,     -0.00210846,     -0.11607827,
                0.07714296,      0.33406645,      0.09235455,      0.11139405,
               -0.07851371,     -0.01481585,     -0.22618879,     -0.29669148,
                0.08437043,     -0.26140046,     -0.50851792,      0.14530735,
               -0.07108001,     -0.10853729,     -0.02174688,      0.00987754,
                0.01553603,     -0.00714045,     -0.00081747,     -0.07401167,
                0.00982082,     -0.01751736,      0.10376336,     -0.03379599,
                0.00087664,     -0.01722472,      0.00679597,      0.00092647,
               -0.13989536,      0.03172167,      0.00972695,     -0.04049001,
               -0.04320397,      0.02657108,     -0.00266031,     -0.01624101,
                0.00313635,     -0.07215450,     -0.01105319,     -0.08452896,
               -0.08853950,      0.00276725,      0.07379872,      0.01551379,
                0.03124082,     -0.02955375,     -0.00205724,      0.05072886,
               -0.05444988,      0.00440549,     -0.05032390,     -0.07000715,
               -0.01827194,      0.07904019,     -0.01403651,     -0.09647030,
                0.00429322,      0.08120455,      0.00942615,      0.00229132,
               -0.04183133,     -0.10603085,     -0.00715351,      0.00768743,
                0.04250703,      0.01824064,     -0.10329120,     -0.07254701,
               -0.00142842,     -0.03909040,     -0.02486943,     -0.04602031,
                0.10167611,      0.00863969,      0.00108679,     -0.18797077,
               -0.06671844,     -0.05255358,     -0.06238653,     -0.00428006,
               -0.00684524,     -0.05328612,      0.10781443,     -0.02521402,
               -0.00115873,      0.00326556,     -0.06647154,     -0.04159191,
               -0.09484428,      0.04939494,      0.00515503,     -0.03045178,
                0.00388276,     -0.01479678,     -0.01224633,     -0.06518704,
               -0.03764624,      0.00797682,     -0.05658265,     -0.01129210,
               -0.01153071,      0.00570574,     -0.08818147,     -0.09855325,
                0.03260959,     -0.01957393,     -0.01362036,     -0.03112166,
               -0.06526326,      0.09742403,     -0.05300735,     -0.00210591,
                0.01806345,      0.01546167,     -0.25541711,      0.02790522,
               -0.02481097,     -0.04616886,     -0.00950470,     -0.00626374,
                0.00515099,     -0.02130724,      0.02485298,      0.08785061,
               -0.02471398,      0.00690047,     -0.07460623,     -0.00055868,
               -0.14902312,     -0.08031607,      0.01356331,     -0.00910516,
               -0.01210924,      0.03931339,     -0.06414749,     -0.06945262,
                0.01585629,     -0.00424075,     -0.08003445,     -0.01474783,
                0.00053519,      0.02302341,     -0.03321477,      0.01950145,
               -0.02311356,     -0.06316140,      0.02085080,      0.01602633,
               -0.02082316,     -0.00371323,     -0.00961466,      0.00406715,
                0.01346520,      0.02028725,     -0.01899477,      0.00486539

};

// weight for Squeeze Excitation2 layer  has dimension of torch.Size([1, 1, 6, 144])
const float MBConv6_2_squeeze_excitation2_conv2d_weights [1 * 1 * 6 * 144] =
{
0.04248275,      0.18599859,     -0.04377101,      0.28775325,
                0.03436464,      0.04248809,     -0.04665750,      0.00903772,
                0.03526938,      0.14730068,      0.03072260,     -0.04665425,
               -0.12636335,      0.03733018,      0.33133051,     -0.37389314,
                0.14117351,     -0.12639341,     -0.03906880,      0.19772075,
                0.56259513,     -0.34799823,      0.26258346,     -0.03904731,
               -0.02430107,      0.13055365,      0.02316196,      0.08309503,
                0.08261488,     -0.02430718,      0.09108514,      0.13248703,
                0.30450642,     -0.57363814,      0.07849109,      0.09107741,
               -0.06530280,      0.03375361,      0.03692518,     -0.06315392,
                0.07413264,     -0.06530701,      0.02908937,      0.27428719,
                0.08049987,     -0.23003526,      0.20010450,      0.02908232,
               -0.06975555,      0.16791609,     -0.05000705,     -0.06759443,
                0.01412209,     -0.06975468,      0.06544400,      0.44553962,
                0.07449694,     -0.42466733,      0.29426897,      0.06542785,
               -0.04412523,      0.28343505,     -0.34243652,     -0.05602496,
                0.29978633,     -0.04411982,     -0.01691843,      0.22263905,
                0.08312032,     -0.21317180,      0.13865736,     -0.01694115,
               -0.01436954,      0.17416738,      0.02696032,      0.02370866,
                0.24677657,     -0.01436799,     -0.01435339,     -0.08915345,
                0.07561256,      0.00780139,      0.24780720,     -0.01434215,
                0.00987917,      0.10115494,     -0.05934310,      0.06921560,
                0.18367231,      0.00988454,     -0.02174152,      0.05264184,
                0.08588469,     -0.21648055,      0.32573131,     -0.02176034,
               -0.07639368,      0.31044552,      0.32846329,      0.27140623,
                0.41456333,     -0.07639761,      0.04142561,      0.17889506,
                0.06657948,     -0.54768807,      0.23441522,      0.04141997,
                0.01316041,      0.20893393,      0.04107827,     -0.44065318,
                0.25805256,      0.01316588,      0.03498591,      0.20516296,
                0.12613147,     -0.19079085,      0.19609420,      0.03497499,
                0.02211081,      0.12636678,      0.06588305,     -0.16318418,
                0.22377898,      0.02211853,      0.04534050,      0.00716250,
                0.17411840,      0.23145156,     -0.01438475,      0.04533607,
                0.04983210,      0.46214959,      0.02562168,     -0.55412364,
                0.42145559,      0.04983201,     -0.05979826,     -0.03204352,
                0.15007347,     -0.00028216,     -0.03473178,     -0.05979671,
               -0.00310729,     -0.11324432,      0.29291660,      0.07084233,
               -0.19332692,     -0.00310790,      0.03119778,      0.27054480,
                0.07863414,     -0.28694868,      0.18734464,      0.03117871,
               -0.02474942,      0.05956444,     -0.08361655,      0.34216374,
                0.03167930,     -0.02475776,     -0.06584683,      0.28434262,
                0.03556669,      0.18252298,      0.39116544,     -0.06584335,
                0.07206361,      0.00653147,     -0.08039544,      0.28735936,
               -0.03955101,      0.07200399,      0.06731451,     -0.15058242,
               -0.03112454,     -0.03455748,      0.11657467,      0.06730727,
                0.03385541,     -0.17818478,      0.48793271,      0.23161280,
               -0.32297486,      0.03384767,      0.14288555,      0.16505805,
                0.27300534,      0.11736353,     -0.03916264,      0.14287421,
                0.01871139,      0.23255716,     -0.16453233,      0.13820700,
                0.05557037,      0.01868304,      0.07035486,      0.37245575,
                0.12690790,     -0.33283994,      0.38389450,      0.07036178,
                0.04011762,      0.30633527,     -0.14714640,     -0.40507883,
                0.30848584,      0.04013541,      0.08280927,      0.02518791,
                0.10100373,      0.25402549,     -0.18037640,      0.08279755,
               -0.02641205,      0.38101560,      0.02937402,     -0.07456049,
                0.40798622,     -0.02643044,      0.02808985,      0.36812803,
                0.18138699,     -0.27492219,      0.32699680,      0.02810282,
                0.00771558,      0.08437757,     -0.17395349,      0.02386101,
                0.04297086,      0.00773363,      0.03669749,      0.16020790,
               -0.01731932,      0.24744332,      0.00375912,      0.03672092,
                0.03264460,     -0.00054106,      0.08813731,      0.45528147,
               -0.03732088,      0.03260955,      0.15314139,      0.07387012,
                0.40318224,     -0.50464106,      0.20389475,      0.15314086,
               -0.00653113,      0.11939710,      0.28672257,     -0.24341953,
                0.18887402,     -0.00652538,     -0.01453753,      0.24238046,
                0.26907837,     -0.34590137,      0.16261351,     -0.01451860,
               -0.03944931,      0.00024212,     -0.06151041,     -0.01266799,
                0.12618659,     -0.03946248,      0.07266884,     -0.08138293,
               -0.25464705,      0.45951372,     -0.21940449,      0.07271897,
               -0.05754137,      0.26027805,      0.09376895,     -0.08283179,
                0.08908714,     -0.05754603,     -0.01301854,      0.20969839,
                0.08242042,     -0.08564931,      0.02910257,     -0.01299365,
                0.02381538,      0.11548279,      0.10707188,      0.21944807,
               -0.09772004,      0.02379159,      0.05841581,      0.21838120,
               -0.30532232,     -0.06874787,      0.28157505,      0.05838819,
                0.06229414,      0.42003593,      0.08429695,     -0.40237653,
                0.35030496,      0.06227966,      0.00868075,      0.32023004,
                0.11404324,     -0.31525686,      0.29184178,      0.00870590,
                0.05304406,     -0.18245773,      0.33447197,      0.55491066,
               -0.43430483,      0.05305702,      0.01666427,      0.01609895,
                0.19734122,      0.27037287,     -0.03086446,      0.01664504,
               -0.04527862,      0.46344852,      0.09407513,     -0.27243978,
                0.03083506,     -0.04526057,      0.00564068,      0.32390955,
               -0.06555592,     -0.29211891,      0.26196292,      0.00564520,
               -0.01593391,      0.28882149,     -0.02537645,     -0.02745706,
                0.37854937,     -0.01596041,      0.00156957,      0.10483454,
                0.24330807,      0.09388058,     -0.00488269,      0.00155981,
                0.01210021,      0.25562587,     -0.12431127,     -0.12412395,
               -0.23400791,      0.01208056,     -0.07966015,     -0.00680483,
                0.07735983,     -0.03445514,     -0.03376387,     -0.07968058,
               -0.02246516,     -0.14435761,     -0.08313231,      0.81157452,
               -0.43745849,     -0.02243093,      0.01610098,      0.03105270,
               -0.00348321,      0.06639298,      0.10719668,      0.01609996,
               -0.06517920,     -0.16535133,      0.17952442,      0.14358482,
               -0.13569027,     -0.06514916,     -0.07037412,     -0.18712524,
               -0.07085115,      0.01030155,     -0.05533798,     -0.07037146,
                0.04822757,      0.22536954,      0.18307568,     -0.20091936,
                0.21387564,      0.04823389,     -0.08943509,      0.22605477,
                0.49925947,      0.02677909,      0.32796511,     -0.08943617,
               -0.27496547,      0.29225725,      0.30253500,     -0.33738098,
                0.33301035,     -0.27496755,     -0.05423310,     -0.04487852,
                0.00214898,      0.19084208,      0.05924262,     -0.05423263,
               -0.02886178,     -0.00435511,     -0.17227302,      0.11425555,
                0.11819115,     -0.02887080,      0.09676522,      0.17420855,
               -0.00727525,      0.29093865,     -0.00355671,      0.09673158,
                0.12953074,     -0.04597637,      0.05292591,      0.19568378,
               -0.12022029,      0.12947160,     -0.00972000,     -0.02322997,
                0.23656566,      0.07905831,      0.15884140,     -0.00973150,
               -0.06948362,      0.07806827,     -0.04419386,     -0.02011090,
               -0.04279775,     -0.06950774,      0.04008362,      0.27102509,
                0.14997415,     -0.36439222,      0.25116855,      0.04007953,
                0.15047447,     -0.35862339,      0.04776418,     -0.04509122,
                0.41647163,      0.15042846,     -0.01376247,      0.19832347,
               -0.07146574,      0.17377524,      0.22942150,     -0.01378620,
                0.20539999,     -0.05129755,     -0.02072351,     -0.21130583,
                0.00414271,      0.20536624,      0.12695849,      0.48687261,
               -0.10693364,     -0.26223469,     -0.62088835,      0.12697552,
               -0.04532098,     -0.12751971,     -0.09990316,      0.13451229,
                0.06479922,     -0.04533624,     -0.11878748,      0.27928230,
                0.22569697,      0.41533792,      0.42394918,     -0.11878493,
               -0.02222338,      0.08690257,      0.00662637,     -0.04650518,
               -0.08627746,     -0.02223135,     -0.04228291,      0.56891000,
               -0.00463742,     -0.29433614,     -0.51717556,     -0.04227259,
                0.08132907,      0.29778308,      0.11902780,     -0.10171472,
                0.18534093,      0.08134819,      0.01435450,      0.09678765,
                0.11505713,     -0.13252725,      0.09571091,      0.01434046,
                0.28179190,     -0.22573820,     -0.01784699,      0.51993316,
               -0.32383561,      0.28183126,     -0.03585153,      0.11819104,
                0.17747632,      0.11552879,      0.01315326,     -0.03585541,
                0.04418740,      0.01904799,      0.31810781,      0.06620239,
               -0.05912615,      0.04417245,      0.04976472,      0.45559293,
                0.06851880,     -0.48088992,      0.38845780,      0.04974875,
                0.16665056,     -0.28458583,      0.30441532,      0.21640533,
               -0.33326647,      0.16659388,      0.00201259,      0.16127479,
               -0.04910491,     -0.21035610,     -0.23844118,      0.00200345,
               -0.05999520,      0.25326347,      0.10672738,     -0.05674895,
                0.29826999,     -0.05997690,     -0.02459782,      0.32111225,
                0.07925740,     -0.26456824,      0.18507408,     -0.02456545,
                0.04821396,      0.19760545,      0.38609478,     -0.15942930,
                0.10396292,      0.04822779,      0.05558384,     -0.07807907,
               -0.31531933,      0.33527002,     -0.12357097,      0.05556544,
               -0.07499939,     -0.02501160,      0.24733953,      0.04164130,
                0.00603847,     -0.07502197,     -0.00555453,      0.01071674,
                0.00932976,     -0.14881548,      0.34018126,     -0.00554858,
               -0.07841109,      0.07127573,      0.36046833,     -0.01136652,
                0.00880543,     -0.07837941,      0.13887805,     -0.12631997,
               -0.00049402,      0.22097555,     -0.16508427,      0.13889137,
                0.04970701,      0.34636748,      0.03722355,     -0.48312402,
                0.25707525,      0.04971477,     -0.00589575,      0.18610562,
                0.07078823,      0.00604203,      0.09589183,     -0.00588203,
                0.01715581,      0.38078916,      0.13254835,     -0.31145629,
                0.38441706,      0.01715463,      0.03891822,     -0.08824323,
                0.14341490,     -0.07865366,      0.13206024,      0.03889278,
                0.03027695,      0.20669037,      0.21240450,      0.03111915,
                0.35651168,      0.03027233,      0.13246599,      0.11479618,
               -0.13192888,      0.26606235,     -0.00033430,      0.13240431,
               -0.05662458,      0.53350323,     -0.09071770,     -0.28274560,
               -0.61283869,     -0.05663731,      0.04960460,     -0.06599817,
                0.37637252,      0.24204628,     -0.15098879,      0.04958474,
                0.03230632,      0.08061651,      0.10999115,      0.29185438,
               -0.00444115,      0.03226696,     -0.06674773,      0.21297772,
                0.12841448,     -0.04200762,      0.19266054,     -0.06674781,
               -0.02858022,      0.17293553,      0.03083926,      0.00038862,
               -0.12232512,     -0.02859530,     -0.02237904,      0.14541952,
                0.08380787,      0.25174677,      0.02972727,     -0.02234386,
               -0.00945618,     -0.11448158,      0.31494704,      0.08031917,
               -0.15897542,     -0.00946576,      0.24229020,      0.16264991,
                0.06791357,      0.26100063,      0.07511573,      0.24240527,
                0.01614541,      0.13955037,      0.09572036,     -0.23013274,
                0.27454615,      0.01612962,      0.01150016,      0.10962527,
                0.11489022,      0.21654345,      0.06690570,      0.01150005,
                0.07866015,      0.11712479,     -0.03408971,     -0.43870893,
                0.24701585,      0.07863963,     -0.03800604,      0.09057340,
               -0.08632410,      0.21887128,      0.14684990,     -0.03800216,
                0.01518621,      0.32641500,      0.36389786,      0.11896724,
                0.47977892,      0.01519413,     -0.05716444,     -0.09933679,
                0.01689565,      0.22101241,     -0.08494810,     -0.05714927,
               -0.03538813,      0.09606674,     -0.08370338,      0.20241715,
                0.06767859,     -0.03538127,      0.07174165,      0.35379833,
                0.13048047,     -0.42029911,      0.37748381,      0.07175666,
               -0.06890918,     -0.08949105,      0.26497027,      0.17501566,
               -0.16611062,     -0.06890762,      0.07288542,      0.08109888,
                0.25948852,      0.06114462,      0.05583442,      0.07285137,
               -0.07786607,      0.31271240,      0.15237217,     -0.10389329,
                0.34771526,     -0.07784402,      0.04524220,      0.42880958,
                0.08615774,     -0.48336366,      0.32051414,      0.04524862,
                0.00327940,      0.15034585,      0.09438248,      0.24662043,
               -0.06976060,      0.00330396,     -0.06152515,      0.16480401,
               -0.02415130,     -0.05405056,     -0.02204093,     -0.06151661,
               -0.03804451,      0.37591004,      0.19538078,     -0.21371441,
                0.48431340,     -0.03803833,      0.05007172,      0.13641807,
                0.04511753,     -0.20079023,      0.22148034,      0.05009452,
                0.01442395,      0.22812155,      0.20458013,     -0.03454193,
                0.20092914,      0.01442414,      0.13857098,     -0.11638654,
               -0.13712765,      0.33967835,     -0.31839430,      0.13855353,
                0.05720099,      0.31561443,      0.02958647,     -0.26065248,
                0.27920061,      0.05724560,      0.19419286,      0.30043691,
               -0.04318320,     -0.11622764,      0.23016199,      0.19415550,
               -0.04698623,      0.07886942,      0.09445557,      0.10248674,
                0.16412987,     -0.04698047,     -0.09300631,      0.09544381,
                0.02709956,      0.16669579,     -0.23917125,     -0.09290889,
               -0.01809761,      0.08260684,      0.01236560,      0.08367231,
                0.07722601,     -0.01809868,      0.06094376,      0.02054660,
               -0.26677972,      0.36059666,     -0.14841010,      0.06086937,
               -0.04180102,      0.19467498,      0.09272550,     -0.03632131,
                0.12979180,     -0.04183288,      0.01664307,     -0.36033067,
                0.14545840,      0.09813377,     -0.43357444,      0.01661858,
                0.08080554,      0.06817681,      0.16145568,      0.22241284,
               -0.10685531,      0.08080123,     -0.01413266,     -0.02078998,
                0.01509359,      0.01572264,     -0.07915843,     -0.01412585,
               -0.01558814,     -0.24385113,      0.92862052,     -0.40827817,
               -0.28201848,     -0.01554077,     -0.00361976,      0.00335249,
               -0.00665113,     -0.18903182,      0.32459244,     -0.00362661,
                0.06029068,      0.06384848,      0.27722719,     -0.04094482,
               -0.04335511,      0.06027969,     -0.00379064,      0.17047203,
                0.08944624,     -0.11385547,      0.15668829,     -0.00379311
};


// Bias for Squeeze Excitation1 layer has dimension of torch.Size([6])
const float MBConv6_2_squeeze_excitation1_conv2d_bias [6] =
{
-0.06270412,  0.19453764,  0.08676807,  0.02188017,  0.07725313,
           -0.06268004
};


// Bias for Squeeze Excitation2 layer has dimension of  torch.Size([144])
const float MBConv6_2_squeeze_excitation2_conv2d_bias [144] =
{
	-0.34278080,  0.05284210,  0.40323329,  0.00785783,  0.08440140,
           -0.18303722,  0.07989054, -0.06118371,  0.04052084, -0.16959442,
           -0.10061724,  0.16408631,  0.02730739,  0.03091925,  0.01617449,
            0.05565646,  0.19925451, -0.09931427, -0.14151473, -0.04226344,
            0.15434664, -0.19242144, -0.13720243,  0.15789887,  0.06727061,
           -0.05129205,  0.02474638,  0.17938094, -0.09235478, -0.26190472,
           -0.26209188, -0.13590950, -0.07937403,  0.00572771, -0.15380690,
           -0.07569289,  0.05356714, -0.09756475, -0.01038289, -0.07538259,
           -0.03075160, -0.04003277,  0.04916439, -0.06849327,  0.02109452,
           -0.27633098,  0.06384041,  0.00857398,  0.07153120, -0.02279934,
           -0.07202581, -0.05775380, -0.32196319, -0.23203863, -0.00148716,
           -0.03846358,  0.27772662, -0.16072373, -0.02156416,  0.16481756,
           -0.17218199,  0.00545997,  0.10601843,  0.11082561, -0.07236573,
            0.23330922,  0.11207861,  0.10911241,  0.06075733, -0.31664792,
           -0.03845430, -0.00579607,  0.00846082, -0.07925179, -0.36884815,
            0.05681475,  0.20577314, -0.21460001, -0.01215557,  0.28181747,
           -0.02380071, -0.17550085, -0.15047127, -0.06720129, -0.00698056,
            0.07240691, -0.19227150, -0.14245170, -0.22689632, -0.04906142,
            0.16187099,  0.10841668, -0.12573777, -0.01030921, -0.00469107,
           -0.09400851, -0.12006933,  0.02250418, -0.16166341,  0.06303351,
            0.01175633, -0.01147139,  0.09159049, -0.18163672, -0.00398444,
           -0.23729520, -0.21448313,  0.14630258,  0.03639263,  0.01892174,
            0.09293364, -0.31189901, -0.14005277,  0.06107068, -0.10499952,
            0.11604512,  0.14171879,  0.12837675,  0.09895514,  0.11977679,
           -0.02612831, -0.24192698,  0.13279176, -0.15794396,  0.02030822,
            0.04517209,  0.06384578,  0.11790006, -0.00466953, -0.12136373,
           -0.13302895, -0.36778280,  0.13207377,  0.10720230,  0.07931478,
           -0.11060448,  0.07673454,  0.02062866, -0.09598736,  0.12737778,
            0.26955920, -0.00331841, -0.17416283,  0.06924460
};
