
// weight for Expansion Convolution layer has dimension of   torch.Size([1, 1, 672, 28])
extern float MBConv6_9_squeeze_excitation1_conv2d_weights [1 * 1 * 672 * 28] =  
{
-0.00282221,     -0.03524771,      0.09552039,     -0.02211759,
                0.00130314,      0.02390095,     -0.05414747,     -0.12998459,
                0.13381739,     -0.05564962,     -0.05655741,     -0.03213068,
               -0.02231657,      0.01579923,      0.01942813,      0.01701044,
                0.02686120,      0.04888166,      0.04290120,     -0.07346603,
               -0.02430232,      0.02603371,     -0.04949127,     -0.05867167,
                0.02805879,     -0.01750313,     -0.08372051,      0.06797734,
               -0.01699713,     -0.05831449,      0.02301768,     -0.00594871,
                0.01945183,      0.06047651,      0.02098582,      0.06119023,
               -0.03146629,      0.12417541,      0.08684485,      0.00956936,
               -0.00758484,     -0.07844482,     -0.13895653,      0.00932264,
                0.02202013,      0.05313000,      0.05534979,     -0.05526604,
                0.02001428,     -0.00555394,     -0.02059940,     -0.02611551,
                0.00898274,      0.01670675,      0.05590747,      0.05531669,
                0.04082668,     -0.05744405,      0.03464331,     -0.01642156,
                0.15563878,      0.08080921,      0.01893478,     -0.06995316,
                0.07901875,     -0.06246869,     -0.01531892,      0.00237322,
                0.08668128,     -0.04261351,      0.04089879,     -0.02821468,
               -0.03776098,      0.09695584,     -0.04739685,     -0.01416683,
               -0.06652755,     -0.10843295,     -0.00188926,     -0.00872177,
                0.07648522,     -0.00828641,      0.06399925,     -0.00746151,
               -0.02309277,     -0.03410392,      0.07780036,      0.05536513,
                0.00862771,     -0.05060424,      0.04494057,     -0.01254379,
               -0.03837523,     -0.00962308,     -0.01947307,      0.00484604,
               -0.01643202,      0.05001470,      0.05729408,      0.00052159,
                0.03173018,     -0.08165553,     -0.03078810,     -0.03034946,
                0.01657120,      0.03548023,      0.03989832,     -0.01690525,
               -0.00724246,      0.04371449,     -0.02625031,      0.04887062,
                0.14418235,     -0.01200846,      0.14240628,      0.04914115,
               -0.00160877,     -0.11686670,      0.22268791,     -0.00729617,
               -0.09700907,     -0.07325493,      0.13248391,      0.15879440,
               -0.01841503,     -0.10044140,      0.07641360,      0.09967390,
                0.03626625,      0.00410289,     -0.08496865,     -0.08344960,
               -0.01023232,      0.01689381,     -0.04435809,      0.01454685,
                0.00023803,      0.07552864,     -0.02125102,     -0.00437621,
                0.10048148,      0.14232323,      0.05298946,     -0.02400201,
               -0.06032829,     -0.04134765,     -0.01259526,     -0.04661967,
               -0.03897631,     -0.00089738,      0.01701145,     -0.01018537,
                0.22932239,     -0.00642784,      0.08083116,     -0.04081272,
                0.00486183,     -0.00180862,     -0.03731826,      0.00209877,
               -0.10929265,     -0.01376372,     -0.05227293,      0.07973658,
                0.00362535,     -0.07168875,      0.05119294,      0.00408281,
                0.12259261,     -0.01282826,      0.05117050,      0.01754594,
                0.03596393,     -0.11142667,     -0.05413067,     -0.05199451,
                0.00665969,     -0.05805257,      0.00545140,     -0.03010794,
               -0.05296464,     -0.04763094,      0.07035217,      0.04506242,
               -0.09237716,     -0.13894717,     -0.05609213,      0.04279453,
                0.08185967,      0.12600088,      0.02441125,     -0.06647453,
               -0.01164249,     -0.04507178,      0.00114252,     -0.03786772,
               -0.05671239,      0.02497148,     -0.02856189,      0.02442798,
                0.00671460,      0.06558046,     -0.00876830,     -0.03055420,
               -0.03206324,      0.01089641,     -0.07179529,      0.03720221,
               -0.00319662,      0.08795316,     -0.00588316,     -0.06329563,
               -0.06925505,      0.05397184,     -0.03388207,      0.03306559,
                0.02099486,     -0.03209739,     -0.10365073,     -0.00177729,
                0.03519411,     -0.06995232,     -0.00913335,      0.14845593,
                0.00699860,     -0.08545113,      0.01851540,     -0.00744397,
               -0.11977006,      0.04834563,     -0.14730725,      0.05050396,
               -0.02483943,     -0.07923418,     -0.02280151,      0.00564546,
                0.07336169,      0.01496158,     -0.01472801,      0.06482004,
                0.09902819,     -0.02908006,     -0.06347788,      0.12259194,
               -0.05239241,     -0.06362392,     -0.07022929,     -0.02472772,
                0.02013301,     -0.04854446,     -0.11218375,     -0.04295073,
               -0.06191312,      0.01722270,     -0.04510641,      0.02624086,
                0.07267259,     -0.09938797,      0.01582947,     -0.01058735,
                0.17280813,     -0.26571596,     -0.03477380,      0.06042869,
               -0.04568581,      0.03397513,      0.01163452,     -0.03318459,
               -0.02387426,     -0.03267673,      0.02794355,     -0.01103863,
                0.04272022,      0.03388288,      0.10010260,      0.02749706,
               -0.01633178,     -0.07567602,     -0.03769113,      0.06417135,
                0.00754332,      0.08147825,     -0.01266203,     -0.01017072,
                0.00116449,     -0.01164142,     -0.09552651,      0.04946552,
               -0.02033318,     -0.00231533,     -0.03707550,     -0.00062741,
                0.04376375,      0.05574905,      0.05606088,     -0.00381488,
                0.00574788,      0.00578086,     -0.06906474,     -0.05062794,
                0.04268571,      0.05669567,     -0.07570229,      0.01960133,
               -0.06013032,     -0.03490424,     -0.12394685,      0.01699829,
                0.13671055,     -0.06517607,     -0.01888149,      0.05729480,
                0.07233068,     -0.02317277,     -0.02984398,     -0.06986239,
               -0.00848065,     -0.01311731,      0.05907137,      0.09559182,
                0.02022217,      0.01724796,     -0.06175595,      0.01210370,
               -0.02232201,      0.10595156,     -0.07452989,     -0.01981702,
                0.02048917,     -0.01234105,      0.00899656,     -0.00168908,
               -0.03897915,      0.04433854,     -0.05319903,     -0.00802598,
               -0.00272814,     -0.06415091,      0.04808474,     -0.04924849,
               -0.00831856,      0.02153718,     -0.01982999,      0.13094148,
                0.11057463,     -0.03429097,      0.00190406,      0.00260937,
               -0.05825209,      0.12740022,     -0.09017118,     -0.01715106,
                0.01514088,     -0.00534517,      0.07575730,      0.05899629,
               -0.05782523,      0.14789398,      0.03304591,      0.16284791,
                0.01462858,      0.03292575,      0.02727139,     -0.04963886,
                0.04398563,      0.02543278,     -0.06206430,      0.01700149,
                0.01307009,      0.01886115,     -0.12424996,      0.09606317,
               -0.01943948,      0.02067900,      0.02829113,     -0.01391022,
               -0.07850622,      0.02567376,     -0.01439978,      0.03002037,
               -0.01410626,      0.01853279,     -0.05479697,     -0.07876021,
                0.11433609,      0.04002329,     -0.05091909,      0.02726143,
               -0.00104354,     -0.02945056,     -0.02743328,     -0.10822457,
                0.01762925,     -0.05053751,     -0.01395250,     -0.01097240,
               -0.03217601,      0.03810138,     -0.01743249,     -0.04472342,
               -0.02993775,     -0.00198914,      0.09319241,     -0.04883965,
                0.04604880,     -0.13140592,     -0.00925373,      0.07755294,
                0.06793962,     -0.00841172,      0.01568700,     -0.09158192,
               -0.08055995,     -0.01715241,     -0.03524353,     -0.02457578,
               -0.02120499,     -0.12540779,     -0.01887476,      0.01069387,
               -0.03535772,     -0.09049605,      0.09113491,      0.00422009,
               -0.02829472,      0.01801716,      0.02059051,     -0.03527155,
               -0.03518002,      0.03632230,     -0.13248858,     -0.06931557,
                0.00750367,     -0.00932422,     -0.03940901,      0.03066325,
               -0.03771368,      0.06233281,      0.04413135,      0.01450174,
                0.03060452,      0.04819622,     -0.00932215,     -0.00490899,
               -0.01186742,     -0.00694814,      0.04391421,      0.01973760,
                0.10343695,      0.17185774,      0.02214739,     -0.01761857,
                0.07167939,     -0.04110318,      0.05125875,      0.09721210,
                0.03639936,     -0.00671326,      0.01461979,      0.05304341,
                0.05551061,      0.06393270,      0.00821108,      0.06176608,
               -0.04756020,      0.00872975,     -0.03978367,      0.09418869,
                0.06773692,     -0.00307702,      0.07144864,      0.05772260,
               -0.07264323,     -0.09671593,     -0.02007158,      0.22760484,
                0.08326415,     -0.05261366,     -0.09020659,      0.01750978,
               -0.07318798,      0.01239776,     -0.05538285,     -0.04927508,
               -0.05843037,      0.01972811,     -0.07828139,     -0.07465539,
                0.42785475,      0.02422168,      0.07745504,      0.00487564,
                0.05294178,      0.19821054,     -0.09415843,     -0.03288495,
                0.02618973,      0.01535126,      0.01764140,     -0.04584685,
               -0.11498081,     -0.01061211,     -0.09569842,     -0.02670034,
               -0.05049476,      0.05921018,      0.04128006,     -0.03827345,
                0.03606647,     -0.04129106,     -0.00888168,      0.00305268,
                0.07661755,      0.00538993,      0.02302820,      0.00198953,
                0.04085962,     -0.01504602,     -0.07650546,      0.05185434,
                0.00497946,     -0.02365373,     -0.06903666,     -0.04974456,
                0.08365394,     -0.00092491,      0.00278723,      0.03684685,
                0.03654195,      0.03032927,     -0.06968102,     -0.03922458,
               -0.01209417,      0.09055849,     -0.06820772,      0.02962979,
               -0.02575003,      0.04764144,     -0.02456134,     -0.04170138,
               -0.03974849,      0.01866668,     -0.00473847,     -0.05627911,
                0.03532719,      0.02528896,      0.03628867,     -0.05792382,
                0.06353673,     -0.06037293,      0.11258214,     -0.06623295,
               -0.06378870,     -0.03015842,      0.01877712,      0.05689646,
                0.18237942,      0.04359353,     -0.00757612,     -0.09916075,
                0.00054898,      0.04398733,      0.00643717,     -0.01039978,
               -0.03689653,     -0.09186707,     -0.03770123,      0.14848770,
               -0.00262873,      0.03428765,     -0.03065384,      0.01728929,
                0.04386242,      0.02949636,      0.11749367,      0.00975874,
               -0.04394665,     -0.07550506,     -0.08088505,      0.03191226,
                0.04557579,     -0.03919658,     -0.03618643,      0.04894208,
               -0.03563644,     -0.15762036,     -0.02060406,      0.02103835,
               -0.14259396,     -0.15445749,      0.04664568,     -0.00832784,
               -0.00374255,      0.04353330,      0.05220565,     -0.06847417,
                0.04349425,      0.09610108,     -0.00668158,     -0.01659501,
                0.04656470,      0.02298327,     -0.05142713,     -0.05076448,
                0.14622390,     -0.02038749,     -0.02997196,      0.29646480,
                0.02468485,     -0.01142993,      0.29016310,      0.02313875,
               -0.04304527,     -0.05727610,     -0.04741631,     -0.14191575,
               -0.00866029,      0.10184111,      0.00090730,      0.00904846,
               -0.12060664,     -0.01529502,      0.01979979,     -0.02081718,
               -0.10077807,      0.01645018,     -0.01845928,      0.08375061,
               -0.02483023,     -0.03081127,      0.04155421,      0.02964997,
               -0.01949072,     -0.03859857,     -0.00308570,      0.06315321,
               -0.02232108,      0.08522499,     -0.01505894,     -0.05877256,
               -0.02810167,     -0.13577311,     -0.02269049,      0.02872401,
                0.01208251,     -0.01834768,     -0.00373347,      0.12395538,
               -0.06026890,     -0.01150712,      0.02907333,      0.06212232,
               -0.03806080,      0.16391838,      0.03289660,     -0.11309414,
               -0.00719960,     -0.00226415,     -0.05709255,     -0.00944395,
                0.05691462,     -0.01000806,     -0.00525941,     -0.00547975,
                0.13779859,      0.02399856,     -0.08522348,     -0.03357724,
                0.09053718,      0.06239535,     -0.02923943,      0.06417793,
                0.26872605,     -0.00725029,     -0.11472066,      0.04615590,
               -0.08474880,      0.05325169,      0.01366824,     -0.10440361,
                0.02050861,     -0.15280479,      0.07208452,     -0.03311718,
               -0.03513181,     -0.08785831,      0.00221724,      0.03826109,
                0.03730451,      0.11418132,      0.09462509,     -0.01810062,
               -0.03633692,      0.00020904,      0.03200026,     -0.02908543,
               -0.03362726,      0.06784755,     -0.10015785,      0.01082550,
                0.02678805,      0.03563611,      0.04379176,     -0.03536012,
                0.11932109,      0.16477531,      0.06070122,     -0.00104430,
               -0.05535122,      0.06229042,      0.04018940,      0.00339667,
                0.04873873,     -0.00265817,     -0.13005616,      0.04111115,
               -0.02575509,      0.05252913,     -0.04775344,     -0.12375457,
               -0.00916850,     -0.13203044,     -0.01098173,     -0.02841454,
                0.01014471,      0.00272218,      0.06719363,     -0.05010444,
                0.04471007,      0.05663559,      0.00403054,      0.04851817,
                0.09124096,     -0.02018558,     -0.10857873,      0.05613710,
               -0.12349425,     -0.10871916,      0.03335573,     -0.05478176,
                0.02851623,     -0.03687431,      0.01019655,      0.00628807,
                0.05670715,     -0.00696440,     -0.09203486,     -0.00718447,
               -0.12848346,      0.15161888,      0.02225141,      0.04283382,
                0.04051241,      0.00793817,      0.05976303,      0.04937149,
                0.04179006,      0.03871546,      0.07061048,     -0.00645447,
               -0.04508792,      0.06293850,      0.02238746,      0.01924991,
                0.01920888,      0.04787021,      0.01821662,     -0.04254014,
               -0.14696294,      0.02315081,      0.01196703,     -0.00356454,
                0.01947377,      0.11722343,     -0.05411401,     -0.09279922,
               -0.01231509,      0.04566444,     -0.01400279,      0.03764207,
               -0.01887908,     -0.04087455,     -0.11658565,      0.09918959,
               -0.14045598,     -0.03755009,      0.02276922,     -0.05335761,
               -0.00638826,      0.03981002,      0.05956674,      0.02522288,
                0.05268134,     -0.03231601,      0.00804007,      0.03338281,
                0.06142351,     -0.13738050,      0.01344790,     -0.03356683,
               -0.06529517,      0.07896286,     -0.01645712,      0.09456751,
                0.02004614,     -0.02477896,     -0.02064496,     -0.00437339,
                0.14055909,      0.04292778,     -0.00251001,     -0.02329450,
               -0.07184310,      0.03802484,     -0.00862562,      0.00046203,
               -0.00353418,     -0.00031591,      0.01814420,     -0.00136017,
               -0.00586192,      0.01006035,      0.05868224,      0.03653600,
                0.15027277,     -0.05721623,      0.03383085,     -0.05301978,
                0.00679464,      0.03514374,     -0.13120781,     -0.10921897,
                0.02403865,     -0.08627604,     -0.10434556,      0.10449394,
                0.04213953,     -0.05247605,      0.02533524,      0.00048032,
                0.02305388,     -0.03565262,      0.06008248,      0.11417526,
                0.06260215,     -0.01414569,      0.01306488,     -0.08022741,
               -0.02542688,     -0.02845042,     -0.00267950,     -0.04073696,
               -0.01807744,     -0.06003061,      0.03117143,      0.00408211,
                0.01517771,      0.04698804,      0.04550215,      0.03280980,
                0.04153840,     -0.01595855,      0.00006522,      0.04600460,
                0.01383626,      0.00209705,      0.00232226,      0.08304296,
               -0.07297527,      0.00474087,      0.01508176,      0.05577402,
                0.08478850,     -0.04042036,      0.01024013,      0.02932569,
               -0.00012416,     -0.10078356,      0.07039285,      0.03993644,
               -0.04593058,     -0.08911117,      0.03253215,     -0.03685902,
               -0.08198167,     -0.00425537,     -0.02695162,      0.05155782,
               -0.02325273,     -0.02683917,     -0.07395085,      0.01812890,
                0.04164358,     -0.15767951,     -0.00943280,      0.06444183,
               -0.00045240,     -0.03093021,      0.05227058,     -0.08953819,
                0.40860942,      0.07739846,      0.12282158,      0.14487392,
               -0.00073964,      0.02198076,     -0.07828429,     -0.03552279,
               -0.03680004,     -0.07230879,     -0.03985171,      0.08692191,
               -0.04406694,     -0.05763947,     -0.07455990,     -0.09200895,
               -0.05573352,      0.16558477,      0.22437635,      0.01773634,
                0.02658813,      0.06811498,     -0.03706934,      0.02814216,
                0.07348324,     -0.12234466,     -0.03046939,      0.00149931,
               -0.00038971,     -0.00319284,      0.09459303,     -0.03344361,
                0.09392324,     -0.04652867,     -0.10326675,      0.12818439,
               -0.08618219,      0.00910637,      0.00401423,      0.04186316,
               -0.09792344,      0.00303996,      0.03399580,     -0.00242791,
               -0.15414020,      0.04176082,      0.02419077,      0.00938463,
                0.01903684,      0.14344713,     -0.00266049,      0.02549256,
                0.01963327,     -0.23583443,      0.01650856,     -0.01465535,
               -0.05556500,      0.00626455,     -0.10787579,      0.04594396,
               -0.00525576,     -0.03370691,     -0.11412526,      0.01134158,
               -0.02111275,     -0.02519000,      0.05625941,      0.00149435,
                0.01212928,     -0.02885767,     -0.05243420,      0.00582441,
               -0.15109344,     -0.00353424,     -0.03709426,     -0.02010974,
               -0.04480387,      0.01212753,     -0.06091530,     -0.03475082,
               -0.13926315,     -0.07366724,     -0.05907563,     -0.05089892,
                0.04238442,      0.00339059,     -0.01187915,     -0.03953046,
               -0.28732666,     -0.08016171,      0.09313227,      0.07105902,
                0.04976212,     -0.00684346,     -0.03091457,     -0.03361663,
                0.04825297,     -0.02378438,     -0.09176136,      0.03906553,
               -0.08367474,      0.03810598,      0.07838137,     -0.04825331,
               -0.11204448,     -0.00597414,     -0.02054605,     -0.04261395,
               -0.00655678,      0.00508886,     -0.01066611,      0.10182372,
               -0.10755493,     -0.02687659,     -0.01522959,      0.01952571,
               -0.03337388,     -0.02621507,      0.01166863,      0.01524789,
               -0.00552107,     -0.05157154,      0.08459314,     -0.06269945,
               -0.01785519,      0.06797457,     -0.12564826,      0.04027581,
               -0.12016164,      0.00499131,     -0.03225364,      0.10606349,
                0.05009587,      0.02600701,      0.04216949,     -0.01802296,
                0.10967589,      0.00732235,     -0.05836734,     -0.12155961,
               -0.01224081,      0.05169994,     -0.03964949,     -0.11468700,
                0.13931416,      0.08383688,     -0.04161645,     -0.01283542,
               -0.02135087,      0.03101246,      0.07534088,     -0.05017751,
               -0.01881226,      0.10884889,      0.08315394,     -0.08272055,
               -0.00111039,      0.03465225,     -0.01271641,      0.05603580,
               -0.01359260,      0.12727416,      0.01138377,      0.04511235,
                0.02477392,     -0.02897427,     -0.03869803,      0.03381400,
               -0.05031578,     -0.06136327,     -0.00674250,     -0.26554844,
               -0.04278447,      0.05997304,     -0.05738650,     -0.01011898,
               -0.08342255,      0.10100705,      0.02881537,      0.08769691,
               -0.01113738,      0.10878020,      0.14836998,     -0.12321458,
               -0.16782922,     -0.04175460,      0.00588787,     -0.03312284,
                0.02320044,     -0.00008584,     -0.17493042,      0.15377118,
               -0.03858812,      0.08707064,      0.04051765,     -0.02404324,
               -0.05799512,     -0.04913000,      0.00839041,      0.03629452,
               -0.03771008,      0.02074828,     -0.34411585,     -0.00379077,
               -0.17677964,     -0.01526265,     -0.06912356,     -0.02044410,
                0.02897689,      0.03066494,     -0.00000623,      0.03296072,
                0.05425033,      0.08093950,     -0.05382215,      0.01066855,
               -0.00337759,     -0.06421170,      0.13329993,     -0.01026177,
               -0.05279494,     -0.00714162,     -0.04053099,      0.01413506,
                0.03043885,     -0.01923199,     -0.01304411,      0.08870760,
               -0.05161968,      0.03589202,      0.01224419,      0.18380827,
                0.09455609,     -0.03571291,     -0.20429419,     -0.04170953,
               -0.03768592,     -0.04800083,     -0.03838555,     -0.01189273,
                0.05343699,     -0.04287422,     -0.02176467,      0.08203077,
               -0.06573920,     -0.02548698,      0.02841858,     -0.13199399,
               -0.01208549,      0.08100690,     -0.03019558,     -0.03804155,
                0.18204464,     -0.02058596,     -0.06450635,      0.00076294,
               -0.02834175,      0.13063848,     -0.02330241,      0.01895963,
                0.05170965,      0.05928240,      0.03611290,     -0.00168168,
               -0.00787238,     -0.10148696,     -0.02555825,     -0.09217143,
               -0.01919263,      0.09449925,     -0.08147138,      0.12137350,
               -0.22043364,     -0.01305216,      0.00659888,      0.02961838,
               -0.05455224,     -0.05029938,      0.05769634,     -0.10943688,
                0.14825144,      0.04744845,      0.10821943,      0.02077994,
                0.03855158,      0.03993648,     -0.01529699,     -0.00655869,
               -0.01850592,      0.06176993,     -0.04753860,      0.03649904,
                0.02335858,      0.06473257,      0.03820908,     -0.01610614,
               -0.03271087,      0.01958320,      0.04109046,     -0.00690711,
                0.05551969,      0.07509800,      0.04232352,     -0.05425505,
                0.00322764,     -0.05187767,     -0.03558967,      0.08935980,
               -0.05474690,     -0.02620372,     -0.04114912,      0.03029874,
                0.02523626,     -0.02703790,     -0.05642120,     -0.02168590,
                0.04108449,      0.09285390,      0.06508479,     -0.05618893,
                0.05962592,     -0.02193399,     -0.08676428,     -0.07888225,
               -0.01424644,      0.02672146,      0.02137382,      0.00452443,
                0.05147361,      0.04073831,      0.04299771,     -0.05770935,
                0.04848304,     -0.07379393,      0.07848730,      0.06343855,
               -0.07134726,     -0.00598603,     -0.06135908,      0.05481857,
                0.02693774,      0.02969455,      0.10956442,      0.01452382,
               -0.03704980,     -0.04671400,     -0.05144605,      0.03261795,
               -0.00549492,     -0.02455399,     -0.06247598,      0.03828860,
               -0.00700334,     -0.01886458,     -0.06482037,     -0.29628512,
                0.03265162,     -0.17684427,      0.08183312,      0.14884278,
               -0.09961019,     -0.04230111,      0.02308516,      0.01786399,
               -0.03280878,      0.01649617,     -0.05244708,      0.08012185,
                0.03350642,      0.09355444,      0.00173960,     -0.06706866,
                0.01140826,      0.02208862,      0.04857397,     -0.02480395,
                0.11899421,     -0.01568237,     -0.00675622,      0.00967021,
               -0.00500760,      0.03346512,      0.05962254,     -0.10376657,
                0.02867389,      0.01109287,      0.05500475,      0.04797253,
               -0.01259125,     -0.03997592,      0.12618019,     -0.08420005,
               -0.07392244,     -0.02253148,      0.05121946,     -0.10212585,
                0.00073378,     -0.04314063,      0.05632807,     -0.00850558,
                0.04063031,      0.03021651,      0.04044975,      0.04015535,
               -0.01379459,      0.04376351,      0.01608739,      0.09224372,
               -0.03028057,      0.03399594,      0.07738322,      0.12503576,
               -0.10812078,     -0.03158508,     -0.09040846,     -0.01661428,
               -0.11756637,      0.03977929,      0.05925044,     -0.10627740,
               -0.05933215,      0.10627455,      0.02958866,      0.01841718,
               -0.04139883,     -0.13663721,      0.10394847,     -0.15342361,
                0.04247716,     -0.04223969,     -0.10419373,      0.05681223,
               -0.08341556,     -0.07019109,      0.00206845,     -0.30406794,
                0.03734716,     -0.02616457,      0.03777209,      0.01349741,
                0.00399989,      0.13467976,     -0.09120841,     -0.01748126,
               -0.05561668,      0.03571270,     -0.06020058,      0.08519889,
               -0.01158716,      0.03376637,     -0.03160179,     -0.11930006,
                0.03521778,      0.00024675,      0.14354017,      0.00743418,
               -0.03768061,      0.00971183,     -0.17953877,     -0.03589625,
                0.05730147,      0.02531641,      0.04750342,      0.03672983,
                0.05295045,     -0.07972819,     -0.06090569,     -0.03984325,
                0.01403001,     -0.05395750,      0.05812770,      0.02108789,
                0.02449725,     -0.00527984,      0.05288418,     -0.02880434,
                0.05771625,     -0.03187552,     -0.11150434,      0.09384156,
                0.00267671,      0.07243382,      0.28160891,     -0.00724674,
               -0.00920762,      0.00253581,     -0.02054892,      0.04289789,
                0.00581912,     -0.12220918,      0.20304191,     -0.04816897,
               -0.06073280,     -0.03405528,      0.04852301,      0.02381697,
               -0.04426325,     -0.01240363,      0.01995737,      0.04957190,
               -0.07253932,     -0.04067205,     -0.01456805,     -0.03825088,
               -0.04791205,      0.06849257,      0.05459775,     -0.03661590,
                0.07341526,      0.13849331,      0.02802815,     -0.15974268,
                0.00889424,     -0.16029100,     -0.02935214,     -0.03832079,
                0.05525851,      0.00087337,      0.09794155,      0.02858238,
                0.01746625,      0.01652974,      0.08646379,      0.19554546,
               -0.01256301,      0.06248704,     -0.02287312,      0.07616426,
                0.03606875,     -0.16379122,     -0.02165670,     -0.02909431,
               -0.08561880,     -0.03293348,      0.00761637,     -0.02418207,
               -0.00346963,     -0.05919617,     -0.06319483,      0.09056024,
                0.00746623,      0.06972322,     -0.00633988,      0.12949006,
                0.02822155,      0.22225121,      0.03048838,      0.02713994,
               -0.01963290,      0.02474103,      0.06224350,      0.00918249,
                0.05841504,     -0.03798960,      0.03599474,     -0.08718435,
               -0.35441163,      0.04464652,     -0.00904517,     -0.09714898,
                0.06385966,      0.05775259,     -0.10791160,      0.03755812,
               -0.12909298,      0.00381033,     -0.00455839,     -0.08109690,
               -0.00853220,     -0.05899034,     -0.10408115,      0.00854030,
               -0.05685063,      0.07602791,     -0.15389332,     -0.01358556,
                0.13506000,     -0.06671197,     -0.04172817,      0.00508840,
                0.00687077,     -0.00115629,     -0.03519612,      0.02525470,
               -0.07816140,     -0.19400993,      0.02178573,     -0.19986022,
                0.05089376,     -0.02814926,      0.11121092,      0.06017115,
                0.01069480,      0.10839664,      0.03138357,      0.03644986,
                0.05428791,      0.03755271,      0.06315964,     -0.02355037,
               -0.04277975,     -0.01295401,      0.04322816,      0.04795011,
                0.13062358,      0.05097836,      0.08643383,      0.21243900,
                0.00277550,      0.14909056,     -0.00455160,      0.06861141,
                0.00813328,      0.00488852,      0.09389929,     -0.00786322,
               -0.02130030,      0.01249270,     -0.02433548,     -0.14520031,
               -0.01677758,     -0.05427445,     -0.00055035,     -0.03540757,
               -0.10387196,     -0.14888772,      0.08294471,     -0.03025137,
                0.03056928,      0.01949296,     -0.06876809,      0.04965472,
               -0.00591851,     -0.04198161,     -0.02532682,     -0.04232396,
                0.00660187,     -0.07044052,     -0.14492413,      0.09267593,
               -0.16370344,     -0.07208004,      0.04076181,      0.08604389,
                0.03447760,     -0.07158560,      0.16654222,     -0.09590220,
               -0.02334587,     -0.04872492,     -0.06409737,     -0.04636339,
               -0.17181417,      0.34797043,      0.06002629,      0.01238666,
               -0.00112424,     -0.04001668,      0.08945514,      0.05568030,
                0.07086317,     -0.02863645,     -0.07506627,      0.00764710,
                0.05022643,     -0.03125055,      0.03584130,     -0.07591925,
                0.03917397,     -0.10586827,      0.12634796,     -0.05743989,
               -0.12182000,     -0.03728110,     -0.05638120,      0.00764994,
               -0.00512587,     -0.01588790,      0.00947523,      0.01646874,
               -0.04407382,      0.00970526,      0.09487636,     -0.03847560,
                0.39962116,     -0.01307451,     -0.04794724,     -0.03069269,
               -0.01899523,     -0.36425692,      0.04808433,      0.14494260,
               -0.18101019,      0.04118191,      0.00894797,     -0.04941429,
                0.06461422,     -0.09804828,      0.00437831,     -0.00482885,
               -0.00013117,      0.14715551,     -0.12967138,     -0.08471587,
                0.04768896,      0.41034538,     -0.04081688,      0.03843620,
               -0.02659841,     -0.02166791,     -0.00182647,     -0.00973953,
               -0.18353121,      0.01242931,      0.03594472,      0.05124282,
                0.04570377,      0.07846019,     -0.03438937,     -0.06384200,
               -0.02834020,     -0.04792635,      0.00803210,      0.04562450,
                0.05990691,     -0.27869359,      0.07130206,     -0.03252551,
               -0.08845741,      0.08129688,     -0.01971724,     -0.00820286,
               -0.05199196,      0.03893236,      0.06267366,     -0.02337510,
               -0.00542834,     -0.05050638,      0.05052220,     -0.04228238,
                0.00682813,     -0.07201435,     -0.01175550,     -0.03551893,
               -0.09052747,     -0.01707857,      0.05982715,     -0.01312677,
               -0.03145526,     -0.05451708,     -0.09158842,      0.07429395,
               -0.09461764,     -0.05146297,      0.00949647,     -0.03297808,
               -0.00686930,      0.00283711,     -0.01214149,     -0.04718840,
               -0.06110233,      0.02425554,      0.02518985,      0.03281176,
                0.02796626,      0.03891641,     -0.00613772,     -0.08439650,
                0.05310285,      0.04644507,     -0.24582119,     -0.01532230,
                0.13726237,      0.08843818,      0.07705620,      0.05138293,
               -0.07954812,      0.08558578,      0.07195771,     -0.06942334,
                0.06563312,      0.00716237,     -0.17568390,      0.00729335,
                0.08548365,      0.02590413,      0.04494137,      0.04798489,
               -0.14051825,     -0.07672105,      0.04746982,     -0.03189927,
               -0.01078519,     -0.02219750,     -0.03024438,      0.04252651,
                0.01963928,     -0.01553553,      0.06831303,      0.00472014,
                0.05164212,     -0.00549590,     -0.15731171,     -0.15351990,
                0.04573605,     -0.01370400,     -0.10750587,      0.01176940,
                0.06597333,      0.04632379,      0.07182565,      0.06318373,
               -0.02436986,     -0.03864682,     -0.06933512,     -0.09190773,
                0.01816331,      0.07886499,      0.01080224,      0.09449887,
               -0.06002089,     -0.00644619,      0.06568504,     -0.00066013,
                0.01982974,      0.20227218,     -0.01725268,     -0.00183079,
                0.09578998,     -0.03268128,     -0.16058111,      0.06706598,
                0.03797971,      0.15730810,     -0.01495184,     -0.18273075,
               -0.00159597,      0.00009549,     -0.01188537,     -0.03978452,
                0.01614729,     -0.13533399,      0.00646186,     -0.02452496,
                0.02500441,      0.03751560,     -0.00694092,      0.08436161,
                0.01924125,      0.04904186,      0.02527134,      0.09475636,
                0.04253323,      0.00896303,     -0.01659538,     -0.12184226,
               -0.06589607,     -0.01666309,      0.01625633,      0.04055999,
                0.04571142,     -0.00365031,      0.02166734,      0.19100535,
                0.06088301,      0.01528561,     -0.07539552,     -0.02599926,
                0.06019080,     -0.03205961,      0.04391101,      0.01417158,
                0.13660084,      0.02007878,     -0.13417846,      0.00055671,
                0.08952857,      0.10073130,      0.04898433,     -0.06508977,
                0.02511436,     -0.01443657,     -0.05595127,      0.00409587,
                0.05879501,     -0.04227288,     -0.03717745,     -0.04787536,
                0.05089476,     -0.08849505,      0.09241534,     -0.02090913,
               -0.14170991,     -0.10255682,     -0.10277382,     -0.00317212,
               -0.10482761,     -0.01322427,     -0.11735138,     -0.15323952,
               -0.09283221,     -0.06283046,      0.02287373,      0.02883315,
                0.00779611,     -0.23803110,     -0.15741545,      0.00477386,
               -0.06994132,      0.00583747,      0.03852028,     -0.05377809,
                0.10635821,     -0.04251123,      0.04510367,     -0.02586946,
               -0.06318760,     -0.04699565,      0.04229825,      0.00121584,
               -0.05080660,      0.02063037,      0.14838381,      0.04685186,
                0.07253066,     -0.01778717,     -0.03321394,     -0.11173550,
               -0.06156677,      0.19392827,     -0.02700991,     -0.14925188,
                0.23283957,     -0.07593062,      0.01757946,     -0.02863570,
               -0.05628879,      0.05537761,     -0.03556358,      0.00058010,
                0.05130222,     -0.10835220,      0.06966764,      0.08090799,
                0.00129459,      0.00816929,     -0.10531384,     -0.05149276,
                0.02886417,      0.04265967,      0.01838581,      0.01705545,
                0.00881380,      0.00684319,      0.03174468,      0.01687763,
               -0.00594645,     -0.00780355,     -0.00593811,     -0.02871458,
               -0.02016334,     -0.00919426,     -0.13720043,     -0.01031871,
                0.01832712,      0.05715701,     -0.03350918,      0.00033117,
                0.07162157,     -0.03107843,     -0.03226816,     -0.07487889,
               -0.00738570,      0.03339494,     -0.01856897,     -0.01622916,
                0.04282398,     -0.01953433,     -0.02897397,      0.13627683,
               -0.13031964,     -0.01613514,      0.00434694,     -0.04017211,
                0.03103354,      0.02506481,     -0.03984167,     -0.00808749,
               -0.10378611,     -0.05220240,     -0.01999496,     -0.06053711,
                0.02391624,      0.08720729,      0.07831896,     -0.01045767,
                0.02053449,      0.13348615,     -0.19553347,      0.07185193,
                0.14610054,      0.03105433,     -0.03115878,     -0.03658588,
                0.06250462,     -0.10112470,      0.01156230,     -0.04970856,
                0.12767000,      0.08450650,     -0.07081099,      0.14094742,
               -0.02819620,      0.06384416,     -0.02784854,     -0.03568261,
               -0.03691324,     -0.06084648,     -0.01516962,     -0.02218434,
                0.02493634,     -0.00440098,      0.05346694,      0.00289160,
                0.03498559,      0.13752832,     -0.08736501,     -0.23768920,
                0.01523194,     -0.05939337,      0.02597143,     -0.02746532,
                0.04531911,     -0.03968529,     -0.09364348,      0.05564221,
               -0.01741283,      0.00994771,      0.00242349,      0.04229121,
               -0.00024898,      0.02135110,      0.05978712,      0.01296734,
               -0.02317830,      0.04405328,      0.11676668,     -0.08432457,
               -0.17834519,     -0.04743176,      0.04418270,     -0.27556786,
               -0.07749551,      0.02652586,     -0.15127082,     -0.03198583,
               -0.00622720,      0.00097540,     -0.08386342,     -0.02658231,
                0.02315360,     -0.00358354,     -0.04417757,      0.03949181,
               -0.00900945,      0.00561237,      0.05234946,      0.01759134,
               -0.01894156,     -0.02095188,      0.05441476,     -0.03472748,
                0.03577479,     -0.02461636,      0.02286609,      0.01484420,
                0.04511960,     -0.00877178,      0.06094497,     -0.01937694,
                0.01283654,      0.05144911,      0.09451864,      0.06681231,
                0.00296312,     -0.06031594,      0.01469348,      0.06193967,
               -0.00426808,     -0.01781237,      0.00675280,      0.08465064,
                0.04993388,     -0.00767378,      0.03697653,     -0.04479383,
                0.11127504,     -0.15765271,      0.08605274,      0.06667076,
                0.02847586,     -0.00206802,     -0.08627392,      0.03745648,
               -0.00744278,     -0.08957334,      0.09846427,     -0.20686008,
                0.09419911,      0.09912220,     -0.03855377,      0.19130526,
                0.03502564,     -0.17140301,     -0.00931399,     -0.02947632,
                0.03835620,     -0.02700323,      0.02522981,      0.01099445,
                0.13744034,      0.10479289,     -0.03018470,     -0.04859535,
               -0.05122626,     -0.10229275,     -0.05340229,     -0.05556065,
               -0.01873128,      0.00706315,     -0.03830494,      0.00110832,
                0.01099817,      0.06104008,      0.00081933,     -0.00532267,
                0.00524099,      0.03927070,      0.00937407,      0.00932068,
               -0.05266386,     -0.01502915,     -0.08870395,      0.03255551,
                0.16725956,     -0.02790995,     -0.04091397,      0.07350879,
               -0.02643308,     -0.06952672,     -0.02000712,     -0.10117076,
                0.09694666,      0.04986076,     -0.24369527,      0.01485445,
                0.05640808,      0.00762895,     -0.02188300,     -0.04477090,
               -0.01276841,      0.07254183,     -0.05468114,      0.06663255,
                0.12308308,      0.08870094,     -0.05053851,      0.05320777,
                0.05439905,     -0.00058236,     -0.03616825,     -0.02510359,
               -0.01675493,      0.13523605,      0.00941316,     -0.01336886,
               -0.05773650,     -0.05695032,      0.06209718,      0.02350555,
               -0.00903989,     -0.19615029,     -0.01727001,      0.01925231,
               -0.03419663,     -0.06544470,      0.02992158,      0.05886107,
               -0.02194380,     -0.06286186,     -0.13493699,      0.06053366,
               -0.01097066,     -0.06986433,     -0.05113335,     -0.11340285,
               -0.03776182,      0.01715234,     -0.01358968,      0.04809842,
               -0.05695077,      0.00305763,     -0.00872835,      0.00560022,
                0.01750934,     -0.02516438,      0.00731180,     -0.01888797,
               -0.01092595,      0.00388708,      0.01618613,      0.15201847,
               -0.02278579,      0.00944107,     -0.07589556,      0.01828750,
               -0.01066563,     -0.00770570,      0.00993942,      0.08917673,
               -0.02206328,      0.00498251,     -0.05190621,      0.03113968,
                0.01343338,     -0.00911248,      0.00105984,     -0.00383164,
                0.14057504,      0.01324293,     -0.04087595,      0.09056398,
                0.05059936,     -0.05112844,      0.05867647,      0.04926971,
                0.01264365,      0.03122373,      0.11418348,     -0.08404776,
                0.01838023,      0.08512622,      0.01025842,     -0.00111689,
                0.05217125,      0.02861880,     -0.01391747,      0.00243466,
                0.00560804,      0.17385854,     -0.01793009,      0.03248082,
               -0.00924815,     -0.04870662,      0.03831383,      0.02263603,
                0.11498719,     -0.04799332,     -0.00081672,      0.10175224,
               -0.04048192,      0.02746367,      0.01059745,      0.02618495,
                0.02859538,      0.19227703,      0.03534775,     -0.06195098,
               -0.11866029,     -0.05718099,     -0.01805730,     -0.03983929,
               -0.00991991,      0.04744897,      0.26503479,      0.01540429,
                0.01960338,      0.11559980,      0.09826909,     -0.14983176,
                0.03254391,     -0.15096793,      0.01190302,     -0.01919200,
               -0.00200790,      0.01824623,      0.01855487,     -0.05419488,
                0.01836013,     -0.02929488,     -0.02016022,      0.08590199,
                0.02002244,      0.00831354,      0.00131842,     -0.02117539,
                0.16092007,      0.01416705,      0.01836902,     -0.06756996,
               -0.01420679,      0.01598653,     -0.06020588,     -0.01381325,
               -0.13548733,      0.01464916,     -0.02172359,     -0.02853527,
                0.02526183,      0.03648592,     -0.01274164,     -0.09322314,
                0.17819995,     -0.03092240,     -0.08441886,      0.00781811,
                0.06050852,     -0.02412414,     -0.01616416,     -0.02042761,
                0.00072986,      0.00100335,      0.09070162,      0.03469733,
               -0.03420385,      0.04974781,     -0.00553770,      0.11462100,
                0.06974875,     -0.01075157,     -0.03595957,     -0.00795179,
                0.02340018,     -0.01550160,      0.22473054,     -0.04593884,
                0.01088004,      0.03284897,     -0.02613656,     -0.04473792,
               -0.04825601,     -0.21051669,     -0.00184198,     -0.03766815,
                0.06048786,     -0.03022004,      0.13161917,      0.05748019,
                0.00626951,      0.03007142,      0.07578006,     -0.00620759,
               -0.04026532,      0.01339023,     -0.08533962,     -0.03521207,
               -0.12893172,     -0.01694717,      0.01113662,      0.18422741,
                0.04389496,     -0.29158112,     -0.04446990,      0.06023717,
               -0.03486688,     -0.07775106,     -0.08362325,      0.01807688,
               -0.00412377,      0.00791066,     -0.01137405,      0.01868251,
               -0.07651614,      0.22073421,      0.19208328,      0.02247244,
                0.01112252,     -0.15877132,     -0.06300405,      0.04791785,
               -0.14055851,      0.04256456,     -0.05293757,     -0.03864777,
               -0.08203470,     -0.04392131,     -0.05609761,     -0.02534046,
               -0.21339558,      0.01486215,      0.08097786,     -0.00694974,
                0.03676423,     -0.11067411,     -0.05572609,      0.03146562,
                0.03112445,      0.01506494,      0.04218657,     -0.01423723,
                0.02919831,     -0.02068562,      0.01508711,     -0.01388339,
                0.05989742,     -0.18482272,     -0.10160840,     -0.03600252,
                0.01183631,      0.00119336,      0.01977201,     -0.07532513,
               -0.04959472,      0.08357459,      0.08091443,     -0.04871940,
                0.11112593,      0.07563747,      0.03209889,      0.05510920,
               -0.02944396,      0.01478512,      0.00905002,      0.01718500,
               -0.00113328,     -0.03900357,      0.00377910,     -0.02033490,
                0.01467065,      0.02591641,      0.03448640,     -0.05782883,
                0.00120956,     -0.00987772,      0.03068624,     -0.00032508,
                0.01196804,      0.08315245,      0.04941392,      0.03151551,
               -0.01144094,      0.41905239,     -0.04262308,     -0.01380830,
                0.09397788,      0.05436713,     -0.06745919,      0.03021540,
               -0.03483229,      0.11654693,      0.00566382,     -0.13375463,
                0.05193334,      0.01111686,      0.00771426,      0.05189627,
                0.03579764,      0.04728376,      0.03350439,     -0.02289176,
               -0.00936357,     -0.12091424,      0.02191825,      0.03204644,
                0.02934431,      0.02532756,      0.01787931,      0.04845956,
                0.01359752,     -0.00630577,      0.03734256,      0.01439641,
                0.08128656,      0.05660585,     -0.02983755,      0.00610757,
                0.00543857,     -0.06875615,     -0.10587625,      0.02692821,
                0.02678109,      0.03182460,     -0.10052408,     -0.04980966,
                0.02284599,     -0.00053251,      0.03459506,      0.03843094,
                0.15254571,     -0.23172736,      0.03386646,      0.04292886,
                0.05334037,      0.07778583,      0.03628807,     -0.01230245,
                0.04117124,     -0.03835442,     -0.05946364,      0.03858271,
                0.02788491,      0.13718507,      0.03307572,      0.01580847,
                0.01629421,      0.71424752,     -0.01378673,     -0.49391267,
                0.02474876,     -0.01525522,     -0.06444743,      0.09167614,
                0.06010574,     -0.12541515,      0.01005236,      0.16573992,
               -0.04434633,     -0.01646673,      0.06036316,      0.01027917,
               -0.01426042,     -0.13756378,      0.01221986,     -0.07422600,
               -0.04345081,      0.01869122,     -0.00140429,     -0.08505770,
                0.04798652,     -0.03149709,      0.01651236,     -0.03567510,
               -0.04432759,     -0.11512097,     -0.15054026,     -0.00877052,
               -0.04131317,      0.03084094,     -0.01576353,     -0.01537933,
               -0.02581804,      0.08179463,     -0.00789333,     -0.01250457,
                0.03255846,     -0.00096740,      0.09233859,      0.01255608,
                0.04876662,      0.08114092,      0.03817728,      0.00087389,
               -0.01918146,     -0.03407824,      0.01580317,      0.01428470,
                0.01832936,     -0.14465863,      0.02265665,     -0.04557174,
               -0.03226408,      0.05599633,      0.02242420,      0.05426152,
               -0.07630955,      0.03116980,      0.03786518,     -0.07096291,
                0.03798478,     -0.01954724,      0.03333529,      0.13262053,
                0.01078496,      0.03006143,      0.02673468,      0.00610353,
               -0.01694310,      0.01124961,     -0.03400333,      0.01791845,
                0.11186624,      0.02688423,     -0.02014133,      0.08226246,
                0.07301193,      0.08143771,      0.08218229,      0.21578030,
                0.01766623,      0.00225801,     -0.05045383,      0.01419680,
               -0.04975346,     -0.03304887,     -0.07662123,     -0.04105232,
               -0.15108882,      0.07280540,      0.03218764,     -0.08572342,
               -0.01217678,     -0.04349377,      0.00575241,     -0.17893581,
               -0.10038499,      0.02564902,      0.02538155,     -0.01661980,
                0.12125915,      0.15292108,     -0.04516948,     -0.09593379,
               -0.05416813,      0.03357149,     -0.09496026,     -0.26416504,
                0.05874651,      0.03161256,     -0.01204982,      0.04996019,
                0.08219308,      0.01663148,      0.02434812,      0.05366416,
               -0.06098118,      0.01873212,      0.11237679,     -0.02317883,
                0.02188253,     -0.05166987,     -0.00850202,      0.04116665,
               -0.02515231,     -0.00650657,      0.07543650,      0.05821501,
                0.02206339,      0.02197650,     -0.04246756,     -0.06542777,
                0.02896540,     -0.02261074,      0.00774235,     -0.03683795,
               -0.01813299,      0.04710381,     -0.08639554,     -0.03128090,
               -0.04424401,     -0.03910446,     -0.00824442,     -0.05643723,
                0.10271561,     -0.01456960,      0.04153646,     -0.04644560,
                0.01647840,     -0.02049526,      0.07587501,      0.00705123,
                0.05489681,      0.06454195,      0.07041744,      0.00013355,
               -0.06084379,     -0.05574049,     -0.08431872,      0.02261088,
               -0.04388556,      0.10261649,      0.04400940,      0.06168668,
               -0.00150733,      0.01669207,     -0.02423767,      0.07553698,
                0.01665276,      0.05759542,      0.00596682,     -0.16834889,
                0.01450725,     -0.00639280,     -0.00105392,     -0.24889852,
                0.02059427,      0.04542347,      0.02089207,     -0.11270674,
               -0.03889591,     -0.00665817,     -0.42827454,     -0.02125927,
                0.01638066,      0.01879334,      0.03838439,      0.01160612,
                0.00990028,     -0.09205984,      0.02281472,      0.44109029,
                0.08023134,     -0.06651387,     -0.00959502,     -0.02892365,
                0.11466363,      0.04046623,     -0.07660332,      0.00112085,
               -0.00280719,      0.04817931,      0.08067412,      0.00451578,
               -0.00702223,     -0.00410884,      0.02945066,      0.09043996,
               -0.02987704,      0.03562965,      0.07472187,      0.03642208,
                0.03954018,     -0.02199637,      0.02263592,     -0.13257118,
               -0.02362977,      0.01217141,     -0.05640098,      0.06458400,
               -0.02545691,     -0.04734289,     -0.03911802,     -0.08653795,
                0.00714961,      0.00671641,     -0.07041816,     -0.05247743,
                0.07404283,      0.00484672,      0.02172536,     -0.06402240,
                0.09761538,     -0.01625097,      0.03276103,     -0.03212103,
                0.02128148,     -0.03973776,      0.02125140,      0.01659628,
                0.04661944,     -0.05996978,      0.04468193,      0.05650322,
               -0.01985434,     -0.08056808,      0.01808127,      0.01700041,
                0.00194441,      0.13448209,      0.07373264,      0.07427057,
                0.06913945,      0.00115556,      0.03755094,      0.05244985,
               -0.08178797,      0.05115514,      0.01891712,      0.00528802,
                0.03161654,     -0.03666928,     -0.07713874,     -0.07496601,
               -0.04307535,      0.04080040,     -0.04458321,      0.03591857,
                0.04286630,      0.02723608,     -0.00787181,     -0.06465731,
               -0.13636014,     -0.01577138,      0.01429078,      0.14624338,
                0.11485804,      0.04863478,     -0.02061107,     -0.06526104,
                0.05027000,     -0.07486895,      0.07578558,      0.08990628,
               -0.03066888,     -0.00417312,     -0.01741713,      0.00352162,
               -0.05975426,      0.12911512,      0.07808480,      0.09688485,
                0.00066827,      0.13271591,     -0.02821299,     -0.02045939,
                0.04734614,      0.08236904,      0.02673311,     -0.07735354,
                0.00721427,     -0.00108950,     -0.02983884,     -0.10093495,
               -0.00020854,     -0.00228659,     -0.13139078,      0.00682184,
               -0.13301681,      0.00488666,      0.05139391,      0.04036760,
                0.08623320,     -0.03492768,      0.02512066,     -0.19541857,
               -0.14981405,     -0.10652842,      0.08375892,     -0.00325675,
                0.05649853,     -0.01421410,     -0.31948808,     -0.03906888,
               -0.05312886,     -0.08351337,     -0.03621891,      0.02436864,
               -0.15941401,      0.12301216,     -0.05593683,      0.00124944,
                0.05182753,      0.04073892,     -0.01144315,     -0.04844187,
                0.20251863,     -0.01938179,     -0.02652366,      0.06209496,
               -0.02105566,     -0.14047897,      0.00238560,     -0.01959117,
                0.07610872,     -0.11840264,      0.03883512,     -0.11958957,
               -0.02147675,      0.24565478,     -0.08902042,      0.10654227,
               -0.01535926,     -0.04204151,     -0.01735181,      0.08542690,
                0.01772947,     -0.04294885,     -0.01523446,      0.09620125,
                0.00123157,     -0.02241973,     -0.04165325,      0.00348098,
                0.11761677,     -0.08387507,     -0.05605160,      0.02296684,
               -0.00312162,     -0.05985945,      0.04979325,      0.05970033,
               -0.05978982,     -0.03331159,      0.05423207,     -0.01446324,
               -0.03189311,     -0.03969601,      0.06430071,     -0.12202212,
               -0.01548923,      0.02448545,      0.00385314,      0.01315498,
                0.06759362,      0.04813759,      0.02905861,      0.03989023,
               -0.01181733,     -0.01836765,     -0.04852180,      0.06009739,
                0.30069160,      0.01938986,     -0.14174272,     -0.07217517,
               -0.01402736,     -0.04957353,      0.00865999,     -0.01130452,
                0.11978330,      0.10031630,     -0.02189842,      0.08430064,
                0.08734448,      0.07205617,      0.01911879,     -0.00656647,
                0.06038823,     -0.02896666,      0.00149342,     -0.01210899,
                0.12840435,     -0.02748426,      0.00674522,      0.01753203,
                0.07715627,     -0.10013065,     -0.01721884,      0.03114385,
                0.10016518,     -0.14582871,      0.05909894,      0.13207556,
                0.07610129,     -0.04239908,     -0.07821070,      0.10149641,
               -0.01079867,      0.02554150,      0.06413243,     -0.09247718,
               -0.05910582,     -0.10970203,     -0.04926388,     -0.06196913,
                0.07158323,     -0.05143664,     -0.14335436,     -0.03794254,
                0.03698434,     -0.05566126,     -0.06476433,     -0.00453557,
                0.02743515,      0.06698827,      0.02568990,     -0.04875168,
                0.07421913,     -0.00833726,      0.02912246,      0.05783914,
               -0.03377948,      0.10320088,      0.06263992,      0.06637526,
               -0.04960819,     -0.06077509,     -0.02148830,      0.03666197,
               -0.16167983,      0.01923989,     -0.05113594,      0.03220651,
               -0.01206602,      0.04036385,     -0.03010333,      0.01597438,
                0.08261941,     -0.08910624,     -0.00984362,     -0.05834945,
                0.02156006,      0.04796519,     -0.02227503,     -0.01570887,
               -0.22094576,      0.06206157,     -0.07639430,     -0.00272975,
                0.00622334,     -0.10345796,     -0.03230986,     -0.07100186,
               -0.11743643,     -0.01668102,      0.09605992,      0.00235352,
                0.08461904,     -0.08074366,     -0.04882764,     -0.01173526,
                0.15549995,     -0.02052595,      0.15452591,      0.05319170,
                0.05266113,     -0.02471076,     -0.05018702,      0.01000059,
                0.04872227,     -0.04007201,      0.00308215,      0.06393908,
               -0.04906405,     -0.05435415,      0.10135864,     -0.16897373,
               -0.09481688,      0.00323280,     -0.17169592,     -0.04895037,
                0.03631671,      0.13859425,      0.00946949,      0.05078334,
               -0.07264487,      0.01712723,     -0.00345093,      0.01885545,
                0.09427353,     -0.03458330,      0.06260815,      0.09693878,
               -0.02349462,      0.02167491,     -0.01176677,      0.11261559,
               -0.06783806,      0.00612109,     -0.08886562,     -0.04801761,
                0.02630047,      0.00627007,      0.03450593,     -0.05649608,
               -0.00020055,      0.07379583,      0.15391558,      0.01551120,
               -0.16118367,      0.01968745,      0.18226385,     -0.00809886,
               -0.02210958,     -0.01208688,      0.10501073,      0.01731494,
               -0.00607087,      0.01237707,     -0.02060596,     -0.02557402,
               -0.13369663,     -0.00900980,      0.17236692,     -0.08553851,
               -0.00235438,     -0.00886043,     -0.02238292,      0.00128069,
               -0.04058553,     -0.13091035,     -0.02365822,      0.06079526,
                0.00338785,      0.05911061,     -0.02353915,     -0.07401325,
               -0.03572828,      0.07346157,      0.04166916,      0.03023441,
                0.02617179,     -0.12478133,      0.00938110,     -0.01265654,
                0.00437749,      0.08136079,      0.04960124,     -0.01793987,
               -0.19801311,     -0.07263109,      0.02898870,      0.05702824,
               -0.02558439,      0.08577423,     -0.06233678,      0.01719137,
               -0.00339051,     -0.14486934,     -0.02850589,     -0.02214067,
                0.02701946,      0.03613475,      0.03978919,     -0.02509027,
                0.22450858,     -0.01895712,      0.04899850,      0.02371234,
               -0.03703067,      0.06872752,     -0.00193613,      0.03160062,
               -0.05234260,      0.03484100,     -0.19677894,     -0.03417441,
                0.16917478,      0.02872501,      0.07037044,     -0.01436141,
               -0.05955698,     -0.02751048,     -0.08823431,     -0.05894972,
                0.06995496,     -0.02775983,      0.01255840,     -0.04085279,
                0.19987024,     -0.02418281,     -0.02538204,      0.03362934,
                0.03141220,     -0.00464704,     -0.06392651,      0.00653482,
                0.00265245,     -0.12809841,      0.20649730,     -0.05588582,
                0.05169241,      0.00981126,     -0.07108117,      0.01195886,
                0.15313077,      0.09912959,      0.13606903,      0.09829920,
                0.07109208,     -0.12095299,     -0.03748352,      0.02815926,
               -0.01042819,      0.00267175,     -0.01951488,      0.02292596,
                0.04925741,     -0.08358990,      0.13938856,      0.05500004,
                0.00675072,     -0.01292902,      0.01426712,      0.03030866,
                0.00758394,      0.04735575,      0.02381793,     -0.01023063,
               -0.06361073,     -0.03360145,      0.07289957,     -0.00411708,
                0.05272545,      0.09353048,      0.08890329,      0.06509269,
               -0.03028947,      0.02112020,     -0.01326961,     -0.27561396,
                0.16728163,     -0.03302521,      0.05436142,     -0.03066217,
                0.01433687,     -0.12116719,      0.01564573,     -0.38897753,
               -0.04376712,     -0.04410500,     -0.06312361,     -0.03641392,
               -0.00695163,      0.04668139,      0.02647876,      0.01888121,
               -0.04667874,     -0.18492742,     -0.05956827,     -0.07662309,
               -0.06420879,     -0.04879895,     -0.02051721,      0.00670479,
                0.05555576,      0.06838440,      0.01175484,     -0.02760085,
                0.08535535,      0.01588725,      0.06969336,     -0.00679640,
               -0.02391690,     -0.02582858,     -0.01611836,     -0.00459852,
                0.03432818,     -0.01124910,     -0.20825008,      0.03358419,
               -0.06263822,      0.00840041,     -0.06147941,      0.01222682,
                0.02517243,      0.01540917,      0.07332413,      0.03059130,
                0.06786171,     -0.03535450,     -0.05118174,      0.05939451,
                0.10659788,     -0.07111598,     -0.03956088,      0.02874481,
               -0.11209403,     -0.06971674,      0.05013518,     -0.04546385,
                0.03712720,     -0.04185642,     -0.01602065,      0.10374353,
                0.04105400,      0.13501324,      0.02499110,     -0.03111162,
               -0.05120431,      0.03067072,      0.05223805,      0.00574718,
               -0.03356737,     -0.01102445,      0.07097995,     -0.01716220,
               -0.08172339,      0.06850331,      0.00847624,     -0.07721063,
               -0.04737898,     -0.00412701,     -0.02078625,      0.12586294,
               -0.00789659,     -0.08405646,     -0.09325185,     -0.00034253,
               -0.01882466,     -0.07489954,     -0.06728950,      0.04089313,
                0.06618680,      0.01528998,     -0.05367826,     -0.06676693,
                0.04466459,     -0.05993262,      0.06014543,      0.05893843,
                0.02119488,     -0.15949190,     -0.01315141,      0.05483979,
               -0.04447208,      0.06061400,     -0.01039554,      0.01573570,
                0.05848121,      0.04657904,     -0.12031534,     -0.06219044,
                0.05699429,      0.02023286,      0.05321052,     -0.11295053,
                0.09299704,      0.07795326,     -0.00786781,      0.01559877,
               -0.11710383,      0.03305982,      0.01968582,     -0.12547414,
               -0.01563136,      0.01798588,     -0.13077711,     -0.04853441,
                0.02363784,      0.01096180,      0.04920097,     -0.01142834,
               -0.06919654,     -0.02029751,      0.00815774,      0.02291548,
                0.04335596,      0.01365698,      0.09189402,      0.00821215,
               -0.01488509,     -0.01122299,     -0.02741485,     -0.10371478,
                0.03412234,     -0.02673152,     -0.07848234,     -0.04889974,
                0.03652974,     -0.04566828,     -0.01307973,     -0.01279308,
               -0.07337611,      0.04105635,     -0.02646142,     -0.03530878,
                0.04931246,     -0.03938201,      0.28421015,      0.02981429,
                0.13252588,      0.07626288,      0.12374469,     -0.08558705,
               -0.16110384,      0.04408296,     -0.04793149,      0.05815080,
                0.00655188,     -0.04819614,     -0.12283576,      0.06800023,
                0.15763646,      0.06535179,     -0.11108194,      0.15109670,
                0.00638100,     -0.00275320,     -0.14143531,     -0.01026615,
               -0.01294089,     -0.07682688,     -0.02650716,     -0.09551845,
               -0.01535308,      0.05855202,      0.06710335,      0.01501412,
                0.06040440,     -0.03710623,      0.07645724,     -0.09343708,
                0.01493439,     -0.01032665,     -0.02721142,      0.00257337,
               -0.04914379,     -0.14916095,      0.03846985,      0.08184041,
               -0.08570852,     -0.05527550,     -0.05638485,     -0.01212404,
                0.01629689,      0.04294497,     -0.03690585,      0.04334210,
                0.00513813,     -0.01027126,      0.02081207,     -0.03102310,
               -0.26428989,     -0.01796364,     -0.04899153,     -0.10496493,
                0.07998172,      0.01234006,      0.09925073,      0.01799933,
                0.02324813,     -0.07342806,     -0.07604866,     -0.02074455,
                0.02453052,     -0.14467491,     -0.02242940,     -0.11480518,
               -0.04197691,     -0.06613482,     -0.00344768,      0.04410585,
               -0.02587456,      0.15302810,      0.01329347,     -0.03943958,
                0.15617420,      0.07814880,      0.01072801,      0.04401711,
                0.02482587,     -0.00007392,      0.04836258,      0.08029657,
               -0.05034964,     -0.01559702,     -0.09863546,     -0.08436573,
                0.01353760,     -0.24950930,      0.03431415,      0.16244119,
                0.01007077,     -0.03553274,      0.03838715,     -0.19854881,
               -0.02715997,      0.17436019,      0.00259808,     -0.01695048,
                0.00514540,      0.00584243,      0.08766077,     -0.06252830,
                0.06026984,     -0.01884981,      0.01184338,      0.01551238,
               -0.09512814,     -0.13949817,     -0.02688495,      0.03426420,
                0.01715501,      0.11193102,      0.02361276,      0.00692640,
               -0.05387909,      0.03659189,      0.04939788,      0.02048011,
               -0.11158697,      0.07276428,      0.02421116,      0.04509049,
                0.11986913,     -0.10172689,     -0.02541403,      0.14852026,
               -0.02024439,     -0.02290259,     -0.09966616,     -0.02930349,
                0.14234701,      0.09984383,      0.04929320,      0.09213094,
                0.02460438,      0.02385724,      0.10617737,      0.04735333,
                0.03315134,     -0.00497608,     -0.03213216,     -0.05943157,
               -0.10385819,      0.01660526,     -0.03840617,      0.17172457,
               -0.01734223,      0.09101300,      0.06012132,      0.10993434,
                0.14733347,      0.10571399,      0.07113311,     -0.07888030,
               -0.01796086,     -0.05015514,      0.08262420,     -0.09625226,
               -0.01393740,     -0.03120784,      0.06872588,      0.02169161,
                0.06662044,      0.07303490,     -0.09889952,      0.04526612,
                0.13821264,      0.06862424,     -0.04552391,      0.00345351,
                0.10716746,      0.01177747,     -0.05880487,      0.00613989,
               -0.04645797,      0.06227430,      0.09423959,     -0.02766200,
               -0.07418355,     -0.00204715,      0.01610629,     -0.20413376,
               -0.05336873,     -0.03247667,      0.03161643,      0.04475668,
                0.05293366,     -0.11893272,     -0.05005674,     -0.07457905,
                0.10675046,      0.00429947,     -0.02671219,      0.03752717,
                0.06499982,     -0.08836071,     -0.07042956,      0.13905419,
                0.01317324,     -0.01565187,     -0.01337736,     -0.06710178,
                0.05009353,     -0.03388049,     -0.01288055,     -0.03508966,
               -0.04852145,     -0.00061848,      0.10947331,     -0.02835091,
               -0.05202916,     -0.01126381,     -0.02756194,      0.00169854,
                0.05811870,      0.09642905,      0.03297465,     -0.04512417,
               -0.11118913,     -0.08002927,     -0.00812335,     -0.10570382,
               -0.03523099,      0.01537203,      0.04212930,      0.01184368,
               -0.06421108,     -0.02178166,      0.04816202,      0.02867150,
               -0.14276457,     -0.15360224,     -0.08368289,     -0.06138740,
                0.05937953,     -0.06716159,     -0.15245883,     -0.02695668,
                0.01404105,      0.05344365,      0.02774101,      0.07916428,
                0.08639464,      0.07602371,     -0.03934067,      0.04142791,
                0.00745665,      0.00165927,      0.09266897,      0.14528234,
                0.05186185,     -0.01183088,      0.00658770,     -0.01376585,
                0.07916006,      0.02599081,     -0.09618293,      0.05532448,
               -0.03920585,      0.04901661,      0.03772355,      0.17770624,
                0.04303786,      0.03696844,      0.05416935,      0.09473079,
                0.01986469,     -0.16776571,      0.01100616,     -0.02298341,
                0.00031889,     -0.03181413,     -0.15828058,      0.07678597,
                0.05064148,     -0.16810660,     -0.08473787,     -0.07722144,
               -0.04301246,     -0.06069035,      0.05516921,      0.04821247,
                0.03092610,      0.04238654,      0.04904282,     -0.02477467,
                0.17839783,      0.04401114,     -0.08488449,     -0.02361772,
                0.03880800,     -0.05496632,      0.15602152,      0.09827467,
               -0.08146866,     -0.07511326,     -0.07315560,     -0.01785156,
               -0.11134127,     -0.07789862,     -0.07052635,      0.01328044,
                0.02649635,      0.08450817,      0.02084259,      0.04088000,
               -0.13100569,      0.00693541,      0.04562039,     -0.07381211,
                0.05291954,     -0.00051998,      0.02668584,      0.10231262,
                0.25957233,     -0.02542968,      0.20438328,      0.12498102,
               -0.11808050,     -0.08458075,     -0.06167580,      0.04440127,
                0.02297985,      0.09423570,     -0.04956852,     -0.08651365,
                0.01461762,     -0.05839529,      0.07205305,      0.17405605,
               -0.08679999,     -0.01396988,      0.18281242,     -0.02428558,
               -0.00071081,      0.09756529,      0.01229820,      0.10880336,
                0.05894869,     -0.01551213,      0.04011291,      0.02078435,
               -0.05064640,     -0.06709187,      0.02788443,      0.02611577,
                0.01435415,     -0.00639373,     -0.04543359,     -0.04529806,
                0.02182282,     -0.07008854,      0.05590955,     -0.03460810,
                0.00390797,      0.02378335,     -0.10149534,     -0.03291865,
               -0.07665059,      0.00632053,      0.03503739,     -0.11395051,
               -0.01281006,      0.13870400,     -0.03772901,      0.00782826,
               -0.06163477,      0.01361796,      0.10923030,      0.02620418,
               -0.03431831,     -0.05074095,     -0.08210058,     -0.01530592,
               -0.10886656,     -0.02696810,     -0.02876301,      0.03284885,
                0.00497213,     -0.05772056,      0.13175671,     -0.03004313,
                0.06331915,      0.01546695,     -0.09562716,     -0.09130450,
               -0.14546336,     -0.04235093,     -0.03737811,     -0.09395455,
                0.04365721,      0.00068637,     -0.11463260,      0.08797448,
                0.03289516,      0.21880692,     -0.10271718,     -0.00011386,
               -0.02712115,     -0.08795545,     -0.05811929,      0.13863249,
                0.02939528,      0.18990090,      0.03251359,     -0.00471241,
                0.08285806,      0.06092266,      0.16940181,      0.01410654,
                0.12005702,     -0.03731743,      0.04926272,     -0.06035379,
                0.05229907,     -0.01512826,      0.08082853,      0.00714945,
                0.08632667,     -0.04507812,     -0.03988247,     -0.04409742,
               -0.05202777,      0.08463835,      0.05019166,      0.04860652,
               -0.06120286,     -0.02963208,     -0.04199551,      0.09006129,
               -0.09177241,     -0.02759509,      0.00727422,      0.06659710,
               -0.10320323,      0.02089085,      0.06366822,      0.10995925,
                0.05417661,     -0.04086428,      0.01552964,      0.03982933,
               -0.09677812,     -0.05832768,      0.01985297,     -0.05944758,
                0.07468013,     -0.00163481,      0.14274798,     -0.01319746,
               -0.16971152,      0.03181209,      0.33722869,      0.15367757,
               -0.07420929,     -0.02463274,     -0.07838523,      0.00739099,
                0.13618737,      0.00231377,      0.07288775,      0.05056962,
                0.11036522,      0.04065070,      0.01492462,      0.04229787,
                0.01696914,     -0.12962452,     -0.02578363,      0.06303608,
                0.03314913,      0.00809943,      0.12109252,      0.00411842,
                0.00149638,      0.08662184,     -0.02099906,      0.01919055,
                0.01256896,      0.07523812,     -0.00822306,      0.04568208,
               -0.02593579,     -0.01121663,     -0.46287575,     -0.09088769,
                0.26144868,     -0.00760685,     -0.07622142,     -0.04941721,
               -0.08965238,      0.06712496,     -0.00510332,      0.02328158,
                0.05794431,      0.02215460,      0.01041749,      0.10640052,
               -0.05906517,      0.07206054,      0.02488472,      0.00081290,
                0.07494757,     -0.04857346,     -0.10928014,      0.02917655,
                0.04115599,     -0.00283775,      0.01399989,     -0.08198359,
               -0.03784543,      0.00666604,      0.01771293,     -0.09521805,
               -0.05886428,     -0.00754379,      0.01601991,     -0.08086365,
                0.03580618,     -0.09899062,     -0.01001615,     -0.06140686,
               -0.11946886,     -0.12759936,     -0.06582958,      0.04135538,
               -0.03799649,     -0.08935519,     -0.06616308,      0.19765469,
               -0.09680434,     -0.03904159,      0.14075178,     -0.03012618,
               -0.00693439,     -0.01380385,     -0.18926829,      0.08063277,
                0.03251380,      0.11314656,     -0.08183878,      0.03526869,
               -0.04249233,     -0.00341552,      0.08126054,      0.02425810,
                0.07906698,     -0.04174059,      0.10039905,      0.11950277,
               -0.10464132,     -0.00763050,     -0.04620018,     -0.05152801,
                0.14860412,      0.12856041,     -0.06271102,      0.05429845,
                0.02572346,     -0.04733227,     -0.03375262,      0.02897315,
                0.02736144,      0.00223136,      0.08453304,      0.01728716,
               -0.03529673,      0.15563607,     -0.04621122,      0.01110089,
                0.05520919,      0.03671755,     -0.01799213,      0.07173136,
                0.01864527,      0.04505471,      0.05831194,     -0.00920675,
               -0.05799387,     -0.01261921,     -0.07230208,      0.12983617,
               -0.01276404,      0.06246909,     -0.05546206,      0.02581302,
                0.04975331,      0.03660690,      0.11920115,      0.13142885,
                0.06519579,     -0.07817119,      0.01064554,      0.00917081,
               -0.13284260,     -0.10801157,      0.01214086,     -0.13701211,
                0.01433229,     -0.02053836,      0.04122533,     -0.09276113,
                0.00309123,      0.03520681,      0.03446385,      0.02051273,
               -0.15331148,     -0.02731137,     -0.07383233,     -0.00437598,
                0.06249977,     -0.09110945,     -0.01975550,     -0.01005599,
                0.05884562,      0.06462124,     -0.04882339,      0.04326365,
                0.13472044,     -0.00798801,     -0.03343926,     -0.08675455,
                0.06239326,      0.04200561,      0.01277757,      0.06383073,
                0.05273072,      0.02101248,     -0.07204853,     -0.10746969,
               -0.00315947,     -0.06765345,     -0.04535768,      0.02184622,
                0.06491493,     -0.00132700,     -0.12689197,     -0.00750400,
               -0.06826160,     -0.26596764,      0.03401212,     -0.01417117,
                0.09809104,      0.03798015,     -0.04701538,     -0.12577794,
               -0.03196162,      0.02301426,      0.06948769,     -0.01403989,
                0.01646071,      0.07301608,     -0.02071134,      0.02500332,
               -0.01109888,      0.00186930,     -0.12948689,     -0.08453545,
                0.00718240,      0.04188068,     -0.10063055,     -0.04507261,
               -0.02218635,     -0.05843108,     -0.08860670,     -0.06148269,
                0.02277846,     -0.09214651,     -0.03084141,     -0.03646266,
                0.01478666,      0.11008014,      0.03772436,      0.06298061,
               -0.04282474,      0.07911852,      0.03899083,      0.00188436,
                0.07437543,     -0.02927144,      0.02409226,      0.02510573,
               -0.06492417,      0.03857665,     -0.00208791,      0.01388665,
               -0.01112482,      0.06794321,     -0.05892299,      0.05817341,
               -0.02827432,     -0.06389566,      0.06303501,      0.01231645,
                0.00325647,      0.08427503,      0.03257558,      0.09129646,
                0.03667150,      0.00672002,     -0.05042053,      0.04619534,
                0.03286555,     -0.04630958,     -0.02716846,      0.03978943,
                0.01893062,     -0.08051345,      0.00399372,      0.10642157,
               -0.07485345,     -0.05832172,     -0.00067776,      0.02444014,
                0.03269896,      0.06301934,     -0.04373899,      0.15032504,
               -0.00689152,      0.01382704,      0.10553332,     -0.02757107,
                0.01243861,      0.03765822,     -0.03250290,     -0.00591987,
                0.01930813,      0.02535060,      0.14973880,      0.11621894,
               -0.00196834,     -0.06468469,      0.02764798,     -0.03903392,
               -0.05210558,     -0.02019681,      0.20525265,      0.15179761,
                0.22289191,      0.06762558,      0.05558845,      0.00701892,
                0.00923026,      0.02357585,      0.03367956,      0.04718680,
                0.02905328,     -0.04998967,      0.01138110,      0.09909262,
                0.00159546,     -0.02124888,      0.03398092,     -0.06728141,
                0.00284644,      0.10837516,     -0.18338349,     -0.00588526,
                0.03027467,      0.13920477,     -0.05387759,     -0.00955972,
               -0.07816112,     -0.04744803,      0.04872556,      0.07136039,
               -0.05381191,      0.04896863,      0.05638923,      0.01132692,
               -0.02832587,      0.06282914,      0.21783696,     -0.01252460,
                0.05408334,      0.06620999,     -0.00777941,      0.07082660,
               -0.00030842,      0.18364401,     -0.10713528,      0.08275475,
               -0.01444235,      0.03977492,      0.01929808,      0.03505780,
               -0.00860805,     -0.11808651,     -0.08871795,     -0.13896601,
               -0.03148258,     -0.00475129,     -0.04143022,     -0.10460741,
                0.08245243,      0.00192102,      0.00315194,     -0.06437965,
                0.08982547,     -0.09454260,     -0.04428791,     -0.15485288,
               -0.10688018,     -0.13301642,     -0.00993201,      0.03004495,
                0.02501937,      0.02474466,     -0.17089742,     -0.04743672,
               -0.01231603,     -0.01995275,     -0.00252913,      0.08584321,
                0.02201471,      0.08353240,      0.07929160,     -0.06427540,
                0.19444849,     -0.13941686,     -0.04505607,      0.01142851,
               -0.33035177,      0.05747721,      0.02516771,      0.10691594,
                0.04539461,     -0.03117126,      0.11680736,      0.06494560,
               -0.00104545,      0.01147496,     -0.04299893,      0.01794856,
               -0.00319016,      0.09224407,      0.01835069,      0.05226792,
                0.08923221,     -0.23756121,      0.06616729,     -0.00375742,
               -0.01175548,     -0.00190597,      0.18061839,     -0.04453107,
               -0.01515214,      0.17212601,      0.09664126,     -0.01499667,
                0.06395225,      0.10179647,     -0.10726855,      0.18996948,
               -0.14657265,     -0.10558099,     -0.09688110,      0.00230314,
               -0.03653000,     -0.22132030,      0.02296097,     -0.18828461,
               -0.05674807,     -0.01414914,     -0.03587530,     -0.00835583,
               -0.04060511,     -0.10862416,      0.00381616,     -0.10645977,
               -0.04143605,      0.18301807,     -0.02569934,      0.03804966,
               -0.10875444,      0.17692953,      0.12971081,     -0.06367384,
                0.02929150,      0.00608037,      0.07931803,     -0.04919910,
               -0.00142797,     -0.04227044,      0.02379850,     -0.02308546,
               -0.01896386,      0.12410460,     -0.09887817,     -0.15704656,
               -0.08598038,      0.06264637,      0.01835810,     -0.02532111,
               -0.01680755,      0.01915956,      0.04815214,      0.00114420,
                0.09171370,     -0.03981519,     -0.07098754,     -0.08760226,
               -0.07946999,      0.02527980,     -0.00078801,     -0.00895896,
               -0.03208284,      0.09797174,      0.06899735,      0.08323669,
                0.00015813,     -0.11567568,      0.08499189,     -0.02503411,
               -0.00450930,     -0.09907544,     -0.03054274,      0.00701183,
               -0.04473133,     -0.08927064,     -0.13470232,     -0.05632901,
               -0.08417415,      0.10912064,      0.01035356,      0.12630047,
                0.04306485,     -0.06311043,     -0.01067118,      0.07582319,
               -0.06703053,     -0.06064720,      0.03249073,      0.05646078,
               -0.14684176,     -0.12116022,     -0.06312080,     -0.01970368,
               -0.02354362,      0.02070623,      0.01194847,      0.07000162,
               -0.08279449,      0.00607262,     -0.02324833,     -0.03292091,
                0.11602765,      0.28425694,      0.03792091,     -0.02615761,
                0.09445458,      0.01331150,      0.13561527,      0.08918793,
                0.10398322,      0.09299506,      0.00149919,     -0.00996373,
               -0.07803644,      0.01666994,     -0.01943834,     -0.12901188,
                0.02739107,     -0.00743458,     -0.11589023,     -0.05551128,
                0.12180639,     -0.01714784,      0.01788015,     -0.03170098,
                0.12204326,      0.04158537,      0.10718014,      0.03381459,
                0.02060696,     -0.04206108,      0.00701469,      0.08220275,
               -0.05125102,     -0.08455487,      0.09995569,      0.04173212,
                0.01403985,     -0.10039155,      0.12848508,     -0.02778105,
               -0.06297442,     -0.06494343,     -0.09944803,     -0.00763696,
               -0.05060140,     -0.09879442,      0.02074048,     -0.06332204,
               -0.03516337,     -0.04322962,     -0.10262914,      0.04456602,
                0.17186825,     -0.06543469,     -0.10869234,     -0.13183993,
               -0.17689784,     -0.00373301,     -0.30020082,      0.10822930,
               -0.05133696,      0.01465147,     -0.10226013,      0.12146375,
                0.03426850,      0.00079965,     -0.09041180,     -0.05922472,
                0.02737480,      0.14668839,     -0.10448091,     -0.15699552,
                0.00173705,     -0.00370909,      0.40568447,      0.05848901,
               -0.01773445,     -0.04208951,      0.02840867,     -0.11800177,
                0.10423251,     -0.04476057,     -0.08604031,     -0.02559090,
               -0.07808737,      0.03002562,     -0.06195721,     -0.16245164,
               -0.00589070,     -0.09266023,      0.00376462,     -0.15428947,
                0.06616814,     -0.10156476,      0.25113836,     -0.02058797,
               -0.03195795,     -0.00672524,      0.00619180,      0.00390230,
               -0.01568983,      0.02284709,     -0.16879643,     -0.00475523,
               -0.16829352,      0.12521134,     -0.00610032,      0.06215775,
               -0.03650258,      0.04516057,     -0.00098778,     -0.02431279,
                0.01879770,      0.01080810,     -0.00410066,      0.03162890,
               -0.08195375,      0.00214950,      0.03460681,      0.11967751,
                0.09689628,     -0.12970658,      0.03768503,      0.00705341,
                0.04834872,     -0.13250330,      0.05897390,      0.06153153,
               -0.02937827,     -0.06415837,      0.07189887,     -0.06738545,
               -0.05495738,      0.02893538,      0.29149559,     -0.01293914,
               -0.13558656,      0.04750856,     -0.08864417,     -0.01438770,
               -0.12969244,      0.03376194,     -0.13837184,     -0.05439693,
               -0.06399807,      0.12141312,     -0.02184999,     -0.15437008,
               -0.07077482,     -0.11620540,      0.00938655,     -0.08959500,
                0.19101532,      0.04714419,     -0.03537330,     -0.04749746,
                0.08654407,      0.04955102,     -0.04225712,      0.02395809,
               -0.13177554,     -0.00881450,      0.09400594,      0.02314325,
               -0.03408537,     -0.08099210,     -0.00025849,     -0.04047696,
               -0.02317015,      0.03976722,      0.07041319,      0.02760761,
               -0.34092227,     -0.04121226,     -0.03468450,     -0.06062239,
                0.04814032,     -0.04632266,      0.10339332,     -0.24646044,
                0.01883479,     -0.00843164,      0.05028686,      0.05364682,
               -0.23736332,     -0.00817097,     -0.02910299,      0.10863439,
               -0.06906403,     -0.04549060,      0.06670291,     -0.00117196,
                0.14667054,      0.14861862,     -0.09190790,      0.01620281,
               -0.10299147,      0.00810603,     -0.11453487,      0.03770708,
               -0.14396428,      0.12239446,     -0.04849537,     -0.04304394,
                0.01685771,     -0.01152582,     -0.00799582,     -0.00291179,
                0.08687620,     -0.10427765,     -0.10954511,     -0.12316679,
               -0.02052106,     -0.07112148,     -0.24948032,     -0.08136498,
               -0.02299378,      0.30633220,      0.05435546,      0.05213965,
                0.02190005,     -0.14611660,     -0.02733207,     -0.13488944,
                0.06315036,      0.04609791,      0.00840927,     -0.01383321,
                0.03569453,      0.03659465,     -0.11636689,      0.03959879,
               -0.00482228,     -0.07599877,      0.06005496,     -0.01272306,
               -0.14678004,     -0.05267543,     -0.03698198,      0.27845666,
               -0.01443775,      0.12218166,      0.00489096,     -0.19986477,
               -0.02429090,      0.01075548,     -0.02887349,      0.01991112,
               -0.00281902,      0.30155948,      0.01201162,     -0.03349254,
                0.06306859,      0.04435739,      0.05860671,     -0.06581511,
               -0.01173059,     -0.00064014,      0.02347794,     -0.02330442,
               -0.03626063,     -0.08410703,     -0.05133250,     -0.01372020,
               -0.06849583,      0.00809172,      0.06478222,      0.04319165,
               -0.00245781,     -0.00582009,     -0.04999430,     -0.02111351,
               -0.01386281,      0.05186001,     -0.14087766,     -0.08973600,
                0.05268300,     -0.05456327,     -0.00325943,     -0.06962885,
                0.16888295,     -0.07343625,     -0.03336797,      0.05774208,
                0.03465530,     -0.00549140,     -0.00766979,     -0.07088060,
                0.05492172,      0.02068271,      0.00521214,      0.03482780,
                0.32358992,     -0.04712857,      0.00139120,     -0.03860288,
               -0.08901937,      0.14003403,      0.08149935,     -0.37096694,
                0.10430513,     -0.04826497,      0.00540414,      0.09426237,
               -0.10737175,     -0.03230209,     -0.20386206,     -0.03135225,
               -0.01578106,     -0.00202583,     -0.02277885,     -0.03728587,
               -0.11982764,     -0.18825795,     -0.00391025,     -0.06358620,
               -0.01983054,     -0.12469070,      0.03712465,     -0.09433339,
               -0.15851113,      0.00884050,     -0.05202051,     -0.09800068,
                0.28998348,      0.14092295,      0.06107603,     -0.01946296,
               -0.02817563,      0.09558234,      0.04721328,     -0.10267497,
               -0.02265662,      0.01793963,     -0.05445529,     -0.00101581,
               -0.01121737,     -0.22452250,     -0.01832263,      0.00630649,
               -0.05107707,     -0.00832011,      0.06140598,      0.07932750,
               -0.12146612,     -0.04405771,      0.31029284,     -0.01758109,
                0.13793810,     -0.01896390,      0.02429293,      0.03797073,
                0.03014910,      0.05677477,     -0.02508551,      0.05595395,
                0.11331683,     -0.07338112,     -0.00237787,      0.04558373,
               -0.01564678,     -0.05140248,      0.09640662,      0.01592697,
               -0.09824750,      0.00764000,      0.03553771,      0.08680228,
                0.05884792,      0.10096002,     -0.02366173,      0.07222083,
                0.05582388,     -0.00574943,      0.00973316,      0.07224517,
               -0.16367832,     -0.01564597,      0.00189411,      0.07500614,
                0.05705369,     -0.01916481,     -0.00319444,     -0.02360892,
               -0.03860158,     -0.03596474,      0.08535134,      0.02022396,
               -0.00659316,      0.02009039,     -0.05982603,     -0.05254532,
                0.07406531,     -0.14856564,     -0.08814296,      0.07338836,
               -0.02162444,     -0.04267502,     -0.08693629,      0.07942105,
                0.07487091,      0.03635411,      0.02422477,      0.03860597,
                0.04707507,      0.06729896,      0.16753396,      0.01776537,
                0.01233400,     -0.00675145,     -0.15116470,     -0.05301146,
                0.01153938,      0.02430636,     -0.06913635,      0.04500642,
               -0.00288557,     -0.13991863,      0.05251979,     -0.02476393,
                0.04465707,      0.05366423,     -0.03391076,      0.02948251,
               -0.03792872,      0.04778399,     -0.00763657,      0.08276117,
                0.00382566,      0.04914407,      0.04433486,      0.01117862,
               -0.09529544,      0.19843075,     -0.23640555,     -0.11810163,
                0.11126567,      0.20913525,     -0.03440378,      0.00935795,
                0.02868354,      0.05519770,     -0.00229348,      0.01669856,
               -0.05072685,      0.08661784,     -0.08482431,      0.02762977,
                0.26852912,      0.04508801,     -0.09496980,      0.11894024,
               -0.15013158,      0.02971744,      0.01627311,     -0.15150784,
               -0.00863953,      0.01534010,      0.07753941,     -0.00348602,
               -0.09035376,      0.00457526,     -0.03337502,     -0.08748727,
                0.11775189,      0.00728797,      0.03600457,     -0.12365497,
               -0.02600988,     -0.09340133,      0.03965833,     -0.01862020,
                0.18525720,     -0.08780404,      0.01904286,      0.03983973,
               -0.04587126,     -0.12301178,     -0.05154982,     -0.02428187,
               -0.05655933,     -0.00702377,      0.04972186,     -0.04545922,
               -0.09128691,      0.41519222,      0.02756377,     -0.12816560,
               -0.16838954,      0.07175894,      0.06212455,      0.11187073,
               -0.13904813,     -0.07580647,      0.05296642,     -0.01959983,
                0.11560539,     -0.12104826,      0.14009617,     -0.08726472,
                0.03469053,      0.03707412,     -0.01012742,      0.01932065,
               -0.06178597,     -0.03323528,      0.08667919,     -0.32667041,
                0.19140802,     -0.16561101,     -0.10463388,     -0.06909591,
                0.08573955,      0.13396403,      0.00488857,      0.04519013,
               -0.04993191,      0.04277138,     -0.03151860,     -0.06059698,
               -0.08849666,     -0.02417579,     -0.00625408,      0.00169375,
               -0.01238697,     -0.11387483,     -0.02936170,     -0.06681295,
               -0.02755603,     -0.03386999,     -0.06023395,      0.07110643,
                0.04619306,      0.01292539,     -0.02468996,      0.07790131,
               -0.05475294,      0.01601269,     -0.05794175,      0.04120570,
                0.07030476,     -0.01619909,      0.03870287,      0.01417070,
               -0.03890242,      0.02268755,     -0.02945638,      0.06020970,
               -0.14683154,     -0.01568320,      0.10497569,      0.06007063,
                0.13878493,     -0.02776214,     -0.06853567,     -0.00122470,
               -0.00142811,      0.02514751,      0.24570686,      0.05138447,
               -0.07689791,      0.01851251,      0.04547827,      0.05143343,
               -0.07659530,     -0.24214955,      0.11347894,      0.01335474,
               -0.00346464,      0.01775395,      0.03955149,     -0.01044152,
               -0.12373061,      0.05218296,      0.02417592,     -0.02360093,
               -0.04170968,      0.16430767,     -0.00622499,      0.05648911,
               -0.14244290,      0.03450172,     -0.00794735,      0.17440142,
               -0.11634829,      0.10751139,     -0.03393117,      0.01518520,
               -0.01643787,     -0.00411782,      0.10285736,     -0.03217840,
                0.08780911,     -0.06443238,     -0.12420327,     -0.02501402,
               -0.07477640,      0.03510507,     -0.03748909,     -0.08741328,
               -0.05557532,      0.10455697,      0.03819364,     -0.09614973,
                0.00166158,      0.05907671,      0.01251550,     -0.01653387,
                0.04060578,      0.01221424,     -0.07611950,     -0.05285041,
                0.03088213,      0.01800332,     -0.02900074,      0.02454589,
               -0.03985552,     -0.00454374,      0.00052495,      0.06368802,
               -0.02831268,      0.00502396,      0.07007521,      0.01555954,
               -0.05533219,     -0.02824069,     -0.03319943,      0.02554459,
               -0.02601868,      0.02514771,     -0.04775609,      0.02613175,
               -0.02768104,      0.06684317,     -0.00586503,      0.05421694,
               -0.12083410,     -0.15263088,      0.02236150,     -0.05490809,
               -0.00048521,      0.04416733,     -0.02301688,      0.12888877,
               -0.03989428,      0.00303991,     -0.06890410,     -0.08390867,
               -0.04108337,      0.03731596,     -0.01018963,      0.12487427,
               -0.04071930,     -0.05287488,      0.09454849,     -0.04984443,
               -0.02215376,     -0.07266726,      0.04475908,     -0.08480895,
               -0.03806657,     -0.07234426,      0.06984179,      0.01934179,
               -0.02940921,     -0.11616423,     -0.06035284,     -0.04777975,
                0.13538589,      0.08926526,     -0.02508921,     -0.01422196,
               -0.00218046,      0.09746032,      0.03262219,     -0.02946648,
               -0.09281357,      0.06106271,     -0.04753930,     -0.03144062,
                0.04432635,      0.09809445,     -0.07371632,      0.00378925,
               -0.12073770,      0.05499233,     -0.00797400,     -0.07396097,
                0.01388014,     -0.14661765,      0.00572822,      0.08274340,
                0.05857105,      0.01720493,      0.03249752,     -0.07786837,
                0.07068465,      0.03054099,     -0.01843137,      0.03100418,
                0.01984336,     -0.00174307,      0.03244971,      0.03366385,
               -0.01211881,     -0.11721448,      0.02169677,      0.04214465,
                0.00738294,      0.06711555,      0.13637236,      0.03310574,
                0.21548170,      0.00155883,     -0.01286939,      0.05039167,
               -0.00769081,      0.03784029,     -0.00586904,     -0.05183292,
                0.09726921,      0.07863706,      0.03038139,      0.11455926,
               -0.01485244,     -0.02710575,      0.07255329,      0.01148619,
               -0.00161482,     -0.00772281,     -0.03441473,      0.03901108,
               -0.02836118,      0.02883332,      0.06219462,      0.15331741,
                0.02765178,      0.03161636,      0.02357900,     -0.06313813,
                0.01503008,      0.13483599,     -0.01740650,      0.16170231,
               -0.00248939,     -0.02728800,      0.16743776,     -0.01967281,
                0.01116264,      0.01978875,      0.01530512,     -0.05912000,
                0.10658907,     -0.00519275,     -0.08726615,     -0.03134793,
               -0.05214061,     -0.03205479,     -0.12339842,      0.00260073,
               -0.01214032,     -0.04465061,      0.13993110,     -0.15314619,
                0.12498848,      0.07733111,      0.22787766,     -0.04399090,
                0.04719172,      0.01293265,     -0.02959720,     -0.05359247,
                0.00728773,      0.02619187,     -0.05336000,     -0.04927768,
                0.15449627,     -0.00479114,      0.00460743,      0.05212266,
                0.24186386,      0.01130881,     -0.11529163,     -0.07725903,
               -0.05455171,      0.01454429,      0.02753518,      0.02089215,
                0.10622858,     -0.10336588,     -0.01342573,      0.01211748,
                0.06313223,      0.00471520,      0.14376064,      0.00157787,
                0.04745298,      0.05765712,     -0.01497505,      0.02711908,
               -0.04869977,     -0.00298825,      0.03919827,     -0.03424344,
                0.03492187,     -0.09320267,     -0.12720078,     -0.00127207,
               -0.03913541,     -0.00090444,      0.01067636,      0.07612769,
               -0.08853053,     -0.01693065,     -0.00820355,     -0.00556713,
                0.15046267,     -0.05691366,     -0.06410134,     -0.09723409,
               -0.03202862,     -0.03634809,      0.03211334,     -0.03678717,
                0.27400672,      0.05009935,     -0.00999789,     -0.06480049,
               -0.03946858,     -0.03621557,     -0.06491596,     -0.00893199,
               -0.08674765,      0.02195991,      0.01019520,      0.00484674,
               -0.00814248,     -0.06957890,     -0.00322462,     -0.04717162,
               -0.00759590,      0.03486490,      0.07238893,      0.07372650,
               -0.16922002,      0.00586063,      0.01182354,     -0.03757381,
                0.04264401,      0.09092256,      0.18764973,      0.09344995,
               -0.02579041,     -0.08882950,     -0.00378286,     -0.00944109,
               -0.16077307,      0.03342367,      0.02770826,      0.03590864,
                0.01954815,     -0.12418391,      0.08360873,     -0.01450615,
