
// weight for Depthwise layer has dimension of torch.Size( 1152, 1, 5, 5 )
const float MBConv6_12_depthwise_conv_conv2d_weights  [1152 * 1 * 5 * 5]  =
{
-0.06584900,     -0.01408813,      0.04459655,     -0.03211017,
               -0.06962482 ,
               -0.02569015,      0.05617136,      0.07906646,      0.06905322,
               -0.02974591 ,
                0.07277441,      0.08685049,      0.15672496,      0.10072738,
                0.08188885 ,
               -0.00674450,      0.03619226,      0.13701871,      0.02639381,
               -0.00507889 ,
               -0.04372013,      0.00450672,      0.07525191,      0.00271076,
               -0.03367796   ,


               -0.03033063,     -0.01391185,      0.02121528,     -0.01392877,
               -0.01958503 ,
                0.04576461,     -0.04187493,     -0.05923552,     -0.06383052,
                0.05585179 ,
                0.10629440,      0.12944895,     -0.45475352,      0.12871760,
                0.10377349 ,
                0.06732239,      0.02337311,     -0.14088598,      0.02876911,
                0.06484202 ,
                0.02976138,     -0.03331630,     -0.07717375,     -0.05303002,
                0.02498465   ,


                0.02698423,     -0.02097273,      0.09193803,     -0.01648311,
                0.01272020 ,
                0.00663360,     -0.01632022,      0.13520484,     -0.01512612,
                0.00675272 ,
                0.03161395,      0.08037129,      0.20949824,      0.09114213,
                0.04572397 ,
                0.05253668,     -0.00400448,      0.09224834,     -0.01228293,
                0.04050235 ,
               -0.00200441,      0.00567933,      0.15723436,      0.00673133,
                0.00710848   ,


                0.05634024,      0.01768800,      0.07491565,      0.03209592,
                0.07478153 ,
                0.00808458,      0.01748786,      0.05300907,      0.00966998,
               -0.01215629 ,
                0.07756732,      0.06757265,      0.19006248,      0.06488384,
                0.06400938 ,
                0.01582792,      0.02370755,      0.08266378,      0.02167156,
                0.01541582 ,
                0.05345045,      0.03756513,      0.04034162,      0.03210098,
                0.05552933   ,


               -0.01840039,      0.00017122,      0.00830264,      0.02530157,
                0.04330314 ,
               -0.06222999,     -0.05263973,     -0.02993151,      0.04322682,
                0.04559091 ,
               -0.14543785,     -0.12990116,     -0.10401823,      0.17673986,
                0.13477725 ,
               -0.04573801,     -0.04632517,     -0.00229562,      0.06136103,
                0.01826421 ,
               -0.06542181,     -0.04127247,     -0.02528107,      0.05872865,
                0.04556293   ,


                0.03173612,     -0.03690078,      0.03972241,     -0.00980863,
                0.03682071 ,
                0.11503620,      0.04797136,      0.01735651,      0.05069325,
                0.09544447 ,
                0.14021747,      0.08461890,     -0.19170797,      0.09096772,
                0.14532603 ,
                0.01168254,      0.11009206,      0.11262763,      0.08817146,
                0.01635053 ,
                0.01592747,     -0.04356095,      0.11335725,     -0.02327503,
                0.01976514   ,


               -0.03779695,     -0.07069891,     -0.15298408,     -0.06862152,
               -0.04462183 ,
               -0.06140501,     -0.06274693,     -0.10969753,     -0.06166626,
               -0.05758595 ,
               -0.05017917,     -0.08960996,     -0.14013849,     -0.07736760,
               -0.05818507 ,
                0.01308647,     -0.01197553,     -0.05030735,     -0.01217530,
               -0.00229983 ,
               -0.03677387,     -0.00074408,     -0.01644406,     -0.01186424,
               -0.03116046   ,


                0.02489907,      0.05710918,     -0.06368176,     -0.02299945,
               -0.03068870 ,
                0.00510476,      0.07237360,     -0.10610405,     -0.03002477,
               -0.01251801 ,
                0.13481537,      0.25998229,     -0.10517452,     -0.17621534,
               -0.10533902 ,
                0.02371931,      0.04132714,     -0.03865688,     -0.03894379,
               -0.01353883 ,
                0.05943627,      0.02947832,     -0.05146023,     -0.03151386,
                0.00217651   ,


               -0.03391058,     -0.02066929,     -0.02813354,     -0.01560452,
               -0.02821499 ,
               -0.05672061,     -0.01037214,     -0.05589576,      0.00369222,
               -0.05258796 ,
               -0.07262798,     -0.07616966,     -0.23806673,     -0.07718515,
               -0.07206382 ,
               -0.04360953,     -0.00453694,     -0.09184542,      0.00693079,
               -0.05194757 ,
                0.00500539,     -0.02096116,     -0.01984319,     -0.00244394,
               -0.01079664   ,


                0.07883480,      0.05165225,      0.05639869,      0.05429352,
                0.06440215 ,
                0.03867211,      0.02425430,     -0.00535381,      0.01994982,
                0.05607695 ,
                0.06569953,      0.06523563,      0.10602483,      0.05041878,
                0.06016772 ,
                0.04854104,      0.01521838,      0.08231145,      0.01837311,
                0.03774134 ,
                0.04769576,      0.05299487,      0.08808149,      0.04405317,
                0.05299934   ,


                0.01082813,      0.00156541,      0.06724543,     -0.02215058,
                0.01821207 ,
                0.01333633,     -0.01792623,      0.01196962,     -0.02588087,
                0.01384880 ,
               -0.06991912,     -0.11354528,     -0.13890496,     -0.10433164,
               -0.07490207 ,
               -0.04348867,     -0.03869233,     -0.08223294,     -0.02062860,
               -0.03410732 ,
               -0.08204032,     -0.04180335,     -0.11849577,     -0.04256788,
               -0.08611334   ,


                0.00950962,      0.01732169,     -0.07284356,     -0.00010667,
               -0.01373433 ,
               -0.01651101,      0.06796716,     -0.08273499,     -0.04970321,
               -0.03098033 ,
                0.14643116,      0.20523302,     -0.09837732,     -0.13925456,
               -0.13364775 ,
                0.03816521,     -0.00447025,     -0.08930930,     -0.02357333,
               -0.03617842 ,
                0.02276226,      0.04716968,     -0.06167583,     -0.04044350,
               -0.04123760   ,


                0.04316127,     -0.00669440,     -0.00467836,     -0.00194139,
                0.04428503 ,
                0.05755182,      0.02274340,      0.05762465,      0.01568224,
                0.04656375 ,
                0.03895729,      0.07955833,      0.27590701,      0.09243958,
                0.03445563 ,
               -0.03994786,      0.01650556,      0.11276677,     -0.00896238,
               -0.04142237 ,
                0.00947306,     -0.00987782,      0.04387864,      0.02175342,
               -0.00819254   ,


               -0.00355748,     -0.00537508,      0.01314561,     -0.00883247,
               -0.01029508 ,
                0.01530313,      0.00845518,      0.04884076,     -0.00337377,
                0.01153234 ,
                0.04392908,      0.05244027,      0.34480360,      0.07068099,
                0.02809373 ,
               -0.00306942,      0.00050120,      0.05487617,     -0.00625011,
                0.00388921 ,
                0.01792871,      0.04125377,      0.07864857,      0.00843874,
                0.01065873   ,


               -0.00105467,     -0.05086813,     -0.04679834,     -0.05372704,
               -0.01629021 ,
                0.06478475,     -0.00358070,     -0.13678309,      0.02056574,
                0.07210102 ,
                0.22978514,      0.07907715,     -0.35403067,      0.06934153,
                0.21396410 ,
                0.03593743,     -0.08404072,     -0.12908496,     -0.05317575,
                0.03699021 ,
               -0.01169259,      0.00645742,      0.03608515,     -0.00598202,
               -0.01816749   ,


               -0.05477372,     -0.04186947,     -0.07552413,     -0.04609415,
               -0.04957609 ,
               -0.01434968,     -0.01825341,     -0.02425383,     -0.01540915,
               -0.01277095 ,
               -0.04621922,     -0.02490368,     -0.05827349,     -0.02837680,
               -0.05452826 ,
               -0.05201947,     -0.02664458,     -0.03913464,     -0.02497713,
               -0.04475404 ,
               -0.08569022,     -0.04798614,     -0.05640466,     -0.03407635,
               -0.09650605   ,


                0.02660595,     -0.01226492,      0.01122504,     -0.02484534,
                0.01794906 ,
                0.02231213,     -0.03452446,     -0.10534375,     -0.04379369,
                0.04441272 ,
                0.14405113,      0.08673263,      0.07113194,      0.09133314,
                0.12926254 ,
                0.01606498,     -0.01129935,      0.12134213,     -0.01125676,
                0.02171553 ,
                0.04861066,      0.05450537,      0.12703337,      0.05201090,
                0.04079082   ,


               -0.03221605,     -0.04296189,     -0.03420280,     -0.02548143,
               -0.02715639 ,
                0.01190962,     -0.05790935,     -0.02305196,     -0.07235326,
                0.00683809 ,
                0.07649077,      0.05654882,      0.22876824,      0.04091731,
                0.07681549 ,
                0.03096712,      0.03452782,      0.08677597,      0.04984428,
                0.03446276 ,
                0.02781613,     -0.00160602,      0.04440190,     -0.01742415,
                0.01728762   ,


               -0.07422318,     -0.03425464,      0.05438538,     -0.02464297,
               -0.08437610 ,
               -0.00837910,      0.02620034,      0.09588670,      0.02563166,
               -0.00638840 ,
                0.03489971,      0.08404893,      0.24511988,      0.08168188,
                0.04452684 ,
                0.03836457,      0.03970150,      0.09659407,      0.03489510,
                0.02699996 ,
               -0.00993667,      0.03656663,      0.08534043,      0.04115780,
               -0.00392554   ,


                0.04480833,      0.05025495,      0.36090490,      0.08554758,
                0.04191172 ,
               -0.04272722,     -0.05847934,     -0.03442553,     -0.08068251,
               -0.05401315 ,
               -0.04763289,     -0.09359789,     -0.21596025,     -0.08993246,
               -0.03774615 ,
               -0.00119883,     -0.00871970,      0.00160631,     -0.01307606,
               -0.01100567 ,
                0.00596804,     -0.00149824,      0.07566620,     -0.01954831,
                0.00965222   ,


               -0.07457266,     -0.00651505,     -0.06068072,     -0.02788976,
               -0.04918474 ,
               -0.04505784,      0.00228450,      0.03786030,      0.01520032,
               -0.05955351 ,
               -0.05705468,      0.05219454,      0.35946727,      0.04591690,
               -0.05564039 ,
               -0.03848941,      0.00565812,      0.05750812,     -0.00520273,
               -0.00921763 ,
               -0.02531633,     -0.04236361,     -0.04337370,     -0.03393514,
               -0.03947884   ,


                0.03590864,     -0.00263349,      0.04195084,     -0.01347088,
                0.05071909 ,
                0.03804581,      0.01847401,      0.12447938,      0.01581302,
                0.03607001 ,
                0.05014231,      0.06760505,      0.25072405,      0.05847717,
                0.06167261 ,
               -0.00689790,      0.02445518,      0.02042469,      0.02174434,
                0.00721219 ,
                0.02233981,      0.02098980,      0.05006436,      0.01664938,
                0.00172759   ,


               -0.03457569,     -0.01196113,      0.01274167,     -0.00009214,
               -0.00303921 ,
                0.01805602,     -0.00057792,     -0.00925182,     -0.00666693,
               -0.01128711 ,
                0.12272532,      0.11602535,      0.01613248,      0.14540969,
                0.12932667 ,
                0.04070536,      0.08003514,      0.13439538,      0.05696096,
                0.04224350 ,
                0.02987124,      0.01946773,      0.07808785,      0.05191696,
                0.02214363   ,


               -0.05725976,     -0.02607036,     -0.04354529,      0.00780409,
                0.04883892 ,
               -0.06240007,     -0.06048046,     -0.01771620,      0.05471262,
                0.04597697 ,
               -0.13893905,     -0.10358937,     -0.11614949,      0.15741377,
                0.11730392 ,
               -0.04766034,     -0.06264503,      0.00186631,      0.04870132,
                0.01910984 ,
               -0.06473052,     -0.05337520,     -0.03010322,      0.01989131,
                0.05075008   ,


                0.00170524,     -0.01156740,      0.02779294,      0.00442261,
               -0.01716441 ,
                0.01729314,      0.03884690,      0.21970780,      0.03892856,
                0.02317619 ,
               -0.00282396,      0.04577007,      0.16893531,      0.03935542,
                0.01005479 ,
                0.01851321,     -0.00614323,     -0.05515473,      0.02699928,
                0.01183938 ,
                0.04325012,      0.02262140,     -0.02397058,      0.02067017,
                0.02716335   ,


                0.03801412,      0.01667709,      0.00202024,      0.00707107,
                0.02736159 ,
                0.02091796,      0.00839131,      0.09905203,      0.00789308,
                0.03136452 ,
                0.03510928,      0.10019816,      0.30372143,      0.09856368,
                0.03149350 ,
                0.01515174,     -0.02189464,      0.12145614,     -0.00655343,
                0.00954669 ,
                0.02172684,      0.00153089,      0.04809859,     -0.00005256,
                0.01086087   ,


                0.04770643,      0.01850723,     -0.01926946,     -0.00329817,
               -0.05124379 ,
                0.03004407,      0.06825932,     -0.03620536,     -0.03758888,
               -0.05369749 ,
                0.15466842,      0.17671274,     -0.05501541,     -0.15690731,
               -0.19233118 ,
                0.04267939,      0.04449933,     -0.00251668,     -0.04763402,
               -0.05685639 ,
                0.04506828,     -0.00925850,     -0.02343341,      0.01480510,
               -0.04666841   ,


               -0.03080121,     -0.02207786,     -0.06117820,     -0.02391324,
               -0.01343365 ,
               -0.04774828,     -0.05800333,     -0.06396642,     -0.05271012,
               -0.02883364 ,
               -0.00049807,     -0.02123298,      0.00471616,     -0.02611905,
                0.01044372 ,
                0.03697179,      0.04098463,      0.16769671,      0.04414936,
                0.02809766 ,
                0.06197170,      0.05875510,      0.14872397,      0.06847107,
                0.06625780   ,


               -0.01642339,     -0.03716204,     -0.01786663,      0.03457136,
                0.05101804 ,
               -0.01253432,     -0.03244639,      0.01436533,      0.03938986,
               -0.00491355 ,
               -0.11554562,     -0.16034636,     -0.08446174,      0.19108440,
                0.13224509 ,
               -0.04248739,     -0.06082862,     -0.05317024,      0.02871829,
                0.02825874 ,
               -0.05191958,     -0.03749216,     -0.01473423,      0.04991388,
                0.06856191   ,


                0.09594977,      0.06583057,      0.19812539,      0.04729651,
                0.10050015 ,
                0.05680712,      0.04258044,      0.13220240,      0.04285545,
                0.05205073 ,
                0.07531956,      0.02793358,      0.06561029,      0.03234849,
                0.05272675 ,
               -0.00265405,      0.00240679,      0.02352974,     -0.00396857,
                0.01746701 ,
               -0.01368670,      0.01507454,     -0.01452147,     -0.01550411,
                0.03307976   ,


                0.04074213,     -0.00572227,     -0.02180547,     -0.00787420,
                0.02710606 ,
                0.03422678,      0.02530419,      0.03135078,      0.02212584,
                0.04032505 ,
                0.04833972,      0.08429097,      0.23773898,      0.08696874,
                0.04199654 ,
                0.04812594,      0.01558490,      0.01099029,      0.01234090,
                0.03250149 ,
               -0.00562808,     -0.02606121,     -0.05780027,     -0.02833113,
                0.00578304   ,


                0.01337580,      0.01134411,     -0.00581271,      0.01127594,
               -0.00422433 ,
               -0.00771000,      0.03948767,      0.06788959,      0.04791150,
                0.01154871 ,
               -0.01665391,     -0.01553087,      0.38631901,     -0.03227566,
               -0.01779476 ,
               -0.01315755,     -0.06770894,     -0.07153969,     -0.04876317,
               -0.02280841 ,
               -0.03508440,     -0.03360798,     -0.02933218,     -0.03684417,
               -0.02907814   ,


                0.00970356,      0.03226589,      0.07672358,      0.04868156,
                0.01742481 ,
                0.05258162,      0.04078299,     -0.00398693,      0.05161108,
                0.03275851 ,
                0.11380469,      0.07818042,     -0.13712764,      0.06034613,
                0.12805223 ,
                0.05143261,      0.09637830,      0.08109613,      0.09549091,
                0.02958356 ,
                0.04174251,      0.05535417,      0.09301551,      0.07810377,
                0.04338549   ,


                0.00949369,      0.00179101,      0.07396638,      0.01486814,
                0.01181371 ,
                0.03908685,      0.01600087,      0.06051829,      0.02738724,
                0.02424744 ,
                0.07796906,      0.08594261,      0.05774092,      0.08318799,
                0.08069285 ,
                0.02604707,      0.02227988,      0.08419377,      0.04768233,
                0.01328957 ,
                0.03839561,      0.02689140,      0.05641830,      0.03481926,
                0.01674166   ,


                0.00930275,      0.03385493,     -0.06092999,     -0.01552647,
               -0.02088956 ,
                0.01484388,      0.05538056,     -0.02435799,     -0.02773103,
               -0.03825111 ,
                0.16530892,      0.14598297,     -0.06454603,     -0.14613974,
               -0.23334843 ,
                0.02373306,      0.08134069,     -0.03557296,     -0.03472319,
               -0.03504018 ,
                0.04877187,      0.04801944,     -0.05739289,     -0.04736590,
               -0.04994876   ,


                0.07296840,      0.01876469,      0.01778221,     -0.05779641,
               -0.06096619 ,
                0.03145576,      0.08106175,      0.04948504,     -0.11586128,
               -0.06102780 ,
                0.11632887,      0.16634068,      0.02179794,     -0.14723513,
               -0.09386490 ,
               -0.00390273,      0.00646737,      0.00535560,     -0.02580650,
               -0.02066398 ,
                0.04939505,      0.02472718,     -0.00977649,     -0.01680848,
               -0.05103023   ,


                0.00249179,      0.02378534,      0.06984699,      0.03444939,
               -0.00854470 ,
               -0.03493203,     -0.00999411,      0.06017171,     -0.00532830,
               -0.02530147 ,
               -0.05179835,      0.02433006,      0.26709571,      0.02279485,
               -0.04436718 ,
               -0.00609518,      0.01507969,      0.11179475,      0.01372442,
               -0.00341419 ,
                0.03776917,      0.02092904,      0.08907884,      0.02105208,
                0.04350331   ,


                0.07398015,      0.04761788,     -0.07620985,      0.04075821,
                0.08670537 ,
                0.05369461,      0.03137174,     -0.00344800,      0.04658603,
                0.04233755 ,
                0.12044664,      0.04526762,      0.11780257,      0.03493600,
                0.10124683 ,
                0.04326310,      0.02848660,      0.08595716,      0.03237898,
                0.03174165 ,
                0.01174964,      0.04057004,      0.02499313,      0.02831212,
                0.03225548   ,


                0.02151397,      0.03433160,      0.09073512,      0.05195634,
                0.00796243 ,
                0.01958366,      0.03937411,      0.03229415,      0.03642953,
                0.02890630 ,
                0.07413645,      0.10531713,      0.12499698,      0.08286074,
                0.08349168 ,
               -0.04303892,      0.03628178,      0.12323361,      0.03346454,
               -0.03962729 ,
                0.00420994,     -0.02251405,      0.05506968,     -0.02145308,
                0.00848366   ,


               -0.02990793,      0.00958848,      0.00180515,     -0.00014119,
               -0.02610741 ,
               -0.00182444,      0.01219623,      0.06561422,      0.00214494,
                0.00991935 ,
                0.05385859,      0.05259745,      0.30746445,      0.04765220,
                0.04852755 ,
                0.03605213,     -0.03720058,      0.03411990,     -0.01414193,
                0.03387487 ,
                0.00647019,     -0.00740192,      0.04150762,     -0.00131327,
               -0.00681789   ,


                0.00963986,     -0.03915232,      0.00736266,      0.01899259,
                0.00500759 ,
                0.03671800,      0.00549491,      0.07606936,     -0.00381824,
                0.05325143 ,
                0.09237256,      0.07076838,      0.26611766,      0.06020850,
                0.09534705 ,
                0.01079706,     -0.02203711,      0.01913244,     -0.01738796,
                0.01957801 ,
               -0.03202467,      0.00023391,     -0.02205437,      0.00141526,
               -0.03040219   ,


                0.02196107,     -0.00594097,      0.01037822,     -0.02115675,
                0.02831749 ,
                0.02583723,     -0.08311487,     -0.11022642,     -0.08489871,
                0.01385065 ,
                0.14457545,      0.10062899,     -0.11915357,      0.10845185,
                0.13674243 ,
                0.02789712,      0.11387889,      0.10228828,      0.10095011,
                0.03083957 ,
               -0.03674284,      0.01654973,      0.06221429,     -0.01556435,
               -0.01336332   ,


                0.00538508,      0.02855427,      0.08482048,      0.01788837,
                0.01749375 ,
                0.02725728,      0.02929780,      0.11349860,      0.03679730,
                0.02693108 ,
                0.03408473,      0.10810985,      0.15445885,      0.09626043,
                0.03677203 ,
                0.01117974,      0.03667491,      0.10751484,      0.04769342,
                0.01055976 ,
                0.00311382,      0.02233186,      0.02305979,      0.01145804,
                0.01319876   ,


                0.02351875,      0.00652089,     -0.11037424,      0.01107503,
                0.02488869 ,
                0.01413078,      0.02353803,     -0.21074881,      0.04008689,
                0.01464058 ,
                0.14180113,      0.15891159,     -0.34185088,      0.15183319,
                0.13780822 ,
                0.01641857,      0.03947039,     -0.16814847,      0.03268763,
                0.02018108 ,
                0.03759320,      0.05473461,     -0.05499078,      0.04870180,
                0.03909209   ,


                0.07754033,      0.03983912,      0.03832849,     -0.07684007,
               -0.05578160 ,
                0.02791729,      0.03691182,     -0.04783578,     -0.08912516,
               -0.04359982 ,
                0.13082862,      0.15379284,      0.00422089,     -0.14761572,
               -0.10955928 ,
                0.01641084,      0.05756842,     -0.01503653,     -0.08391173,
               -0.06351885 ,
                0.07975522,      0.02625656,      0.02139754,     -0.04872647,
               -0.04686745   ,


               -0.03021036,      0.02525104,      0.01951292,      0.00870838,
               -0.01677849 ,
                0.02952849,     -0.00762346,      0.07923515,      0.01277446,
                0.02178579 ,
                0.01403822,      0.07327016,      0.22513124,      0.06646387,
                0.01313725 ,
                0.02331733,     -0.00634444,      0.07587846,      0.00331470,
                0.03283522 ,
               -0.02449400,      0.00096536,     -0.02530034,     -0.00228388,
               -0.00487848   ,


                0.09201241,      0.00581455,     -0.02216139,      0.00573020,
                0.08180569 ,
                0.03694892,     -0.02555935,     -0.03757906,     -0.02665307,
                0.01748754 ,
                0.07441418,      0.09695187,     -0.09406462,      0.09800818,
                0.07964949 ,
                0.02216294,      0.05470371,      0.13246082,      0.06310113,
                0.01888493 ,
                0.02231205,      0.05067462,      0.12044456,      0.04101063,
                0.01818285   ,


               -0.01144489,     -0.06791286,     -0.49255058,     -0.06590275,
               -0.02066751 ,
                0.02275536,      0.03353830,      0.06739034,      0.04344779,
                0.01277562 ,
                0.07556063,      0.13841611,      0.32812908,      0.14217563,
                0.07846364 ,
                0.00100438,      0.01487268,      0.01172001,      0.00138322,
                0.00073380 ,
               -0.02159356,      0.03370615,     -0.06479514,      0.02759091,
               -0.00021336   ,


               -0.02881110,     -0.01128603,      0.10417134,     -0.00638130,
               -0.02017585 ,
               -0.00200257,      0.04322379,      0.22886920,      0.02977779,
               -0.01269644 ,
               -0.00985571,      0.02927118,      0.14660798,      0.05438229,
               -0.01335612 ,
               -0.03415525,     -0.06018545,     -0.00186584,     -0.05087335,
               -0.03972084 ,
                0.00252554,     -0.02368465,      0.04700482,     -0.02975474,
               -0.00280722   ,


                0.03454798,     -0.00294008,      0.10956758,     -0.00317747,
                0.03258131 ,
                0.04798574,      0.00758949,      0.11032188,      0.01031848,
                0.05982004 ,
                0.09634475,      0.07846095,      0.09965312,      0.06578647,
                0.09079557 ,
                0.00028121,      0.00872986,      0.06408815,      0.00808077,
                0.01051451 ,
                0.04013762,     -0.00038381,      0.06747667,      0.01167504,
                0.04431209   ,


               -0.05084649,     -0.00152257,     -0.07825381,     -0.01454349,
               -0.04576340 ,
                0.02036157,     -0.02183205,      0.04825361,     -0.04102561,
                0.02662936 ,
               -0.05176183,      0.06603702,      0.39082193,      0.06591412,
               -0.04993322 ,
               -0.00303632,     -0.03219681,      0.08433239,     -0.01152531,
               -0.01999314 ,
               -0.02602995,     -0.01778394,     -0.05216363,     -0.02089882,
               -0.01884424   ,


               -0.01217423,     -0.02469611,     -0.04545167,     -0.01716795,
               -0.03364835 ,
               -0.03388212,     -0.12689659,     -0.25963926,     -0.11471596,
               -0.04156399 ,
               -0.00248676,      0.08600297,      0.17535239,      0.07703038,
                0.00622639 ,
                0.01293387,      0.00467750,      0.10987215,      0.01635355,
                0.01658452 ,
                0.06224351,      0.03851743,      0.12658495,      0.03493525,
                0.08190405   ,


                0.02597839,      0.00795747,     -0.26293230,      0.00681144,
                0.02651942 ,
               -0.00303540,      0.05520336,     -0.09407085,      0.03254198,
                0.01270960 ,
                0.04953056,      0.06705274,     -0.28087226,      0.07877315,
                0.04102511 ,
               -0.00196676,      0.07339882,     -0.10978945,      0.06823431,
                0.00975045 ,
                0.05794713,      0.04428548,     -0.28635034,      0.03215040,
                0.05102462   ,


                0.05913912,      0.00143817,      0.19599371,      0.00991660,
                0.05901562 ,
                0.05295118,      0.06397004,      0.14140823,      0.05855677,
                0.05256575 ,
                0.04288924,      0.00114983,     -0.23131168,     -0.01393327,
                0.04319735 ,
               -0.04693764,     -0.00305165,     -0.03357007,      0.00590835,
               -0.05264557 ,
               -0.06710346,     -0.04806568,     -0.09250053,     -0.05522299,
               -0.06787843   ,


                0.06287336,      0.01736257,      0.19110414,      0.01460946,
                0.05699592 ,
                0.06288675,      0.05051556,      0.19726905,      0.04845339,
                0.06375957 ,
               -0.04018610,     -0.04828032,     -0.02233469,     -0.04994242,
               -0.02989532 ,
               -0.02739707,     -0.01404581,     -0.04071429,      0.00017606,
               -0.04176939 ,
               -0.09315405,     -0.07535753,     -0.12206640,     -0.05232177,
               -0.11279296   ,


                0.00170553,      0.01227913,      0.10980640,      0.02825053,
               -0.02188611 ,
                0.07040140,      0.02162640,      0.05334633,      0.03097243,
                0.05696862 ,
                0.07741518,      0.09955473,      0.13283592,      0.10386891,
                0.08546217 ,
                0.01525012,      0.02188283,      0.09364701,      0.03790287,
                0.00256257 ,
                0.05610148,      0.02633640,      0.02339190,      0.01692154,
                0.04648306   ,


                0.02365774,     -0.00716407,      0.06438269,      0.01386116,
                0.03799476 ,
                0.03516747,      0.01473232,      0.15176098,      0.02431031,
                0.01111650 ,
                0.04797952,      0.04762364,      0.16981107,      0.04461435,
                0.03764939 ,
                0.02530984,     -0.02964888,      0.09127574,      0.01276188,
                0.00206035 ,
                0.04279151,      0.02620541,      0.08175414,      0.04060330,
                0.02748471   ,


                0.03261695,      0.03594376,      0.02990264,      0.00785621,
                0.02605452 ,
                0.03917902,      0.01358928,      0.02578439,      0.00803091,
                0.03524576 ,
                0.03182003,      0.03819116,      0.24407683,      0.03825523,
                0.02815000 ,
                0.02600074,      0.02134363,      0.07671563,      0.01846395,
                0.03432667 ,
                0.04342642,      0.00278291,      0.02224241,      0.03033508,
                0.03592714   ,


               -0.04782576,     -0.00158402,     -0.03583131,      0.01542682,
               -0.04421665 ,
                0.00335462,     -0.03388214,      0.06497127,     -0.03339755,
               -0.00666029 ,
               -0.01074243,      0.03849124,      0.44819772,      0.05487261,
               -0.01129410 ,
               -0.02338586,      0.00880799,      0.14486310,      0.01413920,
               -0.02195925 ,
               -0.01955560,      0.01198200,     -0.03328890,     -0.00203539,
               -0.00517088   ,


               -0.04844992,     -0.00424690,     -0.08968078,     -0.01660438,
               -0.06470517 ,
               -0.05184716,     -0.06362960,     -0.10258417,     -0.06096889,
               -0.04728602 ,
                0.02242126,     -0.01840429,      0.03638312,      0.01217908,
                0.01584226 ,
                0.05244214,      0.05402438,      0.19157137,      0.04670373,
                0.04404197 ,
                0.05726423,      0.03478204,      0.17816617,      0.02918421,
                0.06852193   ,


                0.08634902,     -0.00128635,      0.11472259,     -0.00824197,
                0.08722769 ,
                0.06239136,      0.08517822,      0.22011393,      0.08142653,
                0.04843764 ,
               -0.07356074,     -0.07797579,     -0.19816691,     -0.05292523,
               -0.07925570 ,
               -0.03751782,     -0.03085446,     -0.16005681,     -0.05043507,
               -0.02293157 ,
               -0.02656733,     -0.00249546,     -0.11021335,     -0.01308896,
               -0.04221104   ,


                0.04735672,     -0.01110996,     -0.12611310,     -0.01907638,
                0.05648447 ,
               -0.01038949,     -0.06826089,     -0.16100264,     -0.07747945,
               -0.01059198 ,
                0.05075002,      0.15691926,     -0.12345547,      0.15259954,
                0.06388246 ,
               -0.04943220,      0.05160118,      0.18006356,      0.05302638,
               -0.04297658 ,
                0.03629262,      0.01629518,      0.10442673,      0.02849860,
                0.02728665   ,


               -0.05180821,     -0.00398199,     -0.00256572,     -0.01372016,
               -0.04564908 ,
               -0.04281911,     -0.00029616,     -0.00455262,      0.01241676,
               -0.05651851 ,
                0.00744915,     -0.00222014,     -0.06695095,     -0.00299707,
               -0.01312820 ,
                0.11577211,      0.04739936,      0.12718120,      0.04738465,
                0.11127522 ,
                0.06593610,      0.03261921,      0.16577117,      0.04605918,
                0.06885301   ,


               -0.00186360,     -0.01664776,     -0.05588153,     -0.02145825,
                0.00014258 ,
               -0.00371763,     -0.00632433,      0.01023013,     -0.00313623,
               -0.00929792 ,
               -0.01189967,      0.00687907,      0.44255772,      0.02714656,
               -0.03250255 ,
               -0.02637280,      0.00412367,      0.04334071,     -0.00079541,
               -0.02755770 ,
               -0.00347362,     -0.01073343,     -0.05207069,      0.00188189,
               -0.01472207   ,


               -0.04840112,     -0.04167894,     -0.06990952,     -0.03892840,
               -0.04905298 ,
               -0.04817528,     -0.01691509,     -0.03490423,     -0.00909882,
               -0.05703196 ,
               -0.06460340,     -0.02998713,     -0.05316515,     -0.02695889,
               -0.06558970 ,
               -0.04089939,     -0.01506956,     -0.03050197,     -0.02166732,
               -0.04308867 ,
               -0.05547681,     -0.04542561,     -0.05688441,     -0.04466584,
               -0.04379711   ,


                0.00918686,     -0.04868288,      0.05148276,     -0.02290345,
                0.01249352 ,
                0.02952236,      0.02025569,      0.10268556,      0.00408642,
                0.03892075 ,
                0.06481382,      0.08992931,      0.19192892,      0.09250767,
                0.05848583 ,
               -0.02139182,     -0.00270489,      0.12367354,      0.01737745,
               -0.01227465 ,
               -0.00514587,      0.00819518,      0.05749869,      0.01214493,
               -0.01871724   ,


                0.04479341,      0.06611188,      0.12172224,      0.04988790,
                0.04260603 ,
               -0.01141034,      0.07157828,      0.17911969,      0.07327154,
                0.01111084 ,
                0.09116888,      0.03422703,     -0.04438663,      0.02468815,
                0.07334861 ,
                0.01870473,     -0.06048832,     -0.02474719,     -0.05269818,
               -0.00425947 ,
                0.01931398,     -0.00093947,      0.05229366,      0.02700802,
                0.00055132   ,


                0.01972169,      0.02292160,      0.06220439,      0.02199990,
                0.03436374 ,
                0.02669843,      0.02335538,      0.04976692,     -0.00398244,
                0.03294303 ,
                0.04799268,      0.06725994,      0.24461895,      0.06835572,
                0.05146152 ,
                0.01257953,      0.00802919,      0.20112078,      0.01333235,
                0.01376262 ,
               -0.01892788,     -0.00749846,      0.00801605,     -0.00484312,
               -0.02130303   ,


               -0.02174963,      0.00524359,      0.07397538,     -0.02473883,
               -0.01194549 ,
                0.01799731,     -0.01690252,      0.05666987,     -0.01185369,
                0.00591278 ,
                0.07323887,      0.07840857,      0.22972015,      0.07237627,
                0.09714830 ,
                0.03952925,      0.00116883,      0.04295893,     -0.00197975,
                0.02360383 ,
               -0.03314731,     -0.00930789,      0.07493460,     -0.01562227,
               -0.00999658   ,


               -0.00371539,     -0.04236254,      0.06701709,     -0.01428221,
                0.03271310 ,
               -0.04729497,     -0.09273422,      0.04012181,      0.04850343,
                0.04601859 ,
               -0.13292329,     -0.14945106,      0.02569870,      0.13850935,
                0.13043064 ,
               -0.06592344,     -0.07190021,      0.04329496,      0.04794292,
                0.04310441 ,
               -0.03988508,     -0.01414108,      0.09076361,      0.01703592,
                0.04614415   ,


                0.03162184,      0.00790676,      0.06619729,      0.01664968,
                0.02708917 ,
                0.02553980,      0.01374602,      0.02229074,      0.01039492,
                0.05688234 ,
                0.05837892,      0.06278744,      0.20052266,      0.05158578,
                0.06265827 ,
               -0.01159524,      0.02177276,      0.12695347,      0.02397836,
               -0.01483594 ,
                0.06131259,      0.01218962,      0.06624438,      0.01114055,
                0.06768606   ,


                0.03125542,      0.00946790,      0.08775093,      0.00067890,
                0.03214628 ,
                0.04245134,     -0.00462560,      0.04428045,      0.00234282,
                0.05963350 ,
                0.09156480,      0.07033812,      0.10962132,      0.05465583,
                0.07844811 ,
               -0.00103692,      0.00205268,      0.04150477,      0.02796888,
                0.00105377 ,
                0.00457612,      0.02127326,      0.10774828,      0.03450000,
                0.00577995   ,


               -0.04537366,     -0.00618811,      0.01431546,      0.02362666,
                0.04379562 ,
               -0.06105676,     -0.04643476,      0.00440670,      0.02604258,
                0.03622939 ,
               -0.22008944,     -0.14721724,      0.04384461,      0.11307820,
                0.18872659 ,
               -0.05216067,     -0.04102468,      0.03565655,      0.02201731,
                0.03448509 ,
               -0.06734122,     -0.04147981,      0.01426442,      0.03436712,
                0.05064795   ,


                0.05349299,      0.03065270,      0.06632349,      0.02225831,
                0.05389920 ,
                0.02123646,      0.01379043,      0.06928425,      0.01647117,
                0.02786265 ,
                0.05932930,      0.07034943,      0.09637401,      0.05789868,
                0.07005440 ,
                0.00461584,      0.00949672,      0.08981799,      0.00970385,
                0.00615047 ,
                0.04768817,      0.03345371,      0.10854473,      0.02521523,
                0.05239052   ,


                0.05279934,      0.01882543,      0.08831334,      0.02416456,
                0.06437811 ,
                0.03552176,      0.01209471,      0.04473235,      0.01451458,
                0.03309418 ,
                0.10721678,      0.07151133,      0.07343890,      0.06357722,
                0.10512157 ,
                0.03157426,      0.02299510,      0.07690522,      0.01258831,
                0.03083010 ,
                0.06825107,      0.02570300,      0.07731248,      0.02890151,
                0.07369811   ,


                0.01481490,     -0.01816475,     -0.04866141,     -0.02305100,
               -0.00534566 ,
               -0.03656519,     -0.02003957,     -0.02698113,     -0.02826532,
               -0.02322649 ,
               -0.00311707,      0.02055514,      0.42119893,      0.02476230,
               -0.00514504 ,
                0.00467390,     -0.00454641,      0.02987171,     -0.00231325,
               -0.00230167 ,
                0.03546569,      0.00833594,     -0.07427560,     -0.00265562,
                0.04598498   ,


                0.05538989,      0.00863910,      0.11719153,     -0.00936063,
                0.06152657 ,
                0.06901528,      0.07722474,      0.21529956,      0.06732037,
                0.08702880 ,
                0.03182151,     -0.01378508,     -0.15514082,     -0.02061469,
                0.02677299 ,
               -0.03237554,     -0.08016043,     -0.22490571,     -0.08753175,
               -0.03054581 ,
               -0.02081572,     -0.03254145,     -0.08333792,     -0.02372360,
               -0.02495220   ,


               -0.06208272,     -0.05049105,     -0.09188955,     -0.05347401,
               -0.04185601 ,
               -0.04438799,     -0.02445618,     -0.03737759,     -0.03142931,
               -0.04264667 ,
               -0.08431710,     -0.02524857,     -0.02698703,     -0.03597858,
               -0.06978175 ,
               -0.03489863,     -0.03944920,     -0.03982976,     -0.03468559,
               -0.01574765 ,
               -0.05043342,     -0.03045243,     -0.04564739,     -0.03085183,
               -0.04787794   ,


                0.05565264,      0.06025774,      0.12793605,      0.05628425,
                0.05469056 ,
               -0.02755367,      0.05093882,      0.10174405,      0.04792921,
               -0.02463880 ,
               -0.08064900,     -0.16595490,     -0.29759222,     -0.15954994,
               -0.09371369 ,
               -0.01536499,      0.03413424,      0.07724966,      0.03874749,
               -0.01776697 ,
                0.03868245,      0.02938510,      0.12438229,      0.03797178,
                0.03161649   ,


               -0.03321732,      0.06298606,     -0.04431035,      0.00913050,
               -0.03042473 ,
                0.02951713,     -0.01633498,      0.04506024,      0.01345216,
                0.01113254 ,
                0.11507475,      0.05325970,      0.15131828,      0.07216042,
                0.11723321 ,
                0.04160533,      0.02689355,      0.08840662,     -0.03782268,
                0.03496685 ,
                0.04013586,     -0.04245103,      0.11527340,      0.03801202,
                0.02561892   ,


               -0.00140379,      0.03395400,      0.04893449,      0.03249083,
               -0.01403304 ,
                0.00777194,      0.02867422,      0.04638044,      0.02929387,
                0.02311707 ,
                0.02954446,      0.06839213,      0.24959664,      0.08254037,
                0.03030221 ,
                0.02694320,      0.02336965,      0.10883874,      0.02829956,
                0.01540083 ,
                0.05412271,      0.02925320,      0.04415156,      0.02103220,
                0.06109949   ,


                0.03952453,     -0.07937619,     -0.05024587,     -0.07285491,
                0.01118515 ,
                0.02871645,      0.04683585,     -0.12099560,      0.04023012,
                0.04505373 ,
                0.11450376,      0.11152247,     -0.35667199,      0.11635742,
                0.11293967 ,
                0.03403633,      0.04716351,     -0.13292341,      0.04769104,
                0.03616327 ,
                0.02966408,     -0.01849666,     -0.17551029,     -0.03109961,
                0.03235701   ,


               -0.02370199,     -0.04395059,      0.16776262,     -0.03889747,
               -0.02636608 ,
               -0.04373902,      0.00352737,      0.11009841,     -0.00151701,
               -0.04120431 ,
                0.17116418,      0.05831756,      0.04586324,      0.07454932,
                0.15559225 ,
               -0.05228785,      0.02010261,      0.10031389,      0.01908485,
               -0.03201851 ,
               -0.02670333,     -0.03226032,      0.19682755,     -0.03922771,
               -0.01392271   ,


                0.02501085,     -0.01276975,     -0.10180970,     -0.02125846,
                0.01184912 ,
                0.03963113,     -0.00414279,     -0.04443419,      0.00247589,
                0.04604051 ,
                0.02332525,      0.08624180,      0.32059282,      0.09060713,
                0.02387739 ,
                0.03003415,      0.03715082,      0.11130553,      0.03297237,
                0.01501011 ,
                0.02620222,      0.00358887,     -0.01722919,      0.01308217,
                0.03465099   ,


               -0.01798383,     -0.07033609,     -0.11688986,     -0.07975495,
               -0.03487750 ,
               -0.02363518,     -0.10413843,     -0.08958148,     -0.09032479,
               -0.01802360 ,
                0.09405091,     -0.03331420,     -0.22118381,     -0.02913539,
                0.08715069 ,
                0.04674900,      0.05580335,      0.09914853,      0.06358201,
                0.04495361 ,
                0.08509709,      0.01857294,      0.13662189,      0.02630045,
                0.08448148   ,


                0.06598938,     -0.02271609,      0.03579388,      0.03581368,
                0.03657564 ,
               -0.05621197,      0.04192200,      0.05856352,     -0.00786496,
               -0.04772967 ,
                0.00933859,      0.06513830,      0.23964740,      0.07637117,
                0.01863599 ,
               -0.04314665,      0.02819551,      0.05409050,      0.03263260,
               -0.05798822 ,
                0.05846449,     -0.03674439,      0.00766579,     -0.03156127,
                0.04264944   ,


               -0.01121559,     -0.03541432,     -0.08344594,     -0.02697081,
                0.00020406 ,
               -0.00811128,     -0.02911545,     -0.13287972,     -0.03872093,
               -0.02014592 ,
                0.08436468,      0.00341999,     -0.45269811,     -0.00099269,
                0.08402015 ,
                0.08420268,      0.06316364,     -0.08358556,      0.05733782,
                0.07784409 ,
               -0.01485847,     -0.03617441,     -0.01466103,     -0.03282306,
               -0.01070107   ,


               -0.01767858,     -0.01724662,      0.05098908,      0.01323179,
               -0.01337391 ,
                0.01641478,      0.01658805,      0.05120768,      0.01073913,
                0.00006382 ,
                0.06503199,      0.06502119,      0.30933455,      0.07289495,
                0.07652704 ,
                0.02734020,     -0.01205490,      0.05367797,     -0.00161099,
                0.00638616 ,
               -0.00235962,      0.00403660,      0.06542912,      0.00676218,
                0.00644041   ,


               -0.00012109,      0.01154797,     -0.05450210,      0.03673938,
               -0.00592528 ,
                0.02353933,      0.01867289,     -0.20701680,      0.01358256,
                0.03483281 ,
                0.15765016,      0.09749325,     -0.37735879,      0.06856135,
                0.18898003 ,
                0.01509013,      0.03396347,     -0.15764065,      0.04956822,
               -0.00565476 ,
                0.00965408,      0.00843767,     -0.08106735,      0.02305542,
                0.00814076   ,


               -0.04084362,     -0.01710777,     -0.05050489,     -0.02483499,
               -0.03086436 ,
               -0.00511075,     -0.02536367,     -0.06507958,     -0.02331011,
               -0.01008646 ,
               -0.05527941,     -0.06458712,     -0.19056621,     -0.05389664,
               -0.05460064 ,
               -0.02359617,     -0.02223605,     -0.08588027,     -0.02861142,
               -0.01967186 ,
               -0.06014634,     -0.01688689,     -0.06979919,     -0.00966532,
               -0.07052694   ,


                0.00809084,      0.00945603,     -0.00795888,      0.00811208,
                0.00533762 ,
               -0.00294795,      0.01538918,      0.06847148,      0.00686650,
               -0.00613476 ,
                0.02568238,      0.04757540,      0.35706249,      0.03471491,
                0.01141209 ,
                0.01469213,     -0.03362694,      0.02638099,     -0.01473586,
                0.01496449 ,
                0.03290286,      0.00840086,      0.01665863,      0.01455432,
                0.00664864   ,


               -0.05051453,     -0.03676879,     -0.07577560,     -0.02746203,
               -0.05304549 ,
               -0.02987335,     -0.01074539,     -0.03990804,     -0.02045639,
               -0.03904417 ,
               -0.08930226,     -0.03448361,     -0.03957872,     -0.03379424,
               -0.07019810 ,
               -0.00109761,     -0.03682110,     -0.05636597,     -0.04241106,
               -0.01288150 ,
               -0.05259193,     -0.03960983,     -0.07219101,     -0.03791418,
               -0.03572294   ,


                0.07558010,      0.01139105,      0.00339915,      0.03457224,
                0.05795606 ,
                0.01014670,      0.01494488,      0.05477583,     -0.00226960,
                0.01296216 ,
                0.03780096,      0.07866728,      0.22745010,      0.05437964,
                0.06896662 ,
               -0.00429730,      0.00015144,      0.09248427,      0.00354048,
                0.00503803 ,
                0.07390355,      0.00384154,      0.01597436,      0.00204854,
                0.05774515   ,


               -0.02401545,     -0.00613221,      0.00096592,     -0.00123187,
               -0.00254641 ,
               -0.01762851,     -0.00866968,     -0.02283587,     -0.02067638,
               -0.03216928 ,
                0.06180364,      0.04478122,      0.15035373,      0.07257358,
                0.05241786 ,
                0.00137031,      0.05190585,      0.20039581,      0.03896586,
                0.01512799 ,
               -0.01453342,     -0.01417533,      0.10158597,     -0.00464794,
               -0.01221688   ,


                0.00038465,      0.02405364,      0.00964290,     -0.01978033,
               -0.00791433 ,
               -0.01722311,      0.04521103,     -0.02788160,     -0.07535203,
               -0.03714076 ,
                0.12203444,      0.25439695,     -0.01011290,     -0.21677347,
               -0.18935253 ,
                0.01294628,      0.05145826,     -0.02941273,     -0.08259862,
               -0.02790373 ,
                0.00922775,      0.02276554,      0.02176154,     -0.01402391,
               -0.04503109   ,


                0.05154920,      0.00996080,      0.02630344,      0.01072998,
                0.05053908 ,
                0.00870799,      0.02447143,      0.11408018,      0.02625089,
                0.01716915 ,
                0.05994349,      0.09926227,      0.18364026,      0.07205708,
                0.05836364 ,
                0.01949023,     -0.00648507,      0.04576461,     -0.00395019,
                0.02995812 ,
                0.03044407,      0.00105845,      0.04542592,      0.01526406,
                0.01140743   ,


               -0.02750291,     -0.04110563,     -0.10873483,     -0.02292934,
               -0.02990685 ,
               -0.06031859,     -0.02245387,     -0.07175691,     -0.03480468,
               -0.05685966 ,
               -0.11340914,     -0.07824309,     -0.20466623,     -0.08233394,
               -0.10329381 ,
               -0.05213812,     -0.00916073,     -0.08832093,     -0.01501061,
               -0.04371788 ,
               -0.07780697,     -0.02394088,     -0.08846168,     -0.02099053,
               -0.07665151   ,


               -0.03260818,      0.00541275,      0.04220051,     -0.00731711,
               -0.01350322 ,
                0.00763505,     -0.05961301,     -0.14239769,     -0.03266430,
                0.01003278 ,
                0.28995079,      0.05050618,     -0.25792244,      0.04660798,
                0.25795349 ,
                0.00866661,     -0.06687443,     -0.09272298,     -0.06691246,
                0.00119375 ,
               -0.03696413,     -0.03497089,     -0.03934661,     -0.02957659,
               -0.00396811   ,


               -0.02283787,     -0.01068973,     -0.02896849,     -0.01319363,
               -0.01814346 ,
               -0.01723666,     -0.00344690,     -0.02647279,     -0.00181991,
               -0.03867764 ,
               -0.01479557,      0.01537068,      0.37843958,      0.00889552,
               -0.00013892 ,
                0.00387521,      0.00472647,      0.04961391,      0.00258943,
                0.00976233 ,
                0.00891850,     -0.01106592,     -0.00670743,     -0.01605279,
                0.00853043   ,


                0.02676823,      0.01539251,      0.08650059,      0.01737258,
                0.00135180 ,
                0.04225009,      0.02019732,      0.03351187,      0.02960355,
                0.02912590 ,
                0.07736991,      0.07415562,     -0.02660226,      0.05522771,
                0.09137250 ,
                0.01612398,      0.04308722,      0.10834491,      0.02866296,
                0.02048560 ,
                0.07345854,      0.07189289,      0.09989873,      0.07619176,
                0.06818113   ,


                0.02469440,      0.02182329,      0.04653534,      0.02776239,
                0.00673227 ,
                0.04094961,      0.00326480,      0.09202187,      0.00651687,
                0.05612330 ,
                0.05208724,      0.07350843,      0.25543454,      0.06526185,
                0.05577373 ,
                0.00522545,      0.02134044,      0.09268382,      0.02788780,
               -0.01342401 ,
                0.02725929,      0.03417996,      0.05747575,      0.03267901,
                0.02424222   ,


                0.01794812,      0.04220174,      0.12092501,      0.04244701,
               -0.01405286 ,
               -0.02769539,      0.00729913,      0.09652926,      0.02483537,
               -0.00958712 ,
                0.03114534,      0.04759791,      0.23328799,      0.04859026,
                0.03054629 ,
               -0.00690032,      0.01882390,      0.07535004,      0.01601008,
                0.01346811 ,
               -0.00976276,      0.01385333,      0.05345378,     -0.00196082,
               -0.01268824   ,


                0.04230754,      0.01053094,      0.21531326,     -0.00270894,
                0.05124421 ,
                0.03263711,      0.04145592,      0.22340180,      0.05079571,
                0.04046632 ,
                0.04416209,      0.02723010,      0.09146179,      0.05983866,
                0.03459338 ,
               -0.07653986,     -0.08172510,     -0.21415712,     -0.07877183,
               -0.08421146 ,
               -0.01903835,     -0.02711329,     -0.17763981,     -0.02524352,
               -0.03040134   ,


                0.01013304,     -0.01201096,     -0.06396292,      0.00525485,
                0.00219575 ,
                0.02413510,      0.01796896,      0.20799318,      0.02584976,
                0.01937903 ,
                0.01855341,      0.07835507,      0.27650142,      0.08878087,
                0.00838585 ,
                0.02706768,      0.01688228,      0.06960449,      0.00578527,
                0.03785614 ,
                0.05889183,      0.01146430,      0.03655780,      0.01499117,
                0.05416583   ,


                0.04400621,     -0.00373450,      0.01828178,     -0.00454945,
                0.02766494 ,
                0.04152651,      0.01058510,      0.08534448,      0.01153492,
                0.05761368 ,
                0.06785277,      0.06149783,      0.19759813,      0.07623338,
                0.05140219 ,
                0.03053916,     -0.01049298,      0.05122180,     -0.01059538,
                0.03142892 ,
                0.03575323,     -0.00429807,      0.04412333,     -0.01803801,
                0.03073620   ,


               -0.10568204,     -0.09065852,     -0.05329506,      0.12096887,
                0.09068056 ,
               -0.08976344,     -0.06297038,     -0.04001584,      0.06278052,
                0.08385012 ,
                0.12351435,      0.14620337,     -0.02946324,     -0.12752520,
               -0.13514110 ,
                0.08996090,      0.07293928,     -0.00261691,     -0.08671690,
               -0.10435192 ,
                0.08029553,     -0.00125885,     -0.02993920,     -0.04502647,
                0.01240341   ,


                0.02278802,      0.00789516,      0.03235274,      0.01576886,
                0.01557986 ,
                0.03654291,      0.02465963,      0.08828875,      0.03900752,
                0.01031293 ,
                0.03800622,      0.08758934,      0.20765501,      0.08913657,
                0.03574588 ,
                0.00676378,      0.02058359,      0.01475561,      0.02526928,
                0.00383307 ,
                0.01819620,      0.02716532,      0.05027899,      0.02169979,
                0.00775418   ,


                0.02301921,      0.03258061,      0.03164528,      0.03139931,
                0.02464026 ,
               -0.02253931,      0.00068634,      0.09908207,      0.00888119,
               -0.02545779 ,
                0.04556161,      0.09741967,      0.26737735,      0.07967683,
                0.04135424 ,
                0.04126865,     -0.00599866,      0.05717979,      0.01177974,
                0.03947962 ,
                0.00485996,     -0.00828008,      0.05887656,     -0.00713231,
                0.00282450   ,


                0.01473168,      0.02196432,      0.05420066,      0.01871240,
                0.02188087 ,
                0.02297554,      0.02288787,      0.07922170,      0.00079250,
                0.02687402 ,
                0.07347611,      0.07084360,      0.24433841,      0.04625139,
                0.06674467 ,
                0.01515950,     -0.00570265,      0.08705935,      0.01835077,
                0.01259820 ,
                0.01935553,      0.01394619,      0.05257530,      0.01362311,
                0.03065698   ,


               -0.04168532,      0.05355710,      0.15662545,      0.04653577,
               -0.04502873 ,
                0.03930298,      0.10767536,      0.05765660,      0.11491164,
                0.04285033 ,
                0.08819959,      0.04114008,     -0.13691719,      0.03754307,
                0.08292034 ,
                0.00437204,     -0.06569421,     -0.03330658,     -0.04828214,
                0.01399960 ,
                0.03868024,     -0.01393469,     -0.03250541,     -0.00067208,
                0.03892389   ,


                0.01705962,      0.02045970,      0.01461756,      0.02742528,
                0.01098265 ,
                0.03217830,      0.03127865,      0.07642616,      0.01798290,
                0.02139647 ,
                0.02322674,      0.06282990,      0.28039739,      0.07051249,
                0.03059256 ,
                0.03190377,      0.01688939,      0.12350903,      0.03088704,
                0.02490021 ,
                0.01599195,      0.02562720,     -0.01226253,      0.02359484,
                0.02412019   ,


                0.04395041,      0.02685294,      0.14038485,     -0.01000023,
                0.07156844 ,
                0.00829232,      0.02689760,      0.11853579,      0.01471144,
                0.01673651 ,
                0.07899838,      0.08827831,      0.14104956,      0.08590740,
                0.07059219 ,
               -0.01904201,      0.00473246,      0.09733872,      0.00652918,
                0.00254484 ,
                0.05230119,      0.02545762,      0.09334840,     -0.02558718,
                0.05683997   ,


                0.05357188,      0.01289668,      0.12316200,      0.01874935,
                0.07338784 ,
                0.04041564,      0.02943730,      0.12111267,      0.03220486,
                0.03900042 ,
                0.05571901,      0.05489159,      0.10436201,      0.06445648,
                0.02406450 ,
               -0.00630389,      0.02889309,      0.05414873,      0.02764775,
               -0.00427555 ,
                0.00584854,      0.01652913,      0.04118775,      0.01087000,
                0.01495503   ,


               -0.00592419,     -0.01222690,      0.15163009,     -0.00958504,
               -0.01146930 ,
                0.00346642,     -0.01120606,      0.07623169,     -0.00188489,
                0.01147208 ,
                0.06772466,      0.06190254,      0.26954758,      0.05983145,
                0.05079651 ,
               -0.05119616,     -0.05312506,     -0.09390225,     -0.07911959,
               -0.05503002 ,
               -0.07676879,     -0.03152642,     -0.04677375,     -0.05562219,
               -0.08725533   ,


                0.00453410,      0.00299697,     -0.00030711,     -0.01271961,
                0.00132931 ,
                0.03934915,      0.01685940,      0.04771196,      0.02615872,
                0.02356645 ,
                0.05866587,      0.06347758,      0.29109287,      0.06568114,
                0.05754757 ,
                0.02944188,      0.01292835,      0.06581905,      0.01808354,
                0.01822591 ,
                0.01576240,      0.00049436,     -0.01849805,     -0.00192249,
                0.01177299   ,


               -0.01816631,     -0.03691367,     -0.08462719,     -0.03639746,
               -0.01025938 ,
               -0.01740357,     -0.07166260,     -0.09348867,     -0.05840180,
               -0.01285067 ,
                0.00449936,     -0.03787610,     -0.15765081,     -0.04586573,
                0.00139256 ,
               -0.00857273,      0.03657246,      0.20124775,      0.02263037,
               -0.00905254 ,
               -0.00411059,      0.06426149,      0.26230234,      0.06184037,
                0.00555778   ,


                0.03416352,      0.00482137,      0.04740903,      0.02326966,
                0.03208165 ,
                0.04289189,     -0.01044274,     -0.03054942,     -0.01440914,
                0.02584532 ,
                0.06949496,      0.04799816,      0.07316895,      0.07064114,
                0.07412463 ,
                0.03475310,      0.07248443,      0.15514894,      0.05244973,
                0.01265754 ,
                0.01267849,     -0.03434656,      0.15540488,     -0.00951488,
                0.03402936   ,


                0.01517908,      0.00081673,      0.07670047,     -0.00422575,
                0.02219174 ,
                0.01683605,      0.00087636,      0.05937653,     -0.01377013,
                0.01532782 ,
                0.07228029,      0.08054210,      0.25544608,      0.07438854,
                0.07865452 ,
                0.00694611,      0.00765708,      0.08227669,      0.01292157,
                0.00500119 ,
                0.02347012,     -0.01580701,      0.08717608,      0.01399073,
                0.01279971   ,


                0.03061335,      0.00241668,      0.09704404,     -0.00361222,
                0.05148187 ,
                0.01470781,      0.00652754,      0.09843643,      0.01324138,
                0.01341776 ,
                0.07804988,      0.07460809,      0.19570282,      0.08543508,
                0.07385234 ,
               -0.01919548,      0.00468587,      0.08998816,     -0.00041065,
               -0.01263570 ,
                0.05846220,     -0.00164593,      0.08531098,      0.00162426,
                0.03279192   ,


               -0.02560528,     -0.01097968,     -0.03512247,      0.00061635,
                0.01432020 ,
               -0.04301689,     -0.04454540,     -0.04323596,      0.06406075,
                0.03574385 ,
               -0.18077765,     -0.12932202,     -0.11312144,      0.17589708,
                0.15557098 ,
               -0.06084134,     -0.04905621,     -0.03401306,      0.05244691,
                0.04995374 ,
               -0.04408004,     -0.02548575,     -0.02981147,     -0.00103759,
                0.03714046   ,


                0.05500222,      0.02148694,      0.06395030,      0.00836524,
                0.04665698 ,
                0.01668705,      0.02267645,      0.08252346,      0.01702200,
                0.03278206 ,
                0.09864632,      0.07658766,      0.16488358,      0.09091748,
                0.07973603 ,
               -0.01957555,     -0.01000421,      0.12706241,     -0.00719413,
               -0.01752413 ,
                0.05160140,     -0.01328333,      0.08108560,     -0.01399492,
                0.05002948   ,


                0.05861910,      0.01418746,      0.11754930,      0.03650363,
                0.05453267 ,
                0.04589277,     -0.07343494,     -0.01529932,     -0.04215388,
                0.02609076 ,
                0.10597968,      0.09947804,     -0.15015154,      0.06448818,
                0.10710255 ,
                0.00701609,      0.09783394,     -0.01949425,      0.11772996,
                0.03310918 ,
                0.04483365,      0.03913375,      0.14345856,      0.04778631,
               -0.01822686   ,


               -0.00875903,     -0.00070674,     -0.02164851,     -0.00448730,
               -0.01211208 ,
                0.01841683,     -0.06428617,     -0.15585627,     -0.06205114,
                0.01461713 ,
                0.09687375,      0.03386924,     -0.33314505,      0.03333616,
                0.09426744 ,
                0.00835927,      0.06233557,      0.22726463,      0.05970267,
                0.00356016 ,
                0.02879269,      0.01753696,      0.11287402,      0.01668499,
                0.04970776   ,


                0.01728881,      0.02076034,      0.08755440,      0.00705902,
                0.01502634 ,
                0.01892364,      0.03652447,      0.12653850,      0.05479306,
                0.01827169 ,
                0.00436741,      0.05829265,      0.22110370,      0.05254872,
                0.00037902 ,
                0.02206012,      0.00844361,      0.01191911,     -0.00074831,
                0.03126135 ,
                0.00406903,     -0.01224718,     -0.00182241,     -0.01737567,
               -0.00815368   ,


                0.04926134,      0.06770867,      0.05196223,      0.05559937,
                0.05513478 ,
                0.00819375,      0.02682484,      0.05716169,      0.02451470,
                0.01642789 ,
                0.04026849,      0.02669113,      0.20415790,      0.01763383,
                0.05871671 ,
                0.03760783,     -0.00038638,      0.05804658,      0.01091339,
                0.03566368 ,
                0.04873545,      0.01493528,      0.01684954,      0.02004821,
                0.05044739   ,


               -0.02680310,     -0.02473529,     -0.04971001,     -0.02543150,
               -0.02851961 ,
               -0.02471068,     -0.01332499,     -0.08102331,     -0.00528528,
               -0.02254590 ,
               -0.08214960,     -0.02177466,     -0.16897985,     -0.05095988,
               -0.05872824 ,
               -0.02846283,     -0.04376062,     -0.08609375,     -0.03518173,
               -0.02900525 ,
               -0.01222189,     -0.04029961,     -0.03615610,     -0.03752363,
               -0.01387364   ,


               -0.08515076,     -0.02983272,     -0.05560885,     -0.02519615,
               -0.07905079 ,
               -0.06170264,     -0.04332865,     -0.08861131,     -0.03831737,
               -0.06883234 ,
               -0.07647651,     -0.11167485,     -0.14081483,     -0.12465665,
               -0.06938820 ,
                0.08009425,      0.05648267,      0.14817722,      0.06442373,
                0.07578474 ,
                0.08133863,      0.03739383,      0.15927596,      0.04424130,
                0.07863621   ,


                0.04844218,      0.03266651,     -0.03919674,     -0.05637286,
               -0.06555557 ,
                0.04585149,      0.07617535,     -0.01205245,     -0.06229886,
               -0.06286554 ,
                0.11797126,      0.14427957,     -0.10048445,     -0.10735805,
               -0.16615956 ,
                0.03861238,      0.07771775,      0.00216859,     -0.08857739,
               -0.06987844 ,
                0.05536203,     -0.00277059,      0.00974401,     -0.05916178,
               -0.04656835   ,


                0.00563873,      0.00275323,      0.01881562,      0.01208969,
                0.00018617 ,
                0.03727232,      0.04356675,     -0.04902817,      0.04878855,
                0.04411276 ,
                0.06167058,      0.10350943,      0.22547317,      0.10128310,
                0.05888507 ,
               -0.01850669,      0.00439541,      0.23453903,      0.00451928,
               -0.00941901 ,
                0.01863589,      0.02270030,     -0.01235404,      0.03068154,
                0.02023968   ,


                0.01552491,      0.02722554,      0.04160518,      0.04278335,
                0.00912672 ,
               -0.00026403,     -0.00015512,      0.08242419,     -0.00648710,
                0.01024413 ,
                0.03308129,      0.05715073,      0.42140734,      0.06810292,
                0.00282239 ,
                0.01766217,      0.00832648,      0.04893902,      0.01588233,
                0.02753038 ,
                0.00590207,      0.01630318,     -0.02821127,      0.02836100,
               -0.00022320   ,


                0.06410750,      0.06462964,      0.21878903,      0.06894849,
                0.06279152 ,
                0.07255959,      0.08245316,      0.22670606,      0.07419770,
                0.06934304 ,
                0.00086466,     -0.08831506,     -0.13261464,     -0.07598180,
               -0.01852513 ,
               -0.02652637,     -0.04820062,     -0.08868063,     -0.04174460,
               -0.03568627 ,
               -0.07101996,     -0.07188495,     -0.11453571,     -0.06191779,
               -0.06107474   ,


                0.01207075,      0.03698536,     -0.06769954,     -0.00034416,
               -0.01826478 ,
                0.02740770,      0.02765045,     -0.04219320,     -0.02102042,
               -0.02272935 ,
                0.17332062,      0.15561439,     -0.07637968,     -0.13475087,
               -0.20139974 ,
                0.02962434,      0.05896347,     -0.02993445,     -0.05184083,
               -0.06834409 ,
                0.02769333,      0.03166998,     -0.03862254,     -0.04451250,
               -0.03547491   ,


                0.01917138,      0.01007784,      0.09596760,      0.02382251,
                0.00171427 ,
                0.00509430,     -0.00691058,      0.03256810,     -0.00214785,
                0.00091710 ,
                0.03913365,      0.08128063,      0.28456262,      0.05553213,
                0.05649995 ,
                0.00494094,      0.02406467,      0.08448513,     -0.00376915,
                0.01697426 ,
                0.01097620,     -0.00332093,      0.10041426,      0.00899638,
                0.01077475   ,


               -0.06159779,     -0.05761154,     -0.17920712,     -0.05118478,
               -0.06638139 ,
               -0.02401350,     -0.03738853,     -0.14198206,     -0.05577615,
               -0.00514882 ,
               -0.04913474,     -0.07734210,     -0.14499073,     -0.06066696,
               -0.04469082 ,
                0.04422390,      0.05553653,      0.15183043,      0.04959164,
                0.03537552 ,
                0.05381563,      0.01623087,      0.20942721,      0.00101330,
                0.06093809   ,


                0.03891341,     -0.02429683,      0.09397524,      0.00869634,
               -0.00063631 ,
                0.00008402,      0.01938529,      0.06258800,     -0.00408223,
                0.03427475 ,
                0.04172292,      0.08685379,      0.22351708,      0.08733933,
                0.03839375 ,
               -0.00925302,      0.02133611,      0.06413248,      0.02265210,
               -0.02945419 ,
               -0.03595143,      0.01011048,      0.07582703,      0.01785351,
               -0.03299395   ,


                0.04301215,      0.04680884,      0.18136102,      0.04100791,
                0.05176160 ,
                0.04974958,      0.08689415,      0.13968493,      0.10499723,
                0.04507969 ,
                0.02713907,      0.04315589,      0.00884066,      0.01483539,
                0.03353224 ,
               -0.01784615,     -0.01398548,      0.05510281,     -0.02380639,
               -0.01005025 ,
               -0.02675387,     -0.00399980,      0.03332774,     -0.00349462,
               -0.01776282   ,


               -0.08654515,     -0.05087340,     -0.07484787,     -0.04154877,
               -0.07779983 ,
               -0.06124601,     -0.03563731,     -0.03127841,     -0.02018907,
               -0.03905439 ,
               -0.08081661,     -0.03275594,     -0.01610433,     -0.02733473,
               -0.07710903 ,
               -0.03058476,     -0.02172542,     -0.04458274,     -0.03303709,
               -0.02937638 ,
               -0.01631443,     -0.01540981,     -0.05431909,     -0.01725709,
                0.01033831   ,


               -0.02638440,      0.00591307,      0.00157311,      0.01268971,
               -0.02883324 ,
               -0.03487734,      0.00448624,      0.04088627,      0.00623554,
               -0.04149701 ,
               -0.14511424,     -0.02237764,      0.21029797,     -0.03051772,
               -0.15397045 ,
               -0.02734668,     -0.24899036,     -0.17407617,     -0.22744921,
               -0.03161688 ,
                0.10524612,      0.05201958,     -0.16740574,      0.05016282,
                0.10559070   ,


                0.01122303,      0.01039030,      0.05624301,      0.00221547,
                0.02289439 ,
                0.03405105,      0.00253554,      0.01499633,      0.00340262,
                0.03295955 ,
                0.06362798,      0.10275400,      0.19180945,      0.09454146,
                0.05564489 ,
                0.02124193,      0.02156065,      0.06968632,      0.01562918,
                0.04013164 ,
               -0.00525620,      0.00705172,      0.02176074,     -0.00597473,
                0.00192444   ,


               -0.01451802,     -0.00205730,      0.03638728,      0.00041261,
               -0.02788185 ,
               -0.00037935,     -0.03209513,     -0.02434459,     -0.01860713,
               -0.00996973 ,
               -0.12089616,     -0.09913848,     -0.19229871,     -0.10506620,
               -0.12183753 ,
               -0.02281169,     -0.03433412,     -0.10047121,     -0.03225400,
               -0.01465833 ,
               -0.03963975,      0.00753348,     -0.06236485,     -0.01019283,
               -0.04460423   ,


                0.04166649,     -0.00852595,      0.04041747,      0.01992242,
                0.02851318 ,
                0.00936620,      0.03477033,      0.05580360,      0.02545214,
                0.02197919 ,
                0.06376190,      0.08181481,      0.18222539,      0.06176979,
                0.08693985 ,
                0.05104420,      0.00842208,      0.07547003,      0.02360799,
                0.03746642 ,
                0.04230328,     -0.04706772,      0.05424125,     -0.05549012,
                0.04695758   ,


               -0.09373196,     -0.04208756,     -0.05806767,     -0.04684092,
               -0.08418570 ,
               -0.03407819,     -0.01156986,     -0.03122980,     -0.01688781,
               -0.02935340 ,
               -0.05509104,     -0.02802471,     -0.04612933,     -0.02421704,
               -0.05880615 ,
               -0.04173041,     -0.01196635,     -0.02415787,     -0.01364493,
               -0.03442624 ,
               -0.12296361,     -0.04334850,     -0.06030622,     -0.04282041,
               -0.10696477   ,


                0.04418571,      0.02274463,      0.05151630,      0.02379208,
                0.05004590 ,
                0.01985283,      0.01960464,      0.09259100,      0.00492902,
                0.02556885 ,
                0.03762573,      0.08444811,      0.23766342,      0.05872680,
                0.03695946 ,
                0.00353689,      0.00704453,      0.04958989,      0.00353437,
                0.00952474 ,
                0.02788990,      0.03716084,      0.04704469,      0.03285328,
                0.02709256   ,


                0.01319076,     -0.00041240,      0.02910072,      0.00910130,
                0.01108704 ,
                0.02338991,      0.00961226,      0.04872843,      0.00015250,
                0.01945124 ,
                0.00750953,      0.05410215,      0.41090047,      0.07305959,
               -0.00207912 ,
                0.00403968,     -0.00089314,      0.06418468,      0.01341733,
               -0.00671094 ,
                0.02527911,      0.00238444,     -0.01715189,      0.00795962,
                0.02541550   ,


                0.04343669,      0.04039623,      0.15416463,      0.01563189,
                0.05326879 ,
                0.03589714,      0.06015915,      0.21934344,      0.07799169,
                0.02192427 ,
               -0.06137554,      0.00919210,      0.08169389,      0.01069601,
               -0.04516927 ,
               -0.04187389,     -0.08796132,     -0.22336203,     -0.08780206,
               -0.05588558 ,
               -0.02381603,     -0.02623231,     -0.17079964,     -0.02903963,
               -0.00707120   ,


                0.04298577,      0.02112229,      0.10546030,      0.01066954,
                0.03752730 ,
                0.01531544,     -0.01720432,      0.13891353,     -0.00207946,
                0.01571063 ,
                0.06912369,      0.07822499,     -0.05263751,      0.06585271,
                0.07554560 ,
                0.02196780,      0.01437831,      0.11522043,      0.01950992,
                0.01576503 ,
                0.03473522,      0.02266398,      0.14710566,      0.04347723,
                0.02255980   ,


               -0.01471592,     -0.00752459,      0.02546451,     -0.01173187,
               -0.01334121 ,
               -0.11546677,     -0.07142354,      0.02212595,     -0.06169073,
               -0.08545389 ,
                0.13279386,      0.11545838,     -0.14783075,      0.11772754,
                0.09980956 ,
                0.05888523,      0.10851679,     -0.04765722,      0.11144473,
                0.07251590 ,
                0.08356736,     -0.00199942,      0.03616728,     -0.02357222,
                0.07744703   ,


               -0.01918745,     -0.03113749,     -0.02693345,     -0.02812375,
               -0.01424859 ,
                0.06008111,      0.03432524,     -0.28474405,      0.03527236,
                0.05724999 ,
                0.11210146,      0.17051902,     -0.30965710,      0.17341325,
                0.10418843 ,
               -0.04474157,      0.01396397,     -0.04984919,     -0.00721108,
               -0.03876195 ,
               -0.03564368,     -0.02119889,     -0.03146811,     -0.01986740,
               -0.02923990   ,


                0.06111625,      0.01877007,     -0.03580163,     -0.04095814,
               -0.05928596 ,
                0.05498764,      0.08298986,     -0.03512663,     -0.10653313,
               -0.03792144 ,
                0.14463128,      0.20391959,     -0.03399441,     -0.22141013,
               -0.13939251 ,
                0.00472183,      0.02513622,      0.01381821,     -0.03453458,
                0.01445303 ,
                0.02291860,     -0.00886687,      0.01593790,     -0.02520907,
               -0.01935469   ,


                0.02132514,      0.00733468,     -0.00232740,      0.00528548,
                0.02286090 ,
                0.00582433,      0.01263678,      0.06203393,      0.00536572,
                0.01240139 ,
                0.01478016,      0.08233314,      0.31790605,      0.07936861,
                0.01743732 ,
                0.00646194,      0.01753999,      0.08475503,      0.02681794,
                0.01415608 ,
                0.00572523,      0.03202183,      0.00465217,      0.02956005,
               -0.00669248   ,


                0.02970215,      0.05151410,      0.06871759,      0.06356879,
                0.01894826 ,
               -0.01250288,      0.06746430,      0.20637408,      0.06673709,
               -0.00996751 ,
               -0.03650482,      0.06027367,      0.13566193,      0.04343624,
               -0.01753037 ,
               -0.03618797,     -0.04749883,     -0.11777792,     -0.06150711,
               -0.04149137 ,
               -0.05386226,     -0.04287389,     -0.10693898,     -0.04897619,
               -0.06236722   ,


                0.03393775,      0.02315664,      0.14689465,      0.02130621,
                0.04454631 ,
                0.05728386,      0.09500204,      0.16631368,      0.06783650,
                0.07511460 ,
                0.05076975,      0.02343499,     -0.04700209,      0.02039913,
                0.04733644 ,
               -0.02215198,     -0.02332692,     -0.02869700,     -0.01120037,
               -0.03345495 ,
                0.01461276,      0.05664621,      0.09104800,      0.06218095,
               -0.00420352   ,


               -0.01679460,     -0.01062347,      0.04284530,     -0.00932333,
               -0.02251516 ,
               -0.00869165,      0.02913180,      0.17809704,      0.03354771,
               -0.00628102 ,
                0.01050492,      0.07409609,      0.17673254,      0.06164637,
                0.02243610 ,
                0.04056471,      0.00861507,     -0.00893279,      0.02111454,
                0.02256170 ,
               -0.00406222,      0.00941943,      0.02742246,      0.01608114,
               -0.01671057   ,


                0.01944754,     -0.00854820,      0.10084581,     -0.04200122,
                0.02531543 ,
               -0.00732770,     -0.10473593,     -0.00339951,     -0.11924356,
               -0.00045579 ,
                0.16384704,      0.04578510,     -0.13916452,      0.00158993,
                0.16753574 ,
               -0.07248216,      0.05336044,      0.10789166,      0.07557917,
               -0.06391364 ,
                0.05997648,     -0.01582131,      0.14616978,     -0.02936104,
                0.05319834   ,


                0.03969118,     -0.00933990,      0.00534677,      0.00854773,
                0.03547093 ,
                0.00067209,      0.03056788,      0.07259406,      0.02532291,
                0.01005263 ,
                0.01212343,      0.08128189,      0.39416897,      0.06957468,
                0.00780066 ,
                0.00126385,      0.01543160,      0.11188934,      0.02303119,
                0.00565536 ,
               -0.00496136,      0.02127854,     -0.03886081,      0.01545196,
                0.00161878   ,


               -0.00016061,      0.05133320,      0.28616047,      0.02947286,
               -0.00013182 ,
                0.03711959,     -0.00184298,     -0.14217928,     -0.00466032,
                0.04114004 ,
               -0.05161948,     -0.08507080,     -0.40139592,     -0.11091863,
               -0.04902461 ,
               -0.01600254,     -0.03010803,     -0.04373286,     -0.02884252,
                0.02109785 ,
                0.01090475,      0.04254764,      0.30566883,      0.01552282,
                0.01481113   ,


                0.04187139,     -0.02222432,     -0.00904905,      0.00653529,
               -0.05132915 ,
                0.05702688,      0.04798231,     -0.00882706,     -0.02008178,
               -0.06064801 ,
                0.11146545,      0.23191811,     -0.11590768,     -0.15685010,
               -0.14072049 ,
                0.04422596,      0.02032882,     -0.08305481,     -0.07653062,
               -0.06321640 ,
               -0.02717978,     -0.00562989,      0.00288858,      0.03208048,
               -0.02713127   ,


               -0.04021645,     -0.04354248,     -0.08340897,     -0.03456674,
               -0.03945849 ,
               -0.03929118,     -0.02371465,     -0.02433462,     -0.01602267,
               -0.04845994 ,
               -0.06298006,     -0.05127262,     -0.06583796,     -0.03609734,
               -0.07557603 ,
               -0.02509559,     -0.01800565,     -0.04949845,     -0.01202854,
               -0.04431728 ,
               -0.05812983,     -0.03353737,     -0.06858734,     -0.03469111,
               -0.05051984   ,


                0.03506161,      0.01242863,     -0.09247326,     -0.00327717,
               -0.01104220 ,
                0.01755250,      0.05835571,     -0.02838840,     -0.02747750,
               -0.02397452 ,
                0.17572111,      0.13950704,     -0.01364947,     -0.14765586,
               -0.18782409 ,
                0.04507963,      0.08469258,     -0.05524106,     -0.05976019,
               -0.04424164 ,
               -0.00398644,      0.02492786,     -0.08636238,      0.01085236,
               -0.01320795   ,


               -0.01242449,      0.00438005,     -0.00707098,      0.00798956,
               -0.00730571 ,
                0.01618481,     -0.02796069,      0.07627858,     -0.00581318,
                0.00349296 ,
               -0.00994323,      0.05072310,      0.43802461,      0.04813666,
               -0.01782387 ,
               -0.01085091,     -0.00260017,      0.05853214,      0.00134988,
               -0.00076805 ,
               -0.00798912,      0.00062170,     -0.02852777,      0.00000908,
               -0.03575225   ,


                0.00347208,     -0.00465949,      0.14703380,      0.00922724,
               -0.00071627 ,
                0.03185369,      0.02114244,      0.20482939,      0.01927857,
                0.04174809 ,
                0.01818366,      0.07876539,      0.10413087,      0.07823420,
                0.01757854 ,
               -0.01566215,     -0.04061969,     -0.15198809,     -0.03883909,
               -0.01012335 ,
                0.01619123,     -0.04074517,     -0.15477745,     -0.04264985,
                0.01525686   ,


               -0.01121757,      0.00185782,     -0.02566785,      0.01299154,
                0.00000098 ,
                0.01873728,      0.08313306,      0.00341185,     -0.05730524,
               -0.04439283 ,
                0.12696217,      0.22890230,     -0.09818939,     -0.15438002,
               -0.19911702 ,
                0.04006989,      0.04055033,     -0.02948494,     -0.00835114,
               -0.03151771 ,
               -0.00549175,      0.01434985,     -0.02371685,     -0.00889219,
               -0.01128308   ,


                0.01061485,      0.01509980,      0.05379878,      0.02278996,
                0.00999940 ,
                0.02323180,      0.03201711,      0.05320101,      0.01471984,
                0.02731901 ,
                0.06471822,      0.04786460,      0.18317510,      0.04928323,
                0.07136526 ,
                0.03531463,      0.01963244,      0.06256694,      0.00356589,
                0.03307995 ,
                0.01386957,      0.01814695,      0.06643348,      0.00689421,
                0.01696019   ,


                0.01099127,      0.04126966,      0.05365770,      0.03183310,
               -0.00198513 ,
                0.02684768,      0.03555582,      0.04398615,      0.03305674,
                0.02327073 ,
                0.06485353,      0.04907345,      0.13353570,      0.03700848,
                0.07242037 ,
                0.01464416,      0.00869502,      0.05724169,      0.00090425,
                0.01278772 ,
                0.00385464,      0.03190754,      0.08738780,      0.03335134,
                0.01519749   ,


                0.05652732,      0.00723106,      0.02317520,     -0.05121653,
               -0.07544260 ,
                0.04165770,      0.00631231,      0.05114280,     -0.05913501,
               -0.06197272 ,
                0.13308699,      0.14059395,      0.11220578,     -0.18349485,
               -0.18301308 ,
                0.03516874,      0.00841390,      0.05253531,     -0.02164129,
               -0.03978469 ,
                0.06064496,     -0.00544465,     -0.00485714,     -0.02013845,
               -0.05315306   ,


                0.02835940,      0.00876081,      0.02035910,      0.01667126,
               -0.00656879 ,
                0.01016128,     -0.03204154,      0.02670098,     -0.02336251,
                0.03048740 ,
                0.04271326,      0.06974351,      0.22956370,      0.05677871,
                0.04278138 ,
                0.03779086,      0.00955100,      0.10033139,      0.03301018,
                0.06169728 ,
                0.05741617,      0.02805623,      0.04826014,      0.01361584,
                0.03690261   ,


               -0.01005348,     -0.00997804,      0.03787558,      0.01992861,
               -0.02338128 ,
               -0.00036780,      0.03324221,      0.07926207,      0.02659773,
                0.00131174 ,
                0.06268752,      0.06654759,      0.21863180,      0.05481058,
                0.07516976 ,
                0.02463649,     -0.01880063,      0.07068975,      0.00401307,
                0.02314324 ,
                0.03374812,      0.02036334,      0.02321359,      0.02416612,
                0.02117555   ,


               -0.04006097,     -0.05729090,     -0.18852977,     -0.05210920,
               -0.03374818 ,
               -0.02079627,     -0.05075279,     -0.15820406,     -0.06183032,
               -0.01403619 ,
               -0.01383303,     -0.05699851,     -0.08605769,     -0.06049851,
               -0.01689972 ,
                0.04100097,      0.06451250,      0.19282028,      0.06561034,
                0.01545997 ,
                0.03303206,      0.03239506,      0.20539351,      0.02749874,
                0.04813049   ,


                0.03935697,      0.04269909,      0.05288238,      0.03146313,
                0.04801959 ,
               -0.00123770,     -0.01827738,      0.08161643,     -0.00496075,
                0.00347980 ,
                0.03384891,      0.07542168,      0.16809529,      0.07105625,
                0.04266675 ,
                0.02697216,      0.03929731,      0.09013695,      0.04557667,
                0.01551945 ,
                0.01102750,      0.01141710,      0.00707232,      0.01817204,
                0.00872146   ,


                0.01907874,      0.02430055,      0.11871476,      0.01846217,
                0.01740124 ,
               -0.01369727,      0.08834142,      0.13648613,      0.07117388,
               -0.00675851 ,
               -0.07117950,     -0.04501704,      0.08721064,     -0.04994117,
               -0.07655365 ,
               -0.07309482,     -0.13789946,     -0.24426238,     -0.11356952,
               -0.06226158 ,
               -0.02981647,     -0.06721272,     -0.21095085,     -0.05554328,
               -0.02974310   ,


                0.06418598,      0.01335529,     -0.05035613,     -0.02361431,
               -0.06016604 ,
                0.05248022,      0.07293877,     -0.00912511,     -0.04640444,
               -0.04952959 ,
                0.12675081,      0.12880138,     -0.03990745,     -0.13436222,
               -0.12899376 ,
                0.03795728,      0.03811606,     -0.01078993,     -0.03533591,
               -0.03858246 ,
                0.07980125,      0.04170519,     -0.02242371,     -0.05509825,
               -0.05904192   ,


               -0.08108579,     -0.03459895,     -0.01347378,     -0.05046631,
               -0.07647797 ,
               -0.01608320,     -0.03419214,     -0.07715014,     -0.03550637,
               -0.01464971 ,
               -0.01361527,     -0.05947243,     -0.11877126,     -0.05365608,
               -0.02163677 ,
               -0.05181906,     -0.02994726,     -0.07289637,     -0.02533792,
               -0.03640913 ,
               -0.03975089,     -0.01307528,     -0.08423501,     -0.02540553,
               -0.04695306   ,


                0.04263129,      0.04609606,      0.21003994,      0.03917457,
                0.03084719 ,
                0.04600341,      0.01333757,      0.21680133,      0.03773474,
                0.04726453 ,
               -0.05337179,      0.06716789,     -0.04438560,      0.00510905,
               -0.04247061 ,
               -0.02106823,     -0.05746648,     -0.21619798,     -0.02610506,
               -0.00981435 ,
               -0.05314920,     -0.05591015,     -0.13964017,     -0.05145869,
               -0.08493793   ,


                0.04297746,      0.03390761,      0.06448387,      0.03766046,
                0.04161015 ,
                0.01889255,      0.01504270,      0.07414157,      0.00949238,
                0.02026692 ,
                0.08619986,      0.04903162,      0.09429049,      0.04600172,
                0.06055695 ,
                0.00316330,      0.01570916,      0.04693706,      0.00937608,
                0.03818721 ,
                0.05808609,      0.03636288,      0.06283386,      0.02179187,
                0.07186975   ,


                0.03300176,      0.00520392,      0.03193676,      0.00284409,
                0.03169892 ,
                0.00818025,      0.03738645,      0.11030182,      0.03234941,
                0.01958806 ,
                0.04718174,      0.04271369,      0.14403841,      0.04912443,
                0.04036235 ,
                0.02191795,      0.01229279,      0.07306239,      0.03112877,
                0.01759627 ,
                0.05546054,      0.02273698,      0.02434552,      0.02897839,
                0.04503269   ,


                0.05011321,     -0.00071614,      0.10875851,      0.02966868,
                0.02274738 ,
                0.00308394,     -0.02258040,      0.05844030,     -0.00997087,
               -0.00288032 ,
                0.07559758,      0.07427590,      0.15630150,      0.06117874,
                0.08162048 ,
                0.01443625,      0.01165168,      0.05106568,      0.00197327,
                0.02971005 ,
                0.04498122,      0.00819993,      0.06654062,      0.02180607,
                0.04343222   ,


               -0.01487246,      0.00129257,      0.08974355,     -0.01911448,
               -0.00160905 ,
                0.04513963,      0.03933626,      0.03814944,      0.02451305,
                0.04423637 ,
                0.08036407,      0.09753311,      0.07708541,      0.09571947,
                0.06167999 ,
               -0.00865210,      0.03199688,      0.10315529,      0.04577523,
               -0.00041606 ,
                0.05429475,      0.00877059,      0.07949864,     -0.00813098,
                0.05249316   ,


                0.02202505,      0.01486378,     -0.05026986,     -0.00840606,
               -0.04944548 ,
                0.05420282,      0.05185457,     -0.03160543,     -0.03285580,
               -0.04263641 ,
                0.13621828,      0.16059066,     -0.07313924,     -0.15594816,
               -0.16930413 ,
                0.05809896,      0.07650610,     -0.02099529,     -0.06651632,
               -0.05953064 ,
                0.02766997,      0.00176538,     -0.06089306,     -0.00561546,
               -0.02078779   ,


                0.00785863,     -0.00209901,      0.00361333,     -0.00200578,
                0.00560653 ,
               -0.02551107,     -0.02411249,      0.04259066,     -0.01674354,
               -0.03703925 ,
                0.04491322,      0.04534195,      0.22210643,      0.05157113,
                0.04516249 ,
                0.02137282,      0.02784671,      0.09026001,      0.02126759,
                0.01348940 ,
                0.03891796,      0.02189526,      0.07205184,      0.02767896,
                0.04028226   ,


               -0.01870443,     -0.02332536,      0.03646047,     -0.02380636,
                0.00444100 ,
                0.00668561,     -0.00315871,      0.09669338,      0.00921445,
               -0.00457138 ,
                0.04912698,      0.08138311,      0.26732880,      0.07294638,
                0.04894624 ,
                0.02326977,     -0.02901400,      0.00679847,     -0.02580605,
                0.01010935 ,
               -0.00552259,      0.01690861,      0.06758144,      0.01796277,
               -0.01443636   ,


                0.07307239,     -0.01100339,     -0.00992188,     -0.01122278,
                0.07435656 ,
                0.09773876,     -0.00518057,      0.08239043,      0.02685212,
                0.08697074 ,
                0.08423633,      0.07486482,      0.20150758,      0.07013778,
                0.07947114 ,
               -0.04249138,      0.03052955,      0.05506560,      0.02203857,
               -0.02144825 ,
                0.00370241,     -0.01616609,     -0.02650333,     -0.02397422,
               -0.00245668   ,


               -0.04820076,     -0.05141073,     -0.06114789,     -0.01571440,
                0.04937205 ,
               -0.05662534,     -0.07015064,     -0.05273538,      0.06337853,
                0.04124460 ,
               -0.15746844,     -0.11941678,     -0.08459577,      0.14198467,
                0.15433653 ,
               -0.07945777,     -0.07929245,     -0.10449431,      0.05575195,
                0.03265833 ,
               -0.02736947,     -0.02083654,     -0.07680187,     -0.00739805,
                0.02533460   ,


               -0.03907302,     -0.02462892,     -0.06105636,     -0.02502583,
               -0.03454225 ,
               -0.04830637,      0.00273155,      0.06138637,     -0.00468388,
               -0.05447361 ,
               -0.02501713,      0.08829087,      0.38251320,      0.08111845,
               -0.01880179 ,
               -0.02619427,      0.00449174,      0.08651663,      0.01506629,
               -0.03441097 ,
               -0.03133439,     -0.02744587,     -0.00840051,     -0.00836700,
               -0.05068524   ,


                0.02008428,      0.05364346,      0.23712903,      0.04072700,
                0.00788344 ,
               -0.01313328,      0.01825377,      0.21608321,      0.03648927,
               -0.00922761 ,
               -0.05881289,     -0.06309482,     -0.15963988,     -0.07519720,
