
// weight for Depthwise layer has dimension of  torch.Size([3, 3, 96, 1])
float MBConv6_1_depthwise_conv_conv2d_weights [3 * 3 * 1 * 96] =
{
	-0.0967993, -0.1502915, -0.2474666 ,
	-0.0930670,  0.4784626,  0.2943085 ,
	-0.2390866,  0.3300227,  0.4495928   ,


	0.1606102,  0.2978377,  0.2937228 ,
	0.1398050, -0.5559465, -0.3494835 ,
	0.2921798, -0.3904435, -0.5259419   ,


	-0.2347409,  0.3946437, -0.0675780 ,
	-0.6558997,  0.6723625, -0.1119289 ,
	-0.3678976,  0.2324337,  0.1043163   ,


	-0.2010394, -0.3993380, -0.1868334 ,
	-0.2054376, -0.3288634, -0.1756494 ,
	-0.1032079, -0.2122867, -0.0570702   ,


	-0.2492364, -0.5358012, -0.2950003 ,
	0.1024313,  0.5281453,  0.3940470 ,
	0.0926676,  0.0053209, -0.0615937   ,


	-0.1315356, -0.2362708, -0.0735952 ,
	-0.2530957, -0.6304305, -0.1221057 ,
	-0.0955968, -0.2413708, -0.0276411   ,


	0.4149247, -0.7937135,  0.2607572 ,
	0.7182171, -0.4951808, -0.0458746 ,
	0.0443542,  0.0587088, -0.1754018   ,


	0.3365682, -0.3006234, -0.2470044 ,
	0.5807499, -0.3735686, -0.2323419 ,
	0.2512901, -0.2205938, -0.1878175   ,


	0.2258444,  0.0275487, -0.2245076 ,
	0.6651853, -0.0129396, -0.7296209 ,
	0.0336728, -0.0106913, -0.1822517   ,


	0.0660584,  0.0763174, -0.0869956 ,
	-0.3343357, -0.6322768, -0.1613252 ,
	0.2625061,  0.5431643,  0.2357742   ,


	-0.1729630,  0.2084086,  0.2316454 ,
	-0.9914129,  0.3322456,  0.3570438 ,
	-0.2292006,  0.0593527, -0.0520682   ,


	-0.2689939,  0.0717174,  0.1513583 ,
	0.5832839, -0.5306956,  0.0064462 ,
	-0.3294111,  0.4159431, -0.0979861   ,


	0.0542739,  0.0100495, -0.0412741 ,
	0.4470008,  0.7581308,  0.2811822 ,
	-0.3091520, -0.5686607, -0.1036995   ,


	-0.2342126, -0.4810880, -0.3014170 ,
	0.0829629, -0.1232010, -0.1135447 ,
	0.4418531,  0.4420106,  0.2062090   ,


	-0.0902602, -0.0444443,  0.3105763 ,
	-0.2853486, -0.0684336,  0.5564339 ,
	-0.1845987,  0.0882135,  0.1502128   ,


	0.0860518,  0.2398487,  0.1225473 ,
	0.1175933,  0.4382214,  0.1627242 ,
	0.0832362,  0.2115867,  0.0986909   ,


	-0.2625192,  0.6844016, -0.4416414 ,
	0.0978682, -0.1113087,  0.0323964 ,
	0.1434496, -0.5361478,  0.3717218   ,


	-0.1936557, -0.1626600, -0.1047613 ,
	-0.3227403, -0.3293557, -0.1194655 ,
	-0.2029590, -0.1430634, -0.1014281   ,


	0.3547796,  0.5746058,  0.2400638 ,
	-0.0315236, -0.4547747, -0.4003187 ,
	-0.1935921, -0.1050251,  0.1658338   ,


	0.0886942,  0.0701985,  0.0477350 ,
	0.0597772, -0.4154274, -0.3204077 ,
	0.0235510, -0.3440407, -0.4234809   ,


	0.0090298,  0.1794936,  0.0364849 ,
	0.3106588,  0.5694611,  0.3954262 ,
	0.0918420,  0.1158735, -0.2636323   ,


	-0.1731310, -0.2426696, -0.1277414 ,
	-0.3210809, -0.5099767, -0.2123660 ,
	-0.0981332, -0.1762810, -0.1059110   ,


	0.0608641,  0.0254854,  0.0980501 ,
	0.1110670, -0.5056086, -0.4125602 ,
	0.1515202, -0.3085444, -0.3907560   ,


	0.3058562,  0.3626200,  0.2062825 ,
	0.2965685,  0.4854358,  0.1580551 ,
	0.0559811,  0.1438078,  0.0670956   ,


	0.0244783,  0.3852212, -0.2815451 ,
	0.2343935, -0.9593217,  0.5730753 ,
	-0.1763385,  0.4817494, -0.2779508   ,


	-0.1033542, -0.0843838, -0.0632607 ,
	-0.1329365, -0.3552361, -0.2343059 ,
	0.3291385,  0.5307317,  0.2479433   ,


	-0.1540575, -0.6006516, -0.2145420 ,
	-0.3297198, -0.6824771, -0.2067173 ,
	-0.1373114, -0.0659746,  0.0823892   ,


	-0.8013451,  0.1588966, -0.0645565 ,
	0.4949088,  0.1027322, -0.1515713 ,
	0.1174945, -0.2865467,  0.2434646   ,


	-0.5079110, -0.5009559,  0.0132629 ,
	-0.3482351, -0.1740203,  0.2602729 ,
	0.0533850,  0.3516141,  0.3896530   ,


	-0.1617806,  0.0165721, -0.0730370 ,
	-0.0569998, -0.0942481, -0.6625516 ,
	0.2134016,  0.7179943,  0.2388767   ,


	-0.1360941, -0.1794214,  0.0321075 ,
	-0.1423625, -0.3608467, -0.2243187 ,
	0.0548976, -0.0906368, -0.1358178   ,


	0.3865173,  0.7002498, -0.1140235 ,
	0.1094340, -0.8234217, -0.4445136 ,
	-0.1579078, -0.0978347,  0.3788077   ,


	-0.0544768, -0.2526749, -0.3720269 ,
	-0.1882399,  0.5701030,  0.3380541 ,
	-0.3117258,  0.4432343,  0.4951121   ,


	-0.0707130, -0.7457952, -0.1220536 ,
	-0.0421741,  0.2534883,  0.0765648 ,
	-0.0842085,  0.7204483, -0.0016784   ,


	-0.4255309,  0.3315375,  0.0849200 ,
	-0.6933984,  0.6061741,  0.1088374 ,
	-0.2032801,  0.0955680,  0.1299579   ,


	0.1462530, -0.4031435,  0.2873698 ,
	0.3563246, -0.9131289,  0.5746454 ,
	0.1504046, -0.3893334,  0.2279867   ,


	-0.0014322, -0.0483823,  0.0324814 ,
	-0.2737321, -0.5796697, -0.3634713 ,
	-0.2402185, -0.3728711, -0.0349611   ,


	0.3475414, -0.3728290,  0.0501417 ,
	-0.6361796,  0.7983111, -0.1604290 ,
	0.2780776, -0.4253668,  0.1413027   ,


	0.1600104,  0.1744194,  0.0842407 ,
	0.3677721,  0.4614001,  0.2304084 ,
	0.2203989,  0.2708393,  0.0573213   ,


	0.0159511,  0.0193345, -0.0129312 ,
	0.0177491, -0.3325354, -0.2739936 ,
	0.1163645, -0.2531041, -0.2645731   ,


	-0.0829393, -0.0925797, -0.2605707 ,
	-0.1408159,  0.5807456,  0.3311691 ,
	-0.3253891,  0.3078533,  0.3719190   ,


	0.0267198,  0.1840057, -0.2093272 ,
	-0.0504078,  0.6388938, -0.5721260 ,
	-0.0363087,  0.2510566, -0.1580487   ,


	0.1761610,  0.3544217,  0.1066224 ,
	0.3825974,  0.5078222,  0.1762784 ,
	0.2242886,  0.3422815,  0.1259035   ,


	-0.0478172, -0.4958974, -0.0455986 ,
	0.2661312, -0.0352831, -0.3336542 ,
	0.0889900,  0.4819912,  0.1559464   ,


	-0.0820190, -0.1362786, -0.0622062 ,
	0.1410823,  0.4169167,  0.2807454 ,
	0.1397840,  0.3004451,  0.2319307   ,


	0.3142277, -0.1104099, -0.2110465 ,
	-0.4560970, -0.5973250, -0.0016402 ,
	0.1183337,  0.6715112,  0.2084276   ,


	-0.2936503,  0.1180142,  0.0496714 ,
	-0.5030050,  0.3064276,  0.3188252 ,
	-0.2334326,  0.0912293,  0.0954780   ,


	0.0917865,  0.2535413,  0.4308656 ,
	-0.4569824, -0.3039031,  0.1966581 ,
	-0.3665790, -0.3912494,  0.1141582   ,


	-0.1423565, -0.4221278, -0.2978610 ,
	0.0693202, -0.3646487, -0.2977326 ,
	0.2331205, -0.0192138, -0.0547358   ,


	-0.0776872, -0.0061366,  0.0363038 ,
	-0.4323061, -0.4545065, -0.0926954 ,
	0.1837660,  0.5541677,  0.2547396   ,


	-0.3073178, -0.3907042, -0.1800940 ,
	-0.1333345, -0.1795655, -0.0706824 ,
	0.2570313,  0.4615652,  0.1628491   ,


	-0.1184106, -0.1740038, -0.2005943 ,
	-0.3226476, -0.4116867, -0.4200577 ,
	-0.0502779, -0.1203317, -0.1310358   ,


	-0.2351556,  0.0959267,  0.1602029 ,
	-0.3971652,  0.3980480, -0.0078200 ,
	-0.2565659,  0.5596137, -0.2835545   ,


	-0.3112790,  0.1175750,  0.1420355 ,
	-0.7391457,  0.4485755,  0.3740475 ,
	-0.2151844,  0.1606247,  0.0048719   ,


	-0.1083484, -0.4019502, -0.3521942 ,
	0.4375911,  0.5094201,  0.1180563 ,
	-0.2580866, -0.0472890,  0.2384792   ,


	-0.1726075, -0.4595278, -0.2590561 ,
	0.2632439,  0.7197148,  0.3362667 ,
	-0.0271244, -0.2212831, -0.0539285   ,


	-0.3755709, -0.6216848, -0.2211693 ,
	0.0740874,  0.0927472,  0.0364371 ,
	0.2842045,  0.5817019,  0.2853848   ,


	-0.1832575, -0.3551975, -0.0458778 ,
	-0.3678136, -0.6429400, -0.1928904 ,
	-0.2160173, -0.4605719,  0.0050913   ,


	0.1395915,  0.2699118,  0.1342184 ,
	0.2719316,  0.4181433,  0.1913039 ,
	0.1379677,  0.1801836,  0.1407568   ,


	-0.1854725, -0.0602732,  0.1528251 ,
	0.5895415, -0.4394755, -0.1975449 ,
	-0.4181037,  0.4684754,  0.0291588   ,


	0.3410183, -0.1428700, -0.0712950 ,
	-0.2995765, -0.3443021,  0.4975217 ,
	-0.0305214,  0.4308014, -0.4047381   ,


	0.1833429,  0.3115380,  0.1430662 ,
	0.2914815,  0.4172118,  0.2282300 ,
	0.1492015,  0.1998940,  0.0964930   ,


	0.0741835,  0.0622480,  0.0073578 ,
	-0.2098404,  0.5003662, -0.3651527 ,
	-0.3412209,  0.5921019, -0.2499841   ,


	0.3020243, -0.3583840, -0.1478803 ,
	-0.6113181,  0.1945094,  0.3972929 ,
	0.1314728,  0.0742294, -0.1756025   ,


	0.1148363,  0.1763838,  0.1970088 ,
	0.4755377,  0.3985894,  0.2920270 ,
	0.3276069,  0.2124060, -0.0348890   ,


	0.3701850,  0.6538248,  0.2359646 ,
	-0.0661081, -0.2503964, -0.1362203 ,
	-0.2198952, -0.5195268, -0.1701604   ,


	0.2371231,  0.1199179, -0.0432719 ,
	-0.0508996, -0.4762778, -0.3515043 ,
	-0.0964897, -0.5000145, -0.3239970   ,


	-0.1402870, -0.0986388,  0.1386065 ,
	0.4282961,  0.0929065, -0.5142125 ,
	-0.3221051, -0.0054940,  0.3145084   ,


	-0.1989077, -0.2164148, -0.1001160 ,
	-0.3275699, -0.3191171, -0.1540122 ,
	-0.2519491, -0.2812985, -0.1081731   ,


	0.2680285,  0.1676552, -0.5959348 ,
	-0.1496057,  0.8885263,  0.1809585 ,
	-0.5652745, -0.1903233,  0.2672989   ,


	0.1411433,  0.0634908, -0.2337847 ,
	0.1962111,  0.5733432,  0.1829652 ,
	-0.3241556,  0.1374495,  0.0118177   ,


	-0.1468749,  0.5390089, -0.1992417 ,
	0.1550099,  0.8287869, -0.2415410 ,
	-0.0086793,  0.3122615, -0.4610514   ,


	0.1862824, -0.5502473,  0.3179093 ,
	-0.3743619,  0.8954639, -0.4795083 ,
	0.1572177, -0.3048910,  0.1731807   ,


	0.2431399,  0.2706154,  0.1783573 ,
	0.4760569,  0.5052307,  0.3195572 ,
	0.1103891,  0.1841546,  0.1262469   ,


	0.4183514, -0.0935770, -0.5635850 ,
	0.4064499,  0.1237144, -0.1692075 ,
	0.2872266,  0.0281298, -0.0937989   ,


	-0.0267183, -0.1817167, -0.0910227 ,
	-0.1806364, -0.2714394, -0.1989687 ,
	-0.0694540, -0.2397349, -0.1492083   ,


	-0.2921116,  0.7518036, -0.4737189 ,
	0.1050763, -0.4809836,  0.4061802 ,
	0.1998281, -0.2560489,  0.0449337   ,


	-0.5397419, -0.5846148, -0.1620018 ,
	0.6178318,  0.4879456,  0.0912841 ,
	-0.0768005, -0.0424763,  0.0835411   ,


	-0.2080962, -0.3692433, -0.1341449 ,
	-0.2686468, -0.4786002, -0.1327947 ,
	-0.1099512, -0.0930391, -0.0757807   ,


	-0.0826700, -0.1676607, -0.1529224 ,
	0.1610392,  0.4970887,  0.2011567 ,
	0.0885068,  0.3665755,  0.2568440   ,


	0.0156034, -0.0486039, -0.0944451 ,
	-0.3164188, -0.4192502, -0.0938157 ,
	0.1486865,  0.4262093,  0.2436491   ,


	-0.5948763,  0.4323191,  0.2615201 ,
	0.5515625,  0.0327898, -0.5275238 ,
	0.0920282, -0.4020216,  0.2289214   ,


	-0.3048526, -0.2825585, -0.1259137 ,
	-0.2986715, -0.3268626, -0.1885432 ,
	-0.2143059, -0.2639458, -0.0959987   ,


	-0.1759772, -0.1421945, -0.0474951 ,
	-0.3683286,  0.3442493,  0.4268751 ,
	-0.2080732,  0.2300293,  0.4126353   ,


	-0.6033704,  0.2863010,  0.1284446 ,
	0.0579065,  0.7181810, -0.1957113 ,
	0.2537296, -0.0414009, -0.5263335   ,


	0.7492498,  0.3620694, -0.0252616 ,
	0.3384601, -0.4580583, -0.5132792 ,
	0.0568151, -0.6081312,  0.0324237   ,


	0.3256820, -0.1810580, -0.1899568 ,
	0.6108787, -0.3022269, -0.3479806 ,
	0.2495040, -0.1201826, -0.1574708   ,


	0.2764942,  0.3296758,  0.1263748 ,
	0.3442071,  0.4268694,  0.1293859 ,
	0.1229341,  0.1355369, -0.0430891   ,


	-0.4237372,  0.1543797,  0.3794542 ,
	-0.8355063,  0.2344955,  0.5508339 ,
	-0.3979986,  0.1796979,  0.1449727   ,


	0.1174207, -0.6693417,  0.0089386 ,
	0.5166390,  0.3643878, -0.2896054 ,
	-0.5585796,  0.3943510,  0.2296390   ,


	-0.2114943,  0.3176887, -0.1087068 ,
	0.3930956, -0.8639565,  0.4309710 ,
	-0.1886781,  0.5316386, -0.3152444   ,


	0.6025994, -0.6657397,  0.1753926 ,
	-0.6609147,  0.6908227, -0.1304196 ,
	0.0909350, -0.0150283, -0.0430671   ,


	-0.1828950, -0.1624299, -0.0557405 ,
	-0.2530605, -0.2363861, -0.0716147 ,
	-0.1505290, -0.1302025, -0.0434393   ,


	0.0493819, -0.2535143,  0.2100029 ,
	0.1458054, -0.6478059,  0.4294329 ,
	0.1949662, -0.1996734,  0.0167421   ,


	0.0369151, -0.4877299,  0.5303262 ,
	0.0168574, -0.6506886,  0.6323606 ,
	-0.1182228, -0.1477708,  0.1691121   ,


	-0.5497321, -0.8702080, -0.5169194 ,
	-0.0882619,  0.0378669, -0.0159038 ,
	0.4886167,  0.8964366,  0.5289304
};

// Parameters for BN in Depthwise layer
// Weight shape =  torch.Size([96])

float MBConv6_1_depthwise_conv_BN_weights [96] =
{
	2.26644158, 1.78314602, 7.54778290, 1.74202824, 6.98250198, 5.53319550,
	5.79739237, 6.36100340, 4.82318211, 8.21686554, 4.18205643, 7.52636576,
	6.40987301, 5.96850061, 6.68623114, 2.82815647, 7.99283218, 8.14220333,
	7.70413208, 3.42034745, 2.75411153, 6.09666300, 2.02174163, 3.47824574,
	7.69254971, 8.50921822, 6.03920221, 5.44436407, 5.08561277, 6.05199862,
	1.56920838, 7.86770344, 2.78863311, 4.34802341, 8.16707993, 8.32144356,
	4.65652895, 8.04120350, 3.23937893, 3.64413619, 2.49421287, 4.05004978,
	4.40736771, 4.48216581, 1.93125105, 3.87033987, 3.59027791, 4.82303047,
	3.92984438, 5.37592506, 5.92824078, 4.36901569, 8.09664440, 5.63031578,
	7.67715406, 7.72844028, 2.32267761, 3.47506309, 3.88166714, 7.57040644,
	6.86402607, 2.98360467, 5.69586706, 8.56074142, 3.01290083, 5.98591328,
	5.00118160, 7.83633614, 3.01352167, 7.57634640, 3.66160655, 4.37258339,
	7.99065065, 4.54785681, 5.40690374, 2.12683368, 8.40695763, 8.61062622,
	1.90959728, 2.35166264, 6.56106472, 7.90893412, 2.23338079, 2.31810665,
	7.39371061, 3.22393894, 5.65550566, 3.30485225, 4.20515680, 7.64533997,
	7.92224884, 7.97746181, 1.82027829, 8.03793049, 7.98626041, 5.44581842
};

float MBConv6_1_depthwise_conv_BN_bias [96] =
{
	3.20471287,      5.69418859,      0.00431513,      6.92510128,
	-0.33699071,     -0.22658619,      0.04625693,     -2.45350456,
	2.09899807,     -0.40564105,      2.09300470,     -0.23143046,
	-0.00254062,      2.04321957,     -0.59856361,      2.75083113,
	-0.29765609,     -1.00797510,     -0.08101978,      1.17959058,
	2.17228889,     -0.17411663,      2.13131404,      4.09162474,
	-0.21716343,     -0.10962757,     -2.75750327,     -0.37416777,
	1.95115530,      0.03591470,     10.21253872,      0.05062884,
	2.29995704,      2.77174425,     -0.35061717,     -0.46550998,
	-0.99549270,     -0.24628976,      3.88982320,      2.73889589,
	2.14609313,      0.78829318,      0.97886038,     -0.36538038,
	4.16445065,     -1.19573617,      1.68272305,      1.92200327,
	1.92829812,     -0.07374667,     -1.86957002,      0.01902802,
	-0.09558879,      1.57162464,     -0.12492302,     -0.45484728,
	6.83045816,      0.58860195,      1.12787414,     -0.38431999,
	-0.34731752,      4.45086575,     -0.28858429,     -0.19305332,
	4.19513178,      1.78546882,      2.15226746,     -0.33531699,
	7.01639938,     -0.04412204,     -0.28190011,      0.43087390,
	-0.20085704,      0.80768669,      0.67050546,      3.23483276,
	-0.28133303,     -0.01802027,     14.60307598,      2.67294192,
	-0.48036078,     -0.21831726,      9.58172703,      4.03590727,
	-0.10224524,     -0.05591274,      1.54736972,      5.57688284,
	0.34853369,     -0.19701208,     -0.34594136,     -0.28807491,
	6.08853674,     -0.42015442,     -0.19102310,      0.58718890
};


float MBConv6_1_depthwise_conv_BN_mean [96] =
{
	0.18530780,     -2.25408244,     -0.09875073,     -1.94299316,
	-0.05481838,     -5.38477135,     -0.02344903,     -0.59888256,
	-0.48050174,     -0.08227687,     -0.38364279,      0.00066829,
	1.48181975,     -0.21825789,      0.94702101,     -0.28154182,
	-0.04010057,     -4.96914387,      0.34024745,     -2.66475224,
	1.13039589,     -7.59027147,     -2.65768075,      1.07174981,
	0.00824041,      0.29089522,     -8.82628250,     -0.40871218,
	-1.35646951,      0.25977662,      0.14073715,     -0.13456626,
	0.39880872,      0.00630659,      0.07171118,      0.03240237,
	-6.04209661,      0.04285568,      0.85032123,     -0.55830276,
	0.37056187,      0.18363062,      4.19834280,      0.04051487,
	0.06945308,     -0.20397255,     -0.06540806,     -1.15474367,
	-3.81569266,     -0.13019635,     -0.73355508,     -3.22241497,
	0.08541105,      0.00668483,      0.27517855,      0.26774403,
	0.36693889,     -4.37902880,      2.13965249,     -0.17189801,
	-0.05416374,     -0.09554365,      0.18618870,     -0.39002761,
	1.73836756,     -0.22745548,     -3.77497387,     -0.24171029,
	-2.35922623,      0.65407521,      1.40119207,      2.01869535,
	0.04499542,      2.94194961,      0.70401984,     -1.96011102,
	0.01422259,     -0.30232975,     -0.55195463,      0.34854221,
	-0.40103796,      0.13187519,     -2.98573732,     -0.06004808,
	0.21592161,     -0.27120900,     -0.27716056,      0.19580740,
	0.00010857,      0.25353321,     -0.02517428,      0.08337741,
	0.30098423,     -0.16641679,     -0.05375673,     -0.41265103
};


float MBConv6_1_depthwise_conv_BN_variance [96] =
{
	0.40449715,    14.08120060,     0.95550454,     6.24279404,
	3.71814990,    25.68579483,     0.52934682,     3.24817061,
	8.34625244,     1.57034695,     4.79107571,     0.49642485,
	6.51791430,    11.81429482,     2.07163548,     0.07191479,
	0.76969504,    69.66643524,     0.53307247,     2.95938206,
	7.51907063,    65.44480133,     2.04464126,     6.51260948,
	0.31733692,     2.62606215,     0.92284870,     0.36824489,
	9.24227524,     1.53093874,     0.10037021,     0.88705391,
	1.36633348,     4.24635839,     1.29830289,     2.29254818,
	4.82655907,     0.50288481,     4.07596350,     0.44977510,
	1.09786081,     4.89975834,     5.56258631,     0.26582137,
	0.45517424,     0.31544107,     2.64672709,     8.16560459,
	8.45606709,     5.38824987,     1.51082850,     0.81902510,
	1.13789940,     0.40064147,     0.76773381,     2.31361890,
	6.38408375,     1.20902455,     3.85184455,     0.36261344,
	0.19730799,     0.27695951,     1.84521556,     0.43040144,
	7.44585466,     3.73688006,    10.97890854,     1.50907671,
	16.60401154,     3.98971367,     1.06513727,     1.78673720,
	0.53336877,     3.58329630,     1.53991210,     4.76043558,
	0.86146110,     1.06622505,     2.46061754,     0.49817169,
	0.84269077,     0.65009445,    13.07285309,     0.01102832,
	3.45442224,     1.27047849,     3.25266218,     0.13868548,
	0.00877411,     0.85789073,     0.16437981,     0.19806245,
	0.00466445,     1.39159608,     0.76755410,     2.16246128
};
