
// weight for Expansion Convolution layer has dimension of  torch.Size([1, 1, 96, 16])
extern float MBConv6_1_expansion_conv_conv2d_weights [1 * 1 * 16 * 96] =  
{
	-0.04681228,     -0.04194699,      0.06801797,     -0.36168611,
	-0.07783087,      0.13122274,     -0.20759262,     -0.16457674,
	-0.01863848,     -0.84059161,      1.22954738,      0.01812686,
	-0.07824489,     -0.19691989,     -0.18005207,     -0.06437080,
	0.02616704,      0.04038151,     -0.07465443,      0.53367281,
	0.14682092,      0.01245060,     -0.02625583,     -0.09992983,
	-0.12321149,      0.90783691,     -0.98141527,     -0.05648438,
	0.35057276,      0.06680624,     -0.12130729,      0.15747179,
	-0.30988729,      0.12031672,      0.24143358,      0.23864841,
	-0.09535671,     -0.50814718,     -0.36324129,     -0.42760912,
	0.25574800,     -0.20474780,     -0.16109078,     -0.33263305,
	-0.18309973,      0.02938972,      0.17238912,     -0.10267635,
	0.28972927,      0.54094452,     -0.42846450,     -0.37066272,
	0.16030443,      0.70120764,     -0.05896593,      0.80300552,
	-0.14373013,     -0.20859267,      0.08210257,      0.09439172,
	0.34144002,      0.05550568,      0.04228188,      0.09044747,
	0.58235586,      0.25992674,     -0.11516666,     -0.05456765,
	-0.32939196,     -0.32501259,      0.08643742,      0.22005771,
	-0.04954500,      0.06057692,      0.07935470,     -0.42497915,
	0.18991490,      0.11058709,     -0.42848974,     -0.25442371,
	-0.54168063,     -0.13234682,      0.19237874,      0.10372810,
	0.06310418,     -0.07514671,     -0.01957596,     -0.11902612,
	-2.22803402,      0.22115818,      0.23486675,     -0.46359482,
	-0.06031629,      2.01079035,     -0.26684493,     -0.02073611,
	-0.45815030,     -0.22852325,     -0.44076052,      0.06381442,
	0.01911947,      0.31458765,      0.01335928,      0.03384716,
	0.29683748,      0.40944231,      0.05415666,     -0.39014423,
	-0.31625646,     -0.16560948,     -0.22080444,      0.16975929,
	-0.33193466,      0.10430663,     -0.11689080,     -0.14421290,
	-0.60960674,     -0.00824313,      0.06731883,     -0.07508076,
	-0.17576240,     -0.27523059,     -0.17596646,      0.07445856,
	0.17519595,     -0.27276999,      0.26537368,      0.39918059,
	0.17884414,      0.41147125,      0.08775616,     -0.04285932,
	0.34006050,     -0.08847158,      0.29534060,     -0.53837979,
	0.00408407,     -0.00801236,      0.02778484,      0.02426648,
	-0.07775945,      0.01708681,     -0.29167658,      0.74686688,
	0.45422673,     -0.13137567,      0.15703037,     -0.06769224,
	-0.10048610,     -0.09771629,      0.05344908,      0.18178707,
	0.14456971,      0.03371593,      0.01357086,     -0.60332662,
	0.13477126,     -0.10971890,     -0.22842190,     -0.03627662,
	0.30936715,      0.44609126,      0.05028994,      0.03959201,
	0.36623305,     -0.12899517,      0.41103038,     -0.51790261,
	0.15638849,     -0.04865513,     -0.06618262,      0.06843631,
	-0.08389039,      0.06138396,     -0.18243700,      0.82158381,
	-0.14779229,     -0.28057963,      0.36863276,      0.09908544,
	0.02296944,     -0.08201927,      0.25792488,     -0.19567135,
	0.17942117,      0.00988564,     -0.03561577,      0.06084080,
	-0.11921504,     -0.03020644,      0.27220544,     -0.06420444,
	-0.04895832,     -0.12501499,     -0.05929035,      0.07870496,
	0.16820654,      0.00041248,      0.00573367,      0.00741630,
	0.71123523,      0.00326133,     -0.06173092,     -0.29310325,
	-0.22290128,     -0.52878910,     -0.01630197,      0.02800601,
	-0.28993788,      0.01902899,      0.04059505,     -0.04025492,
	-0.12262970,     -0.10467037,      0.07013066,     -0.01775903,
	-0.77335685,      0.10928117,      0.11609878,      0.00817562,
	0.11066791,      0.62033427,      0.00131554,      0.02585698,
	-0.13286689,     -0.51090997,     -0.42472649,      0.11762261,
	0.27052671,      0.07391388,      0.45199746,      0.18341799,
	-0.04429596,     -0.09659961,     -0.01348326,      0.35813925,
	-0.14508063,      0.11294114,     -0.43375450,     -0.09016529,
	-0.27478212,      0.30218595,      0.08688848,     -0.00925736,
	-0.84628624,      0.18765575,      0.04150425,     -0.13989465,
	0.16340958,     -0.13521865,     -0.14626746,      0.20314835,
	-0.09799577,      0.01336536,      0.33255586,      0.28628257,
	0.00504503,     -0.39567545,     -0.24116026,      0.05220669,
	0.28726688,     -0.23838954,     -0.12984906,     -0.08145669,
	0.14172955,     -0.18728688,     -0.08626670,      0.31874526,
	0.04726116,      0.17895907,     -0.27119079,      0.02960991,
	0.26417905,      0.05411536,     -0.20247896,      0.13396512,
	0.09223106,      0.10043967,     -0.02142986,      0.02566360,
	1.49942672,     -0.12184342,     -0.14843085,      0.12451775,
	-0.30805278,     -1.18188763,      0.16770087,     -0.04996242,
	-0.02612153,     -0.21511850,     -0.12504731,      0.15947428,
	-0.24921025,      0.54799974,      0.61365819,     -0.04712416,
	0.03291262,     -0.07607205,     -0.08077078,      0.12504207,
	0.10203725,      0.07675232,     -0.40968868,     -0.18016447,
	-0.09455143,      0.04021520,     -0.03111861,      0.77562726,
	0.12067959,      0.12035422,     -0.15969637,     -0.28535119,
	-0.14025080,     -0.29093224,      1.18886614,     -0.09481353,
	0.55819535,     -0.44451168,     -0.20322323,      0.17568527,
	0.37547773,      0.11508729,     -0.51494646,      0.06028008,
	0.18705158,     -0.12074378,      0.22545479,     -0.84803391,
	-0.41620842,      0.36454025,      0.09119261,     -0.04022616,
	-0.14488161,      0.14965461,      0.26498574,      0.36632648,
	0.03060075,      0.08779816,     -0.24527881,      0.40905869,
	0.31292185,      0.26978347,     -0.25766534,     -0.00913121,
	0.64169991,     -1.74271953,     -0.57011789,     -0.14324164,
	0.35854411,      1.33059847,     -0.13906014,      0.37308133,
	-0.05525001,      0.01408710,     -0.00892378,     -1.15008330,
	0.10000255,      0.13510303,     -0.16548981,     -0.36924547,
	-0.20828533,     -0.06408843,     -0.92777592,     -0.06995597,
	-0.10301188,      0.00156050,     -0.30234841,     -0.15251017,
	0.08046093,      0.40348470,      0.36869600,     -0.04607066,
	0.34360361,     -0.66784495,     -1.09330893,     -0.08611258,
	-0.01039803,      0.19228642,      0.08522710,     -0.21393286,
	-0.12890361,     -0.07375856,      0.57202768,      0.10574442,
	0.38489860,      0.13887882,      0.23208988,      0.09400105,
	0.00473084,     -0.46151087,     -0.04856991,      0.03047844,
	-0.15224689,     -0.04721274,     -0.04149154,      0.37981737,
	0.14282370,     -0.00349019,      0.04071386,     -0.24883261,
	-0.51458216,     -0.21762474,      0.07922319,      0.04679840,
	0.32118583,      0.18335448,     -0.00563025,     -0.11414959,
	0.15050821,     -0.04653765,     -0.00416487,      0.38035002,
	-0.18832611,      0.06524470,      0.39426678,      0.17768702,
	0.15875106,      0.33896586,      0.39692956,     -0.14887926,
	-0.06432372,     -0.49929842,     -0.85305637,     -0.13246016,
	-0.05265284,      0.11969617,      0.03144270,     -0.15763541,
	0.00737713,     -0.10965651,      0.48713920,      0.20351791,
	0.34819996,      0.17208500,      0.36378747,      0.13487598,
	-0.33416787,      0.05326142,     -0.06041205,     -0.26944056,
	-0.07217700,     -0.03689882,     -0.06031344,      0.27100137,
	0.29891497,      0.23095761,      0.01443981,     -0.27138463,
	-0.40236905,     -0.20015478,      0.05032353,      0.32063872,
	-0.26988843,     -0.23330976,     -0.03562567,     -0.29452264,
	0.59737885,     -0.47591263,     -0.28196156,     -0.21132885,
	-0.10825077,      0.05450449,     -0.19311851,     -0.05681921,
	-0.33912641,     -0.14489250,     -0.33210456,      0.03256778,
	-0.11417649,      0.16335209,     -0.11103674,      0.10468028,
	0.04170811,      0.40495875,     -0.01828375,     -0.47818664,
	-0.10196167,     -0.33901110,      0.06536822,     -0.01148101,
	-0.31301776,      0.33726335,      0.71657789,     -0.14115971,
	0.21332882,     -0.13055603,      0.11720832,      0.26070634,
	-0.05727061,     -0.20967953,     -0.01132768,      0.12503152,
	0.01410668,      0.19889094,     -0.65831310,      0.50468034,
	-0.28975752,     -0.21372926,      0.20725977,      0.45513889,
	-0.12362180,     -0.27009803,      0.08682901,     -0.28824353,
	0.44283280,     -0.39544845,     -0.33201504,     -0.07513160,
	-0.15119456,      0.07639907,     -0.14482735,     -0.21186382,
	-0.04131783,     -0.02242583,      0.01501176,      0.83524090,
	0.01237526,      0.07509281,     -0.14258315,     -0.15903607,
	-0.13590197,     -0.27571294,      1.19573319,     -0.05324258,
	0.33229113,     -0.35118714,     -0.18304312,      0.26105511,
	-0.41004166,      0.09729121,      0.76773959,     -0.18366992,
	-0.00175041,      0.11223402,     -0.21411796,      0.53799921,
	-0.04323004,     -0.12912056,     -0.00892943,      0.12405295,
	-0.03765598,      0.03956470,     -0.65677994,      0.13666414,
	0.14500102,      0.48416403,      0.06077180,     -0.04890817,
	-0.17428544,      0.63597715,      0.22506703,      0.13064913,
	-0.17871951,     -0.02782347,      0.07012902,     -0.47624949,
	-0.13084063,     -0.15880169,      0.28203785,     -0.09340804,
	0.10141555,      0.54219842,      0.47121081,      0.06554244,
	-0.38017806,      0.36015603,     -0.07560384,     -0.17866018,
	-0.14796354,     -0.06700934,     -0.13785502,     -0.38457659,
	0.17132440,     -0.22008839,      0.22454999,     -0.17503837,
	0.54336828,     -0.11147487,     -0.77314836,      0.19401346,
	-0.03897699,     -0.07677928,      0.17608856,     -0.62019360,
	0.20718899,      0.01972825,     -0.04067456,     -0.09332461,
	-0.05285494,     -0.08129486,      0.59767616,     -0.10970733,
	0.22525202,      0.21685801,      0.23215370,      0.16315769,
	-0.33162504,      0.21549426,     -0.09993021,     -0.35697570,
	0.00837525,      0.19551994,      0.06095672,      0.46188137,
	0.05847510,      0.00458298,     -0.10083039,     -0.36949581,
	0.55612910,      0.65281636,     -0.58938336,      0.21570548,
	-0.27496687,     -0.41665152,     -0.12445772,      0.25592718,
	-0.09246038,      0.10710052,      0.05658050,     -0.36762103,
	-0.15048991,      0.04694225,     -0.84189302,     -0.46126470,
	0.07501604,     -0.05145107,     -0.03951787,     -1.19294977,
	-0.06996861,      0.08306938,     -0.12836307,     -0.33175409,
	0.02523099,     -0.55060393,      0.05961977,      0.04475832,
	-0.56563258,      0.16237794,     -0.07316178,     -0.25280032,
	0.01873550,      0.03184409,     -0.00913842,     -1.15608025,
	0.01534273,      0.04031594,     -0.03369557,     -0.18623193,
	-0.04504829,     -0.05494685,     -0.97118998,      0.00786449,
	-0.39407238,      0.24413906,     -0.11856349,     -0.14922826,
	-0.12730420,     -0.30461472,     -0.13303778,      0.00342417,
	-0.15254389,      0.27012664,     -0.48298490,      0.13825282,
	-0.03194667,      0.05245019,     -0.18068933,     -0.07986204,
	0.29142964,     -0.05896951,      0.02360904,     -0.51509327,
	-0.18527761,      0.08716734,      0.11070058,     -0.07617363,
	-0.04958676,      0.06155106,     -0.02743488,     -0.07955042,
	-1.74350691,      0.17170835,      0.20680305,      0.09460264,
	0.16231388,      1.43918657,      0.06618778,     -0.02034104,
	0.01759158,      0.26732573,      0.21762411,     -0.17721514,
	0.21830113,     -0.10794996,      0.24863610,     -0.17108034,
	-0.02333423,      0.11048575,      0.15094292,      0.04205630,
	-0.20921038,     -0.29015875,     -0.25110203,      0.46057326,
	0.41970053,     -0.22922075,     -0.09892181,     -0.34612453,
	-0.43771517,     -0.12418442,      0.09797753,      0.05491187,
	0.14927599,     -0.50926477,      0.42917851,      0.09862447,
	-0.91111010,      0.27698222,      0.25355682,      0.29617393,
	0.18273960,      0.06034911,     -0.20508991,      0.61522883,
	0.08296236,     -0.00045092,      0.05846055,     -0.13227671,
	0.00834519,      0.54272133,     -0.43791667,     -0.05375991,
	0.15776311,      0.04184581,      0.08760323,      0.29665431,
	0.13727137,      0.18846951,      0.08246338,     -0.04483832,
	0.19943230,      0.06060642,      0.04933365,     -0.26022869,
	-0.21710131,      0.45284230,      0.01236037,      0.09412421,
	-0.21832976,     -0.22172956,     -0.16022424,      0.32506758,
	0.01697022,      0.03024185,      0.02932176,      0.11234400,
	-0.13820077,     -0.16698854,      0.00683589,      0.04666865,
	-0.32714614,     -0.51019692,     -0.14739303,      0.12960939,
	0.24940392,      0.75225854,      0.05172876,     -0.01345721,
	-0.46412852,     -0.03151343,     -0.10237918,     -0.05016697,
	-0.02315758,      0.29958871,      0.07412127,     -0.06964352,
	0.19754751,      0.60234922,      0.15039106,     -0.45753479,
	-0.60971522,     -0.74009776,     -0.14999758,      0.19594634,
	0.08485990,      0.23677842,     -0.22364470,     -0.26925579,
	0.15637907,      0.19862734,     -0.01331229,      0.33649820,
	-0.38226560,      0.21344867,      0.21932673,      0.12474448,
	-0.00189512,      0.03956003,      0.10096280,      0.09585842,
	-0.26986569,     -0.12689327,     -0.18970042,     -0.30253232,
	-0.60837185,     -0.15759741,     -0.02060364,      0.03828663,
	0.00748450,     -0.14908910,     -0.10850032,      0.12938888,
	0.15003599,     -0.10755551,      0.15415317,      0.49803206,
	0.25912416,      0.47349212,      0.07673285,     -0.01607259,
	0.36800024,     -0.03785387,      0.26173574,     -0.57646233,
	0.14819150,     -0.35408410,     -0.12865281,     -0.01168203,
	0.02045192,      0.24421087,     -0.38990662,      0.99835503,
	0.16125377,      0.49992689,     -0.44355929,      0.15154891,
	-0.18143031,     -0.24411945,     -0.06230219,      0.20557524,
	0.10229617,     -0.00248902,      0.01535348,      0.08726881,
	-0.14497738,     -0.05232841,     -0.38686016,     -0.24731876,
	0.05008120,      0.05789989,     -0.04794275,      0.09285913,
	0.06704906,      0.26222047,     -0.22041290,     -0.26245767,
	0.27203187,     -0.58559650,     -0.26803777,     -0.06224838,
	0.30845934,      0.48218665,     -0.22222877,      0.23363806,
	0.03373827,     -0.33730438,     -0.21926750,      0.11284398,
	-0.08834574,      0.35369712,      0.62232816,      0.09827294,
	0.00998590,     -0.14144000,     -0.08673790,      0.17544940,
	0.08860199,      0.08172595,     -0.39188585,     -0.13252807,
	0.03450780,      0.08410069,      0.02309273,      0.02469893,
	0.28006318,      0.10907503,     -0.00392830,      0.02118300,
	-0.26941267,      0.00408330,      0.08373566,      0.76670736,
	0.02433491,      0.18468134,      0.31134540,     -0.08094424,
	-0.54631364,      0.09719416,      0.75866383,     -0.13049263,
	-0.00151032,      0.01753943,     -0.15295108,      0.48255014,
	-0.18822443,      0.00436153,      0.05462312,      0.02705636,
	0.03767275,      0.08428377,     -0.69981891,      0.08875115,
	-0.27520186,      0.09354017,      0.19400746,      0.15222755,
	0.13157308,     -0.00577639,      0.00786684,      0.04156536,
	-1.18838108,      0.04460101,      0.12528288,      0.05037739,
	-0.12990469,      1.16976559,     -0.24404930,     -0.12101981,
	0.27777719,      0.44102013,      0.25837526,     -0.08847392,
	0.22567257,     -0.12829231,      0.39177033,     -0.66063416,
	-0.22998151,      0.59988058,      0.18101811,      0.10923432,
	-0.41285762,     -0.31210086,     -0.31084809,      0.77831203,
	-0.15199079,      0.29340133,      0.09285543,      0.04247175,
	0.02488502,     -0.33934078,     -0.28062457,      0.01547898,
	0.11167444,      0.00343595,      0.02466295,     -0.16311850,
	-0.16915715,      0.10063820,      0.31463885,      0.00689667,
	-0.07023069,      0.08225235,      0.04699403,      0.06030269,
	-0.25278664,      0.55844939,     -0.12478720,     -0.35691035,
	0.09874305,      0.18649897,      0.04120141,      0.13776524,
	-0.03526814,     -0.08052932,     -0.17603424,     -0.02358614,
	0.17032829,     -0.37294853,     -0.03291612,     -0.36230725,
	-0.25592917,     -0.06348567,     -0.27739736,     -0.10594252,
	0.76449728,      0.62548000,      0.35201591,      0.07049218,
	-0.00929372,      0.57137692,     -0.24489382,      0.19232768,
	0.19772974,      0.03420998,      0.19764000,      0.21493718,
	0.13081601,     -0.33435491,      0.06192551,      0.05273947,
	0.04023184,     -0.36852020,     -0.12603894,      0.19819720,
	0.16701911,      0.38374209,      0.12506866,     -0.23661754,
	0.13915479,     -0.36241108,      0.26759896,     -0.19675933,
	0.14273930,      0.06109239,      0.16790253,      0.06282433,
	-0.03542390,     -0.10855618,     -0.02487943,     -0.56300926,
	0.20329332,     -0.06233472,      0.13216764,      0.16001886,
	-0.12312354,     -0.38046333,      0.51861978,      0.69412947,
	-0.05760270,     -0.27014580,     -0.10634033,     -0.58645433,
	0.71107149,     -0.15523054,     -0.26488319,     -0.46113366,
	-0.55983037,      0.10059432,     -0.28170380,     -0.31891271,
	-0.02398699,     -0.01072083,      0.14053515,      0.09893149,
	0.03882600,      0.01986075,     -0.01426401,     -0.00398392,
	-0.77111965,      0.11644096,      0.13952512,     -0.19998471,
	-0.06280472,      0.81076062,     -0.10057859,     -0.09753711,
	-0.11064083,      0.20548810,     -0.16740936,     -0.33339143,
	-0.18323576,      0.12309064,      0.15891372,      0.14890072,
	-1.18194973,      0.71882570,      0.36562049,      0.11453939,
	0.00199552,      0.16480032,      0.11568484,      0.06065204,
	0.38440618,      0.07226075,     -0.04832669,     -0.03763839,
	-0.15192525,     -0.13886318,      0.04256747,      0.14210258,
	-0.04238567,      0.02531446,      0.00743550,     -0.41823107,
	0.15211909,     -0.04350248,     -0.30654335,     -0.14192556,
	-0.53414935,      0.29529500,     -0.12535225,     -0.20693526,
	-0.18114032,     -0.00592997,      0.06729846,     -0.07266423,
	-0.26285645,     -0.09459632,      0.00741837,      0.62727612,
	0.43938962,      0.24168034,      0.45875153,      0.18317755,
	-0.35302794,      0.01785329,     -0.19203268,     -0.09440994,
	0.09483180,      0.12483293,      0.13137940,      0.15998885,
	0.25365004,      0.38771799,      0.12674753,     -0.48934564,
	-0.36974603,     -0.53122723,     -0.01183792,      0.12308897,
	0.05185243,     -0.21255724,     -0.56888473,      0.13233528,
	-0.08223274,      0.10726168,     -0.15249225,     -0.30023262,
	-0.24211344,     -0.08337762,     -0.05306460,     -0.17981328,
	0.22812589,      0.40401354,      0.36501256,     -0.30671620,
	-0.28315035,     -0.12452839,      0.15430968,     -0.09422731,
	-0.24755321,     -0.16513339,      0.16865405,      0.49824351,
	-0.34153473,      0.59155536,      0.19251154,      0.03979706,
	-0.16097935,     -0.24812482,      0.18160664,     -0.42343965,
	-0.02405975,     -0.47632480,      0.14658920,      0.06688168,
	-0.07129343,     -0.12854712,     -0.23912662,     -0.50813216,
	0.16584332,      0.09807474,     -0.01741743,     -0.04279188,
	0.04991845,     -0.14259429,     -0.22563607,     -0.06158236,
	0.17731534,      0.06776500,     -0.05336134,      0.31498510,
	0.11651787,      0.18801124,     -0.15225473,     -0.21048956,
	0.48987201,     -1.40174186,     -0.47360221,     -0.07286419,
	0.33442655,      1.12158501,     -0.20597453,      0.36303547,
	0.46108839,     -0.01265033,      0.29076514,      0.13847421,
	-0.06183234,     -0.21041013,      0.00691899,     -0.09361275,
	-0.31234810,     -0.28728306,     -0.07153989,      0.51811916,
	0.26376075,      0.50242662,      0.08294968,     -0.21703473,
	0.03327133,      0.04961806,     -0.00807848,     -0.05481344,
	0.11024881,     -0.02273616,      0.05080453,      0.10517560,
	-0.00610659,      0.94504905,     -1.41425967,      0.00092757,
	0.20318849,      0.24675363,     -0.02402982,      0.00796742,
	-0.18807054,      0.25712967,      0.21616946,      0.15068382,
	-0.06394558,     -0.26206058,     -0.08684687,     -0.00800155,
	0.20148236,     -0.23637067,     -0.12536964,     -0.25586021,
	-0.06160126,      0.20172545,      0.38063067,     -0.01148941,
	-0.52863044,     -0.27151102,      0.02862758,     -0.07648154,
	0.10009661,      0.08422688,      0.06703787,     -0.16646023,
	0.31351411,     -0.12356504,     -0.16476685,     -0.53105128,
	-0.01535714,     -0.47043312,      0.11484753,      0.26591435,
	0.23531015,     -0.89375544,      0.83587170,     -0.17951131,
	0.51910657,      0.39986756,      0.22627488,     -0.19119604,
	-0.02744131,     -0.03156242,     -0.00623484,     -0.49300659,
	0.17692982,     -0.03831030,      0.55279142,      0.21483852,
	0.24399419,     -0.34404784,      0.05943629,      1.08088195,
	-0.51941133,      0.05757875,     -0.24242242,      0.50559270,
	-0.02664010,      0.87791502,     -0.46587938,      0.10234419,
	-0.06520438,      0.32270148,      0.05544725,      0.64887172,
	0.11451358,      0.28881773,     -0.16035274,      0.15076801,
	-0.24026698,     -0.15729940,     -0.12826674,     -0.12146808,
	0.00028776,      0.07596733,     -0.03847924,      0.49155512,
	0.03593568,     -0.01690843,     -0.20344320,     -0.26949513,
	0.25222278,      0.17518522,     -0.13820846,     -0.17124099,
	0.13023621,      0.23021035,     -0.00067531,      0.23822857,
	-0.34842461,      0.27774957,      0.18391156,      0.12582496,
	0.09097613,      0.02904649,      0.10326666,      0.11788853,
	0.07399662,      0.02934772,     -0.46454796,     -0.43908304,
	0.44714040,      0.53116661,     -0.12283294,      0.43439606,
	-0.36016205,      0.71101624,      0.39312327,     -0.15672605,
	-0.45176184,     -0.47743598,      0.02119045,      0.26022971,
	0.09409780,      0.03636011,     -0.04873595,      0.12146548,
	0.06507436,      0.39140895,     -0.42052400,     -0.10206572,
	-0.19221234,     -0.37569970,     -0.44735891,     -0.08197314,
	0.08902812,     -0.05842401,     -0.26062918,      0.30425364,
	-0.17189261,     -0.11762495,      0.07966647,      0.29023796,
	-0.05589869,     -0.20166172,      0.01972635,     -0.15130010,
	0.58839965,     -0.36195448,     -0.29060984,     -0.18264532,
	0.01322696,      0.00495350,     -0.06282424,     -0.15203136,
	0.04453276,      0.18626003,      0.01124399,     -0.03998966,
	0.12182204,     -0.24027716,      0.46587095,      0.24267331,
	0.35628489,     -0.08522566,      0.08438471,     -0.02325990,
	-0.01939459,      0.05122845,      0.45568532,     -0.31908813,
	0.13808368,      0.02015905,     -0.07250422,      0.10728896,
	-0.00051282,      0.22097957,     -0.23163547,     -0.19964468,
	0.27909434,     -0.58958274,     -0.17377406,     -0.02077565,
	0.14752476,      0.41162348,     -0.20300937,      0.34739947,
	-0.10936923,     -0.04282043,     -0.08182582,      0.07459145,
	-0.44807306,     -0.12667090,      0.19393545,      0.16999818,
	-0.59939879,     -0.71550018,     -0.49243200,      0.13144629,
	-0.33517638,     -0.59813309,      0.43212542,      0.34298575,
	0.10524099,     -0.38605592,     -0.29004544,     -0.44638687,
	-0.28473333,     -0.08443011,     -0.26424870,      0.02647799,
	0.24114004,      0.37813094,      0.25375172,      0.32919779,
	0.11231485,      0.08877971,     -0.10457454,      0.50707179,
	0.35306057,      0.10251308,      0.28176787,      0.14773422,
	-0.20741710,     -0.05642132,      0.00161834,     -0.18454096,
	-0.14385511,     -0.17218843,     -0.06674643,      0.39249730,
	0.28083029,      0.40676203,      0.06778002,     -0.23833001,
	0.20599839,     -0.44732550,     -0.10398512,     -0.06100282,
	-0.02423044,      0.17884468,     -0.28264681,     -0.31713584,
	-0.04329589,      0.06243877,      0.02801172,      0.16015667,
	0.25528413,     -0.19300517,     -0.59757453,     -0.04417650,
	0.19396661,     -0.02042050,     -0.01135546,     -0.03317759,
	0.33142680,     -0.55371839,     -0.00641523,      0.29541579,
	-0.09783322,     -0.33786067,     -0.09629315,      0.05008429,
	0.16324647,      0.17296343,      0.18594536,      0.03371768,
	0.22931851,     -0.44420013,     -0.10392161,     -0.47390759,
	-0.14290172,     -0.43537682,      0.02986081,      0.09621970,
	-0.11797213,      0.15045945,     -0.06341773,     -0.12563178,
	0.41827413,      0.00690758,     -0.19516933,      0.25934142,
	0.21031199,      0.42552096,     -0.40597051,      0.10825091,
	-0.18536408,     -0.20242544,     -0.08460815,      0.16632821,
	0.13493644,      0.00459303,     -0.00549147,      0.07987682,
	-0.08840530,     -0.09504542,     -0.36650002,     -0.19801444,
	0.00693463,     -0.30333143,      0.03419406,      0.13769479,
	0.27535740,     -0.54571563,     -0.19545709,     -0.02131447,
	0.28632042,     -0.22873633,     -0.09046836,      0.21270630,
	-0.06038821,      0.29157296,     -0.08479075,     -0.13077055,
	0.25516900,      0.16307135,      0.19286287,      0.60616070,
	0.54460877,      0.30964863,     -0.05063542,      0.08024729,
	-0.64903480,     -0.10102094,     -0.35560989,      0.20243797,
	-0.23481120,     -0.36479002,      0.06577200,     -0.39892498

};

// Parameters for BN in Expansion Convolution layer
// Weight shape =  torch.Size([96])


float MBConv6_1_expansion_conv_BN_weights [96] = 
{
	1.48427939,  5.45921326,  0.68809891,  4.46504450,  1.90564775,
	10.74465466,  0.51769245,  2.49091959,  4.77271461,  1.04871321,
	3.29709721,  0.77601999,  2.22633076,  4.64755630,  2.00044966,
	0.87847418,  0.85965216,  9.08456230,  0.82456481,  1.57163012,
	3.75072169,  9.32580853,  1.27033138,  3.76785231,  0.46326122,
	1.55802619,  0.87890303,  0.63312411,  2.70458031,  1.10795879,
	1.95496964,  0.62519056,  1.99078822,  5.35004568,  0.76733816,
	0.73175830,  1.94259322,  0.51749557,  3.40981483,  0.90079588,
	2.28789639,  3.39584398,  2.61212039,  0.72718793,  1.20801830,
	0.73023337,  2.26325774,  2.96560788,  3.36827564,  3.30971408,
	1.36766553,  1.06014967,  1.34551394,  0.75815660,  1.11018240,
	1.23617101,  4.50833035,  0.81837481,  2.67508769,  0.65480757,
	0.46474147,  0.75746781,  1.41872573,  0.73691761,  4.03114986,
	2.71736741,  3.57194853,  1.68745720,  4.78137636,  1.41569448,
	1.28961909,  1.28970039,  0.60828441,  1.57724917,  1.34674168,
	2.04105353,  0.86967301,  0.69377512,  3.21745491,  1.00325429,
	0.92839223,  0.68272620,  5.33560944,  0.46830070,  1.53849602,
	0.48927799,  2.05908132,  0.35466614,  0.14364064,  0.68851322,
	0.37233838,  0.36395413,  0.61423218,  1.58386338,  0.56548822,
	0.98378193
};

float MBConv6_1_expansion_conv_BN_bias [96] = 
{

	-0.20293140,  2.65908790,  2.95143175, -0.54874307,  2.62180638,
	-0.05377813,  2.06694126,  1.42618203,  1.80250955,  1.80425107,
	1.66620266,  2.22888732,  2.88237071,  2.22847533,  2.29822755,
	-1.57525122,  2.14600086,  1.35804093,  2.45375657,  2.31303620,
	-0.06523336,  1.67459810,  2.40121031, -1.10337365,  2.29972148,
	2.58287764,  3.91337752,  2.38416004,  2.74381757,  2.26390553,
	-1.23646116,  2.40432405,  0.14975291,  1.24683952,  2.74955225,
	2.68487477,  3.49823141,  2.30086064, -1.06739640,  0.67989129,
	-0.22803792,  2.68441367,  1.49803293,  1.89068556, -0.33771989,
	2.71428466,  2.51821971,  2.38768482,  2.74740481,  2.17842460,
	2.07627034,  1.81243515,  2.85366058,  0.84653562,  2.20767093,
	2.34932137,  2.05829930,  1.95571899,  0.81724012,  2.92175627,
	2.27468157, -0.42285508,  2.78406715,  2.19580913, -0.69228339,
	1.71019125,  2.23471498,  2.36944056, -0.36599746,  2.54583740,
	2.09980464,  2.79600024,  2.34586716,  1.24244368,  2.10365534,
	1.34263110,  2.89003325,  2.55584979, -1.26117706,  0.18124285,
	2.72632790,  1.92678237, -0.52345389, -0.47457290,  2.75397658,
	8.52413368,  2.11408806,  0.14201549,  0.07417167,  2.40271592,
	1.80743241,  2.09195852, -1.61693084,  2.65958476,  1.77061939,
	3.45676470		 
		 
};


float MBConv6_1_expansion_conv_BN_mean [96] = 
{
	0.00085942,      0.00061372,     -0.00766707,      0.00613810,
	0.00851062,      0.03012798,     -0.00738549,      0.00244964,
	-0.00674982,      0.00182547,     -0.00723029,     -0.00269393,
	-0.01294559,      0.01140002,      0.00223836,      0.00250923,
	-0.00292809,     -0.02200307,      0.00841447,      0.00729164,
	0.00027807,      0.00183945,     -0.01069081,     -0.01178489,
	0.00420999,     -0.00731625,     -0.00645405,      0.00868380,
	-0.00578814,     -0.00362014,     -0.00289511,     -0.00365122,
	0.00822680,     -0.00130875,      0.00438943,      0.00425730,
	-0.00050538,      0.00525160,      0.00700699,     -0.00876518,
	-0.01075791,      0.00319045,      0.02564405,     -0.00697960,
	-0.00016331,      0.00155908,     -0.00420455,      0.01101069,
	-0.01253061,      0.00322261,      0.00068934,     -0.00711439,
	0.00168160,     -0.00004407,      0.00740993,      0.00304179,
	0.00043900,      0.01691601,     -0.00773008,     -0.00473426,
	0.00017859,     -0.00452367,      0.00429245,     -0.00019702,
	-0.00893739,      0.01238900,      0.01324312,      0.00450505,
	0.00417078,     -0.01016878,      0.00736176,      0.00489385,
	-0.00397727,      0.00323342,      0.01133228,     -0.00340437,
	-0.00250000,     -0.01133697,     -0.00289389,      0.01094170,
	0.00318516,      0.00450662,     -0.00600394,     -0.00047564,
	-0.00533085,     -0.00116700,     -0.00031260,      0.00341189,
	-0.00228423,      0.00980248,      0.00082873,      0.00045297,
	0.00200102,      0.00114964,     -0.00435250,      0.00377458			 
};


float MBConv6_1_expansion_conv_BN_variance [96] = 
{

	43.19070435,  38.94707108,  74.48043060,  93.81486511,  55.72869492,
	427.46923828,  66.85494232,  42.31955719,  58.10881424,  32.53297043,
	70.46336365,  23.15400314,  62.39685059,  57.23136139,  47.30730438,
	42.16535950,  22.53960037, 199.40026855,  48.98530579,  55.85264969,
	60.03998947, 208.15641785,  47.62281799, 127.25842285,  36.11946106,
	35.42768478,  84.77854919,  33.75341415,  72.63933563,  40.74670410,
	72.07035065,  65.46335602,  52.07414246,  67.83843231,  44.63735199,
	42.17025757,  80.21995544,  22.56940842, 121.25995636,  42.71158600,
	49.30543900,  24.47827339, 278.44073486,  26.88555145,  25.77340126,
	26.60714149,  22.45286179,  53.58284378, 106.25814056,  41.89517975,
	22.36488914,  98.99798584,  41.34317017,  43.54813766,  45.64987946,
	43.89183426,  76.89622498, 148.93856812,  81.64586639,  22.19452286,
	14.78032207, 164.66390991,  35.39501953,  26.99370384, 154.18925476,
	60.80878448, 141.46807861,  21.90480614,  68.30017090,  66.25698853,
	31.54608536,  58.86924362,  28.17222023, 161.19630432,  66.92576599,
	51.91246414,  27.58125496,  67.87020874, 121.22930145,  55.75984573,
	28.55060577,  34.47595978, 139.37844849,  40.89465714,  49.60519791,
	18.94436073,  36.71395874, 180.72901917,  57.26446152,  45.02716446,
	18.16284180,  25.87956619,  27.88718033,  35.17727280,  41.34504318,
	98.73000336
};











