
// Weight for Project Conv layer has dimension of  torch.Size([1, 1, 24, 96])
const float MBConv6_1_project_conv_conv2d_weights [1 * 1 * 96 * 24] =
{
	0.29374632,      0.04215352,     -0.77941352,      0.28511316,
	-0.06815646,     -0.49284229,     -0.21434163,     -0.03149998,
	0.02624640,     -0.05705527,     -0.23222634,      0.16532925,
	0.23522106,      0.25569382,     -0.67046261,      0.03426376,
	-0.39684439,     -0.26326865,     -0.12244955,      0.03958821,
	0.04069843,     -0.60624051,      0.12882988,     -1.04093075,
	0.04443064,     -0.12223821,     -0.68101996,      0.07718565,
	-0.27811679,      0.10958391,     -0.21768561,      0.30592155,
	0.18688911,      0.17702350,     -0.89513373,     -1.09085333,
	0.26954186,      0.01822238,      0.20729989,     -0.07694313,
	0.23789710,     -0.28550288,      0.46513876,      0.11444859,
	0.30705008,      0.12961161,     -0.12779498,     -0.10732964,
	0.41088021,      0.15645450,     -0.06889756,      0.29643553,
	-0.03042205,      0.08523008,     -0.03948399,      0.07010551,
	0.04905338,      0.26123369,      0.13422325,      0.02638011,
	-0.05068603,      0.84204745,     -0.59330684,     -0.02529867,
	0.15763244,     -0.16954681,     -0.12665011,      0.10725714,
	-0.56728828,      0.07977110,      0.21388541,     -0.15492348,
	0.10063417,      0.49158669,     -0.09463934,      0.04956836,
	-0.21776022,      0.10934631,      0.02830664,      0.28043628,
	-0.21327353,      0.23047124,      0.17807581,     -0.05154101,
	0.01323119,      0.42815650,     -0.22925152,      0.84719431,
	-0.09620406,      0.23456658,      0.08299387,     -0.06148738,
	-0.44792041,     -0.04973354,     -0.87155682,      0.28447685,
	0.25011417,      0.00553427,      0.05522918,     -0.06194615,
	-0.65010673,      0.33587113,     -0.13150553,      0.09800448,
	-0.12216245,     -0.61155540,      0.09323637,      0.11895792,
	-0.54706591,     -0.09322739,      0.02929691,      0.03436804,
	-0.06711264,      0.31460658,      0.09018122,     -0.08322044,
	0.25026220,     -0.78071654,      0.20990208,      0.20495455,
	-0.46121168,     -0.46173850,      0.16953103,     -0.42372251,
	-0.26974255,     -0.44480035,      0.16189711,     -0.03283944,
	0.15941602,     -0.27674061,      0.06637570,      0.07618763,
	0.37164181,     -0.39088660,      0.02468315,      0.12538216,
	0.04524865,      0.19917177,      0.29611889,     -0.21585786,
	-0.08163864,     -0.00819544,      0.08783160,     -0.03121382,
	0.39941353,      0.01842023,     -0.05302133,      0.41793662,
	0.75251555,      0.24981607,      0.10086953,     -0.68367445,
	-0.14249843,      0.36852151,      0.41337729,     -0.13966940,
	-0.27038643,     -0.31791881,      0.14317846,     -0.09891088,
	0.27045700,     -0.10457247,      0.21366617,     -0.12849239,
	0.24374309,     -0.36849266,     -0.12318149,      0.28683659,
	-0.19491431,      0.78433299,      0.06254880,      0.15557161,
	-0.11979450,     -0.84548748,     -0.20117474,     -0.13184109,
	-0.45418152,     -0.12408906,     -0.11147805,     -0.23792335,
	0.10437173,      0.06985936,     -0.14224745,     -0.00488456,
	0.20232023,     -0.50992841,     -0.14755866,     -0.36899623,
	0.40296593,      0.74991167,      0.18430425,     -0.18234652,
	-0.35022771,      0.22154768,      0.05573347,      0.09704819,
	-0.04066525,      0.26797837,      0.12947969,      0.45154512,
	-0.11733944,      0.02592170,      0.43271482,      0.18886559,
	-0.30875081,     -0.04025644,     -0.15780169,      0.43438902,
	-0.04353083,      0.27872860,     -0.32298401,      0.06276850,
	0.01257063,     -0.04609623,     -0.05986784,     -0.28862754,
	0.36323038,      0.11058775,     -0.27872646,      0.09272040,
	-0.12559138,     -0.05108738,     -0.12731075,     -0.35676745,
	-0.29179701,     -0.43153286,     -0.00552246,      0.04447687,
	-0.28402263,      0.38890684,      0.73936439,     -0.19738699,
	-0.31611079,      0.31527984,     -0.55068296,      0.02253761,
	-0.00203627,      0.10495501,      0.06423898,      0.00972904,
	-0.23545921,     -0.26519141,     -0.25087503,      0.31025904,
	0.06593493,      0.58726537,     -0.32740015,     -0.01164442,
	-0.05999980,     -0.25611931,      0.47008684,     -0.03377536,
	0.18577985,      0.46037528,      0.05846269,      0.32431528,
	0.01820690,     -0.33283710,      0.04531338,      0.17451155,
	-0.40276513,      0.01650997,      0.02554611,      0.45740783,
	0.05244667,      0.42420924,     -0.04600499,      0.13415612,
	0.00796546,     -0.08826747,     -0.84313363,     -0.10036618,
	0.25609446,     -0.22391574,     -0.92076904,     -0.05904709,
	-0.35114402,      0.67824990,     -0.00419581,      0.12698433,
	0.04102044,     -0.11602964,      0.05062195,      0.29457369,
	0.08301660,      0.00096906,      0.08373181,     -0.35648048,
	0.11989641,      0.01854447,     -0.24716929,     -0.18529575,
	0.06044138,      0.30849183,      0.03560061,     -0.20480360,
	-0.07806264,      0.11762895,      0.12909739,     -0.06871689,
	0.06526070,     -0.11637426,     -0.04337023,     -0.13571373,
	-0.28655779,      0.19651216,      0.11185697,     -0.09925210,
	-0.12003665,      0.05359231,     -0.16858792,      0.40752351,
	0.00367529,      0.10219090,      0.30828586,     -0.09295092,
	0.19808912,     -0.08793157,      0.51462775,      0.22221729,
	0.07780374,     -0.02894616,     -0.03859314,     -0.16083059,
	-0.21903129,     -0.03246776,     -0.30949858,     -0.01812606,
	0.10038026,      0.06699626,     -0.28626695,     -0.10163599,
	-0.07079203,      0.04817840,     -0.05201915,     -0.25036871,
	-0.02742117,      0.17942128,     -0.13275914,     -0.36542386,
	0.07633515,      0.00504982,      0.14091724,      0.16535181,
	-0.15045696,     -0.43713447,     -0.17555796,     -0.30493304,
	-0.06934421,      0.11166260,     -0.24124035,      0.06553583,
	-0.40810111,      0.02284077,      0.02058033,      0.08318842,
	0.01881116,      0.17587698,     -0.22704713,      0.06817710,
	-0.26620287,      0.36508095,      0.01907079,      0.03178140,
	-0.36484185,      0.14316961,      0.26058728,      0.02306755,
	0.00498177,      0.02187346,     -0.45476338,     -0.06928673,
	0.23300274,      0.49839953,     -0.10453503,      0.10728627,
	0.06337392,      0.31628197,     -0.31457230,     -0.18614356,
	-0.11487181,      0.09721488,     -0.33815891,     -0.19014581,
	-0.71893787,     -1.27905154,      0.00467697,     -0.07028959,
	-0.13391459,     -0.45945439,      0.10150472,      0.09710392,
	-0.48369804,     -0.17504178,      0.47700992,     -0.18422942,
	-0.17544354,      0.05077137,     -0.07193024,      0.03950987,
	-0.09236091,      0.36676419,     -0.22852214,      1.05544245,
	0.05090149,      0.33573931,     -0.38055944,     -0.10976460,
	-0.16460405,     -0.13996801,     -0.06013729,     -0.08190389,
	-0.03681265,      0.02014061,      0.00273095,     -0.06674397,
	-0.49724776,     -0.21474917,      0.04189715,      0.07042992,
	-0.02134581,     -0.21231885,     -0.26191863,      0.52707946,
	0.20065637,      0.13037540,      0.27571908,     -0.00522605,
	-0.76614618,     -0.00898371,      0.32744139,      0.00293208,
	0.20408630,     -0.15387180,      0.06205007,     -0.06518267,
	-0.13164651,      0.08222458,     -0.25368458,     -0.15895185,
	-0.85400867,     -0.16714366,      0.02624347,     -0.17331684,
	-0.15380915,     -0.03979426,      0.06992801,     -0.18989320,
	-0.21878807,     -0.20794088,     -0.52255028,     -0.18955566,
	0.27026793,      0.00240329,      0.10171031,      0.05062047,
	-0.21117817,      0.09021615,      0.01178007,     -1.69886243,
	-0.16258539,     -0.15868783,      0.23730485,      1.36116946,
	-0.07699058,     -0.15180807,     -0.20568092,      0.32287273,
	-0.10796490,     -0.04728990,     -0.04492801,      0.07405078,
	-0.04011554,     -0.06880009,     -0.19220109,     -0.16737032,
	-0.16014774,     -0.11964879,      0.07681704,      0.23847638,
	0.16554260,     -0.28202617,      0.06342520,     -0.76943970,
	0.07387153,     -0.11927978,     -0.85981607,     -0.28250560,
	-0.37653747,      0.18551077,      0.31116182,      0.49627382,
	-0.19035687,     -0.24684276,     -0.00607722,     -0.24690613,
	-0.02558264,      0.61370355,      0.23667334,      0.13840657,
	0.47114936,      0.28253064,      0.01778277,      0.17976898,
	-0.18206890,      0.19634609,      0.03631978,     -0.46231076,
	0.04275339,     -0.53990757,      0.21676594,     -0.00280502,
	0.15046354,     -0.31994501,     -0.16562901,     -0.30847248,
	-0.13333066,     -0.11487608,      0.52919888,     -0.18247984,
	0.23548236,      0.19404632,     -0.39724118,     -0.27011660,
	0.25187111,      0.48723477,     -0.06605372,     -0.12510981,
	0.16648482,      0.16823477,     -0.09581154,     -0.22244209,
	0.14069408,     -0.36476168,      0.31670231,      0.17137553,
	-0.19652894,     -0.73199356,     -0.32941380,      0.44649756,
	-0.11171138,      0.23078020,     -0.44332016,      0.30548090,
	0.12708795,     -0.13136908,     -0.32599673,      0.30858037,
	0.42942470,     -1.06245577,     -0.38717327,     -0.14391838,
	0.51058972,     -0.61718059,     -0.70206827,     -0.12101361,
	0.34040368,      0.00912127,     -0.95558929,      0.25130415,
	0.15955810,      0.06910073,      0.68441761,      0.29132006,
	-0.16300268,      0.10407028,     -0.04827643,      0.34203917,
	-0.42509407,     -0.76317036,      0.55626154,     -0.10998676,
	-0.17886488,      0.16724476,     -0.27559301,      0.08111138,
	-0.27252865,      0.06771738,     -0.08017675,     -0.30976543,
	0.01614315,     -0.05408361,      0.26648250,      0.07155864,
	-0.10315566,     -0.01424803,     -0.06759091,      0.21075487,
	0.05020678,     -0.21702239,      0.01124028,      0.27090982,
	-0.07689757,     -0.30501616,     -0.28666586,     -0.03608774,
	0.03290914,     -0.12361179,      0.14173733,      0.02213294,
	0.07426862,     -0.02458941,      0.02121208,     -0.13779835,
	-0.02860173,      0.19547358,     -0.18497612,      0.07898553,
	-0.14768629,      0.08272922,      0.07617568,      0.06724204,
	0.12988868,      0.07249232,      0.15527999,     -0.04706110,
	-0.22310734,     -0.07693803,      0.51740974,      0.18012917,
	0.36220118,      0.08330882,     -0.07670236,      0.18977156,
	0.33007127,      0.07393645,      0.62776393,     -0.47545785,
	0.18480852,      0.01820581,     -0.27324426,     -0.06605162,
	0.01109380,      0.60667437,     -0.39022818,     -0.14940251,
	-0.06236166,      0.78226161,      0.06732668,      0.13441269,
	-0.27090314,      0.50152493,     -0.07067575,      0.13146511,
	-0.01829522,      0.15034696,      0.09094548,     -0.18719929,
	0.06286179,     -0.13770826,      0.00814145,      0.05850841,
	-0.06428997,     -0.07767343,     -0.20100969,      0.20974328,
	-0.18198270,      0.05182810,      0.38977817,      0.12425961,
	0.08366330,     -0.95332855,     -0.08518908,      0.78481722,
	0.22593254,      0.01900914,     -0.00046674,      0.00546723,
	-0.03890383,      0.15821992,      0.01926535,      0.56242371,
	0.98324144,     -0.00401488,      0.43525198,     -0.27405575,
	-0.29094365,      0.04826524,      0.29116532,     -0.18089786,
	0.28276065,     -0.31386563,      0.09093127,     -0.05847617,
	-0.27414414,     -0.12841387,      0.21747212,     -0.11071334,
	0.43596956,      0.26596162,      0.02124339,      0.19505873,
	0.22235319,      0.06675238,     -0.35774690,      0.31759435,
	0.30749807,     -0.30433565,      0.11764076,      0.17311707,
	0.37696981,     -0.10102950,     -0.06113560,     -0.15193553,
	0.43109760,      0.12422419,      0.47790349,      0.60606569,
	-0.02926887,      0.31215096,     -0.64544004,     -0.38707480,
	0.96941072,      0.29415154,      0.03517204,      0.06003246,
	0.59135443,      0.18349209,      0.03385432,     -0.27408642,
	-0.17827401,     -0.25794637,     -0.12847766,      0.06666983,
	-0.22592413,      0.15996632,     -0.03005455,     -0.33856386,
	0.18678743,     -0.19431931,      0.06898773,      0.23934630,
	0.20169947,      1.14085436,      0.25072020,     -0.17710185,
	-0.11829635,      0.21096480,      0.12589911,     -0.23636401,
	0.28589347,      0.12334534,     -0.08276351,      0.30973992,
	0.21561274,      0.02424776,      0.09336494,     -0.04009005,
	0.39417911,     -0.29523116,      0.76805758,      0.41687545,
	-0.16888356,      0.07738743,     -0.20366108,      0.31380323,
	0.13745709,      0.10877591,     -0.10496378,      0.87859052,
	0.20568970,      0.03235358,      0.23793128,      0.43651962,
	-0.41233334,     -0.18753636,      0.49645689,      0.12275660,
	-0.09903404,      0.10161620,      0.07761484,     -0.08492775,
	-0.04295674,      0.43663770,     -0.28328592,     -0.26184690,
	0.11699985,     -0.00844113,     -0.26662737,      0.05805736,
	0.04519188,      0.69918221,     -0.08095440,     -0.29816765,
	-0.15240723,      0.18365379,     -0.31353182,      0.08439165,
	0.41902301,      0.46572617,      0.24286856,     -0.28539598,
	0.16910836,     -0.07835543,     -0.14130081,     -0.05365819,
	0.31548610,     -0.48651284,      0.66904485,     -0.05177463,
	-0.05311614,      0.20864254,     -0.02591371,     -0.00762436,
	0.49343941,      0.20823954,      0.24800189,      0.00729755,
	-0.10032482,     -0.14834177,      0.11636317,     -0.37973729,
	0.17235789,      0.12088084,      0.06902537,     -0.48603845,
	-0.85128748,     -0.08674172,     -0.18714626,     -0.08624901,
	0.17432927,     -0.25165236,     -0.26366216,     -0.00590581,
	-0.03030218,      0.19542256,     -0.20352806,     -0.14959638,
	0.07342231,      0.20495443,     -0.14176933,      0.17079866,
	0.22850952,     -0.55185485,      0.37204397,      0.06965351,
	0.21139716,     -0.23073266,     -0.43322060,      0.09138958,
	-0.10690509,     -0.22054118,     -0.09524805,     -0.03900614,
	-0.13222608,     -0.20132957,     -0.26985782,      0.08702438,
	-0.02112188,     -0.08629229,      0.26543745,      0.01725029,
	0.13919233,     -0.36055437,      0.08527442,      0.20378856,
	-0.00325021,     -0.13097481,     -0.10958851,      0.07442118,
	-0.60791302,      0.17720588,     -0.02479507,      0.07987632,
	-0.39598909,      0.22637701,     -0.01574937,     -0.20461206,
	-0.31429821,      0.39908531,     -0.23864500,      0.08833316,
	0.47624928,     -0.30730942,     -0.54354519,      0.02297916,
	-0.32368639,     -0.50443035,      0.00859938,      0.30596378,
	0.07542570,      0.47978917,      0.29954115,      0.04110702,
	-0.35149485,      0.09928567,      0.06657261,      0.41046917,
	0.18001214,     -0.17650567,      0.14045063,      0.07865921,
	0.04369229,     -0.08401038,      0.35453033,     -0.26272771,
	-0.30234125,      0.47406325,     -0.03319325,     -0.12089863,
	-0.15343198,      0.17150693,     -0.27878425,      0.23404223,
	-0.23679577,     -0.53093463,     -0.14655003,     -0.16536909,
	-0.15358946,     -0.63233542,     -0.29351944,     -0.12735376,
	-0.05019140,     -0.16829112,     -0.05992959,      0.58377653,
	-0.13874865,      0.19749969,      0.26513475,     -0.43933845,
	0.56769329,     -0.33661920,      0.60875845,      0.27664924,
	0.22804575,      0.25840646,     -0.19772935,     -0.09589823,
	-0.23683952,      0.24007210,      0.01816577,     -0.14846641,
	0.21941784,     -0.23850891,     -0.37114844,      0.08901725,
	0.14040701,      0.79978186,     -0.01829402,     -0.04955848,
	0.21017526,     -0.29847759,      0.18469061,      0.16622660,
	-0.07727704,     -0.15643023,     -0.21284811,     -0.02932957,
	-0.33096951,     -0.14836091,      0.10315593,      0.14269975,
	-0.02931052,     -0.19895032,      0.21178199,      0.21974277,
	0.01457787,     -0.15010990,     -0.16169241,     -0.31196719,
	0.12212239,     -0.10504079,     -0.18483974,     -0.15464900,
	-0.03915065,     -0.02629750,      0.27122959,     -0.03052987,
	0.00059347,      0.08506321,      0.03977747,      0.27397233,
	-0.60354388,     -0.73903549,     -0.41858658,      0.04557707,
	-0.21764559,      0.75274998,     -0.91137964,     -0.13458668,
	-0.05211602,     -0.07459132,      0.01055660,     -1.25687635,
	0.25369409,      0.15623501,     -0.76434958,     -0.14846960,
	0.46600685,      0.02564064,      0.25633222,     -0.05891196,
	0.13260198,     -0.09346728,     -0.11526735,     -0.25518632,
	-0.30497012,      0.23486835,      0.24871443,     -0.01936110,
	0.06164527,      0.06583322,     -0.16814519,      0.02284752,
	-0.07576146,     -0.07440482,      0.10230418,     -0.47143182,
	0.15864252,     -0.12224948,     -0.27388757,     -0.00105567,
	0.16558746,      0.11456391,     -0.86488664,     -0.12299516,
	0.13283768,     -0.70790333,      0.03514741,     -0.39770290,
	-0.08581395,     -0.36342266,      0.07680432,      0.38942441,
	-0.25157627,      0.19270128,      0.15786587,      0.30958900,
	0.17391050,      0.26950017,     -0.24689963,      0.13927983,
	-0.04733062,      0.02429218,      0.45684692,      0.13177945,
	-0.21752702,     -0.02732568,     -0.46251878,     -0.19212471,
	0.27803704,      0.06528381,     -0.07275248,      0.10010583,
	0.15585433,     -0.08337297,      0.12510189,     -0.31071824,
	0.32247618,      0.08694007,     -0.13389190,      0.10136925,
	0.11427919,      0.14031017,     -0.07027009,     -0.19375663,
	0.59163940,      0.05025120,     -0.41506538,      0.07561669,
	-0.35532618,      0.16790031,     -0.50658780,     -0.02499378,
	0.08026581,     -0.52584201,     -0.00738504,     -0.20226973,
	-0.17184928,      0.03234632,     -0.32142201,     -0.06242416,
	-0.40951848,     -0.02776244,     -0.04457288,     -0.30837056,
	-0.14578481,      0.07782029,     -0.05340634,     -0.50002104,
	-0.19615044,     -0.42384025,     -0.40739837,     -0.15565479,
	-0.00724229,     -0.15927099,      0.13975073,     -0.45242715,
	0.23984592,      0.12504348,     -0.43467695,     -0.68338120,
	-0.28068519,     -0.25083128,     -0.59678233,      0.15816113,
	0.35237446,     -0.07078233,     -0.09656449,     -0.03003906,
	-0.02283883,     -0.04199854,     -0.11282846,     -0.00116570,
	-0.22517253,     -0.23013815,      0.24143916,     -0.18036744,
	-0.07771020,      0.18245794,      0.02822587,     -0.36779687,
	0.15892027,      0.03724574,     -0.16824946,      0.01245321,
	-0.04267323,     -1.03778780,     -0.36951911,     -0.24541476,
	-0.30274588,      0.25507274,      0.19071996,     -0.26434904,
	0.28213090,     -0.46217594,     -0.16342923,     -0.06345484,
	-0.32822514,     -0.18895316,     -0.23137738,      0.06303666,
	-0.28425741,     -0.40944386,      0.64966333,     -0.15724035,
	-0.28815821,     -0.47741529,     -0.08347467,      0.42026892,
	-0.47583818,      0.08575419,      0.11802022,      0.29017818,
	-0.06446281,     -0.49338809,     -0.16910698,     -0.19259444,
	-0.08956365,     -0.06743139,     -0.63728362,      0.03589490,
	0.38423908,     -0.23576289,     -0.59061390,      0.84583765,
	-0.07587016,      0.35557488,      0.40098473,      0.05529272,
	-0.07191391,     -0.04684692,      0.03293608,     -0.15658274,
	0.23343587,      0.04607669,     -0.09988128,      0.01980746,
	-0.36086833,      0.05993665,      0.23005663,      0.13352653,
	-0.54434198,      0.43303564,      0.02693693,      0.06295589,
	0.13352568,      0.02162916,      0.09338371,      0.30744812,
	-0.17514269,      0.46846133,     -0.80380028,     -0.59194213,
	0.22267684,     -0.02266371,     -0.29366958,     -0.38875386,
	-0.26847842,      0.19832675,      0.36228284,     -0.05844383,
	0.39598247,     -0.02545902,     -0.52269018,      0.41607052,
	0.13862786,     -0.29863831,      0.00856183,      0.56956357,
	-0.27626148,     -0.38961861,      0.09815484,      0.13233909,
	0.61503679,      0.05840084,      0.16560197,      0.01771974,
	-0.02652553,      0.19562781,      0.13856405,     -0.39601165,
	0.23157224,      0.34083998,      0.19385405,      0.27565801,
	-1.11873066,      0.00394435,      0.03263813,      0.07584289,
	0.21824375,      0.55912417,      0.60547513,     -0.15448652,
	-0.58293015,     -0.25645819,      0.42252740,     -0.07876821,
	-0.52567822,     -0.00264414,     -0.49987558,      0.35634190,
	0.16613723,     -0.51260549,     -0.13746403,      0.22660363,
	-0.45956871,     -0.43389839,      0.05569677,      0.15859281,
	-0.13341942,      0.35107830,     -0.57976568,     -0.01694871,
	-0.09621578,      0.53227377,     -0.35180691,     -0.09193633,
	0.03014356,     -0.09605198,     -0.27605903,      0.27085888,
	-0.05045840,     -0.07927454,     -0.07896126,     -0.31402871,
	-0.19077961,      0.01389128,     -0.20223500,      0.40522411,
	0.08318094,     -0.15802759,     -0.21703017,     -0.08401454,
	0.08675715,     -0.52744567,      0.07385185,     -0.00466069,
	0.18703432,      0.82300133,     -0.22617106,     -0.29940975,
	0.57285535,     -0.05751660,     -0.15421380,      0.13185233,
	0.16282809,      0.07597743,     -0.08631041,      0.02788759,
	-0.04151870,     -0.10683980,     -0.28548738,     -0.27445358,
	0.63254678,      0.62842047,     -0.01579008,      0.09852526,
	0.13976251,     -0.20828934,      1.04744053,     -0.11881241,
	-0.20126036,      0.00906244,     -0.41352138,     -0.05130688,
	0.03400419,     -0.14634956,     -0.09980138,      0.15199633,
	0.05754465,     -0.12362713,      0.07582784,     -0.14776854,
	0.04194460,      0.97310144,      0.03847891,      0.34349433,
	0.35540187,     -0.51937187,     -0.36146876,      0.27459514,
	-0.36283463,      0.30596414,     -0.13920774,      0.20766945,
	-0.16633439,      0.09339710,      0.08258615,     -0.18866843,
	0.50998223,      0.12527047,     -0.09663869,     -0.20617725,
	0.31776038,      0.02313596,      0.02769287,     -0.36399651,
	-0.14062223,      0.17451522,     -0.27786347,     -0.20559742,
	-0.09128579,     -0.11919488,     -0.39872411,     -0.55517036,
	-0.55140322,      0.15898372,      0.49971655,      0.54633218,
	0.26304674,      0.05696316,     -0.29959938,      0.01761456,
	0.38483691,      0.24957667,     -0.28710151,     -0.01842902,
	-0.24663667,     -0.33006644,      0.16772011,      0.49856952,
	0.33222383,     -0.20853418,     -0.41487277,      0.17977332,
	-0.22551875,     -0.20143138,     -0.04421850,      0.71616441,
	0.08482077,      0.45168921,      0.06025404,      0.27580246,
	-0.25564036,      0.08356205,     -0.67329305,      0.17462127,
	0.16113362,     -0.09399863,      0.05646077,      0.12034708,
	-0.29202619,     -0.01299424,      0.02203202,      0.29366848,
	-0.08658732,      0.48456842,     -0.03985377,     -0.07142988,
	-0.21660618,      0.20044880,      0.22282682,     -0.44055921,
	0.65059030,     -0.14916673,     -0.17276035,      0.15961808,
	0.14780240,     -0.03501635,      0.29364341,     -0.05487561,
	0.16329479,      0.08301070,      0.38659525,     -0.26697493,
	0.22348119,     -0.44459793,      0.02978822,     -0.26421654,
	0.29027626,     -0.47293395,     -0.26664481,     -0.00087873,
	0.08303635,     -0.31107435,      0.14264838,      0.01063326,
	-0.06041269,     -0.13176149,     -0.46875694,     -0.00206838,
	-0.45040998,      0.35364145,      0.22123152,     -0.26443136,
	0.17745724,     -0.32152855,      0.16927390,     -0.30907893,
	0.04869750,     -0.25301054,     -0.28785869,     -0.20790638,
	-0.15962332,      0.24891941,     -0.02813722,     -0.00408998,
	0.18961400,     -0.04856014,      0.59102774,     -0.15249707,
	0.00368533,      0.27405539,      0.07802410,      0.13895075,
	0.70788908,      0.21800557,     -0.07656261,     -0.11766745,
	0.25366592,      0.19210137,     -0.02024706,     -0.07559762,
	-0.05053886,     -0.47565344,     -0.07911750,      0.01768414,
	0.11553112,     -0.06463093,     -0.11743107,     -0.11235871,
	-0.07063699,      0.23628567,      0.00748677,     -0.08227953,
	-0.15459895,     -0.16795556,     -0.04902842,     -0.01015875,
	-0.01273634,     -0.02432684,      0.33471131,     -0.02855200,
	-0.13678862,     -0.14797008,     -0.01231836,     -0.10482245,
	0.11381882,      0.00500090,     -0.03286310,     -0.27290383,
	0.32745135,     -0.00504432,     -0.12443451,     -0.11686163,
	-0.13519385,     -0.16094095,     -0.11472598,     -0.36972928,
	-0.01051199,      0.02628702,     -0.03577824,     -0.00740486,
	0.17318062,     -0.04043240,      0.16322729,     -0.00182942,
	0.22978960,     -0.20464630,      0.08555892,     -0.10428040,
	-0.04040286,     -0.30245581,     -0.05278564,     -0.13361931,
	0.28671524,     -0.10074218,     -0.08822538,     -0.06987865,
	-0.07044499,      1.40555215,     -0.01987889,     -0.04762606,
	-0.21907008,     -0.43031013,     -0.11836139,     -0.08377437,
	0.32505074,     -0.23346195,     -0.00068544,      0.03319143,
	-0.20240377,      0.08830174,     -0.07115779,      0.18797188,
	-0.14797866,     -0.07881466,     -0.01258944,      0.09116014,
	-0.03253921,     -0.29212475,      0.14509976,     -0.89292961,
	-0.24466772,      0.23861472,      0.19335338,     -2.29337764,
	-0.09738772,     -0.23330833,     -0.14851917,     -0.15340266,
	-0.00704240,     -0.04703359,     -0.02416839,      0.34124124,
	0.42879882,     -0.00233866,      0.17549023,      0.05141236,
	0.17385525,      0.60964894,      0.11777177,      0.26364070,
	-0.01230769,      0.10998254,     -0.06135876,     -0.17098573,
	0.19514123,     -0.12093850,      0.10239079,      0.57904249,
	0.06531204,      0.48468003,     -0.26208219,     -0.25987443,
	-0.26573408,     -0.07614180,      0.35009331,      0.06588397,
	0.20844714,      0.12888293,      0.05985951,      0.20192955,
	-0.52112448,      0.14221841,     -0.08875556,     -0.19580360,
	0.47745317,      0.17796630,     -0.03435885,      0.22317739,
	-0.30438629,      0.11001208,      0.05460875,      0.29950136,
	0.24895340,      0.06132853,     -0.47311097,      0.05285491,
	-0.04764361,      0.14702436,     -0.23643272,      0.14451863,
	0.11821911,     -0.13270110,      0.07467014,     -0.65825564,
	-0.57308537,     -0.18970720,     -0.30614713,      0.08250615,
	-0.11778021,     -0.01510081,     -0.64530855,     -0.00106142,
	0.10070505,     -0.17713563,      0.08834526,     -0.11090735,
	-0.20082124,     -0.03985763,      0.05962154,     -0.16213019,
	-0.33052921,     -0.00385008,      0.26219332,     -0.48690569,
	0.02150113,     -0.47548053,     -0.34135267,      0.07753924,
	0.09564492,      0.15272896,     -0.02577304,      0.45606297,
	0.12775610,     -0.20431383,      0.82306391,      0.06645720,
	-0.43415263,      0.08994395,     -0.73328173,     -0.08302452,
	-0.52686834,      0.07815400,      0.01580608,      0.18699113,
	0.50262803,     -0.56706643,      0.27951482,     -0.16612999,
	0.15639225,      0.59513700,      0.12396465,     -0.06381544,
	-0.01318171,     -0.91718030,      0.18629692,      0.05914422,
	0.15184760,     -0.05625928,     -0.12018027,     -0.25472653,
	-0.16423264,      0.16278948,      0.10172837,     -0.14243966,
	-0.04158568,      0.50734156,     -0.08422691,     -0.72863340,
	-0.18401384,      0.72083938,      0.59570223,      0.25375307,
	-0.24326606,      0.00777189,      0.21127281,     -0.05216094,
	-0.08839025,      0.09994691,     -0.24871437,     -0.17875661,
	0.43780321,      0.01359003,      0.23103629,      0.31979427,
	-0.19220364,     -0.26980022,      0.01339767,      0.29156256,
	-0.42449927,     -0.04385061,      0.70295417,      0.06053581,
	0.38554886,     -0.32314479,     -0.15870708,      0.15114024,
	0.32413486,     -0.22216506,      0.01283800,      0.01405361,
	-0.08799221,      0.27992985,     -0.15146585,      0.09969978,
	0.28864610,     -0.38155997,      0.12718847,     -0.21455693,
	-0.16545327,     -0.38957465,      0.17099853,     -0.14676602,
	-0.47005662,     -0.25481936,     -1.07937288,     -0.16613860,
	0.37505326,      0.02442997,      0.06270225,      0.19458783,
	-0.28531191,     -0.08009853,      0.04437034,      0.77102602,
	-0.17712192,     -0.04748651,     -0.05173193,     -0.31314746,
	0.14299588,     -0.27566519,     -0.49469742,      0.12486241,
	-0.24620436,     -0.06538263,     -0.04657850,      0.51037830,
	-0.09278575,     -0.06108508,     -0.26544166,     -0.23248775,
	-0.15020862,     -0.09355011,      0.22129036,      0.46659172,
	0.11531354,     -0.04355772,     -0.15441276,      0.16058806,
	-0.11465587,     -0.35999104,      0.18548280,      0.36367980,
	0.31894597,     -0.06242482,     -0.03513114,      0.36643055,
	-0.08415177,      0.30841240,     -0.15348370,      0.01040692,
	0.12046938,      0.16191736,      0.19852164,      0.15367331,
	-0.06268521,     -0.44206160,      0.04800116,     -0.10889311,
	0.22011693,     -0.15634891,     -0.19037041,      0.05312711,
	0.25147656,     -0.09908091,      0.45949009,      0.45152110,
	-0.11090163,      0.31682393,     -0.20827085,     -0.15015040,
	-0.24989524,      0.29549739,     -0.19605494,      0.08999731,
	0.09885418,     -0.15387914,     -0.25181556,      0.07742148,
	-0.00124848,     -0.11660159,     -0.30775279,      0.00971957,
	0.05273987,      0.18554148,      0.10199609,     -0.08511243,
	0.35881186,      0.62328720,      0.22765818,      0.08464935,
	0.00675472,     -0.79134512,     -0.00977781,      0.13527739,
	0.08781264,     -0.39738515,     -0.18707700,      0.15587264,
	-0.12014514,     -0.45640796,      0.09735761,      0.18759294,
	0.52271754,      0.28147179,     -0.15683243,      0.31928149,
	0.32561657,      0.21293207,     -0.10517950,     -0.12442654,
	0.13695528,     -0.11928649,      0.12992312,      0.09216335,
	-0.06341536,      0.44746304,     -0.21574184,      0.16515726,
	0.50959492,     -0.52626437,     -0.53910053,     -0.36926451,
	-0.03016371,      0.40245634,      0.24271876,      0.19870797,
	-0.15643851,      0.36303440,      0.03861456,      0.08463291,
	0.27694824,      0.03262781,      0.17426395,      0.20928524,
	0.30136797,      0.52160603,      0.19480674,     -0.20669739,
	0.35606191,      0.38185847,     -0.23618440,      0.40303555,
	-0.22925712,     -0.06860108,      0.01894974,     -0.51902688,
	0.00097472,      0.01290362,     -0.46662641,     -0.10819704,
	-0.55406833,      0.16712999,     -0.02135524,     -0.26867419,
	-0.12505753,      0.35613370,     -0.14290366,     -0.43280685,
	-0.69674700,      0.01025702,     -0.16923308,      0.30030343,
	0.22764029,      0.32489443,      0.24017373,      0.24856076,
	-0.36885870,     -0.14479505,      0.43008977,      0.27177006,
	0.24330577,     -0.03360588,     -0.32779342,     -0.03276985,
	-0.00997476,     -0.20408063,      0.13351864,      0.60975832,
	0.16882971,      0.44867024,     -0.46425736,      0.13923346,
	0.04890792,      0.18563120,     -0.44839877,      0.38727105,
	0.20832042,      0.00500538,      0.22468260,     -0.10482220,
	-0.33085701,      0.09897205,      0.11819782,      0.28510815,
	0.03024436,     -0.31931931,     -0.36295250,      0.34786442,
	0.52336514,     -0.09029410,     -0.11827608,      0.12081976,
	0.33506769,      0.42426890,     -0.26211393,     -0.13542852,
	0.09336039,      0.20478565,     -0.65285015,      0.28188977,
	0.32161012,      0.29514310,     -0.50360727,     -0.07903218,
	0.06258652,     -0.06968603,      0.24513298,      0.10811872,
	0.38398162,     -0.20279728,      0.21907695,     -0.18819015,
	-0.51298761,      0.05268787,      0.18931919,     -0.30953893,
	-0.05089917,      0.25289425,      0.27365491,      0.04073518,
	0.36374238,     -0.00473161,     -0.10099518,     -0.08983267,
	0.36267501,      0.33019614,     -0.38068223,     -0.27743870,
	0.16928604,      0.13755436,      0.13248363,     -0.25561917,
	-0.21401766,      0.11599485,     -0.20868073,      0.89206570,
	-0.10007031,     -0.10389710,     -1.40396225,      0.10768128,
	-0.33829075,      0.27157021,      0.13817772,     -0.16258851,
	-0.15078972,      0.01915118,     -0.10335141,     -0.28330091,
	-1.12614739,      0.13454099,      0.07359468,      0.18477783,
	-0.08023045,     -0.39544228,      0.23976561,     -1.16363263,
	0.64881057,     -0.01762922,      0.17593753,     -0.01900417,
	0.41365492,     -0.06243186,     -0.38334495,      0.12214396,
	0.18703447,     -0.06083622,     -0.08110692,      0.05068735,
	-0.20924838,      0.13995010,     -0.21386321,      0.39946723,
	0.74201679,      0.11081076,      0.05373964,     -0.28576395,
	-0.22335178,     -0.40677559,      0.03998004,      0.00817756,
	-0.06426232,     -0.16419849,     -0.06375912,     -0.00116106,
	0.24851662,     -0.32367954,     -0.02304695,      0.02637210,
	-0.39008111,      0.25178441,     -0.15881063,     -0.56827879,
	-0.27385873,      0.29912314,     -0.32866263,     -1.09760463,
	0.33776605,     -0.40889388,      0.28093198,     -0.06288387,
	-0.36847162,     -0.12779412,     -0.34521142,      0.00924846,
	-0.10360052,     -0.26029885,     -0.34738556,     -0.38419795,
	-0.09456572,     -0.21887223,      0.18460247,      0.23847061,
	-0.12559436,     -0.16967295,      0.09664336,      0.53439444,
	0.21579063,     -0.29738644,      0.22665390,     -0.47807011,
	-0.16086830,      0.28356364,      0.08395423,     -0.03423825,
	-0.07751729,      0.23041713,      0.28873906,     -0.56924313,
	0.09255040,      0.33028546,      0.08127022,     -0.03963549,
	-0.30551273,     -0.92943180,      0.08586721,      0.45377487,
	0.54855895,      0.24199213,      0.20054911,      0.37442601,
	-0.23465234,      0.22752254,     -0.34599271,     -0.73097908,
	0.07525710,     -0.16880320,      0.19118771,      0.29821026,
	-0.18205108,      0.60345489,      0.15412056,      0.14607829,
	-0.10654262,      0.18177554,      0.52308077,      0.10745224,
	-0.00402616,     -0.23385678,      0.01881816,     -0.46481103,
	0.32291520,     -0.39745775,     -0.27467272,      0.12179658,
	-0.05431537,     -0.41439825,      0.00135387,      0.23112763,
	-0.02604188,     -0.21351239,     -0.00157435,      0.05166926,
	0.46733540,     -0.23477329,      0.22983558,      0.35461167,
	-0.70658821,     -0.21666043,      0.03609893,      0.15212904,
	0.57200789,      0.13741153,      0.16221301,     -0.48785517,
	-0.02921033,      0.78535640,      0.30230603,     -0.09519570,
	0.07483195,      0.27291343,     -0.22933434,      0.09443457,
	0.44940159,     -0.43399680,      0.45596623,     -0.12010787,
	-0.55703098,      0.08499478,      0.02284147,      0.20885882,
	0.33764163,      0.15207319,      0.00258071,      0.48400602,
	-0.31223968,     -0.07494059,      0.15435576,      0.15940212,
	0.38233620,     -0.12476589,      0.18629064,     -0.54958177,
	0.37461901,      0.20557356,     -0.12296180,      0.29789999,
	-0.27424568,      0.36046597,      0.32082218,     -0.04226323,
	0.27668929,     -0.05510693,      0.03475080,      0.34619328,
	-0.07688317,      0.29102066,     -0.09830593,     -0.06796848,
	0.49605158,      0.17531769,      0.21329783,      0.11164250,
	0.00185868,      0.24141058,      0.05010695,     -0.03437679,
	0.02334646,     -0.02598793,     -0.12620294,      0.28508145,
	0.30665746,     -0.28718361,     -0.06264011,      0.02570681,
	0.22482932,     -0.05816773,     -0.26917598,     -0.02637586,
	0.17710857,      0.31098610,     -0.15046401,     -0.06819254,
	0.31878629,      0.48022786,      0.04783369,     -0.15970853,
	-0.09866970,      0.18735720,      0.28667492,      0.73774898,
	-0.39444214,     -0.06101639,     -0.06326176,      0.19391282,
	-0.21630630,     -0.22334959,      0.72830993,     -0.01398399,
	-0.03863363,      0.02740985,     -0.22743815,      0.03862608,
	-0.04361698,     -0.12415861,      0.04556249,      0.07674214,
	0.35640648,     -0.06731858,      0.12199069,      0.28372636,
	0.03277773,      0.83260661,     -0.10093074,      0.16210917,
	-0.05363156,      0.33397624,      0.16410761,     -0.04122776,
	0.19654608,      0.08481690,      0.02768207,      0.13072908,
	0.08254315,     -1.23704863,      0.24699838,      0.00061614,
	0.00744634,      0.13103919,      0.02412476,     -0.07610922,
	0.23247783,     -0.36716992,     -0.03323429,     -0.03920820,
	-0.32405862,      0.09009953,     -0.30068496,      0.55678582,
	-0.49032676,      0.27948502,      0.29256198,     -0.18432286,
	-0.39689264,     -0.59105468,      0.24184410,      0.30159679,
	-0.37920192,      0.17805238,     -0.16091435,     -0.12796301,
	0.27593735,      0.23075674,      0.03412989,      0.06013986,
	-0.36986050,      0.07158956,     -0.10231057,     -0.21349263,
	0.41597313,     -0.60031569,     -0.26394269,      0.20673646,
	-0.62511086,      0.13288037,     -0.46495372,      0.06921741,
	-0.29138675,     -0.56028390,     -0.08055478,     -0.12978192,
	-0.29946348,      0.40801519,     -0.86130440,     -0.34512052,
	-0.23627527,      0.21202658,     -0.40712789,      0.23164117,
	0.08062179,     -0.13992301,      0.09732362,      0.38380575,
	0.10628112,     -0.03545873,     -0.11045370,     -0.05729071,
	-0.05922179,     -0.27570546,     -0.00154694,     -0.53888202,
	-0.01669494,     -0.02667956,     -0.01864002,      0.36908239,
	0.22804874,     -0.18353873,      0.05559588,     -0.19247341,
	-0.38061535,     -0.44839975,     -0.33408684,     -0.14559585,
	0.43018308,      0.30419183,      0.24499927,     -0.24758159,
	0.55933237,      0.04961564,     -0.13688251,      0.07636203,
	0.39188153,     -0.47992349,      0.97646952,     -0.38383654,
	-0.41044950,      0.33072174,     -0.14212029,     -0.15288626,
	-0.03187120,      0.04881330,      0.02459927,     -0.18366036,
	0.09909473,      0.23990200,      0.48426783,      0.46328574,
	-0.54505384,     -0.03187387,     -0.10126238,     -0.09520885
};


// Parameters for BN in Project Conv layer Weight shape =  torch.Size([24])
const float MBConv6_1_project_conv_BN_weights [24] =
{
	7.85839081, 7.36945724, 6.56513739, 3.61498809, 7.31651974, 7.94128990,
	6.45348406, 7.27842188, 7.32958698, 7.12022638, 7.35956860, 7.95781994,
	7.81873322, 7.24384308, 6.38366842, 6.33865023, 6.42290163, 7.01932383,
	6.39344406, 6.79005814, 6.89980984, 7.67701960, 6.09330940, 8.21198559
};

const float MBConv6_1_project_conv_BN_bias[24] =
{
	0.01375309, -0.00221147, -0.00436426, -0.00370543, -0.00304813,
	-0.00399828, -0.00065652, -0.00375699,  0.00531717,  0.00234899,
	0.00016778,  0.00652240, -0.00618136,  0.00334307,  0.00248649,
	0.00201821, -0.00436412, -0.00596241,  0.00087329,  0.00288786,
	0.00066407, -0.00438642, -0.00139700, -0.00186375

};

const float MBConv6_1_project_conv_BN_mean [24] =
{
	-2.13603282,  -2.71008277, -13.88525009,   0.30310625, -13.41420269,
	-9.62375927,   4.48765993,  19.80072212,   1.71099150,   5.35259724,
	-8.67500210,  -3.59152699,  -6.92597771,  -3.20662618,  -0.64812845,
	-5.89869070,   3.39164519,  -0.67147905,   6.83005285,  -4.77288103,
	-6.19263458,   2.15302205,   6.20433855,   1.04186201
};

const float MBConv6_1_project_conv_BN_variance [24] =
{
	49.16905594,  42.16875839,  24.48481560,   7.17173862,  64.46263123,
	49.26406860,  20.15226936,  42.43414688,  25.79723549,  27.35179710,
	36.15453720, 144.03495789,  40.96250916,  31.01130104,  31.18706322,
	66.36499786,  26.02508545,  45.82859802,  20.80558777,  22.09529686,
	54.12658310,  39.19802475,  19.91445160,  41.45181274
};
