
// weight for Expansion Convolution layer has dimension of  torch.Size([1, 1, 96, 16])
extern float MBConv6_1_squeeze_excitation1_conv2d_weights [1 * 1 * 96 * 4] =  
{
	-0.11043216,     -0.03226454,     -0.02904214,      0.02842568,
	0.03357706,      0.01497263,     -0.02842082,     -0.08189046,
	0.01269281,      0.02248290,     -0.00464733,     -0.02537464,
	-0.01012499,      0.00073188,     -0.01499121,     -0.14652981,
	-0.04741903,      0.01043720,     -0.05731498,     -0.05794553,
	0.02620968,     -0.03162339,     -0.01802554,     -0.11537113,
	-0.08381268,      0.04315303,     -0.02871949,     -0.03785635,
	-0.01897111,     -0.02854242,     -0.04709039,     -0.01953575,
	-0.10521587,      0.04346483,     -0.03881764,     -0.02385578,
	0.08493928,     -0.11050535,      0.01341812,     -0.02659399,
	-0.04393064,     -0.02426944,     -0.05020363,     -0.02464125,
	-0.05611040,      0.01914895,     -0.01692957,     -0.02106147,
	0.03247406,      0.01234592,      0.01025330,      0.04675948,
	0.09281564,     -0.02953104,     -0.05348847,      0.04281856,
	-0.00105449,     -0.05052416,      0.00233638,     -0.08384548,
	-0.08221782,     -0.09330030,     -0.00963355,     -0.02928070,
	-0.09730146,      0.02280921,      0.02288145,     -0.02253709,
	0.04201237,     -0.05465861,     -0.00132150,     -0.05875099,
	-0.06542198,     -0.11938478,     -0.01998516,     -0.01715774,
	-0.04837967,      0.03409543,      0.00450029,      0.03381274,
	0.02767503,     -0.03812557,      0.11210610,     -0.05948802,
	-0.02235258,     -0.00189874,     -0.05321009,     -0.10095360,
	-0.01502684,     -0.05777299,     -0.09613902,     -0.10585251,
	0.01136162,      0.08557846,     -0.03031855,      0.03145831,
	0.03081563,     -0.07826704,     -0.13376090,      0.12277498,
	0.01971960,      0.00196927,      0.06134154,     -0.01927097,
	0.16410212,      0.02906979,      0.10705957,     -0.22127876,
	0.00640428,     -0.10405876,     -0.07429961,     -0.04047984,
	-0.02409026,      0.01962869,      0.21115416,     -0.04750551,
	0.03277206,      0.00950175,      0.01297378,     -0.29596490,
	0.08534398,      0.00440067,     -0.03062865,      0.01907728,
	0.00152049,     -0.00978579,     -0.06990696,     -0.04759835,
	0.01957519,      0.04757771,      0.03444940,     -0.04015530,
	-0.04888945,      0.08101099,     -0.18429545,      0.00977971,
	0.00172367,      0.16719890,     -0.01762991,      0.00254185,
	0.04104903,      0.12007703,      0.02332261,     -0.04760859,
	-0.03491052,     -0.00608832,     -0.00154918,     -0.07302485,
	0.02937980,      0.04584898,      0.15811032,      0.04943882,
	-0.06081594,     -0.03158299,      0.03741731,     -0.25820744,
	0.01441876,      0.04572296,      0.10480863,      0.12909168,
	-0.21872520,     -0.10055131,     -0.01337217,      0.10441153,
	0.02582819,      0.10414919,     -0.01778376,      0.05708703,
	-0.31221560,      0.12309909,     -0.00084092,     -0.02928202,
	-0.26231581,      0.03947941,      0.01124389,     -0.01883083,
	0.01196363,     -0.09295589,     -0.11770026,      0.02527419,
	-0.00578562,      0.00295948,      0.04255358,      0.03099618,
	-0.02769170,      0.12773363,     -0.36743879,      0.03080061,
	-0.00505192,     -0.00422955,      0.01830009,     -0.04327061,
	-0.01947010,     -0.02909735,     -0.04044347,      0.08063249,
	0.04181632,      0.02077453,      0.03479946,     -0.11232738,
	0.07904162,     -0.01239061,      0.05675054,      0.00739043,
	-0.01389807,     -0.03085483,     -0.06215592,     -0.22821338,
	-0.04728872,     -0.00509793,      0.10924482,     -0.11837836,
	0.07601370,     -0.04128563,     -0.04981788,     -0.20415765,
	-0.12183778,      0.04380663,     -0.08787367,     -0.03949731,
	0.04982055,     -0.01022871,     -0.03785784,      0.05348654,
	-0.00573495,      0.00621774,      0.02353409,      0.01143959,
	0.04482681,     -0.09091360,      0.07749530,     -0.13005351,
	0.06501663,      0.09811927,     -0.17166378,      0.03072826,
	-0.02113161,      0.04012042,      0.03032932,      0.06530485,
	-0.03657792,     -0.04915189,     -0.01800427,      0.07220773,
	0.11892654,      0.12774569,      0.08394282,      0.06205552,
	0.03006718,     -0.00625264,      0.12074870,     -0.12976703,
	-0.08539258,     -0.38591582,      0.03162229,      0.00997167,
	-0.07889897,      0.03271146,      0.04510721,      0.03475443,
	0.04066714,      0.04315617,      0.03837832,     -0.03970181,
	-0.04958012,     -0.09823491,      0.00301121,     -0.03106997,
	-0.16065897,      0.01234312,      0.07977412,      0.10692421,
	0.04316216,      0.02387319,      0.11245533,     -0.25561869,
	0.05253537,      0.00783038,      0.04344641,     -0.44322234,
	0.11286255,      0.00654558,     -0.13886476,     -0.15556392,
	-0.06585068,      0.11940315,      0.02672334,      0.15962511,
	0.02554167,     -0.04899259,     -0.00801857,     -0.07115326,
	0.00563970,      0.02248696,     -0.06016957,     -0.01115974,
	0.11158460,      0.01538567,      0.07887082,      0.05488040,
	-0.02564407,     -0.06677454,     -0.03425790,     -0.06157008,
	-0.02377568,      0.05053992,      0.09193700,     -0.06459728,
	0.04810382,     -0.01464279,      0.02172799,     -0.14768894,
	-0.25381052,     -0.01221245,     -0.03364788,     -0.12608367,
	-0.01750007,     -0.08388385,     -0.07928731,      0.10760573,
	0.03609838,      0.04275461,      0.00260591,     -0.02317613,
	0.02107764,     -0.27919117,     -0.03898948,     -0.02607774,
	0.00973988,      0.10693626,     -0.04611971,     -0.00673337,
	0.03284739,      0.05985698,      0.00900400,     -0.04510846,
	0.03118375,      0.03643557,      0.00338102,      0.00948984,
	-0.01312201,      0.00897684,      0.12762211,      0.01216746,
	-0.03186939,     -0.02936339,      0.06243603,     -0.03601986,
	-0.18091477,      0.02664883,     -0.03154355,     -0.07749478,
	0.04255285,     -0.06162984,     -0.00644668,      0.02190307,
	0.03562470,     -0.10490258,      0.02039214,      0.02149802,
	0.06746199,      0.03595242,     -0.02404040,     -0.04741758,
	0.00577303,     -0.00972110,     -0.02163158,      0.01329604,
	-0.04572729,      0.13735418,     -0.01599528,      0.01893564,
	0.08158158,      0.00110502,     -0.00937432,      0.03543563,
	0.01468064,     -0.13486390,     -0.01945533,     -0.24849339,
	-0.02156136,      0.01459870,     -0.00544088,     -0.00006239

};

// weight for Squeeze Excitation2 layer  has dimension of  torch.Size([1, 1, 96, 4])
extern float MBConv6_1_squeeze_excitation2_conv2d_weights [1 * 1 * 4 * 96] =  
{
	-0.06499085,  0.15009329,  0.15204023,  0.22940853, -0.12563278,
	-0.02368019,  0.00925317, -0.01778148, -0.12866654, -0.21819107,
	-0.18860637, -0.07403132,  0.07980049,  0.24522814,  0.05283468,
	0.06642658, -0.04676784, -0.14476269, -0.02687707, -0.15366407,
	-0.05286029, -0.11429155, -0.02828401, -0.12543944, -0.21789697,
	-0.08791905, -0.20603757, -0.28186670, -0.14019425, -0.09647128,
	-0.25030449, -0.06561666, -0.21160752, -0.00305869, -0.06486977,
	-0.05221265, -0.19331616, -0.40064418, -0.15933739, -0.32129923,
	-0.35931933, -0.09706920, -0.20575877, -0.13716941, -0.13399984,
	-0.33111027, -0.13838194, -0.07297192, -0.11515315, -0.09065411,
	-0.11802986, -0.19787052, -0.18651883, -0.10562514, -0.14474045,
	-0.25116181, -0.16869053, -0.25407386, -0.24436776, -0.18321823,
	-0.17564975, -0.11048093, -0.33166826, -0.10126278, -0.16730279,
	-0.29935497, -0.22358596, -0.14079890, -0.05510391, -0.03301072,
	-0.05838805, -0.04078103, -0.34873185, -0.69516987, -0.49515080,
	-0.42002752, -0.05461490,  0.11188040,  0.04321488,  0.07889204,
	0.00995845,  0.07597470,  0.00400505,  0.18998045, -0.15692340,
	0.08390819,  0.05599529,  0.04531920, -0.09931589,  0.01640007,
	-0.03706283,  0.04825452, -0.15098119, -0.43180534, -0.60026139,
	-0.17772053, -0.14625466, -0.00990965, -0.26787120, -0.26110378,
	-0.10181981, -0.22262484, -0.05552647, -0.23995712, -0.07737596,
	-0.13242866, -0.20102899, -0.10018856, -0.13524149,  0.02586577,
	-0.18054990, -0.19741498, -0.17693353, -0.29084486, -0.14133674,
	-0.10431997, -0.18657358, -0.01923968, -0.15909937, -0.28347626,
	0.03440345, -0.03255783,  0.02477954,  0.14405474, -0.21066487,
	-0.41428411, -0.11631638, -0.06048205, -0.26172090, -0.00982967,
	-0.24684498,  0.05105130, -0.12836684, -0.14303552,  0.02576131,
	-0.12561688, -0.18437478, -0.16818208, -0.14708723, -0.13251102,
	-0.26764247, -0.35563847, -0.25622350, -0.25362381,  0.07733723,
	0.11026654,  0.08015958,  0.10513335, -0.25096291, -0.13497257,
	-0.35187504, -0.34743261, -0.17385979, -0.25584099, -0.28149331,
	-0.23333754,  0.10357143,  0.19388174,  0.25998306,  0.20616987,
	-0.07345580,  0.04619515,  0.06161199,  0.08218136, -0.10718008,
	0.08081894, -0.03145921,  0.03293926,  0.00316233, -0.13706701,
	-0.04099287, -0.13017902, -0.05962414,  0.06531644, -0.03300986,
	-0.06665862,  0.02211291,  0.15243861,  0.11936986,  0.11438296,
	-0.02926806,  0.04667289,  0.00688808,  0.05635174, -0.09485548,
	0.03071221,  0.00523171,  0.01256331, -0.11674567,  0.02155204,
	-0.04106658, -0.17006654, -0.03853125,  0.07661612,  0.02249063,
	-0.07888971, -0.09870830, -0.24461442, -0.01832766, -0.05308110,
	-0.04124823, -0.02821493, -0.11593106, -0.03329566, -0.00783074,
	0.17492287, -0.01662154,  0.07466374, -0.28090003, -0.48268569,
	-0.20087597, -0.34086499, -0.13944174,  0.04738006, -0.10168069,
	-0.03248855, -0.36110178, -0.74778354, -0.50315005, -0.42748985,
	-0.08828378, -0.18481630, -0.01853604, -0.18239135, -0.10824170,
	-0.04755943,  0.14512609, -0.10627846, -0.14583054, -0.17652521,
	-0.17164503, -0.23054601, -0.05416946,  0.15526374,  0.00340902,
	0.08135325, -0.09590646, -0.27153930, -0.15405720, -0.05676498,
	-0.12921664, -0.06782036, -0.19484231, -0.17922235,  0.08621261,
	0.12814757, -0.20616476,  0.09565646, -0.10559121,  0.04548863,
	-0.03337545, -0.08469691, -0.26161215, -0.39961901, -0.23714425,
	-0.33334008, -0.16820441, -0.21186543, -0.17846911,  0.23763961,
	-0.06908691, -0.06687081,  0.05266557, -0.14780246, -0.02550177,
	-0.03181200,  0.02699005,  0.06335441, -0.19572879, -0.38487729,
	-0.17574778, -0.24661121,  0.10575322,  0.05720378, -0.07970376,
	0.09498222, -0.26040134,  0.10741959, -0.15009990, -0.39876583,
	-0.05473570,  0.17887877,  0.00377231,  0.00360846, -0.20286056,
	-0.15109141, -0.19837661, -0.07577375, -0.17937596, -0.44223994,
	-0.29263130, -0.09109354, -0.24905804, -0.04629631, -0.20195453,
	-0.03062245, -0.17935237,  0.11370953, -0.05441703, -0.19520834,
	-0.03215705,  0.15476881,  0.07637860,  0.15399510, -0.15119404,
	-0.36792779, -0.21470171, -0.10089654, -0.10366814, -0.17196080,
	-0.06940322, -0.24796471,  0.01732312, -0.00984086, -0.01055345,
	-0.02749679,  0.01973762,  0.09595836,  0.09814635,  0.14784151,
	-0.07858130, -0.10379084, -0.06038746, -0.15603386, -0.26848063,
	-0.48099184, -0.25087255, -0.16429868,  0.01737987,  0.10275736,
	0.06294843,  0.05506916, -0.01541962,  0.12654744, -0.20425989,
	0.10218104, -0.26900458, -0.43155041, -0.19854456, -0.15223278,
	-0.11889988, -0.21730883,  0.12990768, -0.18295838, -0.17650953,
	-0.02521392, -0.03303369, -0.05692950, -0.20464809,  0.18551411,
	-0.78224385,  0.13063477, -0.12846233,  0.00241504, -0.12315287,
	-0.04643850, -0.25692746,  0.02812113, -0.24992795, -0.34956369,
	-0.12283414, -0.32871878, -0.23681884, -0.05294164, -0.16576667,
	-0.09537227, -0.24645694, -0.23139235,  0.07517149, -0.00450026,
	-0.06638845,  0.00572991, -0.25436258, -0.43749815, -0.16561012,
	-0.29942617, -0.23967995, -0.23145092, -0.24698536, -0.18536888,
	-0.05367821, -0.03413851, -0.15218790, -0.04924265
};


// Bias for Squeeze Excitation1 layer has dimension of  torch.Size([4])
extern float MBConv6_1_squeeze_excitation1_conv2d_bias [4] =  
{
	-0.00087910, -0.01054079,  0.00148692, -0.00528905
};


// Bias for Squeeze Excitation2 layer has dimension of  torch.Size([96])
extern float MBConv6_1_squeeze_excitation2_conv2d_bias [96] =  
{
	0.13241000,  0.28302780, -0.32238802,  0.54686898, -0.25123039,
	0.44384897, -0.00408327,  0.07006910, -0.13142994, -0.42605028,
	-0.08507202, -0.36915845, -0.35675645, -0.18334557, -0.37235817,
	0.02789861, -0.47025311,  0.56498909, -0.55782801,  0.04869487,
	0.06477496,  0.61580461,  0.33716601,  0.05410647, -0.28522536,
	-0.54114211,  0.17459776, -0.07774715,  0.10865421, -0.25841069,
	0.53605187, -0.24976411, -0.12673643, -0.03060267, -0.43019760,
	-0.25904793,  0.28426701, -0.34093040,  0.08043464, -0.28172123,
	-0.15317282, -0.13235585,  0.24296565, -0.15377247, -0.01562080,
	0.25592113, -0.12038444,  0.09443767,  0.22726524, -0.12343861,
	0.11338245,  0.01110110, -0.47970667, -0.18413399, -0.59176505,
	-0.33357146,  0.37970573,  0.39355302, -0.20509179, -0.35761654,
	-0.34401500,  0.15805322, -0.11882768, -0.59772915,  0.07356770,
	-0.12762541,  0.18134448, -0.53576744,  0.36106092, -0.18831341,
	0.03772767, -0.12586591, -0.31966537,  0.06647504, -0.22979069,
	0.41839862, -0.43260825, -0.47744569,  1.19192135,  0.02200104,
	-0.13506454, -0.36006531,  0.50084716,  0.02021959, -0.31246662,
	0.15552659, -0.15274693,  0.05464745,  0.10412233, -0.23931143,
	-0.33691326, -0.32771805,  0.46053705, -0.42589140, -0.32954887,
	-0.00175649
};
