
// weight for stem layer has dimension of  torch.Size([3, 3, 32, 3])
const float Stem_conv2d_weights [ 3 * 3 * 3 * 32] =
{

-0.44029024,     -0.29287776,      0.02766298 ,
-0.15981521,     -0.17372496,      0.02141384 ,
0.08229638,      0.05628144,     -0.00991758  ,

-0.45601228,     -0.34027702,     -0.10828447 ,
-0.24133573,     -0.30744100,     -0.10971095 ,
0.00506638,     -0.05851716,     -0.02971993  ,

-0.21768649,     -0.16560611,      0.10240459 ,
0.01564693,     -0.12643558,      0.07168049 ,
0.05879250,     -0.02399347,      0.04234243   ,


-0.01619415,     -0.01711141,      0.08219241 ,
-0.00185710,      0.02041649,      0.04015055 ,
0.07158703,      0.57411355,     -0.01690427  ,

0.07790639,     -0.03465094,      0.01312793 ,
0.01705928,     -0.03357919,      0.00013856 ,
0.15666558,      0.78753197,      0.09805764  ,

-0.03749885,     -0.00905153,     -0.08519990 ,
-0.01306540,      0.19104150,      0.00930075 ,
-0.24466933,      0.67055553,     -0.05914659   ,


-0.66844457,     -0.71437377,     -0.26318660 ,
0.63472337,      0.66868895,      0.29122919 ,
0.04318310,      0.04754843,     -0.02926594  ,

-1.22760475,     -1.44090557,     -0.39147747 ,
1.20169306,      1.32704329,      0.52664590 ,
0.06771321,      0.01062635,     -0.12724906  ,

-0.26440158,     -0.25672576,     -0.07960661 ,
0.24319971,      0.32635304,      0.08037860 ,
-0.01034584,     -0.01761356,     -0.02453005   ,


-0.60806525,     -1.18038356,     -0.69000173 ,
-0.43450624,     -1.00198984,     -0.58964139 ,
0.17995545,     -0.09121496,     -0.02120140  ,

0.10549593,      0.24228297,      0.18585710 ,
0.05107271,      0.21935937,      0.22347376 ,
-0.06028033,      0.03616049,      0.01937445  ,

0.49586108,      0.92550480,      0.50611842 ,
0.35603267,      0.75249445,      0.36852109 ,
-0.12627572,      0.04721566,      0.01821008   ,


-0.05086867,     -0.28614900,     -0.20151147 ,
-0.58932912,     -0.17512548,      0.07828123 ,
-0.16833562,      0.11225589,      0.09592555  ,

-0.27799699,     -0.64479846,     -0.23728903 ,
-0.94790298,     -0.38011467,      0.18235795 ,
-0.24814679,      0.02839644,      0.05158781  ,

-0.04310772,     -0.08729948,     -0.03988283 ,
-0.14118055,     -0.10749526,      0.00693661 ,
-0.15570821,     -0.14034021,     -0.03945836   ,


-0.27626863,     -0.20162579,     -0.07213340 ,
-0.67520404,     -0.71450186,     -0.22207493 ,
0.94848996,      0.91335911,      0.33059514  ,

-0.32440552,     -0.28415179,     -0.05914529 ,
-1.26705623,     -1.38675249,     -0.37081590 ,
1.52831829,      1.57976770,      0.48839289  ,

-0.10434197,     -0.10707006,     -0.02541634 ,
-0.32836106,     -0.34395519,     -0.09762050 ,
0.46353427,      0.47748768,      0.07630781   ,


-0.21011162,     -0.11440751,      0.14785697 ,
-0.43441927,     -0.51959312,     -0.23727639 ,
0.64521277,      0.71821302,      0.05955908  ,

-0.47989523,     -0.25323564,      0.28941354 ,
-0.73032713,     -0.95664865,     -0.55952162 ,
1.20896494,      1.32339096,      0.15931453  ,

-0.11851647,     -0.07884876,      0.07226133 ,
-0.17135073,     -0.23385401,     -0.18880829 ,
0.30986089,      0.36455166,      0.05057331   ,


0.09253322,      0.08505280,      0.04265768 ,
-0.38863572,     -0.34581310,      0.08323216 ,
0.00116190,     -0.03419347,      0.08162357  ,

-0.16155726,     -0.05545018,     -0.07942048 ,
-0.42802650,     -0.37703353,     -0.02329069 ,
-0.19462675,     -0.12542662,     -0.19810738  ,

0.03444587,      0.02562416,      0.02969973 ,
-0.15272404,     -0.14929317,     -0.00423645 ,
0.01440582,      0.00921447,      0.00826779   ,


-0.89817709,     -1.07771170,     -0.25557202 ,
0.87823284,      1.03450942,      0.37152645 ,
0.07085665,     -0.01306837,     -0.14170127  ,

-1.68508530,     -1.99899554,     -0.59687173 ,
1.67829919,      1.98615956,      0.77249664 ,
0.02744634,      0.05545870,     -0.19317397  ,

-0.43343771,     -0.59212732,     -0.13074005 ,
0.45052755,      0.47068515,      0.20846245 ,
0.02286155,      0.00681190,     -0.01876141   ,


0.76974815,      0.31473172,     -1.06549811 ,
0.98429590,      0.21921277,     -1.22880816 ,
0.56182921,     -0.12979177,     -0.46520194  ,

1.21250236,      0.32711616,     -1.59047353 ,
1.51508248,      0.24100929,     -1.74422622 ,
0.91629648,     -0.11867323,     -0.76500446  ,

0.48217902,      0.22006045,     -0.78547657 ,
0.69636083,      0.18949413,     -0.85981876 ,
0.30049247,     -0.12873933,     -0.12331180   ,


-0.36530298,      0.62723899,     -0.34807900 ,
-0.19149207,      1.12231922,     -0.88351637 ,
-0.11427335,      0.61799109,     -0.46366781  ,

-0.45655718,      1.03401077,     -0.62450659 ,
-0.22206172,      1.60160232,     -1.30270672 ,
-0.12570918,      0.72127879,     -0.61362350  ,

-0.24349971,      0.41359565,     -0.20460387 ,
-0.16891046,      0.63206458,     -0.39450434 ,
-0.12199743,      0.27898917,     -0.22730079   ,


-0.23642701,     -0.36268264,     -0.17894390 ,
-0.20956019,     -0.36110458,     -0.14790308 ,
-0.02081923,     -0.03242233,     -0.00378949  ,

-0.46475789,     -0.71229488,     -0.32916954 ,
-0.36643693,     -0.60634071,     -0.25215191 ,
0.00037659,     -0.01856709,      0.00046497  ,

-0.10763332,     -0.18421242,     -0.10395640 ,
-0.06749666,     -0.15333270,     -0.08053330 ,
-0.00899741,     -0.00391291,     -0.00955547   ,


-0.19633329,     -0.11926872,     -0.02186388 ,
0.74587488,      0.85646319,      0.17276180 ,
-0.61838573,     -0.63391048,     -0.16003036  ,

-0.11289692,     -0.06872760,      0.00296679 ,
1.21779382,      1.37429833,      0.28478476 ,
-1.08924568,     -1.23311639,     -0.39840868  ,

-0.14801718,     -0.09491307,     -0.02069257 ,
0.39943692,      0.48445556,      0.05101170 ,
-0.24713901,     -0.23186420,     -0.13060024   ,


0.53635323,     -0.43778253,     -0.06185322 ,
0.66165549,     -0.75338989,      0.07383522 ,
0.28082582,     -0.31458104,      0.05057088  ,

1.01501918,     -0.97484529,     -0.14516230 ,
1.37560856,     -1.41847062,     -0.02711601 ,
0.45118716,     -0.50427985,      0.10606527  ,

0.25657609,     -0.18570505,     -0.00303356 ,
0.29820314,     -0.25461245,     -0.01807402 ,
0.04089927,     -0.08038537,      0.01459710   ,


0.35509294,     -0.00190283,     -0.34806132 ,
0.00057604,      0.21077877,     -0.28267571 ,
-0.21278644,      0.11801013,      0.11499903  ,

0.66269642,      0.18706051,     -0.90501952 ,
-0.01676709,      0.66644841,     -0.63853765 ,
-0.33725849,      0.28278500,      0.15420224  ,

0.13361265,      0.03462973,     -0.20687969 ,
-0.00243807,      0.07615466,     -0.09119243 ,
-0.03720666,      0.09258533,     -0.00218444   ,


0.42204815,      0.96237856,      0.48594514 ,
0.74265993,      0.99353814,      0.57190090 ,
0.44341114,      0.54557997,      0.31362513  ,

-0.67344189,     -0.77664536,     -0.52704906 ,
-0.62983215,     -1.05335450,     -0.54202211 ,
-0.35073462,     -0.59543478,     -0.11285707  ,

0.20733438,      0.10352194,     -0.08982109 ,
0.11401364,     -0.13797051,     -0.07224007 ,
0.06571651,     -0.05435582,      0.15925592   ,


-0.32981440,     -0.12756293,     -0.18577315 ,
-0.28152591,     -0.53989518,     -0.15905334 ,
-0.25484875,     -0.31089172,      0.28571963  ,

0.49112043,      0.88739753,      0.31801873 ,
0.97701514,      0.69211739,      0.39140618 ,
0.45824018,      0.33773232,      0.33994651  ,

-0.28929707,     -0.23068705,     -0.25127903 ,
-0.25381586,     -0.56412005,     -0.24111906 ,
0.01469378,     -0.26672739,      0.19888645   ,


0.06424331,      0.24668521,      0.37058797 ,
0.15252683,      0.43351755,      0.50901604 ,
0.03136655,      0.16390805,      0.19431016  ,

-0.12574373,      0.14627568,      0.26068380 ,
-0.11275582,      0.22550586,      0.27903023 ,
-0.12948239,     -0.03995705,     -0.08455987  ,

0.01048612,     -0.07780787,     -0.12933627 ,
-0.06353642,     -0.05415853,     -0.14663270 ,
0.07551231,      0.02583734,     -0.06617308   ,


0.62878907,      0.41973516,     -0.03822581 ,
1.18383276,      0.87349492,      0.06252223 ,
0.63083160,      0.46238503,     -0.00467728  ,

-0.23145516,     -0.11546123,      0.02594402 ,
-0.28576788,     -0.24380404,     -0.05125614 ,
-0.21708122,     -0.17914540,      0.01806302  ,

-0.43929362,     -0.23178360,      0.04523510 ,
-0.87635136,     -0.63540989,     -0.01926079 ,
-0.38876879,     -0.27223635,      0.01413794   ,


-0.05538113,      0.01846276,     -0.12122516 ,
0.08950662,      0.13909858,      0.01053979 ,
-0.06802716,     -0.00588867,     -0.03512769  ,

-0.03662058,      0.00996756,     -0.13282828 ,
0.08390875,      0.11779027,      0.00255795 ,
-0.12445041,     -0.05329790,     -0.08922723  ,

0.16926296,      0.19805267,      0.18288665 ,
0.22510932,      0.16940971,      0.22432022 ,
0.19449721,      0.19079791,      0.18429846   ,


0.12143151,      0.10802709,     -0.03780970 ,
0.18744324,     -0.03230793,      0.00911144 ,
0.00966989,     -0.08892208,      0.10962497  ,

-0.67658037,     -0.61223793,     -0.45103455 ,
-0.76656491,     -1.01722300,     -0.56368804 ,
-0.56001234,     -0.66167951,     -0.15882431  ,

0.46281165,      0.84460181,      0.48010305 ,
0.84663272,      0.90422052,      0.58939165 ,
0.68123358,      0.64656198,      0.48188865   ,


0.03116417,     -0.05332763,     -0.05512523 ,
0.33686784,      0.35742754,      0.02480967 ,
0.30426082,      0.26490605,     -0.02423206  ,

0.04321339,      0.00664441,     -0.06582557 ,
0.47065902,      0.53277618,      0.05732110 ,
0.31878895,      0.28987610,     -0.03844709  ,

-0.00774709,     -0.01726754,      0.02347722 ,
0.09888478,      0.17554975,      0.03748318 ,
0.01132723,      0.00411818,     -0.12423541   ,


-0.01180022,      0.07067924,      0.00361385 ,
0.01980781,      0.14458019,      0.07474776 ,
-0.01988028,      0.08209319,     -0.04648598  ,

0.43444929,      0.29408872,      0.24483469 ,
0.23146060,      0.14088733,      0.06780266 ,
0.13676010,      0.07074906,     -0.06871659  ,

-0.52072203,     -0.73268396,     -0.33289090 ,
-0.73230964,     -0.86912405,     -0.46540007 ,
-0.28393549,     -0.28668123,     -0.10766461   ,


-0.38629475,     -0.44977283,     -0.27730364 ,
-0.47182310,     -0.67562926,     -0.36288744 ,
-0.35039109,     -0.44387305,     -0.25260088  ,

0.26237324,      0.17516905,      0.21648082 ,
0.14914277,     -0.07894872,      0.09058432 ,
0.23876378,      0.16461083,      0.16869478  ,

0.11603265,      0.18431674,      0.14308242 ,
0.10230093,      0.04929115,      0.09440942 ,
0.10570538,      0.16889051,      0.09106170   ,


-0.44327331,      0.44760627,      0.06107091 ,
-0.73035270,      0.70893717,     -0.00629366 ,
-0.29666266,      0.31090817,     -0.09379358  ,

-0.96669012,      0.86804312,      0.14195947 ,
-1.48272324,      1.32394743,      0.02879125 ,
-0.42184323,      0.56224179,     -0.12118743  ,

-0.27100232,      0.29113483,      0.01702042 ,
-0.36087033,      0.42671284,     -0.01720589 ,
-0.13436808,      0.14466490,     -0.02259324   ,


0.03546996,      0.34207401,     -0.00152543 ,
0.05286062,      0.14089273,     -0.00311747 ,
-0.02062089,     -0.09333089,     -0.02375240  ,

0.14728482,      0.71903992,      0.02355986 ,
0.12600327,      0.46704599,     -0.01333834 ,
-0.11095912,     -0.08715177,     -0.11115594  ,

-0.00987672,      0.14154546,     -0.08974013 ,
0.02330739,      0.06327841,     -0.04840205 ,
0.02771876,     -0.08466893,      0.01604050   ,


-0.00022096,      0.25770828,      0.05298284 ,
-0.03500400,      0.08964818,      0.03227631 ,
-0.01958950,     -0.01522177,      0.02343971  ,

0.08355314,      0.23667532,     -0.02880655 ,
0.01813720,      0.04650718,     -0.05192892 ,
0.04953308,     -0.03870608,      0.05975180  ,

0.10288005,      0.34330636,     -0.10969371 ,
0.03657718,      0.16361849,     -0.05881400 ,
0.03723306,     -0.00562270,     -0.01941243   ,


-0.17022741,     -0.25862539,     -0.02742153 ,
-0.05419175,     -0.06692376,      0.01860955 ,
0.08988264,      0.11276254,     -0.01686108  ,

-0.59052956,     -0.61396426,     -0.18570250 ,
-0.37993976,     -0.26764354,      0.01101435 ,
0.06071757,      0.21298964,      0.06995655  ,

-0.12352800,     -0.24144462,     -0.07475408 ,
-0.06687464,     -0.07974186,      0.03489173 ,
-0.05364426,      0.02489682,     -0.01740093   ,


0.57146114,      0.55737889,      0.52117199 ,
0.62223965,      0.58455902,      0.41515055 ,
0.51541585,      0.46825150,      0.39374474  ,

-0.26615092,     -0.33291674,     -0.20726012 ,
-0.20473972,     -0.26723468,     -0.23851889 ,
-0.23702252,     -0.26565635,     -0.15999418  ,

-0.21386312,     -0.28826851,     -0.15959413 ,
-0.27164721,     -0.30859753,     -0.21742517 ,
-0.28862822,     -0.25527799,     -0.12858285   ,


0.01024007,      0.04646147,     -0.00172992 ,
0.11587107,     -0.00316083,     -0.04021542 ,
-0.00657769,      0.10491633,      0.01671792  ,

0.10003873,      0.11721582,      0.04221933 ,
0.85149616,      0.38510182,     -0.03889194 ,
0.00975756,      0.03290362,      0.01526114  ,

0.05049163,     -0.07239226,      0.10258859 ,
0.40776229,      0.02491059,     -0.10217389 ,
-0.11227501,     -0.15199950,      0.00204669 ,


-0.05631749,     -0.48230147,      0.09661204 ,
-0.02588799,     -0.21888511,      0.07385645 ,
-0.01032581,      0.15322116,      0.06255811  ,

-0.10421728,     -1.11667085,      0.19638051 ,
-0.12516198,     -0.65662837,      0.22622670 ,
0.03550107,      0.23618591,      0.19735511  ,

-0.09477039,     -0.20917630,      0.06537553 ,
-0.08376463,     -0.07706572,      0.06670383 ,
-0.06700541,      0.07675547,      0.00896384   ,


0.44180933,      0.48937735,     -0.13752513 ,
0.57541281,      0.72692376,      0.00646125 ,
0.21551305,      0.42073035,     -0.05489926  ,

-0.07220554,     -0.11165609,      0.04107893 ,
-0.15430093,     -0.15805712,     -0.05919911 ,
-0.10536833,     -0.14084403,      0.06410901  ,

-0.22417459,     -0.32647145,      0.07052034 ,
-0.41542020,     -0.50976789,      0.02061768 ,
-0.12854369,     -0.27358726,      0.00776015

};

// Parameters for BN in stem layer Weight shape =  torch.Size([32])

const float Stem_BN_weights [32] =
{
	2.99857426,  4.84100056,  3.40824080,  0.44379863,  0.31269392,
	3.99411488,  1.26977754,  2.09640050,  0.12123316,  7.02981615,
	1.41287553,  4.83511782,  2.34593248,  1.79631901,  0.77198094,
	1.98972690,  1.69407809,  0.91034520,  0.81786168, -1.83457327,
	1.29837728,  0.34023148,  2.36629272,  4.89258957,  1.83855426,
	-0.61577815,  2.32694340,  2.86349177,  4.27568436,  1.52016354,
	1.58002293,  2.45503211
};

const float Stem_BN_bias [32] =
{
	-4.58293629, -8.64424992,  2.17235613,  1.40936625,  0.08615541,
	2.49046898,  1.92653477, -2.66214252, -0.04731198,  1.83682621,
	2.57081246, 11.58619022,  1.94378889,  2.02590060,  1.65971601,
	2.47055650,  3.96190166, -1.29856420,  2.70476389, -1.51691365,
	1.28501856, -2.73559117, -0.85935736, -3.70938635,  2.13113737,
	2.37521029, -3.96652102,  8.39529514,  3.48642087, -2.03351808,
	5.09061337,  4.25148201
};


const float Stem_BN_mean [32] =
{
	0.06770273,     -0.06226993,     -0.00300203,     -0.05056658,
	0.11603921,     -0.00129268,     -0.00306592,      0.05207691,
	-0.00505530,      0.00057441,      0.00080000,      0.12978694,
	-0.00320849,     -0.00182808,      0.00009506,     -0.06467115,
	0.04551347,     -0.04885456,      0.03727405,     -0.07590939,
	-0.18045181,     -0.07505182,      0.16258827,      0.02688958,
	-0.00084962,     -0.03584519,     -0.04057029,      0.06991459,
	0.01170421,     -0.04341613,      0.04679683,      0.02113434
};


const float Stem_BN_variance [32] =
{
	10.23418808,  6.68839455,  2.41192412, 11.78972054, 25.23144341,
	4.85536194,  2.51096368,  6.55377388,  5.09183931, 11.76653957,
	2.58753061, 32.54518890,  2.30558300,  2.00904536,  0.73121333,
	9.37289906,  4.60813999,  6.97636366,  9.73828316,  3.49970746,
	10.56763363, 11.92807674, 12.45616341,  6.28718519,  2.13660598,
	3.77232552,  2.07015991,  9.59743500,  9.52905941,  5.01353312,
	5.03642988,  3.94356608
};
